/* Species # 036         : (size= 003) (AvfFit= 1734,754) (Age= 234,000)  */
/*-------------------------------------------------------------------*/
/* Organism # 000 Fitness:  1197,560 Error:  1000,000                      */
genomestart  0
trait 1 3.1716786746006695 0.725749451205806 2.1845647836656106 2.167197757587064 1.815110172036098 0.0 0.0 0.4757550050574233 
node 1 1 1 1
node 2 1 1 1
node 3 1 1 1
node 4 1 1 1
node 5 1 1 1
node 6 1 1 1
node 7 1 1 1
node 8 1 1 1
node 9 1 1 1
node 10 1 1 1
node 11 1 1 1
node 12 1 1 1
node 13 1 1 1
node 14 1 1 1
node 15 1 1 1
node 16 1 1 1
node 17 1 1 1
node 18 1 1 1
node 19 1 1 1
node 20 1 1 1
node 21 1 1 1
node 22 1 1 1
node 23 1 1 1
node 24 1 1 1
node 25 1 1 1
node 26 1 1 1
node 27 1 1 1
node 28 1 1 1
node 29 1 1 1
node 30 1 1 1
node 31 1 1 1
node 32 1 1 1
node 33 1 1 1
node 34 1 1 1
node 35 1 1 1
node 36 1 1 1
node 37 1 1 1
node 38 1 1 1
node 39 1 1 1
node 40 1 1 1
node 41 1 1 1
node 42 1 1 1
node 43 1 1 1
node 44 1 1 1
node 45 1 1 1
node 46 1 1 1
node 47 1 1 1
node 48 1 1 1
node 49 1 1 1
node 50 1 1 3
node 51 1 0 0
node 52 1 0 0
node 53 1 0 0
node 54 1 0 0
node 55 1 0 0
node 56 1 0 0
node 57 1 0 0
node 58 1 0 0
node 59 1 0 0
node 60 1 0 0
node 61 1 0 0
node 62 1 0 0
node 63 1 0 0
node 64 1 0 0
node 65 1 0 0
node 66 1 0 0
node 67 1 0 0
node 68 1 0 0
node 69 1 0 0
node 70 1 0 0
node 71 1 0 0
node 72 1 0 0
node 73 1 0 0
node 74 1 0 0
node 75 1 0 0
node 171 1 0 2
node 172 1 0 2
node 173 1 0 2
node 174 1 0 2
node 175 1 0 2
node 176 1 0 2
node 177 1 0 2
node 178 1 0 2
node 179 1 0 2
node 180 1 0 2
node 181 1 0 2
node 182 1 0 2
node 183 1 0 2
node 184 1 0 2
node 185 1 0 2
node 186 1 0 2
node 187 1 0 2
node 188 1 0 2
node 189 1 0 2
node 190 1 0 2
node 193 1 0 0
node 195 1 0 0
node 212 1 0 0
node 217 1 0 0
node 230 1 0 0
node 244 1 0 0
node 291 1 0 0
node 297 1 0 0
node 300 1 0 0
node 321 1 0 0
node 325 1 0 0
node 334 1 0 0
node 341 1 0 0
node 416 1 0 0
node 433 1 0 0
node 436 1 0 0
node 447 1 0 0
node 464 1 0 0
node 511 1 0 0
node 537 1 0 0
node 566 1 0 0
node 588 1 0 0
node 629 1 0 0
node 636 1 0 0
node 663 1 0 0
node 693 1 0 0
node 698 1 0 0
node 703 1 0 0
node 711 1 0 0
node 712 1 0 0
node 721 1 0 0
node 731 1 0 0
gene  1 28 51 2.924690554913486 0 9527.0 2.924690554913486 1
gene  1 33 51 -0.8537447274130933 0 9532.0 -0.8537447274130933 1
gene  1 36 51 1.5641612288660502 0 9535.0 1.5641612288660502 1
gene  1 40 51 0.827789513896724 0 9539.0 0.827789513896724 1
gene  1 42 51 22.629467707064798 0 9541.0 22.629467707064798 1
gene  1 54 51 4.0780298057571045 1 9553.0 4.0780298057571045 1
gene  1 57 51 0.9657634556324026 1 9556.0 0.9657634556324026 1
gene  1 68 51 1.014164708439339 1 9567.0 1.014164708439339 1
gene  1 174 51 1.8113212173232127 1 9673.0 1.8113212173232127 1
gene  1 183 51 0.4361363131507212 1 9682.0 0.4361363131507212 1
gene  1 184 51 -2.752262191981243 1 9683.0 -2.752262191981243 1
gene  1 189 51 2.7249572864055107 1 9688.0 2.7249572864055107 1
gene  1 3 52 1.7437188742117826 0 9692.0 1.7437188742117826 1
gene  1 6 52 22.423822203594103 0 9695.0 22.423822203594103 1
gene  1 24 52 -2.4007932738425146 0 9713.0 -2.4007932738425146 1
gene  1 29 52 -0.7924448868755557 0 9718.0 -0.7924448868755557 1
gene  1 31 52 1.6759496566431094 0 9720.0 1.6759496566431094 1
gene  1 35 52 -1.0241738355627987 0 9724.0 -1.0241738355627987 1
gene  1 63 52 -0.059731817109369145 1 9752.0 -0.059731817109369145 1
gene  1 179 52 1.8779727896551197 1 9868.0 1.8779727896551197 1
gene  1 183 52 -1.562225410034649 1 9872.0 -1.562225410034649 1
gene  1 184 52 -8.673783625373165 1 9873.0 -8.673783625373165 1
gene  1 185 52 1.6119045751969248 1 9874.0 1.6119045751969248 1
gene  1 5 53 -2.279374609682593 0 9884.0 -2.279374609682593 1
gene  1 6 53 -5.183072064009465 0 9885.0 -5.183072064009465 1
gene  1 10 53 -5.784654846489036 0 9889.0 -5.784654846489036 1
gene  1 33 53 -0.5684140463393483 0 9912.0 -0.5684140463393483 1
gene  1 35 53 -15.58753023702505 0 9914.0 -15.58753023702505 1
gene  1 38 53 -0.13238776528263596 0 9917.0 -0.13238776528263596 1
gene  1 45 53 9.251255495486138 0 9924.0 9.251255495486138 1
gene  1 71 53 9.012581244156209 1 9950.0 9.012581244156209 1
gene  1 16 54 -3.650617277797596 0 10085.0 -3.650617277797596 1
gene  1 19 54 9.733057945681104 0 10088.0 9.733057945681104 1
gene  1 36 54 6.348389091053278 0 10105.0 6.348389091053278 1
gene  1 42 54 1.6225064801241942 0 10111.0 1.6225064801241942 1
gene  1 58 54 0.5287597553885437 1 10127.0 0.5287597553885437 1
gene  1 62 54 0.02247257198789665 1 10131.0 0.02247257198789665 1
gene  1 73 54 0.05105880567686982 1 10142.0 0.05105880567686982 1
gene  1 177 54 -0.8731173320840524 1 10246.0 -0.8731173320840524 1
gene  1 180 54 12.52888846244201 1 10249.0 12.52888846244201 1
gene  1 190 54 1.7629017073686044 1 10259.0 1.7629017073686044 1
gene  1 20 55 2.2956193807074428 0 10279.0 2.2956193807074428 1
gene  1 31 55 -0.6824498756174152 0 10290.0 -0.6824498756174152 1
gene  1 35 55 -3.600122424966014 0 10294.0 -3.600122424966014 1
gene  1 41 55 2.362563356917722 0 10300.0 2.362563356917722 1
gene  1 47 55 -6.066519354539119 0 10306.0 -6.066519354539119 1
gene  1 52 55 -1.2054933445442504 0 10311.0 -1.2054933445442504 1
gene  1 69 55 -0.5777934734318219 1 10328.0 -0.5777934734318219 1
gene  1 75 55 7.949556251937692 1 10334.0 7.949556251937692 1
gene  1 187 55 10.443948400095342 1 10446.0 10.443948400095342 1
gene  1 7 56 3.0874282435328526 0 10456.0 3.0874282435328526 1
gene  1 11 56 0.6999823055919813 0 10460.0 0.6999823055919813 1
gene  1 13 56 -1.7422532902475345 0 10462.0 -1.7422532902475345 1
gene  1 36 56 -6.483830061136691 0 10485.0 -6.483830061136691 1
gene  1 41 56 -1.2613338452108147 0 10490.0 -1.2613338452108147 1
gene  1 44 56 -3.675799153647459 0 10493.0 -3.675799153647459 1
gene  1 46 56 -11.163836247043607 0 10495.0 -11.163836247043607 1
gene  1 49 56 5.542432349713243 0 10498.0 5.542432349713243 1
gene  1 68 56 -2.8316531779235463 1 10517.0 -2.8316531779235463 1
gene  1 179 56 -0.22984488342317644 1 10628.0 -0.22984488342317644 1
gene  1 183 56 1.5494450690143966 1 10632.0 1.5494450690143966 1
gene  1 3 57 2.230886147852758 0 10642.0 2.230886147852758 1
gene  1 19 57 2.1165980279864374 0 10658.0 2.1165980279864374 1
gene  1 22 57 4.138818104863256 0 10661.0 4.138818104863256 1
gene  1 28 57 7.27217202741522 0 10667.0 7.27217202741522 1
gene  1 30 57 1.8659605800953063 0 10669.0 1.8659605800953063 1
gene  1 35 57 3.8947497205849975 0 10674.0 3.8947497205849975 1
gene  1 47 57 0.2072677310656852 0 10686.0 0.2072677310656852 1
gene  1 59 57 4.843289609115599 1 10698.0 4.843289609115599 1
gene  1 60 57 -1.258987921447669 1 10699.0 -1.258987921447669 1
gene  1 187 57 -2.016190814387983 1 10826.0 -2.016190814387983 1
gene  1 5 58 -1.41282536105356 0 10834.0 -1.41282536105356 1
gene  1 14 58 1.102977561629909 0 10843.0 1.102977561629909 1
gene  1 15 58 -0.1698341641283434 0 10844.0 -0.1698341641283434 1
gene  1 24 58 9.827490961670435 0 10853.0 9.827490961670435 1
gene  1 32 58 -14.240301986281267 0 10861.0 -14.240301986281267 1
gene  1 43 58 -5.363799383260548 0 10872.0 -5.363799383260548 1
gene  1 49 58 -0.1125071517712164 0 10878.0 -0.1125071517712164 1
gene  1 53 58 2.003207290140407 0 10882.0 2.003207290140407 1
gene  1 62 58 3.0272479264038354 1 10891.0 3.0272479264038354 1
gene  1 64 58 7.427664435508731 1 10893.0 7.427664435508731 1
gene  1 69 58 -3.764241794808852 1 10898.0 -3.764241794808852 1
gene  1 182 58 2.750074613668357 1 11011.0 2.750074613668357 1
gene  1 1 59 -1.0437177947667944 0 11020.0 -1.0437177947667944 1
gene  1 4 59 -8.88423594069679 0 11023.0 -8.88423594069679 1
gene  1 27 59 4.320244547317177 0 11046.0 4.320244547317177 1
gene  1 34 59 0.01834795907302844 0 11053.0 0.01834795907302844 1
gene  1 37 59 -2.3042584303925047 0 11056.0 -2.3042584303925047 1
gene  1 44 59 1.9195605836435798 0 11063.0 1.9195605836435798 1
gene  1 59 59 -0.4500938677365156 1 11078.0 -0.4500938677365156 1
gene  1 73 59 -6.276370299153703 1 11092.0 -6.276370299153703 1
gene  1 75 59 -1.2509688304808737 1 11094.0 -1.2509688304808737 1
gene  1 183 59 0.38344965358482974 1 11202.0 0.38344965358482974 1
gene  1 185 59 -0.5159118471518886 1 11204.0 -0.5159118471518886 1
gene  1 8 60 -9.78245102456112 0 11217.0 -9.78245102456112 1
gene  1 10 60 -0.44533785676606763 0 11219.0 -0.44533785676606763 1
gene  1 40 60 5.3590784548190875 0 11249.0 5.3590784548190875 1
gene  1 45 60 0.8016879014900005 0 11254.0 0.8016879014900005 1
gene  1 61 60 -2.246426460860551 1 11270.0 -2.246426460860551 1
gene  1 72 60 -2.7380036598035895 1 11281.0 -2.7380036598035895 1
gene  1 177 60 1.9610780791690967 1 11386.0 1.9610780791690967 1
gene  1 179 60 1.8547898397729934 1 11388.0 1.8547898397729934 1
gene  1 187 60 0.8917889339240307 1 11396.0 0.8917889339240307 1
gene  1 7 61 7.621666698361372 0 11406.0 7.621666698361372 1
gene  1 15 61 -0.11309251030436146 0 11414.0 -0.11309251030436146 1
gene  1 22 61 -1.7251804944638305 0 11421.0 -1.7251804944638305 1
gene  1 28 61 5.681859915528462 0 11427.0 5.681859915528462 1
gene  1 36 61 20.936358722269336 0 11435.0 20.936358722269336 1
gene  1 53 61 -4.653900512941897 0 11452.0 -4.653900512941897 1
gene  1 54 61 -2.0840633298414706 0 11453.0 -2.0840633298414706 1
gene  1 67 61 -6.139828916002843 1 11466.0 -6.139828916002843 1
gene  1 177 61 5.936184897733317 1 11576.0 5.936184897733317 1
gene  1 184 61 -17.782031308322825 1 11583.0 -17.782031308322825 1
gene  1 6 62 4.557066131764069 0 11595.0 4.557066131764069 1
gene  1 11 62 -5.589807738080653 0 11600.0 -5.589807738080653 1
gene  1 15 62 -7.967647351965043 0 11604.0 -7.967647351965043 1
gene  1 26 62 -4.402863233058515 0 11615.0 -4.402863233058515 1
gene  1 53 62 -2.603718462905764 0 11642.0 -2.603718462905764 1
gene  1 68 62 -6.658695288172919 1 11657.0 -6.658695288172919 1
gene  1 72 62 5.880740622814988 1 11661.0 5.880740622814988 1
gene  1 174 62 9.471918684948276 1 11763.0 9.471918684948276 1
gene  1 175 62 1.6027315363710053 1 11764.0 1.6027315363710053 1
gene  1 184 62 -1.7962381103318366 1 11773.0 -1.7962381103318366 1
gene  1 185 62 0.855419003629741 1 11774.0 0.855419003629741 1
gene  1 188 62 4.257412400486539 1 11777.0 4.257412400486539 1
gene  1 31 63 -12.12446287668175 0 11810.0 -12.12446287668175 1
gene  1 32 63 7.503951335111914 0 11811.0 7.503951335111914 1
gene  1 37 63 -8.605777601987263 0 11816.0 -8.605777601987263 1
gene  1 38 63 -0.6593536988793427 0 11817.0 -0.6593536988793427 1
gene  1 42 63 -1.8029253727453154 0 11821.0 -1.8029253727453154 1
gene  1 46 63 2.412271301314788 0 11825.0 2.412271301314788 1
gene  1 48 63 3.165372394109279 0 11827.0 3.165372394109279 1
gene  1 50 63 -0.6210902113212111 0 11829.0 -0.6210902113212111 1
gene  1 60 63 8.425418708512295 0 11839.0 8.425418708512295 1
gene  1 63 63 4.21441653684666 1 11842.0 4.21441653684666 1
gene  1 72 63 -1.780915104436755 1 11851.0 -1.780915104436755 1
gene  1 74 63 -4.974856607701758 1 11853.0 -4.974856607701758 1
gene  1 178 63 -6.419893509126183 1 11957.0 -6.419893509126183 1
gene  1 180 63 0.10138750779558225 1 11959.0 0.10138750779558225 1
gene  1 181 63 4.782029053174716 1 11960.0 4.782029053174716 1
gene  1 8 64 -0.567357393663829 0 11977.0 -0.567357393663829 1
gene  1 11 64 -0.5401703563686815 0 11980.0 -0.5401703563686815 1
gene  1 20 64 -9.23917952418238 0 11989.0 -9.23917952418238 1
gene  1 27 64 1.9074599741648286 0 11996.0 1.9074599741648286 1
gene  1 41 64 -11.741519708529498 0 12010.0 -11.741519708529498 1
gene  1 44 64 0.17903303278367988 0 12013.0 0.17903303278367988 1
gene  1 49 64 -4.811890793878806 0 12018.0 -4.811890793878806 1
gene  1 50 64 -0.643733458992729 0 12019.0 -0.643733458992729 1
gene  1 53 64 2.8057083733186836 0 12022.0 2.8057083733186836 1
gene  1 59 64 7.3115268949402745 0 12028.0 7.3115268949402745 1
gene  1 70 64 5.290870470260039 1 12039.0 5.290870470260039 1
gene  1 176 64 -1.2270517568949675 1 12145.0 -1.2270517568949675 1
gene  1 179 64 -0.3460530557258046 1 12148.0 -0.3460530557258046 1
gene  1 183 64 1.630399302119485 1 12152.0 1.630399302119485 1
gene  1 184 64 0.5161286950430694 1 12153.0 0.5161286950430694 1
gene  1 185 64 -1.0584772775221607 1 12154.0 -1.0584772775221607 1
gene  1 8 65 12.958132437282327 0 12167.0 12.958132437282327 1
gene  1 13 65 -0.6642047594174265 0 12172.0 -0.6642047594174265 1
gene  1 18 65 -1.2400216401036899 0 12177.0 -1.2400216401036899 1
gene  1 39 65 -1.181779096810101 0 12198.0 -1.181779096810101 1
gene  1 53 65 -2.7003009345576596 0 12212.0 -2.7003009345576596 1
gene  1 69 65 2.020110686989357 1 12228.0 2.020110686989357 1
gene  1 70 65 -0.6851221272809265 1 12229.0 -0.6851221272809265 1
gene  1 175 65 -1.3200113187058249 1 12334.0 -1.3200113187058249 1
gene  1 176 65 0.8676537535581774 1 12335.0 0.8676537535581774 1
gene  1 177 65 1.0871817850640757 1 12336.0 1.0871817850640757 1
gene  1 185 65 2.2999639507785448 1 12344.0 2.2999639507785448 1
gene  1 1 66 -2.8272765141484912 0 12350.0 -2.8272765141484912 1
gene  1 4 66 9.176546294892114 0 12353.0 9.176546294892114 1
gene  1 18 66 -0.8648013284524949 0 12367.0 -0.8648013284524949 1
gene  1 21 66 5.239436148541145 0 12370.0 5.239436148541145 1
gene  1 43 66 1.2663633646650734 0 12392.0 1.2663633646650734 1
gene  1 47 66 6.5401795617777205 0 12396.0 6.5401795617777205 1
gene  1 50 66 4.57194678697473 0 12399.0 4.57194678697473 1
gene  1 60 66 -2.194051334783977 0 12409.0 -2.194051334783977 1
gene  1 62 66 2.5339805161966003 0 12411.0 2.5339805161966003 1
gene  1 66 66 1.3677522620926643 1 12415.0 1.3677522620926643 1
gene  1 184 66 12.254474882904601 1 12533.0 12.254474882904601 1
gene  1 8 67 -2.838017840355384 0 12547.0 -2.838017840355384 1
gene  1 38 67 -10.667238595056734 0 12577.0 -10.667238595056734 1
gene  1 46 67 6.906583352313344 0 12585.0 6.906583352313344 1
gene  1 49 67 -1.6736472341259483 0 12588.0 -1.6736472341259483 1
gene  1 57 67 1.5863021046919332 0 12596.0 1.5863021046919332 1
gene  1 61 67 12.638136729420971 0 12600.0 12.638136729420971 1
gene  1 72 67 10.312330712723282 1 12611.0 10.312330712723282 1
gene  1 177 67 0.005457622340181434 1 12716.0 0.005457622340181434 1
gene  1 182 67 -0.9522487265745266 1 12721.0 -0.9522487265745266 1
gene  1 185 67 -6.142381314804614 1 12724.0 -6.142381314804614 1
gene  1 189 67 -2.665771024574556 1 12728.0 -2.665771024574556 1
gene  1 5 68 3.8984696644832555 0 12734.0 3.8984696644832555 1
gene  1 16 68 7.521644181644302 0 12745.0 7.521644181644302 1
gene  1 40 68 -0.5473925801407877 0 12769.0 -0.5473925801407877 1
gene  1 41 68 -1.3578366962365616 0 12770.0 -1.3578366962365616 1
gene  1 42 68 -6.769254230340662 0 12771.0 -6.769254230340662 1
gene  1 71 68 -1.5199014491811633 1 12800.0 -1.5199014491811633 1
gene  1 185 68 -4.91177736297477 1 12914.0 -4.91177736297477 1
gene  1 6 69 -5.2842215259959815 0 12925.0 -5.2842215259959815 1
gene  1 16 69 3.0008348715819957 0 12935.0 3.0008348715819957 1
gene  1 19 69 -1.068896466823606 0 12938.0 -1.068896466823606 1
gene  1 44 69 2.4642394558354663 0 12963.0 2.4642394558354663 1
gene  1 45 69 -10.132255984812064 0 12964.0 -10.132255984812064 1
gene  1 65 69 0.9262246243734962 0 12984.0 0.9262246243734962 1
gene  1 171 69 1.5995663311158237 1 13090.0 1.5995663311158237 1
gene  1 3 70 2.8188040922748265 0 13112.0 2.8188040922748265 1
gene  1 39 70 3.255563442391895 0 13148.0 3.255563442391895 1
gene  1 60 70 3.7390183813526052 0 13169.0 3.7390183813526052 1
gene  1 171 70 3.397435573781648 1 13280.0 3.397435573781648 1
gene  1 181 70 4.542156871261087 1 13290.0 4.542156871261087 1
gene  1 183 70 -4.548494128797332 1 13292.0 -4.548494128797332 1
gene  1 11 71 -8.61199983251264 0 13310.0 -8.61199983251264 1
gene  1 15 71 -0.9517850584939884 0 13314.0 -0.9517850584939884 1
gene  1 30 71 -0.30740084937393375 0 13329.0 -0.30740084937393375 1
gene  1 33 71 -5.50650353128197 0 13332.0 -5.50650353128197 1
gene  1 34 71 6.509780512741146 0 13333.0 6.509780512741146 1
gene  1 48 71 1.4146136339437514 0 13347.0 1.4146136339437514 1
gene  1 50 71 0.11251094480827173 0 13349.0 0.11251094480827173 1
gene  1 51 71 16.706648800825192 0 13350.0 16.706648800825192 1
gene  1 57 71 -0.6401017846049326 0 13356.0 -0.6401017846049326 1
gene  1 73 71 1.671106523255331 1 13372.0 1.671106523255331 1
gene  1 185 71 -1.3617052618996375 1 13484.0 -1.3617052618996375 1
gene  1 24 72 2.5655657402596335 0 13513.0 2.5655657402596335 1
gene  1 51 72 -3.815958225973126 0 13540.0 -3.815958225973126 1
gene  1 54 72 -1.2364835811378543 0 13543.0 -1.2364835811378543 1
gene  1 60 72 -6.521960560963487 0 13549.0 -6.521960560963487 1
gene  1 3 73 6.909965788903907 0 13682.0 6.909965788903907 1
gene  1 18 73 3.151717185409737 0 13697.0 3.151717185409737 1
gene  1 30 73 -0.3767450435091071 0 13709.0 -0.3767450435091071 1
gene  1 41 73 -1.2105120121068733 0 13720.0 -1.2105120121068733 1
gene  1 54 73 1.1836437215958708 0 13733.0 1.1836437215958708 1
gene  1 59 73 12.230302806097813 0 13738.0 12.230302806097813 1
gene  1 60 73 8.191845745645928 0 13739.0 8.191845745645928 1
gene  1 179 73 -14.429607468325532 1 13858.0 -14.429607468325532 1
gene  1 189 73 7.971991169227767 1 13868.0 7.971991169227767 1
gene  1 31 74 2.639107141734085 0 13900.0 2.639107141734085 1
gene  1 38 74 4.4407634817173 0 13907.0 4.4407634817173 1
gene  1 67 74 -15.659957796389662 0 13936.0 -15.659957796389662 1
gene  1 74 74 9.161815736739985 1 13943.0 9.161815736739985 1
gene  1 188 74 -0.6902072672005835 1 14057.0 -0.6902072672005835 1
gene  1 2 75 1.3203044353104385 0 14061.0 1.3203044353104385 1
gene  1 10 75 -3.726019897428281 0 14069.0 -3.726019897428281 1
gene  1 12 75 12.839525017394038 0 14071.0 12.839525017394038 1
gene  1 15 75 0.3787647103913856 0 14074.0 0.3787647103913856 1
gene  1 18 75 3.449321439700924 0 14077.0 3.449321439700924 1
gene  1 43 75 6.152720245069748 0 14102.0 6.152720245069748 1
gene  1 46 75 5.836051782653909 0 14105.0 5.836051782653909 1
gene  1 56 75 -6.629926259717541 0 14115.0 -6.629926259717541 1
gene  1 57 75 5.780515560516554 0 14116.0 5.780515560516554 1
gene  1 177 75 4.174540415607493 1 14236.0 4.174540415607493 1
gene  1 183 75 -2.7065446383960117 1 14242.0 -2.7065446383960117 1
gene  1 3 171 3.6080439084200884 0 32302.0 3.6080439084200884 1
gene  1 10 171 -1.5303686054087655 0 32309.0 -1.5303686054087655 1
gene  1 18 171 1.6237040038819863 0 32317.0 1.6237040038819863 1
gene  1 35 171 3.4719508782650848 0 32334.0 3.4719508782650848 1
gene  1 47 171 1.7923352800541092 0 32346.0 1.7923352800541092 1
gene  1 48 171 -0.18537321988858446 0 32347.0 -0.18537321988858446 1
gene  1 63 171 -2.075159008720441 0 32362.0 -2.075159008720441 1
gene  1 74 171 8.06061535450419 0 32373.0 8.06061535450419 1
gene  1 171 171 -0.30288597469981093 1 32470.0 -0.30288597469981093 1
gene  1 180 171 1.3664398450469664 1 32479.0 1.3664398450469664 1
gene  1 181 171 6.034774382953895 1 32480.0 6.034774382953895 1
gene  1 16 172 1.8245768641774425 0 32505.0 1.8245768641774425 1
gene  1 38 172 -7.488548096591999 0 32527.0 -7.488548096591999 1
gene  1 58 172 1.2768108353838874 0 32547.0 1.2768108353838874 1
gene  1 59 172 -3.427167163735883 0 32548.0 -3.427167163735883 1
gene  1 60 172 -1.2104792588335171 0 32549.0 -1.2104792588335171 1
gene  1 73 172 3.9525224626460425 0 32562.0 3.9525224626460425 1
gene  1 171 172 2.4723636761852283 0 32660.0 2.4723636761852283 1
gene  1 173 172 14.025301240026408 1 32662.0 14.025301240026408 1
gene  1 7 173 -1.97970718699334 0 32686.0 -1.97970718699334 1
gene  1 29 173 8.153199586374537 0 32708.0 8.153199586374537 1
gene  1 30 173 6.663336000165119 0 32709.0 6.663336000165119 1
gene  1 38 173 -1.388623962113458 0 32717.0 -1.388623962113458 1
gene  1 56 173 5.878307185806448 0 32735.0 5.878307185806448 1
gene  1 68 173 0.7505271826684712 0 32747.0 0.7505271826684712 1
gene  1 72 173 -0.0902261408656877 0 32751.0 -0.0902261408656877 1
gene  1 75 173 -1.750811627565912 0 32754.0 -1.750811627565912 1
gene  1 180 173 2.4089482012279575 1 32859.0 2.4089482012279575 1
gene  1 45 174 0.9505811609928096 0 32914.0 0.9505811609928096 1
gene  1 174 174 -1.934430455589343 1 33043.0 -1.934430455589343 1
gene  1 180 174 -1.094869081331601 1 33049.0 -1.094869081331601 1
gene  1 186 174 -5.027666496375504 1 33055.0 -5.027666496375504 1
gene  1 2 175 1.4176409177227611 0 33061.0 1.4176409177227611 1
gene  1 11 175 16.662029813997588 0 33070.0 16.662029813997588 1
gene  1 26 175 -0.24746543508002788 0 33085.0 -0.24746543508002788 1
gene  1 37 175 3.4793267812656885 0 33096.0 3.4793267812656885 1
gene  1 43 175 2.0356569277956744 0 33102.0 2.0356569277956744 1
gene  1 48 175 0.7368268720696303 0 33107.0 0.7368268720696303 1
gene  1 51 175 -0.34573603196403635 0 33110.0 -0.34573603196403635 1
gene  1 64 175 0.009471398185529445 0 33123.0 0.009471398185529445 1
gene  1 70 175 -0.5120938156897505 0 33129.0 -0.5120938156897505 1
gene  1 71 175 9.672577027625191 0 33130.0 9.672577027625191 1
gene  1 177 175 -0.8025041161955329 1 33236.0 -0.8025041161955329 1
gene  1 178 175 0.47997641228115473 1 33237.0 0.47997641228115473 1
gene  1 181 175 -1.4617557344790986 1 33240.0 -1.4617557344790986 1
gene  1 184 175 0.8745225752012176 1 33243.0 0.8745225752012176 1
gene  1 186 175 -15.917832448459375 1 33245.0 -15.917832448459375 1
gene  1 2 176 -3.856459463213514 0 33251.0 -3.856459463213514 1
gene  1 8 176 -2.838924915093016 0 33257.0 -2.838924915093016 1
gene  1 9 176 0.4661672466274394 0 33258.0 0.4661672466274394 1
gene  1 12 176 -0.5235511174428298 0 33261.0 -0.5235511174428298 1
gene  1 15 176 2.0486225140219076 0 33264.0 2.0486225140219076 1
gene  1 16 176 0.4926949853603322 0 33265.0 0.4926949853603322 1
gene  1 35 176 -1.4133553873811964 0 33284.0 -1.4133553873811964 1
gene  1 37 176 1.7104474265554175 0 33286.0 1.7104474265554175 1
gene  1 46 176 3.9866440127152827 0 33295.0 3.9866440127152827 1
gene  1 62 176 -1.889628522223798 0 33311.0 -1.889628522223798 1
gene  1 64 176 0.25742667599092967 0 33313.0 0.25742667599092967 1
gene  1 171 176 6.9127134807868975 0 33420.0 6.9127134807868975 1
gene  1 174 176 7.120443751527225 0 33423.0 7.120443751527225 1
gene  1 179 176 1.9676433094624302 1 33428.0 1.9676433094624302 1
gene  1 1 177 0.8565434386452729 0 33440.0 0.8565434386452729 1
gene  1 7 177 -2.7417451600351406 0 33446.0 -2.7417451600351406 1
gene  1 8 177 -3.6361168070931935 0 33447.0 -3.6361168070931935 1
gene  1 9 177 -0.13242382298134125 0 33448.0 -0.13242382298134125 1
gene  1 14 177 -0.11088165580618309 0 33453.0 -0.11088165580618309 1
gene  1 16 177 1.1769149233627165 0 33455.0 1.1769149233627165 1
gene  1 20 177 -6.462497916796885 0 33459.0 -6.462497916796885 1
gene  1 30 177 -1.0771701312325006 0 33469.0 -1.0771701312325006 1
gene  1 31 177 1.303073216752433 0 33470.0 1.303073216752433 1
gene  1 32 177 -0.8659665794779319 0 33471.0 -0.8659665794779319 1
gene  1 43 177 5.681292865007165 0 33482.0 5.681292865007165 1
gene  1 44 177 -0.7366578046116662 0 33483.0 -0.7366578046116662 1
gene  1 53 177 -2.6073988478970795 0 33492.0 -2.6073988478970795 1
gene  1 59 177 2.2202623761609828 0 33498.0 2.2202623761609828 1
gene  1 69 177 4.050518485391008 0 33508.0 4.050518485391008 1
gene  1 174 177 11.702424059912722 0 33613.0 11.702424059912722 1
gene  1 175 177 -2.1211067780097714 0 33614.0 -2.1211067780097714 1
gene  1 184 177 -0.35124704255274336 1 33623.0 -0.35124704255274336 1
gene  1 187 177 1.5860739544925888 1 33626.0 1.5860739544925888 1
gene  1 1 178 4.3703994702570546 0 33630.0 4.3703994702570546 1
gene  1 20 178 -12.321051032181504 0 33649.0 -12.321051032181504 1
gene  1 26 178 8.191729946179125 0 33655.0 8.191729946179125 1
gene  1 35 178 1.3716297852761459 0 33664.0 1.3716297852761459 1
gene  1 42 178 -9.217817722156965 0 33671.0 -9.217817722156965 1
gene  1 53 178 0.3660288039746462 0 33682.0 0.3660288039746462 1
gene  1 59 178 -8.50888458042642 0 33688.0 -8.50888458042642 1
gene  1 72 178 5.673852223054299 0 33701.0 5.673852223054299 1
gene  1 172 178 4.074825861303323 0 33801.0 4.074825861303323 1
gene  1 190 178 -1.2429989986832735 1 33819.0 -1.2429989986832735 1
gene  1 6 179 -10.098166804235996 0 33825.0 -10.098166804235996 1
gene  1 8 179 -1.2278101270898811 0 33827.0 -1.2278101270898811 1
gene  1 13 179 2.337721550449174 0 33832.0 2.337721550449174 1
gene  1 36 179 0.903054568028408 0 33855.0 0.903054568028408 1
gene  1 46 179 0.5303065016089699 0 33865.0 0.5303065016089699 1
gene  1 60 179 8.641052101610939 0 33879.0 8.641052101610939 1
gene  1 61 179 -1.9265658361610223 0 33880.0 -1.9265658361610223 1
gene  1 72 179 -0.515520854724218 0 33891.0 -0.515520854724218 1
gene  1 74 179 -13.054593377802473 0 33893.0 -13.054593377802473 1
gene  1 171 179 0.41515063589202206 0 33990.0 0.41515063589202206 1
gene  1 185 179 -2.5787743500727704 1 34004.0 -2.5787743500727704 1
gene  1 1 180 -0.32269202851987533 0 34010.0 -0.32269202851987533 1
gene  1 4 180 -0.4177669814991908 0 34013.0 -0.4177669814991908 1
gene  1 8 180 -1.7100441823222925 0 34017.0 -1.7100441823222925 1
gene  1 11 180 6.785049886545161 0 34020.0 6.785049886545161 1
gene  1 21 180 -2.94947642947579 0 34030.0 -2.94947642947579 1
gene  1 32 180 -3.909531389524776 0 34041.0 -3.909531389524776 1
gene  1 35 180 -14.427339051572229 0 34044.0 -14.427339051572229 1
gene  1 46 180 -1.7559684557947206 0 34055.0 -1.7559684557947206 1
gene  1 68 180 -2.125524772971474 0 34077.0 -2.125524772971474 1
gene  1 188 180 2.195339251923424 1 34197.0 2.195339251923424 1
gene  1 2 181 -1.0742158100081376 0 34201.0 -1.0742158100081376 1
gene  1 16 181 7.873121836110721 0 34215.0 7.873121836110721 1
gene  1 24 181 -0.5355085647402862 0 34223.0 -0.5355085647402862 1
gene  1 36 181 -0.5080388587968212 0 34235.0 -0.5080388587968212 1
gene  1 60 181 1.686455001040856 0 34259.0 1.686455001040856 1
gene  1 69 181 -2.2840482879339605 0 34268.0 -2.2840482879339605 1
gene  1 190 181 0.26851190921166623 1 34389.0 0.26851190921166623 1
gene  1 1 182 -0.24145602471650207 0 34390.0 -0.24145602471650207 1
gene  1 17 182 -2.5170334548142073 0 34406.0 -2.5170334548142073 1
gene  1 35 182 0.11571849069134665 0 34424.0 0.11571849069134665 1
gene  1 44 182 -1.9017949524540725 0 34433.0 -1.9017949524540725 1
gene  1 49 182 -3.4806363264461977 0 34438.0 -3.4806363264461977 1
gene  1 50 182 0.20394847927669058 0 34439.0 0.20394847927669058 1
gene  1 54 182 -3.0526192641981487 0 34443.0 -3.0526192641981487 1
gene  1 59 182 -2.1568057114783628 0 34448.0 -2.1568057114783628 1
gene  1 73 182 -1.2978263086809152 0 34462.0 -1.2978263086809152 1
gene  1 174 182 0.16597142700156997 0 34563.0 0.16597142700156997 1
gene  1 187 182 -5.711744261706495 1 34576.0 -5.711744261706495 1
gene  1 6 183 -1.3084258872319827 0 34585.0 -1.3084258872319827 1
gene  1 7 183 -6.512459836767415 0 34586.0 -6.512459836767415 1
gene  1 17 183 0.7542748716603387 0 34596.0 0.7542748716603387 1
gene  1 20 183 -0.4058980113397532 0 34599.0 -0.4058980113397532 1
gene  1 25 183 1.0660024245247384 0 34604.0 1.0660024245247384 1
gene  1 30 183 12.30895648015063 0 34609.0 12.30895648015063 1
gene  1 39 183 6.351554277278289 0 34618.0 6.351554277278289 1
gene  1 44 183 -0.8363017198760012 0 34623.0 -0.8363017198760012 1
gene  1 66 183 -0.46499146819973164 0 34645.0 -0.46499146819973164 1
gene  1 171 183 1.5856326355260562 0 34750.0 1.5856326355260562 1
gene  1 174 183 -6.786875268593469 0 34753.0 -6.786875268593469 1
gene  1 21 184 7.174085265732371 0 34790.0 7.174085265732371 1
gene  1 29 184 0.8674348377005172 0 34798.0 0.8674348377005172 1
gene  1 32 184 2.3611250061820552 0 34801.0 2.3611250061820552 1
gene  1 36 184 1.1554621008783919 0 34805.0 1.1554621008783919 1
gene  1 45 184 0.8979015601835527 0 34814.0 0.8979015601835527 1
gene  1 46 184 0.15918938835454893 0 34815.0 0.15918938835454893 1
gene  1 63 184 -0.3418516030024993 0 34832.0 -0.3418516030024993 1
gene  1 66 184 1.72344491727064 0 34835.0 1.72344491727064 1
gene  1 177 184 -0.46365265376655174 0 34946.0 -0.46365265376655174 1
gene  1 31 185 -9.105106922644069 0 34990.0 -9.105106922644069 1
gene  1 50 185 8.274240340610548 0 35009.0 8.274240340610548 1
gene  1 56 185 -1.1061999180756725 0 35015.0 -1.1061999180756725 1
gene  1 58 185 -18.934054815717534 0 35017.0 -18.934054815717534 1
gene  1 62 185 -5.406303023956806 0 35021.0 -5.406303023956806 1
gene  1 173 185 2.8614914284688413 0 35132.0 2.8614914284688413 1
gene  1 179 185 3.9583235434629955 0 35138.0 3.9583235434629955 1
gene  1 182 185 2.074880331503457 0 35141.0 2.074880331503457 1
gene  1 188 185 -0.5804379766738608 1 35147.0 -0.5804379766738608 1
gene  1 1 186 0.17034070451245664 0 35150.0 0.17034070451245664 1
gene  1 3 186 -8.108967626528845 0 35152.0 -8.108967626528845 1
gene  1 4 186 -2.448193846527151 0 35153.0 -2.448193846527151 1
gene  1 6 186 1.337082346447937 0 35155.0 1.337082346447937 1
gene  1 7 186 -12.31975348760146 0 35156.0 -12.31975348760146 1
gene  1 17 186 -2.4356627891761544 0 35166.0 -2.4356627891761544 1
gene  1 23 186 2.048301242013534 0 35172.0 2.048301242013534 1
gene  1 28 186 -10.85198973914815 0 35177.0 -10.85198973914815 1
gene  1 33 186 -1.1332408131942435 0 35182.0 -1.1332408131942435 1
gene  1 36 186 -19.201490218316028 0 35185.0 -19.201490218316028 1
gene  1 58 186 -4.969750883476999 0 35207.0 -4.969750883476999 1
gene  1 69 186 -0.5888682877955684 0 35218.0 -0.5888682877955684 1
gene  1 70 186 -4.993730319481292 0 35219.0 -4.993730319481292 1
gene  1 72 186 -3.369570612385978 0 35221.0 -3.369570612385978 1
gene  1 10 187 1.2440859322285913 0 35349.0 1.2440859322285913 1
gene  1 25 187 -0.45904107466257643 0 35364.0 -0.45904107466257643 1
gene  1 31 187 1.6312961265818717 0 35370.0 1.6312961265818717 1
gene  1 33 187 -7.52985806461782 0 35372.0 -7.52985806461782 1
gene  1 47 187 8.514997468602997 0 35386.0 8.514997468602997 1
gene  1 57 187 -4.454482228530008 0 35396.0 -4.454482228530008 1
gene  1 183 187 12.961200171138206 0 35522.0 12.961200171138206 1
gene  1 184 187 14.134691011583518 0 35523.0 14.134691011583518 1
gene  1 5 188 -6.821667531783845 0 35534.0 -6.821667531783845 1
gene  1 6 188 -2.358719748819298 0 35535.0 -2.358719748819298 1
gene  1 12 188 -3.1246659706488895 0 35541.0 -3.1246659706488895 1
gene  1 28 188 6.324998330645554 0 35557.0 6.324998330645554 1
gene  1 32 188 -14.197256260716653 0 35561.0 -14.197256260716653 1
gene  1 35 188 4.285312467335048 0 35564.0 4.285312467335048 1
gene  1 57 188 0.9626388909193504 0 35586.0 0.9626388909193504 1
gene  1 172 188 -6.735290507870499 0 35701.0 -6.735290507870499 1
gene  1 14 189 -1.890472358471497 0 35733.0 -1.890472358471497 1
gene  1 17 189 0.22924605003650855 0 35736.0 0.22924605003650855 1
gene  1 27 189 2.805657820704644 0 35746.0 2.805657820704644 1
gene  1 37 189 -4.06562885191451 0 35756.0 -4.06562885191451 1
gene  1 43 189 -0.4101221954287859 0 35762.0 -0.4101221954287859 1
gene  1 51 189 -7.471605545101542 0 35770.0 -7.471605545101542 1
gene  1 56 189 -2.3256681657612726 0 35775.0 -2.3256681657612726 1
gene  1 59 189 5.187478008185483 0 35778.0 5.187478008185483 1
gene  1 65 189 -1.7526283577176394 0 35784.0 -1.7526283577176394 1
gene  1 73 189 -4.914335980599136 0 35792.0 -4.914335980599136 1
gene  1 74 189 1.8943216130540528 0 35793.0 1.8943216130540528 1
gene  1 178 189 0.31690276543285073 0 35897.0 0.31690276543285073 1
gene  1 1 190 -1.4338128202045746 0 35910.0 -1.4338128202045746 1
gene  1 4 190 13.30011750285883 0 35913.0 13.30011750285883 1
gene  1 15 190 -3.496347192328457 0 35924.0 -3.496347192328457 1
gene  1 22 190 3.6117585467070787 0 35931.0 3.6117585467070787 1
gene  1 33 190 -2.254117160117194 0 35942.0 -2.254117160117194 1
gene  1 58 190 1.2289611589266183 0 35967.0 1.2289611589266183 1
gene  1 60 190 -1.9365266840319024 0 35969.0 -1.9365266840319024 1
gene  1 67 190 2.0113549829945194 0 35976.0 2.0113549829945194 1
gene  1 179 190 -2.2740080284908 0 36088.0 -2.2740080284908 1
gene  1 181 190 -3.9208023006030013 0 36090.0 -3.9208023006030013 1
gene  1 182 190 0.05179577819441894 0 36091.0 0.05179577819441894 1
gene  1 184 190 -0.5228561539749983 0 36093.0 -0.5228561539749983 1
gene  1 186 190 2.6789868108745765 0 36095.0 2.6789868108745765 1
gene  1 187 190 2.0652159748914576 0 36096.0 2.0652159748914576 1
gene  1 65 188 3.1256523122687323 0 36109.0 3.1256523122687323 1
gene  1 1 193 1.5448283686168576 0 36113.0 1.5448283686168576 1
gene  1 193 190 -4.355903727143364 0 36114.0 -4.355903727143364 1
gene  1 29 68 -0.6019650977108321 0 36116.0 -0.6019650977108321 1
gene  1 181 195 3.9474800751016175 1 36120.0 3.9474800751016175 1
gene  1 195 63 3.3973446544365244 0 36121.0 3.3973446544365244 1
gene  1 7 171 2.9208975197677827 0 36125.0 2.9208975197677827 1
gene  1 22 72 -4.711068552800739 0 36150.0 -4.711068552800739 1
gene  1 47 212 2.463487500460855 0 36196.0 2.463487500460855 1
gene  1 212 55 1.3434853452131732 0 36197.0 1.3434853452131732 1
gene  1 55 58 1.2660172230035622 0 36200.0 1.2660172230035622 1
gene  1 33 217 -2.1120435947245837 0 36231.0 -2.1120435947245837 1
gene  1 217 187 -4.920989193705608 0 36232.0 -4.920989193705608 1
gene  1 69 56 -0.04854550534557811 0 36255.0 -0.04854550534557811 1
gene  1 51 173 10.25862958807841 0 36261.0 10.25862958807841 1
gene  1 35 230 3.3445335906202436 0 36282.0 3.3445335906202436 1
gene  1 230 57 0.3176719884990367 0 36283.0 0.3176719884990367 1
gene  1 43 244 -1.4129385004064723 0 36330.0 -1.4129385004064723 1
gene  1 244 189 5.5250084605700955 0 36331.0 5.5250084605700955 1
gene  1 13 172 0.15768621027831076 0 36334.0 0.15768621027831076 1
gene  1 52 230 1.305359133473746 0 36357.0 1.305359133473746 1
gene  1 68 188 -1.7763036431933927 0 36380.0 -1.7763036431933927 1
gene  1 12 54 -1.4581572690404552 0 36383.0 -1.4581572690404552 1
gene  1 181 74 1.3473713197046453 0 36429.0 1.3473713197046453 1
gene  1 61 177 3.411827115222596 0 36460.0 3.411827115222596 1
gene  1 20 184 -0.35429009307529646 0 36496.0 -0.35429009307529646 1
gene  1 190 176 -3.2664502697607194 0 36516.0 -3.2664502697607194 1
gene  1 22 291 3.1721529870720278 0 36524.0 3.1721529870720278 1
gene  1 291 190 -7.489942178543421 0 36525.0 -7.489942178543421 1
gene  1 75 174 -0.8065068923458318 0 36555.0 -0.8065068923458318 1
gene  1 35 297 0.14719834259986048 0 36562.0 0.14719834259986048 1
gene  1 297 171 -1.3082199237844203 0 36563.0 -1.3082199237844203 1
gene  1 33 184 -2.0859331196090656 0 36565.0 -2.0859331196090656 1
gene  1 35 186 5.2449171114049395 0 36569.0 5.2449171114049395 1
gene  1 51 300 -5.093172098173697 0 36574.0 -5.093172098173697 1
gene  1 300 71 3.175450741460201 0 36575.0 3.175450741460201 1
gene  1 49 172 2.759257924473772 0 36658.0 2.759257924473772 1
gene  1 75 177 -0.5521138772851414 0 36665.0 -0.5521138772851414 1
gene  1 53 321 2.5121086827838823 0 36673.0 2.5121086827838823 1
gene  1 321 62 -1.1235941350693721 0 36674.0 -1.1235941350693721 1
gene  1 47 62 -3.554663174257991 0 36689.0 -3.554663174257991 1
gene  1 41 67 -5.054586880534999 0 36692.0 -5.054586880534999 1
gene  1 182 325 -2.6074346012607506 1 36701.0 -2.6074346012607506 1
gene  1 325 67 -4.137326226206401 0 36702.0 -4.137326226206401 1
gene  1 195 178 3.6295922228872706 0 36719.0 3.6295922228872706 1
gene  1 64 56 0.4706985847223241 0 36723.0 0.4706985847223241 1
gene  1 37 334 -0.4508571474679408 0 36742.0 -0.4508571474679408 1
gene  1 334 175 1.2853020275322071 0 36743.0 1.2853020275322071 1
gene  1 56 341 -2.109668566416188 0 36772.0 -2.109668566416188 1
gene  1 341 173 -4.207692534009119 0 36773.0 -4.207692534009119 1
gene  1 26 297 2.3438404527749803 0 36788.0 2.3438404527749803 1
gene  1 24 70 -2.6369936316800917 0 36824.0 -2.6369936316800917 1
gene  1 174 178 1.9202304238660788 0 36853.0 1.9202304238660788 1
gene  1 15 174 -1.5511482039867326 0 36944.0 -1.5511482039867326 1
gene  1 188 178 -2.502744090365824 0 36962.0 -2.502744090365824 1
gene  1 15 72 -2.3545329971046804 0 36977.0 -2.3545329971046804 1
gene  1 66 54 3.804058745437564 0 37021.0 3.804058745437564 1
gene  1 212 177 5.362391575534054 0 37108.0 5.362391575534054 1
gene  1 10 244 2.4663197617906905 0 37115.0 2.4663197617906905 1
gene  1 27 291 -4.666293815831139 0 37132.0 -4.666293815831139 1
gene  1 4 68 1.5086790802328103 0 37136.0 1.5086790802328103 1
gene  1 5 416 -0.2808757221251531 0 37142.0 -0.2808757221251531 1
gene  1 416 188 0.0552647718766448 0 37143.0 0.0552647718766448 1
gene  1 17 217 7.623646346685727 0 37209.0 7.623646346685727 1
gene  1 5 187 0.02035746054302706 0 37211.0 0.02035746054302706 1
gene  1 43 433 2.5680680546508645 0 37218.0 2.5680680546508645 1
gene  1 433 66 2.018743616070652 0 37219.0 2.018743616070652 1
gene  1 75 436 5.786092677695116 1 37227.0 5.786092677695116 1
gene  1 436 59 -2.062929575001805 0 37228.0 -2.062929575001805 1
gene  1 244 60 -7.010076390425773 0 37235.0 -7.010076390425773 1
gene  1 416 73 3.4566301145102623 0 37246.0 3.4566301145102623 1
gene  1 60 447 1.9841698171035924 0 37271.0 1.9841698171035924 1
gene  1 447 73 -4.429581031385432 0 37272.0 -4.429581031385432 1
gene  1 42 69 3.024885722048823 0 37308.0 3.024885722048823 1
gene  1 15 464 2.2448964817861565 0 37342.0 2.2448964817861565 1
gene  1 464 176 -4.602515650458331 0 37343.0 -4.602515650458331 1
gene  1 51 187 2.0063634867496587 0 37380.0 2.0063634867496587 1
gene  1 26 185 -3.8530083344078543 0 37427.0 -3.8530083344078543 1
gene  1 51 185 2.836206649416443 0 37512.0 2.836206649416443 1
gene  1 20 180 0.8408779309400385 0 37552.0 0.8408779309400385 1
gene  1 23 511 -2.5956510687508487 0 37568.0 -2.5956510687508487 1
gene  1 511 186 0.5266399833694118 0 37569.0 0.5266399833694118 1
gene  1 66 63 3.6023360444218984 0 37632.0 3.6023360444218984 1
gene  1 186 71 1.8969127976062965 0 37664.0 1.8969127976062965 1
gene  1 28 416 -0.7625454029161632 0 37673.0 -0.7625454029161632 1
gene  1 175 537 0.21455754314316428 1 37692.0 0.21455754314316428 1
gene  1 537 62 0.3564760011462273 0 37693.0 0.3564760011462273 1
gene  1 43 180 -0.18172023671267623 0 37705.0 -0.18172023671267623 1
gene  1 4 63 -1.9842451898507263 0 37794.0 -1.9842451898507263 1
gene  1 41 188 -0.48420285100628524 0 37797.0 -0.48420285100628524 1
gene  1 70 566 1.3814985316957227 0 37810.0 1.3814985316957227 1
gene  1 566 175 4.374550551938676 0 37811.0 4.374550551938676 1
gene  1 51 180 -2.5024575504594404 0 37819.0 -2.5024575504594404 1
gene  1 185 217 -0.4979738919045995 0 37826.0 -0.4979738919045995 1
gene  1 2 183 1.1694899080423375 0 37861.0 1.1694899080423375 1
gene  1 44 588 0.8699887016408208 0 37889.0 0.8699887016408208 1
gene  1 588 183 -2.243489553088634 0 37890.0 -2.243489553088634 1
gene  1 341 433 -1.233785062638471 0 37895.0 -1.233785062638471 1
gene  1 60 182 3.1822934850903084 0 37962.0 3.1822934850903084 1
gene  1 183 629 -3.890400601980815 0 38062.0 -3.890400601980815 1
gene  1 629 187 -3.5391033103138665 0 38063.0 -3.5391033103138665 1
gene  1 30 636 1.1935117926717353 0 38094.0 1.1935117926717353 1
gene  1 636 173 -0.9984797774568129 0 38095.0 -0.9984797774568129 1
gene  1 180 63 -0.2804935516129073 0 38117.0 -0.2804935516129073 1
gene  1 72 566 1.8093771218262347 0 38149.0 1.8093771218262347 1
gene  1 22 70 1.4504496482650673 0 38194.0 1.4504496482650673 1
gene  1 179 663 -0.13794384392668535 1 38214.0 -0.13794384392668535 1
gene  1 663 60 -0.04822296129586956 0 38215.0 -0.04822296129586956 1
gene  1 20 416 5.751710212894558 0 38234.0 5.751710212894558 1
gene  1 433 57 1.5667492232906286 0 38245.0 1.5667492232906286 1
gene  1 70 212 -0.47651535207263007 0 38267.0 -0.47651535207263007 1
gene  1 19 217 1.2479532275053693 0 38272.0 1.2479532275053693 1
gene  1 53 74 3.7157678622164405 0 38299.0 3.7157678622164405 1
gene  1 36 693 -2.1180744929880424 0 38359.0 -2.1180744929880424 1
gene  1 693 179 0.7768317236559638 0 38360.0 0.7768317236559638 1
gene  1 300 447 0.1640249488807337 0 38366.0 0.1640249488807337 1
gene  1 66 334 2.3524329599353675 0 38372.0 2.3524329599353675 1
gene  1 12 300 4.156107756244299 0 38378.0 4.156107756244299 1
gene  1 53 698 0.7521312738179733 0 38388.0 0.7521312738179733 1
gene  1 698 65 3.243517566319197 0 38389.0 3.243517566319197 1
gene  1 43 703 0.9436924626387178 0 38424.0 0.9436924626387178 1
gene  1 703 66 -0.31491968667633286 0 38425.0 -0.31491968667633286 1
gene  1 60 230 8.933215865784542 0 38460.0 8.933215865784542 1
gene  1 182 711 -3.766952182701982 0 38472.0 -3.766952182701982 1
gene  1 711 190 1.1197114372907822 0 38473.0 1.1197114372907822 1
gene  1 73 712 7.282113936538797 1 38476.0 7.282113936538797 1
gene  1 712 71 9.757787181273942 0 38477.0 9.757787181273942 1
gene  1 291 67 -0.3594686713505389 0 38505.0 -0.3594686713505389 1
gene  1 53 70 -0.7387940401577711 0 38512.0 -0.7387940401577711 1
gene  1 15 179 5.3622423273078645 0 38516.0 5.3622423273078645 1
gene  1 24 721 -0.34027549642888344 0 38519.0 -0.34027549642888344 1
gene  1 721 52 4.364258376048946 0 38520.0 4.364258376048946 1
gene  1 177 731 -2.307166343909012 1 38557.0 -2.307166343909012 1
gene  1 731 65 6.558165127160235 0 38558.0 6.558165127160235 1
genomeend 0
/* Organism # 001 Fitness:  1904,798 Error:  1000,000                      */
genomestart  1
trait 1 3.1716786746006695 0.725749451205806 2.1845647836656106 2.167197757587064 1.815110172036098 0.0 0.0 0.4757550050574233 
node 1 1 1 1
node 2 1 1 1
node 3 1 1 1
node 4 1 1 1
node 5 1 1 1
node 6 1 1 1
node 7 1 1 1
node 8 1 1 1
node 9 1 1 1
node 10 1 1 1
node 11 1 1 1
node 12 1 1 1
node 13 1 1 1
node 14 1 1 1
node 15 1 1 1
node 16 1 1 1
node 17 1 1 1
node 18 1 1 1
node 19 1 1 1
node 20 1 1 1
node 21 1 1 1
node 22 1 1 1
node 23 1 1 1
node 24 1 1 1
node 25 1 1 1
node 26 1 1 1
node 27 1 1 1
node 28 1 1 1
node 29 1 1 1
node 30 1 1 1
node 31 1 1 1
node 32 1 1 1
node 33 1 1 1
node 34 1 1 1
node 35 1 1 1
node 36 1 1 1
node 37 1 1 1
node 38 1 1 1
node 39 1 1 1
node 40 1 1 1
node 41 1 1 1
node 42 1 1 1
node 43 1 1 1
node 44 1 1 1
node 45 1 1 1
node 46 1 1 1
node 47 1 1 1
node 48 1 1 1
node 49 1 1 1
node 50 1 1 3
node 51 1 0 0
node 52 1 0 0
node 53 1 0 0
node 54 1 0 0
node 55 1 0 0
node 56 1 0 0
node 57 1 0 0
node 58 1 0 0
node 59 1 0 0
node 60 1 0 0
node 61 1 0 0
node 62 1 0 0
node 63 1 0 0
node 64 1 0 0
node 65 1 0 0
node 66 1 0 0
node 67 1 0 0
node 68 1 0 0
node 69 1 0 0
node 70 1 0 0
node 71 1 0 0
node 72 1 0 0
node 73 1 0 0
node 74 1 0 0
node 75 1 0 0
node 171 1 0 2
node 172 1 0 2
node 173 1 0 2
node 174 1 0 2
node 175 1 0 2
node 176 1 0 2
node 177 1 0 2
node 178 1 0 2
node 179 1 0 2
node 180 1 0 2
node 181 1 0 2
node 182 1 0 2
node 183 1 0 2
node 184 1 0 2
node 185 1 0 2
node 186 1 0 2
node 187 1 0 2
node 188 1 0 2
node 189 1 0 2
node 190 1 0 2
node 193 1 0 0
node 195 1 0 0
node 212 1 0 0
node 217 1 0 0
node 230 1 0 0
node 244 1 0 0
node 291 1 0 0
node 297 1 0 0
node 300 1 0 0
node 321 1 0 0
node 325 1 0 0
node 334 1 0 0
node 341 1 0 0
node 416 1 0 0
node 433 1 0 0
node 436 1 0 0
node 447 1 0 0
node 464 1 0 0
node 511 1 0 0
node 537 1 0 0
node 566 1 0 0
node 588 1 0 0
node 629 1 0 0
node 636 1 0 0
node 663 1 0 0
node 693 1 0 0
node 698 1 0 0
node 703 1 0 0
node 711 1 0 0
node 712 1 0 0
node 721 1 0 0
node 731 1 0 0
gene  1 28 51 0.28180829255798856 0 9527.0 0.28180829255798856 1
gene  1 33 51 -1.1901467298386725 0 9532.0 -1.1901467298386725 1
gene  1 36 51 -10.22045327670914 0 9535.0 -10.22045327670914 1
gene  1 40 51 -2.714225387812583 0 9539.0 -2.714225387812583 1
gene  1 42 51 24.430170791365835 0 9541.0 24.430170791365835 1
gene  1 54 51 5.1971726622822585 1 9553.0 5.1971726622822585 1
gene  1 57 51 -2.368872615426848 1 9556.0 -2.368872615426848 1
gene  1 68 51 -4.642235855718626 1 9567.0 -4.642235855718626 1
gene  1 174 51 0.36456862360929715 1 9673.0 0.36456862360929715 1
gene  1 183 51 5.503488587701755 1 9682.0 5.503488587701755 1
gene  1 184 51 -0.3522402089326362 1 9683.0 -0.3522402089326362 1
gene  1 189 51 2.89196125287288 1 9688.0 2.89196125287288 1
gene  1 3 52 -0.08508541247172907 0 9692.0 -0.08508541247172907 1
gene  1 6 52 22.52390776824394 0 9695.0 22.52390776824394 1
gene  1 24 52 2.1430215659267757 0 9713.0 2.1430215659267757 1
gene  1 29 52 -2.55970771018963 0 9718.0 -2.55970771018963 1
gene  1 31 52 -0.2082397136152232 0 9720.0 -0.2082397136152232 1
gene  1 35 52 0.03804060674062337 0 9724.0 0.03804060674062337 1
gene  1 63 52 0.07316209317404176 1 9752.0 0.07316209317404176 1
gene  1 179 52 -1.1444179872862574 1 9868.0 -1.1444179872862574 1
gene  1 183 52 -6.969845425688202 1 9872.0 -6.969845425688202 1
gene  1 184 52 -6.924928308226309 1 9873.0 -6.924928308226309 1
gene  1 185 52 -0.7695614509252863 1 9874.0 -0.7695614509252863 1
gene  1 5 53 1.3626033166967364 0 9884.0 1.3626033166967364 1
gene  1 6 53 1.4013514941408254 0 9885.0 1.4013514941408254 1
gene  1 10 53 -4.6906400595252356 0 9889.0 -4.6906400595252356 1
gene  1 33 53 -1.728449522203604 0 9912.0 -1.728449522203604 1
gene  1 35 53 -15.972902792446206 0 9914.0 -15.972902792446206 1
gene  1 38 53 -4.215358051784269 0 9917.0 -4.215358051784269 1
gene  1 45 53 7.245437539911082 0 9924.0 7.245437539911082 1
gene  1 71 53 10.50823117035907 1 9950.0 10.50823117035907 1
gene  1 16 54 2.140019231754254 0 10085.0 2.140019231754254 1
gene  1 19 54 12.88768853027457 0 10088.0 12.88768853027457 1
gene  1 36 54 5.244490885133842 0 10105.0 5.244490885133842 1
gene  1 42 54 4.532918486773605 0 10111.0 4.532918486773605 1
gene  1 58 54 3.902369137359674 1 10127.0 3.902369137359674 1
gene  1 62 54 0.7972047948720431 1 10131.0 0.7972047948720431 1
gene  1 73 54 0.7641428005966612 1 10142.0 0.7641428005966612 1
gene  1 177 54 -1.442330307314752 1 10246.0 -1.442330307314752 1
gene  1 180 54 12.474082959567106 1 10249.0 12.474082959567106 1
gene  1 190 54 -0.5020962812003321 1 10259.0 -0.5020962812003321 1
gene  1 20 55 1.7836024740335659 0 10279.0 1.7836024740335659 1
gene  1 31 55 0.4548934468308702 0 10290.0 0.4548934468308702 1
gene  1 35 55 0.774063982132108 0 10294.0 0.774063982132108 1
gene  1 41 55 2.2367845361983925 0 10300.0 2.2367845361983925 1
gene  1 47 55 -2.7621320296619536 0 10306.0 -2.7621320296619536 1
gene  1 52 55 -2.8166549855999445 0 10311.0 -2.8166549855999445 1
gene  1 69 55 7.948636746322816 1 10328.0 7.948636746322816 1
gene  1 75 55 7.433899877155598 1 10334.0 7.433899877155598 1
gene  1 187 55 11.276190845681088 1 10446.0 11.276190845681088 1
gene  1 7 56 1.1098406017836968 0 10456.0 1.1098406017836968 1
gene  1 11 56 -1.880113875977234 0 10460.0 -1.880113875977234 1
gene  1 13 56 -2.581154960826123 0 10462.0 -2.581154960826123 1
gene  1 36 56 -4.1099216630819235 0 10485.0 -4.1099216630819235 1
gene  1 41 56 0.6592832535721969 0 10490.0 0.6592832535721969 1
gene  1 44 56 -5.3577491441326615 0 10493.0 -5.3577491441326615 1
gene  1 46 56 -12.407597758030402 0 10495.0 -12.407597758030402 1
gene  1 49 56 1.9715755902283076 0 10498.0 1.9715755902283076 1
gene  1 68 56 -0.5812129634019131 1 10517.0 -0.5812129634019131 1
gene  1 179 56 -1.740883191315117 1 10628.0 -1.740883191315117 1
gene  1 183 56 0.24468537765027776 1 10632.0 0.24468537765027776 1
gene  1 3 57 3.8118720498641623 0 10642.0 3.8118720498641623 1
gene  1 19 57 2.280746728759248 0 10658.0 2.280746728759248 1
gene  1 22 57 2.8310737786499653 0 10661.0 2.8310737786499653 1
gene  1 28 57 8.083528692228564 0 10667.0 8.083528692228564 1
gene  1 30 57 -0.13627547783160399 0 10669.0 -0.13627547783160399 1
gene  1 35 57 0.8059130109639661 0 10674.0 0.8059130109639661 1
gene  1 47 57 4.3454999211130545 0 10686.0 4.3454999211130545 1
gene  1 59 57 2.9164447423617537 1 10698.0 2.9164447423617537 1
gene  1 60 57 0.6774740082216055 1 10699.0 0.6774740082216055 1
gene  1 187 57 -1.9518128302432827 1 10826.0 -1.9518128302432827 1
gene  1 5 58 -13.635466111641836 0 10834.0 -13.635466111641836 1
gene  1 14 58 -0.1494815936653271 0 10843.0 -0.1494815936653271 1
gene  1 15 58 1.1369513269681428 0 10844.0 1.1369513269681428 1
gene  1 24 58 6.8956474588385674 0 10853.0 6.8956474588385674 1
gene  1 32 58 -13.699822222076937 0 10861.0 -13.699822222076937 1
gene  1 43 58 -3.4387710365264246 0 10872.0 -3.4387710365264246 1
gene  1 49 58 -2.685979479914935 0 10878.0 -2.685979479914935 1
gene  1 53 58 2.2434077209507777 0 10882.0 2.2434077209507777 1
gene  1 62 58 5.5315851901056075 1 10891.0 5.5315851901056075 1
gene  1 64 58 5.530793712086008 1 10893.0 5.530793712086008 1
gene  1 69 58 0.10929383573548046 1 10898.0 0.10929383573548046 1
gene  1 182 58 -0.7856021135609642 1 11011.0 -0.7856021135609642 1
gene  1 1 59 1.7919356754931557 0 11020.0 1.7919356754931557 1
gene  1 4 59 -11.274282224455337 0 11023.0 -11.274282224455337 1
gene  1 27 59 5.566905745990864 0 11046.0 5.566905745990864 1
gene  1 34 59 -9.783039703493419 0 11053.0 -9.783039703493419 1
gene  1 37 59 1.6795151853316093 0 11056.0 1.6795151853316093 1
gene  1 44 59 2.0770197552487906 0 11063.0 2.0770197552487906 1
gene  1 59 59 -0.7362536978804108 1 11078.0 -0.7362536978804108 1
gene  1 73 59 -8.881912653183592 1 11092.0 -8.881912653183592 1
gene  1 75 59 -3.1050174789509724 1 11094.0 -3.1050174789509724 1
gene  1 183 59 -2.1009097452228884 1 11202.0 -2.1009097452228884 1
gene  1 185 59 1.935241349685756 1 11204.0 1.935241349685756 1
gene  1 8 60 -10.325802580119884 0 11217.0 -10.325802580119884 1
gene  1 10 60 0.43397263260932684 0 11219.0 0.43397263260932684 1
gene  1 40 60 -2.2645737343258423 0 11249.0 -2.2645737343258423 1
gene  1 45 60 -0.3391215439807882 0 11254.0 -0.3391215439807882 1
gene  1 61 60 0.07482129572545376 1 11270.0 0.07482129572545376 1
gene  1 72 60 0.3945065091279032 1 11281.0 0.3945065091279032 1
gene  1 177 60 2.0463805041104153 1 11386.0 2.0463805041104153 1
gene  1 179 60 2.4090131755024053 1 11388.0 2.4090131755024053 1
gene  1 187 60 -0.6820557275921698 1 11396.0 -0.6820557275921698 1
gene  1 7 61 7.762652517584883 0 11406.0 7.762652517584883 1
gene  1 15 61 2.0381585019680033 0 11414.0 2.0381585019680033 1
gene  1 22 61 14.229935701177371 0 11421.0 14.229935701177371 1
gene  1 28 61 1.3840278869751375 0 11427.0 1.3840278869751375 1
gene  1 36 61 20.36837578360755 0 11435.0 20.36837578360755 1
gene  1 53 61 0.17312591442021713 0 11452.0 0.17312591442021713 1
gene  1 54 61 1.909436367549731 0 11453.0 1.909436367549731 1
gene  1 67 61 -2.3344278259749425 1 11466.0 -2.3344278259749425 1
gene  1 177 61 -1.9237579612314768 1 11576.0 -1.9237579612314768 1
gene  1 184 61 -18.267687980618007 1 11583.0 -18.267687980618007 1
gene  1 6 62 0.6255582998447 0 11595.0 0.6255582998447 1
gene  1 11 62 -5.351347807432097 0 11600.0 -5.351347807432097 1
gene  1 15 62 2.413651074585848 0 11604.0 2.413651074585848 1
gene  1 26 62 0.10273901868144864 0 11615.0 0.10273901868144864 1
gene  1 53 62 -3.42609857101153 0 11642.0 -3.42609857101153 1
gene  1 68 62 -5.979042949676085 1 11657.0 -5.979042949676085 1
gene  1 72 62 1.4392017808759792 1 11661.0 1.4392017808759792 1
gene  1 174 62 11.623396452583235 1 11763.0 11.623396452583235 1
gene  1 175 62 1.5892786539158175 1 11764.0 1.5892786539158175 1
gene  1 184 62 2.289123132752278 1 11773.0 2.289123132752278 1
gene  1 185 62 -4.659635027715263 1 11774.0 -4.659635027715263 1
gene  1 188 62 3.270744077251926 1 11777.0 3.270744077251926 1
gene  1 31 63 -13.312122459813732 0 11810.0 -13.312122459813732 1
gene  1 32 63 1.8537737564725223 0 11811.0 1.8537737564725223 1
gene  1 37 63 -2.052989637956389 0 11816.0 -2.052989637956389 1
gene  1 38 63 4.41619063990471 0 11817.0 4.41619063990471 1
gene  1 42 63 0.4072050364100002 0 11821.0 0.4072050364100002 1
gene  1 46 63 2.2198425382405746 0 11825.0 2.2198425382405746 1
gene  1 48 63 2.4288963600832245 0 11827.0 2.4288963600832245 1
gene  1 50 63 -1.9259224147601013 0 11829.0 -1.9259224147601013 1
gene  1 60 63 10.33332130004125 0 11839.0 10.33332130004125 1
gene  1 63 63 6.4206939131797 1 11842.0 6.4206939131797 1
gene  1 72 63 -0.8904168628472584 1 11851.0 -0.8904168628472584 1
gene  1 74 63 -3.1157231552684066 1 11853.0 -3.1157231552684066 1
gene  1 178 63 -9.233671686013981 1 11957.0 -9.233671686013981 1
gene  1 180 63 0.03454828793441478 1 11959.0 0.03454828793441478 1
gene  1 181 63 3.9644736977101633 1 11960.0 3.9644736977101633 1
gene  1 8 64 -0.7429904402114733 0 11977.0 -0.7429904402114733 1
gene  1 11 64 1.3740639731324766 0 11980.0 1.3740639731324766 1
gene  1 20 64 -11.093595386551558 0 11989.0 -11.093595386551558 1
gene  1 27 64 1.2162484277015597 0 11996.0 1.2162484277015597 1
gene  1 41 64 -12.53191983644308 0 12010.0 -12.53191983644308 1
gene  1 44 64 -1.040738893224215 0 12013.0 -1.040738893224215 1
gene  1 49 64 0.7522864366309543 0 12018.0 0.7522864366309543 1
gene  1 50 64 1.615476867251932 0 12019.0 1.615476867251932 1
gene  1 53 64 6.009864931023182 0 12022.0 6.009864931023182 1
gene  1 59 64 8.143178038356854 0 12028.0 8.143178038356854 1
gene  1 70 64 8.117836508809336 1 12039.0 8.117836508809336 1
gene  1 176 64 -0.9667344580110817 1 12145.0 -0.9667344580110817 1
gene  1 179 64 5.700054704840169 1 12148.0 5.700054704840169 1
gene  1 183 64 -1.4060174234799914 1 12152.0 -1.4060174234799914 1
gene  1 184 64 -0.955685330225494 1 12153.0 -0.955685330225494 1
gene  1 185 64 12.574878994554522 1 12154.0 12.574878994554522 1
gene  1 8 65 -0.003041648349279835 0 12167.0 -0.003041648349279835 1
gene  1 13 65 -2.162456600536463 0 12172.0 -2.162456600536463 1
gene  1 18 65 -2.034198061985378 0 12177.0 -2.034198061985378 1
gene  1 39 65 -1.181779096810101 0 12198.0 -1.181779096810101 1
gene  1 53 65 -0.8037478711502621 0 12212.0 -0.8037478711502621 1
gene  1 69 65 3.9079743022832085 1 12228.0 3.9079743022832085 1
gene  1 70 65 -0.5096307552591015 1 12229.0 -0.5096307552591015 1
gene  1 175 65 5.4677737483378905 1 12334.0 5.4677737483378905 1
gene  1 176 65 -3.5909814821326407 1 12335.0 -3.5909814821326407 1
gene  1 177 65 8.861636497290082 1 12336.0 8.861636497290082 1
gene  1 185 65 0.5178810435615322 1 12344.0 0.5178810435615322 1
gene  1 1 66 -3.4129549797123993 0 12350.0 -3.4129549797123993 1
gene  1 4 66 -2.355557910812784 0 12353.0 -2.355557910812784 1
gene  1 18 66 2.3056849212775483 0 12367.0 2.3056849212775483 1
gene  1 21 66 7.252578323231987 0 12370.0 7.252578323231987 1
gene  1 43 66 3.384563665673699 0 12392.0 3.384563665673699 1
gene  1 47 66 1.7921707905225848 0 12396.0 1.7921707905225848 1
gene  1 50 66 8.228612133457471 0 12399.0 8.228612133457471 1
gene  1 60 66 -2.56353373261694 0 12409.0 -2.56353373261694 1
gene  1 62 66 0.5200583130153227 0 12411.0 0.5200583130153227 1
gene  1 66 66 1.6446076040089854 1 12415.0 1.6446076040089854 1
gene  1 184 66 9.313457683402667 1 12533.0 9.313457683402667 1
gene  1 8 67 -1.7036798692808133 0 12547.0 -1.7036798692808133 1
gene  1 38 67 -8.564623153533265 0 12577.0 -8.564623153533265 1
gene  1 46 67 5.949034572012312 0 12585.0 5.949034572012312 1
gene  1 49 67 -1.310784435002639 0 12588.0 -1.310784435002639 1
gene  1 57 67 -1.4207103396665448 0 12596.0 -1.4207103396665448 1
gene  1 61 67 12.095874954207483 0 12600.0 12.095874954207483 1
gene  1 72 67 10.447017566173166 1 12611.0 10.447017566173166 1
gene  1 177 67 1.7615063820932222 1 12716.0 1.7615063820932222 1
gene  1 182 67 2.510524413486346 1 12721.0 2.510524413486346 1
gene  1 185 67 -3.9963803804923375 1 12724.0 -3.9963803804923375 1
gene  1 189 67 -2.8239107787068694 1 12728.0 -2.8239107787068694 1
gene  1 5 68 4.699782759721751 0 12734.0 4.699782759721751 1
gene  1 16 68 7.492647547835599 0 12745.0 7.492647547835599 1
gene  1 40 68 -1.0301229459785484 0 12769.0 -1.0301229459785484 1
gene  1 41 68 -2.5429466420646927 0 12770.0 -2.5429466420646927 1
gene  1 42 68 -9.697832198287127 0 12771.0 -9.697832198287127 1
gene  1 71 68 -0.17717068372465006 1 12800.0 -0.17717068372465006 1
gene  1 185 68 0.4012123904916279 1 12914.0 0.4012123904916279 1
gene  1 6 69 -1.608070223077118 0 12925.0 -1.608070223077118 1
gene  1 16 69 2.9854008662638103 0 12935.0 2.9854008662638103 1
gene  1 19 69 1.8473183969061988 0 12938.0 1.8473183969061988 1
gene  1 44 69 0.6689061174194346 0 12963.0 0.6689061174194346 1
gene  1 45 69 -1.865119508591489 0 12964.0 -1.865119508591489 1
gene  1 65 69 -3.5502250956957395 0 12984.0 -3.5502250956957395 1
gene  1 171 69 0.8431792739427962 1 13090.0 0.8431792739427962 1
gene  1 3 70 3.1631446615003527 0 13112.0 3.1631446615003527 1
gene  1 39 70 1.924539137146138 0 13148.0 1.924539137146138 1
gene  1 60 70 1.2938540900388977 0 13169.0 1.2938540900388977 1
gene  1 171 70 2.4729951099620164 1 13280.0 2.4729951099620164 1
gene  1 181 70 4.823074467622416 1 13290.0 4.823074467622416 1
gene  1 183 70 -1.755857892920681 1 13292.0 -1.755857892920681 1
gene  1 11 71 -6.727279134009137 0 13310.0 -6.727279134009137 1
gene  1 15 71 -0.8109571980118666 0 13314.0 -0.8109571980118666 1
gene  1 30 71 2.5628839645531847 0 13329.0 2.5628839645531847 1
gene  1 33 71 0.7382488908563802 0 13332.0 0.7382488908563802 1
gene  1 34 71 3.9417621050027063 0 13333.0 3.9417621050027063 1
gene  1 48 71 -2.860083725769189 0 13347.0 -2.860083725769189 1
gene  1 50 71 0.8502056332109795 0 13349.0 0.8502056332109795 1
gene  1 51 71 18.069384591073824 0 13350.0 18.069384591073824 1
gene  1 57 71 -0.4819376013452368 0 13356.0 -0.4819376013452368 1
gene  1 73 71 3.9393568524283644 1 13372.0 3.9393568524283644 1
gene  1 185 71 -1.3115144370007006 1 13484.0 -1.3115144370007006 1
gene  1 24 72 6.418483087980023 0 13513.0 6.418483087980023 1
gene  1 51 72 0.42705731206440944 0 13540.0 0.42705731206440944 1
gene  1 54 72 -1.457689314318531 0 13543.0 -1.457689314318531 1
gene  1 60 72 -3.9480915486733412 0 13549.0 -3.9480915486733412 1
gene  1 3 73 5.632220058889853 0 13682.0 5.632220058889853 1
gene  1 18 73 -0.7701318235987729 0 13697.0 -0.7701318235987729 1
gene  1 30 73 2.2608267798375166 0 13709.0 2.2608267798375166 1
gene  1 41 73 -0.4367893657757578 0 13720.0 -0.4367893657757578 1
gene  1 54 73 2.1482205123029137 0 13733.0 2.1482205123029137 1
gene  1 59 73 12.742433981736003 0 13738.0 12.742433981736003 1
gene  1 60 73 10.759784548487545 0 13739.0 10.759784548487545 1
gene  1 179 73 0.8916821355475848 1 13858.0 0.8916821355475848 1
gene  1 189 73 8.775325542195507 1 13868.0 8.775325542195507 1
gene  1 31 74 0.265379129395992 0 13900.0 0.265379129395992 1
gene  1 38 74 8.597577331904644 0 13907.0 8.597577331904644 1
gene  1 67 74 -17.46200790827445 0 13936.0 -17.46200790827445 1
gene  1 74 74 7.188506468168581 1 13943.0 7.188506468168581 1
gene  1 188 74 -1.083661563171023 1 14057.0 -1.083661563171023 1
gene  1 2 75 -15.438200662562892 0 14061.0 -15.438200662562892 1
gene  1 10 75 -5.759717956286829 0 14069.0 -5.759717956286829 1
gene  1 12 75 15.26766021461839 0 14071.0 15.26766021461839 1
gene  1 15 75 -3.9373286202017477 0 14074.0 -3.9373286202017477 1
gene  1 18 75 3.0635624473337004 0 14077.0 3.0635624473337004 1
gene  1 43 75 2.312449029357721 0 14102.0 2.312449029357721 1
gene  1 46 75 3.7793118477464716 0 14105.0 3.7793118477464716 1
gene  1 56 75 -3.529870811042337 0 14115.0 -3.529870811042337 1
gene  1 57 75 4.949934142230883 0 14116.0 4.949934142230883 1
gene  1 177 75 4.174540415607493 1 14236.0 4.174540415607493 1
gene  1 183 75 -4.611445744045447 1 14242.0 -4.611445744045447 1
gene  1 3 171 3.6080439084200884 0 32302.0 3.6080439084200884 1
gene  1 10 171 -1.763142663234253 0 32309.0 -1.763142663234253 1
gene  1 18 171 -2.9422181899468502 0 32317.0 -2.9422181899468502 1
gene  1 35 171 0.710984658282678 0 32334.0 0.710984658282678 1
gene  1 47 171 -0.830873169029932 0 32346.0 -0.830873169029932 1
gene  1 48 171 2.4726508290064118 0 32347.0 2.4726508290064118 1
gene  1 63 171 2.354870446172921 0 32362.0 2.354870446172921 1
gene  1 74 171 5.518417015017674 0 32373.0 5.518417015017674 1
gene  1 171 171 2.0623582653412846 1 32470.0 2.0623582653412846 1
gene  1 180 171 -0.35876612386667583 1 32479.0 -0.35876612386667583 1
gene  1 181 171 5.168817542274981 1 32480.0 5.168817542274981 1
gene  1 16 172 -0.6393548711394825 0 32505.0 -0.6393548711394825 1
gene  1 38 172 -4.5594082219286305 0 32527.0 -4.5594082219286305 1
gene  1 58 172 0.12986308209155561 0 32547.0 0.12986308209155561 1
gene  1 59 172 -4.046107318203498 0 32548.0 -4.046107318203498 1
gene  1 60 172 -1.1400459650949533 0 32549.0 -1.1400459650949533 1
gene  1 73 172 4.1546849850523255 0 32562.0 4.1546849850523255 1
gene  1 171 172 3.4161801492321655 0 32660.0 3.4161801492321655 1
gene  1 173 172 16.453159677423322 1 32662.0 16.453159677423322 1
gene  1 7 173 0.09090260271643236 0 32686.0 0.09090260271643236 1
gene  1 29 173 -0.9891892498851101 0 32708.0 -0.9891892498851101 1
gene  1 30 173 -2.404971113992909 0 32709.0 -2.404971113992909 1
gene  1 38 173 -4.353176401273135 0 32717.0 -4.353176401273135 1
gene  1 56 173 4.933732128979244 0 32735.0 4.933732128979244 1
gene  1 68 173 2.1399113647832118 0 32747.0 2.1399113647832118 1
gene  1 72 173 1.9684100630807062 0 32751.0 1.9684100630807062 1
gene  1 75 173 -3.593368774664967 0 32754.0 -3.593368774664967 1
gene  1 180 173 1.477525601982246 1 32859.0 1.477525601982246 1
gene  1 45 174 1.4974834500099574 0 32914.0 1.4974834500099574 1
gene  1 174 174 -1.2294977088470156 1 33043.0 -1.2294977088470156 1
gene  1 180 174 8.94859750846999 1 33049.0 8.94859750846999 1
gene  1 186 174 -4.334005893621332 1 33055.0 -4.334005893621332 1
gene  1 2 175 -1.6517712707262915 0 33061.0 -1.6517712707262915 1
gene  1 11 175 16.115369193576008 0 33070.0 16.115369193576008 1
gene  1 26 175 -4.0471852459207325 0 33085.0 -4.0471852459207325 1
gene  1 37 175 2.412161067726678 0 33096.0 2.412161067726678 1
gene  1 43 175 -1.8845526049154626 0 33102.0 -1.8845526049154626 1
gene  1 48 175 -0.6520749696522556 0 33107.0 -0.6520749696522556 1
gene  1 51 175 -0.8120497825042478 0 33110.0 -0.8120497825042478 1
gene  1 64 175 -3.110332379832668 0 33123.0 -3.110332379832668 1
gene  1 70 175 1.8739089717391368 0 33129.0 1.8739089717391368 1
gene  1 71 175 6.266411324336537 0 33130.0 6.266411324336537 1
gene  1 177 175 -0.0679553003530593 1 33236.0 -0.0679553003530593 1
gene  1 178 175 -0.9876820498493275 1 33237.0 -0.9876820498493275 1
gene  1 181 175 4.063414199994363 1 33240.0 4.063414199994363 1
gene  1 184 175 -2.2483806486756137 1 33243.0 -2.2483806486756137 1
gene  1 186 175 -16.703550209121996 1 33245.0 -16.703550209121996 1
gene  1 2 176 -1.639750386342717 0 33251.0 -1.639750386342717 1
gene  1 8 176 -0.17014524416419552 0 33257.0 -0.17014524416419552 1
gene  1 9 176 17.667609457147602 0 33258.0 17.667609457147602 1
gene  1 12 176 2.404029517759704 0 33261.0 2.404029517759704 1
gene  1 15 176 -0.6848563551903353 0 33264.0 -0.6848563551903353 1
gene  1 16 176 2.007320610898986 0 33265.0 2.007320610898986 1
gene  1 35 176 0.19231018232713032 0 33284.0 0.19231018232713032 1
gene  1 37 176 1.0515783452243803 0 33286.0 1.0515783452243803 1
gene  1 46 176 5.430835239793736 0 33295.0 5.430835239793736 1
gene  1 62 176 -3.2228640456628797 0 33311.0 -3.2228640456628797 1
gene  1 64 176 0.5481012299037005 0 33313.0 0.5481012299037005 1
gene  1 171 176 8.423191569038787 0 33420.0 8.423191569038787 1
gene  1 174 176 6.072353639586949 0 33423.0 6.072353639586949 1
gene  1 179 176 3.5086571906218493 1 33428.0 3.5086571906218493 1
gene  1 1 177 1.483883123615311 0 33440.0 1.483883123615311 1
gene  1 7 177 -2.102077955582539 0 33446.0 -2.102077955582539 1
gene  1 8 177 -0.046267572713460936 0 33447.0 -0.046267572713460936 1
gene  1 9 177 1.8225561448776664 0 33448.0 1.8225561448776664 1
gene  1 14 177 1.987474869029912 0 33453.0 1.987474869029912 1
gene  1 16 177 6.75236737634706 0 33455.0 6.75236737634706 1
gene  1 20 177 -5.3057162033364484 0 33459.0 -5.3057162033364484 1
gene  1 30 177 -2.2438860079765695 0 33469.0 -2.2438860079765695 1
gene  1 31 177 5.235574927374999 0 33470.0 5.235574927374999 1
gene  1 32 177 2.2865234564208547 0 33471.0 2.2865234564208547 1
gene  1 43 177 0.8743676313606132 0 33482.0 0.8743676313606132 1
gene  1 44 177 1.3087144366481425 0 33483.0 1.3087144366481425 1
gene  1 53 177 0.23177619881394607 0 33492.0 0.23177619881394607 1
gene  1 59 177 0.2787458915486213 0 33498.0 0.2787458915486213 1
gene  1 69 177 4.050518485391008 0 33508.0 4.050518485391008 1
gene  1 174 177 14.366141887243336 0 33613.0 14.366141887243336 1
gene  1 175 177 -10.1587462570756 0 33614.0 -10.1587462570756 1
gene  1 184 177 3.237872801819528 1 33623.0 3.237872801819528 1
gene  1 187 177 3.0084875625344605 1 33626.0 3.0084875625344605 1
gene  1 1 178 2.7620649224515508 0 33630.0 2.7620649224515508 1
gene  1 20 178 1.8682090633924342 0 33649.0 1.8682090633924342 1
gene  1 26 178 0.885348861039045 0 33655.0 0.885348861039045 1
gene  1 35 178 0.6171813745222152 0 33664.0 0.6171813745222152 1
gene  1 42 178 -9.13444402682209 0 33671.0 -9.13444402682209 1
gene  1 53 178 3.3218137661480167 0 33682.0 3.3218137661480167 1
gene  1 59 178 -1.3636035111300733 0 33688.0 -1.3636035111300733 1
gene  1 72 178 7.581372322647222 0 33701.0 7.581372322647222 1
gene  1 172 178 -1.618888478054056 0 33801.0 -1.618888478054056 1
gene  1 190 178 0.48177925006380934 1 33819.0 0.48177925006380934 1
gene  1 6 179 -7.163899380003401 0 33825.0 -7.163899380003401 1
gene  1 8 179 -2.1482598652663745 0 33827.0 -2.1482598652663745 1
gene  1 13 179 2.783144396343408 0 33832.0 2.783144396343408 1
gene  1 36 179 -0.0030674400720631656 0 33855.0 -0.0030674400720631656 1
gene  1 46 179 -0.65378300629098 0 33865.0 -0.65378300629098 1
gene  1 60 179 9.3822320439495 0 33879.0 9.3822320439495 1
gene  1 61 179 5.355353809159599 0 33880.0 5.355353809159599 1
gene  1 72 179 4.12545051265305 0 33891.0 4.12545051265305 1
gene  1 74 179 -10.813930163374078 0 33893.0 -10.813930163374078 1
gene  1 171 179 0.41515063589202206 0 33990.0 0.41515063589202206 1
gene  1 185 179 -3.307032411229426 1 34004.0 -3.307032411229426 1
gene  1 1 180 2.072416065160305 0 34010.0 2.072416065160305 1
gene  1 4 180 0.9675785500293534 0 34013.0 0.9675785500293534 1
gene  1 8 180 -1.1874759972994966 0 34017.0 -1.1874759972994966 1
gene  1 11 180 7.699511789913393 0 34020.0 7.699511789913393 1
gene  1 21 180 -2.781378644904118 0 34030.0 -2.781378644904118 1
gene  1 32 180 -1.894763925240655 0 34041.0 -1.894763925240655 1
gene  1 35 180 -1.2011908774761206 0 34044.0 -1.2011908774761206 1
gene  1 46 180 -5.535970255084517 0 34055.0 -5.535970255084517 1
gene  1 68 180 -2.2192760154486026 0 34077.0 -2.2192760154486026 1
gene  1 188 180 1.7364043072319268 1 34197.0 1.7364043072319268 1
gene  1 2 181 -2.309895959458694 0 34201.0 -2.309895959458694 1
gene  1 16 181 4.730698850174867 0 34215.0 4.730698850174867 1
gene  1 24 181 -5.218191397069658 0 34223.0 -5.218191397069658 1
gene  1 36 181 0.044528956391355456 0 34235.0 0.044528956391355456 1
gene  1 60 181 -1.0176392488118862 0 34259.0 -1.0176392488118862 1
gene  1 69 181 1.5342883447453102 0 34268.0 1.5342883447453102 1
gene  1 190 181 0.26851190921166623 1 34389.0 0.26851190921166623 1
gene  1 1 182 6.8193384981384595 0 34390.0 6.8193384981384595 1
gene  1 17 182 -0.07747614464848701 0 34406.0 -0.07747614464848701 1
gene  1 35 182 -1.6336472401982851 0 34424.0 -1.6336472401982851 1
gene  1 44 182 0.47762225598562497 0 34433.0 0.47762225598562497 1
gene  1 49 182 -2.026416309997437 0 34438.0 -2.026416309997437 1
gene  1 50 182 -3.656251660336463 0 34439.0 -3.656251660336463 1
gene  1 54 182 -2.9881272256863785 0 34443.0 -2.9881272256863785 1
gene  1 59 182 5.82110735654508 0 34448.0 5.82110735654508 1
gene  1 73 182 -2.8355390094565154 0 34462.0 -2.8355390094565154 1
gene  1 174 182 -2.4349000766504365 0 34563.0 -2.4349000766504365 1
gene  1 187 182 -5.281854286337561 1 34576.0 -5.281854286337561 1
gene  1 6 183 14.34947931324363 0 34585.0 14.34947931324363 1
gene  1 7 183 -4.971096220705613 0 34586.0 -4.971096220705613 1
gene  1 17 183 -2.317779129228183 0 34596.0 -2.317779129228183 1
gene  1 20 183 0.17666604765081972 0 34599.0 0.17666604765081972 1
gene  1 25 183 1.3448532122504304 0 34604.0 1.3448532122504304 1
gene  1 30 183 12.736263232919708 0 34609.0 12.736263232919708 1
gene  1 39 183 7.502231430447665 0 34618.0 7.502231430447665 1
gene  1 44 183 -2.2641263743669295 0 34623.0 -2.2641263743669295 1
gene  1 66 183 14.437421622822278 0 34645.0 14.437421622822278 1
gene  1 171 183 0.2845644735838093 0 34750.0 0.2845644735838093 1
gene  1 174 183 -5.18015589686881 0 34753.0 -5.18015589686881 1
gene  1 21 184 0.959549050861524 0 34790.0 0.959549050861524 1
gene  1 29 184 0.5955799793223501 0 34798.0 0.5955799793223501 1
gene  1 32 184 -0.35718594474648924 0 34801.0 -0.35718594474648924 1
gene  1 36 184 0.17405919391374602 0 34805.0 0.17405919391374602 1
gene  1 45 184 1.1402637673212923 0 34814.0 1.1402637673212923 1
gene  1 46 184 7.16555174941205 0 34815.0 7.16555174941205 1
gene  1 63 184 1.1113819865162249 0 34832.0 1.1113819865162249 1
gene  1 66 184 0.06561182459247283 0 34835.0 0.06561182459247283 1
gene  1 177 184 2.7930170282028657 0 34946.0 2.7930170282028657 1
gene  1 31 185 -10.298654267079138 0 34990.0 -10.298654267079138 1
gene  1 50 185 7.444205762036286 0 35009.0 7.444205762036286 1
gene  1 56 185 0.35221129198984125 0 35015.0 0.35221129198984125 1
gene  1 58 185 -18.883424588895064 0 35017.0 -18.883424588895064 1
gene  1 62 185 -6.865131636708552 0 35021.0 -6.865131636708552 1
gene  1 173 185 3.2991834893606384 0 35132.0 3.2991834893606384 1
gene  1 179 185 4.96241159405076 0 35138.0 4.96241159405076 1
gene  1 182 185 5.089034215040854 0 35141.0 5.089034215040854 1
gene  1 188 185 3.631066394716285 1 35147.0 3.631066394716285 1
gene  1 1 186 -2.7093830090196205 0 35150.0 -2.7093830090196205 1
gene  1 3 186 -8.144693241420496 0 35152.0 -8.144693241420496 1
gene  1 4 186 -1.3401778609154205 0 35153.0 -1.3401778609154205 1
gene  1 6 186 0.24960840880050927 0 35155.0 0.24960840880050927 1
gene  1 7 186 -13.928293019763487 0 35156.0 -13.928293019763487 1
gene  1 17 186 -2.0328972276082853 0 35166.0 -2.0328972276082853 1
gene  1 23 186 2.136340953735093 0 35172.0 2.136340953735093 1
gene  1 28 186 -11.67834137747537 0 35177.0 -11.67834137747537 1
gene  1 33 186 0.3315013856913753 0 35182.0 0.3315013856913753 1
gene  1 36 186 -19.852046945072374 0 35185.0 -19.852046945072374 1
gene  1 58 186 -2.84244246136047 0 35207.0 -2.84244246136047 1
gene  1 69 186 -4.038380226083824 0 35218.0 -4.038380226083824 1
gene  1 70 186 -2.77075098270263 0 35219.0 -2.77075098270263 1
gene  1 72 186 -6.700212663893451 0 35221.0 -6.700212663893451 1
gene  1 10 187 4.57995339181789 0 35349.0 4.57995339181789 1
gene  1 25 187 0.6002816802256512 0 35364.0 0.6002816802256512 1
gene  1 31 187 -16.129810441339625 0 35370.0 -16.129810441339625 1
gene  1 33 187 -9.80557198425053 0 35372.0 -9.80557198425053 1
gene  1 47 187 -2.064020450350942 0 35386.0 -2.064020450350942 1
gene  1 57 187 -6.589562797393205 0 35396.0 -6.589562797393205 1
gene  1 183 187 12.576444032386222 0 35522.0 12.576444032386222 1
gene  1 184 187 11.019147729256389 0 35523.0 11.019147729256389 1
gene  1 5 188 -6.809468307024778 0 35534.0 -6.809468307024778 1
gene  1 6 188 -1.586954479066915 0 35535.0 -1.586954479066915 1
gene  1 12 188 1.1101907238026962 0 35541.0 1.1101907238026962 1
gene  1 28 188 5.051200019580153 0 35557.0 5.051200019580153 1
gene  1 32 188 -13.93423766645819 0 35561.0 -13.93423766645819 1
gene  1 35 188 9.005888466104803 0 35564.0 9.005888466104803 1
gene  1 57 188 -1.5405617636461373 0 35586.0 -1.5405617636461373 1
gene  1 172 188 1.8423935022161406 0 35701.0 1.8423935022161406 1
gene  1 14 189 -1.7012059653497957 0 35733.0 -1.7012059653497957 1
gene  1 17 189 0.3324548558452496 0 35736.0 0.3324548558452496 1
gene  1 27 189 2.843919542380349 0 35746.0 2.843919542380349 1
gene  1 37 189 -0.8206548824730882 0 35756.0 -0.8206548824730882 1
gene  1 43 189 -0.47628506632135026 0 35762.0 -0.47628506632135026 1
gene  1 51 189 -1.9314343076752505 0 35770.0 -1.9314343076752505 1
gene  1 56 189 -3.4934822060262096 0 35775.0 -3.4934822060262096 1
gene  1 59 189 5.864384047189139 0 35778.0 5.864384047189139 1
gene  1 65 189 6.089674851601125 0 35784.0 6.089674851601125 1
gene  1 73 189 0.6845117535388373 0 35792.0 0.6845117535388373 1
gene  1 74 189 -0.24075697905031157 0 35793.0 -0.24075697905031157 1
gene  1 178 189 1.6136181092290072 0 35897.0 1.6136181092290072 1
gene  1 1 190 0.9021061236815526 0 35910.0 0.9021061236815526 1
gene  1 4 190 12.737816839729607 0 35913.0 12.737816839729607 1
gene  1 15 190 -4.908202246820425 0 35924.0 -4.908202246820425 1
gene  1 22 190 3.28308076653025 0 35931.0 3.28308076653025 1
gene  1 33 190 -5.129890309975178 0 35942.0 -5.129890309975178 1
gene  1 58 190 3.8905168287754774 0 35967.0 3.8905168287754774 1
gene  1 60 190 -1.677870698933485 0 35969.0 -1.677870698933485 1
gene  1 67 190 0.43753057661977013 0 35976.0 0.43753057661977013 1
gene  1 179 190 11.16706539945777 0 36088.0 11.16706539945777 1
gene  1 181 190 -0.4155360370696676 0 36090.0 -0.4155360370696676 1
gene  1 182 190 0.9374460816606043 0 36091.0 0.9374460816606043 1
gene  1 184 190 -1.670223008929537 0 36093.0 -1.670223008929537 1
gene  1 186 190 -0.7258414884112803 0 36095.0 -0.7258414884112803 1
gene  1 187 190 3.777617361991352 0 36096.0 3.777617361991352 1
gene  1 65 188 1.5220579359640856 0 36109.0 1.5220579359640856 1
gene  1 1 193 1.1460389670182436 0 36113.0 1.1460389670182436 1
gene  1 193 190 -3.1172402833960184 0 36114.0 -3.1172402833960184 1
gene  1 29 68 -1.1101929888356576 0 36116.0 -1.1101929888356576 1
gene  1 181 195 5.225873127427803 1 36120.0 5.225873127427803 1
gene  1 195 63 2.610408656514593 0 36121.0 2.610408656514593 1
gene  1 7 171 1.656779580977228 0 36125.0 1.656779580977228 1
gene  1 22 72 0.8448785046126914 0 36150.0 0.8448785046126914 1
gene  1 47 212 1.7576574214811465 0 36196.0 1.7576574214811465 1
gene  1 212 55 1.2843242792096499 0 36197.0 1.2843242792096499 1
gene  1 55 58 1.3092701687112318 0 36200.0 1.3092701687112318 1
gene  1 33 217 -1.3971209956195714 0 36231.0 -1.3971209956195714 1
gene  1 217 187 -3.977209890259053 0 36232.0 -3.977209890259053 1
gene  1 69 56 0.8994322026397272 0 36255.0 0.8994322026397272 1
gene  1 51 173 9.436743048296965 0 36261.0 9.436743048296965 1
gene  1 35 230 0.08404916197568141 0 36282.0 0.08404916197568141 1
gene  1 230 57 -0.09953713130159275 0 36283.0 -0.09953713130159275 1
gene  1 43 244 -1.7136602847335933 0 36330.0 -1.7136602847335933 1
gene  1 244 189 5.554268745415207 0 36331.0 5.554268745415207 1
gene  1 13 172 1.1026671016265244 0 36334.0 1.1026671016265244 1
gene  1 52 230 -0.6914668175288283 0 36357.0 -0.6914668175288283 1
gene  1 68 188 -1.8688075657014704 0 36380.0 -1.8688075657014704 1
gene  1 12 54 -4.854447165990179 0 36383.0 -4.854447165990179 1
gene  1 181 74 -0.46232199223566517 0 36429.0 -0.46232199223566517 1
gene  1 61 177 1.410697607306747 0 36460.0 1.410697607306747 1
gene  1 20 184 1.2808325671018204 0 36496.0 1.2808325671018204 1
gene  1 190 176 -3.084943095729405 0 36516.0 -3.084943095729405 1
gene  1 22 291 4.070966194830742 0 36524.0 4.070966194830742 1
gene  1 291 190 -1.1684630073564297 0 36525.0 -1.1684630073564297 1
gene  1 75 174 -0.35603642369071054 0 36555.0 -0.35603642369071054 1
gene  1 35 297 1.8740925898201661 0 36562.0 1.8740925898201661 1
gene  1 297 171 -0.2318679955913716 0 36563.0 -0.2318679955913716 1
gene  1 33 184 0.5979041795442666 0 36565.0 0.5979041795442666 1
gene  1 35 186 6.776445943751325 0 36569.0 6.776445943751325 1
gene  1 51 300 2.4027315082536624 0 36574.0 2.4027315082536624 1
gene  1 300 71 1.8908222176103777 0 36575.0 1.8908222176103777 1
gene  1 49 172 4.2989357062450955 0 36658.0 4.2989357062450955 1
gene  1 75 177 3.925578417779303 0 36665.0 3.925578417779303 1
gene  1 53 321 0.44634717122428086 0 36673.0 0.44634717122428086 1
gene  1 321 62 -0.9851450800297881 0 36674.0 -0.9851450800297881 1
gene  1 47 62 -3.749501477648286 0 36689.0 -3.749501477648286 1
gene  1 41 67 -2.6677301627198915 0 36692.0 -2.6677301627198915 1
gene  1 182 325 -1.725478425181828 1 36701.0 -1.725478425181828 1
gene  1 325 67 -3.315990783390538 0 36702.0 -3.315990783390538 1
gene  1 195 178 3.1812308863652623 0 36719.0 3.1812308863652623 1
gene  1 64 56 -0.010110972291366371 0 36723.0 -0.010110972291366371 1
gene  1 37 334 -0.9865643804550257 0 36742.0 -0.9865643804550257 1
gene  1 334 175 -2.205985390880648 0 36743.0 -2.205985390880648 1
gene  1 56 341 -1.9429743766734544 0 36772.0 -1.9429743766734544 1
gene  1 341 173 -6.2571484245186095 0 36773.0 -6.2571484245186095 1
gene  1 26 297 2.903767996498203 0 36788.0 2.903767996498203 1
gene  1 24 70 -5.98030977189633 0 36824.0 -5.98030977189633 1
gene  1 174 178 0.15398870310730123 0 36853.0 0.15398870310730123 1
gene  1 15 174 1.3080810324136696 0 36944.0 1.3080810324136696 1
gene  1 188 178 -0.5051802204876954 0 36962.0 -0.5051802204876954 1
gene  1 15 72 -4.048304448538566 0 36977.0 -4.048304448538566 1
gene  1 66 54 3.949828784782314 0 37021.0 3.949828784782314 1
gene  1 212 177 6.010378919350965 0 37108.0 6.010378919350965 1
gene  1 10 244 -1.7913308436172717 0 37115.0 -1.7913308436172717 1
gene  1 27 291 -1.9861085537418954 0 37132.0 -1.9861085537418954 1
gene  1 4 68 2.602534872900831 0 37136.0 2.602534872900831 1
gene  1 5 416 -0.12035728546666424 0 37142.0 -0.12035728546666424 1
gene  1 416 188 1.8266166332766074 0 37143.0 1.8266166332766074 1
gene  1 17 217 7.623646346685727 0 37209.0 7.623646346685727 1
gene  1 5 187 -5.400284777966041 0 37211.0 -5.400284777966041 1
gene  1 43 433 -0.33562816187216193 0 37218.0 -0.33562816187216193 1
gene  1 433 66 2.005144170006607 0 37219.0 2.005144170006607 1
gene  1 75 436 3.917565055386805 1 37227.0 3.917565055386805 1
gene  1 436 59 -1.9947200176374302 0 37228.0 -1.9947200176374302 1
gene  1 244 60 -1.8950839950006264 0 37235.0 -1.8950839950006264 1
gene  1 416 73 5.418179189501194 0 37246.0 5.418179189501194 1
gene  1 60 447 5.218959301881483 0 37271.0 5.218959301881483 1
gene  1 447 73 -2.6732676387978094 0 37272.0 -2.6732676387978094 1
gene  1 42 69 0.7701986934054381 0 37308.0 0.7701986934054381 1
gene  1 15 464 2.8239102461724994 0 37342.0 2.8239102461724994 1
gene  1 464 176 0.07971656612789535 0 37343.0 0.07971656612789535 1
gene  1 51 187 -4.238729651257989 0 37380.0 -4.238729651257989 1
gene  1 26 185 -1.5521018128484703 0 37427.0 -1.5521018128484703 1
gene  1 51 185 1.260260866898189 0 37512.0 1.260260866898189 1
gene  1 20 180 -2.710587802314806 0 37552.0 -2.710587802314806 1
gene  1 23 511 -0.646988517613539 0 37568.0 -0.646988517613539 1
gene  1 511 186 1.1521399673763926 0 37569.0 1.1521399673763926 1
gene  1 66 63 0.607473503776808 0 37632.0 0.607473503776808 1
gene  1 186 71 0.3413641718685818 0 37664.0 0.3413641718685818 1
gene  1 28 416 -0.48744877451205704 0 37673.0 -0.48744877451205704 1
gene  1 175 537 -0.1090140290622561 1 37692.0 -0.1090140290622561 1
gene  1 537 62 4.963816457672861 0 37693.0 4.963816457672861 1
gene  1 43 180 -0.13652825696427162 0 37705.0 -0.13652825696427162 1
gene  1 4 63 1.830517097116693 0 37794.0 1.830517097116693 1
gene  1 41 188 0.45170283280589296 0 37797.0 0.45170283280589296 1
gene  1 70 566 1.2432311111387215 0 37810.0 1.2432311111387215 1
gene  1 566 175 -2.364669398635655 0 37811.0 -2.364669398635655 1
gene  1 51 180 -2.0940085373438193 0 37819.0 -2.0940085373438193 1
gene  1 185 217 -3.132034191309441 0 37826.0 -3.132034191309441 1
gene  1 2 183 2.0091260069005443 0 37861.0 2.0091260069005443 1
gene  1 44 588 3.1537600409990496 0 37889.0 3.1537600409990496 1
gene  1 588 183 -0.19443921107619722 0 37890.0 -0.19443921107619722 1
gene  1 341 433 -3.7333564220520206 0 37895.0 -3.7333564220520206 1
gene  1 60 182 2.197016228690316 0 37962.0 2.197016228690316 1
gene  1 183 629 -3.935160495505089 0 38062.0 -3.935160495505089 1
gene  1 629 187 -3.244978464288474 0 38063.0 -3.244978464288474 1
gene  1 30 636 2.156991631754705 0 38094.0 2.156991631754705 1
gene  1 636 173 0.6649609808258966 0 38095.0 0.6649609808258966 1
gene  1 180 63 -1.9498946250672735 0 38117.0 -1.9498946250672735 1
gene  1 72 566 -0.9501840266843498 0 38149.0 -0.9501840266843498 1
gene  1 22 70 4.347039264235728 0 38194.0 4.347039264235728 1
gene  1 179 663 1.094996754603259 1 38214.0 1.094996754603259 1
gene  1 663 60 -1.214661839590811 0 38215.0 -1.214661839590811 1
gene  1 20 416 4.010955175780762 0 38234.0 4.010955175780762 1
gene  1 433 57 1.9942343010605863 0 38245.0 1.9942343010605863 1
gene  1 70 212 0.1379591061972043 0 38267.0 0.1379591061972043 1
gene  1 19 217 -1.5524172834322045 0 38272.0 -1.5524172834322045 1
gene  1 53 74 -0.5807339273906507 0 38299.0 -0.5807339273906507 1
gene  1 36 693 -0.8246576349887609 0 38359.0 -0.8246576349887609 1
gene  1 693 179 -0.18522058445578227 0 38360.0 -0.18522058445578227 1
gene  1 300 447 1.1647891677186102 0 38366.0 1.1647891677186102 1
gene  1 66 334 0.889353666343477 0 38372.0 0.889353666343477 1
gene  1 12 300 2.1109537671998 0 38378.0 2.1109537671998 1
gene  1 53 698 -2.5075753617245238 0 38388.0 -2.5075753617245238 1
gene  1 698 65 6.071642215219707 0 38389.0 6.071642215219707 1
gene  1 43 703 2.5070163411194537 0 38424.0 2.5070163411194537 1
gene  1 703 66 -2.2937396248103163 0 38425.0 -2.2937396248103163 1
gene  1 60 230 6.960266536965152 0 38460.0 6.960266536965152 1
gene  1 182 711 -2.4516217204661466 0 38472.0 -2.4516217204661466 1
gene  1 711 190 4.184386703028972 0 38473.0 4.184386703028972 1
gene  1 73 712 5.1325251095304205 1 38476.0 5.1325251095304205 1
gene  1 712 71 7.593508472330857 0 38477.0 7.593508472330857 1
gene  1 291 67 -0.5436775649525611 0 38505.0 -0.5436775649525611 1
gene  1 53 70 1.7104597078511778 0 38512.0 1.7104597078511778 1
gene  1 15 179 3.903047145924897 0 38516.0 3.903047145924897 1
gene  1 24 721 -1.873155766140917 0 38519.0 -1.873155766140917 1
gene  1 721 52 2.411761637822219 0 38520.0 2.411761637822219 1
gene  1 177 731 2.159515244389924 1 38557.0 2.159515244389924 1
gene  1 731 65 8.4825919440106 0 38558.0 8.4825919440106 1
genomeend 1
/* Organism # 002 Fitness:  2101,904 Error:  1000,000                      */
genomestart  2
trait 1 3.1716786746006695 0.725749451205806 2.1845647836656106 2.167197757587064 1.815110172036098 0.0 0.0 0.4757550050574233 
node 1 1 1 1
node 2 1 1 1
node 3 1 1 1
node 4 1 1 1
node 5 1 1 1
node 6 1 1 1
node 7 1 1 1
node 8 1 1 1
node 9 1 1 1
node 10 1 1 1
node 11 1 1 1
node 12 1 1 1
node 13 1 1 1
node 14 1 1 1
node 15 1 1 1
node 16 1 1 1
node 17 1 1 1
node 18 1 1 1
node 19 1 1 1
node 20 1 1 1
node 21 1 1 1
node 22 1 1 1
node 23 1 1 1
node 24 1 1 1
node 25 1 1 1
node 26 1 1 1
node 27 1 1 1
node 28 1 1 1
node 29 1 1 1
node 30 1 1 1
node 31 1 1 1
node 32 1 1 1
node 33 1 1 1
node 34 1 1 1
node 35 1 1 1
node 36 1 1 1
node 37 1 1 1
node 38 1 1 1
node 39 1 1 1
node 40 1 1 1
node 41 1 1 1
node 42 1 1 1
node 43 1 1 1
node 44 1 1 1
node 45 1 1 1
node 46 1 1 1
node 47 1 1 1
node 48 1 1 1
node 49 1 1 1
node 50 1 1 3
node 51 1 0 0
node 52 1 0 0
node 53 1 0 0
node 54 1 0 0
node 55 1 0 0
node 56 1 0 0
node 57 1 0 0
node 58 1 0 0
node 59 1 0 0
node 60 1 0 0
node 61 1 0 0
node 62 1 0 0
node 63 1 0 0
node 64 1 0 0
node 65 1 0 0
node 66 1 0 0
node 67 1 0 0
node 68 1 0 0
node 69 1 0 0
node 70 1 0 0
node 71 1 0 0
node 72 1 0 0
node 73 1 0 0
node 74 1 0 0
node 75 1 0 0
node 171 1 0 2
node 172 1 0 2
node 173 1 0 2
node 174 1 0 2
node 175 1 0 2
node 176 1 0 2
node 177 1 0 2
node 178 1 0 2
node 179 1 0 2
node 180 1 0 2
node 181 1 0 2
node 182 1 0 2
node 183 1 0 2
node 184 1 0 2
node 185 1 0 2
node 186 1 0 2
node 187 1 0 2
node 188 1 0 2
node 189 1 0 2
node 190 1 0 2
node 193 1 0 0
node 195 1 0 0
node 212 1 0 0
node 217 1 0 0
node 230 1 0 0
node 244 1 0 0
node 291 1 0 0
node 297 1 0 0
node 300 1 0 0
node 321 1 0 0
node 325 1 0 0
node 334 1 0 0
node 341 1 0 0
node 416 1 0 0
node 433 1 0 0
node 436 1 0 0
node 447 1 0 0
node 464 1 0 0
node 511 1 0 0
node 537 1 0 0
node 566 1 0 0
node 588 1 0 0
node 629 1 0 0
node 636 1 0 0
node 663 1 0 0
node 693 1 0 0
node 698 1 0 0
node 703 1 0 0
node 711 1 0 0
node 712 1 0 0
node 721 1 0 0
node 731 1 0 0
gene  1 28 51 1.7326206607751864 0 9527.0 1.7326206607751864 1
gene  1 33 51 -1.5777987821008743 0 9532.0 -1.5777987821008743 1
gene  1 36 51 -8.885663872799611 0 9535.0 -8.885663872799611 1
gene  1 40 51 -3.5617705389428016 0 9539.0 -3.5617705389428016 1
gene  1 42 51 23.8836589215288 0 9541.0 23.8836589215288 1
gene  1 54 51 5.1971726622822585 1 9553.0 5.1971726622822585 1
gene  1 57 51 -1.1386621111549096 1 9556.0 -1.1386621111549096 1
gene  1 68 51 -2.403434018561853 1 9567.0 -2.403434018561853 1
gene  1 174 51 0.36456862360929715 1 9673.0 0.36456862360929715 1
gene  1 183 51 6.7091671680739395 1 9682.0 6.7091671680739395 1
gene  1 184 51 -2.752262191981243 1 9683.0 -2.752262191981243 1
gene  1 189 51 5.163214089926241 1 9688.0 5.163214089926241 1
gene  1 3 52 2.216321775147676 0 9692.0 2.216321775147676 1
gene  1 6 52 22.974580840316534 0 9695.0 22.974580840316534 1
gene  1 24 52 0.8802623949879052 0 9713.0 0.8802623949879052 1
gene  1 29 52 -1.2531855101965557 0 9718.0 -1.2531855101965557 1
gene  1 31 52 0.6380879977482574 0 9720.0 0.6380879977482574 1
gene  1 35 52 -1.2116594297170935 0 9724.0 -1.2116594297170935 1
gene  1 63 52 -0.4036762747624059 1 9752.0 -0.4036762747624059 1
gene  1 179 52 1.8779727896551197 1 9868.0 1.8779727896551197 1
gene  1 183 52 -7.030199568636666 1 9872.0 -7.030199568636666 1
gene  1 184 52 -6.687044913441497 1 9873.0 -6.687044913441497 1
gene  1 185 52 -0.8009830866763479 1 9874.0 -0.8009830866763479 1
gene  1 5 53 1.3626033166967364 0 9884.0 1.3626033166967364 1
gene  1 6 53 -3.417373556007396 0 9885.0 -3.417373556007396 1
gene  1 10 53 -3.618591879839482 0 9889.0 -3.618591879839482 1
gene  1 33 53 -1.3782784734084428 0 9912.0 -1.3782784734084428 1
gene  1 35 53 -15.341675711804564 0 9914.0 -15.341675711804564 1
gene  1 38 53 -1.731980654503232 0 9917.0 -1.731980654503232 1
gene  1 45 53 8.26608575720472 0 9924.0 8.26608575720472 1
gene  1 71 53 10.50823117035907 1 9950.0 10.50823117035907 1
gene  1 16 54 -2.3218994532347965 0 10085.0 -2.3218994532347965 1
gene  1 19 54 10.46202204515541 0 10088.0 10.46202204515541 1
gene  1 36 54 5.068241502227646 0 10105.0 5.068241502227646 1
gene  1 42 54 3.28961023761716 0 10111.0 3.28961023761716 1
gene  1 58 54 2.7969714255550366 1 10127.0 2.7969714255550366 1
gene  1 62 54 2.325817300211838 1 10131.0 2.325817300211838 1
gene  1 73 54 -0.8773639955438185 1 10142.0 -0.8773639955438185 1
gene  1 177 54 -0.6650551226797952 1 10246.0 -0.6650551226797952 1
gene  1 180 54 10.378986257569293 1 10249.0 10.378986257569293 1
gene  1 190 54 -0.5434310211670951 1 10259.0 -0.5434310211670951 1
gene  1 20 55 -0.09605272127290065 0 10279.0 -0.09605272127290065 1
gene  1 31 55 -0.6824498756174152 0 10290.0 -0.6824498756174152 1
gene  1 35 55 -1.8447331212241727 0 10294.0 -1.8447331212241727 1
gene  1 41 55 2.362563356917722 0 10300.0 2.362563356917722 1
gene  1 47 55 -4.190746660076382 0 10306.0 -4.190746660076382 1
gene  1 52 55 -0.8898993889472937 0 10311.0 -0.8898993889472937 1
gene  1 69 55 6.256233093238613 1 10328.0 6.256233093238613 1
gene  1 75 55 9.599129515411164 1 10334.0 9.599129515411164 1
gene  1 187 55 12.109088604773415 1 10446.0 12.109088604773415 1
gene  1 7 56 1.415202799282294 0 10456.0 1.415202799282294 1
gene  1 11 56 -3.835445059726244 0 10460.0 -3.835445059726244 1
gene  1 13 56 -2.7777540405933037 0 10462.0 -2.7777540405933037 1
gene  1 36 56 -6.483830061136691 0 10485.0 -6.483830061136691 1
gene  1 41 56 -1.2613338452108147 0 10490.0 -1.2613338452108147 1
gene  1 44 56 -4.0691333943344805 0 10493.0 -4.0691333943344805 1
gene  1 46 56 -10.673539674882036 0 10495.0 -10.673539674882036 1
gene  1 49 56 7.398129352114314 0 10498.0 7.398129352114314 1
gene  1 68 56 -0.5812129634019131 1 10517.0 -0.5812129634019131 1
gene  1 179 56 -0.4460886628046361 1 10628.0 -0.4460886628046361 1
gene  1 183 56 -0.04367736006325923 1 10632.0 -0.04367736006325923 1
gene  1 3 57 1.633364986951181 0 10642.0 1.633364986951181 1
gene  1 19 57 1.9667416123485362 0 10658.0 1.9667416123485362 1
gene  1 22 57 1.6875313052343612 0 10661.0 1.6875313052343612 1
gene  1 28 57 8.913191697865372 0 10667.0 8.913191697865372 1
gene  1 30 57 1.8659605800953063 0 10669.0 1.8659605800953063 1
gene  1 35 57 2.3541961018871076 0 10674.0 2.3541961018871076 1
gene  1 47 57 2.1367441658057578 0 10686.0 2.1367441658057578 1
gene  1 59 57 2.9164447423617537 1 10698.0 2.9164447423617537 1
gene  1 60 57 -1.14975438087813 1 10699.0 -1.14975438087813 1
gene  1 187 57 -2.465870097794349 1 10826.0 -2.465870097794349 1
gene  1 5 58 -11.717712051057086 0 10834.0 -11.717712051057086 1
gene  1 14 58 1.6013432715062415 0 10843.0 1.6013432715062415 1
gene  1 15 58 1.1369513269681428 0 10844.0 1.1369513269681428 1
gene  1 24 58 7.896164743121191 0 10853.0 7.896164743121191 1
gene  1 32 58 -13.589882526799538 0 10861.0 -13.589882526799538 1
gene  1 43 58 -5.574146424796552 0 10872.0 -5.574146424796552 1
gene  1 49 58 -1.8567790566836466 0 10878.0 -1.8567790566836466 1
gene  1 53 58 2.2434077209507777 0 10882.0 2.2434077209507777 1
gene  1 62 58 3.965099732151522 1 10891.0 3.965099732151522 1
gene  1 64 58 6.249689279232039 1 10893.0 6.249689279232039 1
gene  1 69 58 -2.129832731419182 1 10898.0 -2.129832731419182 1
gene  1 182 58 2.103217844623778 1 11011.0 2.103217844623778 1
gene  1 1 59 2.2971394409823747 0 11020.0 2.2971394409823747 1
gene  1 4 59 -8.88423594069679 0 11023.0 -8.88423594069679 1
gene  1 27 59 4.9396379819427185 0 11046.0 4.9396379819427185 1
gene  1 34 59 -10.240430684211201 0 11053.0 -10.240430684211201 1
gene  1 37 59 -2.0395973241263436 0 11056.0 -2.0395973241263436 1
gene  1 44 59 3.5758530880242327 0 11063.0 3.5758530880242327 1
gene  1 59 59 0.11395316121823051 1 11078.0 0.11395316121823051 1
gene  1 73 59 -7.174992503877641 1 11092.0 -7.174992503877641 1
gene  1 75 59 -1.2509688304808737 1 11094.0 -1.2509688304808737 1
gene  1 183 59 1.5031416607191086 1 11202.0 1.5031416607191086 1
gene  1 185 59 -2.2788789592246514 1 11204.0 -2.2788789592246514 1
gene  1 8 60 -9.78245102456112 0 11217.0 -9.78245102456112 1
gene  1 10 60 0.24762686717005378 0 11219.0 0.24762686717005378 1
gene  1 40 60 3.7091632096104146 0 11249.0 3.7091632096104146 1
gene  1 45 60 0.4032621643890721 0 11254.0 0.4032621643890721 1
gene  1 61 60 -1.381805810634836 1 11270.0 -1.381805810634836 1
gene  1 72 60 -1.2471752764745947 1 11281.0 -1.2471752764745947 1
gene  1 177 60 0.40687643722134487 1 11386.0 0.40687643722134487 1
gene  1 179 60 1.0121036255524662 1 11388.0 1.0121036255524662 1
gene  1 187 60 -0.07643704518777295 1 11396.0 -0.07643704518777295 1
gene  1 7 61 5.531385990974193 0 11406.0 5.531385990974193 1
gene  1 15 61 -2.904891424111771 0 11414.0 -2.904891424111771 1
gene  1 22 61 12.137609066724961 0 11421.0 12.137609066724961 1
gene  1 28 61 3.861093047421205 0 11427.0 3.861093047421205 1
gene  1 36 61 19.917425610469394 0 11435.0 19.917425610469394 1
gene  1 53 61 -5.452684515602298 0 11452.0 -5.452684515602298 1
gene  1 54 61 4.004590624397704 0 11453.0 4.004590624397704 1
gene  1 67 61 -5.59058132360941 1 11466.0 -5.59058132360941 1
gene  1 177 61 5.936184897733317 1 11576.0 5.936184897733317 1
gene  1 184 61 -17.782031308322825 1 11583.0 -17.782031308322825 1
gene  1 6 62 2.841283730501058 0 11595.0 2.841283730501058 1
gene  1 11 62 -5.351347807432097 0 11600.0 -5.351347807432097 1
gene  1 15 62 -6.09708353622343 0 11604.0 -6.09708353622343 1
gene  1 26 62 -4.211284374579532 0 11615.0 -4.211284374579532 1
gene  1 53 62 -2.89726110160127 0 11642.0 -2.89726110160127 1
gene  1 68 62 -6.658695288172919 1 11657.0 -6.658695288172919 1
gene  1 72 62 3.525403778665459 1 11661.0 3.525403778665459 1
gene  1 174 62 9.863743450269592 1 11763.0 9.863743450269592 1
gene  1 175 62 3.8870088322145486 1 11764.0 3.8870088322145486 1
gene  1 184 62 0.4328976847375851 1 11773.0 0.4328976847375851 1
gene  1 185 62 -3.3760897279646827 1 11774.0 -3.3760897279646827 1
gene  1 188 62 3.281427030584686 1 11777.0 3.281427030584686 1
gene  1 31 63 -13.312122459813732 0 11810.0 -13.312122459813732 1
gene  1 32 63 6.820808310487427 0 11811.0 6.820808310487427 1
gene  1 37 63 -8.605777601987263 0 11816.0 -8.605777601987263 1
gene  1 38 63 2.4782517367408197 0 11817.0 2.4782517367408197 1
gene  1 42 63 -1.8067267177864896 0 11821.0 -1.8067267177864896 1
gene  1 46 63 2.412271301314788 0 11825.0 2.412271301314788 1
gene  1 48 63 2.4288963600832245 0 11827.0 2.4288963600832245 1
gene  1 50 63 -1.9259224147601013 0 11829.0 -1.9259224147601013 1
gene  1 60 63 10.33332130004125 0 11839.0 10.33332130004125 1
gene  1 63 63 6.429702627296325 1 11842.0 6.429702627296325 1
gene  1 72 63 -0.8675439214262224 1 11851.0 -0.8675439214262224 1
gene  1 74 63 -3.536755748844907 1 11853.0 -3.536755748844907 1
gene  1 178 63 -8.659766787312709 1 11957.0 -8.659766787312709 1
gene  1 180 63 -1.912582925477367 1 11959.0 -1.912582925477367 1
gene  1 181 63 3.453504327615061 1 11960.0 3.453504327615061 1
gene  1 8 64 -0.567357393663829 0 11977.0 -0.567357393663829 1
gene  1 11 64 -2.2099486800288344 0 11980.0 -2.2099486800288344 1
gene  1 20 64 -9.23917952418238 0 11989.0 -9.23917952418238 1
gene  1 27 64 1.2162484277015597 0 11996.0 1.2162484277015597 1
gene  1 41 64 -11.614654433044942 0 12010.0 -11.614654433044942 1
gene  1 44 64 -0.4820897040182297 0 12013.0 -0.4820897040182297 1
gene  1 49 64 -3.890302351417402 0 12018.0 -3.890302351417402 1
gene  1 50 64 -0.643733458992729 0 12019.0 -0.643733458992729 1
gene  1 53 64 4.681791306438637 0 12022.0 4.681791306438637 1
gene  1 59 64 6.35747250446901 0 12028.0 6.35747250446901 1
gene  1 70 64 7.204948085578581 1 12039.0 7.204948085578581 1
gene  1 176 64 -0.19036827865290568 1 12145.0 -0.19036827865290568 1
gene  1 179 64 3.3366425369641166 1 12148.0 3.3366425369641166 1
gene  1 183 64 -1.5916289569582998 1 12152.0 -1.5916289569582998 1
gene  1 184 64 0.16928277727545127 1 12153.0 0.16928277727545127 1
gene  1 185 64 14.781830601833736 1 12154.0 14.781830601833736 1
gene  1 8 65 14.266725689767545 0 12167.0 14.266725689767545 1
gene  1 13 65 -2.162456600536463 0 12172.0 -2.162456600536463 1
gene  1 18 65 -0.15405363504352287 0 12177.0 -0.15405363504352287 1
gene  1 39 65 -1.181779096810101 0 12198.0 -1.181779096810101 1
gene  1 53 65 -2.604952735088321 0 12212.0 -2.604952735088321 1
gene  1 69 65 1.5579922126992727 1 12228.0 1.5579922126992727 1
gene  1 70 65 1.316197423247552 1 12229.0 1.316197423247552 1
gene  1 175 65 4.062353521952584 1 12334.0 4.062353521952584 1
gene  1 176 65 -2.0384051918248653 1 12335.0 -2.0384051918248653 1
gene  1 177 65 7.181878109845059 1 12336.0 7.181878109845059 1
gene  1 185 65 -0.12027816783967471 1 12344.0 -0.12027816783967471 1
gene  1 1 66 -3.0092485051502535 0 12350.0 -3.0092485051502535 1
gene  1 4 66 9.556921141812659 0 12353.0 9.556921141812659 1
gene  1 18 66 -0.8648013284524949 0 12367.0 -0.8648013284524949 1
gene  1 21 66 5.268726220653951 0 12370.0 5.268726220653951 1
gene  1 43 66 1.2663633646650734 0 12392.0 1.2663633646650734 1
gene  1 47 66 6.623772651193141 0 12396.0 6.623772651193141 1
gene  1 50 66 6.344614715360599 0 12399.0 6.344614715360599 1
gene  1 60 66 -0.6695919625601165 0 12409.0 -0.6695919625601165 1
gene  1 62 66 0.5200583130153227 0 12411.0 0.5200583130153227 1
gene  1 66 66 1.605660440297968 1 12415.0 1.605660440297968 1
gene  1 184 66 9.779091062205485 1 12533.0 9.779091062205485 1
gene  1 8 67 -2.838017840355384 0 12547.0 -2.838017840355384 1
gene  1 38 67 -8.769711722093325 0 12577.0 -8.769711722093325 1
gene  1 46 67 5.949034572012312 0 12585.0 5.949034572012312 1
gene  1 49 67 -1.4990760809446373 0 12588.0 -1.4990760809446373 1
gene  1 57 67 0.2404283099424906 0 12596.0 0.2404283099424906 1
gene  1 61 67 10.254812434925979 0 12600.0 10.254812434925979 1
gene  1 72 67 9.80889637359682 1 12611.0 9.80889637359682 1
gene  1 177 67 0.1700154126883996 1 12716.0 0.1700154126883996 1
gene  1 182 67 0.09535403111480567 1 12721.0 0.09535403111480567 1
gene  1 185 67 -6.463021997365697 1 12724.0 -6.463021997365697 1
gene  1 189 67 -1.1511685696533613 1 12728.0 -1.1511685696533613 1
gene  1 5 68 3.8984696644832555 0 12734.0 3.8984696644832555 1
gene  1 16 68 7.492647547835599 0 12745.0 7.492647547835599 1
gene  1 40 68 1.0401343376665961 0 12769.0 1.0401343376665961 1
gene  1 41 68 -2.5429466420646927 0 12770.0 -2.5429466420646927 1
gene  1 42 68 -7.8712650005200935 0 12771.0 -7.8712650005200935 1
gene  1 71 68 -1.5199014491811633 1 12800.0 -1.5199014491811633 1
gene  1 185 68 -3.513807538467003 1 12914.0 -3.513807538467003 1
gene  1 6 69 -4.385966805844285 0 12925.0 -4.385966805844285 1
gene  1 16 69 1.3574025972233608 0 12935.0 1.3574025972233608 1
gene  1 19 69 -2.5325391015899172 0 12938.0 -2.5325391015899172 1
gene  1 44 69 2.4642394558354663 0 12963.0 2.4642394558354663 1
gene  1 45 69 -10.87525041607551 0 12964.0 -10.87525041607551 1
gene  1 65 69 -3.3074645052816525 0 12984.0 -3.3074645052816525 1
gene  1 171 69 -7.378837852929129 1 13090.0 -7.378837852929129 1
gene  1 3 70 2.8188040922748265 0 13112.0 2.8188040922748265 1
gene  1 39 70 1.924539137146138 0 13148.0 1.924539137146138 1
gene  1 60 70 1.2938540900388977 0 13169.0 1.2938540900388977 1
gene  1 171 70 3.425552437712261 1 13280.0 3.425552437712261 1
gene  1 181 70 5.0535594374590485 1 13290.0 5.0535594374590485 1
gene  1 183 70 -2.1666384067120408 1 13292.0 -2.1666384067120408 1
gene  1 11 71 -7.657653779950283 0 13310.0 -7.657653779950283 1
gene  1 15 71 -2.358320162143601 0 13314.0 -2.358320162143601 1
gene  1 30 71 1.8188331668665687 0 13329.0 1.8188331668665687 1
gene  1 33 71 -3.091623970589882 0 13332.0 -3.091623970589882 1
gene  1 34 71 6.281494743773008 0 13333.0 6.281494743773008 1
gene  1 48 71 -1.2719149540746695 0 13347.0 -1.2719149540746695 1
gene  1 50 71 0.11251094480827173 0 13349.0 0.11251094480827173 1
gene  1 51 71 17.304454010192543 0 13350.0 17.304454010192543 1
gene  1 57 71 -0.6401017846049326 0 13356.0 -0.6401017846049326 1
gene  1 73 71 1.671106523255331 1 13372.0 1.671106523255331 1
gene  1 185 71 -1.6864462867300103 1 13484.0 -1.6864462867300103 1
gene  1 24 72 4.162828725714582 0 13513.0 4.162828725714582 1
gene  1 51 72 -6.077549622964826 0 13540.0 -6.077549622964826 1
gene  1 54 72 -0.734259047217747 0 13543.0 -0.734259047217747 1
gene  1 60 72 -4.532961234076257 0 13549.0 -4.532961234076257 1
gene  1 3 73 4.776341414020564 0 13682.0 4.776341414020564 1
