/* Species # 034         : (size= 001) (AvfFit= 1595,414) (Age= 143,000)  */
/*-------------------------------------------------------------------*/
/* Organism # 000 Fitness:  1595,414 Error:  1000,000                      */
genomestart  0
trait 1 1.14550431798647 0.37421622686174005 3.9437022554783567 0.6453242783605769 5.101865785257242 0.0 1.1332279107980434 0.0 
node 1 1 1 1
node 2 1 1 1
node 3 1 1 1
node 4 1 1 1
node 5 1 1 1
node 6 1 1 1
node 7 1 1 1
node 8 1 1 1
node 9 1 1 1
node 10 1 1 1
node 11 1 1 1
node 12 1 1 1
node 13 1 1 1
node 14 1 1 1
node 15 1 1 1
node 16 1 1 1
node 17 1 1 1
node 18 1 1 1
node 19 1 1 1
node 20 1 1 1
node 21 1 1 1
node 22 1 1 1
node 23 1 1 1
node 24 1 1 1
node 25 1 1 1
node 26 1 1 1
node 27 1 1 1
node 28 1 1 1
node 29 1 1 1
node 30 1 1 1
node 31 1 1 1
node 32 1 1 1
node 33 1 1 1
node 34 1 1 1
node 35 1 1 1
node 36 1 1 1
node 37 1 1 1
node 38 1 1 1
node 39 1 1 1
node 40 1 1 1
node 41 1 1 1
node 42 1 1 1
node 43 1 1 1
node 44 1 1 1
node 45 1 1 1
node 46 1 1 1
node 47 1 1 1
node 48 1 1 1
node 49 1 1 1
node 50 1 1 3
node 51 1 0 0
node 52 1 0 0
node 53 1 0 0
node 54 1 0 0
node 55 1 0 0
node 56 1 0 0
node 57 1 0 0
node 58 1 0 0
node 59 1 0 0
node 60 1 0 0
node 61 1 0 0
node 62 1 0 0
node 63 1 0 0
node 64 1 0 0
node 65 1 0 0
node 66 1 0 0
node 67 1 0 0
node 68 1 0 0
node 69 1 0 0
node 70 1 0 0
node 71 1 0 0
node 72 1 0 0
node 73 1 0 0
node 74 1 0 0
node 75 1 0 0
node 171 1 0 2
node 172 1 0 2
node 173 1 0 2
node 174 1 0 2
node 175 1 0 2
node 176 1 0 2
node 177 1 0 2
node 178 1 0 2
node 179 1 0 2
node 180 1 0 2
node 181 1 0 2
node 182 1 0 2
node 183 1 0 2
node 184 1 0 2
node 185 1 0 2
node 186 1 0 2
node 187 1 0 2
node 188 1 0 2
node 189 1 0 2
node 190 1 0 2
node 193 1 0 0
node 195 1 0 0
node 212 1 0 0
node 217 1 0 0
node 230 1 0 0
node 244 1 0 0
node 291 1 0 0
node 297 1 0 0
node 300 1 0 0
node 321 1 0 0
node 325 1 0 0
node 334 1 0 0
node 341 1 0 0
node 416 1 0 0
node 433 1 0 0
node 436 1 0 0
node 447 1 0 0
node 464 1 0 0
node 511 1 0 0
node 543 1 0 0
node 556 1 0 0
node 564 1 0 0
node 581 1 0 0
node 589 1 0 0
node 605 1 0 0
node 612 1 0 0
node 640 1 0 0
node 643 1 0 0
gene  1 28 51 -2.5828549532884177 0 9527.0 -2.5828549532884177 1
gene  1 33 51 4.176073625266109 0 9532.0 4.176073625266109 1
gene  1 36 51 -0.8873079123738641 0 9535.0 -0.8873079123738641 1
gene  1 40 51 -7.877392528054907 0 9539.0 -7.877392528054907 1
gene  1 42 51 -0.10833318972287281 0 9541.0 -0.10833318972287281 1
gene  1 54 51 10.670664980209006 1 9553.0 10.670664980209006 1
gene  1 57 51 -9.687011258029264 1 9556.0 -9.687011258029264 1
gene  1 68 51 0.7038229930282809 1 9567.0 0.7038229930282809 1
gene  1 174 51 4.172577461153573 1 9673.0 4.172577461153573 1
gene  1 183 51 -6.662810987649608 1 9682.0 -6.662810987649608 1
gene  1 184 51 1.4757075931554366 1 9683.0 1.4757075931554366 1
gene  1 189 51 -0.4442048727310838 1 9688.0 -0.4442048727310838 1
gene  1 3 52 2.433088157939352 0 9692.0 2.433088157939352 1
gene  1 6 52 -6.744569639808357 0 9695.0 -6.744569639808357 1
gene  1 24 52 -4.5905092372580425 0 9713.0 -4.5905092372580425 1
gene  1 29 52 2.0738346238103693 0 9718.0 2.0738346238103693 1
gene  1 31 52 -0.5624187705130455 0 9720.0 -0.5624187705130455 1
gene  1 35 52 -5.853965525898358 0 9724.0 -5.853965525898358 1
gene  1 63 52 1.5784100678633957 1 9752.0 1.5784100678633957 1
gene  1 179 52 2.9201373033905007 1 9868.0 2.9201373033905007 1
gene  1 183 52 -1.290985350870725 1 9872.0 -1.290985350870725 1
gene  1 184 52 0.6195674000478253 1 9873.0 0.6195674000478253 1
gene  1 185 52 -1.3891527887762989 1 9874.0 -1.3891527887762989 1
gene  1 5 53 16.03348223541596 0 9884.0 16.03348223541596 1
gene  1 6 53 -11.275525932181976 0 9885.0 -11.275525932181976 1
gene  1 10 53 -5.2803744126687935 0 9889.0 -5.2803744126687935 1
gene  1 33 53 -0.4259151635204941 0 9912.0 -0.4259151635204941 1
gene  1 35 53 2.6274418568478266 0 9914.0 2.6274418568478266 1
gene  1 38 53 3.6043066559743986 0 9917.0 3.6043066559743986 1
gene  1 45 53 2.7658733670971345 0 9924.0 2.7658733670971345 1
gene  1 71 53 -5.4303662567570115 1 9950.0 -5.4303662567570115 1
gene  1 16 54 1.5375015490997932 0 10085.0 1.5375015490997932 1
gene  1 19 54 -10.523133804179032 0 10088.0 -10.523133804179032 1
gene  1 36 54 2.6646226500979497 0 10105.0 2.6646226500979497 1
gene  1 42 54 -4.701940668420047 0 10111.0 -4.701940668420047 1
gene  1 58 54 3.1133142691148894 1 10127.0 3.1133142691148894 1
gene  1 62 54 2.9629316675922444 1 10131.0 2.9629316675922444 1
gene  1 73 54 -6.6677349064424885 1 10142.0 -6.6677349064424885 1
gene  1 177 54 -15.441753501168506 1 10246.0 -15.441753501168506 1
gene  1 180 54 8.911885849884271 1 10249.0 8.911885849884271 1
gene  1 190 54 -0.6529391713767085 1 10259.0 -0.6529391713767085 1
gene  1 20 55 -8.097469067277155 0 10279.0 -8.097469067277155 1
gene  1 31 55 -2.019348888824213 0 10290.0 -2.019348888824213 1
gene  1 35 55 2.9432366742112857 0 10294.0 2.9432366742112857 1
gene  1 41 55 3.8074371594670167 0 10300.0 3.8074371594670167 1
gene  1 47 55 4.954370624879635 0 10306.0 4.954370624879635 1
gene  1 52 55 2.7729414225202516 0 10311.0 2.7729414225202516 1
gene  1 69 55 -1.4800210432004781 1 10328.0 -1.4800210432004781 1
gene  1 75 55 0.26869429376472054 1 10334.0 0.26869429376472054 1
gene  1 187 55 -6.833696254366289 1 10446.0 -6.833696254366289 1
gene  1 7 56 -0.4622744208461813 0 10456.0 -0.4622744208461813 1
gene  1 11 56 -3.492769936803641 0 10460.0 -3.492769936803641 1
gene  1 13 56 2.3156328716392256 0 10462.0 2.3156328716392256 1
gene  1 36 56 3.5833757448642896 0 10485.0 3.5833757448642896 1
gene  1 41 56 -0.062227465407196536 0 10490.0 -0.062227465407196536 1
gene  1 44 56 2.9869892248902135 0 10493.0 2.9869892248902135 1
gene  1 46 56 14.882625727701885 0 10495.0 14.882625727701885 1
gene  1 49 56 -0.7119439441329731 0 10498.0 -0.7119439441329731 1
gene  1 68 56 -7.289202255040108 1 10517.0 -7.289202255040108 1
gene  1 179 56 -3.34141175119825 1 10628.0 -3.34141175119825 1
gene  1 183 56 1.5082498401101962 1 10632.0 1.5082498401101962 1
gene  1 3 57 3.5536849542820867 0 10642.0 3.5536849542820867 1
gene  1 19 57 -6.975950979780682 0 10658.0 -6.975950979780682 1
gene  1 22 57 -10.630484382067547 0 10661.0 -10.630484382067547 1
gene  1 28 57 6.173069384104032 0 10667.0 6.173069384104032 1
gene  1 30 57 -2.914166687877321 0 10669.0 -2.914166687877321 1
gene  1 35 57 3.8008306833785763 0 10674.0 3.8008306833785763 1
gene  1 47 57 5.689755601665773 0 10686.0 5.689755601665773 1
gene  1 59 57 -0.6996819981392146 1 10698.0 -0.6996819981392146 1
gene  1 60 57 -3.49614661174726 1 10699.0 -3.49614661174726 1
gene  1 187 57 2.3543557726581303 1 10826.0 2.3543557726581303 1
gene  1 5 58 -1.802192726326055 0 10834.0 -1.802192726326055 1
gene  1 14 58 -4.864912603835732 0 10843.0 -4.864912603835732 1
gene  1 15 58 7.892506786672935 0 10844.0 7.892506786672935 1
gene  1 24 58 -2.720957730266308 0 10853.0 -2.720957730266308 1
gene  1 32 58 2.9519418358583267 0 10861.0 2.9519418358583267 1
gene  1 43 58 -2.6588261141807834 0 10872.0 -2.6588261141807834 1
gene  1 49 58 2.9365031382332862 0 10878.0 2.9365031382332862 1
gene  1 53 58 -4.452882114355036 0 10882.0 -4.452882114355036 1
gene  1 62 58 4.022703873135003 1 10891.0 4.022703873135003 1
gene  1 64 58 1.6449468801703184 1 10893.0 1.6449468801703184 1
gene  1 69 58 10.568374617709527 1 10898.0 10.568374617709527 1
gene  1 182 58 -3.3864710569937095 1 11011.0 -3.3864710569937095 1
gene  1 1 59 -12.954995505949604 0 11020.0 -12.954995505949604 1
gene  1 4 59 5.035753164041932 0 11023.0 5.035753164041932 1
gene  1 27 59 4.543705124060597 0 11046.0 4.543705124060597 1
gene  1 34 59 2.558909901837736 0 11053.0 2.558909901837736 1
gene  1 37 59 0.49541767151361205 0 11056.0 0.49541767151361205 1
gene  1 44 59 -1.4911149733571585 0 11063.0 -1.4911149733571585 1
gene  1 59 59 -3.582050424826825 1 11078.0 -3.582050424826825 1
gene  1 73 59 1.4883136760924525 1 11092.0 1.4883136760924525 1
gene  1 75 59 0.9854053214868999 1 11094.0 0.9854053214868999 1
gene  1 183 59 0.1856857789039319 1 11202.0 0.1856857789039319 1
gene  1 185 59 0.8447739186471225 1 11204.0 0.8447739186471225 1
gene  1 8 60 5.006063429045228 0 11217.0 5.006063429045228 1
gene  1 10 60 0.7477407646121033 0 11219.0 0.7477407646121033 1
gene  1 40 60 2.53647861031841 0 11249.0 2.53647861031841 1
gene  1 45 60 -8.731340469204978 0 11254.0 -8.731340469204978 1
gene  1 61 60 2.8687524486884994 1 11270.0 2.8687524486884994 1
gene  1 72 60 -1.1452272268205992 1 11281.0 -1.1452272268205992 1
gene  1 177 60 -4.825956386301689 1 11386.0 -4.825956386301689 1
gene  1 179 60 -1.0468110236788626 1 11388.0 -1.0468110236788626 1
gene  1 187 60 -0.23980486797534817 1 11396.0 -0.23980486797534817 1
gene  1 7 61 1.3613839072085159 0 11406.0 1.3613839072085159 1
gene  1 15 61 2.4970858606158317 0 11414.0 2.4970858606158317 1
gene  1 22 61 3.970285477242489 0 11421.0 3.970285477242489 1
gene  1 28 61 -0.5655795953438583 0 11427.0 -0.5655795953438583 1
gene  1 36 61 -2.782383470105787 0 11435.0 -2.782383470105787 1
gene  1 53 61 -7.857761567888419 0 11452.0 -7.857761567888419 1
gene  1 54 61 -4.663096237535328 0 11453.0 -4.663096237535328 1
gene  1 67 61 -1.7981496222422728 1 11466.0 -1.7981496222422728 1
gene  1 177 61 -3.815381019117767 1 11576.0 -3.815381019117767 1
gene  1 184 61 -0.4253711969965308 1 11583.0 -0.4253711969965308 1
gene  1 6 62 -0.06226318816062926 0 11595.0 -0.06226318816062926 1
gene  1 11 62 -1.0425894073124184 0 11600.0 -1.0425894073124184 1
gene  1 15 62 -6.786666586407634 0 11604.0 -6.786666586407634 1
gene  1 26 62 0.12522117665356403 0 11615.0 0.12522117665356403 1
gene  1 53 62 0.5870044842360206 0 11642.0 0.5870044842360206 1
gene  1 68 62 1.889444648522598 1 11657.0 1.889444648522598 1
gene  1 72 62 -0.6370426478817568 1 11661.0 -0.6370426478817568 1
gene  1 174 62 1.6013131749608542 1 11763.0 1.6013131749608542 1
gene  1 175 62 -0.15874988999478812 1 11764.0 -0.15874988999478812 1
gene  1 184 62 7.402147269082727 1 11773.0 7.402147269082727 1
gene  1 185 62 8.313471223614165 1 11774.0 8.313471223614165 1
gene  1 188 62 0.24567803176754577 1 11777.0 0.24567803176754577 1
gene  1 31 63 -0.2671122262412535 0 11810.0 -0.2671122262412535 1
gene  1 32 63 3.229077547512206 0 11811.0 3.229077547512206 1
gene  1 37 63 -4.627371869119155 0 11816.0 -4.627371869119155 1
gene  1 38 63 2.7057655664589086 0 11817.0 2.7057655664589086 1
gene  1 42 63 -0.8239715551929239 0 11821.0 -0.8239715551929239 1
gene  1 46 63 0.7386996478087979 0 11825.0 0.7386996478087979 1
gene  1 48 63 -0.8988022499467032 0 11827.0 -0.8988022499467032 1
gene  1 50 63 -3.5146349947768747 0 11829.0 -3.5146349947768747 1
gene  1 60 63 1.0212064211897758 0 11839.0 1.0212064211897758 1
gene  1 63 63 -0.2379703980820157 1 11842.0 -0.2379703980820157 1
gene  1 72 63 -6.913133833200347 1 11851.0 -6.913133833200347 1
gene  1 74 63 0.6940311400727659 1 11853.0 0.6940311400727659 1
gene  1 178 63 -2.6963523603432766 1 11957.0 -2.6963523603432766 1
gene  1 180 63 -6.482919238352428 1 11959.0 -6.482919238352428 1
gene  1 181 63 -2.6264743577387684 1 11960.0 -2.6264743577387684 1
gene  1 8 64 4.183503968717907 0 11977.0 4.183503968717907 1
gene  1 11 64 -4.4099563161738375 0 11980.0 -4.4099563161738375 1
gene  1 20 64 -5.059422270979814 0 11989.0 -5.059422270979814 1
gene  1 27 64 3.6453477225844293 0 11996.0 3.6453477225844293 1
gene  1 41 64 -2.727348291907292 0 12010.0 -2.727348291907292 1
gene  1 44 64 -1.8699130748617703 0 12013.0 -1.8699130748617703 1
gene  1 49 64 6.894724887397784 0 12018.0 6.894724887397784 1
gene  1 50 64 -3.698437978155003 0 12019.0 -3.698437978155003 1
gene  1 53 64 2.081158826429334 0 12022.0 2.081158826429334 1
gene  1 59 64 3.323172466438852 0 12028.0 3.323172466438852 1
gene  1 70 64 -7.7886379903926635 1 12039.0 -7.7886379903926635 1
gene  1 176 64 0.5334701331649577 1 12145.0 0.5334701331649577 1
gene  1 179 64 -4.216645940616949 1 12148.0 -4.216645940616949 1
gene  1 183 64 3.328589302396529 1 12152.0 3.328589302396529 1
gene  1 184 64 -5.892747319384245 1 12153.0 -5.892747319384245 1
gene  1 185 64 -0.2069366370662884 1 12154.0 -0.2069366370662884 1
gene  1 8 65 -1.4569605714039724 0 12167.0 -1.4569605714039724 1
gene  1 13 65 -4.969649929633645 0 12172.0 -4.969649929633645 1
gene  1 18 65 -1.0466293726936091 0 12177.0 -1.0466293726936091 1
gene  1 39 65 4.191993753352617 0 12198.0 4.191993753352617 1
gene  1 53 65 2.3833562185302206 0 12212.0 2.3833562185302206 1
gene  1 69 65 -5.1793014272066555 1 12228.0 -5.1793014272066555 1
gene  1 70 65 -0.3033133674059889 1 12229.0 -0.3033133674059889 1
gene  1 175 65 4.919952816426218 1 12334.0 4.919952816426218 1
gene  1 176 65 5.354271290962508 1 12335.0 5.354271290962508 1
gene  1 177 65 2.0448603243224137 1 12336.0 2.0448603243224137 1
gene  1 185 65 0.21079856733340685 1 12344.0 0.21079856733340685 1
gene  1 1 66 -2.34570141242643 0 12350.0 -2.34570141242643 1
gene  1 4 66 -3.8360010948035765 0 12353.0 -3.8360010948035765 1
gene  1 18 66 1.5981446150904812 0 12367.0 1.5981446150904812 1
gene  1 21 66 0.6396022866224425 0 12370.0 0.6396022866224425 1
gene  1 43 66 -0.3276017786454568 0 12392.0 -0.3276017786454568 1
gene  1 47 66 -1.2668793906763924 0 12396.0 -1.2668793906763924 1
gene  1 50 66 10.711346147945267 0 12399.0 10.711346147945267 1
gene  1 60 66 -2.6986171176072657 0 12409.0 -2.6986171176072657 1
gene  1 62 66 -0.8249729341619645 0 12411.0 -0.8249729341619645 1
gene  1 66 66 2.8348089342361544 1 12415.0 2.8348089342361544 1
gene  1 184 66 1.443410413164916 1 12533.0 1.443410413164916 1
gene  1 8 67 4.560417698481207 0 12547.0 4.560417698481207 1
gene  1 38 67 -5.4253550423187145 0 12577.0 -5.4253550423187145 1
gene  1 46 67 2.543813750061466 0 12585.0 2.543813750061466 1
gene  1 49 67 -9.132231551708978 0 12588.0 -9.132231551708978 1
gene  1 57 67 -0.08162318931159374 0 12596.0 -0.08162318931159374 1
gene  1 61 67 2.2358308694618203 0 12600.0 2.2358308694618203 1
gene  1 72 67 -2.1051553336863926 1 12611.0 -2.1051553336863926 1
gene  1 177 67 -8.254851698348537 1 12716.0 -8.254851698348537 1
gene  1 182 67 8.114003379357904 1 12721.0 8.114003379357904 1
gene  1 185 67 -3.759738396976344 1 12724.0 -3.759738396976344 1
gene  1 189 67 -3.15524243139843 1 12728.0 -3.15524243139843 1
gene  1 5 68 2.751189583168841 0 12734.0 2.751189583168841 1
gene  1 16 68 -2.0556297665129484 0 12745.0 -2.0556297665129484 1
gene  1 40 68 1.9933345032870449 0 12769.0 1.9933345032870449 1
gene  1 41 68 4.003958175522616 0 12770.0 4.003958175522616 1
gene  1 42 68 -0.3610932400946014 0 12771.0 -0.3610932400946014 1
gene  1 71 68 2.2536997931349427 1 12800.0 2.2536997931349427 1
gene  1 185 68 -2.425691587529733 1 12914.0 -2.425691587529733 1
gene  1 6 69 1.5642893998841996 0 12925.0 1.5642893998841996 1
gene  1 16 69 2.3937415789353595 0 12935.0 2.3937415789353595 1
gene  1 19 69 6.71823848774204 0 12938.0 6.71823848774204 1
gene  1 44 69 3.0450192013548807 0 12963.0 3.0450192013548807 1
gene  1 45 69 2.0352853977750334 0 12964.0 2.0352853977750334 1
gene  1 65 69 0.19055749629853547 0 12984.0 0.19055749629853547 1
gene  1 171 69 -8.896421782449957 1 13090.0 -8.896421782449957 1
gene  1 3 70 -0.06651813055972117 0 13112.0 -0.06651813055972117 1
gene  1 39 70 -1.2878328117714872 0 13148.0 -1.2878328117714872 1
gene  1 60 70 6.123042284690591 0 13169.0 6.123042284690591 1
gene  1 171 70 2.073248125446677 1 13280.0 2.073248125446677 1
gene  1 181 70 -5.31096272589128 1 13290.0 -5.31096272589128 1
gene  1 183 70 8.439152901270257 1 13292.0 8.439152901270257 1
gene  1 11 71 1.2321412382442039 0 13310.0 1.2321412382442039 1
gene  1 15 71 -2.100880875829307 0 13314.0 -2.100880875829307 1
gene  1 30 71 1.4026149075515302 0 13329.0 1.4026149075515302 1
gene  1 33 71 3.986737486158664 0 13332.0 3.986737486158664 1
gene  1 34 71 -9.175070228264577 0 13333.0 -9.175070228264577 1
gene  1 48 71 2.9406852057118895 0 13347.0 2.9406852057118895 1
gene  1 50 71 -2.488928173986407 0 13349.0 -2.488928173986407 1
gene  1 51 71 0.8639038975034266 0 13350.0 0.8639038975034266 1
gene  1 57 71 3.6929255312725604 0 13356.0 3.6929255312725604 1
gene  1 73 71 0.10015993816142765 1 13372.0 0.10015993816142765 1
gene  1 185 71 -1.7288926683103147 1 13484.0 -1.7288926683103147 1
gene  1 24 72 -0.9240571962891273 0 13513.0 -0.9240571962891273 1
gene  1 51 72 2.6967571785318256 0 13540.0 2.6967571785318256 1
gene  1 54 72 -4.038434420293957 0 13543.0 -4.038434420293957 1
gene  1 60 72 8.141370624400036 0 13549.0 8.141370624400036 1
gene  1 3 73 -1.2873928859567636 0 13682.0 -1.2873928859567636 1
gene  1 18 73 0.5036687979623513 0 13697.0 0.5036687979623513 1
gene  1 30 73 -6.495075146934088 0 13709.0 -6.495075146934088 1
gene  1 41 73 2.0227721502400025 0 13720.0 2.0227721502400025 1
gene  1 54 73 1.2984770058826216 0 13733.0 1.2984770058826216 1
gene  1 59 73 3.8407956769583924 0 13738.0 3.8407956769583924 1
gene  1 60 73 -7.589523364715414 0 13739.0 -7.589523364715414 1
gene  1 179 73 3.909792327426315 1 13858.0 3.909792327426315 1
gene  1 189 73 -8.174717362311663 1 13868.0 -8.174717362311663 1
gene  1 31 74 9.098567518263062 0 13900.0 9.098567518263062 1
gene  1 38 74 -0.5376699626702337 0 13907.0 -0.5376699626702337 1
gene  1 67 74 -1.359075434283046 0 13936.0 -1.359075434283046 1
gene  1 74 74 -7.377309914522177 1 13943.0 -7.377309914522177 1
gene  1 188 74 -5.507482126431662 1 14057.0 -5.507482126431662 1
gene  1 2 75 -0.8446551434926985 0 14061.0 -0.8446551434926985 1
gene  1 10 75 7.223980812086419 0 14069.0 7.223980812086419 1
gene  1 12 75 -2.589450374487563 0 14071.0 -2.589450374487563 1
gene  1 15 75 4.768827590961466 0 14074.0 4.768827590961466 1
gene  1 18 75 4.514444625350662 0 14077.0 4.514444625350662 1
gene  1 43 75 -0.4711426149324798 0 14102.0 -0.4711426149324798 1
gene  1 46 75 2.227878320904411 0 14105.0 2.227878320904411 1
gene  1 56 75 1.7882849350676748 0 14115.0 1.7882849350676748 1
gene  1 57 75 -0.3448923508321433 0 14116.0 -0.3448923508321433 1
gene  1 177 75 1.4484254484653545 1 14236.0 1.4484254484653545 1
gene  1 183 75 5.610389843231887 1 14242.0 5.610389843231887 1
gene  1 3 171 1.8217981518224038 0 32302.0 1.8217981518224038 1
gene  1 10 171 -1.4552233307037024 0 32309.0 -1.4552233307037024 1
gene  1 18 171 -0.6951928161230889 0 32317.0 -0.6951928161230889 1
gene  1 35 171 -8.975289522494329 0 32334.0 -8.975289522494329 1
gene  1 47 171 -0.12138630018710839 0 32346.0 -0.12138630018710839 1
gene  1 48 171 1.9138238521131905 0 32347.0 1.9138238521131905 1
gene  1 63 171 -3.346565126057434 0 32362.0 -3.346565126057434 1
gene  1 74 171 -3.4165402181083318 0 32373.0 -3.4165402181083318 1
gene  1 171 171 -2.968752622398328 1 32470.0 -2.968752622398328 1
gene  1 180 171 3.972030727904929 1 32479.0 3.972030727904929 1
gene  1 181 171 0.6249875906442586 1 32480.0 0.6249875906442586 1
gene  1 16 172 -0.3494347312905002 0 32505.0 -0.3494347312905002 1
gene  1 38 172 -0.7705283396795379 0 32527.0 -0.7705283396795379 1
gene  1 58 172 0.8167196424050485 0 32547.0 0.8167196424050485 1
gene  1 59 172 1.3521930755216767 0 32548.0 1.3521930755216767 1
gene  1 60 172 0.3583944753395485 0 32549.0 0.3583944753395485 1
gene  1 73 172 -7.496056808969717 0 32562.0 -7.496056808969717 1
gene  1 171 172 -2.730245709424472 0 32660.0 -2.730245709424472 1
gene  1 173 172 2.254662638229976 1 32662.0 2.254662638229976 1
gene  1 7 173 0.5865675917858981 0 32686.0 0.5865675917858981 1
gene  1 29 173 0.11487556045321345 0 32708.0 0.11487556045321345 1
gene  1 30 173 2.8948158546197194 0 32709.0 2.8948158546197194 1
gene  1 38 173 1.3508725348424813 0 32717.0 1.3508725348424813 1
gene  1 56 173 -2.335536596483803 0 32735.0 -2.335536596483803 1
gene  1 68 173 -1.1623206300384472 0 32747.0 -1.1623206300384472 1
gene  1 72 173 -6.3046770104815035 0 32751.0 -6.3046770104815035 1
gene  1 75 173 0.6229288557910999 0 32754.0 0.6229288557910999 1
gene  1 180 173 0.8655135545004646 1 32859.0 0.8655135545004646 1
gene  1 45 174 8.720169454321438 0 32914.0 8.720169454321438 1
gene  1 174 174 1.9973344829158681 1 33043.0 1.9973344829158681 1
gene  1 180 174 -9.207190631907984 1 33049.0 -9.207190631907984 1
gene  1 186 174 0.847017115624754 1 33055.0 0.847017115624754 1
gene  1 2 175 1.8367652171864566 0 33061.0 1.8367652171864566 1
gene  1 11 175 -3.0882058350272508 0 33070.0 -3.0882058350272508 1
gene  1 26 175 2.2695843761638232 0 33085.0 2.2695843761638232 1
gene  1 37 175 2.0816391767984674 0 33096.0 2.0816391767984674 1
gene  1 43 175 -0.33301852186792597 0 33102.0 -0.33301852186792597 1
gene  1 48 175 -2.2109373412222375 0 33107.0 -2.2109373412222375 1
gene  1 51 175 -6.808303723266779 0 33110.0 -6.808303723266779 1
gene  1 64 175 -1.4265731237000276 0 33123.0 -1.4265731237000276 1
gene  1 70 175 3.432609758953035 0 33129.0 3.432609758953035 1
gene  1 71 175 -5.154343634856082 0 33130.0 -5.154343634856082 1
gene  1 177 175 0.27680164059134627 1 33236.0 0.27680164059134627 1
gene  1 178 175 -5.891619794858695 1 33237.0 -5.891619794858695 1
gene  1 181 175 -0.8569193572005598 1 33240.0 -0.8569193572005598 1
gene  1 184 175 -1.6994150864028703 1 33243.0 -1.6994150864028703 1
gene  1 186 175 -0.4599281275937983 1 33245.0 -0.4599281275937983 1
gene  1 2 176 0.11388455772783779 0 33251.0 0.11388455772783779 1
gene  1 8 176 3.302301297236916 0 33257.0 3.302301297236916 1
gene  1 9 176 -0.13222798214229536 0 33258.0 -0.13222798214229536 1
gene  1 12 176 -0.5512740094710687 0 33261.0 -0.5512740094710687 1
gene  1 15 176 0.9199909550597588 0 33264.0 0.9199909550597588 1
gene  1 16 176 0.7532172459128582 0 33265.0 0.7532172459128582 1
gene  1 35 176 10.817831436749445 0 33284.0 10.817831436749445 1
gene  1 37 176 -1.671110267111474 0 33286.0 -1.671110267111474 1
gene  1 46 176 -2.308888098248527 0 33295.0 -2.308888098248527 1
gene  1 62 176 -4.366598369102589 0 33311.0 -4.366598369102589 1
gene  1 64 176 25.92563385276758 0 33313.0 25.92563385276758 1
gene  1 171 176 -0.6855438503239808 0 33420.0 -0.6855438503239808 1
gene  1 174 176 -2.1317245461966916 0 33423.0 -2.1317245461966916 1
gene  1 179 176 2.0211672547132498 1 33428.0 2.0211672547132498 1
gene  1 1 177 -7.307404190359309 0 33440.0 -7.307404190359309 1
gene  1 7 177 2.046716270153872 0 33446.0 2.046716270153872 1
gene  1 8 177 -1.200623090731782 0 33447.0 -1.200623090731782 1
gene  1 9 177 -0.48254452097515554 0 33448.0 -0.48254452097515554 1
gene  1 14 177 -3.7452492418065866 0 33453.0 -3.7452492418065866 1
gene  1 16 177 4.141475135906899 0 33455.0 4.141475135906899 1
gene  1 20 177 -1.339431049296463 0 33459.0 -1.339431049296463 1
gene  1 30 177 0.6079402028893865 0 33469.0 0.6079402028893865 1
gene  1 31 177 -3.8747711733237207 0 33470.0 -3.8747711733237207 1
gene  1 32 177 -3.6017085855272635 0 33471.0 -3.6017085855272635 1
gene  1 43 177 -2.1669365603701616 0 33482.0 -2.1669365603701616 1
gene  1 44 177 -4.279561290018216 0 33483.0 -4.279561290018216 1
gene  1 53 177 -0.8894309317621619 0 33492.0 -0.8894309317621619 1
gene  1 59 177 -1.6562460675881208 0 33498.0 -1.6562460675881208 1
gene  1 69 177 -14.548183773046532 0 33508.0 -14.548183773046532 1
gene  1 174 177 2.4306708242220716 0 33613.0 2.4306708242220716 1
gene  1 175 177 0.7979792206997498 0 33614.0 0.7979792206997498 1
gene  1 184 177 2.5684927071577497 1 33623.0 2.5684927071577497 1
gene  1 187 177 -0.7957067581727368 1 33626.0 -0.7957067581727368 1
gene  1 1 178 1.6087429727456288 0 33630.0 1.6087429727456288 1
gene  1 20 178 -1.517652153215619 0 33649.0 -1.517652153215619 1
gene  1 26 178 -10.91118333817658 0 33655.0 -10.91118333817658 1
gene  1 35 178 3.217183790323075 0 33664.0 3.217183790323075 1
gene  1 42 178 2.057550835482261 0 33671.0 2.057550835482261 1
gene  1 53 178 1.128267322083819 0 33682.0 1.128267322083819 1
gene  1 59 178 2.4952393624208002 0 33688.0 2.4952393624208002 1
gene  1 72 178 1.7561932904675075 0 33701.0 1.7561932904675075 1
gene  1 172 178 0.1819711137666596 0 33801.0 0.1819711137666596 1
gene  1 190 178 6.12697468160909 1 33819.0 6.12697468160909 1
gene  1 6 179 -10.637809007188316 0 33825.0 -10.637809007188316 1
gene  1 8 179 0.7320319036216427 0 33827.0 0.7320319036216427 1
gene  1 13 179 -1.6842310498065827 0 33832.0 -1.6842310498065827 1
gene  1 36 179 3.42820189505092 0 33855.0 3.42820189505092 1
gene  1 46 179 7.9896907094313905 0 33865.0 7.9896907094313905 1
gene  1 60 179 -3.6976217882371003 0 33879.0 -3.6976217882371003 1
gene  1 61 179 0.6912053895275516 0 33880.0 0.6912053895275516 1
gene  1 72 179 11.658863187756515 0 33891.0 11.658863187756515 1
gene  1 74 179 -6.675160965590938 0 33893.0 -6.675160965590938 1
gene  1 171 179 0.7083528861526064 0 33990.0 0.7083528861526064 1
gene  1 185 179 0.37957772092646824 1 34004.0 0.37957772092646824 1
gene  1 1 180 13.281130648799644 0 34010.0 13.281130648799644 1
gene  1 4 180 -1.1476457238061513 0 34013.0 -1.1476457238061513 1
gene  1 8 180 -1.7844836935868837 0 34017.0 -1.7844836935868837 1
gene  1 11 180 4.764717759136666 0 34020.0 4.764717759136666 1
gene  1 21 180 -0.2947581876094185 0 34030.0 -0.2947581876094185 1
gene  1 32 180 -5.9360594539735345 0 34041.0 -5.9360594539735345 1
gene  1 35 180 -1.707679986970698 0 34044.0 -1.707679986970698 1
gene  1 46 180 -2.415160112341442 0 34055.0 -2.415160112341442 1
gene  1 68 180 -1.533348243538076 0 34077.0 -1.533348243538076 1
gene  1 188 180 -2.9698011465850356 1 34197.0 -2.9698011465850356 1
gene  1 2 181 4.600073075809526 0 34201.0 4.600073075809526 1
gene  1 16 181 4.358407582442209 0 34215.0 4.358407582442209 1
gene  1 24 181 -0.1520994079542799 0 34223.0 -0.1520994079542799 1
gene  1 36 181 -2.943471813547835 0 34235.0 -2.943471813547835 1
gene  1 60 181 -2.2578586851239395 0 34259.0 -2.2578586851239395 1
gene  1 69 181 2.310344582728005 0 34268.0 2.310344582728005 1
gene  1 190 181 -10.643727312603732 1 34389.0 -10.643727312603732 1
gene  1 1 182 0.36911716945511885 0 34390.0 0.36911716945511885 1
gene  1 17 182 1.95700066934111 0 34406.0 1.95700066934111 1
gene  1 35 182 -6.497364801802229 0 34424.0 -6.497364801802229 1
gene  1 44 182 -0.970940291848069 0 34433.0 -0.970940291848069 1
gene  1 49 182 4.717481865438031 0 34438.0 4.717481865438031 1
gene  1 50 182 -0.02672621416027232 0 34439.0 -0.02672621416027232 1
gene  1 54 182 2.5988198175636454 0 34443.0 2.5988198175636454 1
gene  1 59 182 0.48476063266655806 0 34448.0 0.48476063266655806 1
gene  1 73 182 -0.677469482839804 0 34462.0 -0.677469482839804 1
gene  1 174 182 2.226211550112819 0 34563.0 2.226211550112819 1
gene  1 187 182 -0.9319798210295263 1 34576.0 -0.9319798210295263 1
gene  1 6 183 -2.8792743183631138 0 34585.0 -2.8792743183631138 1
gene  1 7 183 0.9159393142392442 0 34586.0 0.9159393142392442 1
gene  1 17 183 0.9902980628535125 0 34596.0 0.9902980628535125 1
gene  1 20 183 -0.3757477569212788 0 34599.0 -0.3757477569212788 1
gene  1 25 183 -3.691570476627606 0 34604.0 -3.691570476627606 1
gene  1 30 183 -0.05905184942414343 0 34609.0 -0.05905184942414343 1
gene  1 39 183 3.487648119241915 0 34618.0 3.487648119241915 1
gene  1 44 183 0.8309182652381539 0 34623.0 0.8309182652381539 1
gene  1 66 183 2.1930261379769647 0 34645.0 2.1930261379769647 1
gene  1 171 183 0.8071343835521644 0 34750.0 0.8071343835521644 1
gene  1 174 183 -3.9754440745840665 0 34753.0 -3.9754440745840665 1
gene  1 21 184 15.785970348852537 0 34790.0 15.785970348852537 1
gene  1 29 184 4.41938531992051 0 34798.0 4.41938531992051 1
gene  1 32 184 0.167992233240025 0 34801.0 0.167992233240025 1
gene  1 36 184 -4.073188976526801 0 34805.0 -4.073188976526801 1
gene  1 45 184 -0.7650616861415309 0 34814.0 -0.7650616861415309 1
gene  1 46 184 6.453685726002102 0 34815.0 6.453685726002102 1
gene  1 63 184 -3.14062921043982 0 34832.0 -3.14062921043982 1
gene  1 66 184 3.202932176634123 0 34835.0 3.202932176634123 1
gene  1 177 184 -10.440484867893703 0 34946.0 -10.440484867893703 1
gene  1 31 185 -3.9497223899749305 0 34990.0 -3.9497223899749305 1
gene  1 50 185 3.358961226055251 0 35009.0 3.358961226055251 1
gene  1 56 185 -4.755331412734861 0 35015.0 -4.755331412734861 1
gene  1 58 185 2.4278091344580313 0 35017.0 2.4278091344580313 1
gene  1 62 185 1.1179151909925467 0 35021.0 1.1179151909925467 1
gene  1 173 185 -8.796876886329937 0 35132.0 -8.796876886329937 1
gene  1 179 185 -2.3529031701475223 0 35138.0 -2.3529031701475223 1
gene  1 182 185 10.516406079122131 0 35141.0 10.516406079122131 1
gene  1 188 185 3.4556787211995257 1 35147.0 3.4556787211995257 1
gene  1 1 186 -5.628405622674178 0 35150.0 -5.628405622674178 1
gene  1 3 186 -1.9858486998415297 0 35152.0 -1.9858486998415297 1
gene  1 4 186 -2.408843703536503 0 35153.0 -2.408843703536503 1
gene  1 6 186 -0.6840378282398234 0 35155.0 -0.6840378282398234 1
gene  1 7 186 2.837083461345528 0 35156.0 2.837083461345528 1
gene  1 17 186 1.3863851594596728 0 35166.0 1.3863851594596728 1
gene  1 23 186 -1.119206353802229 0 35172.0 -1.119206353802229 1
gene  1 28 186 1.2244850553082922 0 35177.0 1.2244850553082922 1
gene  1 33 186 -6.112278051311774 0 35182.0 -6.112278051311774 1
gene  1 36 186 1.1798171744415644 0 35185.0 1.1798171744415644 1
gene  1 58 186 11.098291702225143 0 35207.0 11.098291702225143 1
gene  1 69 186 3.214684537654294 0 35218.0 3.214684537654294 1
gene  1 70 186 13.517893504449484 0 35219.0 13.517893504449484 1
gene  1 72 186 -2.822665821973903 0 35221.0 -2.822665821973903 1
gene  1 10 187 -5.2882855721813256 0 35349.0 -5.2882855721813256 1
gene  1 25 187 -6.002067091744776 0 35364.0 -6.002067091744776 1
gene  1 31 187 4.868557703391383 0 35370.0 4.868557703391383 1
gene  1 33 187 -14.310704843090377 0 35372.0 -14.310704843090377 1
gene  1 47 187 0.8333817927507792 0 35386.0 0.8333817927507792 1
gene  1 57 187 -1.1368108200071965 0 35396.0 -1.1368108200071965 1
gene  1 183 187 -3.855277051195089 0 35522.0 -3.855277051195089 1
gene  1 184 187 10.493807376416656 0 35523.0 10.493807376416656 1
gene  1 5 188 0.3533818376408138 0 35534.0 0.3533818376408138 1
gene  1 6 188 1.644169818947229 0 35535.0 1.644169818947229 1
gene  1 12 188 -0.9464682104530819 0 35541.0 -0.9464682104530819 1
gene  1 28 188 6.920302733917904 0 35557.0 6.920302733917904 1
gene  1 32 188 -2.6229361763769368 0 35561.0 -2.6229361763769368 1
gene  1 35 188 -3.727999636263979 0 35564.0 -3.727999636263979 1
gene  1 57 188 0.14477831769559502 0 35586.0 0.14477831769559502 1
gene  1 172 188 -2.701475377295889 0 35701.0 -2.701475377295889 1
gene  1 14 189 2.690638307898211 0 35733.0 2.690638307898211 1
gene  1 17 189 -4.408313001747529 0 35736.0 -4.408313001747529 1
gene  1 27 189 1.9887915631807016 0 35746.0 1.9887915631807016 1
gene  1 37 189 -0.9159957570583896 0 35756.0 -0.9159957570583896 1
gene  1 43 189 -0.5895167142696953 0 35762.0 -0.5895167142696953 1
gene  1 51 189 1.7690369241387893 0 35770.0 1.7690369241387893 1
gene  1 56 189 -1.712835626455167 0 35775.0 -1.712835626455167 1
gene  1 59 189 1.084684821973991 0 35778.0 1.084684821973991 1
gene  1 65 189 2.6505965174868544 0 35784.0 2.6505965174868544 1
gene  1 73 189 6.099568915489295 0 35792.0 6.099568915489295 1
gene  1 74 189 1.3830739588008327 0 35793.0 1.3830739588008327 1
gene  1 178 189 -1.0417921566496846 0 35897.0 -1.0417921566496846 1
gene  1 1 190 -1.3347168867227535 0 35910.0 -1.3347168867227535 1
gene  1 4 190 0.04818686586139176 0 35913.0 0.04818686586139176 1
gene  1 15 190 1.3285424523497895 0 35924.0 1.3285424523497895 1
gene  1 22 190 -0.049981187475390154 0 35931.0 -0.049981187475390154 1
gene  1 33 190 -6.699409145412365 0 35942.0 -6.699409145412365 1
gene  1 58 190 0.12907663011734893 0 35967.0 0.12907663011734893 1
gene  1 60 190 4.215727667645778 0 35969.0 4.215727667645778 1
gene  1 67 190 -2.4413653969940965 0 35976.0 -2.4413653969940965 1
gene  1 179 190 2.3676772790990546 0 36088.0 2.3676772790990546 1
gene  1 181 190 0.2042604182105695 0 36090.0 0.2042604182105695 1
gene  1 182 190 3.587535279297795 0 36091.0 3.587535279297795 1
gene  1 184 190 4.345509444220451 0 36093.0 4.345509444220451 1
gene  1 186 190 -2.189917459639877 0 36095.0 -2.189917459639877 1
gene  1 187 190 -1.0745209908040727 0 36096.0 -1.0745209908040727 1
gene  1 65 188 0.23188013403741958 0 36109.0 0.23188013403741958 1
gene  1 1 193 -4.505848799564768 0 36113.0 -4.505848799564768 1
gene  1 193 190 -6.041571460120941 0 36114.0 -6.041571460120941 1
gene  1 29 68 -0.26489772137069556 0 36116.0 -0.26489772137069556 1
gene  1 181 195 -2.0406965696357635 1 36120.0 -2.0406965696357635 1
gene  1 195 63 -4.933119598381759 0 36121.0 -4.933119598381759 1
gene  1 7 171 -0.9680045589555819 0 36125.0 -0.9680045589555819 1
gene  1 22 72 -0.5031075783716257 0 36150.0 -0.5031075783716257 1
gene  1 47 212 1.1912944874316158 0 36196.0 1.1912944874316158 1
gene  1 212 55 -0.5370820862502457 0 36197.0 -0.5370820862502457 1
gene  1 55 58 -2.1815117349588173 0 36200.0 -2.1815117349588173 1
gene  1 33 217 -3.6619324022354958 0 36231.0 -3.6619324022354958 1
gene  1 217 187 -0.727591599854175 0 36232.0 -0.727591599854175 1
gene  1 69 56 1.2023392899414116 0 36255.0 1.2023392899414116 1
gene  1 51 173 -2.4442238345025995 0 36261.0 -2.4442238345025995 1
gene  1 35 230 -1.0330391837148185 0 36282.0 -1.0330391837148185 1
gene  1 230 57 -0.15903275279812168 0 36283.0 -0.15903275279812168 1
gene  1 43 244 2.3131448276618216 0 36330.0 2.3131448276618216 1
gene  1 244 189 5.174007280083461 0 36331.0 5.174007280083461 1
gene  1 13 172 -1.5884027455969296 0 36334.0 -1.5884027455969296 1
gene  1 52 230 -0.9219717093824127 0 36357.0 -0.9219717093824127 1
gene  1 68 188 -11.022585649812859 0 36380.0 -11.022585649812859 1
gene  1 12 54 -4.510312138725869 0 36383.0 -4.510312138725869 1
gene  1 181 74 2.1704156119553506 0 36429.0 2.1704156119553506 1
gene  1 61 177 -4.050977663661429 0 36460.0 -4.050977663661429 1
gene  1 20 184 2.4698046692090356 0 36496.0 2.4698046692090356 1
gene  1 190 176 0.8419912122873665 0 36516.0 0.8419912122873665 1
gene  1 22 291 -3.089735071404674 0 36524.0 -3.089735071404674 1
gene  1 291 190 -0.4232653721172633 0 36525.0 -0.4232653721172633 1
gene  1 75 174 -2.5944554501578354 0 36555.0 -2.5944554501578354 1
gene  1 35 297 1.170709633429288 0 36562.0 1.170709633429288 1
gene  1 297 171 0.27421262601210444 0 36563.0 0.27421262601210444 1
gene  1 33 184 -2.184348723222746 0 36565.0 -2.184348723222746 1
gene  1 35 186 -2.367573578802368 0 36569.0 -2.367573578802368 1
gene  1 51 300 -1.759070296395174 0 36574.0 -1.759070296395174 1
gene  1 300 71 -2.629687396991786 0 36575.0 -2.629687396991786 1
gene  1 49 172 -4.74194399701045 0 36658.0 -4.74194399701045 1
gene  1 75 177 -5.717699313453791 0 36665.0 -5.717699313453791 1
gene  1 53 321 1.7440586659105914 0 36673.0 1.7440586659105914 1
gene  1 321 62 0.5398071904672754 0 36674.0 0.5398071904672754 1
gene  1 47 62 1.2346476764245318 0 36689.0 1.2346476764245318 1
gene  1 41 67 -2.1749094269322393 0 36692.0 -2.1749094269322393 1
gene  1 182 325 -4.818272264078415 1 36701.0 -4.818272264078415 1
gene  1 325 67 0.32557246448701016 0 36702.0 0.32557246448701016 1
gene  1 195 178 4.674473411038663 0 36719.0 4.674473411038663 1
gene  1 64 56 -2.9955099973049872 0 36723.0 -2.9955099973049872 1
gene  1 37 334 2.921199030595303 0 36742.0 2.921199030595303 1
gene  1 334 175 -2.109274429400781 0 36743.0 -2.109274429400781 1
gene  1 56 341 1.4516911202044012 0 36772.0 1.4516911202044012 1
gene  1 341 173 -0.8872015971674352 0 36773.0 -0.8872015971674352 1
gene  1 26 297 0.43119882106013446 0 36788.0 0.43119882106013446 1
gene  1 24 70 -2.890522814543907 0 36824.0 -2.890522814543907 1
gene  1 174 178 3.111499481345746 0 36853.0 3.111499481345746 1
gene  1 15 174 3.094889530261661 0 36944.0 3.094889530261661 1
gene  1 188 178 2.4395881467055083 0 36962.0 2.4395881467055083 1
gene  1 15 72 -1.2909893935195407 0 36977.0 -1.2909893935195407 1
gene  1 66 54 2.440723981557526 0 37021.0 2.440723981557526 1
gene  1 212 177 2.0067189369202767 0 37108.0 2.0067189369202767 1
gene  1 10 244 3.0108762663348414 0 37115.0 3.0108762663348414 1
gene  1 27 291 -1.0819513442220028 0 37132.0 -1.0819513442220028 1
gene  1 4 68 -2.794620826863606 0 37136.0 -2.794620826863606 1
gene  1 5 416 -0.08182547994704925 0 37142.0 -0.08182547994704925 1
gene  1 416 188 9.33181960624823 0 37143.0 9.33181960624823 1
gene  1 17 217 -4.762786077964609 0 37209.0 -4.762786077964609 1
gene  1 5 187 1.6625865651482874 0 37211.0 1.6625865651482874 1
gene  1 43 433 -3.986641772301976 0 37218.0 -3.986641772301976 1
gene  1 433 66 1.110441352737486 0 37219.0 1.110441352737486 1
gene  1 75 436 4.683339731026859 1 37227.0 4.683339731026859 1
gene  1 436 59 -2.7842459388788017 0 37228.0 -2.7842459388788017 1
gene  1 244 60 1.9634726980728685 0 37235.0 1.9634726980728685 1
gene  1 416 73 -1.4910567059569364 0 37246.0 -1.4910567059569364 1
gene  1 60 447 -2.20625033439452 0 37271.0 -2.20625033439452 1
gene  1 447 73 -0.18984463512242522 0 37272.0 -0.18984463512242522 1
gene  1 42 69 5.8499124250661945 0 37308.0 5.8499124250661945 1
gene  1 15 464 6.226666323588418 0 37342.0 6.226666323588418 1
gene  1 464 176 -3.167006570531486 0 37343.0 -3.167006570531486 1
gene  1 51 187 -2.182319881260417 0 37380.0 -2.182319881260417 1
gene  1 26 185 -0.4331873807682543 0 37427.0 -0.4331873807682543 1
gene  1 51 185 -0.9647107151179606 0 37512.0 -0.9647107151179606 1
gene  1 20 180 -3.3624360470260632 0 37552.0 -3.3624360470260632 1
gene  1 23 511 -1.9053069484394085 0 37568.0 -1.9053069484394085 1
gene  1 511 186 -0.9762798741727086 0 37569.0 -0.9762798741727086 1
gene  1 66 63 -0.803864160946538 0 37632.0 -0.803864160946538 1
gene  1 186 71 1.66388360420619 0 37664.0 1.66388360420619 1
gene  1 28 416 4.420316626667505 0 37673.0 4.420316626667505 1
gene  1 30 53 -1.3253537334385883 0 37702.0 -1.3253537334385883 1
gene  1 183 51 -2.814920231526402 0 37706.0 -2.814920231526402 1
gene  1 75 543 0.32776729040177816 1 37723.0 0.32776729040177816 1
gene  1 543 55 -2.189335434603652 0 37724.0 -2.189335434603652 1
gene  1 44 416 -0.6736910357979325 0 37741.0 -0.6736910357979325 1
gene  1 28 556 -0.8295464700333064 0 37775.0 -0.8295464700333064 1
gene  1 556 61 0.9152989282116981 0 37776.0 0.9152989282116981 1
gene  1 32 433 0.16875772489068463 0 37788.0 0.16875772489068463 1
gene  1 30 564 -4.8763969008463235 0 37806.0 -4.8763969008463235 1
gene  1 564 53 -2.452286504700744 0 37807.0 -2.452286504700744 1
gene  1 33 52 -3.470775274753744 0 37812.0 -3.470775274753744 1
gene  1 67 511 0.059538103573377965 0 37821.0 0.059538103573377965 1
gene  1 23 173 0.9537522818443154 0 37823.0 0.9537522818443154 1
gene  1 15 581 -2.1136410610457244 0 37870.0 -2.1136410610457244 1
gene  1 581 62 -1.745781577251183 0 37871.0 -1.745781577251183 1
gene  1 31 589 1.5787431383782673 0 37891.0 1.5787431383782673 1
gene  1 589 185 0.04233396993697269 0 37892.0 0.04233396993697269 1
gene  1 5 605 1.6286671696329 0 37946.0 1.6286671696329 1
gene  1 605 416 -1.4600039965735043 0 37947.0 -1.4600039965735043 1
gene  1 63 511 -1.3119606521491811 0 37973.0 -1.3119606521491811 1
gene  1 33 612 4.94509433764309 0 37985.0 4.94509433764309 1
gene  1 612 187 2.202330514024335 0 37986.0 2.202330514024335 1
gene  1 70 589 1.5017304609684627 0 37996.0 1.5017304609684627 1
gene  1 37 321 2.596641471008838 0 38002.0 2.596641471008838 1
gene  1 47 640 -1.8693223976985447 0 38113.0 -1.8693223976985447 1
gene  1 640 187 5.841747191756558 0 38114.0 5.841747191756558 1
gene  1 181 291 -2.660625823764091 0 38126.0 -2.660625823764091 1
gene  1 56 643 1.1633184311652711 0 38129.0 1.1633184311652711 1
gene  1 643 173 3.5789969771601293 0 38130.0 3.5789969771601293 1
gene  1 341 174 6.217294783177612 0 38139.0 6.217294783177612 1
gene  1 14 73 -1.059015106274823 0 38161.0 -1.059015106274823 1
gene  1 63 174 -2.4323731316515156 0 38229.0 -2.4323731316515156 1
gene  1 6 640 0.9673748559559892 0 38251.0 0.9673748559559892 1
genomeend 0
/*-------------------------------------------------------------------*/
/* Species # 036         : (size= 004) (AvfFit= 1273,227) (Age= 134,000)  */
/*-------------------------------------------------------------------*/
/* Organism # 001 Fitness:  1524,790 Error:  1000,000                      */
genomestart  1
trait 1 2.9760114340127637 1.301272621480162 2.823957884501983 1.5406565170279674 1.9639614674978727 0.8530310998743537 0.1576749709379578 0.10953053633590004 
node 1 1 1 1
node 2 1 1 1
node 3 1 1 1
node 4 1 1 1
node 5 1 1 1
node 6 1 1 1
node 7 1 1 1
node 8 1 1 1
node 9 1 1 1
node 10 1 1 1
node 11 1 1 1
node 12 1 1 1
node 13 1 1 1
node 14 1 1 1
node 15 1 1 1
node 16 1 1 1
node 17 1 1 1
node 18 1 1 1
node 19 1 1 1
node 20 1 1 1
node 21 1 1 1
node 22 1 1 1
node 23 1 1 1
node 24 1 1 1
node 25 1 1 1
node 26 1 1 1
node 27 1 1 1
node 28 1 1 1
node 29 1 1 1
node 30 1 1 1
node 31 1 1 1
node 32 1 1 1
node 33 1 1 1
node 34 1 1 1
node 35 1 1 1
node 36 1 1 1
node 37 1 1 1
node 38 1 1 1
node 39 1 1 1
node 40 1 1 1
node 41 1 1 1
node 42 1 1 1
node 43 1 1 1
node 44 1 1 1
node 45 1 1 1
node 46 1 1 1
node 47 1 1 1
node 48 1 1 1
node 49 1 1 1
node 50 1 1 3
node 51 1 0 0
node 52 1 0 0
node 53 1 0 0
node 54 1 0 0
node 55 1 0 0
node 56 1 0 0
node 57 1 0 0
node 58 1 0 0
node 59 1 0 0
node 60 1 0 0
node 61 1 0 0
node 62 1 0 0
node 63 1 0 0
node 64 1 0 0
node 65 1 0 0
node 66 1 0 0
node 67 1 0 0
node 68 1 0 0
node 69 1 0 0
node 70 1 0 0
node 71 1 0 0
node 72 1 0 0
node 73 1 0 0
node 74 1 0 0
node 75 1 0 0
node 171 1 0 2
node 172 1 0 2
node 173 1 0 2
node 174 1 0 2
node 175 1 0 2
node 176 1 0 2
node 177 1 0 2
node 178 1 0 2
node 179 1 0 2
node 180 1 0 2
node 181 1 0 2
node 182 1 0 2
node 183 1 0 2
node 184 1 0 2
node 185 1 0 2
node 186 1 0 2
node 187 1 0 2
node 188 1 0 2
node 189 1 0 2
node 190 1 0 2
node 193 1 0 0
node 195 1 0 0
node 212 1 0 0
node 217 1 0 0
node 230 1 0 0
node 244 1 0 0
node 291 1 0 0
node 297 1 0 0
node 300 1 0 0
node 321 1 0 0
node 325 1 0 0
node 334 1 0 0
node 341 1 0 0
node 416 1 0 0
node 433 1 0 0
node 436 1 0 0
node 447 1 0 0
node 464 1 0 0
node 511 1 0 0
node 537 1 0 0
node 566 1 0 0
node 588 1 0 0
node 629 1 0 0
node 636 1 0 0
node 663 1 0 0
gene  1 28 51 8.376818533704672 0 9527.0 8.376818533704672 1
gene  1 33 51 2.339095153309507 0 9532.0 2.339095153309507 1
gene  1 36 51 4.724260321334037 0 9535.0 4.724260321334037 1
gene  1 40 51 -2.4041024761972163 0 9539.0 -2.4041024761972163 1
gene  1 42 51 -2.3257936874897993 0 9541.0 -2.3257936874897993 1
gene  1 54 51 -12.857088978902524 1 9553.0 -12.857088978902524 1
gene  1 57 51 2.204519512310837 1 9556.0 2.204519512310837 1
gene  1 68 51 1.914405719355587 1 9567.0 1.914405719355587 1
gene  1 174 51 7.650898922477722 1 9673.0 7.650898922477722 1
gene  1 183 51 8.56332245432273 1 9682.0 8.56332245432273 1
gene  1 184 51 -3.113061238897684 1 9683.0 -3.113061238897684 1
gene  1 189 51 -3.2283659537047305 1 9688.0 -3.2283659537047305 1
gene  1 3 52 -3.917004538214486 0 9692.0 -3.917004538214486 1
gene  1 6 52 3.9499034002269147 0 9695.0 3.9499034002269147 1
gene  1 24 52 -2.4129599774902886 0 9713.0 -2.4129599774902886 1
gene  1 29 52 -2.0508148226559544 0 9718.0 -2.0508148226559544 1
gene  1 31 52 0.418535324901074 0 9720.0 0.418535324901074 1
gene  1 35 52 6.810168664455067 0 9724.0 6.810168664455067 1
gene  1 63 52 -9.219354690112377 1 9752.0 -9.219354690112377 1
gene  1 179 52 0.1288460035201594 1 9868.0 0.1288460035201594 1
gene  1 183 52 -1.4917904906286559 1 9872.0 -1.4917904906286559 1
gene  1 184 52 4.129537569707418 1 9873.0 4.129537569707418 1
gene  1 185 52 -1.2192101888008864 1 9874.0 -1.2192101888008864 1
gene  1 5 53 -6.159842411173967 0 9884.0 -6.159842411173967 1
gene  1 6 53 -4.066641895672476 0 9885.0 -4.066641895672476 1
gene  1 10 53 1.4114901891600113 0 9889.0 1.4114901891600113 1
gene  1 33 53 1.9611958139343086 0 9912.0 1.9611958139343086 1
gene  1 35 53 0.7174495838082584 0 9914.0 0.7174495838082584 1
gene  1 38 53 -1.6603875866481885 0 9917.0 -1.6603875866481885 1
gene  1 45 53 0.7739487152851166 0 9924.0 0.7739487152851166 1
gene  1 71 53 -4.37424979596011 1 9950.0 -4.37424979596011 1
gene  1 16 54 -1.6580131876631883 0 10085.0 -1.6580131876631883 1
gene  1 19 54 0.766119641738114 0 10088.0 0.766119641738114 1
gene  1 36 54 1.2160994252337116 0 10105.0 1.2160994252337116 1
gene  1 42 54 -3.6359657982278866 0 10111.0 -3.6359657982278866 1
gene  1 58 54 -4.106899130922605 1 10127.0 -4.106899130922605 1
gene  1 62 54 -2.9198496247406753 1 10131.0 -2.9198496247406753 1
gene  1 73 54 -2.0049060796673435 1 10142.0 -2.0049060796673435 1
gene  1 177 54 -0.6517046805517085 1 10246.0 -0.6517046805517085 1
gene  1 180 54 -5.838314277994644 1 10249.0 -5.838314277994644 1
gene  1 190 54 0.4795759790963763 1 10259.0 0.4795759790963763 1
gene  1 20 55 1.9367339835392117 0 10279.0 1.9367339835392117 1
gene  1 31 55 2.4703565389861293 0 10290.0 2.4703565389861293 1
gene  1 35 55 -0.46284959216746274 0 10294.0 -0.46284959216746274 1
gene  1 41 55 2.0732558372353798 0 10300.0 2.0732558372353798 1
gene  1 47 55 -0.7283478499749994 0 10306.0 -0.7283478499749994 1
gene  1 52 55 1.9276847589480322 0 10311.0 1.9276847589480322 1
gene  1 69 55 2.402795224090444 1 10328.0 2.402795224090444 1
gene  1 75 55 -3.3517309469270127 1 10334.0 -3.3517309469270127 1
gene  1 187 55 -6.161176201251873 1 10446.0 -6.161176201251873 1
gene  1 7 56 4.0748475306424785 0 10456.0 4.0748475306424785 1
gene  1 11 56 2.389958107589728 0 10460.0 2.389958107589728 1
gene  1 13 56 1.0671632012359162 0 10462.0 1.0671632012359162 1
gene  1 36 56 0.5020259165750446 0 10485.0 0.5020259165750446 1
gene  1 41 56 -0.6809950110354532 0 10490.0 -0.6809950110354532 1
gene  1 44 56 -1.6667684604144437 0 10493.0 -1.6667684604144437 1
gene  1 46 56 -1.9715517864511742 0 10495.0 -1.9715517864511742 1
gene  1 49 56 0.2580971518724462 0 10498.0 0.2580971518724462 1
gene  1 68 56 1.2797950057329195 1 10517.0 1.2797950057329195 1
gene  1 179 56 1.3757516704798183 1 10628.0 1.3757516704798183 1
gene  1 183 56 -0.3359611041738045 1 10632.0 -0.3359611041738045 1
gene  1 3 57 -0.6742005647324059 0 10642.0 -0.6742005647324059 1
gene  1 19 57 -0.825602520035146 0 10658.0 -0.825602520035146 1
gene  1 22 57 -5.216476103541276 0 10661.0 -5.216476103541276 1
gene  1 28 57 1.5505887102139986 0 10667.0 1.5505887102139986 1
gene  1 30 57 1.3022934262218686 0 10669.0 1.3022934262218686 1
gene  1 35 57 1.7485625358802594 0 10674.0 1.7485625358802594 1
gene  1 47 57 -4.107697881271729 0 10686.0 -4.107697881271729 1
gene  1 59 57 4.945384715813342 1 10698.0 4.945384715813342 1
gene  1 60 57 4.4304794890619865 1 10699.0 4.4304794890619865 1
gene  1 187 57 -0.30649870306809035 1 10826.0 -0.30649870306809035 1
gene  1 5 58 -1.0751180231875301 0 10834.0 -1.0751180231875301 1
gene  1 14 58 -0.7564822955441072 0 10843.0 -0.7564822955441072 1
gene  1 15 58 -0.9025010102798038 0 10844.0 -0.9025010102798038 1
gene  1 24 58 10.50737840270448 0 10853.0 10.50737840270448 1
gene  1 32 58 -4.7245109999811365 0 10861.0 -4.7245109999811365 1
gene  1 43 58 -2.3482257237295783 0 10872.0 -2.3482257237295783 1
gene  1 49 58 -5.795878618734913 0 10878.0 -5.795878618734913 1
gene  1 53 58 2.3527843311017826 0 10882.0 2.3527843311017826 1
gene  1 62 58 13.835856863160899 1 10891.0 13.835856863160899 1
gene  1 64 58 -1.331554794986943 1 10893.0 -1.331554794986943 1
gene  1 69 58 4.324943124167595 1 10898.0 4.324943124167595 1
gene  1 182 58 -12.050247210517083 1 11011.0 -12.050247210517083 1
gene  1 1 59 1.4932200077969806 0 11020.0 1.4932200077969806 1
gene  1 4 59 2.8562498898983484 0 11023.0 2.8562498898983484 1
gene  1 27 59 2.103806897863043 0 11046.0 2.103806897863043 1
gene  1 34 59 -1.0336067410146983 0 11053.0 -1.0336067410146983 1
gene  1 37 59 -5.005897206316119 0 11056.0 -5.005897206316119 1
gene  1 44 59 -0.8145817749684827 0 11063.0 -0.8145817749684827 1
gene  1 59 59 -1.6201910685230958 1 11078.0 -1.6201910685230958 1
gene  1 73 59 3.138593280021099 1 11092.0 3.138593280021099 1
gene  1 75 59 -10.988406335030131 1 11094.0 -10.988406335030131 1
gene  1 183 59 21.84765453293626 1 11202.0 21.84765453293626 1
gene  1 185 59 -7.579954190287864 1 11204.0 -7.579954190287864 1
gene  1 8 60 -2.4639888822838287 0 11217.0 -2.4639888822838287 1
gene  1 10 60 0.6910305866159117 0 11219.0 0.6910305866159117 1
gene  1 40 60 -3.5216732754960196 0 11249.0 -3.5216732754960196 1
gene  1 45 60 0.5025031454544597 0 11254.0 0.5025031454544597 1
gene  1 61 60 0.4700355631233533 1 11270.0 0.4700355631233533 1
gene  1 72 60 -1.8578246409708292 1 11281.0 -1.8578246409708292 1
gene  1 177 60 6.532812409030311 1 11386.0 6.532812409030311 1
gene  1 179 60 -6.438952911047183 1 11388.0 -6.438952911047183 0
gene  1 187 60 4.399733876343767 1 11396.0 4.399733876343767 1
gene  1 7 61 0.5968057761385619 0 11406.0 0.5968057761385619 1
gene  1 15 61 6.100883043490317 0 11414.0 6.100883043490317 1
gene  1 22 61 1.2884343003493028 0 11421.0 1.2884343003493028 1
gene  1 28 61 -0.18857389520068457 0 11427.0 -0.18857389520068457 1
gene  1 36 61 8.462336277685939 0 11435.0 8.462336277685939 1
gene  1 53 61 1.9602914240782288 0 11452.0 1.9602914240782288 1
gene  1 54 61 1.0607362327297667 0 11453.0 1.0607362327297667 1
gene  1 67 61 -0.6657228129841573 1 11466.0 -0.6657228129841573 1
gene  1 177 61 -0.29257508592334236 1 11576.0 -0.29257508592334236 1
gene  1 184 61 -3.5229994497776915 1 11583.0 -3.5229994497776915 1
gene  1 6 62 -0.5383672447980126 0 11595.0 -0.5383672447980126 1
gene  1 11 62 -12.096452294009778 0 11600.0 -12.096452294009778 1
gene  1 15 62 4.201878258255798 0 11604.0 4.201878258255798 1
gene  1 26 62 2.6215197532233665 0 11615.0 2.6215197532233665 1
gene  1 53 62 -5.604504338780746 0 11642.0 -5.604504338780746 1
gene  1 68 62 -6.755318149425513 1 11657.0 -6.755318149425513 1
gene  1 72 62 -8.634336692065373 1 11661.0 -8.634336692065373 1
gene  1 174 62 -3.597845435790796 1 11763.0 -3.597845435790796 1
gene  1 175 62 0.5249463587681247 1 11764.0 0.5249463587681247 1
gene  1 184 62 -1.6311548575530548 1 11773.0 -1.6311548575530548 1
gene  1 185 62 -4.122855502967792 1 11774.0 -4.122855502967792 1
gene  1 188 62 1.2416994327592061 1 11777.0 1.2416994327592061 1
gene  1 31 63 -6.725877507866917 0 11810.0 -6.725877507866917 1
gene  1 32 63 0.17280673532368662 0 11811.0 0.17280673532368662 1
gene  1 37 63 5.021733039314198 0 11816.0 5.021733039314198 1
gene  1 38 63 11.952907397500859 0 11817.0 11.952907397500859 1
gene  1 42 63 0.5657236670468226 0 11821.0 0.5657236670468226 1
gene  1 46 63 2.4075386635558655 0 11825.0 2.4075386635558655 1
gene  1 48 63 0.8866380014850737 0 11827.0 0.8866380014850737 1
gene  1 50 63 -5.809741552461632 0 11829.0 -5.809741552461632 1
gene  1 60 63 -0.08104012354136314 0 11839.0 -0.08104012354136314 1
gene  1 63 63 -7.215408013271501 1 11842.0 -7.215408013271501 1
gene  1 72 63 4.407567775837574 1 11851.0 4.407567775837574 1
gene  1 74 63 0.9245198118110187 1 11853.0 0.9245198118110187 1
gene  1 178 63 -5.641144366749804 1 11957.0 -5.641144366749804 1
gene  1 180 63 -0.5300822352716374 1 11959.0 -0.5300822352716374 1
gene  1 181 63 -1.8070218878482192 1 11960.0 -1.8070218878482192 1
gene  1 8 64 0.7936818521408628 0 11977.0 0.7936818521408628 1
gene  1 11 64 -6.745799864787708 0 11980.0 -6.745799864787708 1
gene  1 20 64 0.07667700618457873 0 11989.0 0.07667700618457873 1
gene  1 27 64 0.5896409427568579 0 11996.0 0.5896409427568579 1
gene  1 41 64 -2.0231646571445925 0 12010.0 -2.0231646571445925 1
gene  1 44 64 -3.66413020752692 0 12013.0 -3.66413020752692 1
gene  1 49 64 1.7129728429854614 0 12018.0 1.7129728429854614 1
gene  1 50 64 -5.548058035867563 0 12019.0 -5.548058035867563 1
gene  1 53 64 3.5883004089020827 0 12022.0 3.5883004089020827 1
gene  1 59 64 -1.5109084110513935 0 12028.0 -1.5109084110513935 1
gene  1 70 64 1.720131462695048 1 12039.0 1.720131462695048 1
gene  1 176 64 3.952173063620849 1 12145.0 3.952173063620849 1
gene  1 179 64 2.731367860497047 1 12148.0 2.731367860497047 1
gene  1 183 64 1.6390186530448387 1 12152.0 1.6390186530448387 1
gene  1 184 64 1.7241420115003137 1 12153.0 1.7241420115003137 1
gene  1 185 64 0.7044798858616297 1 12154.0 0.7044798858616297 1
gene  1 8 65 -3.253488979661803 0 12167.0 -3.253488979661803 1
gene  1 13 65 1.8577846197812882 0 12172.0 1.8577846197812882 1
gene  1 18 65 1.4772875697388823 0 12177.0 1.4772875697388823 1
gene  1 39 65 -3.6500163341049863 0 12198.0 -3.6500163341049863 1
gene  1 53 65 0.02691730555137628 0 12212.0 0.02691730555137628 1
gene  1 69 65 3.021312144671816 1 12228.0 3.021312144671816 1
gene  1 70 65 -4.088031233641876 1 12229.0 -4.088031233641876 1
gene  1 175 65 0.8268505791479033 1 12334.0 0.8268505791479033 1
gene  1 176 65 -0.1132250274607588 1 12335.0 -0.1132250274607588 1
gene  1 177 65 -1.8755310287412557 1 12336.0 -1.8755310287412557 1
gene  1 185 65 -0.21148107000286798 1 12344.0 -0.21148107000286798 1
gene  1 1 66 1.7562908681880516 0 12350.0 1.7562908681880516 1
gene  1 4 66 -0.3824320558209129 0 12353.0 -0.3824320558209129 1
gene  1 18 66 -3.571190560455399 0 12367.0 -3.571190560455399 1
gene  1 21 66 0.38495558363973803 0 12370.0 0.38495558363973803 1
gene  1 43 66 -9.871714146641967 0 12392.0 -9.871714146641967 1
gene  1 47 66 -5.811369219552038 0 12396.0 -5.811369219552038 1
gene  1 50 66 4.660903241563112 0 12399.0 4.660903241563112 1
gene  1 60 66 2.2926093310461 0 12409.0 2.2926093310461 1
gene  1 62 66 -0.36824651118156526 0 12411.0 -0.36824651118156526 1
gene  1 66 66 -5.608784248344615 1 12415.0 -5.608784248344615 1
gene  1 184 66 -3.707202084861451 1 12533.0 -3.707202084861451 1
gene  1 8 67 2.797105546230935 0 12547.0 2.797105546230935 1
gene  1 38 67 -2.3013472749037223 0 12577.0 -2.3013472749037223 1
gene  1 46 67 3.94533899637866 0 12585.0 3.94533899637866 1
gene  1 49 67 2.4753407569932055 0 12588.0 2.4753407569932055 1
gene  1 57 67 2.60151893107993 0 12596.0 2.60151893107993 1
gene  1 61 67 -1.0173736361569539 0 12600.0 -1.0173736361569539 1
gene  1 72 67 -0.9919916234553883 1 12611.0 -0.9919916234553883 1
gene  1 177 67 -5.3524665014140735 1 12716.0 -5.3524665014140735 1
gene  1 182 67 -1.071312369012001 1 12721.0 -1.071312369012001 1
gene  1 185 67 -1.240003170568695 1 12724.0 -1.240003170568695 1
gene  1 189 67 1.6306110179616913 1 12728.0 1.6306110179616913 1
gene  1 5 68 3.9035211348384213 0 12734.0 3.9035211348384213 1
gene  1 16 68 0.47136935594702917 0 12745.0 0.47136935594702917 1
gene  1 40 68 0.9840693066415307 0 12769.0 0.9840693066415307 1
gene  1 41 68 1.9795789672857724 0 12770.0 1.9795789672857724 1
gene  1 42 68 0.028367374111909704 0 12771.0 0.028367374111909704 1
gene  1 71 68 1.5719020662292964 1 12800.0 1.5719020662292964 1
gene  1 185 68 -0.8388601851434454 1 12914.0 -0.8388601851434454 1
gene  1 6 69 4.352542615907543 0 12925.0 4.352542615907543 1
gene  1 16 69 -1.5982002450981798 0 12935.0 -1.5982002450981798 1
gene  1 19 69 4.505266750718835 0 12938.0 4.505266750718835 1
gene  1 44 69 1.1086208368546229 0 12963.0 1.1086208368546229 1
gene  1 45 69 2.5126488171005485 0 12964.0 2.5126488171005485 1
gene  1 65 69 0.2573274894112727 0 12984.0 0.2573274894112727 1
gene  1 171 69 -3.5053719875827207 1 13090.0 -3.5053719875827207 1
gene  1 3 70 -4.462402411786227 0 13112.0 -4.462402411786227 1
gene  1 39 70 -3.8309547564667223 0 13148.0 -3.8309547564667223 1
gene  1 60 70 -0.9447899998868414 0 13169.0 -0.9447899998868414 1
gene  1 171 70 -7.521022056934648 1 13280.0 -7.521022056934648 1
gene  1 181 70 12.437966519806304 1 13290.0 12.437966519806304 1
gene  1 183 70 1.3927834757676534 1 13292.0 1.3927834757676534 1
gene  1 11 71 2.0880737398421867 0 13310.0 2.0880737398421867 1
gene  1 15 71 0.7201337019474745 0 13314.0 0.7201337019474745 1
gene  1 30 71 -0.6756877590295827 0 13329.0 -0.6756877590295827 1
gene  1 33 71 0.3834043016702123 0 13332.0 0.3834043016702123 1
gene  1 34 71 4.694442884437793 0 13333.0 4.694442884437793 1
gene  1 48 71 0.30383572203652376 0 13347.0 0.30383572203652376 1
gene  1 50 71 9.356367483608805 0 13349.0 9.356367483608805 1
gene  1 51 71 -0.9357853317964855 0 13350.0 -0.9357853317964855 1
gene  1 57 71 -6.031304877817752 0 13356.0 -6.031304877817752 1
gene  1 73 71 0.029075017842760398 1 13372.0 0.029075017842760398 1
gene  1 185 71 0.6967017061720149 1 13484.0 0.6967017061720149 1
gene  1 24 72 3.602691848848832 0 13513.0 3.602691848848832 1
gene  1 51 72 10.804527644815538 0 13540.0 10.804527644815538 1
gene  1 54 72 -5.045554668572218 0 13543.0 -5.045554668572218 1
gene  1 60 72 -0.17377585672154627 0 13549.0 -0.17377585672154627 1
gene  1 3 73 -5.880558661872078 0 13682.0 -5.880558661872078 1
gene  1 18 73 4.881436299715819 0 13697.0 4.881436299715819 1
gene  1 30 73 0.14220967919726324 0 13709.0 0.14220967919726324 1
gene  1 41 73 -1.1049852410640209 0 13720.0 -1.1049852410640209 1
gene  1 54 73 1.9742976768153937 0 13733.0 1.9742976768153937 1
gene  1 59 73 -1.5345700331994891 0 13738.0 -1.5345700331994891 1
gene  1 60 73 -0.16162090429483045 0 13739.0 -0.16162090429483045 1
gene  1 179 73 -3.8667722709174126 1 13858.0 -3.8667722709174126 1
gene  1 189 73 5.507197224217897 1 13868.0 5.507197224217897 1
gene  1 31 74 -2.511954150211163 0 13900.0 -2.511954150211163 1
gene  1 38 74 1.987939915217666 0 13907.0 1.987939915217666 1
gene  1 67 74 1.5671825487005155 0 13936.0 1.5671825487005155 1
gene  1 74 74 -2.5345730415280068 1 13943.0 -2.5345730415280068 1
gene  1 188 74 4.701153334442941 1 14057.0 4.701153334442941 1
gene  1 2 75 -1.5747003422728127 0 14061.0 -1.5747003422728127 1
gene  1 10 75 0.9232025292284785 0 14069.0 0.9232025292284785 1
gene  1 12 75 -2.2735353142384316 0 14071.0 -2.2735353142384316 1
gene  1 15 75 -1.6499225011656882 0 14074.0 -1.6499225011656882 1
gene  1 18 75 3.0350475797167116 0 14077.0 3.0350475797167116 1
gene  1 43 75 0.6896524460395659 0 14102.0 0.6896524460395659 1
gene  1 46 75 -1.0580983419612 0 14105.0 -1.0580983419612 1
gene  1 56 75 -0.8213839101195628 0 14115.0 -0.8213839101195628 1
gene  1 57 75 -0.01232000767560626 0 14116.0 -0.01232000767560626 1
gene  1 177 75 1.991857872765834 1 14236.0 1.991857872765834 1
gene  1 183 75 -0.19912363760988017 1 14242.0 -0.19912363760988017 1
gene  1 3 171 -1.9257955366902308 0 32302.0 -1.9257955366902308 1
gene  1 10 171 1.2761107049492546 0 32309.0 1.2761107049492546 1
gene  1 18 171 0.13934344010421085 0 32317.0 0.13934344010421085 1
gene  1 35 171 -0.4757239378768022 0 32334.0 -0.4757239378768022 1
gene  1 47 171 -2.291680255326552 0 32346.0 -2.291680255326552 1
gene  1 48 171 -2.0988623070011467 0 32347.0 -2.0988623070011467 1
gene  1 63 171 0.4573805082752693 0 32362.0 0.4573805082752693 1
gene  1 74 171 3.0901009209148813 0 32373.0 3.0901009209148813 1
gene  1 171 171 0.6480419659817462 1 32470.0 0.6480419659817462 1
gene  1 180 171 -1.6643347410280493 1 32479.0 -1.6643347410280493 1
gene  1 181 171 0.03777026778754755 1 32480.0 0.03777026778754755 1
gene  1 16 172 -2.5174323853688207 0 32505.0 -2.5174323853688207 1
gene  1 38 172 5.21594777635006 0 32527.0 5.21594777635006 1
gene  1 58 172 3.138479586475175 0 32547.0 3.138479586475175 1
gene  1 59 172 -4.36462396777743 0 32548.0 -4.36462396777743 1
gene  1 60 172 0.2103714403126239 0 32549.0 0.2103714403126239 1
gene  1 73 172 -1.890112668255022 0 32562.0 -1.890112668255022 1
gene  1 171 172 2.615810778539846 0 32660.0 2.615810778539846 1
gene  1 173 172 -0.2446534162181785 1 32662.0 -0.2446534162181785 1
gene  1 7 173 -5.636561673533793 0 32686.0 -5.636561673533793 1
gene  1 29 173 0.355500256548815 0 32708.0 0.355500256548815 1
gene  1 30 173 2.0900561903550137 0 32709.0 2.0900561903550137 1
gene  1 38 173 -2.4657070385322184 0 32717.0 -2.4657070385322184 1
gene  1 56 173 0.7869082556088915 0 32735.0 0.7869082556088915 1
gene  1 68 173 -3.249699059189369 0 32747.0 -3.249699059189369 1
gene  1 72 173 1.8984051429462783 0 32751.0 1.8984051429462783 1
gene  1 75 173 -0.8387598683558688 0 32754.0 -0.8387598683558688 1
gene  1 180 173 0.7479753500066666 1 32859.0 0.7479753500066666 1
gene  1 45 174 4.655102318624296 0 32914.0 4.655102318624296 1
gene  1 174 174 1.8824477695088746 1 33043.0 1.8824477695088746 1
gene  1 180 174 2.764275809241399 1 33049.0 2.764275809241399 1
gene  1 186 174 -1.2039989747864563 1 33055.0 -1.2039989747864563 1
gene  1 2 175 0.8764680253015272 0 33061.0 0.8764680253015272 1
gene  1 11 175 0.7313118234894939 0 33070.0 0.7313118234894939 1
gene  1 26 175 -1.6088423090763104 0 33085.0 -1.6088423090763104 1
gene  1 37 175 -1.8056997943621698 0 33096.0 -1.8056997943621698 1
gene  1 43 175 -7.840729504467072 0 33102.0 -7.840729504467072 1
gene  1 48 175 1.4442578872248786 0 33107.0 1.4442578872248786 1
gene  1 51 175 12.335421793808264 0 33110.0 12.335421793808264 1
gene  1 64 175 -0.8651729767397023 0 33123.0 -0.8651729767397023 1
gene  1 70 175 1.1505007816230628 0 33129.0 1.1505007816230628 1
gene  1 71 175 1.7973956559371094 0 33130.0 1.7973956559371094 1
gene  1 177 175 2.170282614547129 1 33236.0 2.170282614547129 1
gene  1 178 175 2.796803437369345 1 33237.0 2.796803437369345 1
gene  1 181 175 -1.118609916017729 1 33240.0 -1.118609916017729 1
gene  1 184 175 -1.395606447483185 1 33243.0 -1.395606447483185 1
gene  1 186 175 0.9860923678186313 1 33245.0 0.9860923678186313 1
gene  1 2 176 -2.410210670689625 0 33251.0 -2.410210670689625 1
gene  1 8 176 -6.844728086753053 0 33257.0 -6.844728086753053 1
gene  1 9 176 1.8240264787733782 0 33258.0 1.8240264787733782 1
gene  1 12 176 0.34150014762007913 0 33261.0 0.34150014762007913 1
gene  1 15 176 -2.232052954900534 0 33264.0 -2.232052954900534 1
gene  1 16 176 4.05978232694023 0 33265.0 4.05978232694023 1
gene  1 35 176 1.1314083556195222 0 33284.0 1.1314083556195222 1
gene  1 37 176 -0.5464615722101498 0 33286.0 -0.5464615722101498 1
gene  1 46 176 -0.7488110324640745 0 33295.0 -0.7488110324640745 1
gene  1 62 176 -2.1767953851626003 0 33311.0 -2.1767953851626003 1
gene  1 64 176 -4.2051261307576535 0 33313.0 -4.2051261307576535 1
gene  1 171 176 -4.612842542230184 0 33420.0 -4.612842542230184 1
gene  1 174 176 -5.68969953703863 0 33423.0 -5.68969953703863 1
gene  1 179 176 6.810063083074036 1 33428.0 6.810063083074036 1
gene  1 1 177 6.584035584535867 0 33440.0 6.584035584535867 1
gene  1 7 177 3.0209312092691656 0 33446.0 3.0209312092691656 1
gene  1 8 177 -0.8773088512173621 0 33447.0 -0.8773088512173621 1
gene  1 9 177 3.1908963391806875 0 33448.0 3.1908963391806875 1
gene  1 14 177 0.9062335550743739 0 33453.0 0.9062335550743739 1
gene  1 16 177 -3.637423470264454 0 33455.0 -3.637423470264454 1
gene  1 20 177 -3.2891998695206652 0 33459.0 -3.2891998695206652 1
gene  1 30 177 2.795379888226976 0 33469.0 2.795379888226976 1
gene  1 31 177 -3.0233261571250973 0 33470.0 -3.0233261571250973 1
gene  1 32 177 -0.06035000789825462 0 33471.0 -0.06035000789825462 1
gene  1 43 177 0.8120277873066795 0 33482.0 0.8120277873066795 1
gene  1 44 177 3.03785685773153 0 33483.0 3.03785685773153 1
gene  1 53 177 -2.3056501595474685 0 33492.0 -2.3056501595474685 1
gene  1 59 177 -0.6860207220089423 0 33498.0 -0.6860207220089423 1
gene  1 69 177 -5.375773482095024 0 33508.0 -5.375773482095024 1
gene  1 174 177 1.820570632750943 0 33613.0 1.820570632750943 1
gene  1 175 177 -0.7360829775269089 0 33614.0 -0.7360829775269089 1
gene  1 184 177 2.2017524223505327 1 33623.0 2.2017524223505327 1
gene  1 187 177 1.571329105187331 1 33626.0 1.571329105187331 1
gene  1 1 178 4.057549038359103 0 33630.0 4.057549038359103 1
gene  1 20 178 11.221978044039504 0 33649.0 11.221978044039504 1
gene  1 26 178 -2.7403071525409324 0 33655.0 -2.7403071525409324 1
gene  1 35 178 -2.4734462554740606 0 33664.0 -2.4734462554740606 1
gene  1 42 178 -1.9268146592630284 0 33671.0 -1.9268146592630284 1
gene  1 53 178 -7.663877214336727 0 33682.0 -7.663877214336727 1
gene  1 59 178 -3.5347800893107983 0 33688.0 -3.5347800893107983 1
gene  1 72 178 7.796940239047627 0 33701.0 7.796940239047627 1
gene  1 172 178 1.2784521928914785 0 33801.0 1.2784521928914785 1
gene  1 190 178 -6.619274596739639 1 33819.0 -6.619274596739639 1
gene  1 6 179 -3.885583941793164 0 33825.0 -3.885583941793164 1
gene  1 8 179 1.1469877139884845 0 33827.0 1.1469877139884845 1
gene  1 13 179 -1.0342331970461562 0 33832.0 -1.0342331970461562 1
gene  1 36 179 -8.675480853955786 0 33855.0 -8.675480853955786 1
gene  1 46 179 5.0575564283085885 0 33865.0 5.0575564283085885 1
gene  1 60 179 2.3364455368118904 0 33879.0 2.3364455368118904 1
gene  1 61 179 0.7882019357646515 0 33880.0 0.7882019357646515 1
gene  1 72 179 2.0130416028402633 0 33891.0 2.0130416028402633 1
gene  1 74 179 6.33351039252269 0 33893.0 6.33351039252269 1
gene  1 171 179 -2.3013879517668 0 33990.0 -2.3013879517668 1
gene  1 185 179 -1.955199919676303 1 34004.0 -1.955199919676303 1
gene  1 1 180 -1.1573749611620496 0 34010.0 -1.1573749611620496 1
gene  1 4 180 -0.7218143450612449 0 34013.0 -0.7218143450612449 1
gene  1 8 180 0.9062071838815853 0 34017.0 0.9062071838815853 1
gene  1 11 180 -11.819747736204318 0 34020.0 -11.819747736204318 1
gene  1 21 180 10.66665920100586 0 34030.0 10.66665920100586 1
gene  1 32 180 -4.340245404759628 0 34041.0 -4.340245404759628 1
gene  1 35 180 1.3570144549701706 0 34044.0 1.3570144549701706 1
gene  1 46 180 2.82954003105044 0 34055.0 2.82954003105044 1
gene  1 68 180 3.303480441217679 0 34077.0 3.303480441217679 1
gene  1 188 180 -5.069794057369168 1 34197.0 -5.069794057369168 1
gene  1 2 181 -1.4148883721617886 0 34201.0 -1.4148883721617886 1
gene  1 16 181 0.3370510398991397 0 34215.0 0.3370510398991397 1
gene  1 24 181 -5.100131084606453 0 34223.0 -5.100131084606453 1
gene  1 36 181 -0.464770945657349 0 34235.0 -0.464770945657349 1
gene  1 60 181 -2.4019281155554997 0 34259.0 -2.4019281155554997 1
gene  1 69 181 0.5655812480681155 0 34268.0 0.5655812480681155 1
gene  1 190 181 2.111174860261376 1 34389.0 2.111174860261376 1
gene  1 1 182 -0.8499734389483273 0 34390.0 -0.8499734389483273 1
gene  1 17 182 -0.34207610161111424 0 34406.0 -0.34207610161111424 1
gene  1 35 182 -1.4655101946280888 0 34424.0 -1.4655101946280888 1
gene  1 44 182 -3.6107442257886713 0 34433.0 -3.6107442257886713 1
gene  1 49 182 6.202975839411849 0 34438.0 6.202975839411849 1
gene  1 50 182 0.48936270014499295 0 34439.0 0.48936270014499295 1
gene  1 54 182 6.819160744533872 0 34443.0 6.819160744533872 1
gene  1 59 182 0.18474827041435438 0 34448.0 0.18474827041435438 1
gene  1 73 182 -2.636477330155908 0 34462.0 -2.636477330155908 1
gene  1 174 182 -3.9063254625395905 0 34563.0 -3.9063254625395905 1
gene  1 187 182 3.436422499351729 1 34576.0 3.436422499351729 1
gene  1 6 183 7.427851440759461 0 34585.0 7.427851440759461 1
gene  1 7 183 -1.5180998708848517 0 34586.0 -1.5180998708848517 1
gene  1 17 183 -7.912822132129901 0 34596.0 -7.912822132129901 1
gene  1 20 183 -7.425318820523344 0 34599.0 -7.425318820523344 1
gene  1 25 183 0.6418809342587225 0 34604.0 0.6418809342587225 1
gene  1 30 183 1.2096756080186946 0 34609.0 1.2096756080186946 1
gene  1 39 183 -1.2376930940709656 0 34618.0 -1.2376930940709656 1
gene  1 44 183 7.9772428499277215 0 34623.0 7.9772428499277215 1
gene  1 66 183 -1.4302197626048994 0 34645.0 -1.4302197626048994 1
gene  1 171 183 3.048531940180747 0 34750.0 3.048531940180747 1
gene  1 174 183 4.473727437393519 0 34753.0 4.473727437393519 1
gene  1 21 184 -2.053881414841542 0 34790.0 -2.053881414841542 1
gene  1 29 184 -0.22921108751525393 0 34798.0 -0.22921108751525393 1
gene  1 32 184 -1.9020689881423447 0 34801.0 -1.9020689881423447 1
gene  1 36 184 2.012358231419006 0 34805.0 2.012358231419006 1
gene  1 45 184 -1.7630075243255146 0 34814.0 -1.7630075243255146 1
gene  1 46 184 -0.7226398604434792 0 34815.0 -0.7226398604434792 1
gene  1 63 184 0.22747399508282728 0 34832.0 0.22747399508282728 1
gene  1 66 184 4.683537806243923 0 34835.0 4.683537806243923 1
gene  1 177 184 0.432789691336869 0 34946.0 0.432789691336869 1
gene  1 31 185 5.331398891502957 0 34990.0 5.331398891502957 1
gene  1 50 185 -1.2287559897144085 0 35009.0 -1.2287559897144085 1
gene  1 56 185 1.9719868170172703 0 35015.0 1.9719868170172703 1
gene  1 58 185 -2.679965539377961 0 35017.0 -2.679965539377961 1
gene  1 62 185 3.5551497135598478 0 35021.0 3.5551497135598478 1
gene  1 173 185 2.0520916615262865 0 35132.0 2.0520916615262865 1
gene  1 179 185 -2.3072285820047744 0 35138.0 -2.3072285820047744 1
gene  1 182 185 2.8245165783169135 0 35141.0 2.8245165783169135 1
gene  1 188 185 -1.7701842601266013 1 35147.0 -1.7701842601266013 1
gene  1 1 186 -0.3478915327412227 0 35150.0 -0.3478915327412227 1
gene  1 3 186 -3.931603728248178 0 35152.0 -3.931603728248178 1
gene  1 4 186 0.15663936019490565 0 35153.0 0.15663936019490565 1
gene  1 6 186 2.2853128231461497 0 35155.0 2.2853128231461497 1
gene  1 7 186 4.67510598518626 0 35156.0 4.67510598518626 1
gene  1 17 186 -5.745968224754504 0 35166.0 -5.745968224754504 1
gene  1 23 186 -0.17863223347520218 0 35172.0 -0.17863223347520218 1
gene  1 28 186 -1.8311223557572407 0 35177.0 -1.8311223557572407 1
gene  1 33 186 1.7613854002780174 0 35182.0 1.7613854002780174 1
gene  1 36 186 -2.3514232530068195 0 35185.0 -2.3514232530068195 1
gene  1 58 186 -6.503041237834358 0 35207.0 -6.503041237834358 1
gene  1 69 186 3.53184791682998 0 35218.0 3.53184791682998 1
gene  1 70 186 7.247512069372647 0 35219.0 7.247512069372647 1
gene  1 72 186 1.2907827433482495 0 35221.0 1.2907827433482495 1
gene  1 10 187 1.8759284182688107 0 35349.0 1.8759284182688107 1
gene  1 25 187 2.395657142111163 0 35364.0 2.395657142111163 1
gene  1 31 187 1.1680650775809938 0 35370.0 1.1680650775809938 1
gene  1 33 187 -3.8165715222093355 0 35372.0 -3.8165715222093355 1
gene  1 47 187 5.401235049716359 0 35386.0 5.401235049716359 1
gene  1 57 187 -0.8250429588704162 0 35396.0 -0.8250429588704162 1
gene  1 183 187 0.3887121510094915 0 35522.0 0.3887121510094915 1
gene  1 184 187 -0.897263956352688 0 35523.0 -0.897263956352688 1
gene  1 5 188 2.2777875064791218 0 35534.0 2.2777875064791218 1
gene  1 6 188 1.2938182544689147 0 35535.0 1.2938182544689147 1
gene  1 12 188 6.736166748932121 0 35541.0 6.736166748932121 1
gene  1 28 188 0.40968276286724364 0 35557.0 0.40968276286724364 1
gene  1 32 188 7.502637510139152 0 35561.0 7.502637510139152 1
gene  1 35 188 0.8834016478149331 0 35564.0 0.8834016478149331 1
gene  1 57 188 2.7343963244631184 0 35586.0 2.7343963244631184 1
gene  1 172 188 -2.082552466599993 0 35701.0 -2.082552466599993 1
gene  1 14 189 4.126902302511508 0 35733.0 4.126902302511508 1
gene  1 17 189 0.05500684058733585 0 35736.0 0.05500684058733585 1
gene  1 27 189 2.803588397957359 0 35746.0 2.803588397957359 1
gene  1 37 189 -0.5308745211264796 0 35756.0 -0.5308745211264796 1
gene  1 43 189 -6.282195877262081 0 35762.0 -6.282195877262081 1
gene  1 51 189 -5.070944602290691 0 35770.0 -5.070944602290691 1
gene  1 56 189 -2.435200347108169 0 35775.0 -2.435200347108169 1
gene  1 59 189 10.769208263097246 0 35778.0 10.769208263097246 1
gene  1 65 189 0.6459013189353426 0 35784.0 0.6459013189353426 1
gene  1 73 189 2.991765402082251 0 35792.0 2.991765402082251 1
gene  1 74 189 1.052148369928748 0 35793.0 1.052148369928748 1
gene  1 178 189 11.822380077017716 0 35897.0 11.822380077017716 1
gene  1 1 190 0.6635594570101164 0 35910.0 0.6635594570101164 1
gene  1 4 190 -3.0403586890346403 0 35913.0 -3.0403586890346403 1
gene  1 15 190 0.7109536222424695 0 35924.0 0.7109536222424695 1
gene  1 22 190 5.601116528194046 0 35931.0 5.601116528194046 1
gene  1 33 190 0.20127989570357802 0 35942.0 0.20127989570357802 1
gene  1 58 190 4.24003189244219 0 35967.0 4.24003189244219 1
gene  1 60 190 2.4116459227318874 0 35969.0 2.4116459227318874 1
gene  1 67 190 -1.5143904913809572 0 35976.0 -1.5143904913809572 1
gene  1 179 190 1.6085139546891332 0 36088.0 1.6085139546891332 1
gene  1 181 190 -0.23917586402737667 0 36090.0 -0.23917586402737667 1
gene  1 182 190 -6.197009129166425 0 36091.0 -6.197009129166425 1
gene  1 184 190 1.4154456055522298 0 36093.0 1.4154456055522298 1
gene  1 186 190 -7.932181658938763 0 36095.0 -7.932181658938763 1
gene  1 187 190 -1.0650486096179175 0 36096.0 -1.0650486096179175 1
gene  1 65 188 1.0558461894300508 0 36109.0 1.0558461894300508 1
gene  1 1 193 0.24094401670582033 0 36113.0 0.24094401670582033 1
gene  1 193 190 0.14125218425376285 0 36114.0 0.14125218425376285 1
gene  1 29 68 -1.4735483541952035 0 36116.0 -1.4735483541952035 1
gene  1 181 195 -3.4317925055944314 1 36120.0 -3.4317925055944314 1
gene  1 195 63 2.330728648944393 0 36121.0 2.330728648944393 1
gene  1 7 171 -0.9012236385810718 0 36125.0 -0.9012236385810718 1
gene  1 22 72 1.3947556434485024 0 36150.0 1.3947556434485024 1
gene  1 47 212 1.014716817559072 0 36196.0 1.014716817559072 1
gene  1 212 55 -0.5863600245017048 0 36197.0 -0.5863600245017048 1
gene  1 55 58 1.7005062084044287 0 36200.0 1.7005062084044287 1
gene  1 33 217 4.49359850640592 0 36231.0 4.49359850640592 1
gene  1 217 187 2.236321292231638 0 36232.0 2.236321292231638 1
gene  1 69 56 -0.11656565965377785 0 36255.0 -0.11656565965377785 1
gene  1 51 173 0.19690497852020505 0 36261.0 0.19690497852020505 1
gene  1 35 230 2.1255107068359704 0 36282.0 2.1255107068359704 1
gene  1 230 57 -0.8676487211004155 0 36283.0 -0.8676487211004155 1
gene  1 43 244 -0.8845123320175796 0 36330.0 -0.8845123320175796 1
gene  1 244 189 1.8734811696279083 0 36331.0 1.8734811696279083 1
gene  1 13 172 1.037134680141161 0 36334.0 1.037134680141161 1
gene  1 52 230 -1.3401875587079735 0 36357.0 -1.3401875587079735 1
gene  1 68 188 -3.9989656927356885 0 36380.0 -3.9989656927356885 1
gene  1 12 54 -0.6886632939971926 0 36383.0 -0.6886632939971926 1
gene  1 181 74 2.4041102040092803 0 36429.0 2.4041102040092803 1
gene  1 61 177 1.0685035151657614 0 36460.0 1.0685035151657614 1
gene  1 20 184 0.06588132061430996 0 36496.0 0.06588132061430996 1
gene  1 190 176 4.438485500086038 0 36516.0 4.438485500086038 1
gene  1 22 291 0.12049993886050192 0 36524.0 0.12049993886050192 1
gene  1 291 190 -0.9864380362874653 0 36525.0 -0.9864380362874653 1
gene  1 75 174 -4.109640534962519 0 36555.0 -4.109640534962519 1
gene  1 35 297 1.7258839509945343 0 36562.0 1.7258839509945343 1
gene  1 297 171 5.149598033747717 0 36563.0 5.149598033747717 1
gene  1 33 184 1.7630943528195162 0 36565.0 1.7630943528195162 1
gene  1 35 186 2.6504590047754246 0 36569.0 2.6504590047754246 1
gene  1 51 300 -3.326850544056673 0 36574.0 -3.326850544056673 1
gene  1 300 71 1.819810295617741 0 36575.0 1.819810295617741 1
gene  1 49 172 -0.3962827071134182 0 36658.0 -0.3962827071134182 1
gene  1 75 177 6.778831897108627 0 36665.0 6.778831897108627 1
gene  1 53 321 -2.989463352392076 0 36673.0 -2.989463352392076 1
gene  1 321 62 -1.1039203824078503 0 36674.0 -1.1039203824078503 1
gene  1 47 62 2.010625632539225 0 36689.0 2.010625632539225 1
gene  1 41 67 0.35689190154611383 0 36692.0 0.35689190154611383 1
gene  1 182 325 -2.419711991768244 1 36701.0 -2.419711991768244 1
gene  1 325 67 1.4998185540695084 0 36702.0 1.4998185540695084 1
gene  1 195 178 6.160236322596232 0 36719.0 6.160236322596232 1
gene  1 64 56 -4.199254624416401 0 36723.0 -4.199254624416401 1
gene  1 37 334 0.7361739683686142 0 36742.0 0.7361739683686142 1
gene  1 334 175 -1.1799296164404733 0 36743.0 -1.1799296164404733 1
gene  1 56 341 -2.2596252371301744 0 36772.0 -2.2596252371301744 1
gene  1 341 173 -7.672805749519067 0 36773.0 -7.672805749519067 1
gene  1 26 297 -1.3451586126891346 0 36788.0 -1.3451586126891346 1
gene  1 24 70 2.793438285960101 0 36824.0 2.793438285960101 1
gene  1 174 178 -1.6050269790181444 0 36853.0 -1.6050269790181444 1
gene  1 15 174 0.18864107172192113 0 36944.0 0.18864107172192113 1
gene  1 188 178 7.773425850893057 0 36962.0 7.773425850893057 1
gene  1 15 72 1.2881874989083602 0 36977.0 1.2881874989083602 1
gene  1 66 54 -3.9712604672020797 0 37021.0 -3.9712604672020797 1
gene  1 212 177 -0.5882580834498958 0 37108.0 -0.5882580834498958 1
gene  1 10 244 1.182740178765283 0 37115.0 1.182740178765283 1
gene  1 27 291 -1.4242000951389207 0 37132.0 -1.4242000951389207 1
gene  1 4 68 -1.8665189613099402 0 37136.0 -1.8665189613099402 1
gene  1 5 416 2.1884887815327683 0 37142.0 2.1884887815327683 1
gene  1 416 188 3.7288218010084693 0 37143.0 3.7288218010084693 1
gene  1 17 217 -1.176498643985199 0 37209.0 -1.176498643985199 1
gene  1 5 187 -2.8092836902158753 0 37211.0 -2.8092836902158753 1
gene  1 43 433 -0.9848482856167342 0 37218.0 -0.9848482856167342 1
gene  1 433 66 -1.6230799408847727 0 37219.0 -1.6230799408847727 1
gene  1 75 436 -4.542975499775517 1 37227.0 -4.542975499775517 1
gene  1 436 59 1.3336973846402045 0 37228.0 1.3336973846402045 1
gene  1 244 60 -3.7806734338434564 0 37235.0 -3.7806734338434564 1
gene  1 416 73 2.7635571600481432 0 37246.0 2.7635571600481432 1
gene  1 60 447 -0.29394348387174585 0 37271.0 -0.29394348387174585 1
gene  1 447 73 -4.966176766346254 0 37272.0 -4.966176766346254 1
gene  1 42 69 -0.606166968216207 0 37308.0 -0.606166968216207 1
gene  1 15 464 0.4501723792483254 0 37342.0 0.4501723792483254 1
gene  1 464 176 -0.5532966872800824 0 37343.0 -0.5532966872800824 1
gene  1 51 187 3.904467908275983 0 37380.0 3.904467908275983 1
gene  1 26 185 -3.6513235825942845 0 37427.0 -3.6513235825942845 1
gene  1 51 185 -2.7185443836470395 0 37512.0 -2.7185443836470395 1
gene  1 20 180 -2.0205783696255137 0 37552.0 -2.0205783696255137 1
gene  1 23 511 1.76572216425052 0 37568.0 1.76572216425052 1
gene  1 511 186 -2.192134165789765 0 37569.0 -2.192134165789765 1
gene  1 66 63 3.7264824042603157 0 37632.0 3.7264824042603157 1
gene  1 186 71 -0.8964565113745941 0 37664.0 -0.8964565113745941 1
gene  1 28 416 -0.3989883108405101 0 37673.0 -0.3989883108405101 1
gene  1 175 537 0.7100975587509435 1 37692.0 0.7100975587509435 1
gene  1 537 62 -4.115585969714929 0 37693.0 -4.115585969714929 1
gene  1 43 180 -6.329077506254326 0 37705.0 -6.329077506254326 1
gene  1 4 63 0.6850198267105639 0 37794.0 0.6850198267105639 1
gene  1 41 188 -1.3702650747931586 0 37797.0 -1.3702650747931586 1
gene  1 70 566 -4.573385117947707 0 37810.0 -4.573385117947707 1
gene  1 566 175 2.1940508593470307 0 37811.0 2.1940508593470307 1
gene  1 51 180 -3.850817673821733 0 37819.0 -3.850817673821733 1
gene  1 185 217 -4.81439874499258 0 37826.0 -4.81439874499258 1
gene  1 2 183 -0.7762709461332138 0 37861.0 -0.7762709461332138 1
gene  1 44 588 0.9681950385428806 0 37889.0 0.9681950385428806 1
gene  1 588 183 3.0686120020484333 0 37890.0 3.0686120020484333 1
gene  1 341 433 -3.5094175539513772 0 37895.0 -3.5094175539513772 1
gene  1 60 182 -0.36871754536220025 0 37962.0 -0.36871754536220025 1
gene  1 183 629 -0.06721389373512549 0 38062.0 -0.06721389373512549 1
gene  1 629 187 -0.45034740049482697 0 38063.0 -0.45034740049482697 1
gene  1 30 636 3.6727488603513825 0 38094.0 3.6727488603513825 1
gene  1 636 173 -0.9707567177355487 0 38095.0 -0.9707567177355487 1
gene  1 180 63 0.381118616797724 0 38117.0 0.381118616797724 1
gene  1 72 566 -2.246246803997717 0 38149.0 -2.246246803997717 1
gene  1 22 70 -0.4220639762824255 0 38194.0 -0.4220639762824255 1
gene  1 179 663 -2.4600047511452363 1 38214.0 -2.4600047511452363 1
gene  1 663 60 2.0099435415110074 0 38215.0 2.0099435415110074 1
gene  1 20 416 -5.443808774374272 0 38234.0 -5.443808774374272 1
gene  1 433 57 -6.865093555234491 0 38245.0 -6.865093555234491 1
genomeend 1
/* Organism # 002 Fitness:  1500,473 Error:  1000,000                      */
genomestart  2
trait 1 2.9760114340127637 1.301272621480162 2.823957884501983 1.5406565170279674 1.9639614674978727 0.8530310998743537 0.1576749709379578 0.10953053633590004 
node 1 1 1 1
node 2 1 1 1
node 3 1 1 1
node 4 1 1 1
node 5 1 1 1
node 6 1 1 1
node 7 1 1 1
node 8 1 1 1
node 9 1 1 1
node 10 1 1 1
node 11 1 1 1
node 12 1 1 1
node 13 1 1 1
node 14 1 1 1
node 15 1 1 1
node 16 1 1 1
node 17 1 1 1
node 18 1 1 1
node 19 1 1 1
node 20 1 1 1
node 21 1 1 1
node 22 1 1 1
node 23 1 1 1
node 24 1 1 1
node 25 1 1 1
node 26 1 1 1
node 27 1 1 1
node 28 1 1 1
node 29 1 1 1
node 30 1 1 1
node 31 1 1 1
node 32 1 1 1
node 33 1 1 1
node 34 1 1 1
node 35 1 1 1
node 36 1 1 1
node 37 1 1 1
node 38 1 1 1
node 39 1 1 1
node 40 1 1 1
node 41 1 1 1
node 42 1 1 1
node 43 1 1 1
node 44 1 1 1
node 45 1 1 1
node 46 1 1 1
node 47 1 1 1
node 48 1 1 1
node 49 1 1 1
node 50 1 1 3
node 51 1 0 0
node 52 1 0 0
node 53 1 0 0
node 54 1 0 0
node 55 1 0 0
node 56 1 0 0
node 57 1 0 0
node 58 1 0 0
node 59 1 0 0
node 60 1 0 0
node 61 1 0 0
node 62 1 0 0
node 63 1 0 0
node 64 1 0 0
node 65 1 0 0
node 66 1 0 0
node 67 1 0 0
node 68 1 0 0
node 69 1 0 0
node 70 1 0 0
node 71 1 0 0
node 72 1 0 0
node 73 1 0 0
node 74 1 0 0
node 75 1 0 0
node 171 1 0 2
node 172 1 0 2
node 173 1 0 2
node 174 1 0 2
node 175 1 0 2
node 176 1 0 2
node 177 1 0 2
node 178 1 0 2
node 179 1 0 2
node 180 1 0 2
node 181 1 0 2
node 182 1 0 2
node 183 1 0 2
node 184 1 0 2
node 185 1 0 2
node 186 1 0 2
node 187 1 0 2
node 188 1 0 2
node 189 1 0 2
node 190 1 0 2
node 193 1 0 0
node 195 1 0 0
node 212 1 0 0
node 217 1 0 0
node 230 1 0 0
node 244 1 0 0
node 291 1 0 0
node 297 1 0 0
node 300 1 0 0
node 321 1 0 0
node 325 1 0 0
node 334 1 0 0
node 341 1 0 0
node 416 1 0 0
node 433 1 0 0
node 436 1 0 0
node 447 1 0 0
node 464 1 0 0
node 511 1 0 0
node 537 1 0 0
node 566 1 0 0
node 588 1 0 0
node 629 1 0 0
node 636 1 0 0
node 663 1 0 0
gene  1 28 51 8.376818533704672 0 9527.0 8.376818533704672 1
gene  1 33 51 -0.037226363681852837 0 9532.0 -0.037226363681852837 1
gene  1 36 51 2.5486952564086405 0 9535.0 2.5486952564086405 1
gene  1 40 51 1.6455978732829442 0 9539.0 1.6455978732829442 1
gene  1 42 51 -1.7801885540556475 0 9541.0 -1.7801885540556475 1
gene  1 54 51 -10.499841139262523 1 9553.0 -10.499841139262523 1
gene  1 57 51 2.204519512310837 1 9556.0 2.204519512310837 1
gene  1 68 51 1.0843716673817867 1 9567.0 1.0843716673817867 1
gene  1 174 51 6.906419523677734 1 9673.0 6.906419523677734 1
gene  1 183 51 8.622455039750877 1 9682.0 8.622455039750877 1
gene  1 184 51 -2.8290850697960757 1 9683.0 -2.8290850697960757 1
gene  1 189 51 -2.9127541855706536 1 9688.0 -2.9127541855706536 1
gene  1 3 52 -1.6769256959243857 0 9692.0 -1.6769256959243857 1
gene  1 6 52 2.7342377994313893 0 9695.0 2.7342377994313893 1
gene  1 24 52 -0.13220781552831284 0 9713.0 -0.13220781552831284 1
gene  1 29 52 -1.0165903122072373 0 9718.0 -1.0165903122072373 1
gene  1 31 52 -1.628888774744274 0 9720.0 -1.628888774744274 1
gene  1 35 52 6.538837165127655 0 9724.0 6.538837165127655 1
gene  1 63 52 -8.377970965603179 1 9752.0 -8.377970965603179 1
gene  1 179 52 1.513802188959035 1 9868.0 1.513802188959035 1
gene  1 183 52 -1.4917904906286559 1 9872.0 -1.4917904906286559 1
gene  1 184 52 2.147115214687877 1 9873.0 2.147115214687877 1
gene  1 185 52 1.5237755853674062 1 9874.0 1.5237755853674062 1
gene  1 5 53 -3.68760532773445 0 9884.0 -3.68760532773445 1
gene  1 6 53 -3.0507488337194766 0 9885.0 -3.0507488337194766 1
gene  1 10 53 -2.5248416572856396 0 9889.0 -2.5248416572856396 1
gene  1 33 53 -2.522024952438959 0 9912.0 -2.522024952438959 1
gene  1 35 53 1.7208890811051492 0 9914.0 1.7208890811051492 1
gene  1 38 53 -1.7349227441752657 0 9917.0 -1.7349227441752657 1
gene  1 45 53 4.167187772375874 0 9924.0 4.167187772375874 1
gene  1 71 53 -5.253196871888195 1 9950.0 -5.253196871888195 1
gene  1 16 54 -1.8349825056474118 0 10085.0 -1.8349825056474118 1
gene  1 19 54 2.9933291903801247 0 10088.0 2.9933291903801247 1
gene  1 36 54 -0.3647925595395073 0 10105.0 -0.3647925595395073 1
gene  1 42 54 -1.3324545354128432 0 10111.0 -1.3324545354128432 1
gene  1 58 54 -4.106899130922605 1 10127.0 -4.106899130922605 1
gene  1 62 54 -1.2007694065564773 1 10131.0 -1.2007694065564773 1
gene  1 73 54 -5.223327441285595 1 10142.0 -5.223327441285595 1
gene  1 177 54 6.116492482845965 1 10246.0 6.116492482845965 1
gene  1 180 54 -7.559421430946887 1 10249.0 -7.559421430946887 1
gene  1 190 54 1.8565531003400206 1 10259.0 1.8565531003400206 1
gene  1 20 55 0.6718745322591466 0 10279.0 0.6718745322591466 1
gene  1 31 55 0.9653424360340224 0 10290.0 0.9653424360340224 1
gene  1 35 55 1.9524886496707732 0 10294.0 1.9524886496707732 1
gene  1 41 55 -0.5459817593206115 0 10300.0 -0.5459817593206115 1
gene  1 47 55 -2.6395719558249784 0 10306.0 -2.6395719558249784 1
gene  1 52 55 7.669253777193914 0 10311.0 7.669253777193914 1
gene  1 69 55 1.1329642414768535 1 10328.0 1.1329642414768535 1
gene  1 75 55 -3.3517309469270127 1 10334.0 -3.3517309469270127 1
gene  1 187 55 -7.057596415323048 1 10446.0 -7.057596415323048 1
gene  1 7 56 3.807421228936528 0 10456.0 3.807421228936528 1
gene  1 11 56 4.487481509580887 0 10460.0 4.487481509580887 1
gene  1 13 56 -0.07363670715414594 0 10462.0 -0.07363670715414594 1
gene  1 36 56 -0.6364782146232202 0 10485.0 -0.6364782146232202 1
gene  1 41 56 -1.0324752769821575 0 10490.0 -1.0324752769821575 1
gene  1 44 56 -1.994542013326669 0 10493.0 -1.994542013326669 1
gene  1 46 56 -2.200584898697531 0 10495.0 -2.200584898697531 1
gene  1 49 56 1.0498032069411978 0 10498.0 1.0498032069411978 1
gene  1 68 56 1.9874176456870183 1 10517.0 1.9874176456870183 1
gene  1 179 56 1.7535766721021675 1 10628.0 1.7535766721021675 1
gene  1 183 56 4.703986796163893 1 10632.0 4.703986796163893 1
gene  1 3 57 -1.7718290993075707 0 10642.0 -1.7718290993075707 1
gene  1 19 57 0.4548899447786803 0 10658.0 0.4548899447786803 1
gene  1 22 57 -3.927937382787682 0 10661.0 -3.927937382787682 1
gene  1 28 57 -3.639666849984411 0 10667.0 -3.639666849984411 1
gene  1 30 57 -1.0528782413277211 0 10669.0 -1.0528782413277211 1
gene  1 35 57 0.7458758755323678 0 10674.0 0.7458758755323678 1
gene  1 47 57 -4.107697881271729 0 10686.0 -4.107697881271729 1
gene  1 59 57 4.945384715813342 1 10698.0 4.945384715813342 1
gene  1 60 57 4.52922237834634 1 10699.0 4.52922237834634 1
gene  1 187 57 -1.2435988283894945 1 10826.0 -1.2435988283894945 1
gene  1 5 58 -0.3116673134469128 0 10834.0 -0.3116673134469128 1
gene  1 14 58 -0.03468047014646258 0 10843.0 -0.03468047014646258 1
gene  1 15 58 -0.27546463679376254 0 10844.0 -0.27546463679376254 1
gene  1 24 58 8.010889534662494 0 10853.0 8.010889534662494 1
gene  1 32 58 -3.9027625310299783 0 10861.0 -3.9027625310299783 1
gene  1 43 58 0.10292176545090337 0 10872.0 0.10292176545090337 1
gene  1 49 58 -5.117917268636324 0 10878.0 -5.117917268636324 1
gene  1 53 58 1.0798610172704297 0 10882.0 1.0798610172704297 1
gene  1 62 58 11.945028898577707 1 10891.0 11.945028898577707 1
gene  1 64 58 -0.10894849666942752 1 10893.0 -0.10894849666942752 1
gene  1 69 58 2.6396508219742802 1 10898.0 2.6396508219742802 1
gene  1 182 58 -12.050247210517083 1 11011.0 -12.050247210517083 1
gene  1 1 59 5.197769515780536 0 11020.0 5.197769515780536 1
gene  1 4 59 2.8562498898983484 0 11023.0 2.8562498898983484 1
gene  1 27 59 5.772492232658033 0 11046.0 5.772492232658033 1
gene  1 34 59 -0.06843309714958018 0 11053.0 -0.06843309714958018 1
gene  1 37 59 -2.7303660479513834 0 11056.0 -2.7303660479513834 1
gene  1 44 59 -0.49075836066360257 0 11063.0 -0.49075836066360257 1
gene  1 59 59 3.4130191429442327 1 11078.0 3.4130191429442327 1
gene  1 73 59 0.9151532728666429 1 11092.0 0.9151532728666429 1
gene  1 75 59 -10.988406335030131 1 11094.0 -10.988406335030131 1
gene  1 183 59 22.3302619311814 1 11202.0 22.3302619311814 1
gene  1 185 59 -5.275923394698631 1 11204.0 -5.275923394698631 1
gene  1 8 60 -3.5999817954472597 0 11217.0 -3.5999817954472597 1
gene  1 10 60 0.5602343221964188 0 11219.0 0.5602343221964188 1
gene  1 40 60 -2.0642232730458963 0 11249.0 -2.0642232730458963 1
gene  1 45 60 2.2728131207463593 0 11254.0 2.2728131207463593 1
gene  1 61 60 0.4700355631233533 1 11270.0 0.4700355631233533 1
gene  1 72 60 -0.718527767652057 1 11281.0 -0.718527767652057 1
gene  1 177 60 4.544784670557785 1 11386.0 4.544784670557785 1
gene  1 179 60 -5.8356136257502556 1 11388.0 -5.8356136257502556 0
gene  1 187 60 4.2061491685631855 1 11396.0 4.2061491685631855 1
gene  1 7 61 -1.4568975556747483 0 11406.0 -1.4568975556747483 1
gene  1 15 61 3.897720593764684 0 11414.0 3.897720593764684 1
gene  1 22 61 1.142317347839397 0 11421.0 1.142317347839397 1
gene  1 28 61 -2.270525301738378 0 11427.0 -2.270525301738378 1
gene  1 36 61 8.89012608355538 0 11435.0 8.89012608355538 1
gene  1 53 61 3.979724679393046 0 11452.0 3.979724679393046 1
gene  1 54 61 -14.722036671429041 0 11453.0 -14.722036671429041 1
gene  1 67 61 2.023298091830924 1 11466.0 2.023298091830924 1
gene  1 177 61 0.37848446314596096 1 11576.0 0.37848446314596096 1
gene  1 184 61 -3.5857077918202114 1 11583.0 -3.5857077918202114 1
gene  1 6 62 -2.007761449063643 0 11595.0 -2.007761449063643 1
gene  1 11 62 -11.901267743877437 0 11600.0 -11.901267743877437 1
gene  1 15 62 3.5161138072371987 0 11604.0 3.5161138072371987 1
gene  1 26 62 3.5584614699488433 0 11615.0 3.5584614699488433 1
gene  1 53 62 -5.450082931816504 0 11642.0 -5.450082931816504 1
gene  1 68 62 -6.755318149425513 1 11657.0 -6.755318149425513 1
gene  1 72 62 -7.967133494119912 1 11661.0 -7.967133494119912 1
gene  1 174 62 -2.6421105741616113 1 11763.0 -2.6421105741616113 1
gene  1 175 62 1.0030926290438593 1 11764.0 1.0030926290438593 1
gene  1 184 62 0.4074482414782384 1 11773.0 0.4074482414782384 1
gene  1 185 62 -5.203837651518201 1 11774.0 -5.203837651518201 1
gene  1 188 62 1.4868798808317487 1 11777.0 1.4868798808317487 1
gene  1 31 63 -6.725877507866917 0 11810.0 -6.725877507866917 1
gene  1 32 63 -1.7891073935303496 0 11811.0 -1.7891073935303496 1
gene  1 37 63 4.4316521280083006 0 11816.0 4.4316521280083006 1
gene  1 38 63 9.499787355485651 0 11817.0 9.499787355485651 1
gene  1 42 63 0.011011847338629366 0 11821.0 0.011011847338629366 1
gene  1 46 63 5.118659349217982 0 11825.0 5.118659349217982 1
gene  1 48 63 -0.16566830799594223 0 11827.0 -0.16566830799594223 1
gene  1 50 63 -5.453775294904695 0 11829.0 -5.453775294904695 1
gene  1 60 63 -1.4273081247598651 0 11839.0 -1.4273081247598651 1
gene  1 63 63 -8.10897333320548 1 11842.0 -8.10897333320548 1
gene  1 72 63 3.2656279287402517 1 11851.0 3.2656279287402517 1
gene  1 74 63 2.602660462592212 1 11853.0 2.602660462592212 1
gene  1 178 63 -5.417433509876952 1 11957.0 -5.417433509876952 1
gene  1 180 63 -9.193969965641847 1 11959.0 -9.193969965641847 1
gene  1 181 63 -0.38649452899862835 1 11960.0 -0.38649452899862835 1
gene  1 8 64 2.6248892461090203 0 11977.0 2.6248892461090203 1
gene  1 11 64 -7.992501538798675 0 11980.0 -7.992501538798675 1
gene  1 20 64 -1.4915496624641826 0 11989.0 -1.4915496624641826 1
gene  1 27 64 1.9532181840932241 0 11996.0 1.9532181840932241 1
gene  1 41 64 -3.5387770569095807 0 12010.0 -3.5387770569095807 1
gene  1 44 64 -5.4163364717893785 0 12013.0 -5.4163364717893785 1
gene  1 49 64 1.4224859971492416 0 12018.0 1.4224859971492416 1
gene  1 50 64 -4.087564770956883 0 12019.0 -4.087564770956883 1
gene  1 53 64 4.152061421448418 0 12022.0 4.152061421448418 1
gene  1 59 64 -3.1324705305608678 0 12028.0 -3.1324705305608678 1
gene  1 70 64 6.144827842908499 1 12039.0 6.144827842908499 1
gene  1 176 64 2.319425590647911 1 12145.0 2.319425590647911 1
gene  1 179 64 0.5439521579631538 1 12148.0 0.5439521579631538 1
gene  1 183 64 2.8450078964123016 1 12152.0 2.8450078964123016 1
gene  1 184 64 1.9348029384531975 1 12153.0 1.9348029384531975 1
gene  1 185 64 -0.9393107142285675 1 12154.0 -0.9393107142285675 1
gene  1 8 65 -3.253488979661803 0 12167.0 -3.253488979661803 1
gene  1 13 65 2.144778628250314 0 12172.0 2.144778628250314 1
gene  1 18 65 2.6848472076567402 0 12177.0 2.6848472076567402 1
gene  1 39 65 -3.6500163341049863 0 12198.0 -3.6500163341049863 1
gene  1 53 65 0.4719909073468195 0 12212.0 0.4719909073468195 1
gene  1 69 65 1.5241825788140162 1 12228.0 1.5241825788140162 1
gene  1 70 65 -1.9155539401230004 1 12229.0 -1.9155539401230004 1
gene  1 175 65 0.13740949733586377 1 12334.0 0.13740949733586377 1
gene  1 176 65 3.6391935306182424 1 12335.0 3.6391935306182424 1
gene  1 177 65 -2.26603515824652 1 12336.0 -2.26603515824652 1
gene  1 185 65 -3.63401223740777 1 12344.0 -3.63401223740777 1
gene  1 1 66 -9.409657449522891 0 12350.0 -9.409657449522891 1
gene  1 4 66 -1.7390831461102145 0 12353.0 -1.7390831461102145 1
gene  1 18 66 -1.1866677328688393 0 12367.0 -1.1866677328688393 1
gene  1 21 66 -1.4580199940269112 0 12370.0 -1.4580199940269112 1
gene  1 43 66 -7.49278475272509 0 12392.0 -7.49278475272509 1
gene  1 47 66 -5.811369219552038 0 12396.0 -5.811369219552038 1
gene  1 50 66 3.8721201635521516 0 12399.0 3.8721201635521516 1
gene  1 60 66 6.695149202079749 0 12409.0 6.695149202079749 1
gene  1 62 66 -0.10919195641747814 0 12411.0 -0.10919195641747814 1
gene  1 66 66 -6.122532916442923 1 12415.0 -6.122532916442923 1
gene  1 184 66 -2.0665476635856943 1 12533.0 -2.0665476635856943 1
gene  1 8 67 4.07598026577569 0 12547.0 4.07598026577569 1
gene  1 38 67 2.0725228498845256 0 12577.0 2.0725228498845256 1
gene  1 46 67 1.7789086039253126 0 12585.0 1.7789086039253126 1
gene  1 49 67 3.6755767265050228 0 12588.0 3.6755767265050228 1
gene  1 57 67 2.60151893107993 0 12596.0 2.60151893107993 1
gene  1 61 67 0.9121205605292015 0 12600.0 0.9121205605292015 1
gene  1 72 67 -0.2768526281054937 1 12611.0 -0.2768526281054937 1
gene  1 177 67 -5.3524665014140735 1 12716.0 -5.3524665014140735 1
gene  1 182 67 -1.8237023983768206 1 12721.0 -1.8237023983768206 1
gene  1 185 67 -3.5345430337480788 1 12724.0 -3.5345430337480788 1
gene  1 189 67 4.2614256231090515 1 12728.0 4.2614256231090515 1
gene  1 5 68 1.5137746125836067 0 12734.0 1.5137746125836067 1
gene  1 16 68 2.9798015084230856 0 12745.0 2.9798015084230856 1
gene  1 40 68 -5.154688400171218 0 12769.0 -5.154688400171218 1
gene  1 41 68 0.6174280949115905 0 12770.0 0.6174280949115905 1
gene  1 42 68 0.028367374111909704 0 12771.0 0.028367374111909704 1
gene  1 71 68 0.9573639766672717 1 12800.0 0.9573639766672717 1
gene  1 185 68 3.651928640468238 1 12914.0 3.651928640468238 1
gene  1 6 69 4.352542615907543 0 12925.0 4.352542615907543 1
gene  1 16 69 -2.0655872826467188 0 12935.0 -2.0655872826467188 1
gene  1 19 69 3.2539702775067116 0 12938.0 3.2539702775067116 1
gene  1 44 69 0.7369239573846516 0 12963.0 0.7369239573846516 1
gene  1 45 69 0.17248127690840187 0 12964.0 0.17248127690840187 1
gene  1 65 69 -0.42260506104651663 0 12984.0 -0.42260506104651663 1
gene  1 171 69 -2.8808700803950744 1 13090.0 -2.8808700803950744 1
gene  1 3 70 -3.4209154472005743 0 13112.0 -3.4209154472005743 1
gene  1 39 70 -2.753141064157073 0 13148.0 -2.753141064157073 1
gene  1 60 70 -3.077831195784295 0 13169.0 -3.077831195784295 1
gene  1 171 70 -7.521022056934648 1 13280.0 -7.521022056934648 1
gene  1 181 70 12.38918766695745 1 13290.0 12.38918766695745 1
gene  1 183 70 -0.6315949708169839 1 13292.0 -0.6315949708169839 1
gene  1 11 71 2.0880737398421867 0 13310.0 2.0880737398421867 1
gene  1 15 71 -0.5933790589917054 0 13314.0 -0.5933790589917054 1
gene  1 30 71 0.9455456785170702 0 13329.0 0.9455456785170702 1
gene  1 33 71 0.8277484404147066 0 13332.0 0.8277484404147066 1
gene  1 34 71 5.059504305754771 0 13333.0 5.059504305754771 1
gene  1 48 71 2.6002868136076556 0 13347.0 2.6002868136076556 1
gene  1 50 71 8.802628236296997 0 13349.0 8.802628236296997 1
gene  1 51 71 -2.9256009441473076 0 13350.0 -2.9256009441473076 1
gene  1 57 71 -4.483079535604446 0 13356.0 -4.483079535604446 1
gene  1 73 71 -0.6162549856741525 1 13372.0 -0.6162549856741525 1
gene  1 185 71 1.1630731757335797 1 13484.0 1.1630731757335797 1
gene  1 24 72 4.029624772282226 0 13513.0 4.029624772282226 1
gene  1 51 72 11.438607948389265 0 13540.0 11.438607948389265 1
gene  1 54 72 -4.946348266804533 0 13543.0 -4.946348266804533 1
gene  1 60 72 0.3995098539189641 0 13549.0 0.3995098539189641 1
gene  1 3 73 -7.406286018088523 0 13682.0 -7.406286018088523 1
gene  1 18 73 5.196727004374024 0 13697.0 5.196727004374024 1
gene  1 30 73 3.0705937465491813 0 13709.0 3.0705937465491813 1
gene  1 41 73 1.2862339175016295 0 13720.0 1.2862339175016295 1
gene  1 54 73 2.4223705307968566 0 13733.0 2.4223705307968566 1
gene  1 59 73 4.38427701101911 0 13738.0 4.38427701101911 1
gene  1 60 73 -1.359443890878451 0 13739.0 -1.359443890878451 1
gene  1 179 73 -3.8689536021420636 1 13858.0 -3.8689536021420636 1
gene  1 189 73 6.159682535535976 1 13868.0 6.159682535535976 1
gene  1 31 74 -2.511954150211163 0 13900.0 -2.511954150211163 1
gene  1 38 74 4.266688538141407 0 13907.0 4.266688538141407 1
gene  1 67 74 1.7282699038380362 0 13936.0 1.7282699038380362 1
gene  1 74 74 -2.959351648853838 1 13943.0 -2.959351648853838 1
gene  1 188 74 4.701153334442941 1 14057.0 4.701153334442941 1
gene  1 2 75 -1.5747003422728127 0 14061.0 -1.5747003422728127 1
gene  1 10 75 1.888981393375225 0 14069.0 1.888981393375225 1
gene  1 12 75 -1.2580443722865253 0 14071.0 -1.2580443722865253 1
gene  1 15 75 0.5769235279271347 0 14074.0 0.5769235279271347 1
gene  1 18 75 1.9552211492507756 0 14077.0 1.9552211492507756 1
gene  1 43 75 -1.385836574585049 0 14102.0 -1.385836574585049 1
gene  1 46 75 -6.714220764302779 0 14105.0 -6.714220764302779 1
gene  1 56 75 -2.948172270194562 0 14115.0 -2.948172270194562 1
gene  1 57 75 2.0167898351358344 0 14116.0 2.0167898351358344 1
gene  1 177 75 4.76743816344407 1 14236.0 4.76743816344407 1
gene  1 183 75 -2.484065282171527 1 14242.0 -2.484065282171527 1
gene  1 3 171 -0.22432698198612033 0 32302.0 -0.22432698198612033 1
gene  1 10 171 1.7148667577742798 0 32309.0 1.7148667577742798 1
gene  1 18 171 1.6772654867536514 0 32317.0 1.6772654867536514 1
gene  1 35 171 -0.1825273648914436 0 32334.0 -0.1825273648914436 1
gene  1 47 171 -1.787514055890456 0 32346.0 -1.787514055890456 1
gene  1 48 171 -3.7331779976982715 0 32347.0 -3.7331779976982715 1
gene  1 63 171 -1.9188317143546254 0 32362.0 -1.9188317143546254 1
gene  1 74 171 3.112937930149916 0 32373.0 3.112937930149916 1
gene  1 171 171 2.514108210215534 1 32470.0 2.514108210215534 1
gene  1 180 171 -3.673620736153939 1 32479.0 -3.673620736153939 1
gene  1 181 171 1.4974511656778287 1 32480.0 1.4974511656778287 1
gene  1 16 172 -3.1556263937537596 0 32505.0 -3.1556263937537596 1
gene  1 38 172 3.0310496967306646 0 32527.0 3.0310496967306646 1
gene  1 58 172 3.2803481203085525 0 32547.0 3.2803481203085525 1
