/* Species # 001         : (size= 003) (AvfFit= 851,227) (Age= 60,000)  */
/*-------------------------------------------------------------------*/
/* Organism # 000 Fitness:  1081,119 Error:  1000,000                      */
genomestart  0
trait 1 0.11021815520324857 0.9500468561812224 0.0 0.0 0.0 0.0 0.0 0.17449252573720908 
node 1 1 1 1
node 2 1 1 1
node 3 1 1 1
node 4 1 1 1
node 5 1 1 1
node 6 1 1 1
node 7 1 1 1
node 8 1 1 1
node 9 1 1 1
node 10 1 1 1
node 11 1 1 1
node 12 1 1 1
node 13 1 1 1
node 14 1 1 1
node 15 1 1 1
node 16 1 1 1
node 17 1 1 1
node 18 1 1 1
node 19 1 1 1
node 20 1 1 1
node 21 1 1 1
node 22 1 1 1
node 23 1 1 1
node 24 1 1 1
node 25 1 1 1
node 26 1 1 1
node 27 1 1 1
node 28 1 1 1
node 29 1 1 1
node 30 1 1 1
node 31 1 1 1
node 32 1 1 1
node 33 1 1 1
node 34 1 1 1
node 35 1 1 1
node 36 1 1 1
node 37 1 1 1
node 38 1 1 1
node 39 1 1 1
node 40 1 1 1
node 41 1 1 1
node 42 1 1 1
node 43 1 1 1
node 44 1 1 1
node 45 1 1 1
node 46 1 1 1
node 47 1 1 1
node 48 1 1 1
node 49 1 1 1
node 50 1 1 3
node 51 1 0 0
node 52 1 0 0
node 53 1 0 0
node 54 1 0 0
node 55 1 0 0
node 56 1 0 0
node 57 1 0 0
node 58 1 0 0
node 59 1 0 0
node 60 1 0 0
node 61 1 0 0
node 62 1 0 0
node 63 1 0 0
node 64 1 0 0
node 65 1 0 0
node 66 1 0 0
node 67 1 0 0
node 68 1 0 0
node 69 1 0 0
node 70 1 0 0
node 71 1 0 0
node 72 1 0 0
node 73 1 0 0
node 74 1 0 0
node 75 1 0 0
node 171 1 0 2
node 172 1 0 2
node 173 1 0 2
node 174 1 0 2
node 175 1 0 2
node 176 1 0 2
node 177 1 0 2
node 178 1 0 2
node 179 1 0 2
node 180 1 0 2
node 181 1 0 2
node 182 1 0 2
node 183 1 0 2
node 184 1 0 2
node 185 1 0 2
node 186 1 0 2
node 187 1 0 2
node 188 1 0 2
node 189 1 0 2
node 190 1 0 2
node 193 1 0 0
node 234 1 0 0
gene  1 28 51 18.62540417442137 0 9527.0 18.62540417442137 1
gene  1 33 51 -5.254705251229332 0 9532.0 -5.254705251229332 1
gene  1 36 51 -5.019141944687842 0 9535.0 -5.019141944687842 1
gene  1 40 51 -6.042677245443011 0 9539.0 -6.042677245443011 1
gene  1 42 51 4.985167916758693 0 9541.0 4.985167916758693 1
gene  1 54 51 1.631835520850483 1 9553.0 1.631835520850483 1
gene  1 57 51 -0.6295535676891408 1 9556.0 -0.6295535676891408 1
gene  1 68 51 -4.845104839863363 1 9567.0 -4.845104839863363 1
gene  1 174 51 -4.120289126128961 1 9673.0 -4.120289126128961 1
gene  1 183 51 8.458637826975302 1 9682.0 8.458637826975302 1
gene  1 184 51 -2.0742124666713 1 9683.0 -2.0742124666713 1
gene  1 189 51 13.7415064666516 1 9688.0 13.7415064666516 1
gene  1 3 52 2.7286567244989355 0 9692.0 2.7286567244989355 1
gene  1 6 52 10.887610038229612 0 9695.0 10.887610038229612 1
gene  1 24 52 -1.7028156275092932 0 9713.0 -1.7028156275092932 1
gene  1 29 52 -5.9250094588176125 0 9718.0 -5.9250094588176125 1
gene  1 31 52 7.464817849054962 0 9720.0 7.464817849054962 1
gene  1 35 52 -1.8681741956602107 0 9724.0 -1.8681741956602107 1
gene  1 63 52 -3.2691772762125453 1 9752.0 -3.2691772762125453 1
gene  1 179 52 -0.17573680883152087 1 9868.0 -0.17573680883152087 1
gene  1 183 52 0.20293200829353902 1 9872.0 0.20293200829353902 1
gene  1 184 52 -6.980230502150452 1 9873.0 -6.980230502150452 1
gene  1 185 52 -8.837899413972584 1 9874.0 -8.837899413972584 1
gene  1 5 53 7.105031013118897 0 9884.0 7.105031013118897 1
gene  1 6 53 -4.64445110267303 0 9885.0 -4.64445110267303 1
gene  1 10 53 -1.6154509149462792 0 9889.0 -1.6154509149462792 1
gene  1 33 53 -1.9981429024493105 0 9912.0 -1.9981429024493105 1
gene  1 35 53 -2.958278620719378 0 9914.0 -2.958278620719378 1
gene  1 38 53 -0.661296276518351 0 9917.0 -0.661296276518351 1
gene  1 45 53 -12.46767437452643 0 9924.0 -12.46767437452643 1
gene  1 71 53 0.5406469442712805 1 9950.0 0.5406469442712805 1
gene  1 16 54 0.2684832947059037 0 10085.0 0.2684832947059037 1
gene  1 19 54 -1.8887547317218145 0 10088.0 -1.8887547317218145 1
gene  1 36 54 0.6272217120084148 0 10105.0 0.6272217120084148 1
gene  1 42 54 5.04664223717781 0 10111.0 5.04664223717781 1
gene  1 58 54 -7.239295723709229 1 10127.0 -7.239295723709229 1
gene  1 62 54 -3.1273327162252786 1 10131.0 -3.1273327162252786 1
gene  1 73 54 1.7377288412430874 1 10142.0 1.7377288412430874 1
gene  1 177 54 1.3549239188086195 1 10246.0 1.3549239188086195 1
gene  1 180 54 -2.621613813192389 1 10249.0 -2.621613813192389 1
gene  1 190 54 -2.206160487254228 1 10259.0 -2.206160487254228 1
gene  1 20 55 -9.09543369815335 0 10279.0 -9.09543369815335 1
gene  1 31 55 7.6068934957738 0 10290.0 7.6068934957738 1
gene  1 35 55 -1.228335229894679 0 10294.0 -1.228335229894679 1
gene  1 41 55 0.2848448005704886 0 10300.0 0.2848448005704886 1
gene  1 47 55 1.6288359179565477 0 10306.0 1.6288359179565477 1
gene  1 52 55 -3.8711111041825457 0 10311.0 -3.8711111041825457 1
gene  1 69 55 -0.5408254697541903 1 10328.0 -0.5408254697541903 1
gene  1 75 55 -2.835464950982993 1 10334.0 -2.835464950982993 1
gene  1 187 55 -1.8985112276766527 1 10446.0 -1.8985112276766527 1
gene  1 7 56 -0.5747839529396184 0 10456.0 -0.5747839529396184 1
gene  1 11 56 3.9403909764440432 0 10460.0 3.9403909764440432 1
gene  1 13 56 0.26448348320896864 0 10462.0 0.26448348320896864 1
gene  1 36 56 -1.8946984008706713 0 10485.0 -1.8946984008706713 1
gene  1 41 56 2.492578476730063 0 10490.0 2.492578476730063 1
gene  1 44 56 -3.477810947597126 0 10493.0 -3.477810947597126 1
gene  1 46 56 10.937475506108079 0 10495.0 10.937475506108079 1
gene  1 49 56 0.6580373428572608 0 10498.0 0.6580373428572608 1
gene  1 68 56 2.1405842997602966 1 10517.0 2.1405842997602966 1
gene  1 179 56 -1.0487690607969982 1 10628.0 -1.0487690607969982 1
gene  1 183 56 -1.5056083998791987 1 10632.0 -1.5056083998791987 1
gene  1 3 57 0.24839651187531775 0 10642.0 0.24839651187531775 1
gene  1 19 57 6.390034324298153 0 10658.0 6.390034324298153 1
gene  1 22 57 3.536686300008517 0 10661.0 3.536686300008517 1
gene  1 28 57 -4.562092905778974 0 10667.0 -4.562092905778974 1
gene  1 30 57 0.010285109651827884 0 10669.0 0.010285109651827884 1
gene  1 35 57 -5.664991928950348 0 10674.0 -5.664991928950348 1
gene  1 47 57 -4.023016199152373 0 10686.0 -4.023016199152373 1
gene  1 59 57 -9.070574605154398 1 10698.0 -9.070574605154398 1
gene  1 60 57 -11.869952365459167 1 10699.0 -11.869952365459167 1
gene  1 187 57 2.792439344655327 1 10826.0 2.792439344655327 1
gene  1 5 58 11.150374531865847 0 10834.0 11.150374531865847 1
gene  1 14 58 -1.654144675637339 0 10843.0 -1.654144675637339 1
gene  1 15 58 -1.2797358806739632 0 10844.0 -1.2797358806739632 1
gene  1 24 58 -8.983170696240876 0 10853.0 -8.983170696240876 1
gene  1 32 58 -0.41941261398243096 0 10861.0 -0.41941261398243096 1
gene  1 43 58 -0.5649404071014816 0 10872.0 -0.5649404071014816 1
gene  1 49 58 -5.398290349961474 0 10878.0 -5.398290349961474 1
gene  1 53 58 -1.7630243238322632 0 10882.0 -1.7630243238322632 1
gene  1 62 58 -1.0208518398799895 1 10891.0 -1.0208518398799895 1
gene  1 64 58 3.4675390038718357 1 10893.0 3.4675390038718357 1
gene  1 69 58 -19.56990687320956 1 10898.0 -19.56990687320956 1
gene  1 182 58 -2.4334969061013028 1 11011.0 -2.4334969061013028 1
gene  1 1 59 -3.2589234025162037 0 11020.0 -3.2589234025162037 1
gene  1 4 59 4.748182128591606 0 11023.0 4.748182128591606 1
gene  1 27 59 -2.564588364825322 0 11046.0 -2.564588364825322 1
gene  1 34 59 0.6087641038932945 0 11053.0 0.6087641038932945 1
gene  1 37 59 1.5810590687816677 0 11056.0 1.5810590687816677 1
gene  1 44 59 -1.9907712125380161 0 11063.0 -1.9907712125380161 1
gene  1 59 59 0.17865507746485293 1 11078.0 0.17865507746485293 1
gene  1 73 59 1.9259768991098247 1 11092.0 1.9259768991098247 1
gene  1 75 59 -0.7477126136575254 1 11094.0 -0.7477126136575254 1
gene  1 183 59 -1.2876802601533157 1 11202.0 -1.2876802601533157 1
gene  1 185 59 4.153005231965697 1 11204.0 4.153005231965697 1
gene  1 8 60 2.275514617499896 0 11217.0 2.275514617499896 1
gene  1 10 60 -4.117781112734453 0 11219.0 -4.117781112734453 1
gene  1 40 60 5.209916576456209 0 11249.0 5.209916576456209 1
gene  1 45 60 2.3212022943439274 0 11254.0 2.3212022943439274 1
gene  1 61 60 4.8846917856883385 1 11270.0 4.8846917856883385 1
gene  1 72 60 6.00933278014293 1 11281.0 6.00933278014293 1
gene  1 177 60 4.027917031122496 1 11386.0 4.027917031122496 1
gene  1 179 60 -2.5790885773043857 1 11388.0 -2.5790885773043857 1
gene  1 187 60 1.0144969619248176 1 11396.0 1.0144969619248176 1
gene  1 7 61 6.008718312274871 0 11406.0 6.008718312274871 1
gene  1 15 61 4.439553398117935 0 11414.0 4.439553398117935 1
gene  1 22 61 -10.044832493465538 0 11421.0 -10.044832493465538 1
gene  1 28 61 -1.0013183230954756 0 11427.0 -1.0013183230954756 1
gene  1 36 61 13.589689064708597 0 11435.0 13.589689064708597 1
gene  1 53 61 0.04597814062021843 0 11452.0 0.04597814062021843 1
gene  1 54 61 -0.24630920796082595 0 11453.0 -0.24630920796082595 1
gene  1 67 61 1.2924634895557283 1 11466.0 1.2924634895557283 1
gene  1 177 61 2.7711097319553932 1 11576.0 2.7711097319553932 1
gene  1 184 61 6.727478283169302 1 11583.0 6.727478283169302 1
gene  1 6 62 -0.30782721508288047 0 11595.0 -0.30782721508288047 1
gene  1 11 62 2.615262099703983 0 11600.0 2.615262099703983 1
gene  1 15 62 1.8180707606907975 0 11604.0 1.8180707606907975 1
gene  1 26 62 -7.979572858501886 0 11615.0 -7.979572858501886 1
gene  1 53 62 -1.2845728335049262 0 11642.0 -1.2845728335049262 1
gene  1 68 62 10.097864736570594 1 11657.0 10.097864736570594 1
gene  1 72 62 3.5790494457019824 1 11661.0 3.5790494457019824 1
gene  1 174 62 -2.350036304883254 1 11763.0 -2.350036304883254 1
gene  1 175 62 -4.305256900703584 1 11764.0 -4.305256900703584 1
gene  1 184 62 -0.3873519960988117 1 11773.0 -0.3873519960988117 1
gene  1 185 62 -3.2267153407636244 1 11774.0 -3.2267153407636244 1
gene  1 188 62 2.247005729443621 1 11777.0 2.247005729443621 1
gene  1 31 63 14.435141704766663 0 11810.0 14.435141704766663 1
gene  1 32 63 0.8186293958314073 0 11811.0 0.8186293958314073 1
gene  1 37 63 -8.786545922554085 0 11816.0 -8.786545922554085 1
gene  1 38 63 0.15521382161442854 0 11817.0 0.15521382161442854 1
gene  1 42 63 -0.12049728567782275 0 11821.0 -0.12049728567782275 1
gene  1 46 63 -2.1506618343387043 0 11825.0 -2.1506618343387043 1
gene  1 48 63 -0.4647890994326709 0 11827.0 -0.4647890994326709 1
gene  1 50 63 0.8478065526474544 0 11829.0 0.8478065526474544 1
gene  1 60 63 4.5118629380870505 0 11839.0 4.5118629380870505 1
gene  1 63 63 -1.3260735029944866 1 11842.0 -1.3260735029944866 1
gene  1 72 63 -3.8007806529588337 1 11851.0 -3.8007806529588337 1
gene  1 74 63 0.7308115260876991 1 11853.0 0.7308115260876991 1
gene  1 178 63 -0.037235322169798246 1 11957.0 -0.037235322169798246 1
gene  1 180 63 2.3407326651207443 1 11959.0 2.3407326651207443 1
gene  1 181 63 4.26969519933572 1 11960.0 4.26969519933572 1
gene  1 8 64 -0.6412810736734877 0 11977.0 -0.6412810736734877 1
gene  1 11 64 3.3117998315595667 0 11980.0 3.3117998315595667 1
gene  1 20 64 -0.46806779971708234 0 11989.0 -0.46806779971708234 1
gene  1 27 64 -7.709664534569203 0 11996.0 -7.709664534569203 1
gene  1 41 64 -7.318529815518044 0 12010.0 -7.318529815518044 1
gene  1 44 64 -5.613158144570084 0 12013.0 -5.613158144570084 1
gene  1 49 64 5.263672154122786 0 12018.0 5.263672154122786 1
gene  1 50 64 -3.3374545863476577 0 12019.0 -3.3374545863476577 1
gene  1 53 64 -0.3124733763721983 0 12022.0 -0.3124733763721983 1
gene  1 59 64 1.2395974833898624 0 12028.0 1.2395974833898624 1
gene  1 70 64 1.80471712451046 1 12039.0 1.80471712451046 1
gene  1 176 64 7.655110154567543 1 12145.0 7.655110154567543 1
gene  1 179 64 -1.7242909641646 1 12148.0 -1.7242909641646 1
gene  1 183 64 -10.403294356804592 1 12152.0 -10.403294356804592 1
gene  1 184 64 -10.766287137490904 1 12153.0 -10.766287137490904 1
gene  1 185 64 -7.240545898571365 1 12154.0 -7.240545898571365 1
gene  1 8 65 -3.0530641559767506 0 12167.0 -3.0530641559767506 1
gene  1 13 65 -6.055420288926994 0 12172.0 -6.055420288926994 1
gene  1 18 65 -5.574192541836948 0 12177.0 -5.574192541836948 1
gene  1 39 65 -0.8497224287539676 0 12198.0 -0.8497224287539676 1
gene  1 53 65 -1.7072842293452206 0 12212.0 -1.7072842293452206 1
gene  1 69 65 -0.9746724288608986 1 12228.0 -0.9746724288608986 1
gene  1 70 65 2.5450823385193875 1 12229.0 2.5450823385193875 1
gene  1 175 65 -0.7189175455675062 1 12334.0 -0.7189175455675062 1
gene  1 176 65 -7.064423333024331 1 12335.0 -7.064423333024331 1
gene  1 177 65 -8.285158832444363 1 12336.0 -8.285158832444363 1
gene  1 185 65 -1.8606832565050018 1 12344.0 -1.8606832565050018 1
gene  1 1 66 -7.0392426556531165 0 12350.0 -7.0392426556531165 1
gene  1 4 66 -0.7676348761873438 0 12353.0 -0.7676348761873438 1
gene  1 18 66 3.639444068221791 0 12367.0 3.639444068221791 1
gene  1 21 66 5.258513195839971 0 12370.0 5.258513195839971 1
gene  1 43 66 0.6979652973377637 0 12392.0 0.6979652973377637 1
gene  1 47 66 1.7202522767742154 0 12396.0 1.7202522767742154 1
gene  1 50 66 -1.1196865554052553 0 12399.0 -1.1196865554052553 1
gene  1 60 66 2.839710675614939 0 12409.0 2.839710675614939 1
gene  1 62 66 2.2400205610684574 0 12411.0 2.2400205610684574 1
gene  1 66 66 -2.3903429017909925 1 12415.0 -2.3903429017909925 1
gene  1 184 66 -0.3220821484731745 1 12533.0 -0.3220821484731745 1
gene  1 8 67 -4.7173733758519205 0 12547.0 -4.7173733758519205 1
gene  1 38 67 -3.7363637002001857 0 12577.0 -3.7363637002001857 1
gene  1 46 67 2.9426177511048683 0 12585.0 2.9426177511048683 1
gene  1 49 67 -3.040346110994361 0 12588.0 -3.040346110994361 1
gene  1 57 67 -2.3944812193095135 0 12596.0 -2.3944812193095135 1
gene  1 61 67 -0.06855447211446808 0 12600.0 -0.06855447211446808 1
gene  1 72 67 -4.414019679002939 1 12611.0 -4.414019679002939 1
gene  1 177 67 -4.245025573908297 1 12716.0 -4.245025573908297 1
gene  1 182 67 -0.42155352157377757 1 12721.0 -0.42155352157377757 1
gene  1 185 67 1.6958585455899677 1 12724.0 1.6958585455899677 1
gene  1 189 67 1.5917058903194987 1 12728.0 1.5917058903194987 1
gene  1 5 68 2.340047268209962 0 12734.0 2.340047268209962 1
gene  1 16 68 1.7154506338657314 0 12745.0 1.7154506338657314 1
gene  1 40 68 0.9185216144897002 0 12769.0 0.9185216144897002 1
gene  1 41 68 7.13648577866415 0 12770.0 7.13648577866415 1
gene  1 42 68 -10.577695304262747 0 12771.0 -10.577695304262747 1
gene  1 71 68 -8.025706121937473 1 12800.0 -8.025706121937473 1
gene  1 185 68 -5.865045378149835 1 12914.0 -5.865045378149835 1
gene  1 6 69 1.8013467044810758 0 12925.0 1.8013467044810758 1
gene  1 16 69 -2.3371970041825474 0 12935.0 -2.3371970041825474 1
gene  1 19 69 -0.4463819442143725 0 12938.0 -0.4463819442143725 1
gene  1 44 69 -8.215693894226652 0 12963.0 -8.215693894226652 1
gene  1 45 69 1.7391880085628992 0 12964.0 1.7391880085628992 1
gene  1 65 69 -9.784260772458987 0 12984.0 -9.784260772458987 1
gene  1 171 69 0.24421645742477338 1 13090.0 0.24421645742477338 1
gene  1 3 70 -2.903214499499196 0 13112.0 -2.903214499499196 1
gene  1 39 70 1.3256786968821515 0 13148.0 1.3256786968821515 1
gene  1 60 70 1.1213553477375688 0 13169.0 1.1213553477375688 1
gene  1 171 70 1.0799655649053432 1 13280.0 1.0799655649053432 1
gene  1 181 70 -3.875811086978276 1 13290.0 -3.875811086978276 1
gene  1 183 70 -1.0858266194308934 1 13292.0 -1.0858266194308934 1
gene  1 11 71 -2.623295401933806 0 13310.0 -2.623295401933806 1
gene  1 15 71 -7.242946576150642 0 13314.0 -7.242946576150642 1
gene  1 30 71 -4.470399031096093 0 13329.0 -4.470399031096093 1
gene  1 33 71 -1.5356511405203175 0 13332.0 -1.5356511405203175 1
gene  1 34 71 -3.658842717189998 0 13333.0 -3.658842717189998 1
gene  1 48 71 -0.2708534919666219 0 13347.0 -0.2708534919666219 1
gene  1 50 71 -0.447463000371523 0 13349.0 -0.447463000371523 1
gene  1 51 71 -0.8310190098832893 0 13350.0 -0.8310190098832893 1
gene  1 57 71 -4.050713860667103 0 13356.0 -4.050713860667103 1
gene  1 73 71 4.810534173877709 1 13372.0 4.810534173877709 1
gene  1 185 71 0.014096756085119955 1 13484.0 0.014096756085119955 1
gene  1 24 72 1.0983229731207065 0 13513.0 1.0983229731207065 1
gene  1 51 72 -0.9629403724672001 0 13540.0 -0.9629403724672001 1
gene  1 54 72 3.483168309878418 0 13543.0 3.483168309878418 1
gene  1 60 72 -0.5367717446237745 0 13549.0 -0.5367717446237745 1
gene  1 3 73 1.3466332020575502 0 13682.0 1.3466332020575502 1
gene  1 18 73 4.183013967281135 0 13697.0 4.183013967281135 1
gene  1 30 73 3.989249496972616 0 13709.0 3.989249496972616 1
gene  1 41 73 -0.9382550778941199 0 13720.0 -0.9382550778941199 1
gene  1 54 73 -6.977981397318862 0 13733.0 -6.977981397318862 1
gene  1 59 73 -1.0478462250903706 0 13738.0 -1.0478462250903706 1
gene  1 60 73 6.261847194822737 0 13739.0 6.261847194822737 1
gene  1 179 73 -0.46970117006314416 1 13858.0 -0.46970117006314416 1
gene  1 189 73 -2.0673835045041242 1 13868.0 -2.0673835045041242 1
gene  1 31 74 1.2596803596438222 0 13900.0 1.2596803596438222 1
gene  1 38 74 -0.16236375062052955 0 13907.0 -0.16236375062052955 1
gene  1 67 74 2.2007155383222767 0 13936.0 2.2007155383222767 1
gene  1 74 74 -1.971177495573744 1 13943.0 -1.971177495573744 1
gene  1 188 74 4.08584213026955 1 14057.0 4.08584213026955 1
gene  1 2 75 0.18979144436143153 0 14061.0 0.18979144436143153 1
gene  1 10 75 2.4670767692141085 0 14069.0 2.4670767692141085 1
gene  1 12 75 -8.576873383543354 0 14071.0 -8.576873383543354 1
gene  1 15 75 -1.7653602925993415 0 14074.0 -1.7653602925993415 1
gene  1 18 75 -0.10084507997185854 0 14077.0 -0.10084507997185854 1
gene  1 43 75 5.922505739866399 0 14102.0 5.922505739866399 1
gene  1 46 75 -3.4441219305695148 0 14105.0 -3.4441219305695148 1
gene  1 56 75 0.07708347247426772 0 14115.0 0.07708347247426772 1
gene  1 57 75 4.733477334496428 0 14116.0 4.733477334496428 1
gene  1 177 75 1.0052285172162743 1 14236.0 1.0052285172162743 1
gene  1 183 75 -6.820766204992064 1 14242.0 -6.820766204992064 1
gene  1 3 171 1.8690951997374903 0 32302.0 1.8690951997374903 1
gene  1 10 171 -8.623208038507409 0 32309.0 -8.623208038507409 1
gene  1 18 171 0.9257583633118529 0 32317.0 0.9257583633118529 1
gene  1 35 171 0.9777078203999594 0 32334.0 0.9777078203999594 1
gene  1 47 171 2.985612731654938 0 32346.0 2.985612731654938 1
gene  1 48 171 13.103733381814951 0 32347.0 13.103733381814951 1
gene  1 63 171 2.4277539540382826 0 32362.0 2.4277539540382826 1
gene  1 74 171 2.246175920168316 0 32373.0 2.246175920168316 1
gene  1 171 171 -0.8344124788706706 1 32470.0 -0.8344124788706706 1
gene  1 180 171 -5.28613525959226 1 32479.0 -5.28613525959226 1
gene  1 181 171 -2.2755917823710536 1 32480.0 -2.2755917823710536 1
gene  1 16 172 -1.4288060188781646 0 32505.0 -1.4288060188781646 1
gene  1 38 172 -0.9744682426598903 0 32527.0 -0.9744682426598903 1
gene  1 58 172 -9.649512103581728 0 32547.0 -9.649512103581728 1
gene  1 59 172 0.5143934077632768 0 32548.0 0.5143934077632768 1
gene  1 60 172 -8.910501551112185 0 32549.0 -8.910501551112185 1
gene  1 73 172 2.9701756397318126 0 32562.0 2.9701756397318126 1
gene  1 171 172 3.170214850412484 0 32660.0 3.170214850412484 1
gene  1 173 172 -3.2187452575905655 1 32662.0 -3.2187452575905655 1
gene  1 7 173 -0.8390516935320769 0 32686.0 -0.8390516935320769 1
gene  1 29 173 -2.6485270088493165 0 32708.0 -2.6485270088493165 1
gene  1 30 173 -0.31855713752574566 0 32709.0 -0.31855713752574566 1
gene  1 38 173 -6.956051597669788 0 32717.0 -6.956051597669788 1
gene  1 56 173 -4.757703991593276 0 32735.0 -4.757703991593276 1
gene  1 68 173 5.268787606674559 0 32747.0 5.268787606674559 1
gene  1 72 173 3.3600534524666497 0 32751.0 3.3600534524666497 1
gene  1 75 173 -9.475150952588919 0 32754.0 -9.475150952588919 1
gene  1 180 173 1.2642197480769761 1 32859.0 1.2642197480769761 1
gene  1 45 174 -0.6069433529753985 0 32914.0 -0.6069433529753985 1
gene  1 174 174 5.760188958528528 1 33043.0 5.760188958528528 1
gene  1 180 174 2.72721750311974 1 33049.0 2.72721750311974 1
gene  1 186 174 -4.007632863716658 1 33055.0 -4.007632863716658 1
gene  1 2 175 -7.210586039386879 0 33061.0 -7.210586039386879 1
gene  1 11 175 -3.2127128446045488 0 33070.0 -3.2127128446045488 1
gene  1 26 175 -0.0082844540545568 0 33085.0 -0.0082844540545568 1
gene  1 37 175 0.18108782401016776 0 33096.0 0.18108782401016776 1
gene  1 43 175 -0.6920065109430025 0 33102.0 -0.6920065109430025 1
gene  1 48 175 3.3014115188653608 0 33107.0 3.3014115188653608 1
gene  1 51 175 2.154529602058434 0 33110.0 2.154529602058434 1
gene  1 64 175 -0.47417635897005517 0 33123.0 -0.47417635897005517 1
gene  1 70 175 -1.221059898247565 0 33129.0 -1.221059898247565 1
gene  1 71 175 -0.15120736681700686 0 33130.0 -0.15120736681700686 1
gene  1 177 175 0.9808582835792519 1 33236.0 0.9808582835792519 1
gene  1 178 175 -0.46942183196120624 1 33237.0 -0.46942183196120624 1
gene  1 181 175 -2.470242486834912 1 33240.0 -2.470242486834912 1
gene  1 184 175 5.008495200301821 1 33243.0 5.008495200301821 1
gene  1 186 175 -5.011098453664172 1 33245.0 -5.011098453664172 1
gene  1 2 176 0.991888514503104 0 33251.0 0.991888514503104 1
gene  1 8 176 5.290491850944319 0 33257.0 5.290491850944319 1
gene  1 9 176 -5.131889944532758 0 33258.0 -5.131889944532758 1
gene  1 12 176 -0.827751210308062 0 33261.0 -0.827751210308062 1
gene  1 15 176 0.19488768946468338 0 33264.0 0.19488768946468338 1
gene  1 16 176 -0.4823427254778043 0 33265.0 -0.4823427254778043 1
gene  1 35 176 1.0389167997224584 0 33284.0 1.0389167997224584 1
gene  1 37 176 8.003590638102178 0 33286.0 8.003590638102178 1
gene  1 46 176 2.705497993848214 0 33295.0 2.705497993848214 1
gene  1 62 176 -2.4543995094745545 0 33311.0 -2.4543995094745545 1
gene  1 64 176 4.213811845480144 0 33313.0 4.213811845480144 1
gene  1 171 176 -2.173811547402811 0 33420.0 -2.173811547402811 1
gene  1 174 176 1.188795567111256 0 33423.0 1.188795567111256 1
gene  1 179 176 1.4272099961436329 1 33428.0 1.4272099961436329 1
gene  1 1 177 -0.15492348660123578 0 33440.0 -0.15492348660123578 1
gene  1 7 177 1.6497962936587443 0 33446.0 1.6497962936587443 1
gene  1 8 177 -0.7966933745978033 0 33447.0 -0.7966933745978033 1
gene  1 9 177 1.806682892442846 0 33448.0 1.806682892442846 1
gene  1 14 177 -0.9267764059227122 0 33453.0 -0.9267764059227122 1
gene  1 16 177 -3.2825721124920832 0 33455.0 -3.2825721124920832 1
gene  1 20 177 -0.07126130909664674 0 33459.0 -0.07126130909664674 1
gene  1 30 177 0.674752871966932 0 33469.0 0.674752871966932 1
gene  1 31 177 -3.0239086905482564 0 33470.0 -3.0239086905482564 1
gene  1 32 177 1.861679036370729 0 33471.0 1.861679036370729 1
gene  1 43 177 2.639626422174999 0 33482.0 2.639626422174999 1
gene  1 44 177 -9.22530157451312 0 33483.0 -9.22530157451312 1
gene  1 53 177 -3.2918218883298165 0 33492.0 -3.2918218883298165 1
gene  1 59 177 -2.4988188193765675 0 33498.0 -2.4988188193765675 1
gene  1 69 177 2.685349943054995 0 33508.0 2.685349943054995 1
gene  1 174 177 -2.844009729670584 0 33613.0 -2.844009729670584 1
gene  1 175 177 4.850799082777178 0 33614.0 4.850799082777178 1
gene  1 184 177 2.227732243985102 1 33623.0 2.227732243985102 1
gene  1 187 177 -11.147289231548358 1 33626.0 -11.147289231548358 1
gene  1 1 178 3.3604132816856405 0 33630.0 3.3604132816856405 1
gene  1 20 178 -8.669986852597187 0 33649.0 -8.669986852597187 1
gene  1 26 178 5.030728207774346 0 33655.0 5.030728207774346 1
gene  1 35 178 3.208138463665558 0 33664.0 3.208138463665558 1
gene  1 42 178 2.4793979237477646 0 33671.0 2.4793979237477646 1
gene  1 53 178 4.442428470564173 0 33682.0 4.442428470564173 1
gene  1 59 178 3.7528048374730227 0 33688.0 3.7528048374730227 1
gene  1 72 178 11.740576231532264 0 33701.0 11.740576231532264 1
gene  1 172 178 -0.0017178650528415496 0 33801.0 -0.0017178650528415496 1
gene  1 190 178 -1.8336562268212433 1 33819.0 -1.8336562268212433 1
gene  1 6 179 4.918441461633179 0 33825.0 4.918441461633179 1
gene  1 8 179 -15.590995649409642 0 33827.0 -15.590995649409642 1
gene  1 13 179 -0.5555682042800302 0 33832.0 -0.5555682042800302 1
gene  1 36 179 2.329880205313547 0 33855.0 2.329880205313547 1
gene  1 46 179 -0.6239261166865439 0 33865.0 -0.6239261166865439 1
gene  1 60 179 -2.2204208095313906 0 33879.0 -2.2204208095313906 1
gene  1 61 179 -1.4627632045430898 0 33880.0 -1.4627632045430898 1
gene  1 72 179 0.1939199661488658 0 33891.0 0.1939199661488658 1
gene  1 74 179 9.481033695816045 0 33893.0 9.481033695816045 1
gene  1 171 179 0.46904127949543484 0 33990.0 0.46904127949543484 1
gene  1 185 179 -2.6746921872446814 1 34004.0 -2.6746921872446814 1
gene  1 1 180 -3.5015358222693913 0 34010.0 -3.5015358222693913 1
gene  1 4 180 -4.7141699952432665 0 34013.0 -4.7141699952432665 1
gene  1 8 180 0.9271555582715609 0 34017.0 0.9271555582715609 1
gene  1 11 180 0.3838155784123298 0 34020.0 0.3838155784123298 1
gene  1 21 180 0.9588687616645712 0 34030.0 0.9588687616645712 1
gene  1 32 180 -0.5743628301020504 0 34041.0 -0.5743628301020504 1
gene  1 35 180 2.0220804803644516 0 34044.0 2.0220804803644516 1
gene  1 46 180 -0.13774222301402517 0 34055.0 -0.13774222301402517 1
gene  1 68 180 -5.72961010868721 0 34077.0 -5.72961010868721 1
gene  1 188 180 3.4809341241689395 1 34197.0 3.4809341241689395 1
gene  1 2 181 1.8136392874739584 0 34201.0 1.8136392874739584 1
gene  1 16 181 2.3934018914629998 0 34215.0 2.3934018914629998 1
gene  1 24 181 -6.718299276314696 0 34223.0 -6.718299276314696 1
gene  1 36 181 -2.1901306825416906 0 34235.0 -2.1901306825416906 1
gene  1 60 181 -4.271955416668008 0 34259.0 -4.271955416668008 1
gene  1 69 181 -1.6699169385766264 0 34268.0 -1.6699169385766264 1
gene  1 190 181 5.624225002493373 1 34389.0 5.624225002493373 1
gene  1 1 182 -4.174785721485343 0 34390.0 -4.174785721485343 1
gene  1 17 182 -0.46644254513740524 0 34406.0 -0.46644254513740524 1
gene  1 35 182 -4.540667414554095 0 34424.0 -4.540667414554095 1
gene  1 44 182 -4.333701288741188 0 34433.0 -4.333701288741188 1
gene  1 49 182 -9.806964691423575 0 34438.0 -9.806964691423575 1
gene  1 50 182 -2.1415613032249796 0 34439.0 -2.1415613032249796 1
gene  1 54 182 -0.35162691168408816 0 34443.0 -0.35162691168408816 1
gene  1 59 182 0.7575381949499684 0 34448.0 0.7575381949499684 1
gene  1 73 182 2.0741264294815824 0 34462.0 2.0741264294815824 1
gene  1 174 182 0.01857319896488213 0 34563.0 0.01857319896488213 1
gene  1 187 182 10.12635333238153 1 34576.0 10.12635333238153 1
gene  1 6 183 -1.661122679624714 0 34585.0 -1.661122679624714 1
gene  1 7 183 -3.019604644880199 0 34586.0 -3.019604644880199 1
gene  1 17 183 -7.7113987811563725 0 34596.0 -7.7113987811563725 1
gene  1 20 183 1.7556342420423503 0 34599.0 1.7556342420423503 1
gene  1 25 183 -0.27224828693731506 0 34604.0 -0.27224828693731506 1
gene  1 30 183 -1.2712973833742114 0 34609.0 -1.2712973833742114 1
gene  1 39 183 2.5979109401687213 0 34618.0 2.5979109401687213 1
gene  1 44 183 -1.4983300886950301 0 34623.0 -1.4983300886950301 1
gene  1 66 183 1.8661914992975848 0 34645.0 1.8661914992975848 1
gene  1 171 183 -2.3377978486540787 0 34750.0 -2.3377978486540787 1
gene  1 174 183 -1.1658002302295718 0 34753.0 -1.1658002302295718 1
gene  1 21 184 -2.7300579320522687 0 34790.0 -2.7300579320522687 1
gene  1 29 184 1.4947355801780344 0 34798.0 1.4947355801780344 1
gene  1 32 184 -3.285502732345776 0 34801.0 -3.285502732345776 1
gene  1 36 184 1.243376800134576 0 34805.0 1.243376800134576 1
gene  1 45 184 -2.208460562945947 0 34814.0 -2.208460562945947 1
gene  1 46 184 -0.8660547618663683 0 34815.0 -0.8660547618663683 1
gene  1 63 184 -1.583589052768544 0 34832.0 -1.583589052768544 1
gene  1 66 184 2.572175897034346 0 34835.0 2.572175897034346 1
gene  1 177 184 0.519894596860556 0 34946.0 0.519894596860556 1
gene  1 31 185 -2.2464395890927507 0 34990.0 -2.2464395890927507 1
gene  1 50 185 1.4997305126122316 0 35009.0 1.4997305126122316 1
gene  1 56 185 1.6304845588964365 0 35015.0 1.6304845588964365 1
gene  1 58 185 -2.2386488212153166 0 35017.0 -2.2386488212153166 1
gene  1 62 185 -0.17543112554471407 0 35021.0 -0.17543112554471407 1
gene  1 173 185 -0.4818257556475028 0 35132.0 -0.4818257556475028 1
gene  1 179 185 -0.7862331906172375 0 35138.0 -0.7862331906172375 1
gene  1 182 185 -1.894658228570222 0 35141.0 -1.894658228570222 1
gene  1 188 185 2.398158670728691 1 35147.0 2.398158670728691 1
gene  1 1 186 -1.590274809447721 0 35150.0 -1.590274809447721 1
gene  1 3 186 3.651187176635316 0 35152.0 3.651187176635316 1
gene  1 4 186 0.22336031098338371 0 35153.0 0.22336031098338371 1
gene  1 6 186 3.10281729081407 0 35155.0 3.10281729081407 1
gene  1 7 186 -2.3459762495504175 0 35156.0 -2.3459762495504175 1
gene  1 17 186 -2.8107620837513436 0 35166.0 -2.8107620837513436 1
gene  1 23 186 5.147576268303283 0 35172.0 5.147576268303283 1
gene  1 28 186 2.285682846144267 0 35177.0 2.285682846144267 1
gene  1 33 186 -2.1144058284378886 0 35182.0 -2.1144058284378886 1
gene  1 36 186 -0.8826455917017983 0 35185.0 -0.8826455917017983 1
gene  1 58 186 -0.48917780187857085 0 35207.0 -0.48917780187857085 1
gene  1 69 186 -2.415954749488808 0 35218.0 -2.415954749488808 1
gene  1 70 186 1.4440542885632077 0 35219.0 1.4440542885632077 1
gene  1 72 186 -2.4095168934527815 0 35221.0 -2.4095168934527815 0
gene  1 10 187 2.7777972561843822 0 35349.0 2.7777972561843822 1
gene  1 25 187 -5.037847938555255 0 35364.0 -5.037847938555255 1
gene  1 31 187 2.380799476257027 0 35370.0 2.380799476257027 1
gene  1 33 187 -4.365429723544955 0 35372.0 -4.365429723544955 1
gene  1 47 187 -5.595561789793514 0 35386.0 -5.595561789793514 1
gene  1 57 187 -7.634518076215222 0 35396.0 -7.634518076215222 1
gene  1 183 187 -0.7094972986609502 0 35522.0 -0.7094972986609502 1
gene  1 184 187 4.686792689993917 0 35523.0 4.686792689993917 1
gene  1 5 188 4.625600677408593 0 35534.0 4.625600677408593 1
gene  1 6 188 -1.125408221816532 0 35535.0 -1.125408221816532 1
gene  1 12 188 1.8893983340996592 0 35541.0 1.8893983340996592 1
gene  1 28 188 2.947131533081958 0 35557.0 2.947131533081958 1
gene  1 32 188 2.1075051213222644 0 35561.0 2.1075051213222644 1
gene  1 35 188 5.737529787024243 0 35564.0 5.737529787024243 1
gene  1 57 188 0.4685510266170394 0 35586.0 0.4685510266170394 1
gene  1 172 188 -0.8312768324328698 0 35701.0 -0.8312768324328698 1
gene  1 14 189 0.8044077194379462 0 35733.0 0.8044077194379462 1
gene  1 17 189 -0.7260832665332893 0 35736.0 -0.7260832665332893 1
gene  1 27 189 -3.2889107219758182 0 35746.0 -3.2889107219758182 1
gene  1 37 189 4.580068772207706 0 35756.0 4.580068772207706 1
gene  1 43 189 -1.954699879086816 0 35762.0 -1.954699879086816 1
gene  1 51 189 -4.278655260654161 0 35770.0 -4.278655260654161 1
gene  1 56 189 -2.202967479351609 0 35775.0 -2.202967479351609 1
gene  1 59 189 3.6413948645131082 0 35778.0 3.6413948645131082 1
gene  1 65 189 0.32445526055039986 0 35784.0 0.32445526055039986 1
gene  1 73 189 -0.4586917379951405 0 35792.0 -0.4586917379951405 1
gene  1 74 189 0.8103585926705935 0 35793.0 0.8103585926705935 1
gene  1 178 189 -5.5008470399860085 0 35897.0 -5.5008470399860085 1
gene  1 1 190 3.853452868044293 0 35910.0 3.853452868044293 1
gene  1 4 190 3.223679578693604 0 35913.0 3.223679578693604 1
gene  1 15 190 -2.62560051322982 0 35924.0 -2.62560051322982 1
gene  1 22 190 -0.31051275763246156 0 35931.0 -0.31051275763246156 1
gene  1 33 190 -1.4504138867390137 0 35942.0 -1.4504138867390137 1
gene  1 58 190 -1.422268554791649 0 35967.0 -1.422268554791649 1
gene  1 60 190 2.2675122169193895 0 35969.0 2.2675122169193895 1
gene  1 67 190 4.897590230576566 0 35976.0 4.897590230576566 1
gene  1 179 190 -2.983058335207452 0 36088.0 -2.983058335207452 1
gene  1 181 190 0.36788672845037884 0 36090.0 0.36788672845037884 1
gene  1 182 190 5.226165553081733 0 36091.0 5.226165553081733 1
gene  1 184 190 -2.278830991808027 0 36093.0 -2.278830991808027 1
gene  1 186 190 -0.02986085602286831 0 36095.0 -0.02986085602286831 1
gene  1 187 190 -2.937559990540218 0 36096.0 -2.937559990540218 1
gene  1 65 188 -0.8276237752996742 0 36109.0 -0.8276237752996742 1
gene  1 1 193 0.5762649667585751 0 36113.0 0.5762649667585751 1
gene  1 193 190 2.3862113224225996 0 36114.0 2.3862113224225996 1
gene  1 29 68 -0.756822697510642 0 36116.0 -0.756822697510642 1
gene  1 74 51 1.9395550893315132 0 36124.0 1.9395550893315132 1
gene  1 9 179 1.7316340421978407 0 36131.0 1.7316340421978407 1
gene  1 8 61 0.28366795483706936 0 36157.0 0.28366795483706936 1
gene  1 9 72 0.4877137697416054 0 36168.0 0.4877137697416054 1
gene  1 185 180 -2.2631429519315867 0 36224.0 -2.2631429519315867 1
gene  1 10 67 3.422298343648443 0 36252.0 3.422298343648443 1
gene  1 39 176 -0.038779700025666664 0 36254.0 -0.038779700025666664 1
gene  1 182 63 -3.542368118714249 0 36262.0 -3.542368118714249 1
gene  1 72 234 2.6630437878689768 0 36293.0 2.6630437878689768 1
gene  1 234 186 -0.5182150606562241 0 36294.0 -0.5182150606562241 1
genomeend 0
/* Organism # 001 Fitness:  927,731 Error:  1000,000                      */
genomestart  1
trait 1 0.11021815520324857 0.9500468561812224 0.0 0.0 0.0 0.0 0.0 0.17449252573720908 
node 1 1 1 1
node 2 1 1 1
node 3 1 1 1
node 4 1 1 1
node 5 1 1 1
node 6 1 1 1
node 7 1 1 1
node 8 1 1 1
node 9 1 1 1
node 10 1 1 1
node 11 1 1 1
node 12 1 1 1
node 13 1 1 1
node 14 1 1 1
node 15 1 1 1
node 16 1 1 1
node 17 1 1 1
node 18 1 1 1
node 19 1 1 1
node 20 1 1 1
node 21 1 1 1
node 22 1 1 1
node 23 1 1 1
node 24 1 1 1
node 25 1 1 1
node 26 1 1 1
node 27 1 1 1
node 28 1 1 1
node 29 1 1 1
node 30 1 1 1
node 31 1 1 1
node 32 1 1 1
node 33 1 1 1
node 34 1 1 1
node 35 1 1 1
node 36 1 1 1
node 37 1 1 1
node 38 1 1 1
node 39 1 1 1
node 40 1 1 1
node 41 1 1 1
node 42 1 1 1
node 43 1 1 1
node 44 1 1 1
node 45 1 1 1
node 46 1 1 1
node 47 1 1 1
node 48 1 1 1
node 49 1 1 1
node 50 1 1 3
node 51 1 0 0
node 52 1 0 0
node 53 1 0 0
node 54 1 0 0
node 55 1 0 0
node 56 1 0 0
node 57 1 0 0
node 58 1 0 0
node 59 1 0 0
node 60 1 0 0
node 61 1 0 0
node 62 1 0 0
node 63 1 0 0
node 64 1 0 0
node 65 1 0 0
node 66 1 0 0
node 67 1 0 0
node 68 1 0 0
node 69 1 0 0
node 70 1 0 0
node 71 1 0 0
node 72 1 0 0
node 73 1 0 0
node 74 1 0 0
node 75 1 0 0
node 171 1 0 2
node 172 1 0 2
node 173 1 0 2
node 174 1 0 2
node 175 1 0 2
node 176 1 0 2
node 177 1 0 2
node 178 1 0 2
node 179 1 0 2
node 180 1 0 2
node 181 1 0 2
node 182 1 0 2
node 183 1 0 2
node 184 1 0 2
node 185 1 0 2
node 186 1 0 2
node 187 1 0 2
node 188 1 0 2
node 189 1 0 2
node 190 1 0 2
node 193 1 0 0
node 234 1 0 0
gene  1 28 51 17.632461883692557 0 9527.0 17.632461883692557 1
gene  1 33 51 -3.9849973048857334 0 9532.0 -3.9849973048857334 1
gene  1 36 51 -5.012169297666685 0 9535.0 -5.012169297666685 1
gene  1 40 51 -5.305205963466072 0 9539.0 -5.305205963466072 1
gene  1 42 51 4.560382728628593 0 9541.0 4.560382728628593 1
gene  1 54 51 2.5470222032226433 1 9553.0 2.5470222032226433 1
gene  1 57 51 1.580483499249193 1 9556.0 1.580483499249193 1
gene  1 68 51 -2.8493130375075526 1 9567.0 -2.8493130375075526 1
gene  1 174 51 -2.6246620601536375 1 9673.0 -2.6246620601536375 1
gene  1 183 51 7.626176704080697 1 9682.0 7.626176704080697 1
gene  1 184 51 12.72618931957356 1 9683.0 12.72618931957356 1
gene  1 189 51 9.673298549923866 1 9688.0 9.673298549923866 1
gene  1 3 52 3.53582499835882 0 9692.0 3.53582499835882 1
gene  1 6 52 11.232371577875028 0 9695.0 11.232371577875028 1
gene  1 24 52 -2.039598518028007 0 9713.0 -2.039598518028007 1
gene  1 29 52 -4.571107233704609 0 9718.0 -4.571107233704609 1
gene  1 31 52 5.303689655708354 0 9720.0 5.303689655708354 1
gene  1 35 52 1.4498348976602649 0 9724.0 1.4498348976602649 1
gene  1 63 52 0.3584686723206387 1 9752.0 0.3584686723206387 1
gene  1 179 52 -2.6201227428023026 1 9868.0 -2.6201227428023026 1
gene  1 183 52 -0.34277586411711614 1 9872.0 -0.34277586411711614 1
gene  1 184 52 -7.0358130186214645 1 9873.0 -7.0358130186214645 1
gene  1 185 52 -10.096127525669393 1 9874.0 -10.096127525669393 1
gene  1 5 53 4.084002531340751 0 9884.0 4.084002531340751 1
gene  1 6 53 -0.4558064344914494 0 9885.0 -0.4558064344914494 1
gene  1 10 53 0.792997231129345 0 9889.0 0.792997231129345 1
gene  1 33 53 -0.7488156974514186 0 9912.0 -0.7488156974514186 1
gene  1 35 53 -0.2562353326589957 0 9914.0 -0.2562353326589957 1
gene  1 38 53 -0.19196170422908088 0 9917.0 -0.19196170422908088 1
gene  1 45 53 -11.540802104185895 0 9924.0 -11.540802104185895 1
gene  1 71 53 0.22355484107532264 1 9950.0 0.22355484107532264 1
gene  1 16 54 -2.8544037351867733 0 10085.0 -2.8544037351867733 1
gene  1 19 54 -3.030539867252033 0 10088.0 -3.030539867252033 1
gene  1 36 54 -2.2689754968632694 0 10105.0 -2.2689754968632694 1
gene  1 42 54 4.8373026024508885 0 10111.0 4.8373026024508885 1
gene  1 58 54 -4.928277577251183 1 10127.0 -4.928277577251183 1
gene  1 62 54 -3.3410857383919588 1 10131.0 -3.3410857383919588 1
gene  1 73 54 -0.8512632924117951 1 10142.0 -0.8512632924117951 1
gene  1 177 54 0.7353114375972476 1 10246.0 0.7353114375972476 1
gene  1 180 54 0.45984725580107066 1 10249.0 0.45984725580107066 1
gene  1 190 54 -3.5700371194215434 1 10259.0 -3.5700371194215434 1
gene  1 20 55 -10.955713855121958 0 10279.0 -10.955713855121958 1
gene  1 31 55 3.4981742563138987 0 10290.0 3.4981742563138987 1
gene  1 35 55 1.5653185313911946 0 10294.0 1.5653185313911946 1
gene  1 41 55 2.0951379294747565 0 10300.0 2.0951379294747565 1
gene  1 47 55 1.4229234416808603 0 10306.0 1.4229234416808603 1
gene  1 52 55 -5.844792880161854 0 10311.0 -5.844792880161854 1
gene  1 69 55 6.989006268115968 1 10328.0 6.989006268115968 1
gene  1 75 55 -2.670446443982261 1 10334.0 -2.670446443982261 1
gene  1 187 55 -1.8081124848605366 1 10446.0 -1.8081124848605366 1
gene  1 7 56 1.450798020676722 0 10456.0 1.450798020676722 1
gene  1 11 56 4.348953829911045 0 10460.0 4.348953829911045 1
gene  1 13 56 -2.1613932554443362 0 10462.0 -2.1613932554443362 1
gene  1 36 56 -4.659356614468807 0 10485.0 -4.659356614468807 1
gene  1 41 56 -3.4705323530614325 0 10490.0 -3.4705323530614325 1
gene  1 44 56 0.3493173733669259 0 10493.0 0.3493173733669259 1
gene  1 46 56 8.606992025623494 0 10495.0 8.606992025623494 1
gene  1 49 56 -3.9307973608092213 0 10498.0 -3.9307973608092213 1
gene  1 68 56 0.33972655266515966 1 10517.0 0.33972655266515966 1
gene  1 179 56 1.4550185380673861 1 10628.0 1.4550185380673861 1
gene  1 183 56 -2.481184859524733 1 10632.0 -2.481184859524733 1
gene  1 3 57 -2.124193190985986 0 10642.0 -2.124193190985986 1
gene  1 19 57 5.960875974316739 0 10658.0 5.960875974316739 1
gene  1 22 57 3.7083083417767546 0 10661.0 3.7083083417767546 1
gene  1 28 57 -4.920574409318401 0 10667.0 -4.920574409318401 1
gene  1 30 57 2.641736093062242 0 10669.0 2.641736093062242 1
gene  1 35 57 -4.435063468465888 0 10674.0 -4.435063468465888 1
gene  1 47 57 -3.9109305196659565 0 10686.0 -3.9109305196659565 1
gene  1 59 57 -9.662744088050005 1 10698.0 -9.662744088050005 1
gene  1 60 57 -12.068493805062747 1 10699.0 -12.068493805062747 1
gene  1 187 57 6.479807292914076 1 10826.0 6.479807292914076 1
gene  1 5 58 10.546432639700745 0 10834.0 10.546432639700745 1
gene  1 14 58 -0.02294636715772569 0 10843.0 -0.02294636715772569 1
gene  1 15 58 2.0380166650055838 0 10844.0 2.0380166650055838 1
gene  1 24 58 -7.696594622708205 0 10853.0 -7.696594622708205 1
gene  1 32 58 -1.8110792455194085 0 10861.0 -1.8110792455194085 1
gene  1 43 58 -0.2404473030813683 0 10872.0 -0.2404473030813683 1
gene  1 49 58 -6.678883109799127 0 10878.0 -6.678883109799127 1
gene  1 53 58 -1.4302488310222172 0 10882.0 -1.4302488310222172 1
gene  1 62 58 -1.431922349633961 1 10891.0 -1.431922349633961 1
gene  1 64 58 1.7037264016658684 1 10893.0 1.7037264016658684 1
gene  1 69 58 -17.764906953500084 1 10898.0 -17.764906953500084 1
gene  1 182 58 1.1529745688128799 1 11011.0 1.1529745688128799 1
gene  1 1 59 -5.405549620379695 0 11020.0 -5.405549620379695 1
gene  1 4 59 2.217406619140828 0 11023.0 2.217406619140828 1
gene  1 27 59 -2.3169811878260105 0 11046.0 -2.3169811878260105 1
gene  1 34 59 1.566562020550612 0 11053.0 1.566562020550612 1
gene  1 37 59 4.45700364252041 0 11056.0 4.45700364252041 1
gene  1 44 59 -3.381753245856435 0 11063.0 -3.381753245856435 1
gene  1 59 59 0.054396404052469594 1 11078.0 0.054396404052469594 1
gene  1 73 59 -0.3316958764156501 1 11092.0 -0.3316958764156501 1
gene  1 75 59 -2.2505990770071556 1 11094.0 -2.2505990770071556 1
gene  1 183 59 0.5684984905379009 1 11202.0 0.5684984905379009 1
gene  1 185 59 8.612942581610353 1 11204.0 8.612942581610353 1
gene  1 8 60 2.287994884388177 0 11217.0 2.287994884388177 1
gene  1 10 60 -1.0688465788217254 0 11219.0 -1.0688465788217254 1
gene  1 40 60 3.596830279480889 0 11249.0 3.596830279480889 1
gene  1 45 60 0.6105647800123204 0 11254.0 0.6105647800123204 1
gene  1 61 60 5.167885618746152 1 11270.0 5.167885618746152 1
gene  1 72 60 4.50143484898378 1 11281.0 4.50143484898378 1
gene  1 177 60 2.185167871177351 1 11386.0 2.185167871177351 1
gene  1 179 60 -4.315491243241427 1 11388.0 -4.315491243241427 1
gene  1 187 60 12.17149677331743 1 11396.0 12.17149677331743 1
gene  1 7 61 5.003601832393594 0 11406.0 5.003601832393594 1
gene  1 15 61 4.056329772503794 0 11414.0 4.056329772503794 1
gene  1 22 61 -10.639421768765358 0 11421.0 -10.639421768765358 1
gene  1 28 61 -0.8528442012051347 0 11427.0 -0.8528442012051347 1
gene  1 36 61 11.607327912765111 0 11435.0 11.607327912765111 1
gene  1 53 61 -1.8925073929261418 0 11452.0 -1.8925073929261418 1
gene  1 54 61 -1.690147909095664 0 11453.0 -1.690147909095664 1
gene  1 67 61 -1.1020691279754224 1 11466.0 -1.1020691279754224 1
gene  1 177 61 1.9247977410101818 1 11576.0 1.9247977410101818 1
gene  1 184 61 2.7518315887692104 1 11583.0 2.7518315887692104 1
gene  1 6 62 -3.014672521043163 0 11595.0 -3.014672521043163 1
gene  1 11 62 1.5249393045756556 0 11600.0 1.5249393045756556 1
gene  1 15 62 -1.6885727214019073 0 11604.0 -1.6885727214019073 1
gene  1 26 62 -8.03348828859289 0 11615.0 -8.03348828859289 1
gene  1 53 62 -2.0894171211835495 0 11642.0 -2.0894171211835495 1
gene  1 68 62 11.720960679713992 1 11657.0 11.720960679713992 1
gene  1 72 62 2.462292092061069 1 11661.0 2.462292092061069 1
gene  1 174 62 -2.1055058809477236 1 11763.0 -2.1055058809477236 1
gene  1 175 62 -2.714646906692111 1 11764.0 -2.714646906692111 1
gene  1 184 62 3.7939208131236892 1 11773.0 3.7939208131236892 1
gene  1 185 62 -3.649523088714352 1 11774.0 -3.649523088714352 1
gene  1 188 62 -0.9152218889094921 1 11777.0 -0.9152218889094921 1
gene  1 31 63 12.510407143715971 0 11810.0 12.510407143715971 1
gene  1 32 63 0.6792387156200391 0 11811.0 0.6792387156200391 1
gene  1 37 63 -10.385064821738846 0 11816.0 -10.385064821738846 1
gene  1 38 63 -1.248687726053084 0 11817.0 -1.248687726053084 1
gene  1 42 63 -1.0558036448039463 0 11821.0 -1.0558036448039463 1
gene  1 46 63 -3.9537361224767698 0 11825.0 -3.9537361224767698 1
gene  1 48 63 -2.214868915630803 0 11827.0 -2.214868915630803 1
gene  1 50 63 -1.2239192189283887 0 11829.0 -1.2239192189283887 1
gene  1 60 63 2.2649429742222096 0 11839.0 2.2649429742222096 1
gene  1 63 63 1.0209899067303703 1 11842.0 1.0209899067303703 1
gene  1 72 63 0.30264275459326395 1 11851.0 0.30264275459326395 1
gene  1 74 63 -3.6981042330994276 1 11853.0 -3.6981042330994276 1
gene  1 178 63 2.435524848189545 1 11957.0 2.435524848189545 1
gene  1 180 63 4.760437393257951 1 11959.0 4.760437393257951 1
gene  1 181 63 3.648798389052119 1 11960.0 3.648798389052119 1
gene  1 8 64 3.1708717059907987 0 11977.0 3.1708717059907987 1
gene  1 11 64 5.1029938347689345 0 11980.0 5.1029938347689345 1
gene  1 20 64 -0.8170202340954941 0 11989.0 -0.8170202340954941 1
gene  1 27 64 -8.38536884304725 0 11996.0 -8.38536884304725 1
gene  1 41 64 -6.503135834033429 0 12010.0 -6.503135834033429 1
gene  1 44 64 -5.602565630083257 0 12013.0 -5.602565630083257 1
gene  1 49 64 1.9711651987182366 0 12018.0 1.9711651987182366 1
gene  1 50 64 -6.9533346106934335 0 12019.0 -6.9533346106934335 1
gene  1 53 64 -3.9037812971918884 0 12022.0 -3.9037812971918884 1
gene  1 59 64 3.091545732523806 0 12028.0 3.091545732523806 1
gene  1 70 64 -1.650760144789214 1 12039.0 -1.650760144789214 1
gene  1 176 64 9.862929300326787 1 12145.0 9.862929300326787 1
gene  1 179 64 -8.456318431240891 1 12148.0 -8.456318431240891 1
gene  1 183 64 -6.346776358877909 1 12152.0 -6.346776358877909 1
gene  1 184 64 -10.830535687707135 1 12153.0 -10.830535687707135 1
gene  1 185 64 -9.73865206652167 1 12154.0 -9.73865206652167 1
gene  1 8 65 -2.7949749146262874 0 12167.0 -2.7949749146262874 1
gene  1 13 65 -4.211382588007677 0 12172.0 -4.211382588007677 1
gene  1 18 65 -6.617011591103699 0 12177.0 -6.617011591103699 1
gene  1 39 65 -0.8129332745334859 0 12198.0 -0.8129332745334859 1
gene  1 53 65 -2.0856556403892137 0 12212.0 -2.0856556403892137 1
gene  1 69 65 -0.5296920008569601 1 12228.0 -0.5296920008569601 1
gene  1 70 65 3.7790405566534644 1 12229.0 3.7790405566534644 1
gene  1 175 65 3.7390345057704506 1 12334.0 3.7390345057704506 1
gene  1 176 65 -4.088677472445271 1 12335.0 -4.088677472445271 1
gene  1 177 65 -6.573726890136562 1 12336.0 -6.573726890136562 1
gene  1 185 65 -2.6102399330942267 1 12344.0 -2.6102399330942267 1
gene  1 1 66 -8.605418474886354 0 12350.0 -8.605418474886354 1
gene  1 4 66 -1.7577677062750605 0 12353.0 -1.7577677062750605 1
gene  1 18 66 1.2082375384172956 0 12367.0 1.2082375384172956 1
gene  1 21 66 4.903530912148057 0 12370.0 4.903530912148057 1
gene  1 43 66 4.793789339678897 0 12392.0 4.793789339678897 1
gene  1 47 66 2.784298999946857 0 12396.0 2.784298999946857 1
gene  1 50 66 1.984365277611958 0 12399.0 1.984365277611958 1
gene  1 60 66 4.898146814997492 0 12409.0 4.898146814997492 1
gene  1 62 66 4.072525685910616 0 12411.0 4.072525685910616 1
gene  1 66 66 -2.127207592861782 1 12415.0 -2.127207592861782 1
gene  1 184 66 -1.4181800673400915 1 12533.0 -1.4181800673400915 1
gene  1 8 67 -4.819564318514056 0 12547.0 -4.819564318514056 1
gene  1 38 67 -4.67300005067251 0 12577.0 -4.67300005067251 1
gene  1 46 67 -0.42275806728013343 0 12585.0 -0.42275806728013343 1
gene  1 49 67 -1.4036846332311905 0 12588.0 -1.4036846332311905 1
gene  1 57 67 -3.6680560150994372 0 12596.0 -3.6680560150994372 1
gene  1 61 67 -0.3322022901253603 0 12600.0 -0.3322022901253603 1
gene  1 72 67 -1.3695474247447637 1 12611.0 -1.3695474247447637 1
gene  1 177 67 -1.7942866706676899 1 12716.0 -1.7942866706676899 1
gene  1 182 67 3.1346164344668446 1 12721.0 3.1346164344668446 1
gene  1 185 67 10.55203245620326 1 12724.0 10.55203245620326 1
gene  1 189 67 1.7956908332632362 1 12728.0 1.7956908332632362 1
gene  1 5 68 2.8158259442990925 0 12734.0 2.8158259442990925 1
gene  1 16 68 0.9746204005969112 0 12745.0 0.9746204005969112 1
gene  1 40 68 1.3081933521082414 0 12769.0 1.3081933521082414 1
gene  1 41 68 8.252553644951492 0 12770.0 8.252553644951492 1
gene  1 42 68 -8.95072621004014 0 12771.0 -8.95072621004014 1
gene  1 71 68 -6.586592465185184 1 12800.0 -6.586592465185184 1
gene  1 185 68 -5.925522648062338 1 12914.0 -5.925522648062338 1
gene  1 6 69 0.49165837186971695 0 12925.0 0.49165837186971695 1
gene  1 16 69 -4.574940902108816 0 12935.0 -4.574940902108816 1
gene  1 19 69 -0.4736091496574607 0 12938.0 -0.4736091496574607 1
gene  1 44 69 -7.893849708653447 0 12963.0 -7.893849708653447 1
gene  1 45 69 2.150874423676295 0 12964.0 2.150874423676295 1
gene  1 65 69 -12.001921714698836 0 12984.0 -12.001921714698836 1
gene  1 171 69 0.17403596694199963 1 13090.0 0.17403596694199963 1
gene  1 3 70 -3.402752782595144 0 13112.0 -3.402752782595144 1
gene  1 39 70 -9.739161256760815 0 13148.0 -9.739161256760815 1
gene  1 60 70 1.533615991319981 0 13169.0 1.533615991319981 1
gene  1 171 70 -2.251266514544338 1 13280.0 -2.251266514544338 1
gene  1 181 70 -3.1798622813491355 1 13290.0 -3.1798622813491355 1
gene  1 183 70 0.9690271345459647 1 13292.0 0.9690271345459647 1
gene  1 11 71 -4.085355215370784 0 13310.0 -4.085355215370784 1
gene  1 15 71 -6.323256258053998 0 13314.0 -6.323256258053998 1
gene  1 30 71 -4.482839472522138 0 13329.0 -4.482839472522138 1
gene  1 33 71 -5.020466154019255 0 13332.0 -5.020466154019255 1
gene  1 34 71 -2.7437502918482206 0 13333.0 -2.7437502918482206 1
gene  1 48 71 -1.8596193211921204 0 13347.0 -1.8596193211921204 1
gene  1 50 71 -3.4024221818132063 0 13349.0 -3.4024221818132063 1
gene  1 51 71 -0.7416232930284947 0 13350.0 -0.7416232930284947 1
gene  1 57 71 -8.002165933472224 0 13356.0 -8.002165933472224 1
gene  1 73 71 5.782654427165954 1 13372.0 5.782654427165954 1
gene  1 185 71 1.2962330958468207 1 13484.0 1.2962330958468207 1
gene  1 24 72 2.1352685632880672 0 13513.0 2.1352685632880672 1
gene  1 51 72 -2.416539248882017 0 13540.0 -2.416539248882017 1
gene  1 54 72 0.17115110069160488 0 13543.0 0.17115110069160488 1
gene  1 60 72 -0.7370024426647386 0 13549.0 -0.7370024426647386 1
gene  1 3 73 -0.3550153177507689 0 13682.0 -0.3550153177507689 1
gene  1 18 73 1.94323042835562 0 13697.0 1.94323042835562 1
gene  1 30 73 4.463202623507065 0 13709.0 4.463202623507065 1
gene  1 41 73 -0.5804477772205489 0 13720.0 -0.5804477772205489 1
gene  1 54 73 -7.709916843466779 0 13733.0 -7.709916843466779 1
gene  1 59 73 -1.055675896040182 0 13738.0 -1.055675896040182 1
gene  1 60 73 3.197059862183277 0 13739.0 3.197059862183277 1
gene  1 179 73 3.6102569241628135 1 13858.0 3.6102569241628135 1
gene  1 189 73 -2.0086850934874994 1 13868.0 -2.0086850934874994 1
gene  1 31 74 0.4362987052954446 0 13900.0 0.4362987052954446 1
gene  1 38 74 1.8886291940919115 0 13907.0 1.8886291940919115 1
gene  1 67 74 0.2401388747516749 0 13936.0 0.2401388747516749 1
gene  1 74 74 -5.0253015661755684 1 13943.0 -5.0253015661755684 1
gene  1 188 74 6.3733369066385706 1 14057.0 6.3733369066385706 1
gene  1 2 75 2.0421103121698962 0 14061.0 2.0421103121698962 1
gene  1 10 75 2.4679762662282076 0 14069.0 2.4679762662282076 1
gene  1 12 75 -7.851570414409296 0 14071.0 -7.851570414409296 1
gene  1 15 75 -4.984719813726399 0 14074.0 -4.984719813726399 1
gene  1 18 75 -3.311732478465475 0 14077.0 -3.311732478465475 1
gene  1 43 75 2.2262680090282494 0 14102.0 2.2262680090282494 1
gene  1 46 75 -2.735179371351797 0 14105.0 -2.735179371351797 1
gene  1 56 75 1.2962811292108194 0 14115.0 1.2962811292108194 1
gene  1 57 75 1.3978217700024875 0 14116.0 1.3978217700024875 1
gene  1 177 75 -0.9313165783584507 1 14236.0 -0.9313165783584507 1
gene  1 183 75 -10.417940402817253 1 14242.0 -10.417940402817253 1
gene  1 3 171 2.093348450322412 0 32302.0 2.093348450322412 1
gene  1 10 171 -10.079904949590578 0 32309.0 -10.079904949590578 1
gene  1 18 171 2.667708240942696 0 32317.0 2.667708240942696 1
gene  1 35 171 -1.0710646363321417 0 32334.0 -1.0710646363321417 1
gene  1 47 171 -0.3854174211725956 0 32346.0 -0.3854174211725956 1
gene  1 48 171 12.152602577452848 0 32347.0 12.152602577452848 1
gene  1 63 171 -1.05305521284104 0 32362.0 -1.05305521284104 1
gene  1 74 171 -1.361083623542116 0 32373.0 -1.361083623542116 1
gene  1 171 171 -0.8743786844647714 1 32470.0 -0.8743786844647714 1
gene  1 180 171 -7.554376746301449 1 32479.0 -7.554376746301449 1
gene  1 181 171 0.536220013304771 1 32480.0 0.536220013304771 1
gene  1 16 172 -3.4496355903311797 0 32505.0 -3.4496355903311797 1
gene  1 38 172 2.4494251437905743 0 32527.0 2.4494251437905743 1
gene  1 58 172 -6.338016046244074 0 32547.0 -6.338016046244074 1
gene  1 59 172 -2.8282521295852145 0 32548.0 -2.8282521295852145 1
gene  1 60 172 -10.310217782104546 0 32549.0 -10.310217782104546 1
gene  1 73 172 -1.9831159116501493 0 32562.0 -1.9831159116501493 1
gene  1 171 172 2.218548102957018 0 32660.0 2.218548102957018 1
gene  1 173 172 -1.299373134864489 1 32662.0 -1.299373134864489 1
gene  1 7 173 1.4332853164185884 0 32686.0 1.4332853164185884 1
gene  1 29 173 -1.8661646939564251 0 32708.0 -1.8661646939564251 1
gene  1 30 173 4.979029391871508 0 32709.0 4.979029391871508 1
gene  1 38 173 -3.091876345939524 0 32717.0 -3.091876345939524 1
gene  1 56 173 -8.149394702900443 0 32735.0 -8.149394702900443 1
gene  1 68 173 3.1665610187611604 0 32747.0 3.1665610187611604 1
gene  1 72 173 2.1558572542960497 0 32751.0 2.1558572542960497 1
gene  1 75 173 -9.141820338452117 0 32754.0 -9.141820338452117 1
gene  1 180 173 -3.537672297809079 1 32859.0 -3.537672297809079 1
gene  1 45 174 -2.953764884251296 0 32914.0 -2.953764884251296 1
gene  1 174 174 5.475414237655064 1 33043.0 5.475414237655064 1
gene  1 180 174 1.2461537783580043 1 33049.0 1.2461537783580043 1
gene  1 186 174 -4.707513533411868 1 33055.0 -4.707513533411868 1
gene  1 2 175 -7.097182754517323 0 33061.0 -7.097182754517323 1
gene  1 11 175 -2.409529761689111 0 33070.0 -2.409529761689111 1
gene  1 26 175 -10.08530797375007 0 33085.0 -10.08530797375007 1
gene  1 37 175 -0.8369675501409419 0 33096.0 -0.8369675501409419 1
gene  1 43 175 1.597639459058796 0 33102.0 1.597639459058796 1
gene  1 48 175 2.4983018265063253 0 33107.0 2.4983018265063253 1
gene  1 51 175 3.563245669236843 0 33110.0 3.563245669236843 1
gene  1 64 175 0.5056730088347205 0 33123.0 0.5056730088347205 1
gene  1 70 175 -4.338737098344655 0 33129.0 -4.338737098344655 1
gene  1 71 175 -3.730014768312043 0 33130.0 -3.730014768312043 1
gene  1 177 175 -0.134847744025836 1 33236.0 -0.134847744025836 1
gene  1 178 175 -0.3625003208443651 1 33237.0 -0.3625003208443651 1
gene  1 181 175 2.4027072538465513 1 33240.0 2.4027072538465513 1
gene  1 184 175 5.105221159139251 1 33243.0 5.105221159139251 1
gene  1 186 175 -7.433742205137646 1 33245.0 -7.433742205137646 1
gene  1 2 176 0.7590013169838197 0 33251.0 0.7590013169838197 1
gene  1 8 176 8.46822209139618 0 33257.0 8.46822209139618 1
gene  1 9 176 -2.9906300260791068 0 33258.0 -2.9906300260791068 1
gene  1 12 176 2.58106927123214 0 33261.0 2.58106927123214 1
gene  1 15 176 0.6329971878611234 0 33264.0 0.6329971878611234 1
gene  1 16 176 0.8711071432184967 0 33265.0 0.8711071432184967 1
gene  1 35 176 1.2489522733050786 0 33284.0 1.2489522733050786 1
gene  1 37 176 6.971973153574168 0 33286.0 6.971973153574168 1
gene  1 46 176 1.9449867218117551 0 33295.0 1.9449867218117551 1
gene  1 62 176 -1.232926024627122 0 33311.0 -1.232926024627122 1
gene  1 64 176 3.7880902591010885 0 33313.0 3.7880902591010885 1
gene  1 171 176 -0.7251018441778536 0 33420.0 -0.7251018441778536 1
gene  1 174 176 2.002005573649606 0 33423.0 2.002005573649606 1
gene  1 179 176 -0.8492623638089486 1 33428.0 -0.8492623638089486 1
gene  1 1 177 2.417848648867205 0 33440.0 2.417848648867205 1
gene  1 7 177 -0.5668342595863392 0 33446.0 -0.5668342595863392 1
gene  1 8 177 -2.155774813623288 0 33447.0 -2.155774813623288 1
gene  1 9 177 2.5316331216970873 0 33448.0 2.5316331216970873 1
gene  1 14 177 -1.6487328863963913 0 33453.0 -1.6487328863963913 1
gene  1 16 177 -5.563974106288137 0 33455.0 -5.563974106288137 1
gene  1 20 177 -2.8424748282552983 0 33459.0 -2.8424748282552983 1
gene  1 30 177 3.6222840249737285 0 33469.0 3.6222840249737285 1
gene  1 31 177 -3.1405310271994407 0 33470.0 -3.1405310271994407 1
gene  1 32 177 0.04990553923334762 0 33471.0 0.04990553923334762 1
gene  1 43 177 3.297125304344724 0 33482.0 3.297125304344724 1
gene  1 44 177 -13.279419782133525 0 33483.0 -13.279419782133525 1
gene  1 53 177 -3.171384106602702 0 33492.0 -3.171384106602702 1
gene  1 59 177 1.5381645676263562 0 33498.0 1.5381645676263562 1
gene  1 69 177 4.5695932775160335 0 33508.0 4.5695932775160335 1
gene  1 174 177 -0.12365705581161723 0 33613.0 -0.12365705581161723 1
gene  1 175 177 4.277038808813489 0 33614.0 4.277038808813489 1
gene  1 184 177 2.597319596929414 1 33623.0 2.597319596929414 1
gene  1 187 177 -11.77119173983773 1 33626.0 -11.77119173983773 1
gene  1 1 178 5.212540158730961 0 33630.0 5.212540158730961 1
gene  1 20 178 -9.678644487146478 0 33649.0 -9.678644487146478 1
gene  1 26 178 4.407429383059407 0 33655.0 4.407429383059407 1
gene  1 35 178 -0.505795473248446 0 33664.0 -0.505795473248446 1
gene  1 42 178 -0.34163033389262143 0 33671.0 -0.34163033389262143 1
gene  1 53 178 2.842961882304166 0 33682.0 2.842961882304166 1
gene  1 59 178 0.5141402450981203 0 33688.0 0.5141402450981203 1
gene  1 72 178 11.58661786866538 0 33701.0 11.58661786866538 1
gene  1 172 178 0.2831364707895598 0 33801.0 0.2831364707895598 1
gene  1 190 178 5.280224568668946 1 33819.0 5.280224568668946 1
gene  1 6 179 0.837953675662249 0 33825.0 0.837953675662249 1
gene  1 8 179 -16.78703008728296 0 33827.0 -16.78703008728296 1
gene  1 13 179 0.8113496786380101 0 33832.0 0.8113496786380101 1
gene  1 36 179 5.533218767345173 0 33855.0 5.533218767345173 1
gene  1 46 179 -2.2403704879527284 0 33865.0 -2.2403704879527284 1
gene  1 60 179 -0.708950516746173 0 33879.0 -0.708950516746173 1
gene  1 61 179 1.6878475616804025 0 33880.0 1.6878475616804025 1
gene  1 72 179 8.327388951571129 0 33891.0 8.327388951571129 1
gene  1 74 179 7.4753587197668425 0 33893.0 7.4753587197668425 1
gene  1 171 179 -1.118169248084716 0 33990.0 -1.118169248084716 1
gene  1 185 179 -1.461735234046134 1 34004.0 -1.461735234046134 1
gene  1 1 180 -3.161632798393724 0 34010.0 -3.161632798393724 1
gene  1 4 180 -5.540241883683414 0 34013.0 -5.540241883683414 1
gene  1 8 180 3.7171503817275937 0 34017.0 3.7171503817275937 1
gene  1 11 180 -10.408015513339215 0 34020.0 -10.408015513339215 1
gene  1 21 180 -0.3661555728287953 0 34030.0 -0.3661555728287953 1
gene  1 32 180 -4.694411711661031 0 34041.0 -4.694411711661031 1
gene  1 35 180 -2.760645163841119 0 34044.0 -2.760645163841119 1
gene  1 46 180 -0.06118284106894528 0 34055.0 -0.06118284106894528 1
gene  1 68 180 -5.346601841070947 0 34077.0 -5.346601841070947 1
gene  1 188 180 2.246701600614656 1 34197.0 2.246701600614656 1
gene  1 2 181 5.127943045331433 0 34201.0 5.127943045331433 1
gene  1 16 181 3.749458855655454 0 34215.0 3.749458855655454 1
gene  1 24 181 -8.934171541474754 0 34223.0 -8.934171541474754 1
gene  1 36 181 -1.9612297641778456 0 34235.0 -1.9612297641778456 1
gene  1 60 181 -3.163646616464578 0 34259.0 -3.163646616464578 1
gene  1 69 181 -5.491115585314142 0 34268.0 -5.491115585314142 1
gene  1 190 181 5.71875320771961 1 34389.0 5.71875320771961 1
gene  1 1 182 -3.511527265738051 0 34390.0 -3.511527265738051 1
gene  1 17 182 0.8139335037406765 0 34406.0 0.8139335037406765 1
gene  1 35 182 -3.1960576476140945 0 34424.0 -3.1960576476140945 1
gene  1 44 182 -5.262794684155391 0 34433.0 -5.262794684155391 1
gene  1 49 182 -8.605884403236132 0 34438.0 -8.605884403236132 1
gene  1 50 182 -0.4455501676501594 0 34439.0 -0.4455501676501594 1
gene  1 54 182 -1.4976437308323647 0 34443.0 -1.4976437308323647 1
gene  1 59 182 0.14640989465237708 0 34448.0 0.14640989465237708 1
gene  1 73 182 2.443154874696337 0 34462.0 2.443154874696337 1
gene  1 174 182 0.19685675752436838 0 34563.0 0.19685675752436838 1
gene  1 187 182 10.945169678194276 1 34576.0 10.945169678194276 1
gene  1 6 183 -2.893681851623777 0 34585.0 -2.893681851623777 1
gene  1 7 183 -0.43326204358088427 0 34586.0 -0.43326204358088427 1
gene  1 17 183 -7.188188240578842 0 34596.0 -7.188188240578842 1
gene  1 20 183 2.9123502418677063 0 34599.0 2.9123502418677063 1
gene  1 25 183 -0.9182345023850937 0 34604.0 -0.9182345023850937 1
gene  1 30 183 5.360624189054645 0 34609.0 5.360624189054645 1
gene  1 39 183 1.909453907275643 0 34618.0 1.909453907275643 1
gene  1 44 183 -1.42577111689583 0 34623.0 -1.42577111689583 1
gene  1 66 183 -2.4963998828860974 0 34645.0 -2.4963998828860974 1
gene  1 171 183 0.5124939121507633 0 34750.0 0.5124939121507633 1
gene  1 174 183 -0.8861517213500637 0 34753.0 -0.8861517213500637 1
gene  1 21 184 -0.36850446504306356 0 34790.0 -0.36850446504306356 1
gene  1 29 184 3.8454427933303927 0 34798.0 3.8454427933303927 1
gene  1 32 184 -2.3885456417167314 0 34801.0 -2.3885456417167314 1
gene  1 36 184 1.929211124023606 0 34805.0 1.929211124023606 1
gene  1 45 184 -1.3328072737446444 0 34814.0 -1.3328072737446444 1
gene  1 46 184 -0.37896632143029185 0 34815.0 -0.37896632143029185 1
gene  1 63 184 -3.0863126805612953 0 34832.0 -3.0863126805612953 1
gene  1 66 184 4.396904578217983 0 34835.0 4.396904578217983 1
gene  1 177 184 -1.6867338777175684 0 34946.0 -1.6867338777175684 1
gene  1 31 185 -4.016937841578918 0 34990.0 -4.016937841578918 1
gene  1 50 185 2.5926170255275203 0 35009.0 2.5926170255275203 1
gene  1 56 185 5.1575543749034995 0 35015.0 5.1575543749034995 1
gene  1 58 185 -2.302516487639377 0 35017.0 -2.302516487639377 1
gene  1 62 185 -0.46045948809464043 0 35021.0 -0.46045948809464043 1
gene  1 173 185 -0.09763877848336044 0 35132.0 -0.09763877848336044 1
gene  1 179 185 2.7598500431539055 0 35138.0 2.7598500431539055 1
gene  1 182 185 -0.5692800075889857 0 35141.0 -0.5692800075889857 1
gene  1 188 185 -0.7035232153244666 1 35147.0 -0.7035232153244666 1
gene  1 1 186 0.6218558999960766 0 35150.0 0.6218558999960766 1
gene  1 3 186 1.2262239357538403 0 35152.0 1.2262239357538403 1
gene  1 4 186 -0.3484218384292792 0 35153.0 -0.3484218384292792 1
gene  1 6 186 2.446164378892233 0 35155.0 2.446164378892233 1
gene  1 7 186 -1.3051226802920017 0 35156.0 -1.3051226802920017 1
gene  1 17 186 -0.15955858883675678 0 35166.0 -0.15955858883675678 1
gene  1 23 186 3.6800915168621993 0 35172.0 3.6800915168621993 1
gene  1 28 186 -0.10838926053888831 0 35177.0 -0.10838926053888831 1
gene  1 33 186 -1.9487722099345706 0 35182.0 -1.9487722099345706 1
gene  1 36 186 0.27164806185002777 0 35185.0 0.27164806185002777 1
gene  1 58 186 -1.3917035565725884 0 35207.0 -1.3917035565725884 1
gene  1 69 186 1.5901109434094345 0 35218.0 1.5901109434094345 1
gene  1 70 186 -1.5614996902211142 0 35219.0 -1.5614996902211142 1
gene  1 72 186 -1.7207691290361393 0 35221.0 -1.7207691290361393 0
gene  1 10 187 -1.427720781730934 0 35349.0 -1.427720781730934 1
gene  1 25 187 -4.006145687877162 0 35364.0 -4.006145687877162 1
gene  1 31 187 2.380799476257027 0 35370.0 2.380799476257027 1
gene  1 33 187 0.30712394601901116 0 35372.0 0.30712394601901116 1
gene  1 47 187 -1.484827402917415 0 35386.0 -1.484827402917415 1
gene  1 57 187 -6.83581693464345 0 35396.0 -6.83581693464345 1
gene  1 183 187 -0.9789654098241427 0 35522.0 -0.9789654098241427 1
gene  1 184 187 2.366307876870492 0 35523.0 2.366307876870492 1
gene  1 5 188 1.1309176020277796 0 35534.0 1.1309176020277796 1
gene  1 6 188 -4.948775060424923 0 35535.0 -4.948775060424923 1
gene  1 12 188 2.048792529303865 0 35541.0 2.048792529303865 1
gene  1 28 188 0.6871398296363875 0 35557.0 0.6871398296363875 1
gene  1 32 188 2.190134895187063 0 35561.0 2.190134895187063 1
gene  1 35 188 4.615123708573637 0 35564.0 4.615123708573637 1
gene  1 57 188 -0.2004637350182047 0 35586.0 -0.2004637350182047 1
gene  1 172 188 -1.703705116477582 0 35701.0 -1.703705116477582 1
gene  1 14 189 -0.2742538690482296 0 35733.0 -0.2742538690482296 1
gene  1 17 189 1.6345834106259192 0 35736.0 1.6345834106259192 1
gene  1 27 189 -0.6469873603285476 0 35746.0 -0.6469873603285476 1
gene  1 37 189 3.8670259864239562 0 35756.0 3.8670259864239562 1
gene  1 43 189 -2.630427617421957 0 35762.0 -2.630427617421957 1
gene  1 51 189 -4.7135926308714975 0 35770.0 -4.7135926308714975 1
gene  1 56 189 2.050250888627565 0 35775.0 2.050250888627565 1
gene  1 59 189 2.2694420878958996 0 35778.0 2.2694420878958996 1
gene  1 65 189 0.49784170751465595 0 35784.0 0.49784170751465595 1
gene  1 73 189 -1.7967834936709228 0 35792.0 -1.7967834936709228 1
gene  1 74 189 1.7042946917129724 0 35793.0 1.7042946917129724 1
gene  1 178 189 1.3009115583411042 0 35897.0 1.3009115583411042 1
gene  1 1 190 1.7758457326608839 0 35910.0 1.7758457326608839 1
gene  1 4 190 3.4493244928111206 0 35913.0 3.4493244928111206 1
gene  1 15 190 -4.369110116370315 0 35924.0 -4.369110116370315 1
gene  1 22 190 0.694699611710114 0 35931.0 0.694699611710114 1
gene  1 33 190 -3.949473935868219 0 35942.0 -3.949473935868219 1
gene  1 58 190 -2.366110786806888 0 35967.0 -2.366110786806888 1
gene  1 60 190 0.9008407765175739 0 35969.0 0.9008407765175739 1
gene  1 67 190 4.558041131688238 0 35976.0 4.558041131688238 1
gene  1 179 190 -1.8584502763466615 0 36088.0 -1.8584502763466615 1
gene  1 181 190 -0.8823862235802102 0 36090.0 -0.8823862235802102 1
gene  1 182 190 0.897593583933173 0 36091.0 0.897593583933173 1
gene  1 184 190 -1.3493258805297623 0 36093.0 -1.3493258805297623 1
gene  1 186 190 -0.28173445370799105 0 36095.0 -0.28173445370799105 1
gene  1 187 190 -3.7090151771535584 0 36096.0 -3.7090151771535584 1
gene  1 65 188 -1.0416057087608352 0 36109.0 -1.0416057087608352 1
gene  1 1 193 4.054586760427803 0 36113.0 4.054586760427803 1
gene  1 193 190 0.3498116202560375 0 36114.0 0.3498116202560375 1
gene  1 29 68 -3.113750334502649 0 36116.0 -3.113750334502649 1
gene  1 74 51 -2.2887796944332126 0 36124.0 -2.2887796944332126 1
gene  1 9 179 7.697273897215674 0 36131.0 7.697273897215674 1
gene  1 8 61 -2.2467473803396434 0 36157.0 -2.2467473803396434 1
gene  1 9 72 -2.2661415069235726 0 36168.0 -2.2661415069235726 1
gene  1 185 180 2.3233573342663516 0 36224.0 2.3233573342663516 1
gene  1 10 67 2.6982901329702846 0 36252.0 2.6982901329702846 1
gene  1 39 176 0.3315774664969548 0 36254.0 0.3315774664969548 1
gene  1 182 63 -0.7449885004311436 0 36262.0 -0.7449885004311436 1
gene  1 72 234 2.9992590738334908 0 36293.0 2.9992590738334908 1
gene  1 234 186 1.904968341511263 0 36294.0 1.904968341511263 1
genomeend 1
/* Organism # 002 Fitness:  544,833 Error:  1000,000                      */
genomestart  2
trait 1 0.11021815520324857 0.9500468561812224 0.0 0.0 0.0 0.0 0.0 0.17449252573720908 
node 1 1 1 1
node 2 1 1 1
node 3 1 1 1
node 4 1 1 1
node 5 1 1 1
node 6 1 1 1
node 7 1 1 1
node 8 1 1 1
node 9 1 1 1
node 10 1 1 1
node 11 1 1 1
node 12 1 1 1
node 13 1 1 1
node 14 1 1 1
node 15 1 1 1
node 16 1 1 1
node 17 1 1 1
node 18 1 1 1
node 19 1 1 1
node 20 1 1 1
node 21 1 1 1
node 22 1 1 1
node 23 1 1 1
node 24 1 1 1
node 25 1 1 1
node 26 1 1 1
node 27 1 1 1
node 28 1 1 1
node 29 1 1 1
node 30 1 1 1
node 31 1 1 1
node 32 1 1 1
node 33 1 1 1
node 34 1 1 1
node 35 1 1 1
node 36 1 1 1
node 37 1 1 1
node 38 1 1 1
node 39 1 1 1
node 40 1 1 1
node 41 1 1 1
node 42 1 1 1
node 43 1 1 1
node 44 1 1 1
node 45 1 1 1
node 46 1 1 1
node 47 1 1 1
node 48 1 1 1
node 49 1 1 1
node 50 1 1 3
node 51 1 0 0
node 52 1 0 0
node 53 1 0 0
node 54 1 0 0
node 55 1 0 0
node 56 1 0 0
node 57 1 0 0
node 58 1 0 0
node 59 1 0 0
node 60 1 0 0
node 61 1 0 0
node 62 1 0 0
node 63 1 0 0
node 64 1 0 0
node 65 1 0 0
node 66 1 0 0
node 67 1 0 0
node 68 1 0 0
node 69 1 0 0
node 70 1 0 0
node 71 1 0 0
node 72 1 0 0
node 73 1 0 0
node 74 1 0 0
node 75 1 0 0
node 171 1 0 2
node 172 1 0 2
node 173 1 0 2
node 174 1 0 2
node 175 1 0 2
node 176 1 0 2
node 177 1 0 2
node 178 1 0 2
node 179 1 0 2
node 180 1 0 2
node 181 1 0 2
node 182 1 0 2
node 183 1 0 2
node 184 1 0 2
node 185 1 0 2
node 186 1 0 2
node 187 1 0 2
node 188 1 0 2
node 189 1 0 2
node 190 1 0 2
node 193 1 0 0
node 234 1 0 0
gene  1 28 51 -0.8239981675852879 0 9527.0 -0.8239981675852879 1
gene  1 33 51 -2.7398409929408283 0 9532.0 -2.7398409929408283 1
gene  1 36 51 -3.0925826828259764 0 9535.0 -3.0925826828259764 1
gene  1 40 51 -7.468465153171398 0 9539.0 -7.468465153171398 1
gene  1 42 51 1.8251350959451098 0 9541.0 1.8251350959451098 1
gene  1 54 51 1.056549511828587 1 9553.0 1.056549511828587 1
gene  1 57 51 0.44927693442211236 1 9556.0 0.44927693442211236 1
gene  1 68 51 -3.306816861268805 1 9567.0 -3.306816861268805 1
gene  1 174 51 -3.301536596849704 1 9673.0 -3.301536596849704 1
gene  1 183 51 -1.9660937516583226 1 9682.0 -1.9660937516583226 1
gene  1 184 51 10.60535914250461 1 9683.0 10.60535914250461 1
gene  1 189 51 12.996758945048134 1 9688.0 12.996758945048134 1
gene  1 3 52 1.4059263578572252 0 9692.0 1.4059263578572252 1
gene  1 6 52 9.969771725659173 0 9695.0 9.969771725659173 1
gene  1 24 52 -0.3087796855304682 0 9713.0 -0.3087796855304682 1
gene  1 29 52 -3.878545360033047 0 9718.0 -3.878545360033047 1
gene  1 31 52 -2.041585689996615 0 9720.0 -2.041585689996615 1
gene  1 35 52 -2.1592923201221415 0 9724.0 -2.1592923201221415 1
gene  1 63 52 -1.7984150414789082 1 9752.0 -1.7984150414789082 1
gene  1 179 52 -0.026925546783882037 1 9868.0 -0.026925546783882037 1
gene  1 183 52 -3.5284015571668266 1 9872.0 -3.5284015571668266 1
gene  1 184 52 -5.675611755961789 1 9873.0 -5.675611755961789 1
gene  1 185 52 2.407969396154904 1 9874.0 2.407969396154904 1
gene  1 5 53 6.240045583577432 0 9884.0 6.240045583577432 1
gene  1 6 53 2.271126752785537 0 9885.0 2.271126752785537 1
gene  1 10 53 3.236158590992649 0 9889.0 3.236158590992649 1
gene  1 33 53 1.6289610482994552 0 9912.0 1.6289610482994552 1
gene  1 35 53 0.07134763743870898 0 9914.0 0.07134763743870898 1
gene  1 38 53 -0.2677771633210271 0 9917.0 -0.2677771633210271 1
gene  1 45 53 -12.534840365157262 0 9924.0 -12.534840365157262 1
gene  1 71 53 -1.24633388126868 1 9950.0 -1.24633388126868 1
gene  1 16 54 -0.748145603096187 0 10085.0 -0.748145603096187 1
gene  1 19 54 -1.078109387358218 0 10088.0 -1.078109387358218 1
gene  1 36 54 -2.144800984683433 0 10105.0 -2.144800984683433 1
gene  1 42 54 2.707027750394042 0 10111.0 2.707027750394042 1
gene  1 58 54 -7.035153670637322 1 10127.0 -7.035153670637322 1
gene  1 62 54 -1.6924149616362243 1 10131.0 -1.6924149616362243 1
gene  1 73 54 -0.8200823385975118 1 10142.0 -0.8200823385975118 1
gene  1 177 54 1.1516338955523455 1 10246.0 1.1516338955523455 1
gene  1 180 54 -1.5171436348200305 1 10249.0 -1.5171436348200305 1
gene  1 190 54 -3.233744548412537 1 10259.0 -3.233744548412537 1
gene  1 20 55 -11.446434089066464 0 10279.0 -11.446434089066464 1
gene  1 31 55 5.37907857719194 0 10290.0 5.37907857719194 1
gene  1 35 55 2.1143673256720756 0 10294.0 2.1143673256720756 1
gene  1 41 55 -0.1476824544401778 0 10300.0 -0.1476824544401778 1
gene  1 47 55 3.289502523579541 0 10306.0 3.289502523579541 1
gene  1 52 55 -6.161377756174217 0 10311.0 -6.161377756174217 1
gene  1 69 55 2.4543899980378683 1 10328.0 2.4543899980378683 1
gene  1 75 55 0.7558224699535485 1 10334.0 0.7558224699535485 1
gene  1 187 55 -0.16001889850349782 1 10446.0 -0.16001889850349782 1
gene  1 7 56 0.461865018084045 0 10456.0 0.461865018084045 1
gene  1 11 56 5.482495717542973 0 10460.0 5.482495717542973 1
gene  1 13 56 -0.9037695749980612 0 10462.0 -0.9037695749980612 1
gene  1 36 56 -3.801373006061781 0 10485.0 -3.801373006061781 1
gene  1 41 56 -3.4758819958419473 0 10490.0 -3.4758819958419473 1
gene  1 44 56 -0.07215524958511743 0 10493.0 -0.07215524958511743 1
gene  1 46 56 10.725150720720405 0 10495.0 10.725150720720405 1
gene  1 49 56 -1.8079121454613847 0 10498.0 -1.8079121454613847 1
gene  1 68 56 -1.8210820137220862 1 10517.0 -1.8210820137220862 1
gene  1 179 56 -1.4935899612224477 1 10628.0 -1.4935899612224477 1
gene  1 183 56 -0.7023902773138051 1 10632.0 -0.7023902773138051 1
gene  1 3 57 -1.373788642923648 0 10642.0 -1.373788642923648 1
gene  1 19 57 6.390034324298153 0 10658.0 6.390034324298153 1
gene  1 22 57 3.3705139986865906 0 10661.0 3.3705139986865906 1
gene  1 28 57 -4.596562923283048 0 10667.0 -4.596562923283048 1
gene  1 30 57 1.8472474148390448 0 10669.0 1.8472474148390448 1
gene  1 35 57 -2.027235769590402 0 10674.0 -2.027235769590402 1
gene  1 47 57 -1.7660409674134114 0 10686.0 -1.7660409674134114 1
gene  1 59 57 -10.318148528714248 1 10698.0 -10.318148528714248 1
gene  1 60 57 -9.618151234570698 1 10699.0 -9.618151234570698 1
gene  1 187 57 5.140949355616725 1 10826.0 5.140949355616725 1
gene  1 5 58 9.950298171884423 0 10834.0 9.950298171884423 1
gene  1 14 58 -2.3236461187350623 0 10843.0 -2.3236461187350623 1
gene  1 15 58 -0.48589165680205015 0 10844.0 -0.48589165680205015 1
gene  1 24 58 -7.424325266566436 0 10853.0 -7.424325266566436 1
gene  1 32 58 1.7166608253001954 0 10861.0 1.7166608253001954 1
gene  1 43 58 3.0174215936704556 0 10872.0 3.0174215936704556 1
gene  1 49 58 -4.162579363757616 0 10878.0 -4.162579363757616 1
gene  1 53 58 -1.3216766380040392 0 10882.0 -1.3216766380040392 1
gene  1 62 58 -2.5146924155367674 1 10891.0 -2.5146924155367674 1
gene  1 64 58 0.11602577470832931 1 10893.0 0.11602577470832931 1
gene  1 69 58 -20.074583553726818 1 10898.0 -20.074583553726818 1
gene  1 182 58 1.3735575978369896 1 11011.0 1.3735575978369896 1
gene  1 1 59 -0.5318221665646976 0 11020.0 -0.5318221665646976 1
gene  1 4 59 3.7912900863375523 0 11023.0 3.7912900863375523 1
gene  1 27 59 -4.51715111704295 0 11046.0 -4.51715111704295 1
gene  1 34 59 1.6185725685144594 0 11053.0 1.6185725685144594 1
gene  1 37 59 4.189545509660336 0 11056.0 4.189545509660336 1
gene  1 44 59 -1.8697362767956107 0 11063.0 -1.8697362767956107 1
gene  1 59 59 0.291110846161433 1 11078.0 0.291110846161433 1
gene  1 73 59 0.8759193535822893 1 11092.0 0.8759193535822893 1
gene  1 75 59 -5.289902729601639 1 11094.0 -5.289902729601639 1
gene  1 183 59 0.09408036831401612 1 11202.0 0.09408036831401612 1
gene  1 185 59 6.780117214738256 1 11204.0 6.780117214738256 1
gene  1 8 60 4.850454182386722 0 11217.0 4.850454182386722 1
gene  1 10 60 -2.390118961245985 0 11219.0 -2.390118961245985 1
gene  1 40 60 0.2904425009645534 0 11249.0 0.2904425009645534 1
gene  1 45 60 4.69836171016143 0 11254.0 4.69836171016143 1
gene  1 61 60 -0.3588988352755845 1 11270.0 -0.3588988352755845 1
gene  1 72 60 3.1652812048022856 1 11281.0 3.1652812048022856 1
gene  1 177 60 2.4929137282126748 1 11386.0 2.4929137282126748 1
gene  1 179 60 -2.673504446128755 1 11388.0 -2.673504446128755 1
gene  1 187 60 11.262527697510402 1 11396.0 11.262527697510402 1
gene  1 7 61 1.930855338128401 0 11406.0 1.930855338128401 1
gene  1 15 61 -0.8551545616632489 0 11414.0 -0.8551545616632489 1
gene  1 22 61 -7.6463250043725814 0 11421.0 -7.6463250043725814 1
gene  1 28 61 -2.6629987705691427 0 11427.0 -2.6629987705691427 1
gene  1 36 61 -1.8837362090774943 0 11435.0 -1.8837362090774943 1
gene  1 53 61 -1.7332553052676851 0 11452.0 -1.7332553052676851 1
gene  1 54 61 2.2003082104004914 0 11453.0 2.2003082104004914 1
gene  1 67 61 0.7766635296304156 1 11466.0 0.7766635296304156 1
gene  1 177 61 2.6841315603545484 1 11576.0 2.6841315603545484 1
gene  1 184 61 3.104937932665533 1 11583.0 3.104937932665533 1
gene  1 6 62 -0.6678020660491569 0 11595.0 -0.6678020660491569 1
gene  1 11 62 0.26784348540048963 0 11600.0 0.26784348540048963 1
gene  1 15 62 -2.921200605228017 0 11604.0 -2.921200605228017 1
gene  1 26 62 -0.563576606444216 0 11615.0 -0.563576606444216 1
gene  1 53 62 -3.8639786877516173 0 11642.0 -3.8639786877516173 1
gene  1 68 62 10.49793884151119 1 11657.0 10.49793884151119 1
gene  1 72 62 1.774229087668279 1 11661.0 1.774229087668279 1
gene  1 174 62 -0.3834712053546585 1 11763.0 -0.3834712053546585 1
gene  1 175 62 -5.646885959796171 1 11764.0 -5.646885959796171 1
gene  1 184 62 3.9114498207039667 1 11773.0 3.9114498207039667 1
gene  1 185 62 -3.06420949945477 1 11774.0 -3.06420949945477 1
gene  1 188 62 1.0199569678895979 1 11777.0 1.0199569678895979 1
gene  1 31 63 14.587256025843587 0 11810.0 14.587256025843587 1
gene  1 32 63 2.0315071202701813 0 11811.0 2.0315071202701813 1
gene  1 37 63 -7.0441996791963035 0 11816.0 -7.0441996791963035 1
gene  1 38 63 -0.9884377618549369 0 11817.0 -0.9884377618549369 1
gene  1 42 63 -4.0036810807392325 0 11821.0 -4.0036810807392325 1
gene  1 46 63 -1.411470536097046 0 11825.0 -1.411470536097046 1
gene  1 48 63 -3.1914739962067453 0 11827.0 -3.1914739962067453 1
gene  1 50 63 0.7242135213870424 0 11829.0 0.7242135213870424 1
gene  1 60 63 4.6660213125908685 0 11839.0 4.6660213125908685 1
gene  1 63 63 2.0391548340709478 1 11842.0 2.0391548340709478 1
gene  1 72 63 -3.79253962572449 1 11851.0 -3.79253962572449 1
gene  1 74 63 -3.1629577763382692 1 11853.0 -3.1629577763382692 1
gene  1 178 63 4.314693720627799 1 11957.0 4.314693720627799 1
gene  1 180 63 -1.024747534551551 1 11959.0 -1.024747534551551 1
gene  1 181 63 3.6373646952159415 1 11960.0 3.6373646952159415 1
gene  1 8 64 3.783661577057239 0 11977.0 3.783661577057239 1
gene  1 11 64 5.022928800232417 0 11980.0 5.022928800232417 1
gene  1 20 64 -0.5165136690472607 0 11989.0 -0.5165136690472607 1
gene  1 27 64 -2.485850515525713 0 11996.0 -2.485850515525713 1
gene  1 41 64 -0.6255079829961339 0 12010.0 -0.6255079829961339 1
gene  1 44 64 -5.803051659682562 0 12013.0 -5.803051659682562 1
gene  1 49 64 4.3382059027743525 0 12018.0 4.3382059027743525 1
gene  1 50 64 -4.702999083485283 0 12019.0 -4.702999083485283 1
gene  1 53 64 -2.022442389334896 0 12022.0 -2.022442389334896 1
gene  1 59 64 1.1460153941492717 0 12028.0 1.1460153941492717 1
gene  1 70 64 0.5396444634748845 1 12039.0 0.5396444634748845 1
gene  1 176 64 11.609504747557528 1 12145.0 11.609504747557528 1
gene  1 179 64 -5.796585395707426 1 12148.0 -5.796585395707426 1
gene  1 183 64 -2.247365460061709 1 12152.0 -2.247365460061709 1
gene  1 184 64 -11.590059761153826 1 12153.0 -11.590059761153826 1
gene  1 185 64 1.9503344883861526 1 12154.0 1.9503344883861526 1
gene  1 8 65 -5.439127353937238 0 12167.0 -5.439127353937238 1
gene  1 13 65 -3.341235998996913 0 12172.0 -3.341235998996913 1
gene  1 18 65 -7.286202204885248 0 12177.0 -7.286202204885248 1
gene  1 39 65 2.1710247296006986 0 12198.0 2.1710247296006986 1
gene  1 53 65 1.0911748204809555 0 12212.0 1.0911748204809555 1
gene  1 69 65 -2.85173531887481 1 12228.0 -2.85173531887481 1
gene  1 70 65 4.177976142053157 1 12229.0 4.177976142053157 1
gene  1 175 65 5.141638586801166 1 12334.0 5.141638586801166 1
gene  1 176 65 -4.789337990295701 1 12335.0 -4.789337990295701 1
gene  1 177 65 2.3751136946298375 1 12336.0 2.3751136946298375 1
gene  1 185 65 -0.14190885574915435 1 12344.0 -0.14190885574915435 1
gene  1 1 66 -0.6857355478434921 0 12350.0 -0.6857355478434921 1
gene  1 4 66 0.03736871741601089 0 12353.0 0.03736871741601089 1
gene  1 18 66 0.9660164947951837 0 12367.0 0.9660164947951837 1
gene  1 21 66 -2.0224504581301215 0 12370.0 -2.0224504581301215 1
gene  1 43 66 1.6743681269766695 0 12392.0 1.6743681269766695 1
gene  1 47 66 0.7705265908536398 0 12396.0 0.7705265908536398 1
gene  1 50 66 -0.16525016684969906 0 12399.0 -0.16525016684969906 1
gene  1 60 66 3.916701144302518 0 12409.0 3.916701144302518 1
gene  1 62 66 5.0231236954055705 0 12411.0 5.0231236954055705 1
gene  1 66 66 -3.281708485743307 1 12415.0 -3.281708485743307 1
gene  1 184 66 -1.8091285720519046 1 12533.0 -1.8091285720519046 1
gene  1 8 67 -5.0243780636533 0 12547.0 -5.0243780636533 1
gene  1 38 67 -1.4384564690507393 0 12577.0 -1.4384564690507393 1
gene  1 46 67 0.18492384488080904 0 12585.0 0.18492384488080904 1
gene  1 49 67 -2.680476073851491 0 12588.0 -2.680476073851491 1
gene  1 57 67 -4.360298893679023 0 12596.0 -4.360298893679023 1
gene  1 61 67 2.4319623627208014 0 12600.0 2.4319623627208014 1
gene  1 72 67 0.9049324408761736 1 12611.0 0.9049324408761736 1
gene  1 177 67 -2.066575061263544 1 12716.0 -2.066575061263544 1
gene  1 182 67 -2.197607900472172 1 12721.0 -2.197607900472172 1
gene  1 185 67 7.933270762267946 1 12724.0 7.933270762267946 1
gene  1 189 67 0.46087969808554174 1 12728.0 0.46087969808554174 1
gene  1 5 68 3.175808614109568 0 12734.0 3.175808614109568 1
gene  1 16 68 3.137249656333209 0 12745.0 3.137249656333209 1
gene  1 40 68 3.366050261362358 0 12769.0 3.366050261362358 1
gene  1 41 68 2.4227028673415463 0 12770.0 2.4227028673415463 1
gene  1 42 68 -10.554746673060407 0 12771.0 -10.554746673060407 1
gene  1 71 68 -8.456300073386151 1 12800.0 -8.456300073386151 1
gene  1 185 68 1.0407717208566434 1 12914.0 1.0407717208566434 1
gene  1 6 69 -0.6658433992726165 0 12925.0 -0.6658433992726165 1
gene  1 16 69 -4.497230109430948 0 12935.0 -4.497230109430948 1
gene  1 19 69 0.7234515005604529 0 12938.0 0.7234515005604529 1
gene  1 44 69 -5.445800569780909 0 12963.0 -5.445800569780909 1
gene  1 45 69 -1.4104240459474164 0 12964.0 -1.4104240459474164 1
gene  1 65 69 -7.848941214651444 0 12984.0 -7.848941214651444 1
gene  1 171 69 -2.9694135211787263 1 13090.0 -2.9694135211787263 1
gene  1 3 70 -0.9940321557912402 0 13112.0 -0.9940321557912402 1
gene  1 39 70 1.777181501873541 0 13148.0 1.777181501873541 1
gene  1 60 70 -0.8226426017645225 0 13169.0 -0.8226426017645225 1
gene  1 171 70 -2.688133693459303 1 13280.0 -2.688133693459303 1
gene  1 181 70 -5.196010369321309 1 13290.0 -5.196010369321309 1
gene  1 183 70 -3.4076469747726716 1 13292.0 -3.4076469747726716 1
gene  1 11 71 -2.9445618548288124 0 13310.0 -2.9445618548288124 1
gene  1 15 71 -1.4137583300121348 0 13314.0 -1.4137583300121348 1
gene  1 30 71 -3.9282381407057656 0 13329.0 -3.9282381407057656 1
gene  1 33 71 -4.121575875859984 0 13332.0 -4.121575875859984 1
gene  1 34 71 -2.2794059886792284 0 13333.0 -2.2794059886792284 1
gene  1 48 71 -0.8498683737984511 0 13347.0 -0.8498683737984511 1
gene  1 50 71 -2.352887896259768 0 13349.0 -2.352887896259768 1
gene  1 51 71 -0.45371199126322215 0 13350.0 -0.45371199126322215 1
gene  1 57 71 1.689939142118169 0 13356.0 1.689939142118169 1
gene  1 73 71 3.0684326256522003 1 13372.0 3.0684326256522003 1
gene  1 185 71 1.5993290453817037 1 13484.0 1.5993290453817037 1
gene  1 24 72 0.9866759597531427 0 13513.0 0.9866759597531427 1
gene  1 51 72 -1.948491527911294 0 13540.0 -1.948491527911294 1
gene  1 54 72 1.5786201047979018 0 13543.0 1.5786201047979018 1
gene  1 60 72 -3.8046545289141562 0 13549.0 -3.8046545289141562 1
gene  1 3 73 -0.49619174538931077 0 13682.0 -0.49619174538931077 1
gene  1 18 73 5.427246699557285 0 13697.0 5.427246699557285 1
gene  1 30 73 4.796200783583721 0 13709.0 4.796200783583721 1
gene  1 41 73 1.4695501714295323 0 13720.0 1.4695501714295323 1
gene  1 54 73 -6.297941765947241 0 13733.0 -6.297941765947241 1
gene  1 59 73 0.12729201121895617 0 13738.0 0.12729201121895617 1
gene  1 60 73 4.661383869106267 0 13739.0 4.661383869106267 1
gene  1 179 73 -1.097469407474307 1 13858.0 -1.097469407474307 1
gene  1 189 73 -2.69858739795786 1 13868.0 -2.69858739795786 1
gene  1 31 74 0.33926076734464766 0 13900.0 0.33926076734464766 1
gene  1 38 74 2.4119341752150056 0 13907.0 2.4119341752150056 1
gene  1 67 74 0.03337395216275091 0 13936.0 0.03337395216275091 1
gene  1 74 74 -1.6096835054313743 1 13943.0 -1.6096835054313743 1
gene  1 188 74 -1.0942479562409824 1 14057.0 -1.0942479562409824 1
gene  1 2 75 2.246171039089049 0 14061.0 2.246171039089049 1
gene  1 10 75 -0.6349973374193538 0 14069.0 -0.6349973374193538 1
gene  1 12 75 -7.912973470301527 0 14071.0 -7.912973470301527 1
gene  1 15 75 -3.8095135440081496 0 14074.0 -3.8095135440081496 1
gene  1 18 75 -2.1994770248693367 0 14077.0 -2.1994770248693367 1
gene  1 43 75 4.734060249115006 0 14102.0 4.734060249115006 1
gene  1 46 75 -3.150100097214474 0 14105.0 -3.150100097214474 1
gene  1 56 75 -1.8566917514917625 0 14115.0 -1.8566917514917625 1
gene  1 57 75 1.116592637832583 0 14116.0 1.116592637832583 1
gene  1 177 75 1.0004771130892398 1 14236.0 1.0004771130892398 1
gene  1 183 75 -8.729898932744105 1 14242.0 -8.729898932744105 1
gene  1 3 171 1.5171144892507518 0 32302.0 1.5171144892507518 1
gene  1 10 171 2.3145138191696693 0 32309.0 2.3145138191696693 1
gene  1 18 171 -0.033961286175047956 0 32317.0 -0.033961286175047956 1
gene  1 35 171 1.053870614606358 0 32334.0 1.053870614606358 1
gene  1 47 171 1.9570730685219284 0 32346.0 1.9570730685219284 1
gene  1 48 171 9.545548989754069 0 32347.0 9.545548989754069 1
gene  1 63 171 0.6270384436587091 0 32362.0 0.6270384436587091 1
gene  1 74 171 -1.5818384162520933 0 32373.0 -1.5818384162520933 1
gene  1 171 171 -0.5723414902405322 1 32470.0 -0.5723414902405322 1
gene  1 180 171 -6.974230341996246 1 32479.0 -6.974230341996246 1
gene  1 181 171 -2.332275484227313 1 32480.0 -2.332275484227313 1
gene  1 16 172 0.3290293097689472 0 32505.0 0.3290293097689472 1
gene  1 38 172 -0.5799380864200654 0 32527.0 -0.5799380864200654 1
gene  1 58 172 -6.201591121873561 0 32547.0 -6.201591121873561 1
gene  1 59 172 1.3084824049735435 0 32548.0 1.3084824049735435 1
gene  1 60 172 -7.016964964567654 0 32549.0 -7.016964964567654 1
gene  1 73 172 -0.25617944450689845 0 32562.0 -0.25617944450689845 1
gene  1 171 172 -0.28465790800765045 0 32660.0 -0.28465790800765045 1
gene  1 173 172 -1.1874188510930441 1 32662.0 -1.1874188510930441 1
gene  1 7 173 0.8833140244578352 0 32686.0 0.8833140244578352 1
gene  1 29 173 -1.8074472224899005 0 32708.0 -1.8074472224899005 1
gene  1 30 173 0.3541569147872514 0 32709.0 0.3541569147872514 1
gene  1 38 173 -6.479755899889822 0 32717.0 -6.479755899889822 1
gene  1 56 173 -5.40933300081439 0 32735.0 -5.40933300081439 1
gene  1 68 173 0.7231197763721324 0 32747.0 0.7231197763721324 1
gene  1 72 173 2.1637861352808168 0 32751.0 2.1637861352808168 1
gene  1 75 173 -9.898870191632147 0 32754.0 -9.898870191632147 1
gene  1 180 173 -2.644548028734266 1 32859.0 -2.644548028734266 1
gene  1 45 174 -1.2978977089902788 0 32914.0 -1.2978977089902788 1
gene  1 174 174 5.283026674521974 1 33043.0 5.283026674521974 1
gene  1 180 174 3.0307370420209634 1 33049.0 3.0307370420209634 1
gene  1 186 174 -5.711841928431673 1 33055.0 -5.711841928431673 1
gene  1 2 175 -4.537431274562383 0 33061.0 -4.537431274562383 1
gene  1 11 175 2.4907893232832876 0 33070.0 2.4907893232832876 1
gene  1 26 175 -6.606209378714529 0 33085.0 -6.606209378714529 1
gene  1 37 175 0.8868620334897488 0 33096.0 0.8868620334897488 1
gene  1 43 175 0.08883521824963792 0 33102.0 0.08883521824963792 1
gene  1 48 175 2.134932716426986 0 33107.0 2.134932716426986 1
gene  1 51 175 3.543769771562715 0 33110.0 3.543769771562715 1
gene  1 64 175 -0.12934039563342026 0 33123.0 -0.12934039563342026 1
gene  1 70 175 0.536805782246462 0 33129.0 0.536805782246462 1
gene  1 71 175 -3.8744602570617457 0 33130.0 -3.8744602570617457 1
gene  1 177 175 1.7982269750299955 1 33236.0 1.7982269750299955 1
gene  1 178 175 -1.392064172125867 1 33237.0 -1.392064172125867 1
gene  1 181 175 -0.684594685439701 1 33240.0 -0.684594685439701 1
gene  1 184 175 7.259248666332469 1 33243.0 7.259248666332469 1
gene  1 186 175 -6.042861873580706 1 33245.0 -6.042861873580706 1
gene  1 2 176 0.7589405564089557 0 33251.0 0.7589405564089557 1
gene  1 8 176 -1.4665782115306927 0 33257.0 -1.4665782115306927 1
gene  1 9 176 -3.449799171056883 0 33258.0 -3.449799171056883 1
gene  1 12 176 -0.33301074618609694 0 33261.0 -0.33301074618609694 1
gene  1 15 176 0.8101404700101942 0 33264.0 0.8101404700101942 1
gene  1 16 176 1.2209807190686228 0 33265.0 1.2209807190686228 1
gene  1 35 176 3.61538056889159 0 33284.0 3.61538056889159 1
gene  1 37 176 1.1394389727242324 0 33286.0 1.1394389727242324 1
gene  1 46 176 2.216091232745074 0 33295.0 2.216091232745074 1
gene  1 62 176 0.576485904037924 0 33311.0 0.576485904037924 1
gene  1 64 176 3.994193543753079 0 33313.0 3.994193543753079 1
gene  1 171 176 -3.1487495407121715 0 33420.0 -3.1487495407121715 1
gene  1 174 176 -0.7231144895461197 0 33423.0 -0.7231144895461197 1
gene  1 179 176 1.4337020565168626 1 33428.0 1.4337020565168626 1
gene  1 1 177 -0.9926851301248759 0 33440.0 -0.9926851301248759 1
gene  1 7 177 0.24397402940821467 0 33446.0 0.24397402940821467 1
gene  1 8 177 -1.7396365315700668 0 33447.0 -1.7396365315700668 1
gene  1 9 177 0.14814604549163307 0 33448.0 0.14814604549163307 1
gene  1 14 177 -2.457793323329453 0 33453.0 -2.457793323329453 1
gene  1 16 177 -4.433278373518909 0 33455.0 -4.433278373518909 1
gene  1 20 177 -2.813316211715481 0 33459.0 -2.813316211715481 1
gene  1 30 177 2.5102686529390428 0 33469.0 2.5102686529390428 1
gene  1 31 177 -5.373288331705837 0 33470.0 -5.373288331705837 1
gene  1 32 177 -1.3138493396305 0 33471.0 -1.3138493396305 1
gene  1 43 177 2.6302836590180947 0 33482.0 2.6302836590180947 1
gene  1 44 177 -13.056262262711913 0 33483.0 -13.056262262711913 1
gene  1 53 177 -4.125391676219695 0 33492.0 -4.125391676219695 1
gene  1 59 177 0.4657942176926177 0 33498.0 0.4657942176926177 1
gene  1 69 177 3.0954945226898625 0 33508.0 3.0954945226898625 1
gene  1 174 177 -2.8943869122621644 0 33613.0 -2.8943869122621644 1
gene  1 175 177 1.0417052550120656 0 33614.0 1.0417052550120656 1
gene  1 184 177 4.319403889139899 1 33623.0 4.319403889139899 1
gene  1 187 177 -12.475829537876205 1 33626.0 -12.475829537876205 1
gene  1 1 178 3.8461678163570108 0 33630.0 3.8461678163570108 1
gene  1 20 178 -9.21975035236589 0 33649.0 -9.21975035236589 1
gene  1 26 178 7.623699690706907 0 33655.0 7.623699690706907 1
gene  1 35 178 0.0611813459533761 0 33664.0 0.0611813459533761 1
gene  1 42 178 0.27184352729912487 0 33671.0 0.27184352729912487 1
gene  1 53 178 3.2076913902998125 0 33682.0 3.2076913902998125 1
gene  1 59 178 1.0256036777414494 0 33688.0 1.0256036777414494 1
gene  1 72 178 10.121454360663051 0 33701.0 10.121454360663051 1
gene  1 172 178 2.032390665680716 0 33801.0 2.032390665680716 1
gene  1 190 178 5.921693975057972 1 33819.0 5.921693975057972 1
gene  1 6 179 0.43821893267186596 0 33825.0 0.43821893267186596 1
gene  1 8 179 1.3270694459433452 0 33827.0 1.3270694459433452 1
gene  1 13 179 -1.7215417551985295 0 33832.0 -1.7215417551985295 1
gene  1 36 179 -1.601224161243719 0 33855.0 -1.601224161243719 1
gene  1 46 179 -1.2475029008677845 0 33865.0 -1.2475029008677845 1
gene  1 60 179 -1.4226489475119428 0 33879.0 -1.4226489475119428 1
gene  1 61 179 -0.636073288039219 0 33880.0 -0.636073288039219 1
gene  1 72 179 10.854405600166329 0 33891.0 10.854405600166329 1
gene  1 74 179 1.1168311149903682 0 33893.0 1.1168311149903682 1
gene  1 171 179 -2.3585342720741798 0 33990.0 -2.3585342720741798 1
gene  1 185 179 -1.8233553323186633 1 34004.0 -1.8233553323186633 1
gene  1 1 180 -2.79485320136134 0 34010.0 -2.79485320136134 1
gene  1 4 180 -6.409420405451526 0 34013.0 -6.409420405451526 1
gene  1 8 180 2.827366956063157 0 34017.0 2.827366956063157 1
gene  1 11 180 -9.806800692832745 0 34020.0 -9.806800692832745 1
gene  1 21 180 2.144638849402159 0 34030.0 2.144638849402159 1
gene  1 32 180 0.6106751718520085 0 34041.0 0.6106751718520085 1
gene  1 35 180 -2.2610152571320437 0 34044.0 -2.2610152571320437 1
gene  1 46 180 2.1541201174874907 0 34055.0 2.1541201174874907 1
gene  1 68 180 -7.525303060073245 0 34077.0 -7.525303060073245 1
gene  1 188 180 4.158982257154223 1 34197.0 4.158982257154223 1
gene  1 2 181 9.712839445610372 0 34201.0 9.712839445610372 1
gene  1 16 181 0.7176562759917235 0 34215.0 0.7176562759917235 1
gene  1 24 181 -6.721887476813387 0 34223.0 -6.721887476813387 1
gene  1 36 181 -0.9035352299388865 0 34235.0 -0.9035352299388865 1
gene  1 60 181 -5.749125232466391 0 34259.0 -5.749125232466391 1
gene  1 69 181 -0.3886776575670728 0 34268.0 -0.3886776575670728 1
gene  1 190 181 0.8159519099600998 1 34389.0 0.8159519099600998 1
gene  1 1 182 -4.1881114067629275 0 34390.0 -4.1881114067629275 1
gene  1 17 182 -1.4866812996625738 0 34406.0 -1.4866812996625738 1
gene  1 35 182 -3.7281694833076404 0 34424.0 -3.7281694833076404 1
gene  1 44 182 -3.6944557955912574 0 34433.0 -3.6944557955912574 1
gene  1 49 182 -12.816132255186364 0 34438.0 -12.816132255186364 1
gene  1 50 182 -3.9289959545877866 0 34439.0 -3.9289959545877866 1
gene  1 54 182 -2.8026108237927767 0 34443.0 -2.8026108237927767 1
gene  1 59 182 -2.324461295223468 0 34448.0 -2.324461295223468 1
gene  1 73 182 4.578997759497278 0 34462.0 4.578997759497278 1
gene  1 174 182 -1.6550106704048178 0 34563.0 -1.6550106704048178 1
gene  1 187 182 11.2701820602023 1 34576.0 11.2701820602023 1
gene  1 6 183 -3.6822828745494576 0 34585.0 -3.6822828745494576 1
gene  1 7 183 0.25679638833211427 0 34586.0 0.25679638833211427 1
gene  1 17 183 -7.297669915664716 0 34596.0 -7.297669915664716 1
gene  1 20 183 2.827627008687107 0 34599.0 2.827627008687107 1
gene  1 25 183 -0.576914754535544 0 34604.0 -0.576914754535544 1
gene  1 30 183 3.1460407892744655 0 34609.0 3.1460407892744655 1
gene  1 39 183 2.403085309203964 0 34618.0 2.403085309203964 1
gene  1 44 183 -1.373609965421 0 34623.0 -1.373609965421 1
gene  1 66 183 -0.0370446951361586 0 34645.0 -0.0370446951361586 1
gene  1 171 183 -3.3417144613160596 0 34750.0 -3.3417144613160596 1
gene  1 174 183 -1.610314366978331 0 34753.0 -1.610314366978331 1
gene  1 21 184 -0.7094373970124588 0 34790.0 -0.7094373970124588 1
gene  1 29 184 1.5966928118654715 0 34798.0 1.5966928118654715 1
gene  1 32 184 -0.7566004101726473 0 34801.0 -0.7566004101726473 1
gene  1 36 184 2.1509995735251777 0 34805.0 2.1509995735251777 1
gene  1 45 184 -0.5463230755121355 0 34814.0 -0.5463230755121355 1
gene  1 46 184 0.036460630328911336 0 34815.0 0.036460630328911336 1
gene  1 63 184 -0.2949475890301356 0 34832.0 -0.2949475890301356 1
gene  1 66 184 4.378191016724765 0 34835.0 4.378191016724765 1
gene  1 177 184 -1.6759491947988434 0 34946.0 -1.6759491947988434 1
gene  1 31 185 -4.061148256631661 0 34990.0 -4.061148256631661 1
gene  1 50 185 -0.12044853728959581 0 35009.0 -0.12044853728959581 1
gene  1 56 185 3.2564791384966365 0 35015.0 3.2564791384966365 1
gene  1 58 185 -4.73076753412857 0 35017.0 -4.73076753412857 1
gene  1 62 185 3.0597957251523575 0 35021.0 3.0597957251523575 1
gene  1 173 185 -0.8748241013641209 0 35132.0 -0.8748241013641209 1
gene  1 179 185 0.7373465807726859 0 35138.0 0.7373465807726859 1
gene  1 182 185 2.105553323198435 0 35141.0 2.105553323198435 1
gene  1 188 185 1.095319811266475 1 35147.0 1.095319811266475 1
gene  1 1 186 -0.5116612416156838 0 35150.0 -0.5116612416156838 1
gene  1 3 186 -0.8722835439471535 0 35152.0 -0.8722835439471535 1
gene  1 4 186 0.9928315455632373 0 35153.0 0.9928315455632373 1
gene  1 6 186 4.5328050646049265 0 35155.0 4.5328050646049265 1
gene  1 7 186 -0.5369417860903964 0 35156.0 -0.5369417860903964 1
gene  1 17 186 -2.3546934424749506 0 35166.0 -2.3546934424749506 1
gene  1 23 186 4.508853935729858 0 35172.0 4.508853935729858 1
gene  1 28 186 1.3993959825169096 0 35177.0 1.3993959825169096 1
gene  1 33 186 -2.6397451436642045 0 35182.0 -2.6397451436642045 1
gene  1 36 186 -1.677114031850973 0 35185.0 -1.677114031850973 1
gene  1 58 186 0.7620934756532305 0 35207.0 0.7620934756532305 1
gene  1 69 186 1.5289263011737235 0 35218.0 1.5289263011737235 1
gene  1 70 186 1.7155153042148938 0 35219.0 1.7155153042148938 1
gene  1 72 186 -0.5182150606562241 0 35221.0 -0.5182150606562241 0
gene  1 10 187 0.6604827159001312 0 35349.0 0.6604827159001312 1
gene  1 25 187 -7.487736533211491 0 35364.0 -7.487736533211491 1
gene  1 31 187 2.380799476257027 0 35370.0 2.380799476257027 1
gene  1 33 187 -0.46574193854822865 0 35372.0 -0.46574193854822865 1
gene  1 47 187 -0.5184703247925673 0 35386.0 -0.5184703247925673 1
gene  1 57 187 -5.939000002918213 0 35396.0 -5.939000002918213 1
gene  1 183 187 -0.6134806400672586 0 35522.0 -0.6134806400672586 1
gene  1 184 187 3.5324816152971676 0 35523.0 3.5324816152971676 1
gene  1 5 188 3.827205115709025 0 35534.0 3.827205115709025 1
gene  1 6 188 -3.408887753590496 0 35535.0 -3.408887753590496 1
gene  1 12 188 -2.3969889165474734 0 35541.0 -2.3969889165474734 1
gene  1 28 188 3.1697385077658433 0 35557.0 3.1697385077658433 1
gene  1 32 188 1.2377662070412336 0 35561.0 1.2377662070412336 1
gene  1 35 188 4.85463356123765 0 35564.0 4.85463356123765 1
gene  1 57 188 -3.099917082147755 0 35586.0 -3.099917082147755 1
gene  1 172 188 0.8594358100655654 0 35701.0 0.8594358100655654 1
gene  1 14 189 -0.4688433117042412 0 35733.0 -0.4688433117042412 1
gene  1 17 189 -0.307609881318595 0 35736.0 -0.307609881318595 1
gene  1 27 189 -2.010565506977156 0 35746.0 -2.010565506977156 1
gene  1 37 189 3.8670259864239562 0 35756.0 3.8670259864239562 1
gene  1 43 189 -3.4468904263349343 0 35762.0 -3.4468904263349343 1
gene  1 51 189 -2.3045681052948943 0 35770.0 -2.3045681052948943 1
gene  1 56 189 -0.2782854463364008 0 35775.0 -0.2782854463364008 1
gene  1 59 189 1.7404757769989534 0 35778.0 1.7404757769989534 1
gene  1 65 189 4.2887529960955035 0 35784.0 4.2887529960955035 1
gene  1 73 189 -3.8349075515932616 0 35792.0 -3.8349075515932616 1
gene  1 74 189 1.7042946917129724 0 35793.0 1.7042946917129724 1
gene  1 178 189 -4.420201186600379 0 35897.0 -4.420201186600379 1
gene  1 1 190 -2.1810282109003483 0 35910.0 -2.1810282109003483 1
gene  1 4 190 1.2733188440204062 0 35913.0 1.2733188440204062 1
gene  1 15 190 -4.940930784164584 0 35924.0 -4.940930784164584 1
gene  1 22 190 -1.9824829996207036 0 35931.0 -1.9824829996207036 1
gene  1 33 190 -3.463756756455001 0 35942.0 -3.463756756455001 1
gene  1 58 190 -0.16391664492006486 0 35967.0 -0.16391664492006486 1
gene  1 60 190 -1.7374533305769408 0 35969.0 -1.7374533305769408 1
gene  1 67 190 6.75194390005336 0 35976.0 6.75194390005336 1
gene  1 179 190 -4.877288298047381 0 36088.0 -4.877288298047381 1
gene  1 181 190 1.8529398376803627 0 36090.0 1.8529398376803627 1
gene  1 182 190 4.309710460137415 0 36091.0 4.309710460137415 1
gene  1 184 190 -0.36799291557214175 0 36093.0 -0.36799291557214175 1
gene  1 186 190 2.2950310878372364 0 36095.0 2.2950310878372364 1
gene  1 187 190 -6.050892679963647 0 36096.0 -6.050892679963647 1
gene  1 65 188 3.2454436511649343 0 36109.0 3.2454436511649343 1
gene  1 1 193 -0.15472992667751262 0 36113.0 -0.15472992667751262 1
gene  1 193 190 -1.184907477999014 0 36114.0 -1.184907477999014 1
gene  1 29 68 1.0746803612762121 0 36116.0 1.0746803612762121 1
gene  1 74 51 -1.8219506576532785 0 36124.0 -1.8219506576532785 1
gene  1 9 179 8.638094170596556 0 36131.0 8.638094170596556 1
gene  1 8 61 -0.39196323576953795 0 36157.0 -0.39196323576953795 1
gene  1 9 72 0.3821038296752277 0 36168.0 0.3821038296752277 1
gene  1 185 180 -3.498684014174549 0 36224.0 -3.498684014174549 1
gene  1 10 67 1.1434599177354279 0 36252.0 1.1434599177354279 1
gene  1 39 176 2.0995755642767424 0 36254.0 2.0995755642767424 1
gene  1 182 63 -1.9902723595636596 0 36262.0 -1.9902723595636596 1
gene  1 72 234 1.0 0 36293.0 1.0 1
gene  1 234 186 -2.358003993909487 0 36294.0 -2.358003993909487 1
genomeend 2
/*-------------------------------------------------------------------*/
/* Species # 002         : (size= 004) (AvfFit= 1133,836) (Age= 53,000)  */
/*-------------------------------------------------------------------*/
/* Organism # 003 Fitness:  990,109 Error:  1000,000                      */
genomestart  3
trait 1 0.0 0.0 0.2571762001738397 0.3801296697298625 0.957838460608976 0.0 0.0 0.6236705465660496 
node 1 1 1 1
node 2 1 1 1
node 3 1 1 1
node 4 1 1 1
node 5 1 1 1
node 6 1 1 1
node 7 1 1 1
node 8 1 1 1
node 9 1 1 1
node 10 1 1 1
node 11 1 1 1
node 12 1 1 1
node 13 1 1 1
node 14 1 1 1
node 15 1 1 1
