/* Species # 043         : (size= 003) (AvfFit= 1232,580) (Age= 226,000)  */
/*-------------------------------------------------------------------*/
/* Organism # 000 Fitness:  600,148 Error:  1000,000                      */
genomestart  0
trait 1 1.8462137539908836 1.4533401158465444 0.7970765430938219 0.4939336966909512 0.0 1.1871497161866005 0.761807071251285 1.469854737915162 
node 1 1 1 1
node 2 1 1 1
node 3 1 1 1
node 4 1 1 1
node 5 1 1 1
node 6 1 1 1
node 7 1 1 1
node 8 1 1 1
node 9 1 1 1
node 10 1 1 1
node 11 1 1 1
node 12 1 1 1
node 13 1 1 1
node 14 1 1 1
node 15 1 1 1
node 16 1 1 1
node 17 1 1 1
node 18 1 1 1
node 19 1 1 1
node 20 1 1 1
node 21 1 1 1
node 22 1 1 1
node 23 1 1 1
node 24 1 1 1
node 25 1 1 1
node 26 1 1 1
node 27 1 1 1
node 28 1 1 1
node 29 1 1 1
node 30 1 1 1
node 31 1 1 1
node 32 1 1 1
node 33 1 1 1
node 34 1 1 1
node 35 1 1 1
node 36 1 1 1
node 37 1 1 1
node 38 1 1 1
node 39 1 1 1
node 40 1 1 1
node 41 1 1 1
node 42 1 1 1
node 43 1 1 1
node 44 1 1 1
node 45 1 1 1
node 46 1 1 1
node 47 1 1 1
node 48 1 1 1
node 49 1 1 1
node 50 1 1 3
node 51 1 0 0
node 52 1 0 0
node 53 1 0 0
node 54 1 0 0
node 55 1 0 0
node 56 1 0 0
node 57 1 0 0
node 58 1 0 0
node 59 1 0 0
node 60 1 0 0
node 61 1 0 0
node 62 1 0 0
node 63 1 0 0
node 64 1 0 0
node 65 1 0 0
node 66 1 0 0
node 67 1 0 0
node 68 1 0 0
node 69 1 0 0
node 70 1 0 0
node 71 1 0 0
node 72 1 0 0
node 73 1 0 0
node 74 1 0 0
node 75 1 0 0
node 171 1 0 2
node 172 1 0 2
node 173 1 0 2
node 174 1 0 2
node 175 1 0 2
node 176 1 0 2
node 177 1 0 2
node 178 1 0 2
node 179 1 0 2
node 180 1 0 2
node 181 1 0 2
node 182 1 0 2
node 183 1 0 2
node 184 1 0 2
node 185 1 0 2
node 186 1 0 2
node 187 1 0 2
node 188 1 0 2
node 189 1 0 2
node 190 1 0 2
node 193 1 0 0
node 195 1 0 0
node 212 1 0 0
node 217 1 0 0
node 230 1 0 0
node 244 1 0 0
node 291 1 0 0
node 297 1 0 0
node 300 1 0 0
node 321 1 0 0
node 325 1 0 0
node 334 1 0 0
node 341 1 0 0
node 416 1 0 0
node 433 1 0 0
node 436 1 0 0
node 447 1 0 0
node 464 1 0 0
node 511 1 0 0
node 537 1 0 0
node 566 1 0 0
node 588 1 0 0
node 628 1 0 0
node 635 1 0 0
node 638 1 0 0
node 644 1 0 0
node 657 1 0 0
node 667 1 0 0
node 683 1 0 0
node 684 1 0 0
node 690 1 0 0
node 709 1 0 0
node 769 1 0 0
node 790 1 0 0
gene  1 28 51 1.0614666393904457 0 9527.0 1.0614666393904457 1
gene  1 33 51 -10.797172828375452 0 9532.0 -10.797172828375452 1
gene  1 36 51 6.231729420228451 0 9535.0 6.231729420228451 1
gene  1 40 51 16.378599825817368 0 9539.0 16.378599825817368 1
gene  1 42 51 8.107986924296162 0 9541.0 8.107986924296162 1
gene  1 54 51 2.7505689647041858 1 9553.0 2.7505689647041858 1
gene  1 57 51 11.118015639024106 1 9556.0 11.118015639024106 1
gene  1 68 51 -3.6798736892562927 1 9567.0 -3.6798736892562927 1
gene  1 174 51 -7.586802419515569 1 9673.0 -7.586802419515569 1
gene  1 183 51 -0.6061282396173965 1 9682.0 -0.6061282396173965 1
gene  1 184 51 1.5663429360299275 1 9683.0 1.5663429360299275 1
gene  1 189 51 -2.2786587597143937 1 9688.0 -2.2786587597143937 1
gene  1 3 52 -6.365487112018356 0 9692.0 -6.365487112018356 1
gene  1 6 52 2.036396667496488 0 9695.0 2.036396667496488 1
gene  1 24 52 3.9932475600882933 0 9713.0 3.9932475600882933 1
gene  1 29 52 3.795424442887821 0 9718.0 3.795424442887821 1
gene  1 31 52 0.3689250654663924 0 9720.0 0.3689250654663924 1
gene  1 35 52 6.1979360543172435 0 9724.0 6.1979360543172435 1
gene  1 63 52 -1.3905897193662276 1 9752.0 -1.3905897193662276 1
gene  1 179 52 1.0874907656870116 1 9868.0 1.0874907656870116 1
gene  1 183 52 -5.318922434034084 1 9872.0 -5.318922434034084 1
gene  1 184 52 2.7088740483846934 1 9873.0 2.7088740483846934 1
gene  1 185 52 9.262917923159875 1 9874.0 9.262917923159875 1
gene  1 5 53 -4.005151092354875 0 9884.0 -4.005151092354875 1
gene  1 6 53 -0.9024201276376163 0 9885.0 -0.9024201276376163 1
gene  1 10 53 0.9272186392336352 0 9889.0 0.9272186392336352 1
gene  1 33 53 0.9121751218920429 0 9912.0 0.9121751218920429 1
gene  1 35 53 7.233266177940509 0 9914.0 7.233266177940509 1
gene  1 38 53 -4.164939524550865 0 9917.0 -4.164939524550865 1
gene  1 45 53 4.618923674229038 0 9924.0 4.618923674229038 1
gene  1 71 53 -4.315025523629656 1 9950.0 -4.315025523629656 1
gene  1 16 54 0.3374645566383401 0 10085.0 0.3374645566383401 1
gene  1 19 54 -0.16436986236416207 0 10088.0 -0.16436986236416207 1
gene  1 36 54 1.514813163636303 0 10105.0 1.514813163636303 1
gene  1 42 54 1.4259284291831467 0 10111.0 1.4259284291831467 1
gene  1 58 54 -4.882857858401615 1 10127.0 -4.882857858401615 1
gene  1 62 54 6.5300748699451985 1 10131.0 6.5300748699451985 1
gene  1 73 54 2.246863314186979 1 10142.0 2.246863314186979 1
gene  1 177 54 -14.13709511731197 1 10246.0 -14.13709511731197 1
gene  1 180 54 6.567172900039825 1 10249.0 6.567172900039825 1
gene  1 190 54 -5.269567102482778 1 10259.0 -5.269567102482778 1
gene  1 20 55 -1.8606023629988828 0 10279.0 -1.8606023629988828 1
gene  1 31 55 -0.6452999571275018 0 10290.0 -0.6452999571275018 1
gene  1 35 55 2.4610732267156696 0 10294.0 2.4610732267156696 1
gene  1 41 55 1.4039354102122956 0 10300.0 1.4039354102122956 1
gene  1 47 55 -2.7581514295736556 0 10306.0 -2.7581514295736556 1
gene  1 52 55 -2.279642372587945 0 10311.0 -2.279642372587945 1
gene  1 69 55 -3.461750464950719 1 10328.0 -3.461750464950719 1
gene  1 75 55 3.2756061627096615 1 10334.0 3.2756061627096615 1
gene  1 187 55 -3.3217623496689646 1 10446.0 -3.3217623496689646 1
gene  1 7 56 1.2224221837448082 0 10456.0 1.2224221837448082 1
gene  1 11 56 0.14866465973149234 0 10460.0 0.14866465973149234 1
gene  1 13 56 -2.385197147162363 0 10462.0 -2.385197147162363 1
gene  1 36 56 -0.8313058254554941 0 10485.0 -0.8313058254554941 1
gene  1 41 56 0.29810572734483426 0 10490.0 0.29810572734483426 1
gene  1 44 56 -7.061569367721301 0 10493.0 -7.061569367721301 1
gene  1 46 56 -2.941732381200385 0 10495.0 -2.941732381200385 1
gene  1 49 56 1.587010716237496 0 10498.0 1.587010716237496 1
gene  1 68 56 -2.5769324849239954 1 10517.0 -2.5769324849239954 1
gene  1 179 56 1.8731930205740834 1 10628.0 1.8731930205740834 1
gene  1 183 56 3.88482813893952 1 10632.0 3.88482813893952 1
gene  1 3 57 -7.653749497821721 0 10642.0 -7.653749497821721 1
gene  1 19 57 3.1198667412738423 0 10658.0 3.1198667412738423 1
gene  1 22 57 -5.841007487606409 0 10661.0 -5.841007487606409 1
gene  1 28 57 -0.5193357627087324 0 10667.0 -0.5193357627087324 1
gene  1 30 57 -0.6409502880513877 0 10669.0 -0.6409502880513877 1
gene  1 35 57 -2.292658586907614 0 10674.0 -2.292658586907614 1
gene  1 47 57 0.1284999763471451 0 10686.0 0.1284999763471451 1
gene  1 59 57 0.23126183867546612 1 10698.0 0.23126183867546612 1
gene  1 60 57 1.768478427836334 1 10699.0 1.768478427836334 1
gene  1 187 57 3.0416779393179656 1 10826.0 3.0416779393179656 1
gene  1 5 58 0.3245718264647244 0 10834.0 0.3245718264647244 1
gene  1 14 58 -4.281899474888875 0 10843.0 -4.281899474888875 1
gene  1 15 58 4.4980392493394135 0 10844.0 4.4980392493394135 1
gene  1 24 58 4.89400996412807 0 10853.0 4.89400996412807 1
gene  1 32 58 -5.277976680913275 0 10861.0 -5.277976680913275 1
gene  1 43 58 1.7826843357581657 0 10872.0 1.7826843357581657 1
gene  1 49 58 -0.27833903735924503 0 10878.0 -0.27833903735924503 1
gene  1 53 58 -2.0893198968768387 0 10882.0 -2.0893198968768387 1
gene  1 62 58 5.9927074208993965 1 10891.0 5.9927074208993965 1
gene  1 64 58 -3.5794704514072735 1 10893.0 -3.5794704514072735 1
gene  1 69 58 -0.21499183792466164 1 10898.0 -0.21499183792466164 1
gene  1 182 58 -4.474650299556934 1 11011.0 -4.474650299556934 1
gene  1 1 59 -4.717438191803707 0 11020.0 -4.717438191803707 1
gene  1 4 59 -0.6864737233316753 0 11023.0 -0.6864737233316753 1
gene  1 27 59 2.07322320068778 0 11046.0 2.07322320068778 1
gene  1 34 59 2.1901088375256275 0 11053.0 2.1901088375256275 1
gene  1 37 59 -4.545302849647175 0 11056.0 -4.545302849647175 1
gene  1 44 59 6.116737816802016 0 11063.0 6.116737816802016 1
gene  1 59 59 3.7476588854413 1 11078.0 3.7476588854413 1
gene  1 73 59 -0.26598922623319354 1 11092.0 -0.26598922623319354 1
gene  1 75 59 6.3543706541511895 1 11094.0 6.3543706541511895 1
gene  1 183 59 3.521476903823085 1 11202.0 3.521476903823085 1
gene  1 185 59 -0.8270058559913938 1 11204.0 -0.8270058559913938 1
gene  1 8 60 -0.4023480202917731 0 11217.0 -0.4023480202917731 1
gene  1 10 60 -2.2837445204326765 0 11219.0 -2.2837445204326765 1
gene  1 40 60 -2.26576548122174 0 11249.0 -2.26576548122174 1
gene  1 45 60 2.301872165102603 0 11254.0 2.301872165102603 1
gene  1 61 60 6.184615463907565 1 11270.0 6.184615463907565 1
gene  1 72 60 -2.288545717207038 1 11281.0 -2.288545717207038 1
gene  1 177 60 -1.8273885440290019 1 11386.0 -1.8273885440290019 1
gene  1 179 60 -2.681217939948234 1 11388.0 -2.681217939948234 1
gene  1 187 60 -3.3190722296686146 1 11396.0 -3.3190722296686146 1
gene  1 7 61 -4.035367943845777 0 11406.0 -4.035367943845777 1
gene  1 15 61 1.7296188380451716 0 11414.0 1.7296188380451716 1
gene  1 22 61 -2.2191719764980142 0 11421.0 -2.2191719764980142 1
gene  1 28 61 1.794976196351254 0 11427.0 1.794976196351254 1
gene  1 36 61 1.49688938390052 0 11435.0 1.49688938390052 1
gene  1 53 61 9.23248261857679 0 11452.0 9.23248261857679 1
gene  1 54 61 -8.109424570364752 0 11453.0 -8.109424570364752 1
gene  1 67 61 1.3639415580862078 1 11466.0 1.3639415580862078 1
gene  1 177 61 0.7498307135669298 1 11576.0 0.7498307135669298 1
gene  1 184 61 8.677513834224174 1 11583.0 8.677513834224174 1
gene  1 6 62 1.2412431060685931 0 11595.0 1.2412431060685931 1
gene  1 11 62 -1.6226800144985989 0 11600.0 -1.6226800144985989 1
gene  1 15 62 9.789038389715124 0 11604.0 9.789038389715124 1
gene  1 26 62 1.773337580988341 0 11615.0 1.773337580988341 1
gene  1 53 62 -7.298383833022186 0 11642.0 -7.298383833022186 1
gene  1 68 62 -0.6235273434389789 1 11657.0 -0.6235273434389789 1
gene  1 72 62 5.501787660565772 1 11661.0 5.501787660565772 1
gene  1 174 62 -4.120291590148469 1 11763.0 -4.120291590148469 1
gene  1 175 62 -2.517606528332628 1 11764.0 -2.517606528332628 1
gene  1 184 62 3.551605767484891 1 11773.0 3.551605767484891 1
gene  1 185 62 2.5141981337314183 1 11774.0 2.5141981337314183 1
gene  1 188 62 -2.015536058313134 1 11777.0 -2.015536058313134 1
gene  1 31 63 2.2287235116974387 0 11810.0 2.2287235116974387 1
gene  1 32 63 -2.974329334968957 0 11811.0 -2.974329334968957 1
gene  1 37 63 0.45137454413794664 0 11816.0 0.45137454413794664 1
gene  1 38 63 7.032805422357259 0 11817.0 7.032805422357259 1
gene  1 42 63 -0.07172702815135823 0 11821.0 -0.07172702815135823 1
gene  1 46 63 -1.069765761014397 0 11825.0 -1.069765761014397 1
gene  1 48 63 4.9260297947195015 0 11827.0 4.9260297947195015 1
gene  1 50 63 7.0694752081617915 0 11829.0 7.0694752081617915 1
gene  1 60 63 -4.053983748856766 0 11839.0 -4.053983748856766 1
gene  1 63 63 2.3911311727838456 1 11842.0 2.3911311727838456 1
gene  1 72 63 -0.27285260169148406 1 11851.0 -0.27285260169148406 1
gene  1 74 63 -0.7579822757951339 1 11853.0 -0.7579822757951339 1
gene  1 178 63 -4.232373202605415 1 11957.0 -4.232373202605415 1
gene  1 180 63 6.050180134199637 1 11959.0 6.050180134199637 1
gene  1 181 63 0.24422501251420958 1 11960.0 0.24422501251420958 1
gene  1 8 64 -10.018388881401254 0 11977.0 -10.018388881401254 1
gene  1 11 64 0.41973399253948784 0 11980.0 0.41973399253948784 1
gene  1 20 64 0.1539883265363064 0 11989.0 0.1539883265363064 1
gene  1 27 64 14.835973287501698 0 11996.0 14.835973287501698 1
gene  1 41 64 -1.4854281862968204 0 12010.0 -1.4854281862968204 1
gene  1 44 64 1.6991329868334457 0 12013.0 1.6991329868334457 1
gene  1 49 64 0.05542058047459336 0 12018.0 0.05542058047459336 1
gene  1 50 64 -1.7441607895577973 0 12019.0 -1.7441607895577973 1
gene  1 53 64 0.14885951174544299 0 12022.0 0.14885951174544299 1
gene  1 59 64 4.153777747481013 0 12028.0 4.153777747481013 1
gene  1 70 64 -0.7133955289599768 1 12039.0 -0.7133955289599768 1
gene  1 176 64 -8.083170451972899 1 12145.0 -8.083170451972899 1
gene  1 179 64 -1.1592757118465482 1 12148.0 -1.1592757118465482 1
gene  1 183 64 5.294200308186062 1 12152.0 5.294200308186062 1
gene  1 184 64 5.9443078036735475 1 12153.0 5.9443078036735475 1
gene  1 185 64 5.273090702003357 1 12154.0 5.273090702003357 1
gene  1 8 65 -4.4958686967165935 0 12167.0 -4.4958686967165935 1
gene  1 13 65 -0.5706034335109031 0 12172.0 -0.5706034335109031 1
gene  1 18 65 2.3630949079069143 0 12177.0 2.3630949079069143 1
gene  1 39 65 -5.842599470874513 0 12198.0 -5.842599470874513 1
gene  1 53 65 0.33452155867930244 0 12212.0 0.33452155867930244 1
gene  1 69 65 -10.88813974174112 1 12228.0 -10.88813974174112 1
gene  1 70 65 11.012374585888969 1 12229.0 11.012374585888969 1
gene  1 175 65 8.4072075966163 1 12334.0 8.4072075966163 1
gene  1 176 65 -6.171005387060962 1 12335.0 -6.171005387060962 1
gene  1 177 65 -6.284844419378755 1 12336.0 -6.284844419378755 1
gene  1 185 65 1.6226721923832392 1 12344.0 1.6226721923832392 1
gene  1 1 66 -4.698196454497003 0 12350.0 -4.698196454497003 1
gene  1 4 66 -4.454577833329022 0 12353.0 -4.454577833329022 1
gene  1 18 66 1.7195053194867884 0 12367.0 1.7195053194867884 1
gene  1 21 66 -2.4940798863136617 0 12370.0 -2.4940798863136617 1
gene  1 43 66 6.25837094666484 0 12392.0 6.25837094666484 1
gene  1 47 66 1.231169803607178 0 12396.0 1.231169803607178 1
gene  1 50 66 2.0556589944122248 0 12399.0 2.0556589944122248 1
gene  1 60 66 -7.212850272227655 0 12409.0 -7.212850272227655 1
gene  1 62 66 4.971425592726604 0 12411.0 4.971425592726604 1
gene  1 66 66 -2.423211168736043 1 12415.0 -2.423211168736043 1
gene  1 184 66 0.5706529255593575 1 12533.0 0.5706529255593575 1
gene  1 8 67 -9.7701189048095 0 12547.0 -9.7701189048095 1
gene  1 38 67 1.4361674162832185 0 12577.0 1.4361674162832185 1
gene  1 46 67 5.69212443977017 0 12585.0 5.69212443977017 1
gene  1 49 67 -0.5953898634498158 0 12588.0 -0.5953898634498158 1
gene  1 57 67 -2.83598086467416 0 12596.0 -2.83598086467416 1
gene  1 61 67 -4.415515835824552 0 12600.0 -4.415515835824552 1
gene  1 72 67 -2.320001690062928 1 12611.0 -2.320001690062928 1
gene  1 177 67 3.590567795205523 1 12716.0 3.590567795205523 1
gene  1 182 67 -0.30794435515836616 1 12721.0 -0.30794435515836616 1
gene  1 185 67 0.5992899336678923 1 12724.0 0.5992899336678923 1
gene  1 189 67 0.3903399227494313 1 12728.0 0.3903399227494313 1
gene  1 5 68 -3.4244196484649345 0 12734.0 -3.4244196484649345 1
gene  1 16 68 2.164857364599477 0 12745.0 2.164857364599477 1
gene  1 40 68 -7.321084953577078 0 12769.0 -7.321084953577078 1
gene  1 41 68 -6.076561264340428 0 12770.0 -6.076561264340428 1
gene  1 42 68 -5.909246842125679 0 12771.0 -5.909246842125679 1
gene  1 71 68 9.047704282543696 1 12800.0 9.047704282543696 1
gene  1 185 68 -16.5068996175712 1 12914.0 -16.5068996175712 1
gene  1 6 69 3.2481414329941796 0 12925.0 3.2481414329941796 1
gene  1 16 69 0.7132483489892711 0 12935.0 0.7132483489892711 1
gene  1 19 69 -13.323410946886945 0 12938.0 -13.323410946886945 1
gene  1 44 69 -0.3905233320712125 0 12963.0 -0.3905233320712125 1
gene  1 45 69 -2.615721253299516 0 12964.0 -2.615721253299516 1
gene  1 65 69 -6.2349733945949195 0 12984.0 -6.2349733945949195 1
gene  1 171 69 12.25250092247531 1 13090.0 12.25250092247531 1
gene  1 3 70 -3.33957733384152 0 13112.0 -3.33957733384152 1
gene  1 39 70 -1.108797919146078 0 13148.0 -1.108797919146078 1
gene  1 60 70 -5.755771283572212 0 13169.0 -5.755771283572212 1
gene  1 171 70 -2.168616956761454 1 13280.0 -2.168616956761454 1
gene  1 181 70 -4.17448112387013 1 13290.0 -4.17448112387013 1
gene  1 183 70 6.858782989654087 1 13292.0 6.858782989654087 1
gene  1 11 71 0.6868732920793581 0 13310.0 0.6868732920793581 1
gene  1 15 71 1.3030411066621612 0 13314.0 1.3030411066621612 1
gene  1 30 71 -4.463230914315166 0 13329.0 -4.463230914315166 1
gene  1 33 71 9.857724272132144 0 13332.0 9.857724272132144 1
gene  1 34 71 -4.056125695938318 0 13333.0 -4.056125695938318 1
gene  1 48 71 2.5750873767102203 0 13347.0 2.5750873767102203 1
gene  1 50 71 -2.5995347762476095 0 13349.0 -2.5995347762476095 1
gene  1 51 71 -1.4642676398804608 0 13350.0 -1.4642676398804608 1
gene  1 57 71 -3.886681130610861 0 13356.0 -3.886681130610861 1
gene  1 73 71 -2.5654494349418395 1 13372.0 -2.5654494349418395 1
gene  1 185 71 1.880081372729799 1 13484.0 1.880081372729799 1
gene  1 24 72 -4.415474502783366 0 13513.0 -4.415474502783366 1
gene  1 51 72 2.1102745574598796 0 13540.0 2.1102745574598796 1
gene  1 54 72 -0.2569693698139093 0 13543.0 -0.2569693698139093 1
gene  1 60 72 -4.719484522373484 0 13549.0 -4.719484522373484 1
gene  1 3 73 -1.009792984865134 0 13682.0 -1.009792984865134 1
gene  1 18 73 -8.491250873096885 0 13697.0 -8.491250873096885 1
gene  1 30 73 -15.336223250614008 0 13709.0 -15.336223250614008 1
gene  1 41 73 -5.066326342823088 0 13720.0 -5.066326342823088 1
gene  1 54 73 2.8670778634711036 0 13733.0 2.8670778634711036 1
gene  1 59 73 -14.385883510099895 0 13738.0 -14.385883510099895 1
gene  1 60 73 6.26248758375458 0 13739.0 6.26248758375458 1
gene  1 179 73 -3.393110848137405 1 13858.0 -3.393110848137405 1
gene  1 189 73 -3.074629516486983 1 13868.0 -3.074629516486983 1
gene  1 31 74 1.4737979792977591 0 13900.0 1.4737979792977591 1
gene  1 38 74 2.265814792049036 0 13907.0 2.265814792049036 1
gene  1 67 74 0.4440166285059519 0 13936.0 0.4440166285059519 1
gene  1 74 74 9.555404963415452 1 13943.0 9.555404963415452 1
gene  1 188 74 -1.1340571382679359 1 14057.0 -1.1340571382679359 1
gene  1 2 75 -3.0547474115282323 0 14061.0 -3.0547474115282323 1
gene  1 10 75 1.1015246858686658 0 14069.0 1.1015246858686658 1
gene  1 12 75 -9.866080184066321 0 14071.0 -9.866080184066321 1
gene  1 15 75 -3.24341248232964 0 14074.0 -3.24341248232964 1
gene  1 18 75 -6.342016205759957 0 14077.0 -6.342016205759957 1
gene  1 43 75 0.42788592732406316 0 14102.0 0.42788592732406316 1
gene  1 46 75 0.009415984013448786 0 14105.0 0.009415984013448786 1
gene  1 56 75 1.232921756632366 0 14115.0 1.232921756632366 1
gene  1 57 75 -18.774610428979024 0 14116.0 -18.774610428979024 1
gene  1 177 75 4.862777773622024 1 14236.0 4.862777773622024 1
gene  1 183 75 -4.94628119452392 1 14242.0 -4.94628119452392 1
gene  1 3 171 0.703684746329371 0 32302.0 0.703684746329371 1
gene  1 10 171 -3.672280333047091 0 32309.0 -3.672280333047091 1
gene  1 18 171 -5.458988636038715 0 32317.0 -5.458988636038715 1
gene  1 35 171 -7.719511373712172 0 32334.0 -7.719511373712172 1
gene  1 47 171 -5.424723528787516 0 32346.0 -5.424723528787516 1
gene  1 48 171 -5.689851274989277 0 32347.0 -5.689851274989277 1
gene  1 63 171 -2.351678294371448 0 32362.0 -2.351678294371448 1
gene  1 74 171 1.756354398823131 0 32373.0 1.756354398823131 1
gene  1 171 171 -0.6416912206786819 1 32470.0 -0.6416912206786819 1
gene  1 180 171 5.612942178554844 1 32479.0 5.612942178554844 1
gene  1 181 171 1.2642629802665768 1 32480.0 1.2642629802665768 1
gene  1 16 172 -1.0577886008708615 0 32505.0 -1.0577886008708615 1
gene  1 38 172 0.05577399413372586 0 32527.0 0.05577399413372586 1
gene  1 58 172 -4.4378727974219006 0 32547.0 -4.4378727974219006 1
gene  1 59 172 5.596821106453599 0 32548.0 5.596821106453599 1
gene  1 60 172 3.2041426419412327 0 32549.0 3.2041426419412327 1
gene  1 73 172 -5.2207096166485005 0 32562.0 -5.2207096166485005 1
gene  1 171 172 0.635117325174849 0 32660.0 0.635117325174849 1
gene  1 173 172 -5.913798086538853 1 32662.0 -5.913798086538853 1
gene  1 7 173 -3.8439725019982323 0 32686.0 -3.8439725019982323 1
gene  1 29 173 1.5029973235030565 0 32708.0 1.5029973235030565 1
gene  1 30 173 -4.961573510709862 0 32709.0 -4.961573510709862 1
gene  1 38 173 2.1129607567270123 0 32717.0 2.1129607567270123 1
gene  1 56 173 0.3907317476436172 0 32735.0 0.3907317476436172 1
gene  1 68 173 -2.754905381874092 0 32747.0 -2.754905381874092 1
gene  1 72 173 -2.039600226269823 0 32751.0 -2.039600226269823 1
gene  1 75 173 5.075088873387557 0 32754.0 5.075088873387557 1
gene  1 180 173 6.204602101682454 1 32859.0 6.204602101682454 1
gene  1 45 174 -5.88771028403278 0 32914.0 -5.88771028403278 1
gene  1 174 174 1.0867444198253753 1 33043.0 1.0867444198253753 1
gene  1 180 174 -6.210823396645154 1 33049.0 -6.210823396645154 1
gene  1 186 174 7.382953283377017 1 33055.0 7.382953283377017 1
gene  1 2 175 -1.4823846175629627 0 33061.0 -1.4823846175629627 1
gene  1 11 175 -0.7470521765280758 0 33070.0 -0.7470521765280758 1
gene  1 26 175 -0.49102621343924935 0 33085.0 -0.49102621343924935 1
gene  1 37 175 0.10352616445902485 0 33096.0 0.10352616445902485 1
gene  1 43 175 7.0549143029354715 0 33102.0 7.0549143029354715 1
gene  1 48 175 6.221776321350795 0 33107.0 6.221776321350795 1
gene  1 51 175 25.34612453888313 0 33110.0 25.34612453888313 1
gene  1 64 175 2.05094672265083 0 33123.0 2.05094672265083 1
gene  1 70 175 7.016805527700265 0 33129.0 7.016805527700265 1
gene  1 71 175 0.7223156442681018 0 33130.0 0.7223156442681018 1
gene  1 177 175 1.7397083861575933 1 33236.0 1.7397083861575933 1
gene  1 178 175 2.400813606160534 1 33237.0 2.400813606160534 1
gene  1 181 175 -2.9637518592012135 1 33240.0 -2.9637518592012135 1
gene  1 184 175 0.5491856255452001 1 33243.0 0.5491856255452001 1
gene  1 186 175 -4.464492760010455 1 33245.0 -4.464492760010455 1
gene  1 2 176 0.032040432329041524 0 33251.0 0.032040432329041524 1
gene  1 8 176 -1.9666025546343535 0 33257.0 -1.9666025546343535 1
gene  1 9 176 6.177772644098729 0 33258.0 6.177772644098729 1
gene  1 12 176 2.685956942787321 0 33261.0 2.685956942787321 1
gene  1 15 176 0.6108736518350439 0 33264.0 0.6108736518350439 1
gene  1 16 176 1.991930511281512 0 33265.0 1.991930511281512 1
gene  1 35 176 2.9412788768968734 0 33284.0 2.9412788768968734 1
gene  1 37 176 4.539156433653357 0 33286.0 4.539156433653357 1
gene  1 46 176 -1.3027614665894003 0 33295.0 -1.3027614665894003 1
gene  1 62 176 -14.78424760824299 0 33311.0 -14.78424760824299 1
gene  1 64 176 0.5505283238534548 0 33313.0 0.5505283238534548 1
gene  1 171 176 -2.171136220992826 0 33420.0 -2.171136220992826 1
gene  1 174 176 0.02422945183361036 0 33423.0 0.02422945183361036 1
gene  1 179 176 0.7758410749304767 1 33428.0 0.7758410749304767 1
gene  1 1 177 -5.040389199111863 0 33440.0 -5.040389199111863 1
gene  1 7 177 -3.1046331449449096 0 33446.0 -3.1046331449449096 1
gene  1 8 177 -4.4660492117921 0 33447.0 -4.4660492117921 1
gene  1 9 177 -11.550995863680011 0 33448.0 -11.550995863680011 1
gene  1 14 177 -1.2829614965388147 0 33453.0 -1.2829614965388147 1
gene  1 16 177 1.4496825982332697 0 33455.0 1.4496825982332697 1
gene  1 20 177 7.41270359832721 0 33459.0 7.41270359832721 1
gene  1 30 177 9.261842329637613 0 33469.0 9.261842329637613 1
gene  1 31 177 -0.20951148901869732 0 33470.0 -0.20951148901869732 1
gene  1 32 177 3.419258875873425 0 33471.0 3.419258875873425 1
gene  1 43 177 -3.947053651349706 0 33482.0 -3.947053651349706 1
gene  1 44 177 -3.7185894673993767 0 33483.0 -3.7185894673993767 1
gene  1 53 177 4.2043185617364065 0 33492.0 4.2043185617364065 1
gene  1 59 177 -5.179785721121036 0 33498.0 -5.179785721121036 1
gene  1 69 177 16.398696209012904 0 33508.0 16.398696209012904 1
gene  1 174 177 -2.429979442039503 0 33613.0 -2.429979442039503 1
gene  1 175 177 8.47221123337531 0 33614.0 8.47221123337531 1
gene  1 184 177 -3.275675047149255 1 33623.0 -3.275675047149255 1
gene  1 187 177 5.508294707750209 1 33626.0 5.508294707750209 1
gene  1 1 178 0.5945183992981066 0 33630.0 0.5945183992981066 1
gene  1 20 178 1.1248743282723854 0 33649.0 1.1248743282723854 1
gene  1 26 178 -0.26824427800659634 0 33655.0 -0.26824427800659634 1
gene  1 35 178 0.4737674711623126 0 33664.0 0.4737674711623126 1
gene  1 42 178 2.206755168574296 0 33671.0 2.206755168574296 1
gene  1 53 178 4.91251946511548 0 33682.0 4.91251946511548 1
gene  1 59 178 2.579826351777422 0 33688.0 2.579826351777422 1
gene  1 72 178 10.91432585555604 0 33701.0 10.91432585555604 1
gene  1 172 178 -1.700610941932837 0 33801.0 -1.700610941932837 1
gene  1 190 178 1.0012746746052938 1 33819.0 1.0012746746052938 1
gene  1 6 179 5.622530559459539 0 33825.0 5.622530559459539 1
gene  1 8 179 1.9313686891645117 0 33827.0 1.9313686891645117 1
gene  1 13 179 1.6534626391748644 0 33832.0 1.6534626391748644 1
gene  1 36 179 -11.385838877652937 0 33855.0 -11.385838877652937 1
gene  1 46 179 2.6871265199934675 0 33865.0 2.6871265199934675 1
gene  1 60 179 12.467915125396228 0 33879.0 12.467915125396228 1
gene  1 61 179 0.46083887265598356 0 33880.0 0.46083887265598356 1
gene  1 72 179 9.20464898938216 0 33891.0 9.20464898938216 1
gene  1 74 179 5.162739109494611 0 33893.0 5.162739109494611 1
gene  1 171 179 0.3798215159986662 0 33990.0 0.3798215159986662 1
gene  1 185 179 1.4315330407910336 1 34004.0 1.4315330407910336 1
gene  1 1 180 -5.077008170275905 0 34010.0 -5.077008170275905 1
gene  1 4 180 4.809455788241788 0 34013.0 4.809455788241788 1
gene  1 8 180 4.897494201821026 0 34017.0 4.897494201821026 1
gene  1 11 180 -5.992245651776502 0 34020.0 -5.992245651776502 1
gene  1 21 180 -4.288452688872882 0 34030.0 -4.288452688872882 1
gene  1 32 180 -1.846529970118405 0 34041.0 -1.846529970118405 1
gene  1 35 180 -4.513850889229437 0 34044.0 -4.513850889229437 1
gene  1 46 180 -1.7609716862963918 0 34055.0 -1.7609716862963918 1
gene  1 68 180 -2.3216652958271498 0 34077.0 -2.3216652958271498 1
gene  1 188 180 5.661196699392664 1 34197.0 5.661196699392664 1
gene  1 2 181 2.7351215809832783 0 34201.0 2.7351215809832783 1
gene  1 16 181 5.292981997493984 0 34215.0 5.292981997493984 1
gene  1 24 181 -6.78712917556159 0 34223.0 -6.78712917556159 1
gene  1 36 181 -5.391414952306119 0 34235.0 -5.391414952306119 1
gene  1 60 181 -0.3324933888326824 0 34259.0 -0.3324933888326824 1
gene  1 69 181 1.3356623282759292 0 34268.0 1.3356623282759292 1
gene  1 190 181 -2.695295608721786 1 34389.0 -2.695295608721786 1
gene  1 1 182 -3.4407638474285642 0 34390.0 -3.4407638474285642 1
gene  1 17 182 4.867668022852247 0 34406.0 4.867668022852247 1
gene  1 35 182 7.374841309532179 0 34424.0 7.374841309532179 1
gene  1 44 182 3.8530627422021064 0 34433.0 3.8530627422021064 1
gene  1 49 182 1.2543350752324773 0 34438.0 1.2543350752324773 1
gene  1 50 182 3.585777023144468 0 34439.0 3.585777023144468 1
gene  1 54 182 2.905251089926015 0 34443.0 2.905251089926015 1
gene  1 59 182 -7.814900403267977 0 34448.0 -7.814900403267977 1
gene  1 73 182 7.7684989266372035 0 34462.0 7.7684989266372035 1
gene  1 174 182 2.6212948395794586 0 34563.0 2.6212948395794586 1
gene  1 187 182 5.851421529651582 1 34576.0 5.851421529651582 1
gene  1 6 183 -2.8397673141184105 0 34585.0 -2.8397673141184105 1
gene  1 7 183 -3.2025364005512706 0 34586.0 -3.2025364005512706 1
gene  1 17 183 -3.036181655188229 0 34596.0 -3.036181655188229 1
gene  1 20 183 -0.5759493542057557 0 34599.0 -0.5759493542057557 1
gene  1 25 183 0.16976213556884912 0 34604.0 0.16976213556884912 1
gene  1 30 183 2.1224538786282854 0 34609.0 2.1224538786282854 1
gene  1 39 183 2.043890706187728 0 34618.0 2.043890706187728 1
gene  1 44 183 8.947675920619194 0 34623.0 8.947675920619194 1
gene  1 66 183 1.2054830098222256 0 34645.0 1.2054830098222256 1
gene  1 171 183 2.93622155011379 0 34750.0 2.93622155011379 1
gene  1 174 183 0.581184440292398 0 34753.0 0.581184440292398 1
gene  1 21 184 -5.676257030548196 0 34790.0 -5.676257030548196 1
gene  1 29 184 1.07732648628161 0 34798.0 1.07732648628161 1
gene  1 32 184 -1.185461408995907 0 34801.0 -1.185461408995907 1
gene  1 36 184 -1.640709917347273 0 34805.0 -1.640709917347273 1
gene  1 45 184 7.16889304615687 0 34814.0 7.16889304615687 1
gene  1 46 184 10.773058808482183 0 34815.0 10.773058808482183 1
gene  1 63 184 -3.2963031730870913 0 34832.0 -3.2963031730870913 1
gene  1 66 184 -2.6248845870225916 0 34835.0 -2.6248845870225916 1
gene  1 177 184 2.3996471805409167 0 34946.0 2.3996471805409167 1
gene  1 31 185 7.7858135224160465 0 34990.0 7.7858135224160465 1
gene  1 50 185 -7.276780948345968 0 35009.0 -7.276780948345968 1
gene  1 56 185 -1.2171554925840655 0 35015.0 -1.2171554925840655 1
gene  1 58 185 2.120528731587335 0 35017.0 2.120528731587335 1
gene  1 62 185 1.6516043044917412 0 35021.0 1.6516043044917412 1
gene  1 173 185 -5.06830349765529 0 35132.0 -5.06830349765529 1
gene  1 179 185 0.48348588944586934 0 35138.0 0.48348588944586934 1
gene  1 182 185 -0.07744980465956641 0 35141.0 -0.07744980465956641 1
gene  1 188 185 0.5364902007987955 1 35147.0 0.5364902007987955 1
gene  1 1 186 2.635809006146384 0 35150.0 2.635809006146384 1
gene  1 3 186 -1.832895239953002 0 35152.0 -1.832895239953002 1
gene  1 4 186 -3.362075601439109 0 35153.0 -3.362075601439109 1
gene  1 6 186 0.13245954596358755 0 35155.0 0.13245954596358755 1
gene  1 7 186 -2.6886066334530114 0 35156.0 -2.6886066334530114 1
gene  1 17 186 1.1178455466886048 0 35166.0 1.1178455466886048 1
gene  1 23 186 -3.7294539336766426 0 35172.0 -3.7294539336766426 1
gene  1 28 186 -2.084803750713089 0 35177.0 -2.084803750713089 1
gene  1 33 186 0.8514957499947257 0 35182.0 0.8514957499947257 1
gene  1 36 186 0.9816012643359782 0 35185.0 0.9816012643359782 1
gene  1 58 186 3.3485992069209987 0 35207.0 3.3485992069209987 1
gene  1 69 186 -2.5022291662206873 0 35218.0 -2.5022291662206873 1
gene  1 70 186 -2.9005483374259127 0 35219.0 -2.9005483374259127 1
gene  1 72 186 8.167509737639353 0 35221.0 8.167509737639353 1
gene  1 10 187 2.1444369433318036 0 35349.0 2.1444369433318036 1
gene  1 25 187 4.030792027818982 0 35364.0 4.030792027818982 1
gene  1 31 187 -4.219527880904334 0 35370.0 -4.219527880904334 1
gene  1 33 187 -0.19943328517805248 0 35372.0 -0.19943328517805248 1
gene  1 47 187 -1.0546507619832004 0 35386.0 -1.0546507619832004 1
gene  1 57 187 -3.233610719871518 0 35396.0 -3.233610719871518 1
gene  1 183 187 1.0647716514143424 0 35522.0 1.0647716514143424 1
gene  1 184 187 3.576456765092714 0 35523.0 3.576456765092714 1
gene  1 5 188 -2.1787931253541957 0 35534.0 -2.1787931253541957 1
gene  1 6 188 6.238810994183934 0 35535.0 6.238810994183934 1
gene  1 12 188 0.18844597485441883 0 35541.0 0.18844597485441883 1
gene  1 28 188 6.717584968278453 0 35557.0 6.717584968278453 1
gene  1 32 188 10.546210196088056 0 35561.0 10.546210196088056 1
gene  1 35 188 5.418166196950752 0 35564.0 5.418166196950752 1
gene  1 57 188 5.585157604786167 0 35586.0 5.585157604786167 1
gene  1 172 188 -2.2950336370387934 0 35701.0 -2.2950336370387934 1
gene  1 14 189 0.3766592802997788 0 35733.0 0.3766592802997788 1
gene  1 17 189 -6.705590692854092 0 35736.0 -6.705590692854092 1
gene  1 27 189 -0.5993184254605209 0 35746.0 -0.5993184254605209 1
gene  1 37 189 -10.845269338359595 0 35756.0 -10.845269338359595 1
gene  1 43 189 -3.1629878367509217 0 35762.0 -3.1629878367509217 1
gene  1 51 189 -3.2405358608800476 0 35770.0 -3.2405358608800476 1
gene  1 56 189 -2.4887705191014726 0 35775.0 -2.4887705191014726 1
gene  1 59 189 -8.168661514775152 0 35778.0 -8.168661514775152 1
gene  1 65 189 3.901444956882048 0 35784.0 3.901444956882048 1
gene  1 73 189 1.507195425694905 0 35792.0 1.507195425694905 1
gene  1 74 189 -1.3677466816685977 0 35793.0 -1.3677466816685977 1
gene  1 178 189 1.6880282997298715 0 35897.0 1.6880282997298715 1
gene  1 1 190 5.7216528216245175 0 35910.0 5.7216528216245175 1
gene  1 4 190 3.368230841657387 0 35913.0 3.368230841657387 1
gene  1 15 190 -1.4728005418521248 0 35924.0 -1.4728005418521248 1
gene  1 22 190 2.5829753567892677 0 35931.0 2.5829753567892677 1
gene  1 33 190 -3.434200600237859 0 35942.0 -3.434200600237859 1
gene  1 58 190 5.879825609946045 0 35967.0 5.879825609946045 1
gene  1 60 190 5.320035152744235 0 35969.0 5.320035152744235 1
gene  1 67 190 8.04651569527849 0 35976.0 8.04651569527849 1
gene  1 179 190 -11.433243944338287 0 36088.0 -11.433243944338287 1
gene  1 181 190 -0.25122330696337913 0 36090.0 -0.25122330696337913 1
gene  1 182 190 6.087764562334693 0 36091.0 6.087764562334693 1
gene  1 184 190 4.267880177741809 0 36093.0 4.267880177741809 1
gene  1 186 190 7.978850622614529 0 36095.0 7.978850622614529 1
gene  1 187 190 2.929324941557817 0 36096.0 2.929324941557817 1
gene  1 65 188 -1.8053363348873217 0 36109.0 -1.8053363348873217 1
gene  1 1 193 -3.0250043931977344 0 36113.0 -3.0250043931977344 1
gene  1 193 190 -2.2840966913753635 0 36114.0 -2.2840966913753635 1
gene  1 29 68 -1.5983417390753263 0 36116.0 -1.5983417390753263 1
gene  1 181 195 -0.7412502354026338 1 36120.0 -0.7412502354026338 1
gene  1 195 63 -9.656073499362993 0 36121.0 -9.656073499362993 1
gene  1 7 171 2.4026841536235977 0 36125.0 2.4026841536235977 1
gene  1 22 72 -2.58085584542754 0 36150.0 -2.58085584542754 1
gene  1 47 212 1.1600977431793795 0 36196.0 1.1600977431793795 1
gene  1 212 55 -1.591084031394573 0 36197.0 -1.591084031394573 1
gene  1 55 58 -0.2261581379585802 0 36200.0 -0.2261581379585802 1
gene  1 33 217 9.528121885215711 0 36231.0 9.528121885215711 1
gene  1 217 187 4.861396160325999 0 36232.0 4.861396160325999 1
gene  1 69 56 0.22076006667908976 0 36255.0 0.22076006667908976 1
gene  1 51 173 0.42535804129145127 0 36261.0 0.42535804129145127 1
gene  1 35 230 4.9915232553360145 0 36282.0 4.9915232553360145 1
gene  1 230 57 2.5823825878907316 0 36283.0 2.5823825878907316 1
gene  1 43 244 6.478703056837281 0 36330.0 6.478703056837281 1
gene  1 244 189 -1.7933918751584512 0 36331.0 -1.7933918751584512 1
gene  1 13 172 -5.604538512774748 0 36334.0 -5.604538512774748 1
gene  1 52 230 0.5818279343123101 0 36357.0 0.5818279343123101 1
gene  1 68 188 -2.952532638345186 0 36380.0 -2.952532638345186 1
gene  1 12 54 -2.191843582752366 0 36383.0 -2.191843582752366 1
gene  1 181 74 1.4555884447280896 0 36429.0 1.4555884447280896 1
gene  1 61 177 -1.4222508005899894 0 36460.0 -1.4222508005899894 1
gene  1 20 184 -1.2807256804928033 0 36496.0 -1.2807256804928033 1
gene  1 190 176 4.570441020153227 0 36516.0 4.570441020153227 1
gene  1 22 291 7.102116467393281 0 36524.0 7.102116467393281 1
gene  1 291 190 -1.4545422538957202 0 36525.0 -1.4545422538957202 1
gene  1 75 174 -2.158158554848634 0 36555.0 -2.158158554848634 1
gene  1 35 297 -2.342664092964046 0 36562.0 -2.342664092964046 1
gene  1 297 171 -1.850050063186995 0 36563.0 -1.850050063186995 1
gene  1 33 184 1.7396107986299558 0 36565.0 1.7396107986299558 1
gene  1 35 186 1.8645008806436112 0 36569.0 1.8645008806436112 1
gene  1 51 300 1.9570111975719764 0 36574.0 1.9570111975719764 1
gene  1 300 71 6.337781720334318 0 36575.0 6.337781720334318 1
gene  1 49 172 0.2813841912121182 0 36658.0 0.2813841912121182 1
gene  1 75 177 12.89862684617574 0 36665.0 12.89862684617574 1
gene  1 53 321 -2.082735824461785 0 36673.0 -2.082735824461785 1
gene  1 321 62 1.8370609279951715 0 36674.0 1.8370609279951715 1
gene  1 47 62 -5.522003428554898 0 36689.0 -5.522003428554898 1
gene  1 41 67 -2.713020660312507 0 36692.0 -2.713020660312507 1
gene  1 182 325 4.2170165139843165 1 36701.0 4.2170165139843165 1
gene  1 325 67 -2.8136379044339153 0 36702.0 -2.8136379044339153 1
gene  1 195 178 -9.149107182065963E-4 0 36719.0 -9.149107182065963E-4 1
gene  1 64 56 1.0069676793021998 0 36723.0 1.0069676793021998 1
gene  1 37 334 -0.559810417015224 0 36742.0 -0.559810417015224 1
gene  1 334 175 5.7369583899757055 0 36743.0 5.7369583899757055 1
gene  1 56 341 2.137143106835571 0 36772.0 2.137143106835571 1
gene  1 341 173 1.8294304563083927 0 36773.0 1.8294304563083927 1
gene  1 26 297 1.4818673491345926 0 36788.0 1.4818673491345926 1
gene  1 24 70 -0.35734966148597636 0 36824.0 -0.35734966148597636 1
gene  1 174 178 4.377451245338326 0 36853.0 4.377451245338326 1
gene  1 15 174 1.190401399486097 0 36944.0 1.190401399486097 1
gene  1 188 178 -0.8992530589479872 0 36962.0 -0.8992530589479872 1
gene  1 15 72 4.665713565019924 0 36977.0 4.665713565019924 1
gene  1 66 54 0.6222661970459231 0 37021.0 0.6222661970459231 1
gene  1 212 177 1.5489985167289353 0 37108.0 1.5489985167289353 1
gene  1 10 244 -1.7273604771747157 0 37115.0 -1.7273604771747157 1
gene  1 27 291 -1.1416578873835608 0 37132.0 -1.1416578873835608 1
gene  1 4 68 2.451753950357363 0 37136.0 2.451753950357363 1
gene  1 5 416 2.2478021837907334 0 37142.0 2.2478021837907334 1
gene  1 416 188 0.7056654191846556 0 37143.0 0.7056654191846556 1
gene  1 17 217 5.235165711254738 0 37209.0 5.235165711254738 1
gene  1 5 187 1.218603940131202 0 37211.0 1.218603940131202 1
gene  1 43 433 1.4747515485849059 0 37218.0 1.4747515485849059 1
gene  1 433 66 -2.1202866687193813 0 37219.0 -2.1202866687193813 1
gene  1 75 436 -0.35208231345610885 1 37227.0 -0.35208231345610885 1
gene  1 436 59 0.22445455515391877 0 37228.0 0.22445455515391877 1
gene  1 244 60 3.031703346430927 0 37235.0 3.031703346430927 1
gene  1 416 73 3.9018570172777394 0 37246.0 3.9018570172777394 1
gene  1 60 447 1.196349084892152 0 37271.0 1.196349084892152 1
gene  1 447 73 6.721132477571146 0 37272.0 6.721132477571146 1
gene  1 42 69 5.677362834765622 0 37308.0 5.677362834765622 1
gene  1 15 464 1.665155937474338 0 37342.0 1.665155937474338 1
gene  1 464 176 0.9749132136077103 0 37343.0 0.9749132136077103 1
gene  1 51 187 1.3221574688805293 0 37380.0 1.3221574688805293 1
gene  1 26 185 1.408672830118808 0 37427.0 1.408672830118808 1
gene  1 51 185 -0.7107303803992395 0 37512.0 -0.7107303803992395 1
gene  1 20 180 -1.06317432444864 0 37552.0 -1.06317432444864 1
gene  1 23 511 0.2525469332722291 0 37568.0 0.2525469332722291 1
gene  1 511 186 3.7386080889682094 0 37569.0 3.7386080889682094 1
gene  1 66 63 -0.6566734496048185 0 37632.0 -0.6566734496048185 1
gene  1 186 71 -1.5813274506070698 0 37664.0 -1.5813274506070698 1
gene  1 28 416 4.6785000847487055 0 37673.0 4.6785000847487055 1
gene  1 175 537 3.2360843167684425 1 37692.0 3.2360843167684425 1
gene  1 537 62 0.856572212272811 0 37693.0 0.856572212272811 1
gene  1 43 180 -2.4888692865275184 0 37705.0 -2.4888692865275184 1
gene  1 4 63 -0.30949527717663183 0 37794.0 -0.30949527717663183 1
gene  1 41 188 -1.211087691253002 0 37797.0 -1.211087691253002 1
gene  1 70 566 0.18992593052978124 0 37810.0 0.18992593052978124 1
gene  1 566 175 -0.10655418316321019 0 37811.0 -0.10655418316321019 1
gene  1 51 180 1.9490262549698103 0 37819.0 1.9490262549698103 1
gene  1 185 217 1.5925962872049537 0 37826.0 1.5925962872049537 1
gene  1 2 183 0.2754327120875986 0 37861.0 0.2754327120875986 1
gene  1 44 588 -6.676039154103046 0 37889.0 -6.676039154103046 1
gene  1 588 183 -1.0089238761447172 0 37890.0 -1.0089238761447172 1
gene  1 341 433 -1.6672658591177534 0 37895.0 -1.6672658591177534 1
gene  1 60 182 -1.6394292280208325 0 37962.0 -1.6394292280208325 1
gene  1 43 56 -1.398979384841455 0 38052.0 -1.398979384841455 1
gene  1 174 628 1.6000334166246988 1 38060.0 1.6000334166246988 1
gene  1 628 174 3.7555217112825408 0 38061.0 3.7555217112825408 1
gene  1 52 57 -1.6939612788944742 0 38081.0 -1.6939612788944742 1
gene  1 64 635 -0.7437148037907524 0 38091.0 -0.7437148037907524 1
gene  1 635 176 -0.99937198919791 0 38092.0 -0.99937198919791 1
gene  1 341 638 -1.9831459963942735 0 38100.0 -1.9831459963942735 1
gene  1 638 173 2.2559062833835632 0 38101.0 2.2559062833835632 1
gene  1 180 644 -2.28426121311547 1 38135.0 -2.28426121311547 1
gene  1 644 173 0.9618731065430304 0 38136.0 0.9618731065430304 1
gene  1 62 188 1.6043193686097514 0 38145.0 1.6043193686097514 1
gene  1 188 657 -2.2718623643464326 1 38192.0 -2.2718623643464326 1
gene  1 657 185 -1.3994849231889195 0 38193.0 -1.3994849231889195 1
gene  1 50 566 1.0641362622806818 0 38195.0 1.0641362622806818 1
gene  1 45 667 -0.27349348294841125 0 38237.0 -0.27349348294841125 1
gene  1 667 69 1.7000860859850384 0 38238.0 1.7000860859850384 1
gene  1 433 244 1.80408283986633 0 38266.0 1.80408283986633 1
gene  1 3 683 -0.6314946640507597 0 38320.0 -0.6314946640507597 1
gene  1 683 186 0.9165282814066831 0 38321.0 0.9165282814066831 1
gene  1 20 684 -3.5189996159904 0 38328.0 -3.5189996159904 1
gene  1 684 183 0.5452260793619447 0 38329.0 0.5452260793619447 1
gene  1 193 66 -1.357074828312833 0 38335.0 -1.357074828312833 1
gene  1 61 690 0.8384982298064672 1 38351.0 0.8384982298064672 1
gene  1 690 60 0.2785499042284989 0 38352.0 0.2785499042284989 1
gene  1 65 67 -1.4651009395574253 0 38401.0 -1.4651009395574253 1
gene  1 31 172 -0.9868467480380064 0 38434.0 -0.9868467480380064 1
gene  1 37 709 3.8892854348963417 0 38463.0 3.8892854348963417 1
gene  1 709 175 0.3455560528958456 0 38464.0 0.3455560528958456 1
gene  1 61 186 6.628553321226448 0 38470.0 6.628553321226448 1
gene  1 27 73 -2.681248375942814 0 38488.0 -2.681248375942814 1
gene  1 75 58 2.830981109884802 0 38517.0 2.830981109884802 1
gene  1 34 62 0.8287741494658543 0 38525.0 0.8287741494658543 1
gene  1 511 51 3.9019864958965886 0 38554.0 3.9019864958965886 1
gene  1 20 657 -1.3925232833451466 0 38584.0 -1.3925232833451466 1
gene  1 8 436 -0.32206674983190897 0 38591.0 -0.32206674983190897 1
gene  1 174 186 -1.0046098746700283 0 38594.0 -1.0046098746700283 1
gene  1 10 70 1.6290062719582283 0 38623.0 1.6290062719582283 1
gene  1 638 189 1.9845503316509037 0 38653.0 1.9845503316509037 1
gene  1 588 61 -3.332820812846568 0 38731.0 -3.332820812846568 1
gene  1 19 769 -1.2887676501455856 0 38746.0 -1.2887676501455856 1
gene  1 769 57 -2.096117266381089 0 38747.0 -2.096117266381089 1
gene  1 54 217 1.3056012138765871 0 38754.0 1.3056012138765871 1
gene  1 34 68 2.1446790260528026 0 38776.0 2.1446790260528026 1
gene  1 61 684 0.8112926310991552 0 38781.0 0.8112926310991552 1
gene  1 47 709 2.092358969193229 0 38808.0 2.092358969193229 1
gene  1 195 57 -1.3279604011190833 0 38834.0 -1.3279604011190833 1
gene  1 59 790 -2.0687910213034835 1 38840.0 -2.0687910213034835 1
gene  1 790 57 -2.423513815974286 0 38841.0 -2.423513815974286 1
gene  1 566 68 -1.7222050017061656 0 38864.0 -1.7222050017061656 1
gene  1 29 53 1.1008400051492089 0 38945.0 1.1008400051492089 1
gene  1 212 341 0.4314292190907312 0 38962.0 0.4314292190907312 1
genomeend 0
/* Organism # 001 Fitness:  2063,311 Error:  1000,000                      */
genomestart  1
trait 1 1.8462137539908836 1.4533401158465444 0.7970765430938219 0.4939336966909512 0.0 1.1871497161866005 0.761807071251285 1.469854737915162 
node 1 1 1 1
node 2 1 1 1
node 3 1 1 1
node 4 1 1 1
node 5 1 1 1
node 6 1 1 1
node 7 1 1 1
node 8 1 1 1
node 9 1 1 1
node 10 1 1 1
node 11 1 1 1
node 12 1 1 1
node 13 1 1 1
node 14 1 1 1
node 15 1 1 1
node 16 1 1 1
node 17 1 1 1
node 18 1 1 1
node 19 1 1 1
node 20 1 1 1
node 21 1 1 1
node 22 1 1 1
node 23 1 1 1
node 24 1 1 1
node 25 1 1 1
node 26 1 1 1
node 27 1 1 1
node 28 1 1 1
node 29 1 1 1
node 30 1 1 1
node 31 1 1 1
node 32 1 1 1
node 33 1 1 1
node 34 1 1 1
node 35 1 1 1
node 36 1 1 1
node 37 1 1 1
node 38 1 1 1
node 39 1 1 1
node 40 1 1 1
node 41 1 1 1
node 42 1 1 1
node 43 1 1 1
node 44 1 1 1
node 45 1 1 1
node 46 1 1 1
node 47 1 1 1
node 48 1 1 1
node 49 1 1 1
node 50 1 1 3
node 51 1 0 0
node 52 1 0 0
node 53 1 0 0
node 54 1 0 0
node 55 1 0 0
node 56 1 0 0
node 57 1 0 0
node 58 1 0 0
node 59 1 0 0
node 60 1 0 0
node 61 1 0 0
node 62 1 0 0
node 63 1 0 0
node 64 1 0 0
node 65 1 0 0
node 66 1 0 0
node 67 1 0 0
node 68 1 0 0
node 69 1 0 0
node 70 1 0 0
node 71 1 0 0
node 72 1 0 0
node 73 1 0 0
node 74 1 0 0
node 75 1 0 0
node 171 1 0 2
node 172 1 0 2
node 173 1 0 2
node 174 1 0 2
node 175 1 0 2
node 176 1 0 2
node 177 1 0 2
node 178 1 0 2
node 179 1 0 2
node 180 1 0 2
node 181 1 0 2
node 182 1 0 2
node 183 1 0 2
node 184 1 0 2
node 185 1 0 2
node 186 1 0 2
node 187 1 0 2
node 188 1 0 2
node 189 1 0 2
node 190 1 0 2
node 193 1 0 0
node 195 1 0 0
node 212 1 0 0
node 217 1 0 0
node 230 1 0 0
node 244 1 0 0
node 291 1 0 0
node 297 1 0 0
node 300 1 0 0
node 321 1 0 0
node 325 1 0 0
node 334 1 0 0
node 341 1 0 0
node 416 1 0 0
node 433 1 0 0
node 436 1 0 0
node 447 1 0 0
node 464 1 0 0
node 511 1 0 0
node 537 1 0 0
node 566 1 0 0
node 588 1 0 0
node 628 1 0 0
node 635 1 0 0
node 638 1 0 0
node 644 1 0 0
node 657 1 0 0
node 667 1 0 0
node 683 1 0 0
node 684 1 0 0
node 690 1 0 0
node 709 1 0 0
node 769 1 0 0
node 790 1 0 0
gene  1 28 51 0.43535499610368267 0 9527.0 0.43535499610368267 1
gene  1 33 51 -13.127943371973593 0 9532.0 -13.127943371973593 1
gene  1 36 51 4.766248633056276 0 9535.0 4.766248633056276 1
gene  1 40 51 15.746020116446637 0 9539.0 15.746020116446637 1
gene  1 42 51 6.396099664148565 0 9541.0 6.396099664148565 1
gene  1 54 51 4.428459931617602 1 9553.0 4.428459931617602 1
gene  1 57 51 8.757412366195425 1 9556.0 8.757412366195425 1
gene  1 68 51 -4.009726772188863 1 9567.0 -4.009726772188863 1
gene  1 174 51 -8.234570621022073 1 9673.0 -8.234570621022073 1
gene  1 183 51 0.20249050860797924 1 9682.0 0.20249050860797924 1
gene  1 184 51 1.568112065005065 1 9683.0 1.568112065005065 1
gene  1 189 51 -2.8743425209829816 1 9688.0 -2.8743425209829816 1
gene  1 3 52 -5.156998386104661 0 9692.0 -5.156998386104661 1
gene  1 6 52 1.3799458946641527 0 9695.0 1.3799458946641527 1
gene  1 24 52 2.173540736076805 0 9713.0 2.173540736076805 1
gene  1 29 52 4.8686262987336875 0 9718.0 4.8686262987336875 1
gene  1 31 52 0.12730808743272193 0 9720.0 0.12730808743272193 1
gene  1 35 52 7.603316450387659 0 9724.0 7.603316450387659 1
gene  1 63 52 -0.8046046799758222 1 9752.0 -0.8046046799758222 1
gene  1 179 52 1.8459809425432827 1 9868.0 1.8459809425432827 1
gene  1 183 52 -6.198688865628043 1 9872.0 -6.198688865628043 1
gene  1 184 52 2.226734163909507 1 9873.0 2.226734163909507 1
gene  1 185 52 9.016484227154924 1 9874.0 9.016484227154924 1
gene  1 5 53 -3.2309599747741626 0 9884.0 -3.2309599747741626 1
gene  1 6 53 0.5862929370271184 0 9885.0 0.5862929370271184 1
gene  1 10 53 2.9638681362687405 0 9889.0 2.9638681362687405 1
gene  1 33 53 -0.8155734528627945 0 9912.0 -0.8155734528627945 1
gene  1 35 53 5.744645816919863 0 9914.0 5.744645816919863 1
gene  1 38 53 -1.9547069963795602 0 9917.0 -1.9547069963795602 1
gene  1 45 53 5.072107243039319 0 9924.0 5.072107243039319 1
gene  1 71 53 -2.1507934414934167 1 9950.0 -2.1507934414934167 1
gene  1 16 54 2.6855804032627124 0 10085.0 2.6855804032627124 1
gene  1 19 54 1.2434421059517247 0 10088.0 1.2434421059517247 1
gene  1 36 54 0.710779088359923 0 10105.0 0.710779088359923 1
gene  1 42 54 3.0017054363264912 0 10111.0 3.0017054363264912 1
gene  1 58 54 -4.857771751114866 1 10127.0 -4.857771751114866 1
gene  1 62 54 6.721970297655623 1 10131.0 6.721970297655623 1
gene  1 73 54 2.147779241117003 1 10142.0 2.147779241117003 1
gene  1 177 54 -15.994047673031734 1 10246.0 -15.994047673031734 1
gene  1 180 54 5.711160448611178 1 10249.0 5.711160448611178 1
gene  1 190 54 -3.44416171082014 1 10259.0 -3.44416171082014 1
gene  1 20 55 -1.104786175399897 0 10279.0 -1.104786175399897 1
gene  1 31 55 -1.81634760685535 0 10290.0 -1.81634760685535 1
gene  1 35 55 0.23034823644280644 0 10294.0 0.23034823644280644 1
gene  1 41 55 3.3600053403194927 0 10300.0 3.3600053403194927 1
gene  1 47 55 -2.87860359919149 0 10306.0 -2.87860359919149 1
gene  1 52 55 -2.6646386902765498 0 10311.0 -2.6646386902765498 1
gene  1 69 55 -2.475971447323035 1 10328.0 -2.475971447323035 1
gene  1 75 55 4.885972459840171 1 10334.0 4.885972459840171 1
gene  1 187 55 -3.9129034837699184 1 10446.0 -3.9129034837699184 1
gene  1 7 56 2.523697847860239 0 10456.0 2.523697847860239 1
gene  1 11 56 -0.52713102799184 0 10460.0 -0.52713102799184 1
gene  1 13 56 -3.1003598602991476 0 10462.0 -3.1003598602991476 1
gene  1 36 56 -1.6371443621472728 0 10485.0 -1.6371443621472728 1
gene  1 41 56 -0.10522661486247031 0 10490.0 -0.10522661486247031 1
gene  1 44 56 -5.028328855264886 0 10493.0 -5.028328855264886 1
gene  1 46 56 -2.049159255230397 0 10495.0 -2.049159255230397 1
gene  1 49 56 1.2253952997674291 0 10498.0 1.2253952997674291 1
gene  1 68 56 -3.088189399094289 1 10517.0 -3.088189399094289 1
gene  1 179 56 1.1219269059685208 1 10628.0 1.1219269059685208 1
gene  1 183 56 4.5208274356241605 1 10632.0 4.5208274356241605 1
gene  1 3 57 -5.975819436338246 0 10642.0 -5.975819436338246 1
gene  1 19 57 2.354001694294873 0 10658.0 2.354001694294873 1
gene  1 22 57 -7.259857066968356 0 10661.0 -7.259857066968356 1
gene  1 28 57 -1.0297053957562823 0 10667.0 -1.0297053957562823 1
gene  1 30 57 0.5856829107741942 0 10669.0 0.5856829107741942 1
gene  1 35 57 -3.503491913398075 0 10674.0 -3.503491913398075 1
gene  1 47 57 -0.1928602956212757 0 10686.0 -0.1928602956212757 1
gene  1 59 57 1.927697890424467 1 10698.0 1.927697890424467 1
gene  1 60 57 1.6211233312642053 1 10699.0 1.6211233312642053 1
gene  1 187 57 0.6366485148354872 1 10826.0 0.6366485148354872 1
gene  1 5 58 -1.8481140580582993 0 10834.0 -1.8481140580582993 1
gene  1 14 58 -2.9903161624733965 0 10843.0 -2.9903161624733965 1
gene  1 15 58 2.504971306717871 0 10844.0 2.504971306717871 1
gene  1 24 58 3.825190152853112 0 10853.0 3.825190152853112 1
gene  1 32 58 -3.745134203518936 0 10861.0 -3.745134203518936 1
gene  1 43 58 0.7911348987768865 0 10872.0 0.7911348987768865 1
gene  1 49 58 0.6217563320252345 0 10878.0 0.6217563320252345 1
gene  1 53 58 -3.1785786149426976 0 10882.0 -3.1785786149426976 1
gene  1 62 58 3.728443195510579 1 10891.0 3.728443195510579 1
gene  1 64 58 -5.4465306571878855 1 10893.0 -5.4465306571878855 1
gene  1 69 58 -0.1988347384873197 1 10898.0 -0.1988347384873197 1
gene  1 182 58 -4.961839527465041 1 11011.0 -4.961839527465041 1
gene  1 1 59 -3.9141376883686685 0 11020.0 -3.9141376883686685 1
gene  1 4 59 -1.5410964409113548 0 11023.0 -1.5410964409113548 1
gene  1 27 59 0.45909152050444113 0 11046.0 0.45909152050444113 1
gene  1 34 59 0.8059931329569814 0 11053.0 0.8059931329569814 1
gene  1 37 59 -2.900917580113058 0 11056.0 -2.900917580113058 1
gene  1 44 59 5.572448294150443 0 11063.0 5.572448294150443 1
gene  1 59 59 3.804133368264971 1 11078.0 3.804133368264971 1
gene  1 73 59 1.1491541328321482 1 11092.0 1.1491541328321482 1
gene  1 75 59 4.142019049260054 1 11094.0 4.142019049260054 1
gene  1 183 59 5.562925916397571 1 11202.0 5.562925916397571 1
gene  1 185 59 1.0654480457109372 1 11204.0 1.0654480457109372 1
gene  1 8 60 -2.377745183328822 0 11217.0 -2.377745183328822 1
gene  1 10 60 -0.8798850875965286 0 11219.0 -0.8798850875965286 1
gene  1 40 60 -0.9340869117479769 0 11249.0 -0.9340869117479769 1
gene  1 45 60 0.42404581917185735 0 11254.0 0.42404581917185735 1
gene  1 61 60 5.597209992235458 1 11270.0 5.597209992235458 1
gene  1 72 60 -1.7703179377828135 1 11281.0 -1.7703179377828135 1
gene  1 177 60 -3.921535776390464 1 11386.0 -3.921535776390464 1
gene  1 179 60 -3.6941630272966077 1 11388.0 -3.6941630272966077 1
gene  1 187 60 -2.86465611372991 1 11396.0 -2.86465611372991 1
gene  1 7 61 -5.073775437574707 0 11406.0 -5.073775437574707 1
gene  1 15 61 0.22821619014233607 0 11414.0 0.22821619014233607 1
gene  1 22 61 -2.951894273343388 0 11421.0 -2.951894273343388 1
gene  1 28 61 0.33982452714283085 0 11427.0 0.33982452714283085 1
gene  1 36 61 1.1792797017823315 0 11435.0 1.1792797017823315 1
gene  1 53 61 6.879745983922159 0 11452.0 6.879745983922159 1
gene  1 54 61 -6.878521616365295 0 11453.0 -6.878521616365295 1
gene  1 67 61 0.6470057191700147 1 11466.0 0.6470057191700147 1
gene  1 177 61 -1.1905587968953824 1 11576.0 -1.1905587968953824 1
gene  1 184 61 9.288005650431035 1 11583.0 9.288005650431035 1
gene  1 6 62 -0.6745233585120372 0 11595.0 -0.6745233585120372 1
gene  1 11 62 -0.5012241624480152 0 11600.0 -0.5012241624480152 1
gene  1 15 62 7.330176864328264 0 11604.0 7.330176864328264 1
gene  1 26 62 -0.14580539386976432 0 11615.0 -0.14580539386976432 1
gene  1 53 62 -5.371292117026172 0 11642.0 -5.371292117026172 1
gene  1 68 62 0.1643467001476866 1 11657.0 0.1643467001476866 1
gene  1 72 62 5.918023413645092 1 11661.0 5.918023413645092 1
gene  1 174 62 -5.286222363339952 1 11763.0 -5.286222363339952 1
gene  1 175 62 -1.2467295089248376 1 11764.0 -1.2467295089248376 1
gene  1 184 62 2.0556519724332993 1 11773.0 2.0556519724332993 1
gene  1 185 62 2.3062173754944943 1 11774.0 2.3062173754944943 1
gene  1 188 62 -1.3164276115906381 1 11777.0 -1.3164276115906381 1
gene  1 31 63 1.3555033574758464 0 11810.0 1.3555033574758464 1
gene  1 32 63 -3.6282449389615454 0 11811.0 -3.6282449389615454 1
gene  1 37 63 -1.3021762546765778 0 11816.0 -1.3021762546765778 1
gene  1 38 63 8.6528412435721 0 11817.0 8.6528412435721 1
gene  1 42 63 0.3439602306348233 0 11821.0 0.3439602306348233 1
gene  1 46 63 -1.2154065635513949 0 11825.0 -1.2154065635513949 1
gene  1 48 63 4.073418974810875 0 11827.0 4.073418974810875 1
gene  1 50 63 5.616820185872179 0 11829.0 5.616820185872179 1
gene  1 60 63 -1.7663626369145466 0 11839.0 -1.7663626369145466 1
gene  1 63 63 1.325564979117304 1 11842.0 1.325564979117304 1
gene  1 72 63 -0.9066884998448586 1 11851.0 -0.9066884998448586 1
gene  1 74 63 -0.14074648209708007 1 11853.0 -0.14074648209708007 1
gene  1 178 63 -3.236578736704792 1 11957.0 -3.236578736704792 1
gene  1 180 63 5.109882303895284 1 11959.0 5.109882303895284 1
gene  1 181 63 1.156600720572941 1 11960.0 1.156600720572941 1
gene  1 8 64 -9.945088696096485 0 11977.0 -9.945088696096485 1
gene  1 11 64 2.596396266782139 0 11980.0 2.596396266782139 1
gene  1 20 64 0.4129369317850991 0 11989.0 0.4129369317850991 1
gene  1 27 64 14.841594053284238 0 11996.0 14.841594053284238 1
gene  1 41 64 0.8971948498270059 0 12010.0 0.8971948498270059 1
gene  1 44 64 3.201850439418577 0 12013.0 3.201850439418577 1
gene  1 49 64 -0.016578289305338667 0 12018.0 -0.016578289305338667 1
gene  1 50 64 0.6594194720167317 0 12019.0 0.6594194720167317 1
gene  1 53 64 -1.4412911131501058 0 12022.0 -1.4412911131501058 1
gene  1 59 64 1.951732058458219 0 12028.0 1.951732058458219 1
gene  1 70 64 0.43239381505829433 1 12039.0 0.43239381505829433 1
gene  1 176 64 -8.481689977000899 1 12145.0 -8.481689977000899 1
gene  1 179 64 0.6869775392888653 1 12148.0 0.6869775392888653 1
gene  1 183 64 4.711713607035574 1 12152.0 4.711713607035574 1
gene  1 184 64 7.812791514312836 1 12153.0 7.812791514312836 1
gene  1 185 64 4.090110806441733 1 12154.0 4.090110806441733 1
gene  1 8 65 -2.85056831155789 0 12167.0 -2.85056831155789 1
gene  1 13 65 0.910054428137095 0 12172.0 0.910054428137095 1
gene  1 18 65 0.6355340949425308 0 12177.0 0.6355340949425308 1
gene  1 39 65 -3.7712764855380283 0 12198.0 -3.7712764855380283 1
gene  1 53 65 -1.7006395992196754 0 12212.0 -1.7006395992196754 1
gene  1 69 65 -8.561404047606826 1 12228.0 -8.561404047606826 1
gene  1 70 65 12.03226283633596 1 12229.0 12.03226283633596 1
gene  1 175 65 9.676066829740886 1 12334.0 9.676066829740886 1
gene  1 176 65 -4.229370843503222 1 12335.0 -4.229370843503222 1
gene  1 177 65 -4.972832171735956 1 12336.0 -4.972832171735956 1
gene  1 185 65 0.3160321172741263 1 12344.0 0.3160321172741263 1
gene  1 1 66 -3.8514843162327255 0 12350.0 -3.8514843162327255 1
gene  1 4 66 -4.017155397207887 0 12353.0 -4.017155397207887 1
gene  1 18 66 3.494481430536961 0 12367.0 3.494481430536961 1
gene  1 21 66 -1.5966743083885302 0 12370.0 -1.5966743083885302 1
gene  1 43 66 5.050302116798682 0 12392.0 5.050302116798682 1
gene  1 47 66 2.1143619161625273 0 12396.0 2.1143619161625273 1
gene  1 50 66 2.8942369219065496 0 12399.0 2.8942369219065496 1
gene  1 60 66 -9.206464963094346 0 12409.0 -9.206464963094346 1
gene  1 62 66 2.4799002469602804 0 12411.0 2.4799002469602804 1
gene  1 66 66 -2.8725422712390905 1 12415.0 -2.8725422712390905 1
gene  1 184 66 0.8360847568193686 1 12533.0 0.8360847568193686 1
gene  1 8 67 -11.33102748964954 0 12547.0 -11.33102748964954 1
gene  1 38 67 1.461121479184853 0 12577.0 1.461121479184853 1
gene  1 46 67 3.350458471594008 0 12585.0 3.350458471594008 1
gene  1 49 67 1.4810288304973291 0 12588.0 1.4810288304973291 1
gene  1 57 67 -1.2904708588316758 0 12596.0 -1.2904708588316758 1
gene  1 61 67 -4.470250336428746 0 12600.0 -4.470250336428746 1
gene  1 72 67 -1.1621282134926054 1 12611.0 -1.1621282134926054 1
gene  1 177 67 3.942940884021607 1 12716.0 3.942940884021607 1
gene  1 182 67 -1.1383410174390192 1 12721.0 -1.1383410174390192 1
gene  1 185 67 -0.4529815895512652 1 12724.0 -0.4529815895512652 1
gene  1 189 67 -0.7880794301959024 1 12728.0 -0.7880794301959024 1
gene  1 5 68 -2.8168495585274407 0 12734.0 -2.8168495585274407 1
gene  1 16 68 -0.04987522918666665 0 12745.0 -0.04987522918666665 1
gene  1 40 68 -6.145702459738902 0 12769.0 -6.145702459738902 1
gene  1 41 68 -7.162731489973856 0 12770.0 -7.162731489973856 1
gene  1 42 68 -4.648912971514246 0 12771.0 -4.648912971514246 1
gene  1 71 68 6.614367905654694 1 12800.0 6.614367905654694 1
gene  1 185 68 -14.501677508953511 1 12914.0 -14.501677508953511 1
gene  1 6 69 4.579715363063741 0 12925.0 4.579715363063741 1
gene  1 16 69 -0.28821247500402664 0 12935.0 -0.28821247500402664 1
gene  1 19 69 -14.366329269828341 0 12938.0 -14.366329269828341 1
gene  1 44 69 -0.9102314566524545 0 12963.0 -0.9102314566524545 1
gene  1 45 69 -4.255139767272762 0 12964.0 -4.255139767272762 1
gene  1 65 69 -7.004883930110594 0 12984.0 -7.004883930110594 1
gene  1 171 69 13.989048594522671 1 13090.0 13.989048594522671 1
gene  1 3 70 -1.8219366227880902 0 13112.0 -1.8219366227880902 1
gene  1 39 70 -0.16652253842880194 0 13148.0 -0.16652253842880194 1
gene  1 60 70 -4.525332122077925 0 13169.0 -4.525332122077925 1
gene  1 171 70 0.2290266607411029 1 13280.0 0.2290266607411029 1
gene  1 181 70 -2.9739501264716153 1 13290.0 -2.9739501264716153 1
gene  1 183 70 5.525675092595426 1 13292.0 5.525675092595426 1
gene  1 11 71 1.2129072099266667 0 13310.0 1.2129072099266667 1
gene  1 15 71 -0.6242035560876755 0 13314.0 -0.6242035560876755 1
gene  1 30 71 -5.477398866933686 0 13329.0 -5.477398866933686 1
gene  1 33 71 8.214556252905309 0 13332.0 8.214556252905309 1
gene  1 34 71 -3.592032319870338 0 13333.0 -3.592032319870338 1
gene  1 48 71 1.5519843473124109 0 13347.0 1.5519843473124109 1
gene  1 50 71 -1.826842109446706 0 13349.0 -1.826842109446706 1
gene  1 51 71 0.9996258055555816 0 13350.0 0.9996258055555816 1
gene  1 57 71 -2.359011219421938 0 13356.0 -2.359011219421938 1
gene  1 73 71 -0.8422783654921293 1 13372.0 -0.8422783654921293 1
gene  1 185 71 0.636192343730668 1 13484.0 0.636192343730668 1
gene  1 24 72 -3.650064091964135 0 13513.0 -3.650064091964135 1
gene  1 51 72 -0.05828507824891105 0 13540.0 -0.05828507824891105 1
gene  1 54 72 0.7014056258402794 0 13543.0 0.7014056258402794 1
gene  1 60 72 -2.533537649262958 0 13549.0 -2.533537649262958 1
gene  1 3 73 -0.8132923287178382 0 13682.0 -0.8132923287178382 1
gene  1 18 73 -5.9934025675986415 0 13697.0 -5.9934025675986415 1
gene  1 30 73 -13.069743604905916 0 13709.0 -13.069743604905916 1
gene  1 41 73 -5.016866484593436 0 13720.0 -5.016866484593436 1
gene  1 54 73 2.028836376152296 0 13733.0 2.028836376152296 1
gene  1 59 73 -12.485493834738229 0 13738.0 -12.485493834738229 1
gene  1 60 73 8.63128089912255 0 13739.0 8.63128089912255 1
gene  1 179 73 -3.8042766743183503 1 13858.0 -3.8042766743183503 1
gene  1 189 73 -2.9872315312123794 1 13868.0 -2.9872315312123794 1
gene  1 31 74 0.5290642108321102 0 13900.0 0.5290642108321102 1
gene  1 38 74 3.055897889533092 0 13907.0 3.055897889533092 1
gene  1 67 74 2.435167922622855 0 13936.0 2.435167922622855 1
gene  1 74 74 9.912559091108715 1 13943.0 9.912559091108715 1
gene  1 188 74 0.43574661190012415 1 14057.0 0.43574661190012415 1
gene  1 2 75 -5.19195804953896 0 14061.0 -5.19195804953896 1
gene  1 10 75 -0.23555033769270528 0 14069.0 -0.23555033769270528 1
gene  1 12 75 -8.518367227916867 0 14071.0 -8.518367227916867 1
gene  1 15 75 -3.2515580794202137 0 14074.0 -3.2515580794202137 1
gene  1 18 75 -4.403350149932749 0 14077.0 -4.403350149932749 1
gene  1 43 75 -0.8596412147006862 0 14102.0 -0.8596412147006862 1
gene  1 46 75 0.8925792146602026 0 14105.0 0.8925792146602026 1
gene  1 56 75 2.9882063336893196 0 14115.0 2.9882063336893196 1
gene  1 57 75 -16.30202567257721 0 14116.0 -16.30202567257721 1
gene  1 177 75 3.899823205006741 1 14236.0 3.899823205006741 1
gene  1 183 75 -2.782301955709147 1 14242.0 -2.782301955709147 1
gene  1 3 171 -0.43781358520691893 0 32302.0 -0.43781358520691893 1
gene  1 10 171 -1.8929053844439734 0 32309.0 -1.8929053844439734 1
gene  1 18 171 -3.2853571164715745 0 32317.0 -3.2853571164715745 1
gene  1 35 171 -8.325962789460569 0 32334.0 -8.325962789460569 1
gene  1 47 171 -4.544253338305213 0 32346.0 -4.544253338305213 1
gene  1 48 171 -3.3765126808285237 0 32347.0 -3.3765126808285237 1
gene  1 63 171 0.03616117236868077 0 32362.0 0.03616117236868077 1
gene  1 74 171 1.9021458873316368 0 32373.0 1.9021458873316368 1
gene  1 171 171 -1.4482687272144619 1 32470.0 -1.4482687272144619 1
gene  1 180 171 7.662354770866869 1 32479.0 7.662354770866869 1
gene  1 181 171 1.4778599457687414 1 32480.0 1.4778599457687414 1
gene  1 16 172 0.005067412463195642 0 32505.0 0.005067412463195642 1
gene  1 38 172 2.2709586350228808 0 32527.0 2.2709586350228808 1
gene  1 58 172 -5.870211738871003 0 32547.0 -5.870211738871003 1
gene  1 59 172 6.215548063326859 0 32548.0 6.215548063326859 1
gene  1 60 172 2.7498345910096815 0 32549.0 2.7498345910096815 1
gene  1 73 172 -4.0628286946557495 0 32562.0 -4.0628286946557495 1
gene  1 171 172 1.194463066849445 0 32660.0 1.194463066849445 1
gene  1 173 172 -7.751292319104371 1 32662.0 -7.751292319104371 1
gene  1 7 173 -5.5751797427228125 0 32686.0 -5.5751797427228125 1
gene  1 29 173 -0.2321995837802111 0 32708.0 -0.2321995837802111 1
gene  1 30 173 -3.072465057043412 0 32709.0 -3.072465057043412 1
gene  1 38 173 1.323816426193457 0 32717.0 1.323816426193457 1
gene  1 56 173 1.7755108237803459 0 32735.0 1.7755108237803459 1
gene  1 68 173 -2.919352008136603 0 32747.0 -2.919352008136603 1
gene  1 72 173 -2.4414900479693573 0 32751.0 -2.4414900479693573 1
gene  1 75 173 2.673058734084682 0 32754.0 2.673058734084682 1
gene  1 180 173 7.968059433487566 1 32859.0 7.968059433487566 1
gene  1 45 174 -4.0177802456885905 0 32914.0 -4.0177802456885905 1
gene  1 174 174 0.26371460687503223 1 33043.0 0.26371460687503223 1
gene  1 180 174 -4.715668926739289 1 33049.0 -4.715668926739289 1
gene  1 186 174 9.512845692661303 1 33055.0 9.512845692661303 1
gene  1 2 175 -2.242541287403152 0 33061.0 -2.242541287403152 1
gene  1 11 175 -1.4533207439236238 0 33070.0 -1.4533207439236238 1
gene  1 26 175 -0.8923861117448315 0 33085.0 -0.8923861117448315 1
gene  1 37 175 -1.5043116309945854 0 33096.0 -1.5043116309945854 1
gene  1 43 175 6.471070875429721 0 33102.0 6.471070875429721 1
gene  1 48 175 6.260598036059159 0 33107.0 6.260598036059159 1
gene  1 51 175 26.964599015496095 0 33110.0 26.964599015496095 1
gene  1 64 175 1.9122313221500464 0 33123.0 1.9122313221500464 1
gene  1 70 175 8.445250916122532 0 33129.0 8.445250916122532 1
gene  1 71 175 0.850268037029634 0 33130.0 0.850268037029634 1
gene  1 177 175 3.8175240030796296 1 33236.0 3.8175240030796296 1
gene  1 178 175 0.12285341843493525 1 33237.0 0.12285341843493525 1
gene  1 181 175 -0.8881588209529583 1 33240.0 -0.8881588209529583 1
gene  1 184 175 -0.8532727890422449 1 33243.0 -0.8532727890422449 1
gene  1 186 175 -3.248639284312652 1 33245.0 -3.248639284312652 1
gene  1 2 176 -0.8763367138250777 0 33251.0 -0.8763367138250777 1
gene  1 8 176 0.14755595562456753 0 33257.0 0.14755595562456753 1
gene  1 9 176 5.105111139142068 0 33258.0 5.105111139142068 1
gene  1 12 176 1.0831939102907078 0 33261.0 1.0831939102907078 1
gene  1 15 176 -0.8869514182539391 0 33264.0 -0.8869514182539391 1
gene  1 16 176 -0.14739552759213553 0 33265.0 -0.14739552759213553 1
gene  1 35 176 2.6993021299509836 0 33284.0 2.6993021299509836 1
gene  1 37 176 2.228950688667522 0 33286.0 2.228950688667522 1
gene  1 46 176 -0.10039003969531146 0 33295.0 -0.10039003969531146 1
gene  1 62 176 -12.770246803671359 0 33311.0 -12.770246803671359 1
gene  1 64 176 0.22855118355964055 0 33313.0 0.22855118355964055 1
gene  1 171 176 0.043946323622941375 0 33420.0 0.043946323622941375 1
gene  1 174 176 -1.3899009235055992 0 33423.0 -1.3899009235055992 1
gene  1 179 176 0.36124463922963446 1 33428.0 0.36124463922963446 1
gene  1 1 177 -3.3071314475296982 0 33440.0 -3.3071314475296982 1
gene  1 7 177 -4.3268492034315615 0 33446.0 -4.3268492034315615 1
gene  1 8 177 -4.546524157064354 0 33447.0 -4.546524157064354 1
gene  1 9 177 -9.423420605360116 0 33448.0 -9.423420605360116 1
gene  1 14 177 -1.0272256019459665 0 33453.0 -1.0272256019459665 1
gene  1 16 177 2.168615757333394 0 33455.0 2.168615757333394 1
gene  1 20 177 9.42577464594168 0 33459.0 9.42577464594168 1
gene  1 30 177 10.117233651625336 0 33469.0 10.117233651625336 1
gene  1 31 177 -0.0636223994559666 0 33470.0 -0.0636223994559666 1
gene  1 32 177 2.9880257697079644 0 33471.0 2.9880257697079644 1
gene  1 43 177 -4.697817903924518 0 33482.0 -4.697817903924518 1
gene  1 44 177 -4.172049117705313 0 33483.0 -4.172049117705313 1
gene  1 53 177 2.4507292319043694 0 33492.0 2.4507292319043694 1
gene  1 59 177 -3.6262959717746774 0 33498.0 -3.6262959717746774 1
gene  1 69 177 16.089699012540542 0 33508.0 16.089699012540542 1
gene  1 174 177 -1.655341870996561 0 33613.0 -1.655341870996561 1
gene  1 175 177 8.800821381671275 0 33614.0 8.800821381671275 1
gene  1 184 177 -0.9244364993109373 1 33623.0 -0.9244364993109373 1
gene  1 187 177 5.622371282817488 1 33626.0 5.622371282817488 1
gene  1 1 178 -0.7945635678257824 0 33630.0 -0.7945635678257824 1
gene  1 20 178 1.2295677059312282 0 33649.0 1.2295677059312282 1
gene  1 26 178 1.987013346315006 0 33655.0 1.987013346315006 1
gene  1 35 178 0.18691813453308437 0 33664.0 0.18691813453308437 1
gene  1 42 178 1.938444113540358 0 33671.0 1.938444113540358 1
gene  1 53 178 2.484908761862134 0 33682.0 2.484908761862134 1
gene  1 59 178 0.2282988386077982 0 33688.0 0.2282988386077982 1
gene  1 72 178 8.948826408518483 0 33701.0 8.948826408518483 1
gene  1 172 178 -0.961263475152017 0 33801.0 -0.961263475152017 1
gene  1 190 178 -0.35917369871972316 1 33819.0 -0.35917369871972316 1
gene  1 6 179 7.660881960541895 0 33825.0 7.660881960541895 1
gene  1 8 179 4.410583438473597 0 33827.0 4.410583438473597 1
gene  1 13 179 1.460561577506695 0 33832.0 1.460561577506695 1
gene  1 36 179 -13.439937070999424 0 33855.0 -13.439937070999424 1
gene  1 46 179 1.3446679549205443 0 33865.0 1.3446679549205443 1
gene  1 60 179 10.821828075669048 0 33879.0 10.821828075669048 1
gene  1 61 179 1.7178757313096562 0 33880.0 1.7178757313096562 1
gene  1 72 179 8.17410546617725 0 33891.0 8.17410546617725 1
gene  1 74 179 3.242953673255682 0 33893.0 3.242953673255682 1
gene  1 171 179 2.821971604315308 0 33990.0 2.821971604315308 1
gene  1 185 179 0.7700485723673174 1 34004.0 0.7700485723673174 1
gene  1 1 180 -3.626939346288548 0 34010.0 -3.626939346288548 1
gene  1 4 180 3.025226066566593 0 34013.0 3.025226066566593 1
gene  1 8 180 2.8965064623384142 0 34017.0 2.8965064623384142 1
gene  1 11 180 -5.164308805242517 0 34020.0 -5.164308805242517 1
gene  1 21 180 -1.9411871044176139 0 34030.0 -1.9411871044176139 1
gene  1 32 180 -2.6618893533409276 0 34041.0 -2.6618893533409276 1
gene  1 35 180 -6.275441165028676 0 34044.0 -6.275441165028676 1
gene  1 46 180 -1.0239258860599911 0 34055.0 -1.0239258860599911 1
gene  1 68 180 -2.4647773067239536 0 34077.0 -2.4647773067239536 1
gene  1 188 180 5.722304870238524 1 34197.0 5.722304870238524 1
gene  1 2 181 3.032655935262417 0 34201.0 3.032655935262417 1
gene  1 16 181 4.017502685287905 0 34215.0 4.017502685287905 1
gene  1 24 181 -6.794243678201978 0 34223.0 -6.794243678201978 1
gene  1 36 181 -3.064283047497533 0 34235.0 -3.064283047497533 1
gene  1 60 181 -1.406709417053842 0 34259.0 -1.406709417053842 1
gene  1 69 181 2.4725927742525142 0 34268.0 2.4725927742525142 1
gene  1 190 181 -1.5629489311448133 1 34389.0 -1.5629489311448133 1
gene  1 1 182 -3.7356546562604693 0 34390.0 -3.7356546562604693 1
gene  1 17 182 4.0790856265330255 0 34406.0 4.0790856265330255 1
gene  1 35 182 7.668200187989979 0 34424.0 7.668200187989979 1
gene  1 44 182 1.510837382685195 0 34433.0 1.510837382685195 1
gene  1 49 182 -0.28142500777282586 0 34438.0 -0.28142500777282586 1
gene  1 50 182 1.662700476980312 0 34439.0 1.662700476980312 1
gene  1 54 182 2.585801729201945 0 34443.0 2.585801729201945 1
gene  1 59 182 -7.006666473561754 0 34448.0 -7.006666473561754 1
gene  1 73 182 10.118092911894651 0 34462.0 10.118092911894651 1
gene  1 174 182 2.9937928893350856 0 34563.0 2.9937928893350856 1
gene  1 187 182 3.63125838583772 1 34576.0 3.63125838583772 1
gene  1 6 183 -3.1166951818940825 0 34585.0 -3.1166951818940825 1
gene  1 7 183 -3.2026798943262307 0 34586.0 -3.2026798943262307 1
gene  1 17 183 -3.6252473470724187 0 34596.0 -3.6252473470724187 1
gene  1 20 183 -0.878605171800403 0 34599.0 -0.878605171800403 1
gene  1 25 183 0.24879001191970196 0 34604.0 0.24879001191970196 1
gene  1 30 183 2.126922934674303 0 34609.0 2.126922934674303 1
gene  1 39 183 1.7422054262074211 0 34618.0 1.7422054262074211 1
gene  1 44 183 9.195168003740694 0 34623.0 9.195168003740694 1
gene  1 66 183 1.3924648967016815 0 34645.0 1.3924648967016815 1
gene  1 171 183 2.5833751350442498 0 34750.0 2.5833751350442498 1
gene  1 174 183 -1.7633410515021044 0 34753.0 -1.7633410515021044 1
gene  1 21 184 -3.710061571545191 0 34790.0 -3.710061571545191 1
gene  1 29 184 0.5213032163092635 0 34798.0 0.5213032163092635 1
gene  1 32 184 0.3589518522839238 0 34801.0 0.3589518522839238 1
gene  1 36 184 -1.7671134365539771 0 34805.0 -1.7671134365539771 1
gene  1 45 184 6.466533142488706 0 34814.0 6.466533142488706 1
gene  1 46 184 8.372449007784107 0 34815.0 8.372449007784107 1
gene  1 63 184 -1.4336216500767762 0 34832.0 -1.4336216500767762 1
gene  1 66 184 -3.9896859280833445 0 34835.0 -3.9896859280833445 1
gene  1 177 184 1.9897644493461164 0 34946.0 1.9897644493461164 1
gene  1 31 185 7.147286895841749 0 34990.0 7.147286895841749 1
gene  1 50 185 -5.441088785793291 0 35009.0 -5.441088785793291 1
gene  1 56 185 -2.24702273529044 0 35015.0 -2.24702273529044 1
gene  1 58 185 0.3546654408736851 0 35017.0 0.3546654408736851 1
gene  1 62 185 1.71300709406579 0 35021.0 1.71300709406579 1
gene  1 173 185 -4.952679534160762 0 35132.0 -4.952679534160762 1
gene  1 179 185 2.790985451536129 0 35138.0 2.790985451536129 1
gene  1 182 185 1.609837972360441 0 35141.0 1.609837972360441 1
gene  1 188 185 2.4741124644725945 1 35147.0 2.4741124644725945 1
gene  1 1 186 0.3151945515782868 0 35150.0 0.3151945515782868 1
gene  1 3 186 0.08133547666948326 0 35152.0 0.08133547666948326 1
gene  1 4 186 -5.245241821499596 0 35153.0 -5.245241821499596 1
gene  1 6 186 -1.7810512202518334 0 35155.0 -1.7810512202518334 1
gene  1 7 186 -2.646721401681641 0 35156.0 -2.646721401681641 1
gene  1 17 186 -0.7096525685406252 0 35166.0 -0.7096525685406252 1
gene  1 23 186 -3.330333783789126 0 35172.0 -3.330333783789126 1
gene  1 28 186 -0.3994786857080792 0 35177.0 -0.3994786857080792 1
gene  1 33 186 0.07410157430386144 0 35182.0 0.07410157430386144 1
gene  1 36 186 0.44655054814509443 0 35185.0 0.44655054814509443 1
gene  1 58 186 5.533394130109754 0 35207.0 5.533394130109754 1
gene  1 69 186 -0.23299656125258217 0 35218.0 -0.23299656125258217 1
gene  1 70 186 -1.0100381259594364 0 35219.0 -1.0100381259594364 1
gene  1 72 186 6.129072000498528 0 35221.0 6.129072000498528 1
gene  1 10 187 2.8640121631808553 0 35349.0 2.8640121631808553 1
gene  1 25 187 2.4381867022898316 0 35364.0 2.4381867022898316 1
gene  1 31 187 -5.37044080910278 0 35370.0 -5.37044080910278 1
gene  1 33 187 0.9547488326398832 0 35372.0 0.9547488326398832 1
gene  1 47 187 1.4213986147047166 0 35386.0 1.4213986147047166 1
gene  1 57 187 -1.2554055854861352 0 35396.0 -1.2554055854861352 1
gene  1 183 187 -0.8585009105889532 0 35522.0 -0.8585009105889532 1
gene  1 184 187 4.2349278965241055 0 35523.0 4.2349278965241055 1
gene  1 5 188 -0.739729340708038 0 35534.0 -0.739729340708038 1
gene  1 6 188 6.78485138757533 0 35535.0 6.78485138757533 1
gene  1 12 188 0.45488276873287115 0 35541.0 0.45488276873287115 1
gene  1 28 188 4.629784500883952 0 35557.0 4.629784500883952 1
gene  1 32 188 12.306243347603221 0 35561.0 12.306243347603221 1
gene  1 35 188 4.782319454570355 0 35564.0 4.782319454570355 1
gene  1 57 188 4.518230687420297 0 35586.0 4.518230687420297 1
gene  1 172 188 -4.084506923506849 0 35701.0 -4.084506923506849 1
gene  1 14 189 1.4155318096609921 0 35733.0 1.4155318096609921 1
gene  1 17 189 -6.774084891878102 0 35736.0 -6.774084891878102 1
gene  1 27 189 -0.30774799692788113 0 35746.0 -0.30774799692788113 1
gene  1 37 189 -9.677910994171079 0 35756.0 -9.677910994171079 1
gene  1 43 189 -1.3226214741910907 0 35762.0 -1.3226214741910907 1
gene  1 51 189 -3.193992952124669 0 35770.0 -3.193992952124669 1
gene  1 56 189 -1.9617319615973159 0 35775.0 -1.9617319615973159 1
gene  1 59 189 -6.193943514923967 0 35778.0 -6.193943514923967 1
gene  1 65 189 5.568753813411889 0 35784.0 5.568753813411889 1
gene  1 73 189 1.392952762053533 0 35792.0 1.392952762053533 1
gene  1 74 189 -0.4559222348408635 0 35793.0 -0.4559222348408635 1
gene  1 178 189 -0.3187422120757788 0 35897.0 -0.3187422120757788 1
gene  1 1 190 4.419562121195083 0 35910.0 4.419562121195083 1
gene  1 4 190 1.2739621121871227 0 35913.0 1.2739621121871227 1
gene  1 15 190 -2.4004449433839907 0 35924.0 -2.4004449433839907 1
gene  1 22 190 3.44317520861694 0 35931.0 3.44317520861694 1
gene  1 33 190 -2.2714395185975262 0 35942.0 -2.2714395185975262 1
gene  1 58 190 6.903185258572389 0 35967.0 6.903185258572389 1
gene  1 60 190 4.487887467217825 0 35969.0 4.487887467217825 1
gene  1 67 190 6.467528288917441 0 35976.0 6.467528288917441 1
gene  1 179 190 -9.339654312937476 0 36088.0 -9.339654312937476 1
gene  1 181 190 -0.9211484534208811 0 36090.0 -0.9211484534208811 1
gene  1 182 190 6.98667528761724 0 36091.0 6.98667528761724 1
gene  1 184 190 2.3185472124865547 0 36093.0 2.3185472124865547 1
gene  1 186 190 5.511990940560382 0 36095.0 5.511990940560382 1
gene  1 187 190 2.605378667933695 0 36096.0 2.605378667933695 1
gene  1 65 188 -3.7159582684430257 0 36109.0 -3.7159582684430257 1
gene  1 1 193 -5.474357007485435 0 36113.0 -5.474357007485435 1
gene  1 193 190 -0.25555700708495666 0 36114.0 -0.25555700708495666 1
gene  1 29 68 -3.7589638537599512 0 36116.0 -3.7589638537599512 1
gene  1 181 195 1.448487473963299 1 36120.0 1.448487473963299 1
gene  1 195 63 -11.245756574039987 0 36121.0 -11.245756574039987 1
gene  1 7 171 4.793237852380864 0 36125.0 4.793237852380864 1
gene  1 22 72 -2.03692352965329 0 36150.0 -2.03692352965329 1
gene  1 47 212 0.18885794504348397 0 36196.0 0.18885794504348397 1
gene  1 212 55 -0.49932894269524775 0 36197.0 -0.49932894269524775 1
gene  1 55 58 1.068816802214579 0 36200.0 1.068816802214579 1
gene  1 33 217 7.306646437288546 0 36231.0 7.306646437288546 1
gene  1 217 187 6.195316837827448 0 36232.0 6.195316837827448 1
gene  1 69 56 1.1844501525034228 0 36255.0 1.1844501525034228 1
gene  1 51 173 2.16277901997833 0 36261.0 2.16277901997833 1
gene  1 35 230 6.26821911403072 0 36282.0 6.26821911403072 1
gene  1 230 57 0.9520978387296566 0 36283.0 0.9520978387296566 1
gene  1 43 244 4.452128222385777 0 36330.0 4.452128222385777 1
gene  1 244 189 0.20509575660684454 0 36331.0 0.20509575660684454 1
gene  1 13 172 -4.979349365356992 0 36334.0 -4.979349365356992 1
gene  1 52 230 0.4348142026317422 0 36357.0 0.4348142026317422 1
gene  1 68 188 -4.425547115034776 0 36380.0 -4.425547115034776 1
gene  1 12 54 -3.443752052421157 0 36383.0 -3.443752052421157 1
gene  1 181 74 1.0189437124937872 0 36429.0 1.0189437124937872 1
gene  1 61 177 -2.72755450285041 0 36460.0 -2.72755450285041 1
gene  1 20 184 -0.2139429794072148 0 36496.0 -0.2139429794072148 1
gene  1 190 176 2.692036162636918 0 36516.0 2.692036162636918 1
gene  1 22 291 8.020895253133533 0 36524.0 8.020895253133533 1
gene  1 291 190 -2.5260667161498445 0 36525.0 -2.5260667161498445 1
gene  1 75 174 3.2329585618163885 0 36555.0 3.2329585618163885 1
gene  1 35 297 -2.342664092964046 0 36562.0 -2.342664092964046 1
gene  1 297 171 -3.2851752017298717 0 36563.0 -3.2851752017298717 1
gene  1 33 184 0.1728634332783785 0 36565.0 0.1728634332783785 1
gene  1 35 186 -0.35377067811094576 0 36569.0 -0.35377067811094576 1
gene  1 51 300 -2.4053475786584477 0 36574.0 -2.4053475786584477 1
gene  1 300 71 7.649936122418022 0 36575.0 7.649936122418022 1
gene  1 49 172 -0.6938816140199267 0 36658.0 -0.6938816140199267 1
gene  1 75 177 12.382741165312705 0 36665.0 12.382741165312705 1
gene  1 53 321 -1.3920806762797533 0 36673.0 -1.3920806762797533 1
gene  1 321 62 1.8370609279951715 0 36674.0 1.8370609279951715 1
gene  1 47 62 -5.522003428554898 0 36689.0 -5.522003428554898 1
gene  1 41 67 -0.5313165355663794 0 36692.0 -0.5313165355663794 1
gene  1 182 325 2.5358413412104217 1 36701.0 2.5358413412104217 1
gene  1 325 67 -2.8136379044339153 0 36702.0 -2.8136379044339153 1
gene  1 195 178 -6.232431942779826 0 36719.0 -6.232431942779826 1
gene  1 64 56 -6.4275686440451585 0 36723.0 -6.4275686440451585 1
gene  1 37 334 -0.559810417015224 0 36742.0 -0.559810417015224 1
gene  1 334 175 3.5911223961820227 0 36743.0 3.5911223961820227 1
gene  1 56 341 1.285310188319792 0 36772.0 1.285310188319792 1
gene  1 341 173 -1.9348217563546375 0 36773.0 -1.9348217563546375 1
gene  1 26 297 1.9251460334142654 0 36788.0 1.9251460334142654 1
gene  1 24 70 -2.017965055852483 0 36824.0 -2.017965055852483 1
gene  1 174 178 2.786911973605455 0 36853.0 2.786911973605455 1
gene  1 15 174 -0.4053021817205671 0 36944.0 -0.4053021817205671 1
gene  1 188 178 2.7753014097724824 0 36962.0 2.7753014097724824 1
gene  1 15 72 4.665713565019924 0 36977.0 4.665713565019924 1
gene  1 66 54 1.6435567854093058 0 37021.0 1.6435567854093058 1
gene  1 212 177 1.5489985167289353 0 37108.0 1.5489985167289353 1
gene  1 10 244 -1.7273604771747157 0 37115.0 -1.7273604771747157 1
gene  1 27 291 -1.5782557091259934 0 37132.0 -1.5782557091259934 1
gene  1 4 68 -0.7707123927953561 0 37136.0 -0.7707123927953561 1
gene  1 5 416 2.6874092283826796 0 37142.0 2.6874092283826796 1
gene  1 416 188 0.7056654191846556 0 37143.0 0.7056654191846556 1
gene  1 17 217 3.368085044045991 0 37209.0 3.368085044045991 1
gene  1 5 187 1.026807433662914 0 37211.0 1.026807433662914 1
gene  1 43 433 0.19546153264399502 0 37218.0 0.19546153264399502 1
gene  1 433 66 -0.9666114075218344 0 37219.0 -0.9666114075218344 1
gene  1 75 436 -1.4566243043663363 1 37227.0 -1.4566243043663363 1
gene  1 436 59 1.4075595363354672 0 37228.0 1.4075595363354672 1
gene  1 244 60 3.031703346430927 0 37235.0 3.031703346430927 1
gene  1 416 73 1.8501830239306085 0 37246.0 1.8501830239306085 1
gene  1 60 447 4.21850808945417 0 37271.0 4.21850808945417 1
gene  1 447 73 6.721132477571146 0 37272.0 6.721132477571146 1
gene  1 42 69 6.1116530995278024 0 37308.0 6.1116530995278024 1
gene  1 15 464 1.665155937474338 0 37342.0 1.665155937474338 1
gene  1 464 176 2.1095757324231417 0 37343.0 2.1095757324231417 1
gene  1 51 187 3.6398452704649547 0 37380.0 3.6398452704649547 1
gene  1 26 185 0.29869663939751856 0 37427.0 0.29869663939751856 1
gene  1 51 185 -2.7157493625971085 0 37512.0 -2.7157493625971085 1
gene  1 20 180 -1.06317432444864 0 37552.0 -1.06317432444864 1
gene  1 23 511 0.9220318395796057 0 37568.0 0.9220318395796057 1
gene  1 511 186 2.339967500973953 0 37569.0 2.339967500973953 1
gene  1 66 63 2.27656857710922 0 37632.0 2.27656857710922 1
gene  1 186 71 -1.5813274506070698 0 37664.0 -1.5813274506070698 1
gene  1 28 416 4.6785000847487055 0 37673.0 4.6785000847487055 1
gene  1 175 537 5.182843014960682 1 37692.0 5.182843014960682 1
gene  1 537 62 0.856572212272811 0 37693.0 0.856572212272811 1
gene  1 43 180 -2.4888692865275184 0 37705.0 -2.4888692865275184 1
gene  1 4 63 -0.30949527717663183 0 37794.0 -0.30949527717663183 1
gene  1 41 188 -3.178497701056733 0 37797.0 -3.178497701056733 1
gene  1 70 566 0.18992593052978124 0 37810.0 0.18992593052978124 1
gene  1 566 175 -1.5340551094971038 0 37811.0 -1.5340551094971038 1
gene  1 51 180 -0.007152694353627365 0 37819.0 -0.007152694353627365 1
gene  1 185 217 0.6637051143093562 0 37826.0 0.6637051143093562 1
gene  1 2 183 0.7380593963744326 0 37861.0 0.7380593963744326 1
gene  1 44 588 -6.676039154103046 0 37889.0 -6.676039154103046 1
gene  1 588 183 0.9007540012428903 0 37890.0 0.9007540012428903 1
gene  1 341 433 2.270758112092233 0 37895.0 2.270758112092233 1
gene  1 60 182 -6.468590874170714 0 37962.0 -6.468590874170714 1
gene  1 43 56 -0.2559209878697919 0 38052.0 -0.2559209878697919 1
gene  1 174 628 -0.8662921492534223 1 38060.0 -0.8662921492534223 1
gene  1 628 174 3.7555217112825408 0 38061.0 3.7555217112825408 1
gene  1 52 57 -0.1958279321029885 0 38081.0 -0.1958279321029885 1
gene  1 64 635 6.312760132145145 0 38091.0 6.312760132145145 1
gene  1 635 176 -0.99937198919791 0 38092.0 -0.99937198919791 1
gene  1 341 638 -1.9831459963942735 0 38100.0 -1.9831459963942735 1
gene  1 638 173 -2.0363802279300005 0 38101.0 -2.0363802279300005 1
gene  1 180 644 1.4686250157246314 1 38135.0 1.4686250157246314 1
gene  1 644 173 0.9618731065430304 0 38136.0 0.9618731065430304 1
gene  1 62 188 1.961871143437095 0 38145.0 1.961871143437095 1
gene  1 188 657 -1.7685618020664697 1 38192.0 -1.7685618020664697 1
gene  1 657 185 0.18778707753984408 0 38193.0 0.18778707753984408 1
gene  1 50 566 -2.805605372297725 0 38195.0 -2.805605372297725 1
gene  1 45 667 0.8285015158441467 0 38237.0 0.8285015158441467 1
gene  1 667 69 -0.18826830920774473 0 38238.0 -0.18826830920774473 1
gene  1 433 244 1.889764125320103 0 38266.0 1.889764125320103 1
gene  1 3 683 -3.0776229972052507 0 38320.0 -3.0776229972052507 1
gene  1 683 186 0.9165282814066831 0 38321.0 0.9165282814066831 1
gene  1 20 684 -3.5189996159904 0 38328.0 -3.5189996159904 1
gene  1 684 183 0.830884309043199 0 38329.0 0.830884309043199 1
gene  1 193 66 -1.357074828312833 0 38335.0 -1.357074828312833 1
gene  1 61 690 -0.46435315098935664 1 38351.0 -0.46435315098935664 1
gene  1 690 60 -1.3798443644383473 0 38352.0 -1.3798443644383473 1
gene  1 65 67 0.013525691907945614 0 38401.0 0.013525691907945614 1
gene  1 31 172 -1.844561617640845 0 38434.0 -1.844561617640845 1
gene  1 37 709 3.8892854348963417 0 38463.0 3.8892854348963417 1
gene  1 709 175 0.27977095128232565 0 38464.0 0.27977095128232565 1
gene  1 61 186 6.317530140639326 0 38470.0 6.317530140639326 1
gene  1 27 73 -0.24900131920903146 0 38488.0 -0.24900131920903146 1
gene  1 75 58 2.830981109884802 0 38517.0 2.830981109884802 1
gene  1 34 62 0.8287741494658543 0 38525.0 0.8287741494658543 1
gene  1 511 51 3.9019864958965886 0 38554.0 3.9019864958965886 1
gene  1 20 657 -0.361829898009125 0 38584.0 -0.361829898009125 1
gene  1 8 436 -0.32206674983190897 0 38591.0 -0.32206674983190897 1
gene  1 174 186 -2.419706129201515 0 38594.0 -2.419706129201515 1
gene  1 10 70 1.6290062719582283 0 38623.0 1.6290062719582283 1
gene  1 638 189 0.9632719723530686 0 38653.0 0.9632719723530686 1
gene  1 588 61 -4.1011126653436225 0 38731.0 -4.1011126653436225 1
gene  1 19 769 0.0756744059442524 0 38746.0 0.0756744059442524 1
gene  1 769 57 -3.0365050927833073 0 38747.0 -3.0365050927833073 1
gene  1 54 217 1.1935084053491343 0 38754.0 1.1935084053491343 1
gene  1 34 68 2.48064269202645 0 38776.0 2.48064269202645 1
gene  1 61 684 0.8112926310991552 0 38781.0 0.8112926310991552 1
gene  1 47 709 2.092358969193229 0 38808.0 2.092358969193229 1
gene  1 195 57 -0.9965368324218629 0 38834.0 -0.9965368324218629 1
gene  1 59 790 -0.587785077497506 1 38840.0 -0.587785077497506 1
gene  1 790 57 -2.423513815974286 0 38841.0 -2.423513815974286 1
gene  1 566 68 -1.7222050017061656 0 38864.0 -1.7222050017061656 1
gene  1 29 53 1.9542209158370722 0 38945.0 1.9542209158370722 1
gene  1 212 341 0.4314292190907312 0 38962.0 0.4314292190907312 1
gene  1 17 180 0.9776461716230445 0 39029.0 0.9776461716230445 1
genomeend 1
/* Organism # 002 Fitness:  1034,281 Error:  1000,000                      */
genomestart  2
trait 1 1.8462137539908836 1.4533401158465444 0.7970765430938219 0.4939336966909512 0.0 1.1871497161866005 0.761807071251285 1.469854737915162 
node 1 1 1 1
node 2 1 1 1
node 3 1 1 1
node 4 1 1 1
node 5 1 1 1
node 6 1 1 1
node 7 1 1 1
node 8 1 1 1
node 9 1 1 1
node 10 1 1 1
node 11 1 1 1
node 12 1 1 1
node 13 1 1 1
node 14 1 1 1
node 15 1 1 1
node 16 1 1 1
node 17 1 1 1
node 18 1 1 1
node 19 1 1 1
node 20 1 1 1
node 21 1 1 1
node 22 1 1 1
node 23 1 1 1
node 24 1 1 1
node 25 1 1 1
node 26 1 1 1
node 27 1 1 1
node 28 1 1 1
node 29 1 1 1
node 30 1 1 1
node 31 1 1 1
node 32 1 1 1
node 33 1 1 1
node 34 1 1 1
node 35 1 1 1
node 36 1 1 1
node 37 1 1 1
node 38 1 1 1
node 39 1 1 1
node 40 1 1 1
node 41 1 1 1
node 42 1 1 1
node 43 1 1 1
node 44 1 1 1
node 45 1 1 1
node 46 1 1 1
node 47 1 1 1
node 48 1 1 1
node 49 1 1 1
node 50 1 1 3
node 51 1 0 0
node 52 1 0 0
node 53 1 0 0
node 54 1 0 0
node 55 1 0 0
node 56 1 0 0
node 57 1 0 0
node 58 1 0 0
node 59 1 0 0
node 60 1 0 0
node 61 1 0 0
node 62 1 0 0
node 63 1 0 0
node 64 1 0 0
node 65 1 0 0
node 66 1 0 0
node 67 1 0 0
node 68 1 0 0
node 69 1 0 0
node 70 1 0 0
node 71 1 0 0
node 72 1 0 0
node 73 1 0 0
node 74 1 0 0
node 75 1 0 0
node 171 1 0 2
node 172 1 0 2
node 173 1 0 2
node 174 1 0 2
node 175 1 0 2
node 176 1 0 2
node 177 1 0 2
node 178 1 0 2
node 179 1 0 2
node 180 1 0 2
node 181 1 0 2
node 182 1 0 2
node 183 1 0 2
node 184 1 0 2
node 185 1 0 2
node 186 1 0 2
node 187 1 0 2
node 188 1 0 2
node 189 1 0 2
node 190 1 0 2
node 193 1 0 0
node 195 1 0 0
node 212 1 0 0
node 217 1 0 0
node 230 1 0 0
node 244 1 0 0
node 291 1 0 0
node 297 1 0 0
node 300 1 0 0
node 321 1 0 0
node 325 1 0 0
node 334 1 0 0
node 341 1 0 0
node 416 1 0 0
node 433 1 0 0
node 436 1 0 0
node 447 1 0 0
node 464 1 0 0
node 511 1 0 0
node 537 1 0 0
node 566 1 0 0
node 588 1 0 0
node 628 1 0 0
node 635 1 0 0
node 638 1 0 0
node 644 1 0 0
node 657 1 0 0
node 667 1 0 0
node 683 1 0 0
node 684 1 0 0
node 690 1 0 0
node 709 1 0 0
node 769 1 0 0
node 790 1 0 0
gene  1 28 51 -0.6927617687082677 0 9527.0 -0.6927617687082677 1
gene  1 33 51 -14.700406573125417 0 9532.0 -14.700406573125417 1
gene  1 36 51 4.766248633056276 0 9535.0 4.766248633056276 1
gene  1 40 51 17.758530039642576 0 9539.0 17.758530039642576 1
gene  1 42 51 5.189052229284819 0 9541.0 5.189052229284819 1
gene  1 54 51 6.623368241717905 1 9553.0 6.623368241717905 1
gene  1 57 51 7.275774249643904 1 9556.0 7.275774249643904 1
gene  1 68 51 -4.009726772188863 1 9567.0 -4.009726772188863 1
gene  1 174 51 -6.976167642596996 1 9673.0 -6.976167642596996 1
gene  1 183 51 -1.088152335909875 1 9682.0 -1.088152335909875 1
gene  1 184 51 -1.576751969093237 1 9683.0 -1.576751969093237 1
gene  1 189 51 -1.8527876154423581 1 9688.0 -1.8527876154423581 1
gene  1 3 52 -5.5017224483276985 0 9692.0 -5.5017224483276985 1
gene  1 6 52 -0.857794213252661 0 9695.0 -0.857794213252661 1
gene  1 24 52 4.337916464303829 0 9713.0 4.337916464303829 1
gene  1 29 52 -0.07930353931414502 0 9718.0 -0.07930353931414502 1
gene  1 31 52 1.1925824952872026 0 9720.0 1.1925824952872026 1
gene  1 35 52 6.9596210150467055 0 9724.0 6.9596210150467055 1
gene  1 63 52 -2.055257209618631 1 9752.0 -2.055257209618631 1
gene  1 179 52 1.8459809425432827 1 9868.0 1.8459809425432827 1
gene  1 183 52 -5.628779604442359 1 9872.0 -5.628779604442359 1
gene  1 184 52 0.598738078964973 1 9873.0 0.598738078964973 1
gene  1 185 52 -2.2586776509279836 1 9874.0 -2.2586776509279836 1
gene  1 5 53 -0.11139528320456948 0 9884.0 -0.11139528320456948 1
gene  1 6 53 0.5862929370271184 0 9885.0 0.5862929370271184 1
gene  1 10 53 0.6229444987845736 0 9889.0 0.6229444987845736 1
gene  1 33 53 -0.8155734528627945 0 9912.0 -0.8155734528627945 1
gene  1 35 53 5.40084413479012 0 9914.0 5.40084413479012 1
gene  1 38 53 -2.0680361671271648 0 9917.0 -2.0680361671271648 1
gene  1 45 53 3.420421084646807 0 9924.0 3.420421084646807 1
gene  1 71 53 0.20163614458329526 1 9950.0 0.20163614458329526 1
gene  1 16 54 2.7832765074158434 0 10085.0 2.7832765074158434 1
gene  1 19 54 -0.33218868022263415 0 10088.0 -0.33218868022263415 1
gene  1 36 54 -1.2362138493308796 0 10105.0 -1.2362138493308796 1
gene  1 42 54 2.5870788382729715 0 10111.0 2.5870788382729715 1
gene  1 58 54 -6.36774780764193 1 10127.0 -6.36774780764193 1
gene  1 62 54 0.5851633975381276 1 10131.0 0.5851633975381276 1
gene  1 73 54 -1.4178140374702881 1 10142.0 -1.4178140374702881 1
gene  1 177 54 -14.017676170458076 1 10246.0 -14.017676170458076 1
gene  1 180 54 4.224893571657149 1 10249.0 4.224893571657149 1
gene  1 190 54 -1.2765380379441646 1 10259.0 -1.2765380379441646 1
gene  1 20 55 0.8948971942409423 0 10279.0 0.8948971942409423 1
gene  1 31 55 -2.016628025199362 0 10290.0 -2.016628025199362 1
gene  1 35 55 1.9066143130659519 0 10294.0 1.9066143130659519 1
gene  1 41 55 4.03834485719362 0 10300.0 4.03834485719362 1
gene  1 47 55 -0.6069264267805599 0 10306.0 -0.6069264267805599 1
gene  1 52 55 -2.343628461712095 0 10311.0 -2.343628461712095 1
gene  1 69 55 -1.8455825329972195 1 10328.0 -1.8455825329972195 1
gene  1 75 55 4.885972459840171 1 10334.0 4.885972459840171 1
gene  1 187 55 -5.7520178872124434 1 10446.0 -5.7520178872124434 1
gene  1 7 56 4.491010903543803 0 10456.0 4.491010903543803 1
gene  1 11 56 -2.5268978818235617 0 10460.0 -2.5268978818235617 1
gene  1 13 56 0.5763823140352453 0 10462.0 0.5763823140352453 1
gene  1 36 56 0.3412691237456489 0 10485.0 0.3412691237456489 1
gene  1 41 56 0.06182759212116251 0 10490.0 0.06182759212116251 1
gene  1 44 56 -6.164977835420676 0 10493.0 -6.164977835420676 1
gene  1 46 56 -4.050570132284967 0 10495.0 -4.050570132284967 1
gene  1 49 56 2.3933219326021327 0 10498.0 2.3933219326021327 1
gene  1 68 56 -3.088189399094289 1 10517.0 -3.088189399094289 1
gene  1 179 56 -1.3025295301955895 1 10628.0 -1.3025295301955895 1
gene  1 183 56 4.5208274356241605 1 10632.0 4.5208274356241605 1
gene  1 3 57 -5.975819436338246 0 10642.0 -5.975819436338246 1
gene  1 19 57 2.354001694294873 0 10658.0 2.354001694294873 1
gene  1 22 57 -7.372582105462791 0 10661.0 -7.372582105462791 1
gene  1 28 57 1.3698582309133802 0 10667.0 1.3698582309133802 1
gene  1 30 57 -0.6087434482999176 0 10669.0 -0.6087434482999176 1
gene  1 35 57 -3.503491913398075 0 10674.0 -3.503491913398075 1
gene  1 47 57 -0.700088508398799 0 10686.0 -0.700088508398799 1
gene  1 59 57 3.700513344465576 1 10698.0 3.700513344465576 1
gene  1 60 57 1.3488529460350236 1 10699.0 1.3488529460350236 1
gene  1 187 57 2.383171786261106 1 10826.0 2.383171786261106 1
gene  1 5 58 0.3230055648915703 0 10834.0 0.3230055648915703 1
gene  1 14 58 -1.6834007114252414 0 10843.0 -1.6834007114252414 1
gene  1 15 58 1.8836293855219517 0 10844.0 1.8836293855219517 1
gene  1 24 58 1.9005658934787673 0 10853.0 1.9005658934787673 1
gene  1 32 58 0.5953949156235422 0 10861.0 0.5953949156235422 1
gene  1 43 58 0.7911348987768865 0 10872.0 0.7911348987768865 1
gene  1 49 58 0.18960369604692856 0 10878.0 0.18960369604692856 1
gene  1 53 58 -2.009194116190838 0 10882.0 -2.009194116190838 1
gene  1 62 58 3.785982008971483 1 10891.0 3.785982008971483 1
gene  1 64 58 -0.23756703796717987 1 10893.0 -0.23756703796717987 1
gene  1 69 58 2.0327767789403417 1 10898.0 2.0327767789403417 1
gene  1 182 58 -2.4683268265853107 1 11011.0 -2.4683268265853107 1
gene  1 1 59 -4.2500850842615865 0 11020.0 -4.2500850842615865 1
gene  1 4 59 -1.8137546500364141 0 11023.0 -1.8137546500364141 1
gene  1 27 59 1.1459585248669013 0 11046.0 1.1459585248669013 1
gene  1 34 59 0.6720346908008255 0 11053.0 0.6720346908008255 1
gene  1 37 59 -4.671213654465789 0 11056.0 -4.671213654465789 1
gene  1 44 59 7.724085700717037 0 11063.0 7.724085700717037 1
gene  1 59 59 -1.8895153042890576 1 11078.0 -1.8895153042890576 1
gene  1 73 59 2.314915514283631 1 11092.0 2.314915514283631 1
gene  1 75 59 6.353598549414505 1 11094.0 6.353598549414505 1
gene  1 183 59 5.010969334166585 1 11202.0 5.010969334166585 1
gene  1 185 59 0.33245501741418826 1 11204.0 0.33245501741418826 1
gene  1 8 60 -1.5688017474357696 0 11217.0 -1.5688017474357696 1
gene  1 10 60 1.7463472798091675 0 11219.0 1.7463472798091675 1
gene  1 40 60 -0.9340869117479769 0 11249.0 -0.9340869117479769 1
gene  1 45 60 0.003560035878579171 0 11254.0 0.003560035878579171 1
gene  1 61 60 -1.2237832471604302 1 11270.0 -1.2237832471604302 1
gene  1 72 60 -4.186262630361738 1 11281.0 -4.186262630361738 1
gene  1 177 60 0.6461216023510186 1 11386.0 0.6461216023510186 1
gene  1 179 60 -3.6941630272966077 1 11388.0 -3.6941630272966077 1
gene  1 187 60 -3.936112483676298 1 11396.0 -3.936112483676298 1
gene  1 7 61 -6.288059923197878 0 11406.0 -6.288059923197878 1
gene  1 15 61 1.4662944555034405 0 11414.0 1.4662944555034405 1
gene  1 22 61 -3.0079675325057242 0 11421.0 -3.0079675325057242 1
gene  1 28 61 1.8540269930293478 0 11427.0 1.8540269930293478 1
gene  1 36 61 2.680867371470965 0 11435.0 2.680867371470965 1
gene  1 53 61 1.3374343978206549 0 11452.0 1.3374343978206549 1
gene  1 54 61 -1.4942601944062341 0 11453.0 -1.4942601944062341 1
gene  1 67 61 -0.9012683184457495 1 11466.0 -0.9012683184457495 1
gene  1 177 61 -1.1905587968953824 1 11576.0 -1.1905587968953824 1
gene  1 184 61 8.927220916909638 1 11583.0 8.927220916909638 1
gene  1 6 62 -0.6745233585120372 0 11595.0 -0.6745233585120372 1
gene  1 11 62 -2.6590045618607867 0 11600.0 -2.6590045618607867 1
gene  1 15 62 6.972344857945609 0 11604.0 6.972344857945609 1
gene  1 26 62 -1.701061349091802 0 11615.0 -1.701061349091802 1
gene  1 53 62 -5.373199723759709 0 11642.0 -5.373199723759709 1
gene  1 68 62 0.9501059020076137 1 11657.0 0.9501059020076137 1
gene  1 72 62 4.596365283843747 1 11661.0 4.596365283843747 1
gene  1 174 62 -7.762062720775428 1 11763.0 -7.762062720775428 1
gene  1 175 62 -3.251874449029796 1 11764.0 -3.251874449029796 1
gene  1 184 62 4.266449494463531 1 11773.0 4.266449494463531 1
gene  1 185 62 4.152054887041409 1 11774.0 4.152054887041409 1
gene  1 188 62 -3.668016949768667 1 11777.0 -3.668016949768667 1
gene  1 31 63 -1.0946834221490058 0 11810.0 -1.0946834221490058 1
gene  1 32 63 -4.149751915998269 0 11811.0 -4.149751915998269 1
gene  1 37 63 1.2992059264749247 0 11816.0 1.2992059264749247 1
gene  1 38 63 9.414878936326893 0 11817.0 9.414878936326893 1
gene  1 42 63 2.2180181291161665 0 11821.0 2.2180181291161665 1
gene  1 46 63 -0.8081690020769985 0 11825.0 -0.8081690020769985 1
gene  1 48 63 2.4180619567568398 0 11827.0 2.4180619567568398 1
gene  1 50 63 5.616820185872179 0 11829.0 5.616820185872179 1
gene  1 60 63 1.171501471258973 0 11839.0 1.171501471258973 1
gene  1 63 63 1.0658103484071115 1 11842.0 1.0658103484071115 1
gene  1 72 63 -0.10046652898589037 1 11851.0 -0.10046652898589037 1
gene  1 74 63 2.4054133215166633 1 11853.0 2.4054133215166633 1
gene  1 178 63 -1.472044003675536 1 11957.0 -1.472044003675536 1
gene  1 180 63 7.126828951224262 1 11959.0 7.126828951224262 1
gene  1 181 63 -1.0810222084062027 1 11960.0 -1.0810222084062027 1
gene  1 8 64 -11.72800455513078 0 11977.0 -11.72800455513078 1
gene  1 11 64 2.418192672838097 0 11980.0 2.418192672838097 1
gene  1 20 64 -0.6842877227185864 0 11989.0 -0.6842877227185864 1
gene  1 27 64 14.949339768535351 0 11996.0 14.949339768535351 1
gene  1 41 64 0.0881735713743158 0 12010.0 0.0881735713743158 1
gene  1 44 64 3.201850439418577 0 12013.0 3.201850439418577 1
gene  1 49 64 -2.085381007007862 0 12018.0 -2.085381007007862 1
gene  1 50 64 2.411834834372362 0 12019.0 2.411834834372362 1
gene  1 53 64 -1.4412911131501058 0 12022.0 -1.4412911131501058 1
gene  1 59 64 1.4311303677534837 0 12028.0 1.4311303677534837 1
gene  1 70 64 0.9387196148128846 1 12039.0 0.9387196148128846 1
gene  1 176 64 -10.67012384468358 1 12145.0 -10.67012384468358 1
gene  1 179 64 1.0527433343807446 1 12148.0 1.0527433343807446 1
gene  1 183 64 4.490717768086713 1 12152.0 4.490717768086713 1
gene  1 184 64 6.9671365227448865 1 12153.0 6.9671365227448865 1
gene  1 185 64 4.481843638793252 1 12154.0 4.481843638793252 1
gene  1 8 65 -3.990766316649813 0 12167.0 -3.990766316649813 1
gene  1 13 65 1.1725723926547897 0 12172.0 1.1725723926547897 1
gene  1 18 65 0.6355340949425308 0 12177.0 0.6355340949425308 1
gene  1 39 65 -2.8098801936280284 0 12198.0 -2.8098801936280284 1
gene  1 53 65 1.8055389457622324 0 12212.0 1.8055389457622324 1
gene  1 69 65 -8.623006336341472 1 12228.0 -8.623006336341472 1
gene  1 70 65 12.03226283633596 1 12229.0 12.03226283633596 1
gene  1 175 65 9.676066829740886 1 12334.0 9.676066829740886 1
gene  1 176 65 -0.17551447495598477 1 12335.0 -0.17551447495598477 1
gene  1 177 65 -1.6055576161891838 1 12336.0 -1.6055576161891838 1
gene  1 185 65 1.86212924597872 1 12344.0 1.86212924597872 1
gene  1 1 66 -1.580937739657163 0 12350.0 -1.580937739657163 1
gene  1 4 66 -4.017155397207887 0 12353.0 -4.017155397207887 1
gene  1 18 66 5.6024761768046485 0 12367.0 5.6024761768046485 1
gene  1 21 66 -1.5580486881672075 0 12370.0 -1.5580486881672075 1
gene  1 43 66 6.693088140980723 0 12392.0 6.693088140980723 1
gene  1 47 66 3.3497782200560886 0 12396.0 3.3497782200560886 1
gene  1 50 66 4.112963186212957 0 12399.0 4.112963186212957 1
gene  1 60 66 -7.410346238283437 0 12409.0 -7.410346238283437 1
gene  1 62 66 0.5758276085592626 0 12411.0 0.5758276085592626 1
gene  1 66 66 -2.8725422712390905 1 12415.0 -2.8725422712390905 1
gene  1 184 66 0.2123569517616558 1 12533.0 0.2123569517616558 1
gene  1 8 67 -13.545831917030092 0 12547.0 -13.545831917030092 1
gene  1 38 67 -0.5595089403534024 0 12577.0 -0.5595089403534024 1
gene  1 46 67 5.331219430782861 0 12585.0 5.331219430782861 1
gene  1 49 67 3.4032791431420844 0 12588.0 3.4032791431420844 1
gene  1 57 67 -2.2343498589628767 0 12596.0 -2.2343498589628767 1
gene  1 61 67 -4.445628299137507 0 12600.0 -4.445628299137507 1
gene  1 72 67 -2.4920152553167925 1 12611.0 -2.4920152553167925 1
gene  1 177 67 5.234299468344794 1 12716.0 5.234299468344794 1
gene  1 182 67 -1.314158587952605 1 12721.0 -1.314158587952605 1
gene  1 185 67 0.6777893589809671 1 12724.0 0.6777893589809671 1
gene  1 189 67 -2.2390725801903755 1 12728.0 -2.2390725801903755 1
gene  1 5 68 -1.635719497497383 0 12734.0 -1.635719497497383 1
gene  1 16 68 -1.0196188703133455 0 12745.0 -1.0196188703133455 1
