/* Species # 051         : (size= 003) (AvfFit= 978,751) (Age= 197,000)  */
/*-------------------------------------------------------------------*/
/* Organism # 000 Fitness:  978,568 Error:  1000,000                      */
genomestart  0
trait 1 5.376846045458965 1.332319878163207 2.3047487772863144 2.441392960833722 1.4408962979620408 3.12539046396649 1.7417612026840517 3.917647730542947 
node 1 1 1 1
node 2 1 1 1
node 3 1 1 1
node 4 1 1 1
node 5 1 1 1
node 6 1 1 1
node 7 1 1 1
node 8 1 1 1
node 9 1 1 1
node 10 1 1 1
node 11 1 1 1
node 12 1 1 1
node 13 1 1 1
node 14 1 1 1
node 15 1 1 1
node 16 1 1 1
node 17 1 1 1
node 18 1 1 1
node 19 1 1 1
node 20 1 1 1
node 21 1 1 1
node 22 1 1 1
node 23 1 1 1
node 24 1 1 1
node 25 1 1 1
node 26 1 1 1
node 27 1 1 1
node 28 1 1 1
node 29 1 1 1
node 30 1 1 1
node 31 1 1 1
node 32 1 1 1
node 33 1 1 1
node 34 1 1 1
node 35 1 1 1
node 36 1 1 1
node 37 1 1 1
node 38 1 1 1
node 39 1 1 1
node 40 1 1 1
node 41 1 1 1
node 42 1 1 1
node 43 1 1 1
node 44 1 1 1
node 45 1 1 1
node 46 1 1 1
node 47 1 1 1
node 48 1 1 1
node 49 1 1 1
node 50 1 1 3
node 51 1 0 0
node 52 1 0 0
node 53 1 0 0
node 54 1 0 0
node 55 1 0 0
node 56 1 0 0
node 57 1 0 0
node 58 1 0 0
node 59 1 0 0
node 60 1 0 0
node 61 1 0 0
node 62 1 0 0
node 63 1 0 0
node 64 1 0 0
node 65 1 0 0
node 66 1 0 0
node 67 1 0 0
node 68 1 0 0
node 69 1 0 0
node 70 1 0 0
node 71 1 0 0
node 72 1 0 0
node 73 1 0 0
node 74 1 0 0
node 75 1 0 0
node 171 1 0 2
node 172 1 0 2
node 173 1 0 2
node 174 1 0 2
node 175 1 0 2
node 176 1 0 2
node 177 1 0 2
node 178 1 0 2
node 179 1 0 2
node 180 1 0 2
node 181 1 0 2
node 182 1 0 2
node 183 1 0 2
node 184 1 0 2
node 185 1 0 2
node 186 1 0 2
node 187 1 0 2
node 188 1 0 2
node 189 1 0 2
node 190 1 0 2
node 193 1 0 0
node 195 1 0 0
node 212 1 0 0
node 217 1 0 0
node 230 1 0 0
node 244 1 0 0
node 291 1 0 0
node 297 1 0 0
node 300 1 0 0
node 321 1 0 0
node 325 1 0 0
node 334 1 0 0
node 341 1 0 0
node 416 1 0 0
node 433 1 0 0
node 436 1 0 0
node 447 1 0 0
node 464 1 0 0
node 511 1 0 0
node 537 1 0 0
node 566 1 0 0
node 588 1 0 0
node 628 1 0 0
node 635 1 0 0
node 638 1 0 0
node 644 1 0 0
node 657 1 0 0
node 667 1 0 0
node 683 1 0 0
node 684 1 0 0
node 690 1 0 0
node 709 1 0 0
node 718 1 0 0
node 728 1 0 0
node 733 1 0 0
node 759 1 0 0
node 760 1 0 0
node 772 1 0 0
node 801 1 0 0
node 804 1 0 0
node 834 1 0 0
node 876 1 0 0
gene  1 28 51 -2.932934075251131 0 9527.0 -2.932934075251131 1
gene  1 33 51 -8.703601797663765 0 9532.0 -8.703601797663765 1
gene  1 36 51 -5.755053846069208 0 9535.0 -5.755053846069208 1
gene  1 40 51 -0.9700444206256468 0 9539.0 -0.9700444206256468 1
gene  1 42 51 7.476459017548979 0 9541.0 7.476459017548979 1
gene  1 54 51 -1.48195848209784 1 9553.0 -1.48195848209784 1
gene  1 57 51 5.426584167405386 1 9556.0 5.426584167405386 1
gene  1 68 51 2.512594625860155 1 9567.0 2.512594625860155 1
gene  1 174 51 1.1581514271484672 1 9673.0 1.1581514271484672 1
gene  1 183 51 1.1873335020564557 1 9682.0 1.1873335020564557 1
gene  1 184 51 1.648192133806515 1 9683.0 1.648192133806515 1
gene  1 189 51 1.2913659589298832 1 9688.0 1.2913659589298832 1
gene  1 3 52 2.5969682051991754 0 9692.0 2.5969682051991754 1
gene  1 6 52 2.197857985932029 0 9695.0 2.197857985932029 1
gene  1 24 52 1.4279493710907332 0 9713.0 1.4279493710907332 1
gene  1 29 52 1.3662487342062448 0 9718.0 1.3662487342062448 1
gene  1 31 52 4.970759020998395 0 9720.0 4.970759020998395 1
gene  1 35 52 0.10419035301603707 0 9724.0 0.10419035301603707 1
gene  1 63 52 0.9163368572036307 1 9752.0 0.9163368572036307 1
gene  1 179 52 -5.74243797635302 1 9868.0 -5.74243797635302 1
gene  1 183 52 0.16229905102584619 1 9872.0 0.16229905102584619 1
gene  1 184 52 -3.6737856369887054 1 9873.0 -3.6737856369887054 1
gene  1 185 52 1.260181547108228 1 9874.0 1.260181547108228 1
gene  1 5 53 -1.355745549529426 0 9884.0 -1.355745549529426 1
gene  1 6 53 8.546499641869666 0 9885.0 8.546499641869666 1
gene  1 10 53 -0.4092997099729481 0 9889.0 -0.4092997099729481 1
gene  1 33 53 -0.5727494374460966 0 9912.0 -0.5727494374460966 1
gene  1 35 53 0.021487670950574356 0 9914.0 0.021487670950574356 1
gene  1 38 53 -1.7033381578481097 0 9917.0 -1.7033381578481097 1
gene  1 45 53 -2.275065607314483 0 9924.0 -2.275065607314483 1
gene  1 71 53 -1.0875854461521843 1 9950.0 -1.0875854461521843 1
gene  1 16 54 -1.6455333815798507 0 10085.0 -1.6455333815798507 1
gene  1 19 54 -1.2469903938482236 0 10088.0 -1.2469903938482236 1
gene  1 36 54 0.42290700312019536 0 10105.0 0.42290700312019536 1
gene  1 42 54 3.2317033008861262 0 10111.0 3.2317033008861262 1
gene  1 58 54 9.190342494154436 1 10127.0 9.190342494154436 1
gene  1 62 54 4.3214798290670196 1 10131.0 4.3214798290670196 1
gene  1 73 54 5.433355692295923 1 10142.0 5.433355692295923 1
gene  1 177 54 0.37213122633602436 1 10246.0 0.37213122633602436 1
gene  1 180 54 -1.506336895111182 1 10249.0 -1.506336895111182 1
gene  1 190 54 2.0593900086896983 1 10259.0 2.0593900086896983 1
gene  1 20 55 -6.9389259047262595 0 10279.0 -6.9389259047262595 1
gene  1 31 55 1.590254780882427 0 10290.0 1.590254780882427 1
gene  1 35 55 1.845413897967667 0 10294.0 1.845413897967667 1
gene  1 41 55 2.1154883814001133 0 10300.0 2.1154883814001133 1
gene  1 47 55 -8.151842263471995 0 10306.0 -8.151842263471995 1
gene  1 52 55 -3.3626369704706622 0 10311.0 -3.3626369704706622 1
gene  1 69 55 1.4741275395787303 1 10328.0 1.4741275395787303 1
gene  1 75 55 5.627963423237679 1 10334.0 5.627963423237679 1
gene  1 187 55 -0.29580729916760834 1 10446.0 -0.29580729916760834 1
gene  1 7 56 -1.0833373121259993 0 10456.0 -1.0833373121259993 1
gene  1 11 56 5.683038703449931 0 10460.0 5.683038703449931 1
gene  1 13 56 -0.30105195488736713 0 10462.0 -0.30105195488736713 1
gene  1 36 56 -0.7604294115181296 0 10485.0 -0.7604294115181296 1
gene  1 41 56 -0.05584619947314018 0 10490.0 -0.05584619947314018 1
gene  1 44 56 5.681448795654941 0 10493.0 5.681448795654941 1
gene  1 46 56 1.295978534935043 0 10495.0 1.295978534935043 1
gene  1 49 56 3.4479054552493222 0 10498.0 3.4479054552493222 1
gene  1 68 56 5.439682355248613 1 10517.0 5.439682355248613 1
gene  1 179 56 -0.16954344621226802 1 10628.0 -0.16954344621226802 1
gene  1 183 56 1.5791977852101264 1 10632.0 1.5791977852101264 1
gene  1 3 57 -6.327462883932771 0 10642.0 -6.327462883932771 1
gene  1 19 57 -2.276389008856252 0 10658.0 -2.276389008856252 1
gene  1 22 57 0.8932977247347618 0 10661.0 0.8932977247347618 1
gene  1 28 57 1.4759472262791649 0 10667.0 1.4759472262791649 1
gene  1 30 57 -1.1359655501683226 0 10669.0 -1.1359655501683226 1
gene  1 35 57 1.2975035086850955 0 10674.0 1.2975035086850955 1
gene  1 47 57 -1.6942260120054469 0 10686.0 -1.6942260120054469 1
gene  1 59 57 -8.989614797364649 1 10698.0 -8.989614797364649 1
gene  1 60 57 0.05042862457280378 1 10699.0 0.05042862457280378 1
gene  1 187 57 -4.073559710245125 1 10826.0 -4.073559710245125 1
gene  1 5 58 0.8817302288018941 0 10834.0 0.8817302288018941 1
gene  1 14 58 -7.30960586372392 0 10843.0 -7.30960586372392 1
gene  1 15 58 4.80276018650486 0 10844.0 4.80276018650486 1
gene  1 24 58 6.509241483515836 0 10853.0 6.509241483515836 1
gene  1 32 58 -0.3328072580757621 0 10861.0 -0.3328072580757621 1
gene  1 43 58 -0.7217004630946768 0 10872.0 -0.7217004630946768 1
gene  1 49 58 0.6001270727008019 0 10878.0 0.6001270727008019 1
gene  1 53 58 -4.144337840439398 0 10882.0 -4.144337840439398 1
gene  1 62 58 7.868366988203453 1 10891.0 7.868366988203453 1
gene  1 64 58 -0.2601683782594746 1 10893.0 -0.2601683782594746 1
gene  1 69 58 -0.8174018821687493 1 10898.0 -0.8174018821687493 1
gene  1 182 58 -5.09474982967059 1 11011.0 -5.09474982967059 1
gene  1 1 59 3.1539659208890996 0 11020.0 3.1539659208890996 1
gene  1 4 59 4.026411797656332 0 11023.0 4.026411797656332 1
gene  1 27 59 -0.9767705869343324 0 11046.0 -0.9767705869343324 1
gene  1 34 59 4.757039108264404 0 11053.0 4.757039108264404 1
gene  1 37 59 2.2707293882258233 0 11056.0 2.2707293882258233 1
gene  1 44 59 -2.3772685767092208 0 11063.0 -2.3772685767092208 1
gene  1 59 59 -2.378898640269459 1 11078.0 -2.378898640269459 1
gene  1 73 59 4.78931575898054 1 11092.0 4.78931575898054 1
gene  1 75 59 2.2163008833758036 1 11094.0 2.2163008833758036 1
gene  1 183 59 1.2894651897514107 1 11202.0 1.2894651897514107 1
gene  1 185 59 1.7054824861606463 1 11204.0 1.7054824861606463 1
gene  1 8 60 -1.3990232090680217 0 11217.0 -1.3990232090680217 1
gene  1 10 60 0.23913036569842322 0 11219.0 0.23913036569842322 1
gene  1 40 60 -2.4041921424177897 0 11249.0 -2.4041921424177897 1
gene  1 45 60 0.10232493715146784 0 11254.0 0.10232493715146784 1
gene  1 61 60 3.93084384590318 1 11270.0 3.93084384590318 1
gene  1 72 60 -5.583000231429077 1 11281.0 -5.583000231429077 1
gene  1 177 60 1.5125025271619545 1 11386.0 1.5125025271619545 1
gene  1 179 60 3.5479796879407584 1 11388.0 3.5479796879407584 1
gene  1 187 60 -3.08277918198901 1 11396.0 -3.08277918198901 1
gene  1 7 61 -0.7279879301076595 0 11406.0 -0.7279879301076595 1
gene  1 15 61 1.6360869299543435 0 11414.0 1.6360869299543435 1
gene  1 22 61 -4.205105105880511 0 11421.0 -4.205105105880511 1
gene  1 28 61 3.4916604292697104 0 11427.0 3.4916604292697104 1
gene  1 36 61 3.060770657261479 0 11435.0 3.060770657261479 1
gene  1 53 61 1.5344295149738318 0 11452.0 1.5344295149738318 1
gene  1 54 61 2.617941467482476 0 11453.0 2.617941467482476 1
gene  1 67 61 3.9799864705537984 1 11466.0 3.9799864705537984 1
gene  1 177 61 4.204235106661407 1 11576.0 4.204235106661407 1
gene  1 184 61 1.8959236993720971 1 11583.0 1.8959236993720971 1
gene  1 6 62 0.48087991242157707 0 11595.0 0.48087991242157707 1
gene  1 11 62 -7.626709384337339 0 11600.0 -7.626709384337339 1
gene  1 15 62 -0.6505910504144183 0 11604.0 -0.6505910504144183 1
gene  1 26 62 -2.505640748085502 0 11615.0 -2.505640748085502 1
gene  1 53 62 2.2266074531714337 0 11642.0 2.2266074531714337 1
gene  1 68 62 -4.558220316669464 1 11657.0 -4.558220316669464 1
gene  1 72 62 1.6088105770673176 1 11661.0 1.6088105770673176 1
gene  1 174 62 1.8244397226958116 1 11763.0 1.8244397226958116 1
gene  1 175 62 3.2846266802692967 1 11764.0 3.2846266802692967 1
gene  1 184 62 -2.1399075877918894 1 11773.0 -2.1399075877918894 1
gene  1 185 62 -12.970903755943821 1 11774.0 -12.970903755943821 1
gene  1 188 62 3.7822775841420717 1 11777.0 3.7822775841420717 1
gene  1 31 63 -4.926083273310516 0 11810.0 -4.926083273310516 1
gene  1 32 63 -3.738796195771705 0 11811.0 -3.738796195771705 1
gene  1 37 63 -2.210954460476226 0 11816.0 -2.210954460476226 1
gene  1 38 63 1.4277177143464546 0 11817.0 1.4277177143464546 1
gene  1 42 63 0.5432644628288188 0 11821.0 0.5432644628288188 1
gene  1 46 63 -0.9676124536281367 0 11825.0 -0.9676124536281367 1
gene  1 48 63 4.40970950424159 0 11827.0 4.40970950424159 1
gene  1 50 63 -0.22371835601971712 0 11829.0 -0.22371835601971712 1
gene  1 60 63 0.7452895863341022 0 11839.0 0.7452895863341022 1
gene  1 63 63 2.08305018633007 1 11842.0 2.08305018633007 1
gene  1 72 63 -1.6388331672616627 1 11851.0 -1.6388331672616627 1
gene  1 74 63 0.4125129839809101 1 11853.0 0.4125129839809101 1
gene  1 178 63 -3.72229851734354 1 11957.0 -3.72229851734354 1
gene  1 180 63 1.1567379322977174 1 11959.0 1.1567379322977174 1
gene  1 181 63 -1.4007889723968536 1 11960.0 -1.4007889723968536 1
gene  1 8 64 0.1491520451441406 0 11977.0 0.1491520451441406 1
gene  1 11 64 -2.993860745713561 0 11980.0 -2.993860745713561 1
gene  1 20 64 -1.4122145106939086 0 11989.0 -1.4122145106939086 1
gene  1 27 64 -9.58617199018519 0 11996.0 -9.58617199018519 1
gene  1 41 64 1.2462152852099584 0 12010.0 1.2462152852099584 1
gene  1 44 64 10.810599398403776 0 12013.0 10.810599398403776 1
gene  1 49 64 2.0773774763699455 0 12018.0 2.0773774763699455 1
gene  1 50 64 3.0189958757106448 0 12019.0 3.0189958757106448 1
gene  1 53 64 9.047545110254996 0 12022.0 9.047545110254996 1
gene  1 59 64 -1.1545317089460985 0 12028.0 -1.1545317089460985 1
gene  1 70 64 -8.230450830842114 1 12039.0 -8.230450830842114 1
gene  1 176 64 -1.818981123977107 1 12145.0 -1.818981123977107 1
gene  1 179 64 5.3503494753244745 1 12148.0 5.3503494753244745 1
gene  1 183 64 -0.818821512595151 1 12152.0 -0.818821512595151 1
gene  1 184 64 -2.382748430262925 1 12153.0 -2.382748430262925 1
gene  1 185 64 -0.23925028723390168 1 12154.0 -0.23925028723390168 1
gene  1 8 65 -1.0159088999756563 0 12167.0 -1.0159088999756563 1
gene  1 13 65 -5.0954716194347505 0 12172.0 -5.0954716194347505 1
gene  1 18 65 5.6224398182922775 0 12177.0 5.6224398182922775 1
gene  1 39 65 0.527774835475136 0 12198.0 0.527774835475136 1
gene  1 53 65 0.6126216632101814 0 12212.0 0.6126216632101814 1
gene  1 69 65 1.3032152039518698 1 12228.0 1.3032152039518698 1
gene  1 70 65 4.370534855443265 1 12229.0 4.370534855443265 1
gene  1 175 65 -1.953140489226696 1 12334.0 -1.953140489226696 1
gene  1 176 65 -1.8418386407396246 1 12335.0 -1.8418386407396246 1
gene  1 177 65 -2.846558459065661 1 12336.0 -2.846558459065661 1
gene  1 185 65 -0.6866791409555473 1 12344.0 -0.6866791409555473 1
gene  1 1 66 -4.589348399802598 0 12350.0 -4.589348399802598 1
gene  1 4 66 3.938863637620776 0 12353.0 3.938863637620776 1
gene  1 18 66 4.012229285021779 0 12367.0 4.012229285021779 1
gene  1 21 66 -1.0106993531891915 0 12370.0 -1.0106993531891915 1
gene  1 43 66 -0.9502344035494613 0 12392.0 -0.9502344035494613 1
gene  1 47 66 -7.487634956710384 0 12396.0 -7.487634956710384 1
gene  1 50 66 -3.0953575338438637 0 12399.0 -3.0953575338438637 1
gene  1 60 66 -1.2192579326611417 0 12409.0 -1.2192579326611417 1
gene  1 62 66 1.9681456945733595 0 12411.0 1.9681456945733595 1
gene  1 66 66 6.0218144323524365 1 12415.0 6.0218144323524365 1
gene  1 184 66 -0.7842842704949209 1 12533.0 -0.7842842704949209 1
gene  1 8 67 -5.101700132709162 0 12547.0 -5.101700132709162 1
gene  1 38 67 -2.988684941337474 0 12577.0 -2.988684941337474 1
gene  1 46 67 1.3450386858199026 0 12585.0 1.3450386858199026 1
gene  1 49 67 -0.5254534667620065 0 12588.0 -0.5254534667620065 1
gene  1 57 67 -1.7834596958213584 0 12596.0 -1.7834596958213584 1
gene  1 61 67 -3.4677592455196797 0 12600.0 -3.4677592455196797 1
gene  1 72 67 -2.318306441746379 1 12611.0 -2.318306441746379 1
gene  1 177 67 -0.4561656896891483 1 12716.0 -0.4561656896891483 1
gene  1 182 67 3.7001657393266916 1 12721.0 3.7001657393266916 1
gene  1 185 67 -0.35647555677135934 1 12724.0 -0.35647555677135934 1
gene  1 189 67 1.1363204662399928 1 12728.0 1.1363204662399928 1
gene  1 5 68 -0.6596429220806397 0 12734.0 -0.6596429220806397 1
gene  1 16 68 -11.409246735041076 0 12745.0 -11.409246735041076 1
gene  1 40 68 -0.9473922214315595 0 12769.0 -0.9473922214315595 1
gene  1 41 68 3.2726108756067602 0 12770.0 3.2726108756067602 1
gene  1 42 68 0.1410340593658191 0 12771.0 0.1410340593658191 1
gene  1 71 68 3.6295721066173114 1 12800.0 3.6295721066173114 1
gene  1 185 68 -4.43664106305688 1 12914.0 -4.43664106305688 1
gene  1 6 69 11.14514869853482 0 12925.0 11.14514869853482 1
gene  1 16 69 -0.6290066698111868 0 12935.0 -0.6290066698111868 1
gene  1 19 69 -4.602804037018678 0 12938.0 -4.602804037018678 1
gene  1 44 69 -0.14620609558357422 0 12963.0 -0.14620609558357422 1
gene  1 45 69 2.6332338228687266 0 12964.0 2.6332338228687266 1
gene  1 65 69 2.5584359091869615 0 12984.0 2.5584359091869615 1
gene  1 171 69 -0.6861963095085716 1 13090.0 -0.6861963095085716 1
gene  1 3 70 0.4735009012744132 0 13112.0 0.4735009012744132 1
gene  1 39 70 6.393697627084009 0 13148.0 6.393697627084009 1
gene  1 60 70 1.096088058676873 0 13169.0 1.096088058676873 1
gene  1 171 70 11.996174819861073 1 13280.0 11.996174819861073 1
gene  1 181 70 -9.242341616330936 1 13290.0 -9.242341616330936 1
gene  1 183 70 -0.6367711434515541 1 13292.0 -0.6367711434515541 1
gene  1 11 71 0.7817775193026497 0 13310.0 0.7817775193026497 1
gene  1 15 71 -1.4230960620764255 0 13314.0 -1.4230960620764255 1
gene  1 30 71 -3.1489147271057543 0 13329.0 -3.1489147271057543 1
gene  1 33 71 2.538782638151372 0 13332.0 2.538782638151372 1
gene  1 34 71 -5.91315017350493 0 13333.0 -5.91315017350493 1
gene  1 48 71 1.666131686059344 0 13347.0 1.666131686059344 1
gene  1 50 71 0.5411230012366177 0 13349.0 0.5411230012366177 1
gene  1 51 71 -9.365087606751011 0 13350.0 -9.365087606751011 1
gene  1 57 71 0.7428566408012305 0 13356.0 0.7428566408012305 1
gene  1 73 71 4.9037016621565535 1 13372.0 4.9037016621565535 1
gene  1 185 71 5.3684216329881655 1 13484.0 5.3684216329881655 1
gene  1 24 72 2.3967943155919893 0 13513.0 2.3967943155919893 1
gene  1 51 72 11.192646650731902 0 13540.0 11.192646650731902 1
gene  1 54 72 4.680766932876141 0 13543.0 4.680766932876141 1
gene  1 60 72 0.7960190350667571 0 13549.0 0.7960190350667571 1
gene  1 3 73 0.5132248703960363 0 13682.0 0.5132248703960363 1
gene  1 18 73 -3.6509397402905917 0 13697.0 -3.6509397402905917 1
gene  1 30 73 0.6430282207789719 0 13709.0 0.6430282207789719 1
gene  1 41 73 1.1175821673656525 0 13720.0 1.1175821673656525 1
gene  1 54 73 -3.6832613953823308 0 13733.0 -3.6832613953823308 1
gene  1 59 73 -2.5104899615333807 0 13738.0 -2.5104899615333807 1
gene  1 60 73 -8.09573848783879 0 13739.0 -8.09573848783879 1
gene  1 179 73 -9.3446009583706 1 13858.0 -9.3446009583706 1
gene  1 189 73 4.625920107798244 1 13868.0 4.625920107798244 1
gene  1 31 74 -2.9410251773132967 0 13900.0 -2.9410251773132967 1
gene  1 38 74 -11.58700536888707 0 13907.0 -11.58700536888707 1
gene  1 67 74 1.2206853611026103 0 13936.0 1.2206853611026103 1
gene  1 74 74 -6.18289977064347 1 13943.0 -6.18289977064347 1
gene  1 188 74 -2.051390502261482 1 14057.0 -2.051390502261482 1
gene  1 2 75 1.6636393565670369 0 14061.0 1.6636393565670369 1
gene  1 10 75 9.488757852357576 0 14069.0 9.488757852357576 1
gene  1 12 75 1.203829148841219 0 14071.0 1.203829148841219 1
gene  1 15 75 -2.002608607739968 0 14074.0 -2.002608607739968 1
gene  1 18 75 -2.0533873685563346 0 14077.0 -2.0533873685563346 1
gene  1 43 75 0.9390068236592306 0 14102.0 0.9390068236592306 1
gene  1 46 75 -2.4147066610647236 0 14105.0 -2.4147066610647236 1
gene  1 56 75 -2.493372481087599 0 14115.0 -2.493372481087599 1
gene  1 57 75 -3.927215182070297 0 14116.0 -3.927215182070297 1
gene  1 177 75 1.650657868726793 1 14236.0 1.650657868726793 1
gene  1 183 75 -8.42748917577941 1 14242.0 -8.42748917577941 1
gene  1 3 171 -3.415410359489645 0 32302.0 -3.415410359489645 1
gene  1 10 171 7.534334394018929 0 32309.0 7.534334394018929 1
gene  1 18 171 0.07502939458540886 0 32317.0 0.07502939458540886 1
gene  1 35 171 3.174444442447 0 32334.0 3.174444442447 1
gene  1 47 171 -1.219089038562256 0 32346.0 -1.219089038562256 1
gene  1 48 171 6.04146106120335 0 32347.0 6.04146106120335 1
gene  1 63 171 9.656482909774999 0 32362.0 9.656482909774999 1
gene  1 74 171 -7.369063273247093 0 32373.0 -7.369063273247093 1
gene  1 171 171 9.356052047781448 1 32470.0 9.356052047781448 1
gene  1 180 171 -5.834231881613743 1 32479.0 -5.834231881613743 1
gene  1 181 171 5.975774052817519 1 32480.0 5.975774052817519 1
gene  1 16 172 -7.9395275785046735 0 32505.0 -7.9395275785046735 1
gene  1 38 172 -0.07991373492333892 0 32527.0 -0.07991373492333892 1
gene  1 58 172 6.519070167682103 0 32547.0 6.519070167682103 1
gene  1 59 172 -1.532845795933441 0 32548.0 -1.532845795933441 1
gene  1 60 172 -2.190202373905474 0 32549.0 -2.190202373905474 1
gene  1 73 172 0.5363682907376335 0 32562.0 0.5363682907376335 1
gene  1 171 172 -1.5313225113742228 0 32660.0 -1.5313225113742228 1
gene  1 173 172 0.4442189727676829 1 32662.0 0.4442189727676829 1
gene  1 7 173 -4.760209080431389 0 32686.0 -4.760209080431389 1
gene  1 29 173 2.480961077294369 0 32708.0 2.480961077294369 1
gene  1 30 173 1.629061312978885 0 32709.0 1.629061312978885 1
gene  1 38 173 1.7378077637008458 0 32717.0 1.7378077637008458 1
gene  1 56 173 2.2282684589712733 0 32735.0 2.2282684589712733 1
gene  1 68 173 3.387690560097369 0 32747.0 3.387690560097369 1
gene  1 72 173 3.1711132845236847 0 32751.0 3.1711132845236847 1
gene  1 75 173 -4.07685328982585 0 32754.0 -4.07685328982585 1
gene  1 180 173 -7.364075103938154 1 32859.0 -7.364075103938154 1
gene  1 45 174 2.369847590418764 0 32914.0 2.369847590418764 1
gene  1 174 174 2.0647673013723904 1 33043.0 2.0647673013723904 1
gene  1 180 174 -1.7753411268518082 1 33049.0 -1.7753411268518082 1
gene  1 186 174 1.1753138442824942 1 33055.0 1.1753138442824942 1
gene  1 2 175 1.7091774119013734 0 33061.0 1.7091774119013734 1
gene  1 11 175 8.27962405690116 0 33070.0 8.27962405690116 1
gene  1 26 175 -2.0576519197620247 0 33085.0 -2.0576519197620247 1
gene  1 37 175 1.1374002895099105 0 33096.0 1.1374002895099105 1
gene  1 43 175 1.427142214782539 0 33102.0 1.427142214782539 1
gene  1 48 175 -0.04948891203560496 0 33107.0 -0.04948891203560496 1
gene  1 51 175 -3.2351518819295286 0 33110.0 -3.2351518819295286 1
gene  1 64 175 0.30265688690247083 0 33123.0 0.30265688690247083 1
gene  1 70 175 -3.16389086660952 0 33129.0 -3.16389086660952 1
gene  1 71 175 -2.1335974488884855 0 33130.0 -2.1335974488884855 1
gene  1 177 175 1.3828810934009361 1 33236.0 1.3828810934009361 1
gene  1 178 175 -1.3716208972938528 1 33237.0 -1.3716208972938528 1
gene  1 181 175 -6.108618480934577 1 33240.0 -6.108618480934577 1
gene  1 184 175 5.867391111035143 1 33243.0 5.867391111035143 1
gene  1 186 175 3.616157474763458 1 33245.0 3.616157474763458 1
gene  1 2 176 -0.4915554166744568 0 33251.0 -0.4915554166744568 1
gene  1 8 176 1.9984722489145679 0 33257.0 1.9984722489145679 1
gene  1 9 176 1.0057310065093363 0 33258.0 1.0057310065093363 1
gene  1 12 176 -0.7672581607668547 0 33261.0 -0.7672581607668547 1
gene  1 15 176 5.059636477886075 0 33264.0 5.059636477886075 1
gene  1 16 176 -5.185495695557332 0 33265.0 -5.185495695557332 1
gene  1 35 176 -0.2502398498513374 0 33284.0 -0.2502398498513374 1
gene  1 37 176 -0.295364668494589 0 33286.0 -0.295364668494589 1
gene  1 46 176 3.985424347208234 0 33295.0 3.985424347208234 1
gene  1 62 176 0.13929318273107394 0 33311.0 0.13929318273107394 1
gene  1 64 176 -0.49705838399440455 0 33313.0 -0.49705838399440455 1
gene  1 171 176 -2.926980318890294 0 33420.0 -2.926980318890294 1
gene  1 174 176 4.13742304178647 0 33423.0 4.13742304178647 1
gene  1 179 176 4.364094917543651 1 33428.0 4.364094917543651 1
gene  1 1 177 0.5978303832317149 0 33440.0 0.5978303832317149 1
gene  1 7 177 0.36949093407180833 0 33446.0 0.36949093407180833 1
gene  1 8 177 2.6690645353904463 0 33447.0 2.6690645353904463 1
gene  1 9 177 -12.92668839686558 0 33448.0 -12.92668839686558 1
gene  1 14 177 -0.7740418970766211 0 33453.0 -0.7740418970766211 1
gene  1 16 177 -2.3135833344093117 0 33455.0 -2.3135833344093117 1
gene  1 20 177 2.41279329442141 0 33459.0 2.41279329442141 1
gene  1 30 177 -2.3520684036309696 0 33469.0 -2.3520684036309696 1
gene  1 31 177 1.3322815025857624 0 33470.0 1.3322815025857624 1
gene  1 32 177 6.768552941445147 0 33471.0 6.768552941445147 1
gene  1 43 177 4.849613229338698 0 33482.0 4.849613229338698 1
gene  1 44 177 -0.9698728491233444 0 33483.0 -0.9698728491233444 1
gene  1 53 177 -0.5186679998588171 0 33492.0 -0.5186679998588171 1
gene  1 59 177 0.14528374310148728 0 33498.0 0.14528374310148728 1
gene  1 69 177 1.2776583309850214 0 33508.0 1.2776583309850214 1
gene  1 174 177 1.012951585730695 0 33613.0 1.012951585730695 1
gene  1 175 177 -1.4596947033463206 0 33614.0 -1.4596947033463206 1
gene  1 184 177 -5.967385012558241 1 33623.0 -5.967385012558241 0
gene  1 187 177 0.5732527095001467 1 33626.0 0.5732527095001467 1
gene  1 1 178 0.9513702591994677 0 33630.0 0.9513702591994677 1
gene  1 20 178 -3.506648447289097 0 33649.0 -3.506648447289097 1
gene  1 26 178 6.3185641368002425 0 33655.0 6.3185641368002425 1
gene  1 35 178 5.46136646107339 0 33664.0 5.46136646107339 1
gene  1 42 178 -16.35090367840315 0 33671.0 -16.35090367840315 1
gene  1 53 178 -0.17344759594471704 0 33682.0 -0.17344759594471704 1
gene  1 59 178 -2.21304078142521 0 33688.0 -2.21304078142521 1
gene  1 72 178 4.934556322148875 0 33701.0 4.934556322148875 1
gene  1 172 178 -0.02398450948992714 0 33801.0 -0.02398450948992714 1
gene  1 190 178 10.29065222732306 1 33819.0 10.29065222732306 1
gene  1 6 179 -1.1849165850630414 0 33825.0 -1.1849165850630414 1
gene  1 8 179 6.273665974043529 0 33827.0 6.273665974043529 1
gene  1 13 179 -5.311151645217697 0 33832.0 -5.311151645217697 1
gene  1 36 179 2.3618880329858785 0 33855.0 2.3618880329858785 1
gene  1 46 179 -0.24297818538593696 0 33865.0 -0.24297818538593696 1
gene  1 60 179 6.625548992452073 0 33879.0 6.625548992452073 1
gene  1 61 179 -8.590005216947578 0 33880.0 -8.590005216947578 1
gene  1 72 179 -4.685305757971489 0 33891.0 -4.685305757971489 1
gene  1 74 179 1.8897795859586042 0 33893.0 1.8897795859586042 1
gene  1 171 179 0.8654443938583021 0 33990.0 0.8654443938583021 1
gene  1 185 179 3.4406913624438014 1 34004.0 3.4406913624438014 1
gene  1 1 180 2.938509828914696 0 34010.0 2.938509828914696 1
gene  1 4 180 -2.078130115847143 0 34013.0 -2.078130115847143 1
gene  1 8 180 5.654840769839959 0 34017.0 5.654840769839959 1
gene  1 11 180 -1.6872581081435831 0 34020.0 -1.6872581081435831 1
gene  1 21 180 -0.1137718480130736 0 34030.0 -0.1137718480130736 1
gene  1 32 180 5.242199486713011 0 34041.0 5.242199486713011 1
gene  1 35 180 1.7608833834612383 0 34044.0 1.7608833834612383 1
gene  1 46 180 13.994779520678437 0 34055.0 13.994779520678437 1
gene  1 68 180 2.0306925832060636 0 34077.0 2.0306925832060636 1
gene  1 188 180 -4.526152409798488 1 34197.0 -4.526152409798488 1
gene  1 2 181 -1.3120127365690935 0 34201.0 -1.3120127365690935 1
gene  1 16 181 -2.5256796676788777 0 34215.0 -2.5256796676788777 1
gene  1 24 181 -4.877875844071379 0 34223.0 -4.877875844071379 1
gene  1 36 181 0.5831469599752426 0 34235.0 0.5831469599752426 1
gene  1 60 181 -3.747982450163998 0 34259.0 -3.747982450163998 1
gene  1 69 181 -0.08711036497702662 0 34268.0 -0.08711036497702662 1
gene  1 190 181 -2.1184973822386066 1 34389.0 -2.1184973822386066 1
gene  1 1 182 -1.195712527202295 0 34390.0 -1.195712527202295 1
gene  1 17 182 0.6798880585033582 0 34406.0 0.6798880585033582 1
gene  1 35 182 2.1278424474337045 0 34424.0 2.1278424474337045 1
gene  1 44 182 -1.8334767489353074 0 34433.0 -1.8334767489353074 1
gene  1 49 182 7.7201714014735465 0 34438.0 7.7201714014735465 1
gene  1 50 182 -4.697601007544567 0 34439.0 -4.697601007544567 1
gene  1 54 182 -2.1676464097966925 0 34443.0 -2.1676464097966925 1
gene  1 59 182 7.582886969265279 0 34448.0 7.582886969265279 1
gene  1 73 182 0.2918855551527971 0 34462.0 0.2918855551527971 1
gene  1 174 182 1.159212984956208 0 34563.0 1.159212984956208 1
gene  1 187 182 2.3572951989621957 1 34576.0 2.3572951989621957 1
gene  1 6 183 -7.849550318617585 0 34585.0 -7.849550318617585 1
gene  1 7 183 -2.6662407433177715 0 34586.0 -2.6662407433177715 1
gene  1 17 183 2.854073340295979 0 34596.0 2.854073340295979 1
gene  1 20 183 6.394952232352086 0 34599.0 6.394952232352086 1
gene  1 25 183 -2.1257561268290663 0 34604.0 -2.1257561268290663 1
gene  1 30 183 -6.570952165302655 0 34609.0 -6.570952165302655 1
gene  1 39 183 1.477372454747736 0 34618.0 1.477372454747736 1
gene  1 44 183 10.320873014282906 0 34623.0 10.320873014282906 1
gene  1 66 183 -5.10757978042883 0 34645.0 -5.10757978042883 1
gene  1 171 183 1.1630417193892029 0 34750.0 1.1630417193892029 1
gene  1 174 183 -1.9294856485905054 0 34753.0 -1.9294856485905054 1
gene  1 21 184 3.9414532341605706 0 34790.0 3.9414532341605706 1
gene  1 29 184 -8.49434678871929 0 34798.0 -8.49434678871929 1
gene  1 32 184 -0.8780394707302617 0 34801.0 -0.8780394707302617 1
gene  1 36 184 -5.538986748709295 0 34805.0 -5.538986748709295 1
gene  1 45 184 0.7616394733350109 0 34814.0 0.7616394733350109 1
gene  1 46 184 -3.96544308412455 0 34815.0 -3.96544308412455 1
gene  1 63 184 -6.420871743610662 0 34832.0 -6.420871743610662 1
gene  1 66 184 4.104384813952851 0 34835.0 4.104384813952851 1
gene  1 177 184 0.007692765395262258 0 34946.0 0.007692765395262258 1
gene  1 31 185 2.6291904671642 0 34990.0 2.6291904671642 1
gene  1 50 185 1.7109488304726626 0 35009.0 1.7109488304726626 1
gene  1 56 185 -1.5668016946972867 0 35015.0 -1.5668016946972867 1
gene  1 58 185 -5.814416766110272 0 35017.0 -5.814416766110272 1
gene  1 62 185 -8.702513914460253 0 35021.0 -8.702513914460253 1
gene  1 173 185 0.8027154937605201 0 35132.0 0.8027154937605201 1
gene  1 179 185 5.014190861576905 0 35138.0 5.014190861576905 1
gene  1 182 185 -20.060031183451883 0 35141.0 -20.060031183451883 1
gene  1 188 185 -3.698691288536659 1 35147.0 -3.698691288536659 1
gene  1 1 186 7.684721333554574 0 35150.0 7.684721333554574 1
gene  1 3 186 5.148618538603137 0 35152.0 5.148618538603137 1
gene  1 4 186 5.191408177148071 0 35153.0 5.191408177148071 1
gene  1 6 186 -5.53796034833441 0 35155.0 -5.53796034833441 1
gene  1 7 186 2.485889902519914 0 35156.0 2.485889902519914 1
gene  1 17 186 1.9053596636849648 0 35166.0 1.9053596636849648 1
gene  1 23 186 -5.269008597471705 0 35172.0 -5.269008597471705 1
gene  1 28 186 -2.0218534286317396 0 35177.0 -2.0218534286317396 1
gene  1 33 186 1.10686572346716 0 35182.0 1.10686572346716 1
gene  1 36 186 8.429666576551448 0 35185.0 8.429666576551448 1
gene  1 58 186 0.9889808438472738 0 35207.0 0.9889808438472738 1
gene  1 69 186 -0.1670492526716888 0 35218.0 -0.1670492526716888 1
gene  1 70 186 1.846794097163179 0 35219.0 1.846794097163179 1
gene  1 72 186 3.739969100755409 0 35221.0 3.739969100755409 1
gene  1 10 187 4.425992574845367 0 35349.0 4.425992574845367 1
gene  1 25 187 1.1257961360246511 0 35364.0 1.1257961360246511 1
gene  1 31 187 4.318524892200145 0 35370.0 4.318524892200145 1
gene  1 33 187 -0.3096675100928694 0 35372.0 -0.3096675100928694 1
gene  1 47 187 -1.9975912286063067 0 35386.0 -1.9975912286063067 1
gene  1 57 187 -5.839489200371576 0 35396.0 -5.839489200371576 1
gene  1 183 187 -6.5053184925353875 0 35522.0 -6.5053184925353875 1
gene  1 184 187 1.4349526364088065 0 35523.0 1.4349526364088065 1
gene  1 5 188 3.1007619949045564 0 35534.0 3.1007619949045564 1
gene  1 6 188 7.719752957042625 0 35535.0 7.719752957042625 1
gene  1 12 188 -4.060109470702705 0 35541.0 -4.060109470702705 1
gene  1 28 188 -5.941819489719409 0 35557.0 -5.941819489719409 1
gene  1 32 188 -10.221595734407476 0 35561.0 -10.221595734407476 1
gene  1 35 188 5.610736827407959 0 35564.0 5.610736827407959 1
gene  1 57 188 0.3820945519974931 0 35586.0 0.3820945519974931 1
gene  1 172 188 0.03866215972961129 0 35701.0 0.03866215972961129 1
gene  1 14 189 2.8484533909398513 0 35733.0 2.8484533909398513 1
gene  1 17 189 5.345330579948775 0 35736.0 5.345330579948775 1
gene  1 27 189 -2.692878062630581 0 35746.0 -2.692878062630581 1
gene  1 37 189 10.041610774421464 0 35756.0 10.041610774421464 1
gene  1 43 189 0.06849918363593777 0 35762.0 0.06849918363593777 1
gene  1 51 189 -0.984297423845975 0 35770.0 -0.984297423845975 1
gene  1 56 189 1.5108706844523088 0 35775.0 1.5108706844523088 1
gene  1 59 189 -6.775742157855739 0 35778.0 -6.775742157855739 1
gene  1 65 189 -5.64283876570492 0 35784.0 -5.64283876570492 1
gene  1 73 189 -2.3724624034825066 0 35792.0 -2.3724624034825066 1
gene  1 74 189 10.280300355946226 0 35793.0 10.280300355946226 1
gene  1 178 189 3.9981240968825786 0 35897.0 3.9981240968825786 1
gene  1 1 190 3.199050125507691 0 35910.0 3.199050125507691 1
gene  1 4 190 -6.637203509529388 0 35913.0 -6.637203509529388 1
gene  1 15 190 -0.26922436753692747 0 35924.0 -0.26922436753692747 1
gene  1 22 190 0.15274898367556777 0 35931.0 0.15274898367556777 1
gene  1 33 190 -1.5443347635535678 0 35942.0 -1.5443347635535678 1
gene  1 58 190 1.251749547765956 0 35967.0 1.251749547765956 1
gene  1 60 190 -2.505282791331856 0 35969.0 -2.505282791331856 1
gene  1 67 190 2.029985231654499 0 35976.0 2.029985231654499 1
gene  1 179 190 -1.8103190151201058 0 36088.0 -1.8103190151201058 1
gene  1 181 190 8.001824399074414 0 36090.0 8.001824399074414 1
gene  1 182 190 2.141842541881906 0 36091.0 2.141842541881906 1
gene  1 184 190 -2.3763416216875024 0 36093.0 -2.3763416216875024 1
gene  1 186 190 -1.672133787210643 0 36095.0 -1.672133787210643 1
gene  1 187 190 0.9959511579062572 0 36096.0 0.9959511579062572 1
gene  1 65 188 -3.135785243749276 0 36109.0 -3.135785243749276 1
gene  1 1 193 -2.999897722133878 0 36113.0 -2.999897722133878 1
gene  1 193 190 2.007189237483866 0 36114.0 2.007189237483866 1
gene  1 29 68 4.1511547209295685 0 36116.0 4.1511547209295685 1
gene  1 181 195 -1.1301590048025787 1 36120.0 -1.1301590048025787 1
gene  1 195 63 0.8565373756126682 0 36121.0 0.8565373756126682 1
gene  1 7 171 -6.282076849617988 0 36125.0 -6.282076849617988 1
gene  1 22 72 6.969838355812014 0 36150.0 6.969838355812014 1
gene  1 47 212 -0.5974994180100424 0 36196.0 -0.5974994180100424 1
gene  1 212 55 2.996927305815398 0 36197.0 2.996927305815398 1
gene  1 55 58 4.383958547732178 0 36200.0 4.383958547732178 1
gene  1 33 217 -0.6029660380709417 0 36231.0 -0.6029660380709417 1
gene  1 217 187 8.18729227771739 0 36232.0 8.18729227771739 1
gene  1 69 56 8.578508098373685 0 36255.0 8.578508098373685 1
gene  1 51 173 2.284379612996074 0 36261.0 2.284379612996074 1
gene  1 35 230 -4.136682515088422 0 36282.0 -4.136682515088422 1
gene  1 230 57 3.7597507640648757 0 36283.0 3.7597507640648757 1
gene  1 43 244 -1.531873244558294 0 36330.0 -1.531873244558294 1
gene  1 244 189 -2.226448676759855 0 36331.0 -2.226448676759855 1
gene  1 13 172 3.159973834675941 0 36334.0 3.159973834675941 1
gene  1 52 230 -5.700434874759759 0 36357.0 -5.700434874759759 1
gene  1 68 188 -6.051865375191383 0 36380.0 -6.051865375191383 1
gene  1 12 54 -1.5233285392837668 0 36383.0 -1.5233285392837668 1
gene  1 181 74 2.503219578333834 0 36429.0 2.503219578333834 1
gene  1 61 177 4.4328331255513795 0 36460.0 4.4328331255513795 1
gene  1 20 184 -4.537831947922159 0 36496.0 -4.537831947922159 1
gene  1 190 176 -2.8464936668560057 0 36516.0 -2.8464936668560057 1
gene  1 22 291 -1.1890688632725284 0 36524.0 -1.1890688632725284 1
gene  1 291 190 -6.835025742988564 0 36525.0 -6.835025742988564 1
gene  1 75 174 -6.6077034664600625 0 36555.0 -6.6077034664600625 1
gene  1 35 297 5.811570725522218 0 36562.0 5.811570725522218 1
gene  1 297 171 -4.190499975603075 0 36563.0 -4.190499975603075 1
gene  1 33 184 4.372340390326123 0 36565.0 4.372340390326123 1
gene  1 35 186 -9.927632109291828 0 36569.0 -9.927632109291828 1
gene  1 51 300 -6.309125289867061 0 36574.0 -6.309125289867061 1
gene  1 300 71 -1.454552038449022 0 36575.0 -1.454552038449022 1
gene  1 49 172 0.9511579301251927 0 36658.0 0.9511579301251927 1
gene  1 75 177 -2.0205074890974526 0 36665.0 -2.0205074890974526 1
gene  1 53 321 -1.4519874182012873 0 36673.0 -1.4519874182012873 1
gene  1 321 62 0.6840180831130214 0 36674.0 0.6840180831130214 1
gene  1 47 62 -2.8239723454589463 0 36689.0 -2.8239723454589463 1
gene  1 41 67 5.124018321606405 0 36692.0 5.124018321606405 1
gene  1 182 325 -1.2673368650378152 1 36701.0 -1.2673368650378152 1
gene  1 325 67 3.6757653797825904 0 36702.0 3.6757653797825904 1
gene  1 195 178 1.9921250336571092 0 36719.0 1.9921250336571092 1
gene  1 64 56 5.189510719266731 0 36723.0 5.189510719266731 1
gene  1 37 334 1.2312834389768759 0 36742.0 1.2312834389768759 1
gene  1 334 175 1.8006518612166418 0 36743.0 1.8006518612166418 1
gene  1 56 341 4.112423098526955 0 36772.0 4.112423098526955 1
gene  1 341 173 11.493717433200075 0 36773.0 11.493717433200075 1
gene  1 26 297 -5.48735222777659 0 36788.0 -5.48735222777659 1
gene  1 24 70 0.8257446819049399 0 36824.0 0.8257446819049399 1
gene  1 174 178 -0.5439492616865103 0 36853.0 -0.5439492616865103 1
gene  1 15 174 -1.83866002333321 0 36944.0 -1.83866002333321 1
gene  1 188 178 -1.6340508695252765 0 36962.0 -1.6340508695252765 1
gene  1 15 72 3.138692566668972 0 36977.0 3.138692566668972 1
gene  1 66 54 -1.1078669497472835 0 37021.0 -1.1078669497472835 1
gene  1 212 177 2.5076852187807166 0 37108.0 2.5076852187807166 1
gene  1 10 244 1.205467870694587 0 37115.0 1.205467870694587 1
gene  1 27 291 -3.4562636364150254 0 37132.0 -3.4562636364150254 1
gene  1 4 68 0.41105720824155756 0 37136.0 0.41105720824155756 1
gene  1 5 416 -0.9539726573356853 0 37142.0 -0.9539726573356853 1
gene  1 416 188 -1.005064363501396 0 37143.0 -1.005064363501396 1
gene  1 17 217 -0.6138688515989829 0 37209.0 -0.6138688515989829 1
gene  1 5 187 -0.32385755675825634 0 37211.0 -0.32385755675825634 1
gene  1 43 433 -1.259122295810841 0 37218.0 -1.259122295810841 1
gene  1 433 66 -2.848792201251807 0 37219.0 -2.848792201251807 1
gene  1 75 436 -0.5635153632463794 1 37227.0 -0.5635153632463794 1
gene  1 436 59 -1.4305800619761508 0 37228.0 -1.4305800619761508 1
gene  1 244 60 -5.074930543311501 0 37235.0 -5.074930543311501 1
gene  1 416 73 -1.058557025672293 0 37246.0 -1.058557025672293 1
gene  1 60 447 -2.127901166072317 0 37271.0 -2.127901166072317 1
gene  1 447 73 1.5024265173957116 0 37272.0 1.5024265173957116 1
gene  1 42 69 0.7110011980198929 0 37308.0 0.7110011980198929 1
gene  1 15 464 3.83255802247975 0 37342.0 3.83255802247975 1
gene  1 464 176 5.389913926945733 0 37343.0 5.389913926945733 1
gene  1 51 187 -0.8812242426259669 0 37380.0 -0.8812242426259669 1
gene  1 26 185 0.6504769351160742 0 37427.0 0.6504769351160742 1
gene  1 51 185 3.77420358266635 0 37512.0 3.77420358266635 1
gene  1 20 180 1.010217734587147 0 37552.0 1.010217734587147 1
gene  1 23 511 1.5752682376199079 0 37568.0 1.5752682376199079 1
gene  1 511 186 -1.7239679645687294 0 37569.0 -1.7239679645687294 1
gene  1 66 63 3.1491367130549053 0 37632.0 3.1491367130549053 1
gene  1 186 71 2.2890622658693625 0 37664.0 2.2890622658693625 1
gene  1 28 416 5.8496444456036265 0 37673.0 5.8496444456036265 1
gene  1 175 537 -2.5480394078529742 1 37692.0 -2.5480394078529742 1
gene  1 537 62 4.786264207635743 0 37693.0 4.786264207635743 1
gene  1 43 180 2.2355151195231864 0 37705.0 2.2355151195231864 1
gene  1 4 63 -3.0726924266352196 0 37794.0 -3.0726924266352196 1
gene  1 41 188 1.8999125316908914 0 37797.0 1.8999125316908914 1
gene  1 70 566 -3.295170799233211 0 37810.0 -3.295170799233211 1
gene  1 566 175 -0.44075512079792517 0 37811.0 -0.44075512079792517 1
gene  1 51 180 -0.8136083482594778 0 37819.0 -0.8136083482594778 1
gene  1 185 217 2.611933235307865 0 37826.0 2.611933235307865 1
gene  1 2 183 0.9534007481724064 0 37861.0 0.9534007481724064 1
gene  1 44 588 -2.2754184896602325 0 37889.0 -2.2754184896602325 1
gene  1 588 183 -2.6806174344039135 0 37890.0 -2.6806174344039135 1
gene  1 341 433 1.1640280859522776 0 37895.0 1.1640280859522776 1
gene  1 60 182 -0.2637266257506624 0 37962.0 -0.2637266257506624 1
gene  1 43 56 2.5174702263530158 0 38052.0 2.5174702263530158 1
gene  1 174 628 -2.4952714838364454 1 38060.0 -2.4952714838364454 1
gene  1 628 174 1.6545663029097546 0 38061.0 1.6545663029097546 1
gene  1 52 57 4.2179964361453 0 38081.0 4.2179964361453 1
gene  1 64 635 -0.5684802457342233 0 38091.0 -0.5684802457342233 1
gene  1 635 176 2.1021782183607383 0 38092.0 2.1021782183607383 1
gene  1 341 638 -1.2570503044582182 0 38100.0 -1.2570503044582182 1
gene  1 638 173 -2.4930948676071925 0 38101.0 -2.4930948676071925 1
gene  1 180 644 -0.4375443433441289 1 38135.0 -0.4375443433441289 1
gene  1 644 173 -0.999874805870079 0 38136.0 -0.999874805870079 1
gene  1 62 188 -7.683532439134381 0 38145.0 -7.683532439134381 1
gene  1 188 657 -1.4667476416008896 1 38192.0 -1.4667476416008896 1
gene  1 657 185 -0.03127815523417232 0 38193.0 -0.03127815523417232 1
gene  1 50 566 -1.4762708428110993 0 38195.0 -1.4762708428110993 1
gene  1 45 667 -0.6009180778462777 0 38237.0 -0.6009180778462777 1
gene  1 667 69 0.6512608752766134 0 38238.0 0.6512608752766134 1
gene  1 433 244 1.4045377102349472 0 38266.0 1.4045377102349472 1
gene  1 3 683 2.132508515918477 0 38320.0 2.132508515918477 1
gene  1 683 186 -2.1514650518915643 0 38321.0 -2.1514650518915643 1
gene  1 20 684 2.2927200166905535 0 38328.0 2.2927200166905535 1
gene  1 684 183 -1.1148217159786808 0 38329.0 -1.1148217159786808 1
gene  1 193 66 -1.6169298800002379 0 38335.0 -1.6169298800002379 1
gene  1 61 690 4.379390890159272 1 38351.0 4.379390890159272 1
gene  1 690 60 0.7225006561218132 0 38352.0 0.7225006561218132 1
gene  1 65 67 0.4033101394217238 0 38401.0 0.4033101394217238 1
gene  1 31 172 0.0492573611678071 0 38434.0 0.0492573611678071 1
gene  1 37 709 1.637490672845931 0 38463.0 1.637490672845931 1
gene  1 709 175 0.7630277315918836 0 38464.0 0.7630277315918836 1
gene  1 61 186 -0.18530031741786096 0 38470.0 -0.18530031741786096 1
gene  1 27 73 -4.842232904528668 0 38488.0 -4.842232904528668 1
gene  1 212 56 2.1000601190076633 0 38499.0 2.1000601190076633 1
gene  1 61 718 -2.581439584188729 0 38501.0 -2.581439584188729 1
gene  1 718 67 -0.43052525957582954 0 38502.0 -0.43052525957582954 1
gene  1 64 728 -2.320226432407581 0 38550.0 -2.320226432407581 1
gene  1 728 56 -1.8681440274822574 0 38551.0 -1.8681440274822574 1
gene  1 68 684 2.6660487080164383 0 38567.0 2.6660487080164383 1
gene  1 35 733 -0.03842305808714286 0 38570.0 -0.03842305808714286 1
gene  1 733 230 3.8405435539823882 0 38571.0 3.8405435539823882 1
gene  1 36 436 -2.5481010179804517 0 38577.0 -2.5481010179804517 1
gene  1 30 72 -0.25938485624275004 0 38597.0 -0.25938485624275004 1
gene  1 53 185 -0.4951677125429621 0 38599.0 -0.4951677125429621 1
gene  1 22 186 -0.7834814989053562 0 38641.0 -0.7834814989053562 1
gene  1 43 759 1.0121942176008374 0 38697.0 1.0121942176008374 1
gene  1 759 66 -1.806262938011297 0 38698.0 -1.806262938011297 1
gene  1 7 760 -2.530794444738551 0 38700.0 -2.530794444738551 1
gene  1 760 177 -3.1081617575835825 0 38701.0 -3.1081617575835825 1
gene  1 174 638 2.1186218080284727 0 38749.0 2.1186218080284727 1
gene  1 73 772 2.9103816635340145 1 38759.0 2.9103816635340145 1
gene  1 772 54 1.3497028897281635 0 38760.0 1.3497028897281635 1
gene  1 68 69 0.7317792460726419 0 38783.0 0.7317792460726419 1
gene  1 244 683 1.6548579398976817 0 38809.0 1.6548579398976817 1
gene  1 42 176 -1.288460971320463 0 38848.0 -1.288460971320463 1
gene  1 55 801 1.5057070802829144 0 38882.0 1.5057070802829144 1
gene  1 801 58 -1.894298440216216 0 38883.0 -1.894298440216216 1
gene  1 60 804 -6.917582115554956 0 38892.0 -6.917582115554956 1
gene  1 804 182 -4.65794984710487 0 38893.0 -4.65794984710487 1
gene  1 772 804 -4.235711369764051 0 38933.0 -4.235711369764051 1
gene  1 804 638 -1.122040366984143 0 38987.0 -1.122040366984143 1
gene  1 5 834 -0.5954961164090888 0 39022.0 -0.5954961164090888 1
gene  1 834 68 -2.466815559366365 0 39023.0 -2.466815559366365 1
gene  1 18 588 -1.3056694610266373 0 39025.0 -1.3056694610266373 1
gene  1 12 184 3.5287786394439404 0 39055.0 3.5287786394439404 1
gene  1 3 511 0.2814006162918087 0 39081.0 0.2814006162918087 1
gene  1 45 341 -0.15052198782610104 0 39096.0 -0.15052198782610104 1
gene  1 297 61 2.475564026842573 0 39114.0 2.475564026842573 1
gene  1 511 62 -3.527715804361146 0 39130.0 -3.527715804361146 1
gene  1 25 63 -1.9190266021582114 0 39136.0 -1.9190266021582114 1
gene  1 46 657 2.3152642310220064 0 39151.0 2.3152642310220064 1
gene  1 66 217 -2.292102654522568 0 39233.0 -2.292102654522568 1
gene  1 184 876 -0.09510703271079946 1 39243.0 -0.09510703271079946 1
gene  1 876 177 -2.491762080796789 0 39244.0 -2.491762080796789 1
gene  1 71 416 -4.823946076035516 0 39267.0 -4.823946076035516 1
genomeend 0
/* Organism # 001 Fitness:  1266,582 Error:  1000,000                      */
genomestart  1
trait 1 5.376846045458965 1.332319878163207 2.3047487772863144 2.441392960833722 1.4408962979620408 3.12539046396649 1.7417612026840517 3.917647730542947 
node 1 1 1 1
node 2 1 1 1
node 3 1 1 1
node 4 1 1 1
node 5 1 1 1
node 6 1 1 1
node 7 1 1 1
node 8 1 1 1
node 9 1 1 1
node 10 1 1 1
node 11 1 1 1
node 12 1 1 1
node 13 1 1 1
node 14 1 1 1
node 15 1 1 1
node 16 1 1 1
node 17 1 1 1
node 18 1 1 1
node 19 1 1 1
node 20 1 1 1
node 21 1 1 1
node 22 1 1 1
node 23 1 1 1
node 24 1 1 1
node 25 1 1 1
node 26 1 1 1
node 27 1 1 1
node 28 1 1 1
node 29 1 1 1
node 30 1 1 1
node 31 1 1 1
node 32 1 1 1
node 33 1 1 1
node 34 1 1 1
node 35 1 1 1
node 36 1 1 1
node 37 1 1 1
node 38 1 1 1
node 39 1 1 1
node 40 1 1 1
node 41 1 1 1
node 42 1 1 1
node 43 1 1 1
node 44 1 1 1
node 45 1 1 1
node 46 1 1 1
node 47 1 1 1
node 48 1 1 1
node 49 1 1 1
node 50 1 1 3
node 51 1 0 0
node 52 1 0 0
node 53 1 0 0
node 54 1 0 0
node 55 1 0 0
node 56 1 0 0
node 57 1 0 0
node 58 1 0 0
node 59 1 0 0
node 60 1 0 0
node 61 1 0 0
node 62 1 0 0
node 63 1 0 0
node 64 1 0 0
node 65 1 0 0
node 66 1 0 0
node 67 1 0 0
node 68 1 0 0
node 69 1 0 0
node 70 1 0 0
node 71 1 0 0
node 72 1 0 0
node 73 1 0 0
node 74 1 0 0
node 75 1 0 0
node 171 1 0 2
node 172 1 0 2
node 173 1 0 2
node 174 1 0 2
node 175 1 0 2
node 176 1 0 2
node 177 1 0 2
node 178 1 0 2
node 179 1 0 2
node 180 1 0 2
node 181 1 0 2
node 182 1 0 2
node 183 1 0 2
node 184 1 0 2
node 185 1 0 2
node 186 1 0 2
node 187 1 0 2
node 188 1 0 2
node 189 1 0 2
node 190 1 0 2
node 193 1 0 0
node 195 1 0 0
node 212 1 0 0
node 217 1 0 0
node 230 1 0 0
node 244 1 0 0
node 291 1 0 0
node 297 1 0 0
node 300 1 0 0
node 321 1 0 0
node 325 1 0 0
node 334 1 0 0
node 341 1 0 0
node 416 1 0 0
node 433 1 0 0
node 436 1 0 0
node 447 1 0 0
node 464 1 0 0
node 511 1 0 0
node 537 1 0 0
node 566 1 0 0
node 588 1 0 0
node 628 1 0 0
node 635 1 0 0
node 638 1 0 0
node 644 1 0 0
node 657 1 0 0
node 667 1 0 0
node 683 1 0 0
node 684 1 0 0
node 690 1 0 0
node 709 1 0 0
node 718 1 0 0
node 728 1 0 0
node 733 1 0 0
node 759 1 0 0
node 760 1 0 0
node 772 1 0 0
node 801 1 0 0
node 804 1 0 0
node 834 1 0 0
node 876 1 0 0
node 883 1 0 0
gene  1 28 51 -2.932934075251131 0 9527.0 -2.932934075251131 1
gene  1 33 51 -8.423288875368602 0 9532.0 -8.423288875368602 1
gene  1 36 51 -6.5037305787244755 0 9535.0 -6.5037305787244755 1
gene  1 40 51 -1.499867158222051 0 9539.0 -1.499867158222051 1
gene  1 42 51 5.387962094513144 0 9541.0 5.387962094513144 1
gene  1 54 51 0.8313139576235975 1 9553.0 0.8313139576235975 1
gene  1 57 51 5.426584167405386 1 9556.0 5.426584167405386 1
gene  1 68 51 2.0935737453176024 1 9567.0 2.0935737453176024 1
gene  1 174 51 -0.6414122069202268 1 9673.0 -0.6414122069202268 1
gene  1 183 51 1.1880926436628885 1 9682.0 1.1880926436628885 1
gene  1 184 51 1.8505223622882097 1 9683.0 1.8505223622882097 1
gene  1 189 51 1.2913659589298832 1 9688.0 1.2913659589298832 1
gene  1 3 52 3.493502998260473 0 9692.0 3.493502998260473 1
gene  1 6 52 2.3926040170821796 0 9695.0 2.3926040170821796 1
gene  1 24 52 6.969346559420419 0 9713.0 6.969346559420419 1
gene  1 29 52 2.27246298034505 0 9718.0 2.27246298034505 1
gene  1 31 52 5.064935244035476 0 9720.0 5.064935244035476 1
gene  1 35 52 1.065380357586776 0 9724.0 1.065380357586776 1
gene  1 63 52 1.5459181829961366 1 9752.0 1.5459181829961366 1
gene  1 179 52 -4.55681794930547 1 9868.0 -4.55681794930547 1
gene  1 183 52 0.16229905102584619 1 9872.0 0.16229905102584619 1
gene  1 184 52 -2.580960090843874 1 9873.0 -2.580960090843874 1
gene  1 185 52 1.8674494571766134 1 9874.0 1.8674494571766134 1
gene  1 5 53 -6.139147956677935 0 9884.0 -6.139147956677935 1
gene  1 6 53 10.099607437381795 0 9885.0 10.099607437381795 1
gene  1 10 53 -1.2762075044184404 0 9889.0 -1.2762075044184404 1
gene  1 33 53 1.5154272644161408 0 9912.0 1.5154272644161408 1
gene  1 35 53 0.80860270711657 0 9914.0 0.80860270711657 1
gene  1 38 53 3.0640824119898844 0 9917.0 3.0640824119898844 1
gene  1 45 53 1.1123094806045462 0 9924.0 1.1123094806045462 1
gene  1 71 53 1.311738094453573 1 9950.0 1.311738094453573 1
gene  1 16 54 0.3273349355251114 0 10085.0 0.3273349355251114 1
gene  1 19 54 0.49297778782555285 0 10088.0 0.49297778782555285 1
gene  1 36 54 3.00759594834203 0 10105.0 3.00759594834203 1
gene  1 42 54 1.001049098706992 0 10111.0 1.001049098706992 1
gene  1 58 54 8.276412477340019 1 10127.0 8.276412477340019 1
gene  1 62 54 2.851295505340793 1 10131.0 2.851295505340793 1
gene  1 73 54 6.279515489161186 1 10142.0 6.279515489161186 1
gene  1 177 54 -1.2646980407383592 1 10246.0 -1.2646980407383592 1
gene  1 180 54 -9.225341823660596 1 10249.0 -9.225341823660596 1
gene  1 190 54 1.552513467858709 1 10259.0 1.552513467858709 1
gene  1 20 55 -4.68311849375841 0 10279.0 -4.68311849375841 1
gene  1 31 55 -0.03047385711887879 0 10290.0 -0.03047385711887879 1
gene  1 35 55 0.844157222194535 0 10294.0 0.844157222194535 1
gene  1 41 55 2.1154883814001133 0 10300.0 2.1154883814001133 1
gene  1 47 55 -5.952587711292738 0 10306.0 -5.952587711292738 1
gene  1 52 55 -2.4890080598140734 0 10311.0 -2.4890080598140734 1
gene  1 69 55 -1.0009227347618652 1 10328.0 -1.0009227347618652 1
gene  1 75 55 3.9560845701071012 1 10334.0 3.9560845701071012 1
gene  1 187 55 -2.5507208730077924 1 10446.0 -2.5507208730077924 1
gene  1 7 56 0.6091362408943171 0 10456.0 0.6091362408943171 1
gene  1 11 56 6.322002144307282 0 10460.0 6.322002144307282 1
gene  1 13 56 -1.812824516661761 0 10462.0 -1.812824516661761 1
gene  1 36 56 -1.2546148108951483 0 10485.0 -1.2546148108951483 1
gene  1 41 56 0.10063914629780069 0 10490.0 0.10063914629780069 1
gene  1 44 56 4.373001521600848 0 10493.0 4.373001521600848 1
gene  1 46 56 -2.1043471768423143 0 10495.0 -2.1043471768423143 1
gene  1 49 56 2.430861267570638 0 10498.0 2.430861267570638 1
gene  1 68 56 3.8617213794062044 1 10517.0 3.8617213794062044 1
gene  1 179 56 0.7892159049033043 1 10628.0 0.7892159049033043 1
gene  1 183 56 2.9342576527570414 1 10632.0 2.9342576527570414 1
gene  1 3 57 -6.327462883932771 0 10642.0 -6.327462883932771 1
gene  1 19 57 4.761137315251188 0 10658.0 4.761137315251188 1
gene  1 22 57 2.4980689372011313 0 10661.0 2.4980689372011313 1
gene  1 28 57 2.074823055833064 0 10667.0 2.074823055833064 1
gene  1 30 57 -1.1359655501683226 0 10669.0 -1.1359655501683226 1
gene  1 35 57 2.4910767045011775 0 10674.0 2.4910767045011775 1
gene  1 47 57 -0.6517324642448852 0 10686.0 -0.6517324642448852 1
gene  1 59 57 -7.2549729988695315 1 10698.0 -7.2549729988695315 1
gene  1 60 57 0.20317474671640845 1 10699.0 0.20317474671640845 1
gene  1 187 57 -3.7442639135477886 1 10826.0 -3.7442639135477886 1
gene  1 5 58 -0.5732376222686386 0 10834.0 -0.5732376222686386 1
gene  1 14 58 -6.538013399878317 0 10843.0 -6.538013399878317 1
gene  1 15 58 4.745645319529556 0 10844.0 4.745645319529556 1
gene  1 24 58 4.166367824575963 0 10853.0 4.166367824575963 1
gene  1 32 58 2.320547877523943 0 10861.0 2.320547877523943 1
gene  1 43 58 -2.459145633422436 0 10872.0 -2.459145633422436 1
gene  1 49 58 -1.3513033173230422 0 10878.0 -1.3513033173230422 1
gene  1 53 58 -2.821395207286419 0 10882.0 -2.821395207286419 1
gene  1 62 58 7.873482298815838 1 10891.0 7.873482298815838 1
gene  1 64 58 1.0978837699326491 1 10893.0 1.0978837699326491 1
gene  1 69 58 -0.8174018821687493 1 10898.0 -0.8174018821687493 1
gene  1 182 58 -2.930021555958008 1 11011.0 -2.930021555958008 1
gene  1 1 59 0.8077642995770815 0 11020.0 0.8077642995770815 1
gene  1 4 59 3.6002497337124515 0 11023.0 3.6002497337124515 1
gene  1 27 59 -0.44043354697793213 0 11046.0 -0.44043354697793213 1
gene  1 34 59 3.8307851380559503 0 11053.0 3.8307851380559503 1
gene  1 37 59 2.2707293882258233 0 11056.0 2.2707293882258233 1
gene  1 44 59 -2.835852853994224 0 11063.0 -2.835852853994224 1
gene  1 59 59 -2.847794466437888 1 11078.0 -2.847794466437888 1
gene  1 73 59 3.2600243831043563 1 11092.0 3.2600243831043563 1
gene  1 75 59 0.018241553353428586 1 11094.0 0.018241553353428586 1
gene  1 183 59 0.3616656108923517 1 11202.0 0.3616656108923517 1
gene  1 185 59 0.5752763201810761 1 11204.0 0.5752763201810761 1
gene  1 8 60 -1.1281853090174978 0 11217.0 -1.1281853090174978 1
gene  1 10 60 0.24135373101051277 0 11219.0 0.24135373101051277 1
gene  1 40 60 -2.4620095189833697 0 11249.0 -2.4620095189833697 1
gene  1 45 60 -2.1555601909397026 0 11254.0 -2.1555601909397026 1
gene  1 61 60 1.4693210145355078 1 11270.0 1.4693210145355078 1
gene  1 72 60 -6.1322531116843955 1 11281.0 -6.1322531116843955 1
gene  1 177 60 0.5027685885995021 1 11386.0 0.5027685885995021 1
gene  1 179 60 5.823284244761309 1 11388.0 5.823284244761309 1
gene  1 187 60 -2.102593479411154 1 11396.0 -2.102593479411154 1
gene  1 7 61 2.3393613509892544 0 11406.0 2.3393613509892544 1
gene  1 15 61 0.7016502188526029 0 11414.0 0.7016502188526029 1
gene  1 22 61 -2.226307212629258 0 11421.0 -2.226307212629258 1
gene  1 28 61 2.639581982282122 0 11427.0 2.639581982282122 1
gene  1 36 61 3.060770657261479 0 11435.0 3.060770657261479 1
gene  1 53 61 1.2740103431114287 0 11452.0 1.2740103431114287 1
gene  1 54 61 0.9840924628445502 0 11453.0 0.9840924628445502 1
gene  1 67 61 2.158559228880121 1 11466.0 2.158559228880121 1
gene  1 177 61 2.2657317491122115 1 11576.0 2.2657317491122115 1
gene  1 184 61 -2.8860682585106283 1 11583.0 -2.8860682585106283 1
gene  1 6 62 -3.714611418172142 0 11595.0 -3.714611418172142 1
gene  1 11 62 -6.527993556463906 0 11600.0 -6.527993556463906 1
gene  1 15 62 -3.086147152798479 0 11604.0 -3.086147152798479 1
gene  1 26 62 -1.136970987636341 0 11615.0 -1.136970987636341 1
gene  1 53 62 -0.4693472043040736 0 11642.0 -0.4693472043040736 1
gene  1 68 62 -4.558220316669464 1 11657.0 -4.558220316669464 1
gene  1 72 62 -3.3790491305209454 1 11661.0 -3.3790491305209454 1
gene  1 174 62 0.8792740624886561 1 11763.0 0.8792740624886561 1
gene  1 175 62 5.372392199554076 1 11764.0 5.372392199554076 1
gene  1 184 62 -2.1399075877918894 1 11773.0 -2.1399075877918894 1
gene  1 185 62 -11.462140493878383 1 11774.0 -11.462140493878383 1
gene  1 188 62 3.2137570921673486 1 11777.0 3.2137570921673486 1
gene  1 31 63 -4.382918871656518 0 11810.0 -4.382918871656518 1
gene  1 32 63 -3.6208682509690533 0 11811.0 -3.6208682509690533 1
gene  1 37 63 -2.210954460476226 0 11816.0 -2.210954460476226 1
gene  1 38 63 7.181055518611048 0 11817.0 7.181055518611048 1
gene  1 42 63 1.1639720260248412 0 11821.0 1.1639720260248412 1
gene  1 46 63 -3.2425332691151376 0 11825.0 -3.2425332691151376 1
gene  1 48 63 6.699870390497531 0 11827.0 6.699870390497531 1
gene  1 50 63 -2.609618903737747 0 11829.0 -2.609618903737747 1
gene  1 60 63 -1.2379272331344893 0 11839.0 -1.2379272331344893 1
gene  1 63 63 -2.1880955609708534 1 11842.0 -2.1880955609708534 1
gene  1 72 63 -0.45212030751349563 1 11851.0 -0.45212030751349563 1
gene  1 74 63 2.14103177978725 1 11853.0 2.14103177978725 1
gene  1 178 63 -3.6624577874288553 1 11957.0 -3.6624577874288553 1
gene  1 180 63 5.816204976911957 1 11959.0 5.816204976911957 1
gene  1 181 63 0.5399366914808552 1 11960.0 0.5399366914808552 1
gene  1 8 64 -0.3951079910526014 0 11977.0 -0.3951079910526014 1
gene  1 11 64 -4.623630819476194 0 11980.0 -4.623630819476194 1
gene  1 20 64 -4.475588980088936 0 11989.0 -4.475588980088936 1
gene  1 27 64 -7.908149693779699 0 11996.0 -7.908149693779699 1
gene  1 41 64 1.0612065943517843 0 12010.0 1.0612065943517843 1
gene  1 44 64 10.444468841521624 0 12013.0 10.444468841521624 1
gene  1 49 64 2.0773774763699455 0 12018.0 2.0773774763699455 1
gene  1 50 64 3.0189958757106448 0 12019.0 3.0189958757106448 1
gene  1 53 64 9.775595121923578 0 12022.0 9.775595121923578 1
gene  1 59 64 -3.0667646054849595 0 12028.0 -3.0667646054849595 1
gene  1 70 64 -6.654056876414643 1 12039.0 -6.654056876414643 1
gene  1 176 64 -1.928632102528033 1 12145.0 -1.928632102528033 1
gene  1 179 64 5.3503494753244745 1 12148.0 5.3503494753244745 1
gene  1 183 64 -0.32420117752736055 1 12152.0 -0.32420117752736055 1
gene  1 184 64 -0.3601502030732959 1 12153.0 -0.3601502030732959 1
gene  1 185 64 6.036023181193524 1 12154.0 6.036023181193524 1
gene  1 8 65 -3.1715601437225276 0 12167.0 -3.1715601437225276 1
gene  1 13 65 -4.305308455048895 0 12172.0 -4.305308455048895 1
gene  1 18 65 7.220048159799509 0 12177.0 7.220048159799509 1
gene  1 39 65 0.32522981005213336 0 12198.0 0.32522981005213336 1
gene  1 53 65 0.4416773853474296 0 12212.0 0.4416773853474296 1
gene  1 69 65 1.463165350003907 1 12228.0 1.463165350003907 1
gene  1 70 65 3.2790419541706224 1 12229.0 3.2790419541706224 1
gene  1 175 65 2.1938722104190163 1 12334.0 2.1938722104190163 1
gene  1 176 65 -0.5082229086621746 1 12335.0 -0.5082229086621746 1
gene  1 177 65 -5.023355609442538 1 12336.0 -5.023355609442538 1
gene  1 185 65 9.7331164791314 1 12344.0 9.7331164791314 1
gene  1 1 66 -4.341868084588036 0 12350.0 -4.341868084588036 1
gene  1 4 66 4.047501724937494 0 12353.0 4.047501724937494 1
gene  1 18 66 2.167296076212939 0 12367.0 2.167296076212939 1
gene  1 21 66 0.13969109953271974 0 12370.0 0.13969109953271974 1
gene  1 43 66 -1.352340623363986 0 12392.0 -1.352340623363986 1
gene  1 47 66 -8.136792717839981 0 12396.0 -8.136792717839981 1
gene  1 50 66 -1.1698610134191483 0 12399.0 -1.1698610134191483 1
gene  1 60 66 -1.2192579326611417 0 12409.0 -1.2192579326611417 1
gene  1 62 66 2.7332114641958927 0 12411.0 2.7332114641958927 1
gene  1 66 66 3.6405310418164953 1 12415.0 3.6405310418164953 1
gene  1 184 66 -1.3651545280284774 1 12533.0 -1.3651545280284774 1
gene  1 8 67 -4.32151853640274 0 12547.0 -4.32151853640274 1
gene  1 38 67 -3.365553355288866 0 12577.0 -3.365553355288866 1
gene  1 46 67 -3.0677332771110395 0 12585.0 -3.0677332771110395 1
gene  1 49 67 -0.20357562284345665 0 12588.0 -0.20357562284345665 1
gene  1 57 67 -1.4356734925320576 0 12596.0 -1.4356734925320576 1
gene  1 61 67 -3.4677592455196797 0 12600.0 -3.4677592455196797 1
gene  1 72 67 0.5123034981413201 1 12611.0 0.5123034981413201 1
gene  1 177 67 0.4099017139416803 1 12716.0 0.4099017139416803 1
gene  1 182 67 2.2111357546396553 1 12721.0 2.2111357546396553 1
gene  1 185 67 1.194697920640222 1 12724.0 1.194697920640222 1
gene  1 189 67 -0.16500950960493405 1 12728.0 -0.16500950960493405 1
gene  1 5 68 4.977398153155308 0 12734.0 4.977398153155308 1
gene  1 16 68 -13.293329745902538 0 12745.0 -13.293329745902538 1
gene  1 40 68 1.2072500631318404 0 12769.0 1.2072500631318404 1
gene  1 41 68 3.1451530732334767 0 12770.0 3.1451530732334767 1
gene  1 42 68 1.1194764394194814 0 12771.0 1.1194764394194814 1
gene  1 71 68 5.221902985079042 1 12800.0 5.221902985079042 1
gene  1 185 68 -4.259034624732626 1 12914.0 -4.259034624732626 1
gene  1 6 69 12.417069876539127 0 12925.0 12.417069876539127 1
gene  1 16 69 -2.1066053441747714 0 12935.0 -2.1066053441747714 1
gene  1 19 69 -2.2131196003631155 0 12938.0 -2.2131196003631155 1
gene  1 44 69 -2.120769483113791 0 12963.0 -2.120769483113791 1
gene  1 45 69 1.9856100641177785 0 12964.0 1.9856100641177785 1
gene  1 65 69 0.4505615696189993 0 12984.0 0.4505615696189993 1
gene  1 171 69 -0.6861963095085716 1 13090.0 -0.6861963095085716 1
gene  1 3 70 -0.3965910915238633 0 13112.0 -0.3965910915238633 1
gene  1 39 70 7.609184656672882 0 13148.0 7.609184656672882 1
gene  1 60 70 1.096088058676873 0 13169.0 1.096088058676873 1
gene  1 171 70 10.27775101024062 1 13280.0 10.27775101024062 1
gene  1 181 70 -7.331341277657696 1 13290.0 -7.331341277657696 1
gene  1 183 70 -0.6985835949328203 1 13292.0 -0.6985835949328203 1
gene  1 11 71 -4.473201909688237 0 13310.0 -4.473201909688237 1
gene  1 15 71 1.7459709583060032 0 13314.0 1.7459709583060032 1
gene  1 30 71 -2.425343220221884 0 13329.0 -2.425343220221884 1
gene  1 33 71 2.538782638151372 0 13332.0 2.538782638151372 1
gene  1 34 71 -4.8431050384006955 0 13333.0 -4.8431050384006955 1
gene  1 48 71 -9.722665591555145 0 13347.0 -9.722665591555145 1
gene  1 50 71 2.5493263139841926 0 13349.0 2.5493263139841926 1
gene  1 51 71 -9.501275189625352 0 13350.0 -9.501275189625352 1
gene  1 57 71 -1.4432211613200492 0 13356.0 -1.4432211613200492 1
gene  1 73 71 2.570003525022969 1 13372.0 2.570003525022969 1
gene  1 185 71 5.2830529116836 1 13484.0 5.2830529116836 1
gene  1 24 72 5.370315086999476 0 13513.0 5.370315086999476 1
gene  1 51 72 9.717163229339354 0 13540.0 9.717163229339354 1
gene  1 54 72 6.62496936010033 0 13543.0 6.62496936010033 1
gene  1 60 72 2.90196750215318 0 13549.0 2.90196750215318 1
gene  1 3 73 2.443640541588662 0 13682.0 2.443640541588662 1
gene  1 18 73 -4.753091580773658 0 13697.0 -4.753091580773658 1
gene  1 30 73 4.311161909098984 0 13709.0 4.311161909098984 1
gene  1 41 73 2.0513353192186976 0 13720.0 2.0513353192186976 1
gene  1 54 73 -2.742126832170797 0 13733.0 -2.742126832170797 1
gene  1 59 73 -4.325548540067375 0 13738.0 -4.325548540067375 1
gene  1 60 73 -8.09573848783879 0 13739.0 -8.09573848783879 1
gene  1 179 73 -11.691536740742057 1 13858.0 -11.691536740742057 1
gene  1 189 73 2.2438060779648445 1 13868.0 2.2438060779648445 1
gene  1 31 74 -2.9410251773132967 0 13900.0 -2.9410251773132967 1
gene  1 38 74 -10.34904372560024 0 13907.0 -10.34904372560024 1
gene  1 67 74 2.04199312698519 0 13936.0 2.04199312698519 1
gene  1 74 74 -3.7333549482292363 1 13943.0 -3.7333549482292363 1
gene  1 188 74 -3.395071862644305 1 14057.0 -3.395071862644305 1
gene  1 2 75 1.6859598114691017 0 14061.0 1.6859598114691017 1
gene  1 10 75 8.856689245954364 0 14069.0 8.856689245954364 1
gene  1 12 75 -5.462038129302243 0 14071.0 -5.462038129302243 1
gene  1 15 75 -2.8301564584061776 0 14074.0 -2.8301564584061776 1
gene  1 18 75 -3.759956000816028 0 14077.0 -3.759956000816028 1
gene  1 43 75 0.6760501165657318 0 14102.0 0.6760501165657318 1
gene  1 46 75 -2.124613982847145 0 14105.0 -2.124613982847145 1
gene  1 56 75 -0.11899650992840438 0 14115.0 -0.11899650992840438 1
gene  1 57 75 -4.384515542591213 0 14116.0 -4.384515542591213 1
gene  1 177 75 3.826918193107084 1 14236.0 3.826918193107084 1
gene  1 183 75 -6.282742183909646 1 14242.0 -6.282742183909646 1
gene  1 3 171 -4.157262044228017 0 32302.0 -4.157262044228017 1
gene  1 10 171 6.542036885720046 0 32309.0 6.542036885720046 1
gene  1 18 171 1.2571293235518606 0 32317.0 1.2571293235518606 1
gene  1 35 171 1.7583270801023203 0 32334.0 1.7583270801023203 1
gene  1 47 171 2.9074197872175773 0 32346.0 2.9074197872175773 1
gene  1 48 171 4.306777723570129 0 32347.0 4.306777723570129 1
gene  1 63 171 8.866080467398508 0 32362.0 8.866080467398508 1
gene  1 74 171 -5.5078342827800615 0 32373.0 -5.5078342827800615 1
gene  1 171 171 8.81623173461048 1 32470.0 8.81623173461048 1
gene  1 180 171 -4.374337690234751 1 32479.0 -4.374337690234751 1
gene  1 181 171 3.5641659257411167 1 32480.0 3.5641659257411167 1
gene  1 16 172 -7.551655849133217 0 32505.0 -7.551655849133217 1
gene  1 38 172 -0.8459269156687783 0 32527.0 -0.8459269156687783 1
gene  1 58 172 5.03489268956088 0 32547.0 5.03489268956088 1
gene  1 59 172 -4.92182418795319 0 32548.0 -4.92182418795319 1
gene  1 60 172 -2.190202373905474 0 32549.0 -2.190202373905474 1
gene  1 73 172 -1.6960858943818726 0 32562.0 -1.6960858943818726 1
gene  1 171 172 -0.3503328232817156 0 32660.0 -0.3503328232817156 1
gene  1 173 172 4.64051209683049 1 32662.0 4.64051209683049 1
gene  1 7 173 -2.5986561413818206 0 32686.0 -2.5986561413818206 1
gene  1 29 173 4.1616223942436825 0 32708.0 4.1616223942436825 1
gene  1 30 173 0.8266526367099751 0 32709.0 0.8266526367099751 1
gene  1 38 173 -7.980573739008854 0 32717.0 -7.980573739008854 1
gene  1 56 173 5.2377634339161006 0 32735.0 5.2377634339161006 1
gene  1 68 173 3.44742078176846 0 32747.0 3.44742078176846 1
gene  1 72 173 1.9526765994889386 0 32751.0 1.9526765994889386 1
gene  1 75 173 -3.752079142631155 0 32754.0 -3.752079142631155 1
gene  1 180 173 -7.364075103938154 1 32859.0 -7.364075103938154 1
gene  1 45 174 2.369847590418764 0 32914.0 2.369847590418764 1
gene  1 174 174 1.1984458312965733 1 33043.0 1.1984458312965733 1
gene  1 180 174 -5.116641186951533 1 33049.0 -5.116641186951533 1
gene  1 186 174 0.7920715379332948 1 33055.0 0.7920715379332948 1
gene  1 2 175 1.7091774119013734 0 33061.0 1.7091774119013734 1
gene  1 11 175 5.829689262891006 0 33070.0 5.829689262891006 1
gene  1 26 175 -1.4015059426984349 0 33085.0 -1.4015059426984349 1
gene  1 37 175 -0.8155559390601224 0 33096.0 -0.8155559390601224 1
gene  1 43 175 -0.7497228275814434 0 33102.0 -0.7497228275814434 1
gene  1 48 175 0.398668071118196 0 33107.0 0.398668071118196 1
gene  1 51 175 -3.2351518819295286 0 33110.0 -3.2351518819295286 1
gene  1 64 175 2.6967290671462036 0 33123.0 2.6967290671462036 1
gene  1 70 175 -4.8215492317344495 0 33129.0 -4.8215492317344495 1
gene  1 71 175 -2.1335974488884855 0 33130.0 -2.1335974488884855 1
gene  1 177 175 3.0527318421463523 1 33236.0 3.0527318421463523 1
gene  1 178 175 -2.1646250883389744 1 33237.0 -2.1646250883389744 1
gene  1 181 175 -6.108618480934577 1 33240.0 -6.108618480934577 1
gene  1 184 175 6.199231814181117 1 33243.0 6.199231814181117 1
gene  1 186 175 1.7651762610609971 1 33245.0 1.7651762610609971 1
gene  1 2 176 0.01885866258901725 0 33251.0 0.01885866258901725 1
gene  1 8 176 2.4643145714986967 0 33257.0 2.4643145714986967 1
gene  1 9 176 -1.9747795589179142 0 33258.0 -1.9747795589179142 1
gene  1 12 176 -1.9433018419346144 0 33261.0 -1.9433018419346144 1
gene  1 15 176 2.871783062365371 0 33264.0 2.871783062365371 1
gene  1 16 176 -6.789437854690576 0 33265.0 -6.789437854690576 1
gene  1 35 176 -2.475090256230622 0 33284.0 -2.475090256230622 1
gene  1 37 176 1.6276189851342153 0 33286.0 1.6276189851342153 1
gene  1 46 176 1.627670602694919 0 33295.0 1.627670602694919 1
gene  1 62 176 1.5266493823391125 0 33311.0 1.5266493823391125 1
gene  1 64 176 1.253931305124135 0 33313.0 1.253931305124135 1
gene  1 171 176 -0.8196077529429334 0 33420.0 -0.8196077529429334 1
gene  1 174 176 5.557428870793036 0 33423.0 5.557428870793036 1
gene  1 179 176 4.032271674599856 1 33428.0 4.032271674599856 1
gene  1 1 177 -0.20916725636415534 0 33440.0 -0.20916725636415534 1
gene  1 7 177 -0.6308426668724562 0 33446.0 -0.6308426668724562 1
gene  1 8 177 2.5507056754634023 0 33447.0 2.5507056754634023 1
gene  1 9 177 -11.516879776978666 0 33448.0 -11.516879776978666 1
gene  1 14 177 11.073582972402694 0 33453.0 11.073582972402694 1
gene  1 16 177 -4.4387954227812205 0 33455.0 -4.4387954227812205 1
gene  1 20 177 0.8971464844389745 0 33459.0 0.8971464844389745 1
gene  1 30 177 -2.3520684036309696 0 33469.0 -2.3520684036309696 1
gene  1 31 177 1.8903264869536875 0 33470.0 1.8903264869536875 1
gene  1 32 177 6.768552941445147 0 33471.0 6.768552941445147 1
gene  1 43 177 5.529459372880055 0 33482.0 5.529459372880055 1
gene  1 44 177 -0.188476973570181 0 33483.0 -0.188476973570181 1
gene  1 53 177 1.9251106528944935 0 33492.0 1.9251106528944935 1
gene  1 59 177 1.9396808541199015 0 33498.0 1.9396808541199015 1
gene  1 69 177 -1.117660953320236 0 33508.0 -1.117660953320236 1
gene  1 174 177 0.5681264727613371 0 33613.0 0.5681264727613371 1
gene  1 175 177 -8.321648030762468 0 33614.0 -8.321648030762468 1
gene  1 184 177 -4.971495753177851 1 33623.0 -4.971495753177851 0
gene  1 187 177 0.5732527095001467 1 33626.0 0.5732527095001467 1
gene  1 1 178 -1.9176217969753888 0 33630.0 -1.9176217969753888 1
gene  1 20 178 -1.7600469076338567 0 33649.0 -1.7600469076338567 1
gene  1 26 178 8.079360656848792 0 33655.0 8.079360656848792 1
gene  1 35 178 4.740059185131318 0 33664.0 4.740059185131318 1
gene  1 42 178 -15.936803932101615 0 33671.0 -15.936803932101615 1
gene  1 53 178 -2.2476693742287734 0 33682.0 -2.2476693742287734 1
gene  1 59 178 2.7475671793094287 0 33688.0 2.7475671793094287 1
gene  1 72 178 3.3955199659131416 0 33701.0 3.3955199659131416 1
gene  1 172 178 1.2920618313546286 0 33801.0 1.2920618313546286 1
gene  1 190 178 11.687811697218791 1 33819.0 11.687811697218791 1
gene  1 6 179 -12.916483132876445 0 33825.0 -12.916483132876445 1
gene  1 8 179 6.273665974043529 0 33827.0 6.273665974043529 1
gene  1 13 179 -7.183239200552357 0 33832.0 -7.183239200552357 1
gene  1 36 179 -1.577473906477437 0 33855.0 -1.577473906477437 1
gene  1 46 179 -1.87817851982792 0 33865.0 -1.87817851982792 1
gene  1 60 179 5.584974104352369 0 33879.0 5.584974104352369 1
gene  1 61 179 -6.09671594732321 0 33880.0 -6.09671594732321 1
gene  1 72 179 -3.895438750126024 0 33891.0 -3.895438750126024 1
gene  1 74 179 -0.004416108237967065 0 33893.0 -0.004416108237967065 1
gene  1 171 179 6.208834199325333 0 33990.0 6.208834199325333 1
gene  1 185 179 1.9725458502895854 1 34004.0 1.9725458502895854 1
gene  1 1 180 1.0262462487314825 0 34010.0 1.0262462487314825 1
gene  1 4 180 -4.108120507358802 0 34013.0 -4.108120507358802 1
gene  1 8 180 4.435246296585578 0 34017.0 4.435246296585578 1
gene  1 11 180 6.379260961443617 0 34020.0 6.379260961443617 1
gene  1 21 180 -0.7777859413287771 0 34030.0 -0.7777859413287771 1
gene  1 32 180 4.925449434879373 0 34041.0 4.925449434879373 1
gene  1 35 180 11.366212334508717 0 34044.0 11.366212334508717 1
gene  1 46 180 14.316251802768239 0 34055.0 14.316251802768239 1
gene  1 68 180 -4.169019543166118 0 34077.0 -4.169019543166118 1
gene  1 188 180 -3.1918840676115656 1 34197.0 -3.1918840676115656 1
gene  1 2 181 0.9569030946975192 0 34201.0 0.9569030946975192 1
gene  1 16 181 -1.6463147636332915 0 34215.0 -1.6463147636332915 1
gene  1 24 181 -6.88187824990702 0 34223.0 -6.88187824990702 1
gene  1 36 181 -1.6669048363970287 0 34235.0 -1.6669048363970287 1
gene  1 60 181 -5.547878490296321 0 34259.0 -5.547878490296321 1
gene  1 69 181 -7.044907674384033 0 34268.0 -7.044907674384033 1
gene  1 190 181 0.22188372792001487 1 34389.0 0.22188372792001487 1
gene  1 1 182 -2.7087802574097752 0 34390.0 -2.7087802574097752 1
gene  1 17 182 2.515885637442487 0 34406.0 2.515885637442487 1
gene  1 35 182 2.1278424474337045 0 34424.0 2.1278424474337045 1
gene  1 44 182 0.2562049380796423 0 34433.0 0.2562049380796423 1
gene  1 49 182 9.119541279803315 0 34438.0 9.119541279803315 1
gene  1 50 182 -4.697601007544567 0 34439.0 -4.697601007544567 1
gene  1 54 182 -5.740909173957199 0 34443.0 -5.740909173957199 1
gene  1 59 182 5.849940527882018 0 34448.0 5.849940527882018 1
gene  1 73 182 -0.624904108709889 0 34462.0 -0.624904108709889 1
gene  1 174 182 0.07173288237293018 0 34563.0 0.07173288237293018 1
gene  1 187 182 2.3572951989621957 1 34576.0 2.3572951989621957 1
gene  1 6 183 -5.701005938279206 0 34585.0 -5.701005938279206 1
gene  1 7 183 -1.2734647200997196 0 34586.0 -1.2734647200997196 1
gene  1 17 183 1.5510965744007086 0 34596.0 1.5510965744007086 1
gene  1 20 183 6.394952232352086 0 34599.0 6.394952232352086 1
gene  1 25 183 0.3517892808755032 0 34604.0 0.3517892808755032 1
gene  1 30 183 -6.570952165302655 0 34609.0 -6.570952165302655 1
gene  1 39 183 -3.8356513664368426 0 34618.0 -3.8356513664368426 1
gene  1 44 183 8.58388233109076 0 34623.0 8.58388233109076 1
gene  1 66 183 -5.082752946109799 0 34645.0 -5.082752946109799 1
gene  1 171 183 1.0209267422340809 0 34750.0 1.0209267422340809 1
gene  1 174 183 -4.077594411896571 0 34753.0 -4.077594411896571 1
gene  1 21 184 4.971783630051041 0 34790.0 4.971783630051041 1
gene  1 29 184 -6.931348055149124 0 34798.0 -6.931348055149124 1
gene  1 32 184 0.9425934175796988 0 34801.0 0.9425934175796988 1
gene  1 36 184 -6.253462429943209 0 34805.0 -6.253462429943209 1
gene  1 45 184 1.5441251742801343 0 34814.0 1.5441251742801343 1
gene  1 46 184 -5.891207282052816 0 34815.0 -5.891207282052816 1
gene  1 63 184 -6.420871743610662 0 34832.0 -6.420871743610662 1
gene  1 66 184 3.4008581746881665 0 34835.0 3.4008581746881665 1
gene  1 177 184 0.007692765395262258 0 34946.0 0.007692765395262258 1
gene  1 31 185 3.3583559992286007 0 34990.0 3.3583559992286007 1
gene  1 50 185 1.7006708294674175 0 35009.0 1.7006708294674175 1
gene  1 56 185 -1.5668016946972867 0 35015.0 -1.5668016946972867 1
gene  1 58 185 -3.9769388971593242 0 35017.0 -3.9769388971593242 1
gene  1 62 185 -7.76712133649062 0 35021.0 -7.76712133649062 1
gene  1 173 185 2.6899593729135227 0 35132.0 2.6899593729135227 1
gene  1 179 185 2.5927859351612597 0 35138.0 2.5927859351612597 1
gene  1 182 185 -20.722543285259338 0 35141.0 -20.722543285259338 1
gene  1 188 185 -5.12717813311407 1 35147.0 -5.12717813311407 1
gene  1 1 186 7.119483840639494 0 35150.0 7.119483840639494 1
gene  1 3 186 5.148618538603137 0 35152.0 5.148618538603137 1
gene  1 4 186 5.275117206482588 0 35153.0 5.275117206482588 1
gene  1 6 186 -3.5002187178321393 0 35155.0 -3.5002187178321393 1
gene  1 7 186 2.3180437636365254 0 35156.0 2.3180437636365254 1
gene  1 17 186 2.893260249092732 0 35166.0 2.893260249092732 1
gene  1 23 186 -3.824718613802341 0 35172.0 -3.824718613802341 1
gene  1 28 186 -6.000581716115093 0 35177.0 -6.000581716115093 1
gene  1 33 186 3.672090590406107 0 35182.0 3.672090590406107 1
gene  1 36 186 6.747096762460851 0 35185.0 6.747096762460851 1
gene  1 58 186 2.058506065872203 0 35207.0 2.058506065872203 1
gene  1 69 186 0.16825308039719394 0 35218.0 0.16825308039719394 1
gene  1 70 186 1.846794097163179 0 35219.0 1.846794097163179 1
gene  1 72 186 3.0214460555777967 0 35221.0 3.0214460555777967 1
gene  1 10 187 5.029699524560916 0 35349.0 5.029699524560916 1
gene  1 25 187 0.4219271146093191 0 35364.0 0.4219271146093191 1
gene  1 31 187 2.364531616821348 0 35370.0 2.364531616821348 1
gene  1 33 187 -1.7347701684275412 0 35372.0 -1.7347701684275412 1
gene  1 47 187 -4.236472652582667 0 35386.0 -4.236472652582667 1
gene  1 57 187 -4.781322405404653 0 35396.0 -4.781322405404653 1
gene  1 183 187 -5.679169916605167 0 35522.0 -5.679169916605167 1
gene  1 184 187 -0.07408652572328212 0 35523.0 -0.07408652572328212 1
gene  1 5 188 2.9172135293112182 0 35534.0 2.9172135293112182 1
gene  1 6 188 8.066668448098005 0 35535.0 8.066668448098005 1
gene  1 12 188 -2.8801023181371233 0 35541.0 -2.8801023181371233 1
gene  1 28 188 -5.941819489719409 0 35557.0 -5.941819489719409 1
gene  1 32 188 -9.23465577025533 0 35561.0 -9.23465577025533 1
gene  1 35 188 4.675908286729601 0 35564.0 4.675908286729601 1
gene  1 57 188 1.3732064481250237 0 35586.0 1.3732064481250237 1
gene  1 172 188 0.06534361165261426 0 35701.0 0.06534361165261426 1
gene  1 14 189 4.5267942989335275 0 35733.0 4.5267942989335275 1
gene  1 17 189 6.281808273569794 0 35736.0 6.281808273569794 1
gene  1 27 189 -2.3389313891259174 0 35746.0 -2.3389313891259174 1
gene  1 37 189 10.411467659376852 0 35756.0 10.411467659376852 1
gene  1 43 189 -3.3385741271482137 0 35762.0 -3.3385741271482137 1
gene  1 51 189 -0.6994118800699192 0 35770.0 -0.6994118800699192 1
gene  1 56 189 0.5805894998159618 0 35775.0 0.5805894998159618 1
gene  1 59 189 -5.233981110370353 0 35778.0 -5.233981110370353 0
gene  1 65 189 -5.176257364098098 0 35784.0 -5.176257364098098 1
gene  1 73 189 -8.486872404864501 0 35792.0 -8.486872404864501 1
gene  1 74 189 8.805880842608431 0 35793.0 8.805880842608431 1
gene  1 178 189 3.9264381701783697 0 35897.0 3.9264381701783697 1
gene  1 1 190 2.099764294155703 0 35910.0 2.099764294155703 1
gene  1 4 190 -4.751049677071502 0 35913.0 -4.751049677071502 1
gene  1 15 190 -0.26922436753692747 0 35924.0 -0.26922436753692747 1
gene  1 22 190 -1.1904930813488994 0 35931.0 -1.1904930813488994 1
gene  1 33 190 -4.43344638854736 0 35942.0 -4.43344638854736 1
gene  1 58 190 1.251749547765956 0 35967.0 1.251749547765956 1
gene  1 60 190 -0.9797306361465976 0 35969.0 -0.9797306361465976 1
gene  1 67 190 -6.45115872777891 0 35976.0 -6.45115872777891 1
gene  1 179 190 -3.567500731134226 0 36088.0 -3.567500731134226 1
gene  1 181 190 6.637620647588658 0 36090.0 6.637620647588658 1
gene  1 182 190 0.7182297848600334 0 36091.0 0.7182297848600334 1
gene  1 184 190 -1.8229234259759548 0 36093.0 -1.8229234259759548 1
gene  1 186 190 -3.2058576910528407 0 36095.0 -3.2058576910528407 1
gene  1 187 190 2.304778385668196 0 36096.0 2.304778385668196 1
gene  1 65 188 -1.990560586067097 0 36109.0 -1.990560586067097 1
gene  1 1 193 -4.132217305215233 0 36113.0 -4.132217305215233 1
gene  1 193 190 2.007189237483866 0 36114.0 2.007189237483866 1
gene  1 29 68 4.1511547209295685 0 36116.0 4.1511547209295685 1
gene  1 181 195 -0.32426990250099863 1 36120.0 -0.32426990250099863 1
gene  1 195 63 -3.4387212567153997 0 36121.0 -3.4387212567153997 1
gene  1 7 171 -5.160108552195878 0 36125.0 -5.160108552195878 1
gene  1 22 72 4.835674279368966 0 36150.0 4.835674279368966 1
gene  1 47 212 -3.6879106543429954 0 36196.0 -3.6879106543429954 1
gene  1 212 55 2.593652116894548 0 36197.0 2.593652116894548 1
gene  1 55 58 4.383958547732178 0 36200.0 4.383958547732178 1
gene  1 33 217 2.410473078175423 0 36231.0 2.410473078175423 1
gene  1 217 187 9.98626433817899 0 36232.0 9.98626433817899 1
gene  1 69 56 9.762562353067779 0 36255.0 9.762562353067779 1
gene  1 51 173 -1.5827048299625959 0 36261.0 -1.5827048299625959 1
gene  1 35 230 -4.82376524418477 0 36282.0 -4.82376524418477 1
gene  1 230 57 1.676312213305043 0 36283.0 1.676312213305043 1
gene  1 43 244 -3.8514318299426726 0 36330.0 -3.8514318299426726 1
gene  1 244 189 -1.1553130873971642 0 36331.0 -1.1553130873971642 1
gene  1 13 172 3.8939881882938483 0 36334.0 3.8939881882938483 1
gene  1 52 230 -3.842688332377806 0 36357.0 -3.842688332377806 1
gene  1 68 188 -4.296719789135018 0 36380.0 -4.296719789135018 1
gene  1 12 54 -2.381430448265215 0 36383.0 -2.381430448265215 1
gene  1 181 74 3.721579007540352 0 36429.0 3.721579007540352 1
gene  1 61 177 2.025417283376637 0 36460.0 2.025417283376637 1
gene  1 20 184 -5.996500658571575 0 36496.0 -5.996500658571575 1
gene  1 190 176 -1.4827895853895108 0 36516.0 -1.4827895853895108 1
gene  1 22 291 0.82035650985836 0 36524.0 0.82035650985836 1
gene  1 291 190 -7.705337083203682 0 36525.0 -7.705337083203682 1
gene  1 75 174 -4.552496730887084 0 36555.0 -4.552496730887084 1
gene  1 35 297 3.5491825769772722 0 36562.0 3.5491825769772722 1
gene  1 297 171 -4.711633889233763 0 36563.0 -4.711633889233763 1
gene  1 33 184 2.7327779957531906 0 36565.0 2.7327779957531906 1
gene  1 35 186 -11.237829756038206 0 36569.0 -11.237829756038206 1
gene  1 51 300 -5.31827860667648 0 36574.0 -5.31827860667648 1
gene  1 300 71 18.437062648107894 0 36575.0 18.437062648107894 1
gene  1 49 172 2.0610360488615944 0 36658.0 2.0610360488615944 1
gene  1 75 177 -0.17325283277852477 0 36665.0 -0.17325283277852477 1
gene  1 53 321 -2.8578214068366243 0 36673.0 -2.8578214068366243 1
gene  1 321 62 -0.7313387851456647 0 36674.0 -0.7313387851456647 1
gene  1 47 62 -2.8239723454589463 0 36689.0 -2.8239723454589463 1
gene  1 41 67 2.9314334540619162 0 36692.0 2.9314334540619162 1
gene  1 182 325 -3.142725297566145 1 36701.0 -3.142725297566145 1
gene  1 325 67 1.9468475260267522 0 36702.0 1.9468475260267522 1
gene  1 195 178 -3.231474435478212 0 36719.0 -3.231474435478212 1
gene  1 64 56 4.53801735923876 0 36723.0 4.53801735923876 1
gene  1 37 334 -0.8499587842996894 0 36742.0 -0.8499587842996894 1
gene  1 334 175 0.5037300359434875 0 36743.0 0.5037300359434875 1
gene  1 56 341 3.083944013062355 0 36772.0 3.083944013062355 1
gene  1 341 173 10.083671720174339 0 36773.0 10.083671720174339 1
gene  1 26 297 -4.0653877227244015 0 36788.0 -4.0653877227244015 1
gene  1 24 70 0.49637230836254737 0 36824.0 0.49637230836254737 1
gene  1 174 178 0.9082475734799247 0 36853.0 0.9082475734799247 1
gene  1 15 174 -0.541903440922392 0 36944.0 -0.541903440922392 1
gene  1 188 178 -3.0587233292674902 0 36962.0 -3.0587233292674902 1
gene  1 15 72 3.138692566668972 0 36977.0 3.138692566668972 1
gene  1 66 54 0.02445435812696184 0 37021.0 0.02445435812696184 1
gene  1 212 177 1.4532720817748632 0 37108.0 1.4532720817748632 1
gene  1 10 244 1.5769632692165765 0 37115.0 1.5769632692165765 1
gene  1 27 291 -1.290903921560102 0 37132.0 -1.290903921560102 1
gene  1 4 68 1.2515933022312253 0 37136.0 1.2515933022312253 1
gene  1 5 416 -3.098096422428781 0 37142.0 -3.098096422428781 1
gene  1 416 188 0.30166827924171435 0 37143.0 0.30166827924171435 1
gene  1 17 217 -1.5009830151941275 0 37209.0 -1.5009830151941275 1
gene  1 5 187 5.523475251743796 0 37211.0 5.523475251743796 1
gene  1 43 433 -1.259122295810841 0 37218.0 -1.259122295810841 1
gene  1 433 66 -1.1228201921370946 0 37219.0 -1.1228201921370946 1
gene  1 75 436 2.054359441984252 1 37227.0 2.054359441984252 1
gene  1 436 59 1.6030111209213704 0 37228.0 1.6030111209213704 1
gene  1 244 60 -5.48264210740164 0 37235.0 -5.48264210740164 1
gene  1 416 73 -1.8898552005828462 0 37246.0 -1.8898552005828462 1
gene  1 60 447 0.03811588803466853 0 37271.0 0.03811588803466853 1
gene  1 447 73 0.2575338587629908 0 37272.0 0.2575338587629908 1
gene  1 42 69 2.4150705898104863 0 37308.0 2.4150705898104863 1
gene  1 15 464 3.83255802247975 0 37342.0 3.83255802247975 1
gene  1 464 176 3.185333006348822 0 37343.0 3.185333006348822 1
gene  1 51 187 -3.0970509862935565 0 37380.0 -3.0970509862935565 1
gene  1 26 185 0.8668477294674801 0 37427.0 0.8668477294674801 1
gene  1 51 185 1.33460382783476 0 37512.0 1.33460382783476 1
gene  1 20 180 1.0261828344826793 0 37552.0 1.0261828344826793 1
gene  1 23 511 1.104228550486693 0 37568.0 1.104228550486693 1
gene  1 511 186 -3.4201283012661765 0 37569.0 -3.4201283012661765 1
gene  1 66 63 2.9502193827771594 0 37632.0 2.9502193827771594 1
gene  1 186 71 2.1874461185489613 0 37664.0 2.1874461185489613 1
gene  1 28 416 5.200769993688304 0 37673.0 5.200769993688304 1
gene  1 175 537 -2.0342160404486247 1 37692.0 -2.0342160404486247 1
gene  1 537 62 5.742262403977231 0 37693.0 5.742262403977231 1
gene  1 43 180 2.2406653623530444 0 37705.0 2.2406653623530444 1
gene  1 4 63 -2.058313067957841 0 37794.0 -2.058313067957841 1
gene  1 41 188 2.0894160615034885 0 37797.0 2.0894160615034885 1
gene  1 70 566 -4.938607243896306 0 37810.0 -4.938607243896306 1
gene  1 566 175 0.1397566975460443 0 37811.0 0.1397566975460443 1
gene  1 51 180 -1.1543686590555768 0 37819.0 -1.1543686590555768 1
gene  1 185 217 2.56304875628833 0 37826.0 2.56304875628833 1
gene  1 2 183 1.2191695172925574 0 37861.0 1.2191695172925574 1
gene  1 44 588 -1.0884890939933125 0 37889.0 -1.0884890939933125 1
gene  1 588 183 -0.47440482663415495 0 37890.0 -0.47440482663415495 1
gene  1 341 433 1.1640280859522776 0 37895.0 1.1640280859522776 1
gene  1 60 182 0.9234637630936512 0 37962.0 0.9234637630936512 1
gene  1 43 56 1.4337854175393545 0 38052.0 1.4337854175393545 1
gene  1 174 628 0.2788731437006641 1 38060.0 0.2788731437006641 1
gene  1 628 174 3.3392700824083 0 38061.0 3.3392700824083 1
gene  1 52 57 3.033148319341345 0 38081.0 3.033148319341345 1
gene  1 64 635 -2.2647306092351203 0 38091.0 -2.2647306092351203 1
gene  1 635 176 -0.08630964324169627 0 38092.0 -0.08630964324169627 1
gene  1 341 638 -3.4464213055371737 0 38100.0 -3.4464213055371737 1
gene  1 638 173 -2.4930948676071925 0 38101.0 -2.4930948676071925 1
gene  1 180 644 -0.3873060034005884 1 38135.0 -0.3873060034005884 1
gene  1 644 173 -0.8732368970560498 0 38136.0 -0.8732368970560498 1
gene  1 62 188 -5.5907711059371605 0 38145.0 -5.5907711059371605 1
gene  1 188 657 -2.3618651226808636 1 38192.0 -2.3618651226808636 1
gene  1 657 185 -0.03127815523417232 0 38193.0 -0.03127815523417232 1
gene  1 50 566 0.17103976866573345 0 38195.0 0.17103976866573345 1
gene  1 45 667 -0.6009180778462777 0 38237.0 -0.6009180778462777 1
gene  1 667 69 1.9355234222995954 0 38238.0 1.9355234222995954 1
gene  1 433 244 0.6104854099265283 0 38266.0 0.6104854099265283 1
gene  1 3 683 -2.0663743879907166 0 38320.0 -2.0663743879907166 1
gene  1 683 186 -3.496069636886328 0 38321.0 -3.496069636886328 1
gene  1 20 684 -1.9408363835860483 0 38328.0 -1.9408363835860483 1
gene  1 684 183 -0.475406876379387 0 38329.0 -0.475406876379387 1
gene  1 193 66 -1.5560972054919215 0 38335.0 -1.5560972054919215 1
gene  1 61 690 4.379390890159272 1 38351.0 4.379390890159272 1
gene  1 690 60 0.7225006561218132 0 38352.0 0.7225006561218132 1
gene  1 65 67 -0.26563069535290573 0 38401.0 -0.26563069535290573 1
gene  1 31 172 -1.2224461180989057 0 38434.0 -1.2224461180989057 1
gene  1 37 709 1.830714550662771 0 38463.0 1.830714550662771 1
gene  1 709 175 0.7552624705043856 0 38464.0 0.7552624705043856 1
gene  1 61 186 0.19598843480442008 0 38470.0 0.19598843480442008 1
gene  1 27 73 -3.9266635481922645 0 38488.0 -3.9266635481922645 1
gene  1 212 56 4.27192167248805 0 38499.0 4.27192167248805 1
gene  1 61 718 -1.0492220719329703 0 38501.0 -1.0492220719329703 1
gene  1 718 67 1.4502920602171392 0 38502.0 1.4502920602171392 1
gene  1 64 728 -1.5038798435688685 0 38550.0 -1.5038798435688685 1
gene  1 728 56 4.547941819646756 0 38551.0 4.547941819646756 1
gene  1 68 684 0.36885321488026523 0 38567.0 0.36885321488026523 1
gene  1 35 733 -0.820277105999919 0 38570.0 -0.820277105999919 1
gene  1 733 230 1.7880905357354362 0 38571.0 1.7880905357354362 1
gene  1 36 436 -0.8122236559435416 0 38577.0 -0.8122236559435416 1
gene  1 30 72 -0.25938485624275004 0 38597.0 -0.25938485624275004 1
gene  1 53 185 0.585565145060958 0 38599.0 0.585565145060958 1
gene  1 22 186 -0.052607391461543085 0 38641.0 -0.052607391461543085 1
gene  1 43 759 0.6478584187102996 0 38697.0 0.6478584187102996 1
gene  1 759 66 -1.806262938011297 0 38698.0 -1.806262938011297 1
gene  1 7 760 -1.1528745855095461 0 38700.0 -1.1528745855095461 1
gene  1 760 177 -3.3729340842944486 0 38701.0 -3.3729340842944486 1
gene  1 174 638 0.8185412209721976 0 38749.0 0.8185412209721976 1
gene  1 73 772 2.2334800091072 1 38759.0 2.2334800091072 1
gene  1 772 54 -5.429245349682867 0 38760.0 -5.429245349682867 1
gene  1 68 69 0.21990331244538158 0 38783.0 0.21990331244538158 1
gene  1 244 683 2.4350261762678937 0 38809.0 2.4350261762678937 1
gene  1 42 176 1.8513785251188086 0 38848.0 1.8513785251188086 1
gene  1 55 801 0.21357158140277588 0 38882.0 0.21357158140277588 1
gene  1 801 58 -0.9694683721205828 0 38883.0 -0.9694683721205828 1
gene  1 60 804 -4.50005734469399 0 38892.0 -4.50005734469399 1
gene  1 804 182 -4.876099472354323 0 38893.0 -4.876099472354323 1
gene  1 772 804 -1.869296020213429 0 38933.0 -1.869296020213429 1
gene  1 804 638 -0.8540901439147266 0 38987.0 -0.8540901439147266 1
gene  1 5 834 -2.0456196070595056 0 39022.0 -2.0456196070595056 1
gene  1 834 68 -1.0387399553958345 0 39023.0 -1.0387399553958345 1
gene  1 18 588 -1.2167267790819376 0 39025.0 -1.2167267790819376 1
gene  1 12 184 4.607578678592075 0 39055.0 4.607578678592075 1
gene  1 3 511 0.42258893312101753 0 39081.0 0.42258893312101753 1
gene  1 45 341 -0.4090073140565012 0 39096.0 -0.4090073140565012 1
gene  1 297 61 0.04335222060668831 0 39114.0 0.04335222060668831 1
gene  1 511 62 -3.366290460397929 0 39130.0 -3.366290460397929 1
gene  1 25 63 -1.1850214118793916 0 39136.0 -1.1850214118793916 1
gene  1 46 657 0.3877838191876801 0 39151.0 0.3877838191876801 1
gene  1 66 217 -2.292102654522568 0 39233.0 -2.292102654522568 1
gene  1 184 876 4.874887376760854 1 39243.0 4.874887376760854 1
gene  1 876 177 -0.06289003578081792 0 39244.0 -0.06289003578081792 1
gene  1 71 416 -6.495138940891877 0 39267.0 -6.495138940891877 1
gene  1 59 883 1.0 0 39277.0 0.0 1
gene  1 883 189 -5.233981110370353 0 39278.0 0.0 1
genomeend 1
/* Organism # 002 Fitness:  691,105 Error:  1000,000                      */
genomestart  2
trait 1 5.376846045458965 1.332319878163207 2.3047487772863144 2.441392960833722 1.4408962979620408 3.12539046396649 1.7417612026840517 3.917647730542947 
node 1 1 1 1
node 2 1 1 1
node 3 1 1 1
node 4 1 1 1
node 5 1 1 1
node 6 1 1 1
node 7 1 1 1
node 8 1 1 1
node 9 1 1 1
node 10 1 1 1
node 11 1 1 1
node 12 1 1 1
node 13 1 1 1
node 14 1 1 1
node 15 1 1 1
node 16 1 1 1
node 17 1 1 1
node 18 1 1 1
node 19 1 1 1
node 20 1 1 1
node 21 1 1 1
node 22 1 1 1
node 23 1 1 1
node 24 1 1 1
node 25 1 1 1
node 26 1 1 1
node 27 1 1 1
node 28 1 1 1
node 29 1 1 1
node 30 1 1 1
node 31 1 1 1
node 32 1 1 1
node 33 1 1 1
node 34 1 1 1
node 35 1 1 1
node 36 1 1 1
node 37 1 1 1
node 38 1 1 1
node 39 1 1 1
node 40 1 1 1
node 41 1 1 1
node 42 1 1 1
node 43 1 1 1
node 44 1 1 1
node 45 1 1 1
node 46 1 1 1
node 47 1 1 1
node 48 1 1 1
node 49 1 1 1
node 50 1 1 3
node 51 1 0 0
node 52 1 0 0
node 53 1 0 0
node 54 1 0 0
node 55 1 0 0
node 56 1 0 0
node 57 1 0 0
node 58 1 0 0
node 59 1 0 0
node 60 1 0 0
node 61 1 0 0
node 62 1 0 0
node 63 1 0 0
node 64 1 0 0
node 65 1 0 0
node 66 1 0 0
node 67 1 0 0
node 68 1 0 0
node 69 1 0 0
node 70 1 0 0
node 71 1 0 0
node 72 1 0 0
node 73 1 0 0
node 74 1 0 0
node 75 1 0 0
node 171 1 0 2
node 172 1 0 2
node 173 1 0 2
node 174 1 0 2
node 175 1 0 2
node 176 1 0 2
node 177 1 0 2
node 178 1 0 2
node 179 1 0 2
node 180 1 0 2
node 181 1 0 2
node 182 1 0 2
node 183 1 0 2
node 184 1 0 2
node 185 1 0 2
node 186 1 0 2
node 187 1 0 2
node 188 1 0 2
node 189 1 0 2
node 190 1 0 2
node 193 1 0 0
node 195 1 0 0
node 212 1 0 0
node 217 1 0 0
node 230 1 0 0
node 244 1 0 0
node 291 1 0 0
node 297 1 0 0
node 300 1 0 0
node 321 1 0 0
node 325 1 0 0
node 334 1 0 0
node 341 1 0 0
node 416 1 0 0
node 433 1 0 0
node 436 1 0 0
node 447 1 0 0
node 464 1 0 0
node 511 1 0 0
node 537 1 0 0
node 566 1 0 0
node 588 1 0 0
node 628 1 0 0
node 635 1 0 0
node 638 1 0 0
node 644 1 0 0
node 657 1 0 0
node 667 1 0 0
node 683 1 0 0
node 684 1 0 0
node 690 1 0 0
node 709 1 0 0
node 718 1 0 0
node 728 1 0 0
node 733 1 0 0
node 759 1 0 0
node 760 1 0 0
node 772 1 0 0
node 801 1 0 0
node 804 1 0 0
node 834 1 0 0
node 876 1 0 0
gene  1 28 51 -1.2837179113325128 0 9527.0 -1.2837179113325128 1
gene  1 33 51 -10.53856421806314 0 9532.0 -10.53856421806314 1
gene  1 36 51 -6.128114557208343 0 9535.0 -6.128114557208343 1
gene  1 40 51 -2.295927207689442 0 9539.0 -2.295927207689442 1
gene  1 42 51 5.33098049096856 0 9541.0 5.33098049096856 1
gene  1 54 51 -0.6566899395746579 1 9553.0 -0.6566899395746579 1
gene  1 57 51 7.320714111875397 1 9556.0 7.320714111875397 1
gene  1 68 51 -0.20472465455615785 1 9567.0 -0.20472465455615785 1
gene  1 174 51 0.9039373193165885 1 9673.0 0.9039373193165885 1
gene  1 183 51 -1.0275030251350334 1 9682.0 -1.0275030251350334 1
gene  1 184 51 4.28759145662942 1 9683.0 4.28759145662942 1
gene  1 189 51 -0.1364262371797864 1 9688.0 -0.1364262371797864 1
gene  1 3 52 3.5402550151657857 0 9692.0 3.5402550151657857 1
gene  1 6 52 0.5956435299556053 0 9695.0 0.5956435299556053 1
gene  1 24 52 4.840605538761276 0 9713.0 4.840605538761276 1
gene  1 29 52 2.1163152727968555 0 9718.0 2.1163152727968555 1
gene  1 31 52 2.6969405126226658 0 9720.0 2.6969405126226658 1
gene  1 35 52 1.2074509513554532 0 9724.0 1.2074509513554532 1
gene  1 63 52 3.703073886667412 1 9752.0 3.703073886667412 1
gene  1 179 52 -3.168062317315273 1 9868.0 -3.168062317315273 1
gene  1 183 52 -1.4466179953916458 1 9872.0 -1.4466179953916458 1
gene  1 184 52 -1.5647950460465796 1 9873.0 -1.5647950460465796 1
gene  1 185 52 -0.19617203345131373 1 9874.0 -0.19617203345131373 1
gene  1 5 53 -6.4728847670933325 0 9884.0 -6.4728847670933325 1
gene  1 6 53 11.641101834172064 0 9885.0 11.641101834172064 1
gene  1 10 53 0.17389547409353856 0 9889.0 0.17389547409353856 1
gene  1 33 53 -0.5447942162177912 0 9912.0 -0.5447942162177912 1
gene  1 35 53 0.05043320330589807 0 9914.0 0.05043320330589807 1
gene  1 38 53 5.414846882463722 0 9917.0 5.414846882463722 1
gene  1 45 53 1.5044266942298141 0 9924.0 1.5044266942298141 1
gene  1 71 53 3.428303339573887 1 9950.0 3.428303339573887 1
gene  1 16 54 -1.4541354662072834 0 10085.0 -1.4541354662072834 1
gene  1 19 54 -0.7944134101655154 0 10088.0 -0.7944134101655154 1
gene  1 36 54 1.7256455690846937 0 10105.0 1.7256455690846937 1
gene  1 42 54 0.472302697571537 0 10111.0 0.472302697571537 1
gene  1 58 54 7.223570124765556 1 10127.0 7.223570124765556 1
gene  1 62 54 2.762644883913334 1 10131.0 2.762644883913334 1
gene  1 73 54 8.276612967106873 1 10142.0 8.276612967106873 1
gene  1 177 54 -1.5862680359204828 1 10246.0 -1.5862680359204828 1
gene  1 180 54 -8.777812411466456 1 10249.0 -8.777812411466456 1
gene  1 190 54 0.477908730431698 1 10259.0 0.477908730431698 1
gene  1 20 55 -2.633131229107589 0 10279.0 -2.633131229107589 1
gene  1 31 55 -0.532129360951483 0 10290.0 -0.532129360951483 1
gene  1 35 55 2.8234770350102787 0 10294.0 2.8234770350102787 1
gene  1 41 55 3.0301222421365157 0 10300.0 3.0301222421365157 1
gene  1 47 55 -4.096122160797606 0 10306.0 -4.096122160797606 1
gene  1 52 55 -0.4797742951838777 0 10311.0 -0.4797742951838777 1
gene  1 69 55 1.0146573896747584 1 10328.0 1.0146573896747584 1
gene  1 75 55 1.6384150780940754 1 10334.0 1.6384150780940754 1
gene  1 187 55 -4.932353238200628 1 10446.0 -4.932353238200628 1
gene  1 7 56 -1.6348840576679893 0 10456.0 -1.6348840576679893 1
gene  1 11 56 5.682459637144462 0 10460.0 5.682459637144462 1
gene  1 13 56 -0.3931249417355218 0 10462.0 -0.3931249417355218 1
gene  1 36 56 -1.5899737465255894 0 10485.0 -1.5899737465255894 1
gene  1 41 56 -0.721963411937363 0 10490.0 -0.721963411937363 1
gene  1 44 56 6.666253015755084 0 10493.0 6.666253015755084 1
gene  1 46 56 -2.0017275052185526 0 10495.0 -2.0017275052185526 1
gene  1 49 56 4.533643839951573 0 10498.0 4.533643839951573 1
gene  1 68 56 2.89483826444568 1 10517.0 2.89483826444568 1
gene  1 179 56 2.34554854591498 1 10628.0 2.34554854591498 1
gene  1 183 56 1.1658102397890977 1 10632.0 1.1658102397890977 1
gene  1 3 57 -6.403010426419652 0 10642.0 -6.403010426419652 1
gene  1 19 57 6.36541963694804 0 10658.0 6.36541963694804 1
gene  1 22 57 1.657468892031968 0 10661.0 1.657468892031968 1
gene  1 28 57 0.1374289200614629 0 10667.0 0.1374289200614629 1
gene  1 30 57 -2.1339841477071326 0 10669.0 -2.1339841477071326 1
gene  1 35 57 4.249142208570007 0 10674.0 4.249142208570007 1
gene  1 47 57 0.5189388988055355 0 10686.0 0.5189388988055355 1
gene  1 59 57 -9.378305707315027 1 10698.0 -9.378305707315027 1
gene  1 60 57 0.36748848689411434 1 10699.0 0.36748848689411434 1
gene  1 187 57 -5.765457232778154 1 10826.0 -5.765457232778154 1
gene  1 5 58 -2.5288488005369274 0 10834.0 -2.5288488005369274 1
gene  1 14 58 -7.0758059232674935 0 10843.0 -7.0758059232674935 1
gene  1 15 58 3.7139957705759388 0 10844.0 3.7139957705759388 1
gene  1 24 58 3.277541649374948 0 10853.0 3.277541649374948 1
gene  1 32 58 2.6782966612984977 0 10861.0 2.6782966612984977 1
gene  1 43 58 -1.1924926671164053 0 10872.0 -1.1924926671164053 1
gene  1 49 58 -0.008587022595684779 0 10878.0 -0.008587022595684779 1
gene  1 53 58 -0.5256071964946036 0 10882.0 -0.5256071964946036 1
gene  1 62 58 6.352486971605244 1 10891.0 6.352486971605244 1
gene  1 64 58 2.5689340425157496 1 10893.0 2.5689340425157496 1
gene  1 69 58 -0.9612406926426429 1 10898.0 -0.9612406926426429 1
gene  1 182 58 -4.5171331842593565 1 11011.0 -4.5171331842593565 1
gene  1 1 59 0.29460160076130837 0 11020.0 0.29460160076130837 1
gene  1 4 59 4.265691872132816 0 11023.0 4.265691872132816 1
gene  1 27 59 -1.3608916969504294 0 11046.0 -1.3608916969504294 1
gene  1 34 59 4.9176529579474195 0 11053.0 4.9176529579474195 1
gene  1 37 59 3.2338467007180896 0 11056.0 3.2338467007180896 1
gene  1 44 59 -4.92286250984659 0 11063.0 -4.92286250984659 1
gene  1 59 59 -2.1971900516183918 1 11078.0 -2.1971900516183918 1
gene  1 73 59 4.575923040716839 1 11092.0 4.575923040716839 1
gene  1 75 59 0.39265422364234304 1 11094.0 0.39265422364234304 1
gene  1 183 59 2.529948867516739 1 11202.0 2.529948867516739 1
gene  1 185 59 0.4164578632702233 1 11204.0 0.4164578632702233 1
gene  1 8 60 -1.5375132747192526 0 11217.0 -1.5375132747192526 1
gene  1 10 60 0.9212091501161732 0 11219.0 0.9212091501161732 1
gene  1 40 60 -1.890359536664163 0 11249.0 -1.890359536664163 1
gene  1 45 60 -0.4801464296461422 0 11254.0 -0.4801464296461422 1
gene  1 61 60 2.9340753726049673 1 11270.0 2.9340753726049673 1
gene  1 72 60 -8.098231781525724 1 11281.0 -8.098231781525724 1
gene  1 177 60 -0.011004204681269947 1 11386.0 -0.011004204681269947 1
gene  1 179 60 4.611563189173092 1 11388.0 4.611563189173092 1
gene  1 187 60 -1.1023693695695178 1 11396.0 -1.1023693695695178 1
gene  1 7 61 0.07984266269547424 0 11406.0 0.07984266269547424 1
gene  1 15 61 0.04225103587618506 0 11414.0 0.04225103587618506 1
gene  1 22 61 -1.8029159448080423 0 11421.0 -1.8029159448080423 1
gene  1 28 61 0.9853368801390425 0 11427.0 0.9853368801390425 1
gene  1 36 61 0.6719754112789631 0 11435.0 0.6719754112789631 1
gene  1 53 61 1.6419781835543006 0 11452.0 1.6419781835543006 1
gene  1 54 61 0.7060922905847058 0 11453.0 0.7060922905847058 1
gene  1 67 61 0.43006254729729365 1 11466.0 0.43006254729729365 1
gene  1 177 61 0.6280742271115112 1 11576.0 0.6280742271115112 1
gene  1 184 61 -3.9252528953495314 1 11583.0 -3.9252528953495314 1
gene  1 6 62 -5.1914475380467024 0 11595.0 -5.1914475380467024 1
gene  1 11 62 -8.594197501272117 0 11600.0 -8.594197501272117 1
gene  1 15 62 -1.969321681317182 0 11604.0 -1.969321681317182 1
gene  1 26 62 -2.8295900819967605 0 11615.0 -2.8295900819967605 1
gene  1 53 62 0.44594056881204347 0 11642.0 0.44594056881204347 1
gene  1 68 62 -4.550715013383324 1 11657.0 -4.550715013383324 1
gene  1 72 62 -1.8563639488247636 1 11661.0 -1.8563639488247636 1
gene  1 174 62 -0.40531757632933685 1 11763.0 -0.40531757632933685 1
gene  1 175 62 7.0151875271252155 1 11764.0 7.0151875271252155 1
gene  1 184 62 -2.988027482751167 1 11773.0 -2.988027482751167 1
gene  1 185 62 -11.447432492904328 1 11774.0 -11.447432492904328 1
gene  1 188 62 5.09109884924521 1 11777.0 5.09109884924521 1
gene  1 31 63 -2.8852338396436186 0 11810.0 -2.8852338396436186 1
gene  1 32 63 -1.4176515848367939 0 11811.0 -1.4176515848367939 1
gene  1 37 63 -3.1756386065819893 0 11816.0 -3.1756386065819893 1
gene  1 38 63 6.450272946807187 0 11817.0 6.450272946807187 1
gene  1 42 63 0.9441068054110293 0 11821.0 0.9441068054110293 1
gene  1 46 63 -5.439574949740397 0 11825.0 -5.439574949740397 1
gene  1 48 63 7.15096719328554 0 11827.0 7.15096719328554 1
gene  1 50 63 -3.3567166213307593 0 11829.0 -3.3567166213307593 1
gene  1 60 63 -2.3034205153222596 0 11839.0 -2.3034205153222596 1
gene  1 63 63 -0.9516388583892994 1 11842.0 -0.9516388583892994 1
gene  1 72 63 -0.7967244530696647 1 11851.0 -0.7967244530696647 1
gene  1 74 63 2.751021634977201 1 11853.0 2.751021634977201 1
gene  1 178 63 -4.534651518034627 1 11957.0 -4.534651518034627 1
gene  1 180 63 4.108812875484483 1 11959.0 4.108812875484483 1
gene  1 181 63 -0.6123942801847746 1 11960.0 -0.6123942801847746 1
gene  1 8 64 -0.11364773198499789 0 11977.0 -0.11364773198499789 1
