/* Species # 051         : (size= 014) (AvfFit= 1511,160) (Age= 147,000)  */
/*-------------------------------------------------------------------*/
/* Organism # 000 Fitness:  1463,072 Error:  1000,000                      */
genomestart  0
trait 1 5.376846045458965 1.332319878163207 1.5581829187033471 2.441392960833722 1.4408962979620408 3.5469175681260694 1.0175458497000984 2.9738450621677126 
node 1 1 1 1
node 2 1 1 1
node 3 1 1 1
node 4 1 1 1
node 5 1 1 1
node 6 1 1 1
node 7 1 1 1
node 8 1 1 1
node 9 1 1 1
node 10 1 1 1
node 11 1 1 1
node 12 1 1 1
node 13 1 1 1
node 14 1 1 1
node 15 1 1 1
node 16 1 1 1
node 17 1 1 1
node 18 1 1 1
node 19 1 1 1
node 20 1 1 1
node 21 1 1 1
node 22 1 1 1
node 23 1 1 1
node 24 1 1 1
node 25 1 1 1
node 26 1 1 1
node 27 1 1 1
node 28 1 1 1
node 29 1 1 1
node 30 1 1 1
node 31 1 1 1
node 32 1 1 1
node 33 1 1 1
node 34 1 1 1
node 35 1 1 1
node 36 1 1 1
node 37 1 1 1
node 38 1 1 1
node 39 1 1 1
node 40 1 1 1
node 41 1 1 1
node 42 1 1 1
node 43 1 1 1
node 44 1 1 1
node 45 1 1 1
node 46 1 1 1
node 47 1 1 1
node 48 1 1 1
node 49 1 1 1
node 50 1 1 3
node 51 1 0 0
node 52 1 0 0
node 53 1 0 0
node 54 1 0 0
node 55 1 0 0
node 56 1 0 0
node 57 1 0 0
node 58 1 0 0
node 59 1 0 0
node 60 1 0 0
node 61 1 0 0
node 62 1 0 0
node 63 1 0 0
node 64 1 0 0
node 65 1 0 0
node 66 1 0 0
node 67 1 0 0
node 68 1 0 0
node 69 1 0 0
node 70 1 0 0
node 71 1 0 0
node 72 1 0 0
node 73 1 0 0
node 74 1 0 0
node 75 1 0 0
node 171 1 0 2
node 172 1 0 2
node 173 1 0 2
node 174 1 0 2
node 175 1 0 2
node 176 1 0 2
node 177 1 0 2
node 178 1 0 2
node 179 1 0 2
node 180 1 0 2
node 181 1 0 2
node 182 1 0 2
node 183 1 0 2
node 184 1 0 2
node 185 1 0 2
node 186 1 0 2
node 187 1 0 2
node 188 1 0 2
node 189 1 0 2
node 190 1 0 2
node 193 1 0 0
node 195 1 0 0
node 212 1 0 0
node 217 1 0 0
node 230 1 0 0
node 244 1 0 0
node 291 1 0 0
node 297 1 0 0
node 300 1 0 0
node 321 1 0 0
node 325 1 0 0
node 334 1 0 0
node 341 1 0 0
node 416 1 0 0
node 433 1 0 0
node 436 1 0 0
node 447 1 0 0
node 464 1 0 0
node 511 1 0 0
node 537 1 0 0
node 566 1 0 0
node 588 1 0 0
node 628 1 0 0
node 635 1 0 0
node 638 1 0 0
node 644 1 0 0
node 657 1 0 0
node 667 1 0 0
node 683 1 0 0
node 684 1 0 0
node 690 1 0 0
node 709 1 0 0
node 718 1 0 0
node 728 1 0 0
node 733 1 0 0
node 759 1 0 0
node 760 1 0 0
node 772 1 0 0
node 801 1 0 0
node 804 1 0 0
node 834 1 0 0
gene  1 28 51 1.168788880583812 0 9527.0 1.168788880583812 1
gene  1 33 51 -9.396243440064055 0 9532.0 -9.396243440064055 1
gene  1 36 51 0.9797126677842732 0 9535.0 0.9797126677842732 1
gene  1 40 51 0.9747522528294292 0 9539.0 0.9747522528294292 1
gene  1 42 51 3.295306473194898 0 9541.0 3.295306473194898 1
gene  1 54 51 -1.7420368187308304 1 9553.0 -1.7420368187308304 1
gene  1 57 51 1.8374280753193233 1 9556.0 1.8374280753193233 1
gene  1 68 51 -5.875008394110514 1 9567.0 -5.875008394110514 1
gene  1 174 51 0.9918983327422386 1 9673.0 0.9918983327422386 1
gene  1 183 51 10.688426258234154 1 9682.0 10.688426258234154 1
gene  1 184 51 -7.031647700500483 1 9683.0 -7.031647700500483 1
gene  1 189 51 1.701741054958976 1 9688.0 1.701741054958976 1
gene  1 3 52 -0.6601376212194021 0 9692.0 -0.6601376212194021 1
gene  1 6 52 2.880845874807286 0 9695.0 2.880845874807286 1
gene  1 24 52 2.9750501757559835 0 9713.0 2.9750501757559835 1
gene  1 29 52 -0.3435617047994053 0 9718.0 -0.3435617047994053 1
gene  1 31 52 -6.209842835288821 0 9720.0 -6.209842835288821 1
gene  1 35 52 -0.7073623162383198 0 9724.0 -0.7073623162383198 1
gene  1 63 52 0.5227233213994364 1 9752.0 0.5227233213994364 1
gene  1 179 52 3.366713700330143 1 9868.0 3.366713700330143 1
gene  1 183 52 5.154216915818845 1 9872.0 5.154216915818845 1
gene  1 184 52 3.687697472436823 1 9873.0 3.687697472436823 1
gene  1 185 52 -1.635990712213863 1 9874.0 -1.635990712213863 1
gene  1 5 53 7.253387400655628 0 9884.0 7.253387400655628 1
gene  1 6 53 9.839137202553747 0 9885.0 9.839137202553747 1
gene  1 10 53 0.5111677894465918 0 9889.0 0.5111677894465918 1
gene  1 33 53 10.187975126272834 0 9912.0 10.187975126272834 1
gene  1 35 53 1.4032041817248133 0 9914.0 1.4032041817248133 1
gene  1 38 53 -5.9576055583167165 0 9917.0 -5.9576055583167165 1
gene  1 45 53 0.9136543971234627 0 9924.0 0.9136543971234627 1
gene  1 71 53 5.765682540305209 1 9950.0 5.765682540305209 1
gene  1 16 54 2.7511681287033447 0 10085.0 2.7511681287033447 1
gene  1 19 54 -5.756163839693496 0 10088.0 -5.756163839693496 1
gene  1 36 54 0.9432315264201578 0 10105.0 0.9432315264201578 1
gene  1 42 54 -4.1214908324827775 0 10111.0 -4.1214908324827775 1
gene  1 58 54 -1.1719991482736936 1 10127.0 -1.1719991482736936 1
gene  1 62 54 -7.444509964635554 1 10131.0 -7.444509964635554 1
gene  1 73 54 -3.023758419953753 1 10142.0 -3.023758419953753 1
gene  1 177 54 0.7135192796074961 1 10246.0 0.7135192796074961 1
gene  1 180 54 5.517111326137913 1 10249.0 5.517111326137913 1
gene  1 190 54 3.969251063286241 1 10259.0 3.969251063286241 1
gene  1 20 55 -0.14861496619759884 0 10279.0 -0.14861496619759884 1
gene  1 31 55 2.180988128266753 0 10290.0 2.180988128266753 1
gene  1 35 55 -0.16651395034938538 0 10294.0 -0.16651395034938538 1
gene  1 41 55 -1.0351451859766905 0 10300.0 -1.0351451859766905 1
gene  1 47 55 3.9043863710881097 0 10306.0 3.9043863710881097 1
gene  1 52 55 0.6182730946593008 0 10311.0 0.6182730946593008 1
gene  1 69 55 0.49482004674964153 1 10328.0 0.49482004674964153 1
gene  1 75 55 -0.15208504590848243 1 10334.0 -0.15208504590848243 1
gene  1 187 55 -5.0460907407855995 1 10446.0 -5.0460907407855995 1
gene  1 7 56 3.240282344461968 0 10456.0 3.240282344461968 1
gene  1 11 56 -5.6697187414971335 0 10460.0 -5.6697187414971335 1
gene  1 13 56 0.6322950463689998 0 10462.0 0.6322950463689998 1
gene  1 36 56 1.3906862773807818 0 10485.0 1.3906862773807818 1
gene  1 41 56 -4.87834328589278 0 10490.0 -4.87834328589278 1
gene  1 44 56 2.1680778676899117 0 10493.0 2.1680778676899117 1
gene  1 46 56 0.32444549465789496 0 10495.0 0.32444549465789496 1
gene  1 49 56 5.588737291932665 0 10498.0 5.588737291932665 1
gene  1 68 56 6.023939516659233 1 10517.0 6.023939516659233 1
gene  1 179 56 3.655639260626498 1 10628.0 3.655639260626498 1
gene  1 183 56 -0.7640324217427608 1 10632.0 -0.7640324217427608 1
gene  1 3 57 1.9583117317710859 0 10642.0 1.9583117317710859 1
gene  1 19 57 -16.737253298869355 0 10658.0 -16.737253298869355 1
gene  1 22 57 -2.658568524183125 0 10661.0 -2.658568524183125 1
gene  1 28 57 -2.190952149852384 0 10667.0 -2.190952149852384 1
gene  1 30 57 2.302671357707776 0 10669.0 2.302671357707776 1
gene  1 35 57 -7.80398565601603 0 10674.0 -7.80398565601603 1
gene  1 47 57 -2.0441525111075403 0 10686.0 -2.0441525111075403 1
gene  1 59 57 2.226724800623925 1 10698.0 2.226724800623925 1
gene  1 60 57 1.8378092865278965 1 10699.0 1.8378092865278965 1
gene  1 187 57 -0.7111140376115808 1 10826.0 -0.7111140376115808 1
gene  1 5 58 2.3727676298958564 0 10834.0 2.3727676298958564 1
gene  1 14 58 -4.415721281132281 0 10843.0 -4.415721281132281 1
gene  1 15 58 2.534478127949773 0 10844.0 2.534478127949773 1
gene  1 24 58 3.612785070634154 0 10853.0 3.612785070634154 1
gene  1 32 58 1.4092537785265573 0 10861.0 1.4092537785265573 1
gene  1 43 58 1.3990506253433352 0 10872.0 1.3990506253433352 1
gene  1 49 58 -2.194518859895653 0 10878.0 -2.194518859895653 1
gene  1 53 58 1.5865624703200665 0 10882.0 1.5865624703200665 1
gene  1 62 58 4.509596250804529 1 10891.0 4.509596250804529 1
gene  1 64 58 0.27797571564881585 1 10893.0 0.27797571564881585 1
gene  1 69 58 -1.896286113114718 1 10898.0 -1.896286113114718 1
gene  1 182 58 2.0027510087892937 1 11011.0 2.0027510087892937 1
gene  1 1 59 -4.581813087874595 0 11020.0 -4.581813087874595 1
gene  1 4 59 -1.9419174390475098 0 11023.0 -1.9419174390475098 1
gene  1 27 59 3.1144453431062296 0 11046.0 3.1144453431062296 1
gene  1 34 59 -0.35943358517040047 0 11053.0 -0.35943358517040047 1
gene  1 37 59 -1.4363656203721136 0 11056.0 -1.4363656203721136 1
gene  1 44 59 8.664912777772926 0 11063.0 8.664912777772926 1
gene  1 59 59 1.0641247413242887 1 11078.0 1.0641247413242887 1
gene  1 73 59 2.049185373281513 1 11092.0 2.049185373281513 1
gene  1 75 59 0.42994322953069086 1 11094.0 0.42994322953069086 1
gene  1 183 59 -1.6453955011685921 1 11202.0 -1.6453955011685921 1
gene  1 185 59 0.5830387115787274 1 11204.0 0.5830387115787274 1
gene  1 8 60 -5.37781988615877 0 11217.0 -5.37781988615877 1
gene  1 10 60 -2.501776220152253 0 11219.0 -2.501776220152253 1
gene  1 40 60 3.752175513955208 0 11249.0 3.752175513955208 1
gene  1 45 60 -13.617569383660294 0 11254.0 -13.617569383660294 1
gene  1 61 60 1.5921163829457878 1 11270.0 1.5921163829457878 1
gene  1 72 60 1.3306191095172255 1 11281.0 1.3306191095172255 1
gene  1 177 60 -1.5576290879109411 1 11386.0 -1.5576290879109411 1
gene  1 179 60 0.9853657118523269 1 11388.0 0.9853657118523269 1
gene  1 187 60 -1.9026230852020596 1 11396.0 -1.9026230852020596 1
gene  1 7 61 -0.2092138679716482 0 11406.0 -0.2092138679716482 1
gene  1 15 61 0.1784103069346541 0 11414.0 0.1784103069346541 1
gene  1 22 61 2.4151943542282437 0 11421.0 2.4151943542282437 1
gene  1 28 61 3.934583474987024 0 11427.0 3.934583474987024 1
gene  1 36 61 -4.299211005818117 0 11435.0 -4.299211005818117 1
gene  1 53 61 -2.040736176968695 0 11452.0 -2.040736176968695 1
gene  1 54 61 -5.93270710259958 0 11453.0 -5.93270710259958 1
gene  1 67 61 19.9693851237213 1 11466.0 19.9693851237213 1
gene  1 177 61 1.5038746605011382 1 11576.0 1.5038746605011382 1
gene  1 184 61 -3.3513781952012476 1 11583.0 -3.3513781952012476 1
gene  1 6 62 -0.8068927481155999 0 11595.0 -0.8068927481155999 1
gene  1 11 62 -1.8869312433981698 0 11600.0 -1.8869312433981698 1
gene  1 15 62 -7.3752960459625205 0 11604.0 -7.3752960459625205 1
gene  1 26 62 6.050414173990244 0 11615.0 6.050414173990244 1
gene  1 53 62 0.6848546799993259 0 11642.0 0.6848546799993259 1
gene  1 68 62 3.5658288441654147 1 11657.0 3.5658288441654147 1
gene  1 72 62 -0.5303108588375227 1 11661.0 -0.5303108588375227 1
gene  1 174 62 0.5683665568130976 1 11763.0 0.5683665568130976 1
gene  1 175 62 -4.092832919891558 1 11764.0 -4.092832919891558 1
gene  1 184 62 -1.148486096881291 1 11773.0 -1.148486096881291 1
gene  1 185 62 -1.6771621600379507 1 11774.0 -1.6771621600379507 1
gene  1 188 62 -0.4574085411443901 1 11777.0 -0.4574085411443901 1
gene  1 31 63 -4.6680967691392805 0 11810.0 -4.6680967691392805 1
gene  1 32 63 0.9618516293094557 0 11811.0 0.9618516293094557 1
gene  1 37 63 -2.3355352414590156 0 11816.0 -2.3355352414590156 1
gene  1 38 63 -0.7789805242767776 0 11817.0 -0.7789805242767776 1
gene  1 42 63 -5.768214673814821 0 11821.0 -5.768214673814821 1
gene  1 46 63 2.5681238985053456 0 11825.0 2.5681238985053456 1
gene  1 48 63 1.675855200248059 0 11827.0 1.675855200248059 1
gene  1 50 63 1.8364474009301348 0 11829.0 1.8364474009301348 1
gene  1 60 63 0.08366187720780238 0 11839.0 0.08366187720780238 1
gene  1 63 63 -2.4169587737549914 1 11842.0 -2.4169587737549914 1
gene  1 72 63 13.855919425584476 1 11851.0 13.855919425584476 1
gene  1 74 63 -7.758204399564285 1 11853.0 -7.758204399564285 1
gene  1 178 63 2.0396127163786475 1 11957.0 2.0396127163786475 1
gene  1 180 63 2.0878620584538274 1 11959.0 2.0878620584538274 1
gene  1 181 63 0.19355589960000052 1 11960.0 0.19355589960000052 1
gene  1 8 64 15.568268576453308 0 11977.0 15.568268576453308 1
gene  1 11 64 -1.5003046455533888 0 11980.0 -1.5003046455533888 1
gene  1 20 64 -10.057271092829316 0 11989.0 -10.057271092829316 1
gene  1 27 64 -2.241130868701529 0 11996.0 -2.241130868701529 1
gene  1 41 64 11.267982166969997 0 12010.0 11.267982166969997 1
gene  1 44 64 -0.976251628940054 0 12013.0 -0.976251628940054 1
gene  1 49 64 0.8855222351362407 0 12018.0 0.8855222351362407 1
gene  1 50 64 -0.7707112534825776 0 12019.0 -0.7707112534825776 1
gene  1 53 64 7.49025143649027 0 12022.0 7.49025143649027 1
gene  1 59 64 2.017731656660465 0 12028.0 2.017731656660465 1
gene  1 70 64 1.0024504567975792 1 12039.0 1.0024504567975792 1
gene  1 176 64 2.178251734449422 1 12145.0 2.178251734449422 1
gene  1 179 64 0.5640691998081231 1 12148.0 0.5640691998081231 1
gene  1 183 64 0.3443399307158679 1 12152.0 0.3443399307158679 1
gene  1 184 64 -1.4600141396741608 1 12153.0 -1.4600141396741608 1
gene  1 185 64 14.98697737701632 1 12154.0 14.98697737701632 1
gene  1 8 65 -3.622394996068215 0 12167.0 -3.622394996068215 1
gene  1 13 65 2.091296378171731 0 12172.0 2.091296378171731 1
gene  1 18 65 6.2912083972903305 0 12177.0 6.2912083972903305 1
gene  1 39 65 -0.2696544170699753 0 12198.0 -0.2696544170699753 1
gene  1 53 65 -2.19107703764974 0 12212.0 -2.19107703764974 1
gene  1 69 65 -2.2418206291839273 1 12228.0 -2.2418206291839273 1
gene  1 70 65 -4.593203206164922 1 12229.0 -4.593203206164922 1
gene  1 175 65 -7.521347459622937 1 12334.0 -7.521347459622937 1
gene  1 176 65 5.317066489408365 1 12335.0 5.317066489408365 1
gene  1 177 65 2.123985484112308 1 12336.0 2.123985484112308 1
gene  1 185 65 2.871173414692038 1 12344.0 2.871173414692038 1
gene  1 1 66 -2.7856858098430766 0 12350.0 -2.7856858098430766 1
gene  1 4 66 3.0105642426803714 0 12353.0 3.0105642426803714 1
gene  1 18 66 8.058660883655087 0 12367.0 8.058660883655087 1
gene  1 21 66 0.8368107157905558 0 12370.0 0.8368107157905558 1
gene  1 43 66 1.0074668936449116 0 12392.0 1.0074668936449116 1
gene  1 47 66 -2.9367720172517986 0 12396.0 -2.9367720172517986 1
gene  1 50 66 -3.866754678919069 0 12399.0 -3.866754678919069 1
gene  1 60 66 -2.009148194435596 0 12409.0 -2.009148194435596 1
gene  1 62 66 2.3475196559784486 0 12411.0 2.3475196559784486 1
gene  1 66 66 6.503905223720406 1 12415.0 6.503905223720406 1
gene  1 184 66 1.6804822158605406 1 12533.0 1.6804822158605406 1
gene  1 8 67 5.814639935420306 0 12547.0 5.814639935420306 1
gene  1 38 67 0.5901171803613714 0 12577.0 0.5901171803613714 1
gene  1 46 67 -0.9472286660317318 0 12585.0 -0.9472286660317318 1
gene  1 49 67 -3.3265375025183586 0 12588.0 -3.3265375025183586 1
gene  1 57 67 1.469990129930968 0 12596.0 1.469990129930968 1
gene  1 61 67 -9.628321892686534 0 12600.0 -9.628321892686534 1
gene  1 72 67 -8.843111941313916 1 12611.0 -8.843111941313916 1
gene  1 177 67 -15.259092222944826 1 12716.0 -15.259092222944826 1
gene  1 182 67 -11.80694358428184 1 12721.0 -11.80694358428184 1
gene  1 185 67 -1.3758938467042479 1 12724.0 -1.3758938467042479 1
gene  1 189 67 0.19493452771996234 1 12728.0 0.19493452771996234 1
gene  1 5 68 -4.315507209007652 0 12734.0 -4.315507209007652 0
gene  1 16 68 -2.434185510796138 0 12745.0 -2.434185510796138 1
gene  1 40 68 2.2444391403058033 0 12769.0 2.2444391403058033 1
gene  1 41 68 1.3934785933232636 0 12770.0 1.3934785933232636 1
gene  1 42 68 -4.034161561157509 0 12771.0 -4.034161561157509 1
gene  1 71 68 -6.015736458094446 1 12800.0 -6.015736458094446 1
gene  1 185 68 1.8571837822121695 1 12914.0 1.8571837822121695 1
gene  1 6 69 -5.766522657368358 0 12925.0 -5.766522657368358 1
gene  1 16 69 5.7311804963680135 0 12935.0 5.7311804963680135 1
gene  1 19 69 -1.214601121372225 0 12938.0 -1.214601121372225 1
gene  1 44 69 0.7830375230483297 0 12963.0 0.7830375230483297 1
gene  1 45 69 -4.043718828040042 0 12964.0 -4.043718828040042 1
gene  1 65 69 4.567348445030495 0 12984.0 4.567348445030495 1
gene  1 171 69 -3.9932257623336946 1 13090.0 -3.9932257623336946 1
gene  1 3 70 -4.021702699615906 0 13112.0 -4.021702699615906 1
gene  1 39 70 -0.9824914990405058 0 13148.0 -0.9824914990405058 1
gene  1 60 70 -1.815590780879568 0 13169.0 -1.815590780879568 1
gene  1 171 70 0.23809717688995397 1 13280.0 0.23809717688995397 1
gene  1 181 70 -2.5642311499295536 1 13290.0 -2.5642311499295536 1
gene  1 183 70 -0.4553842086936981 1 13292.0 -0.4553842086936981 1
gene  1 11 71 1.8902180312296397 0 13310.0 1.8902180312296397 1
gene  1 15 71 1.2687570100674186 0 13314.0 1.2687570100674186 1
gene  1 30 71 3.222132665067318 0 13329.0 3.222132665067318 1
gene  1 33 71 4.538553674198036 0 13332.0 4.538553674198036 1
gene  1 34 71 4.014027321422798 0 13333.0 4.014027321422798 1
gene  1 48 71 -3.6507527185055517 0 13347.0 -3.6507527185055517 1
gene  1 50 71 3.830551134092084 0 13349.0 3.830551134092084 1
gene  1 51 71 -5.054938065314458 0 13350.0 -5.054938065314458 1
gene  1 57 71 -3.8811432468479046 0 13356.0 -3.8811432468479046 1
gene  1 73 71 2.6279065280914464 1 13372.0 2.6279065280914464 1
gene  1 185 71 -6.010973199500052 1 13484.0 -6.010973199500052 1
gene  1 24 72 0.5435330780372312 0 13513.0 0.5435330780372312 1
gene  1 51 72 -2.0037699113797736 0 13540.0 -2.0037699113797736 1
gene  1 54 72 -5.303543160141648 0 13543.0 -5.303543160141648 1
gene  1 60 72 -1.7910877666055638 0 13549.0 -1.7910877666055638 1
gene  1 3 73 -6.58308905672047 0 13682.0 -6.58308905672047 1
gene  1 18 73 0.4257159723430526 0 13697.0 0.4257159723430526 1
gene  1 30 73 -5.580443237749194 0 13709.0 -5.580443237749194 1
gene  1 41 73 -3.666264181258689 0 13720.0 -3.666264181258689 1
gene  1 54 73 14.923236964335187 0 13733.0 14.923236964335187 1
gene  1 59 73 2.4384500972685395 0 13738.0 2.4384500972685395 1
gene  1 60 73 0.19299841922182193 0 13739.0 0.19299841922182193 1
gene  1 179 73 11.423472839078762 1 13858.0 11.423472839078762 1
gene  1 189 73 1.1946730373491699 1 13868.0 1.1946730373491699 1
gene  1 31 74 2.079771275745243 0 13900.0 2.079771275745243 1
gene  1 38 74 0.9669718869213859 0 13907.0 0.9669718869213859 1
gene  1 67 74 -1.4085872509680408 0 13936.0 -1.4085872509680408 1
gene  1 74 74 0.5016517982501284 1 13943.0 0.5016517982501284 1
gene  1 188 74 -16.476483984810713 1 14057.0 -16.476483984810713 1
gene  1 2 75 1.0280134938296202 0 14061.0 1.0280134938296202 1
gene  1 10 75 -2.127146037500007 0 14069.0 -2.127146037500007 1
gene  1 12 75 -2.0137230294711332 0 14071.0 -2.0137230294711332 1
gene  1 15 75 8.609768255214679 0 14074.0 8.609768255214679 1
gene  1 18 75 -0.4286518621348362 0 14077.0 -0.4286518621348362 1
gene  1 43 75 2.3225670793998963 0 14102.0 2.3225670793998963 1
gene  1 46 75 -1.591161502949925 0 14105.0 -1.591161502949925 1
gene  1 56 75 -2.0723680556992807 0 14115.0 -2.0723680556992807 1
gene  1 57 75 -13.973572023035427 0 14116.0 -13.973572023035427 1
gene  1 177 75 2.037329221205033 1 14236.0 2.037329221205033 1
gene  1 183 75 1.601058550108354 1 14242.0 1.601058550108354 1
gene  1 3 171 7.941306272574412 0 32302.0 7.941306272574412 1
gene  1 10 171 1.629328170679378 0 32309.0 1.629328170679378 1
gene  1 18 171 16.129212145780002 0 32317.0 16.129212145780002 1
gene  1 35 171 2.877122606202484 0 32334.0 2.877122606202484 1
gene  1 47 171 -4.56455609260728 0 32346.0 -4.56455609260728 1
gene  1 48 171 0.9465409325218808 0 32347.0 0.9465409325218808 1
gene  1 63 171 -3.237675113967023 0 32362.0 -3.237675113967023 1
gene  1 74 171 -2.576942010349283 0 32373.0 -2.576942010349283 1
gene  1 171 171 -8.777317021453719 1 32470.0 -8.777317021453719 1
gene  1 180 171 4.188535759902809 1 32479.0 4.188535759902809 1
gene  1 181 171 7.099599395304131 1 32480.0 7.099599395304131 1
gene  1 16 172 1.6291941031517179 0 32505.0 1.6291941031517179 1
gene  1 38 172 0.42555080725183847 0 32527.0 0.42555080725183847 1
gene  1 58 172 2.3657842095685373 0 32547.0 2.3657842095685373 1
gene  1 59 172 -0.2392116789938128 0 32548.0 -0.2392116789938128 1
gene  1 60 172 -1.6721891039412484 0 32549.0 -1.6721891039412484 1
gene  1 73 172 -6.252426311465747 0 32562.0 -6.252426311465747 1
gene  1 171 172 -1.9210934702501201 0 32660.0 -1.9210934702501201 1
gene  1 173 172 0.2546037851443612 1 32662.0 0.2546037851443612 1
gene  1 7 173 -1.34040500503035 0 32686.0 -1.34040500503035 1
gene  1 29 173 1.5831417825281582 0 32708.0 1.5831417825281582 1
gene  1 30 173 -6.2514987015220775 0 32709.0 -6.2514987015220775 1
gene  1 38 173 2.755797455242405 0 32717.0 2.755797455242405 1
gene  1 56 173 1.3992585393852282 0 32735.0 1.3992585393852282 1
gene  1 68 173 3.0022604475780694 0 32747.0 3.0022604475780694 1
gene  1 72 173 2.617760820986171 0 32751.0 2.617760820986171 1
gene  1 75 173 -3.622093842800343 0 32754.0 -3.622093842800343 1
gene  1 180 173 0.8427523432028914 1 32859.0 0.8427523432028914 1
gene  1 45 174 10.960980755539156 0 32914.0 10.960980755539156 1
gene  1 174 174 -1.9710739638186743 1 33043.0 -1.9710739638186743 1
gene  1 180 174 -0.8433737966605406 1 33049.0 -0.8433737966605406 1
gene  1 186 174 0.5198549774221182 1 33055.0 0.5198549774221182 1
gene  1 2 175 3.720215101549785 0 33061.0 3.720215101549785 1
gene  1 11 175 -5.802679589286948 0 33070.0 -5.802679589286948 1
gene  1 26 175 -4.033371060805795 0 33085.0 -4.033371060805795 1
gene  1 37 175 -0.5020047892550117 0 33096.0 -0.5020047892550117 1
gene  1 43 175 0.7857537184945822 0 33102.0 0.7857537184945822 1
gene  1 48 175 -0.39702664424744477 0 33107.0 -0.39702664424744477 1
gene  1 51 175 7.270543452497085 0 33110.0 7.270543452497085 1
gene  1 64 175 1.9544860356226932 0 33123.0 1.9544860356226932 1
gene  1 70 175 -1.4843488616757974 0 33129.0 -1.4843488616757974 1
gene  1 71 175 10.955251552642618 0 33130.0 10.955251552642618 1
gene  1 177 175 -1.3406990133793149 1 33236.0 -1.3406990133793149 1
gene  1 178 175 -3.849391700375562 1 33237.0 -3.849391700375562 1
gene  1 181 175 -0.7403481229716885 1 33240.0 -0.7403481229716885 1
gene  1 184 175 5.79074713317979 1 33243.0 5.79074713317979 1
gene  1 186 175 -0.2061425613543919 1 33245.0 -0.2061425613543919 1
gene  1 2 176 1.480278188155308 0 33251.0 1.480278188155308 1
gene  1 8 176 2.486912959154383 0 33257.0 2.486912959154383 1
gene  1 9 176 12.031948133659853 0 33258.0 12.031948133659853 1
gene  1 12 176 5.551279317428747 0 33261.0 5.551279317428747 1
gene  1 15 176 4.60281583179743 0 33264.0 4.60281583179743 1
gene  1 16 176 -1.0877719708217604 0 33265.0 -1.0877719708217604 1
gene  1 35 176 -0.726502652283658 0 33284.0 -0.726502652283658 1
gene  1 37 176 -0.1597890107497093 0 33286.0 -0.1597890107497093 1
gene  1 46 176 -4.573875363293475 0 33295.0 -4.573875363293475 1
gene  1 62 176 8.64529091748434 0 33311.0 8.64529091748434 1
gene  1 64 176 7.935528445092103 0 33313.0 7.935528445092103 1
gene  1 171 176 0.7583258552735468 0 33420.0 0.7583258552735468 1
gene  1 174 176 -5.525933529812173 0 33423.0 -5.525933529812173 1
gene  1 179 176 8.317080355853612 1 33428.0 8.317080355853612 1
gene  1 1 177 3.8706430618985843 0 33440.0 3.8706430618985843 1
gene  1 7 177 -3.2833665190462877 0 33446.0 -3.2833665190462877 1
gene  1 8 177 10.40479312055787 0 33447.0 10.40479312055787 1
gene  1 9 177 -1.3685675834076787 0 33448.0 -1.3685675834076787 1
gene  1 14 177 -0.305208556736726 0 33453.0 -0.305208556736726 1
gene  1 16 177 -1.5640211843541465 0 33455.0 -1.5640211843541465 1
gene  1 20 177 12.286722946406702 0 33459.0 12.286722946406702 1
gene  1 30 177 4.612017840886705 0 33469.0 4.612017840886705 1
gene  1 31 177 -2.7013798681417285 0 33470.0 -2.7013798681417285 1
gene  1 32 177 -15.402965682764485 0 33471.0 -15.402965682764485 1
gene  1 43 177 7.948242448148259 0 33482.0 7.948242448148259 1
gene  1 44 177 -1.4301039223545018 0 33483.0 -1.4301039223545018 1
gene  1 53 177 -2.6302794403247756 0 33492.0 -2.6302794403247756 1
gene  1 59 177 3.8018707664563447 0 33498.0 3.8018707664563447 1
gene  1 69 177 2.588261144199783 0 33508.0 2.588261144199783 1
gene  1 174 177 2.0378635035831434 0 33613.0 2.0378635035831434 1
gene  1 175 177 1.6626576745302326 0 33614.0 1.6626576745302326 1
gene  1 184 177 -1.0478071116621652 1 33623.0 -1.0478071116621652 1
gene  1 187 177 -1.016659184177369 1 33626.0 -1.016659184177369 1
gene  1 1 178 0.6695346690514274 0 33630.0 0.6695346690514274 1
gene  1 20 178 1.5059506852743922 0 33649.0 1.5059506852743922 1
gene  1 26 178 -0.6848707076736755 0 33655.0 -0.6848707076736755 1
gene  1 35 178 -2.5757939107506624 0 33664.0 -2.5757939107506624 1
gene  1 42 178 -1.0929510923491215 0 33671.0 -1.0929510923491215 1
gene  1 53 178 -2.3722733335532804 0 33682.0 -2.3722733335532804 1
gene  1 59 178 3.371012949965491 0 33688.0 3.371012949965491 1
gene  1 72 178 2.0218624968231858 0 33701.0 2.0218624968231858 1
gene  1 172 178 0.8286956442254232 0 33801.0 0.8286956442254232 1
gene  1 190 178 0.6283710856122318 1 33819.0 0.6283710856122318 1
gene  1 6 179 -6.811398963864198 0 33825.0 -6.811398963864198 1
gene  1 8 179 0.12040956146665394 0 33827.0 0.12040956146665394 1
gene  1 13 179 -4.8296869125919795 0 33832.0 -4.8296869125919795 1
gene  1 36 179 9.821244450230152 0 33855.0 9.821244450230152 1
gene  1 46 179 0.0726718987992166 0 33865.0 0.0726718987992166 1
gene  1 60 179 -0.5794617710084518 0 33879.0 -0.5794617710084518 1
gene  1 61 179 -6.906301705690179 0 33880.0 -6.906301705690179 1
gene  1 72 179 0.36562549734138194 0 33891.0 0.36562549734138194 1
gene  1 74 179 -13.49024297505925 0 33893.0 -13.49024297505925 1
gene  1 171 179 1.5244142876777056 0 33990.0 1.5244142876777056 1
gene  1 185 179 6.581579653340874 1 34004.0 6.581579653340874 1
gene  1 1 180 0.8821962679233906 0 34010.0 0.8821962679233906 1
gene  1 4 180 -3.4754155409803698 0 34013.0 -3.4754155409803698 1
gene  1 8 180 -1.03448318939189 0 34017.0 -1.03448318939189 1
gene  1 11 180 -2.210915266565517 0 34020.0 -2.210915266565517 1
gene  1 21 180 5.0179612334402 0 34030.0 5.0179612334402 1
gene  1 32 180 1.2251081938224122 0 34041.0 1.2251081938224122 1
gene  1 35 180 5.200771499566439 0 34044.0 5.200771499566439 1
gene  1 46 180 -3.0099744643660893 0 34055.0 -3.0099744643660893 1
gene  1 68 180 0.3873694405342585 0 34077.0 0.3873694405342585 1
gene  1 188 180 -2.458993005985257 1 34197.0 -2.458993005985257 1
gene  1 2 181 -11.241966370566052 0 34201.0 -11.241966370566052 1
gene  1 16 181 -11.52936477305303 0 34215.0 -11.52936477305303 1
gene  1 24 181 2.632709515192088 0 34223.0 2.632709515192088 1
gene  1 36 181 -8.612393558475187 0 34235.0 -8.612393558475187 1
gene  1 60 181 -3.9846906368672768 0 34259.0 -3.9846906368672768 1
gene  1 69 181 -1.9019556291641633 0 34268.0 -1.9019556291641633 1
gene  1 190 181 2.0194952677678755 1 34389.0 2.0194952677678755 1
gene  1 1 182 2.6954205155964766 0 34390.0 2.6954205155964766 1
gene  1 17 182 7.45586615398692 0 34406.0 7.45586615398692 1
gene  1 35 182 16.878892880012607 0 34424.0 16.878892880012607 1
gene  1 44 182 -1.0049092213934916 0 34433.0 -1.0049092213934916 1
gene  1 49 182 1.0504346984562607 0 34438.0 1.0504346984562607 1
gene  1 50 182 -0.32388636193393516 0 34439.0 -0.32388636193393516 1
gene  1 54 182 -10.706755148943488 0 34443.0 -10.706755148943488 1
gene  1 59 182 4.736721329840954 0 34448.0 4.736721329840954 1
gene  1 73 182 -2.259048926824059 0 34462.0 -2.259048926824059 1
gene  1 174 182 -15.739237322300706 0 34563.0 -15.739237322300706 1
gene  1 187 182 0.02623375925732141 1 34576.0 0.02623375925732141 1
gene  1 6 183 -0.05055719479664572 0 34585.0 -0.05055719479664572 1
gene  1 7 183 -1.2610659375374265 0 34586.0 -1.2610659375374265 1
gene  1 17 183 2.180160681394323 0 34596.0 2.180160681394323 1
gene  1 20 183 -0.48548629243021857 0 34599.0 -0.48548629243021857 1
gene  1 25 183 -4.645449532624247 0 34604.0 -4.645449532624247 1
gene  1 30 183 -4.687046518174649 0 34609.0 -4.687046518174649 1
gene  1 39 183 -3.295176061146985 0 34618.0 -3.295176061146985 1
gene  1 44 183 2.016141193444753 0 34623.0 2.016141193444753 1
gene  1 66 183 0.4254274199571703 0 34645.0 0.4254274199571703 1
gene  1 171 183 -1.838254811890794 0 34750.0 -1.838254811890794 1
gene  1 174 183 0.823742910383175 0 34753.0 0.823742910383175 1
gene  1 21 184 8.654100202862148 0 34790.0 8.654100202862148 1
gene  1 29 184 12.596605266920717 0 34798.0 12.596605266920717 1
gene  1 32 184 -3.2769253253254256 0 34801.0 -3.2769253253254256 1
gene  1 36 184 3.678759551503256 0 34805.0 3.678759551503256 1
gene  1 45 184 2.242139431818447 0 34814.0 2.242139431818447 1
gene  1 46 184 -3.061761222737445 0 34815.0 -3.061761222737445 1
gene  1 63 184 4.608207244651164 0 34832.0 4.608207244651164 1
gene  1 66 184 -3.0601402348365707 0 34835.0 -3.0601402348365707 1
gene  1 177 184 -4.252854100728064 0 34946.0 -4.252854100728064 1
gene  1 31 185 2.3180114076995753 0 34990.0 2.3180114076995753 1
gene  1 50 185 7.785447721518196 0 35009.0 7.785447721518196 1
gene  1 56 185 -4.640155672166373 0 35015.0 -4.640155672166373 1
gene  1 58 185 0.007107654228240556 0 35017.0 0.007107654228240556 1
gene  1 62 185 0.7876816571669678 0 35021.0 0.7876816571669678 1
gene  1 173 185 0.1308090089235745 0 35132.0 0.1308090089235745 1
gene  1 179 185 6.228325256287611 0 35138.0 6.228325256287611 1
gene  1 182 185 -2.420940928124044 0 35141.0 -2.420940928124044 1
gene  1 188 185 -3.5633487911743296 1 35147.0 -3.5633487911743296 1
gene  1 1 186 -1.990251823327323 0 35150.0 -1.990251823327323 1
gene  1 3 186 1.6387795172877746 0 35152.0 1.6387795172877746 1
gene  1 4 186 -2.6900408686366957 0 35153.0 -2.6900408686366957 1
gene  1 6 186 -1.4345793022355418 0 35155.0 -1.4345793022355418 1
gene  1 7 186 2.6397750198964616 0 35156.0 2.6397750198964616 1
gene  1 17 186 3.7372866364668154 0 35166.0 3.7372866364668154 1
gene  1 23 186 -5.237716420603662 0 35172.0 -5.237716420603662 1
gene  1 28 186 -3.29794732670421 0 35177.0 -3.29794732670421 1
gene  1 33 186 7.125889167459999 0 35182.0 7.125889167459999 1
gene  1 36 186 2.504327170104044 0 35185.0 2.504327170104044 1
gene  1 58 186 0.8352021342408706 0 35207.0 0.8352021342408706 1
gene  1 69 186 -0.2251186724112239 0 35218.0 -0.2251186724112239 1
gene  1 70 186 -1.8697339444542005 0 35219.0 -1.8697339444542005 1
gene  1 72 186 1.4851037167918673 0 35221.0 1.4851037167918673 1
gene  1 10 187 8.179865665691342 0 35349.0 8.179865665691342 1
gene  1 25 187 6.9079179061793585 0 35364.0 6.9079179061793585 1
gene  1 31 187 3.5356819684874967 0 35370.0 3.5356819684874967 1
gene  1 33 187 -0.018475067277873958 0 35372.0 -0.018475067277873958 1
gene  1 47 187 -4.265459597659092 0 35386.0 -4.265459597659092 1
gene  1 57 187 -5.454443902946654 0 35396.0 -5.454443902946654 1
gene  1 183 187 0.8878523625092847 0 35522.0 0.8878523625092847 1
gene  1 184 187 -4.978627398565505 0 35523.0 -4.978627398565505 1
gene  1 5 188 -1.667045798670417 0 35534.0 -1.667045798670417 1
gene  1 6 188 -0.014036599254315607 0 35535.0 -0.014036599254315607 1
gene  1 12 188 -6.207886337703393 0 35541.0 -6.207886337703393 1
gene  1 28 188 1.2870300598648012 0 35557.0 1.2870300598648012 1
gene  1 32 188 2.0038769566105934 0 35561.0 2.0038769566105934 1
gene  1 35 188 -2.31292696617618 0 35564.0 -2.31292696617618 1
gene  1 57 188 3.0229742354748437 0 35586.0 3.0229742354748437 1
gene  1 172 188 -9.402012622192155 0 35701.0 -9.402012622192155 1
gene  1 14 189 -1.5442405097880814 0 35733.0 -1.5442405097880814 1
gene  1 17 189 -1.196005512695097 0 35736.0 -1.196005512695097 1
gene  1 27 189 9.615979863241265 0 35746.0 9.615979863241265 1
gene  1 37 189 -16.781105329998592 0 35756.0 -16.781105329998592 1
gene  1 43 189 4.132577385283856 0 35762.0 4.132577385283856 1
gene  1 51 189 11.002797882037257 0 35770.0 11.002797882037257 1
gene  1 56 189 -4.570703711416836 0 35775.0 -4.570703711416836 1
gene  1 59 189 -3.429550607724325 0 35778.0 -3.429550607724325 1
gene  1 65 189 -4.308870167146764 0 35784.0 -4.308870167146764 1
gene  1 73 189 -6.276724757737574 0 35792.0 -6.276724757737574 1
gene  1 74 189 -3.2832684828869243 0 35793.0 -3.2832684828869243 1
gene  1 178 189 -0.5477533933926502 0 35897.0 -0.5477533933926502 1
gene  1 1 190 -2.9704079520021134 0 35910.0 -2.9704079520021134 1
gene  1 4 190 -2.7405845707227856 0 35913.0 -2.7405845707227856 1
gene  1 15 190 5.665031376170562 0 35924.0 5.665031376170562 1
gene  1 22 190 -0.39987479936716086 0 35931.0 -0.39987479936716086 1
gene  1 33 190 2.623276810953257 0 35942.0 2.623276810953257 1
gene  1 58 190 -2.9499814636325405 0 35967.0 -2.9499814636325405 1
gene  1 60 190 1.0645715220301293 0 35969.0 1.0645715220301293 1
gene  1 67 190 8.325863049537595 0 35976.0 8.325863049537595 1
gene  1 179 190 6.716672982509755 0 36088.0 6.716672982509755 1
gene  1 181 190 -11.314161239260313 0 36090.0 -11.314161239260313 1
gene  1 182 190 -0.4013029922269292 0 36091.0 -0.4013029922269292 1
gene  1 184 190 7.757303058119888 0 36093.0 7.757303058119888 1
gene  1 186 190 -1.105820897955756 0 36095.0 -1.105820897955756 1
gene  1 187 190 0.7123695968002148 0 36096.0 0.7123695968002148 1
gene  1 65 188 -0.6228397745330155 0 36109.0 -0.6228397745330155 1
gene  1 1 193 1.838702421282718 0 36113.0 1.838702421282718 1
gene  1 193 190 1.4481009873194162 0 36114.0 1.4481009873194162 1
gene  1 29 68 -2.786735228132298 0 36116.0 -2.786735228132298 1
gene  1 181 195 2.7318517397945437 1 36120.0 2.7318517397945437 1
gene  1 195 63 1.507066532761192 0 36121.0 1.507066532761192 1
gene  1 7 171 -0.620737832133737 0 36125.0 -0.620737832133737 1
gene  1 22 72 -1.424426963981559 0 36150.0 -1.424426963981559 1
gene  1 47 212 -1.283449962408099 0 36196.0 -1.283449962408099 1
gene  1 212 55 2.8805873803729445 0 36197.0 2.8805873803729445 1
gene  1 55 58 4.0278824669103805 0 36200.0 4.0278824669103805 1
gene  1 33 217 1.0026079628021467 0 36231.0 1.0026079628021467 1
gene  1 217 187 5.39061437162013 0 36232.0 5.39061437162013 1
gene  1 69 56 -2.250150430710191 0 36255.0 -2.250150430710191 1
gene  1 51 173 0.8005488099338159 0 36261.0 0.8005488099338159 1
gene  1 35 230 4.010512150445346 0 36282.0 4.010512150445346 1
gene  1 230 57 -6.022137369884482 0 36283.0 -6.022137369884482 1
gene  1 43 244 -1.9898633791741982 0 36330.0 -1.9898633791741982 1
gene  1 244 189 5.149795817238531 0 36331.0 5.149795817238531 1
gene  1 13 172 -4.410499540901917 0 36334.0 -4.410499540901917 1
gene  1 52 230 -1.54957536180999 0 36357.0 -1.54957536180999 1
gene  1 68 188 0.7581996679269773 0 36380.0 0.7581996679269773 1
gene  1 12 54 -3.800697517425334 0 36383.0 -3.800697517425334 1
gene  1 181 74 5.553188015438473 0 36429.0 5.553188015438473 1
gene  1 61 177 1.6143742434059556 0 36460.0 1.6143742434059556 1
gene  1 20 184 -1.0777518340751073 0 36496.0 -1.0777518340751073 1
gene  1 190 176 -3.0272384923001217 0 36516.0 -3.0272384923001217 1
gene  1 22 291 3.7504522960819857 0 36524.0 3.7504522960819857 1
gene  1 291 190 -0.03591115833202574 0 36525.0 -0.03591115833202574 1
gene  1 75 174 -7.447537581350152 0 36555.0 -7.447537581350152 1
gene  1 35 297 -0.4853908897612319 0 36562.0 -0.4853908897612319 1
gene  1 297 171 3.9356990477229186 0 36563.0 3.9356990477229186 1
gene  1 33 184 -1.969874856471451 0 36565.0 -1.969874856471451 1
gene  1 35 186 4.346938849947247 0 36569.0 4.346938849947247 1
gene  1 51 300 3.4891074584945017 0 36574.0 3.4891074584945017 1
gene  1 300 71 -2.694666757396125 0 36575.0 -2.694666757396125 1
gene  1 49 172 -2.2352893647820142 0 36658.0 -2.2352893647820142 1
gene  1 75 177 1.0730272234592113 0 36665.0 1.0730272234592113 1
gene  1 53 321 -1.732352865616546 0 36673.0 -1.732352865616546 1
gene  1 321 62 -3.068287618234926 0 36674.0 -3.068287618234926 1
gene  1 47 62 -0.6438340089774968 0 36689.0 -0.6438340089774968 1
gene  1 41 67 -2.9889891607640484 0 36692.0 -2.9889891607640484 1
gene  1 182 325 -5.081667464914465 1 36701.0 -5.081667464914465 1
gene  1 325 67 -0.2257012173423954 0 36702.0 -0.2257012173423954 1
gene  1 195 178 1.1409477961499246 0 36719.0 1.1409477961499246 1
gene  1 64 56 -1.921612888824494 0 36723.0 -1.921612888824494 1
gene  1 37 334 1.2047829414870581 0 36742.0 1.2047829414870581 1
gene  1 334 175 -1.3652823385248916 0 36743.0 -1.3652823385248916 1
gene  1 56 341 0.7893523975075184 0 36772.0 0.7893523975075184 1
gene  1 341 173 0.09256937273430121 0 36773.0 0.09256937273430121 1
gene  1 26 297 0.5443358845499529 0 36788.0 0.5443358845499529 1
gene  1 24 70 0.25083456156943573 0 36824.0 0.25083456156943573 1
gene  1 174 178 5.406245436437877 0 36853.0 5.406245436437877 1
gene  1 15 174 -2.3411140871678953 0 36944.0 -2.3411140871678953 1
gene  1 188 178 -2.2362148191253617 0 36962.0 -2.2362148191253617 1
gene  1 15 72 -0.8506555089573529 0 36977.0 -0.8506555089573529 1
gene  1 66 54 1.0698154732067535 0 37021.0 1.0698154732067535 1
gene  1 212 177 -0.1349126492324837 0 37108.0 -0.1349126492324837 1
gene  1 10 244 -3.8626461453314698 0 37115.0 -3.8626461453314698 1
gene  1 27 291 -1.9786731610091692 0 37132.0 -1.9786731610091692 1
gene  1 4 68 -0.2534263772130896 0 37136.0 -0.2534263772130896 1
gene  1 5 416 -1.5944283600417029 0 37142.0 -1.5944283600417029 1
gene  1 416 188 0.08165971281354822 0 37143.0 0.08165971281354822 1
gene  1 17 217 -1.3359903092562004 0 37209.0 -1.3359903092562004 1
gene  1 5 187 2.1948122550865894 0 37211.0 2.1948122550865894 1
gene  1 43 433 -6.242468810337802 0 37218.0 -6.242468810337802 1
gene  1 433 66 0.8547949416927756 0 37219.0 0.8547949416927756 1
gene  1 75 436 1.7919054198640112 1 37227.0 1.7919054198640112 1
gene  1 436 59 -3.3064674362220825 0 37228.0 -3.3064674362220825 1
gene  1 244 60 -0.5464938515599149 0 37235.0 -0.5464938515599149 1
gene  1 416 73 0.9162719191214566 0 37246.0 0.9162719191214566 1
gene  1 60 447 1.408211649091261 0 37271.0 1.408211649091261 1
gene  1 447 73 0.3969498488147445 0 37272.0 0.3969498488147445 1
gene  1 42 69 -2.523921335600453 0 37308.0 -2.523921335600453 1
gene  1 15 464 -0.3853660355177152 0 37342.0 -0.3853660355177152 1
gene  1 464 176 -5.447327266842413 0 37343.0 -5.447327266842413 1
gene  1 51 187 -1.3345801524678542 0 37380.0 -1.3345801524678542 1
gene  1 26 185 4.525666634092198 0 37427.0 4.525666634092198 1
gene  1 51 185 1.8778400841401468 0 37512.0 1.8778400841401468 1
gene  1 20 180 1.8427121622705784 0 37552.0 1.8427121622705784 1
gene  1 23 511 -3.3752009145149047 0 37568.0 -3.3752009145149047 1
gene  1 511 186 4.923711263358979 0 37569.0 4.923711263358979 1
gene  1 66 63 -1.2923259433245038 0 37632.0 -1.2923259433245038 1
gene  1 186 71 -3.1679561368483062 0 37664.0 -3.1679561368483062 1
gene  1 28 416 -0.7718785729365637 0 37673.0 -0.7718785729365637 1
gene  1 175 537 -2.553004533179439 1 37692.0 -2.553004533179439 1
gene  1 537 62 -0.7759763194867976 0 37693.0 -0.7759763194867976 1
gene  1 43 180 2.3492566435931836 0 37705.0 2.3492566435931836 1
gene  1 4 63 -4.136318916286433 0 37794.0 -4.136318916286433 1
gene  1 41 188 -1.6507435922143203 0 37797.0 -1.6507435922143203 1
gene  1 70 566 -1.1421639065334102 0 37810.0 -1.1421639065334102 1
gene  1 566 175 5.397721963902109 0 37811.0 5.397721963902109 1
gene  1 51 180 3.8428356826977805 0 37819.0 3.8428356826977805 1
gene  1 185 217 0.13993611926045674 0 37826.0 0.13993611926045674 1
gene  1 2 183 -0.7322937165344523 0 37861.0 -0.7322937165344523 1
gene  1 44 588 -2.4552925267538144 0 37889.0 -2.4552925267538144 1
gene  1 588 183 -1.3776187454495974 0 37890.0 -1.3776187454495974 1
gene  1 341 433 -0.8414329306329682 0 37895.0 -0.8414329306329682 1
gene  1 60 182 -0.2864623011889425 0 37962.0 -0.2864623011889425 1
gene  1 43 56 -0.6701470307678495 0 38052.0 -0.6701470307678495 1
gene  1 174 628 1.3945625523846816 1 38060.0 1.3945625523846816 1
gene  1 628 174 1.9136087217813216 0 38061.0 1.9136087217813216 1
gene  1 52 57 2.6766432264371574 0 38081.0 2.6766432264371574 1
gene  1 64 635 3.9448277812917762 0 38091.0 3.9448277812917762 1
gene  1 635 176 -1.5218887719267973 0 38092.0 -1.5218887719267973 1
gene  1 341 638 -1.7541500425971421 0 38100.0 -1.7541500425971421 1
gene  1 638 173 0.5194235744993512 0 38101.0 0.5194235744993512 1
gene  1 180 644 3.7169325074895574 1 38135.0 3.7169325074895574 1
gene  1 644 173 2.105645141046026 0 38136.0 2.105645141046026 1
gene  1 62 188 -1.7569197106058787 0 38145.0 -1.7569197106058787 1
gene  1 188 657 0.9239061651436349 1 38192.0 0.9239061651436349 1
gene  1 657 185 2.1218832902758473 0 38193.0 2.1218832902758473 1
gene  1 50 566 -1.295615535597637 0 38195.0 -1.295615535597637 1
gene  1 45 667 2.954565813119511 0 38237.0 2.954565813119511 1
gene  1 667 69 0.8395750072143184 0 38238.0 0.8395750072143184 1
gene  1 433 244 -0.44764907954888455 0 38266.0 -0.44764907954888455 1
gene  1 3 683 -1.4542796226081154 0 38320.0 -1.4542796226081154 1
gene  1 683 186 -0.7312299259451172 0 38321.0 -0.7312299259451172 1
gene  1 20 684 -1.7727886251431495 0 38328.0 -1.7727886251431495 1
gene  1 684 183 1.6748726523776014 0 38329.0 1.6748726523776014 1
gene  1 193 66 2.1946242558466507 0 38335.0 2.1946242558466507 1
gene  1 61 690 -1.8531294654898893 1 38351.0 -1.8531294654898893 1
gene  1 690 60 0.18484538850160548 0 38352.0 0.18484538850160548 1
gene  1 65 67 0.2640512809844209 0 38401.0 0.2640512809844209 1
gene  1 31 172 3.35144841942971 0 38434.0 3.35144841942971 1
gene  1 37 709 0.6226769042492577 0 38463.0 0.6226769042492577 1
gene  1 709 175 -1.731341265316672 0 38464.0 -1.731341265316672 1
gene  1 61 186 4.258545842433192 0 38470.0 4.258545842433192 1
gene  1 27 73 -4.978297947943443 0 38488.0 -4.978297947943443 1
gene  1 212 56 -2.6942166564842838 0 38499.0 -2.6942166564842838 1
gene  1 61 718 -0.018383623634445345 0 38501.0 -0.018383623634445345 1
gene  1 718 67 0.5803368921995926 0 38502.0 0.5803368921995926 1
gene  1 64 728 0.4322368364952206 0 38550.0 0.4322368364952206 1
gene  1 728 56 1.2486458536836964 0 38551.0 1.2486458536836964 1
gene  1 68 684 0.6305128368416923 0 38567.0 0.6305128368416923 1
gene  1 35 733 -1.6080250608830893 0 38570.0 -1.6080250608830893 1
gene  1 733 230 -2.14129951779899 0 38571.0 -2.14129951779899 1
gene  1 36 436 1.753633885356932 0 38577.0 1.753633885356932 1
gene  1 30 72 -1.9978853288488898 0 38597.0 -1.9978853288488898 1
gene  1 53 185 -2.057066620188791 0 38599.0 -2.057066620188791 1
gene  1 22 186 -1.3647850309556222 0 38641.0 -1.3647850309556222 1
gene  1 43 759 2.2423647673143074 0 38697.0 2.2423647673143074 1
gene  1 759 66 -0.16222150215008968 0 38698.0 -0.16222150215008968 1
gene  1 7 760 2.857807483420146 0 38700.0 2.857807483420146 1
gene  1 760 177 -1.3986984259457405 0 38701.0 -1.3986984259457405 1
gene  1 174 638 2.1856647876594097 0 38749.0 2.1856647876594097 1
gene  1 73 772 3.511095205156612 1 38759.0 3.511095205156612 1
gene  1 772 54 0.41125694619734265 0 38760.0 0.41125694619734265 1
gene  1 68 69 -2.2421157523742212 0 38783.0 -2.2421157523742212 1
gene  1 244 683 0.1716020145676591 0 38809.0 0.1716020145676591 1
gene  1 42 176 -0.5181999432341559 0 38848.0 -0.5181999432341559 1
gene  1 55 801 -0.49924840787582186 0 38882.0 -0.49924840787582186 1
gene  1 801 58 -6.2182878770201135 0 38883.0 -6.2182878770201135 1
gene  1 60 804 1.573140452506666 0 38892.0 1.573140452506666 1
gene  1 804 182 -2.126585622109579 0 38893.0 -2.126585622109579 1
gene  1 772 804 4.665605166066964 0 38933.0 4.665605166066964 1
gene  1 804 638 2.8185304259153185 0 38987.0 2.8185304259153185 1
gene  1 5 834 -3.8425780272558683 0 39022.0 -3.8425780272558683 1
gene  1 834 68 -0.6199777725544953 0 39023.0 -0.6199777725544953 1
gene  1 18 588 -3.1530076365768727 0 39025.0 -3.1530076365768727 1
gene  1 12 184 1.3274383036026833 0 39055.0 1.3274383036026833 1
gene  1 3 511 -10.284486934611667 0 39081.0 -10.284486934611667 1
genomeend 0
/* Organism # 001 Fitness:  1715,486 Error:  1000,000                      */
genomestart  1
trait 1 5.376846045458965 1.332319878163207 1.5581829187033471 2.441392960833722 1.4408962979620408 3.5469175681260694 1.0175458497000984 2.9738450621677126 
node 1 1 1 1
node 2 1 1 1
node 3 1 1 1
node 4 1 1 1
node 5 1 1 1
node 6 1 1 1
node 7 1 1 1
node 8 1 1 1
node 9 1 1 1
node 10 1 1 1
node 11 1 1 1
node 12 1 1 1
node 13 1 1 1
node 14 1 1 1
node 15 1 1 1
node 16 1 1 1
node 17 1 1 1
node 18 1 1 1
node 19 1 1 1
node 20 1 1 1
node 21 1 1 1
node 22 1 1 1
node 23 1 1 1
node 24 1 1 1
node 25 1 1 1
node 26 1 1 1
node 27 1 1 1
node 28 1 1 1
node 29 1 1 1
node 30 1 1 1
node 31 1 1 1
node 32 1 1 1
node 33 1 1 1
node 34 1 1 1
node 35 1 1 1
node 36 1 1 1
node 37 1 1 1
node 38 1 1 1
node 39 1 1 1
node 40 1 1 1
node 41 1 1 1
node 42 1 1 1
node 43 1 1 1
node 44 1 1 1
node 45 1 1 1
node 46 1 1 1
node 47 1 1 1
node 48 1 1 1
node 49 1 1 1
node 50 1 1 3
node 51 1 0 0
node 52 1 0 0
node 53 1 0 0
node 54 1 0 0
node 55 1 0 0
node 56 1 0 0
node 57 1 0 0
node 58 1 0 0
node 59 1 0 0
node 60 1 0 0
node 61 1 0 0
node 62 1 0 0
node 63 1 0 0
node 64 1 0 0
node 65 1 0 0
node 66 1 0 0
node 67 1 0 0
node 68 1 0 0
node 69 1 0 0
node 70 1 0 0
node 71 1 0 0
node 72 1 0 0
node 73 1 0 0
node 74 1 0 0
node 75 1 0 0
node 171 1 0 2
node 172 1 0 2
node 173 1 0 2
node 174 1 0 2
node 175 1 0 2
node 176 1 0 2
node 177 1 0 2
node 178 1 0 2
node 179 1 0 2
node 180 1 0 2
node 181 1 0 2
node 182 1 0 2
node 183 1 0 2
node 184 1 0 2
node 185 1 0 2
node 186 1 0 2
node 187 1 0 2
node 188 1 0 2
node 189 1 0 2
node 190 1 0 2
node 193 1 0 0
node 195 1 0 0
node 212 1 0 0
node 217 1 0 0
node 230 1 0 0
node 244 1 0 0
node 291 1 0 0
node 297 1 0 0
node 300 1 0 0
node 321 1 0 0
node 325 1 0 0
node 334 1 0 0
node 341 1 0 0
node 416 1 0 0
node 433 1 0 0
node 436 1 0 0
node 447 1 0 0
node 464 1 0 0
node 511 1 0 0
node 537 1 0 0
node 566 1 0 0
node 588 1 0 0
node 628 1 0 0
node 635 1 0 0
node 638 1 0 0
node 644 1 0 0
node 657 1 0 0
node 667 1 0 0
node 683 1 0 0
node 684 1 0 0
node 690 1 0 0
node 709 1 0 0
node 718 1 0 0
node 728 1 0 0
node 733 1 0 0
node 759 1 0 0
node 760 1 0 0
node 772 1 0 0
node 801 1 0 0
node 804 1 0 0
node 834 1 0 0
gene  1 28 51 -13.626114984011938 0 9527.0 -13.626114984011938 1
gene  1 33 51 -9.587268667480934 0 9532.0 -9.587268667480934 1
gene  1 36 51 -1.2353327266641714 0 9535.0 -1.2353327266641714 1
gene  1 40 51 1.3616531415064936 0 9539.0 1.3616531415064936 1
gene  1 42 51 3.6116430558136057 0 9541.0 3.6116430558136057 1
gene  1 54 51 2.1749484568079165 1 9553.0 2.1749484568079165 1
gene  1 57 51 0.8892143220029982 1 9556.0 0.8892143220029982 1
gene  1 68 51 -6.610489213144469 1 9567.0 -6.610489213144469 1
gene  1 174 51 2.884994357505517 1 9673.0 2.884994357505517 1
gene  1 183 51 8.73925945509389 1 9682.0 8.73925945509389 1
gene  1 184 51 -7.031647700500483 1 9683.0 -7.031647700500483 1
gene  1 189 51 0.44832393137134385 1 9688.0 0.44832393137134385 1
gene  1 3 52 -3.604184336881316 0 9692.0 -3.604184336881316 1
gene  1 6 52 2.1120439919681084 0 9695.0 2.1120439919681084 1
gene  1 24 52 3.733278404613459 0 9713.0 3.733278404613459 1
gene  1 29 52 -0.6601472873963037 0 9718.0 -0.6601472873963037 1
gene  1 31 52 -3.636289884662208 0 9720.0 -3.636289884662208 1
gene  1 35 52 3.517281335862809 0 9724.0 3.517281335862809 1
gene  1 63 52 -2.2901337997351123 1 9752.0 -2.2901337997351123 1
gene  1 179 52 4.511603370294139 1 9868.0 4.511603370294139 1
gene  1 183 52 3.7634964603064365 1 9872.0 3.7634964603064365 1
gene  1 184 52 3.687697472436823 1 9873.0 3.687697472436823 1
gene  1 185 52 -4.653628359437311 1 9874.0 -4.653628359437311 1
gene  1 5 53 6.682285055124743 0 9884.0 6.682285055124743 1
gene  1 6 53 8.157743303880856 0 9885.0 8.157743303880856 1
gene  1 10 53 -2.2349015392577147 0 9889.0 -2.2349015392577147 1
gene  1 33 53 9.734434881571197 0 9912.0 9.734434881571197 1
gene  1 35 53 1.4400080604933794 0 9914.0 1.4400080604933794 1
gene  1 38 53 -10.132084591321412 0 9917.0 -10.132084591321412 1
gene  1 45 53 2.509901288613871 0 9924.0 2.509901288613871 1
gene  1 71 53 5.069188282537903 1 9950.0 5.069188282537903 1
gene  1 16 54 1.8920391572044781 0 10085.0 1.8920391572044781 1
gene  1 19 54 -6.315195873110164 0 10088.0 -6.315195873110164 1
gene  1 36 54 1.5577806249843702 0 10105.0 1.5577806249843702 1
gene  1 42 54 -1.8480508667990891 0 10111.0 -1.8480508667990891 1
gene  1 58 54 0.43097916763827976 1 10127.0 0.43097916763827976 1
gene  1 62 54 -3.0623213691561104 1 10131.0 -3.0623213691561104 1
gene  1 73 54 -0.38021793469494725 1 10142.0 -0.38021793469494725 1
gene  1 177 54 0.8889685901117959 1 10246.0 0.8889685901117959 1
gene  1 180 54 9.252934966319394 1 10249.0 9.252934966319394 1
gene  1 190 54 2.8075438302585867 1 10259.0 2.8075438302585867 1
gene  1 20 55 2.9821071983196576 0 10279.0 2.9821071983196576 1
gene  1 31 55 6.714088421526602 0 10290.0 6.714088421526602 1
gene  1 35 55 3.996971201092555 0 10294.0 3.996971201092555 1
gene  1 41 55 -1.5742993589275451 0 10300.0 -1.5742993589275451 1
gene  1 47 55 2.306713856866827 0 10306.0 2.306713856866827 1
gene  1 52 55 -1.1204223266473496 0 10311.0 -1.1204223266473496 1
gene  1 69 55 1.237852309898154 1 10328.0 1.237852309898154 1
gene  1 75 55 -2.3327171795452633 1 10334.0 -2.3327171795452633 1
gene  1 187 55 -2.8267634415459755 1 10446.0 -2.8267634415459755 1
gene  1 7 56 1.691696631139105 0 10456.0 1.691696631139105 1
gene  1 11 56 -5.201793557960306 0 10460.0 -5.201793557960306 1
gene  1 13 56 -0.43435536762361027 0 10462.0 -0.43435536762361027 1
gene  1 36 56 -2.8518350371594043 0 10485.0 -2.8518350371594043 1
gene  1 41 56 -4.7380322402491135 0 10490.0 -4.7380322402491135 1
gene  1 44 56 2.1680778676899117 0 10493.0 2.1680778676899117 1
gene  1 46 56 0.32444549465789496 0 10495.0 0.32444549465789496 1
gene  1 49 56 6.5551921217101885 0 10498.0 6.5551921217101885 1
gene  1 68 56 3.7970786766244604 1 10517.0 3.7970786766244604 1
gene  1 179 56 4.918176584261179 1 10628.0 4.918176584261179 1
gene  1 183 56 1.4165945304199548 1 10632.0 1.4165945304199548 1
gene  1 3 57 -0.8801110829224448 0 10642.0 -0.8801110829224448 1
gene  1 19 57 -14.716401643043648 0 10658.0 -14.716401643043648 1
gene  1 22 57 -1.9476979846254432 0 10661.0 -1.9476979846254432 1
gene  1 28 57 -2.190952149852384 0 10667.0 -2.190952149852384 1
gene  1 30 57 0.1598979394947575 0 10669.0 0.1598979394947575 1
gene  1 35 57 -7.80398565601603 0 10674.0 -7.80398565601603 1
gene  1 47 57 3.979702440122023 0 10686.0 3.979702440122023 1
gene  1 59 57 -3.7312243692331313 1 10698.0 -3.7312243692331313 1
gene  1 60 57 1.8378092865278965 1 10699.0 1.8378092865278965 1
gene  1 187 57 1.0694315167791912 1 10826.0 1.0694315167791912 1
gene  1 5 58 -8.933949042825777 0 10834.0 -8.933949042825777 1
gene  1 14 58 -4.046651460433831 0 10843.0 -4.046651460433831 1
gene  1 15 58 1.8481749949039479 0 10844.0 1.8481749949039479 1
gene  1 24 58 1.901412848780402 0 10853.0 1.901412848780402 1
gene  1 32 58 0.24843908859131142 0 10861.0 0.24843908859131142 1
gene  1 43 58 2.6170564524003286 0 10872.0 2.6170564524003286 1
gene  1 49 58 0.04918770251261506 0 10878.0 0.04918770251261506 1
gene  1 53 58 4.0611543711394535 0 10882.0 4.0611543711394535 1
gene  1 62 58 4.116781171417892 1 10891.0 4.116781171417892 1
gene  1 64 58 1.8900245809754577 1 10893.0 1.8900245809754577 1
gene  1 69 58 -0.7198009475427578 1 10898.0 -0.7198009475427578 1
gene  1 182 58 2.162247212415427 1 11011.0 2.162247212415427 1
gene  1 1 59 -3.195504478178231 0 11020.0 -3.195504478178231 1
gene  1 4 59 -0.6835641716972769 0 11023.0 -0.6835641716972769 1
gene  1 27 59 2.522388776823429 0 11046.0 2.522388776823429 1
gene  1 34 59 0.49657410472422425 0 11053.0 0.49657410472422425 1
gene  1 37 59 -0.8534220909977612 0 11056.0 -0.8534220909977612 1
gene  1 44 59 8.765670840524312 0 11063.0 8.765670840524312 1
gene  1 59 59 -1.3812696074024666 1 11078.0 -1.3812696074024666 1
gene  1 73 59 -7.300711415544958 1 11092.0 -7.300711415544958 1
gene  1 75 59 0.42994322953069086 1 11094.0 0.42994322953069086 1
gene  1 183 59 -0.9741595525196232 1 11202.0 -0.9741595525196232 1
gene  1 185 59 -1.6854948727979884 1 11204.0 -1.6854948727979884 1
gene  1 8 60 -4.087288655162978 0 11217.0 -4.087288655162978 1
gene  1 10 60 -4.571309064618335 0 11219.0 -4.571309064618335 1
gene  1 40 60 4.990458983637746 0 11249.0 4.990458983637746 1
gene  1 45 60 -12.196195007322718 0 11254.0 -12.196195007322718 1
gene  1 61 60 2.0501049145552317 1 11270.0 2.0501049145552317 1
gene  1 72 60 2.87901766708219 1 11281.0 2.87901766708219 1
gene  1 177 60 0.4099563676509965 1 11386.0 0.4099563676509965 1
gene  1 179 60 -0.27476524799461094 1 11388.0 -0.27476524799461094 1
gene  1 187 60 -2.0695003988327887 1 11396.0 -2.0695003988327887 1
gene  1 7 61 4.4277541998292955 0 11406.0 4.4277541998292955 1
gene  1 15 61 -1.0252279018541466 0 11414.0 -1.0252279018541466 1
gene  1 22 61 1.0807021362958853 0 11421.0 1.0807021362958853 1
gene  1 28 61 3.934583474987024 0 11427.0 3.934583474987024 1
gene  1 36 61 -0.23197856078692958 0 11435.0 -0.23197856078692958 1
gene  1 53 61 -0.852914121383118 0 11452.0 -0.852914121383118 1
gene  1 54 61 -6.6646238546770995 0 11453.0 -6.6646238546770995 1
gene  1 67 61 19.879125168477287 1 11466.0 19.879125168477287 1
gene  1 177 61 -0.6754007358664971 1 11576.0 -0.6754007358664971 1
gene  1 184 61 -3.3495184608771007 1 11583.0 -3.3495184608771007 1
gene  1 6 62 -0.340092584134475 0 11595.0 -0.340092584134475 1
gene  1 11 62 2.029850222342244 0 11600.0 2.029850222342244 1
gene  1 15 62 -5.3365930642678965 0 11604.0 -5.3365930642678965 1
gene  1 26 62 6.142217718626027 0 11615.0 6.142217718626027 1
gene  1 53 62 -0.09136579790604848 0 11642.0 -0.09136579790604848 1
gene  1 68 62 2.193125958891202 1 11657.0 2.193125958891202 1
gene  1 72 62 -3.419915528197494 1 11661.0 -3.419915528197494 1
gene  1 174 62 2.759278105082756 1 11763.0 2.759278105082756 1
gene  1 175 62 -5.507214707611482 1 11764.0 -5.507214707611482 1
gene  1 184 62 1.7874807396364234 1 11773.0 1.7874807396364234 1
gene  1 185 62 -2.001778685712969 1 11774.0 -2.001778685712969 1
gene  1 188 62 -2.291659040295239 1 11777.0 -2.291659040295239 1
gene  1 31 63 -3.0437207068569867 0 11810.0 -3.0437207068569867 1
gene  1 32 63 -3.719956940794581 0 11811.0 -3.719956940794581 1
gene  1 37 63 -2.3393216716142446 0 11816.0 -2.3393216716142446 1
gene  1 38 63 -9.332166142008788 0 11817.0 -9.332166142008788 1
gene  1 42 63 -2.5214543830206555 0 11821.0 -2.5214543830206555 1
gene  1 46 63 2.5930215833365695 0 11825.0 2.5930215833365695 1
gene  1 48 63 -1.0032342663195666 0 11827.0 -1.0032342663195666 1
gene  1 50 63 0.12920379386543024 0 11829.0 0.12920379386543024 1
gene  1 60 63 3.996065678979834 0 11839.0 3.996065678979834 1
gene  1 63 63 -2.31721425996311 1 11842.0 -2.31721425996311 1
gene  1 72 63 14.546569438055506 1 11851.0 14.546569438055506 1
gene  1 74 63 -8.256067951101578 1 11853.0 -8.256067951101578 1
gene  1 178 63 -3.298326948613738 1 11957.0 -3.298326948613738 1
gene  1 180 63 3.287928867897333 1 11959.0 3.287928867897333 1
gene  1 181 63 -0.9700974916646832 1 11960.0 -0.9700974916646832 1
gene  1 8 64 14.616355422521094 0 11977.0 14.616355422521094 1
gene  1 11 64 -2.0663051775396006 0 11980.0 -2.0663051775396006 1
gene  1 20 64 -10.736535656394127 0 11989.0 -10.736535656394127 1
gene  1 27 64 -13.660500967876315 0 11996.0 -13.660500967876315 1
gene  1 41 64 11.24972732289682 0 12010.0 11.24972732289682 1
gene  1 44 64 -0.9143622938543163 0 12013.0 -0.9143622938543163 1
gene  1 49 64 3.3900771560062637 0 12018.0 3.3900771560062637 1
gene  1 50 64 2.1757457342198485 0 12019.0 2.1757457342198485 1
gene  1 53 64 3.272682428779831 0 12022.0 3.272682428779831 1
gene  1 59 64 0.5289404678452314 0 12028.0 0.5289404678452314 1
gene  1 70 64 -0.6821893416954405 1 12039.0 -0.6821893416954405 1
gene  1 176 64 2.5375650942718 1 12145.0 2.5375650942718 1
gene  1 179 64 0.3270482376870414 1 12148.0 0.3270482376870414 1
gene  1 183 64 1.1886921015591856 1 12152.0 1.1886921015591856 1
gene  1 184 64 -2.5223176469552024 1 12153.0 -2.5223176469552024 1
gene  1 185 64 14.783674237691713 1 12154.0 14.783674237691713 1
gene  1 8 65 -2.0001404204581994 0 12167.0 -2.0001404204581994 1
gene  1 13 65 -6.768480717958711 0 12172.0 -6.768480717958711 1
gene  1 18 65 6.199087663477343 0 12177.0 6.199087663477343 1
gene  1 39 65 1.3784625235409242 0 12198.0 1.3784625235409242 1
gene  1 53 65 -3.363833504048887 0 12212.0 -3.363833504048887 1
gene  1 69 65 -2.2418206291839273 1 12228.0 -2.2418206291839273 1
gene  1 70 65 -3.9897536701729788 1 12229.0 -3.9897536701729788 1
gene  1 175 65 -11.18445472597929 1 12334.0 -11.18445472597929 1
gene  1 176 65 6.055202878440184 1 12335.0 6.055202878440184 1
gene  1 177 65 3.9734721331511524 1 12336.0 3.9734721331511524 1
gene  1 185 65 5.155343779890458 1 12344.0 5.155343779890458 1
gene  1 1 66 -0.978853845099869 0 12350.0 -0.978853845099869 1
gene  1 4 66 1.7049013996435685 0 12353.0 1.7049013996435685 1
gene  1 18 66 10.114970889914607 0 12367.0 10.114970889914607 1
gene  1 21 66 1.5416930706968188 0 12370.0 1.5416930706968188 1
gene  1 43 66 -0.5637637075655106 0 12392.0 -0.5637637075655106 1
gene  1 47 66 -6.02059549446086 0 12396.0 -6.02059549446086 1
gene  1 50 66 -4.65377765139314 0 12399.0 -4.65377765139314 1
gene  1 60 66 0.5394667462164562 0 12409.0 0.5394667462164562 1
gene  1 62 66 3.5424654807096916 0 12411.0 3.5424654807096916 1
gene  1 66 66 4.8553353396406935 1 12415.0 4.8553353396406935 1
gene  1 184 66 0.4761083462204131 1 12533.0 0.4761083462204131 1
gene  1 8 67 6.762826209908662 0 12547.0 6.762826209908662 1
gene  1 38 67 2.3329133568212197 0 12577.0 2.3329133568212197 1
gene  1 46 67 0.9819148680808089 0 12585.0 0.9819148680808089 1
gene  1 49 67 -3.944844770766764 0 12588.0 -3.944844770766764 1
gene  1 57 67 -1.3387816648612134 0 12596.0 -1.3387816648612134 1
gene  1 61 67 -7.883881242310951 0 12600.0 -7.883881242310951 1
gene  1 72 67 -8.843111941313916 1 12611.0 -8.843111941313916 1
gene  1 177 67 -14.486640940122617 1 12716.0 -14.486640940122617 1
gene  1 182 67 -9.903549626180588 1 12721.0 -9.903549626180588 1
gene  1 185 67 1.4509970979721074 1 12724.0 1.4509970979721074 1
gene  1 189 67 0.19493452771996234 1 12728.0 0.19493452771996234 1
gene  1 5 68 -1.223819528289908 0 12734.0 -1.223819528289908 0
gene  1 16 68 -2.434185510796138 0 12745.0 -2.434185510796138 1
gene  1 40 68 -7.402345881709888 0 12769.0 -7.402345881709888 1
gene  1 41 68 3.144971344358024 0 12770.0 3.144971344358024 1
gene  1 42 68 -1.7462978769448942 0 12771.0 -1.7462978769448942 1
gene  1 71 68 -6.110921032631699 1 12800.0 -6.110921032631699 1
gene  1 185 68 -0.36684695446175947 1 12914.0 -0.36684695446175947 1
gene  1 6 69 -4.381235804454607 0 12925.0 -4.381235804454607 1
gene  1 16 69 6.647113051706034 0 12935.0 6.647113051706034 1
gene  1 19 69 0.5775391505024465 0 12938.0 0.5775391505024465 1
gene  1 44 69 1.1536935135121233 0 12963.0 1.1536935135121233 1
gene  1 45 69 -5.37599849192133 0 12964.0 -5.37599849192133 1
gene  1 65 69 4.648374472315215 0 12984.0 4.648374472315215 1
gene  1 171 69 -3.1587803360828746 1 13090.0 -3.1587803360828746 1
gene  1 3 70 -2.4730955029768857 0 13112.0 -2.4730955029768857 1
gene  1 39 70 -2.395373138526705 0 13148.0 -2.395373138526705 1
gene  1 60 70 4.3753366534149265 0 13169.0 4.3753366534149265 1
gene  1 171 70 -3.9112517667495643 1 13280.0 -3.9112517667495643 1
gene  1 181 70 0.7953700816132008 1 13290.0 0.7953700816132008 1
gene  1 183 70 0.19751432253254197 1 13292.0 0.19751432253254197 1
gene  1 11 71 4.4081655296782145 0 13310.0 4.4081655296782145 1
gene  1 15 71 2.0773550519617148 0 13314.0 2.0773550519617148 1
gene  1 30 71 5.496696247358065 0 13329.0 5.496696247358065 1
gene  1 33 71 6.229861051502851 0 13332.0 6.229861051502851 1
gene  1 34 71 0.9073449897197854 0 13333.0 0.9073449897197854 1
gene  1 48 71 -2.0919103328745408 0 13347.0 -2.0919103328745408 1
gene  1 50 71 1.2213541314489509 0 13349.0 1.2213541314489509 1
gene  1 51 71 -5.054938065314458 0 13350.0 -5.054938065314458 1
gene  1 57 71 -1.421330134186231 0 13356.0 -1.421330134186231 1
gene  1 73 71 0.5337546330611539 1 13372.0 0.5337546330611539 1
gene  1 185 71 -6.514527739002295 1 13484.0 -6.514527739002295 1
gene  1 24 72 -1.5549683643328998 0 13513.0 -1.5549683643328998 1
gene  1 51 72 1.4069600460920368 0 13540.0 1.4069600460920368 1
gene  1 54 72 -7.488036997876147 0 13543.0 -7.488036997876147 1
gene  1 60 72 1.98066761171477 0 13549.0 1.98066761171477 1
gene  1 3 73 -5.324011118229656 0 13682.0 -5.324011118229656 1
gene  1 18 73 2.908471025279314 0 13697.0 2.908471025279314 1
gene  1 30 73 -4.642366891920466 0 13709.0 -4.642366891920466 1
gene  1 41 73 -0.2832064216521668 0 13720.0 -0.2832064216521668 1
gene  1 54 73 13.243693821222159 0 13733.0 13.243693821222159 1
gene  1 59 73 1.4934943230329174 0 13738.0 1.4934943230329174 1
gene  1 60 73 2.2690179464133666 0 13739.0 2.2690179464133666 1
gene  1 179 73 10.313454485325561 1 13858.0 10.313454485325561 1
gene  1 189 73 -0.9950051572125018 1 13868.0 -0.9950051572125018 1
gene  1 31 74 3.274119671967335 0 13900.0 3.274119671967335 1
gene  1 38 74 -4.22029067019891 0 13907.0 -4.22029067019891 1
gene  1 67 74 0.3552364126935843 0 13936.0 0.3552364126935843 1
gene  1 74 74 -3.3147149156826963 1 13943.0 -3.3147149156826963 1
gene  1 188 74 -18.955177873390273 1 14057.0 -18.955177873390273 1
gene  1 2 75 -0.18920561755868381 0 14061.0 -0.18920561755868381 1
gene  1 10 75 0.29924407719037216 0 14069.0 0.29924407719037216 1
gene  1 12 75 -4.281244421513231 0 14071.0 -4.281244421513231 1
gene  1 15 75 8.609768255214679 0 14074.0 8.609768255214679 1
gene  1 18 75 -1.1854651623924723 0 14077.0 -1.1854651623924723 1
gene  1 43 75 2.3506276248710085 0 14102.0 2.3506276248710085 1
gene  1 46 75 0.17354854036159884 0 14105.0 0.17354854036159884 1
gene  1 56 75 0.41207949612794925 0 14115.0 0.41207949612794925 1
gene  1 57 75 -14.303015858711083 0 14116.0 -14.303015858711083 1
gene  1 177 75 6.029345084813599 1 14236.0 6.029345084813599 1
gene  1 183 75 -6.98439698445301 1 14242.0 -6.98439698445301 1
gene  1 3 171 6.808002993978121 0 32302.0 6.808002993978121 1
gene  1 10 171 1.629328170679378 0 32309.0 1.629328170679378 1
gene  1 18 171 15.68553338023376 0 32317.0 15.68553338023376 1
gene  1 35 171 4.90417298552522 0 32334.0 4.90417298552522 1
gene  1 47 171 -4.084924603041969 0 32346.0 -4.084924603041969 1
gene  1 48 171 0.3276972341583574 0 32347.0 0.3276972341583574 1
gene  1 63 171 -4.574345997955136 0 32362.0 -4.574345997955136 1
gene  1 74 171 -2.3626026490289602 0 32373.0 -2.3626026490289602 1
gene  1 171 171 -8.426671379864858 1 32470.0 -8.426671379864858 1
gene  1 180 171 1.4715559252559383 1 32479.0 1.4715559252559383 1
gene  1 181 171 9.125855840420858 1 32480.0 9.125855840420858 1
gene  1 16 172 -7.979350615053132 0 32505.0 -7.979350615053132 1
gene  1 38 172 0.4392446846188638 0 32527.0 0.4392446846188638 1
gene  1 58 172 -1.6366501809044456 0 32547.0 -1.6366501809044456 1
gene  1 59 172 1.2531682973639247 0 32548.0 1.2531682973639247 1
gene  1 60 172 0.5917319652488957 0 32549.0 0.5917319652488957 1
gene  1 73 172 -6.27469417822345 0 32562.0 -6.27469417822345 1
gene  1 171 172 -1.2337302426467929 0 32660.0 -1.2337302426467929 1
gene  1 173 172 -0.36801684790085565 1 32662.0 -0.36801684790085565 1
gene  1 7 173 -2.4361164867841425 0 32686.0 -2.4361164867841425 1
gene  1 29 173 2.36561411152241 0 32708.0 2.36561411152241 1
gene  1 30 173 -4.514091983351147 0 32709.0 -4.514091983351147 1
gene  1 38 173 3.0682256534749137 0 32717.0 3.0682256534749137 1
gene  1 56 173 3.870670461301776 0 32735.0 3.870670461301776 1
gene  1 68 173 1.6027115618542842 0 32747.0 1.6027115618542842 1
gene  1 72 173 2.1753719989641 0 32751.0 2.1753719989641 1
gene  1 75 173 -1.6274528118560176 0 32754.0 -1.6274528118560176 1
gene  1 180 173 -5.9505078679124646 1 32859.0 -5.9505078679124646 1
gene  1 45 174 9.330966320211752 0 32914.0 9.330966320211752 1
gene  1 174 174 -8.144914886990446 1 33043.0 -8.144914886990446 1
gene  1 180 174 -9.181979050074661 1 33049.0 -9.181979050074661 1
gene  1 186 174 2.254417210401587 1 33055.0 2.254417210401587 1
gene  1 2 175 1.778482680774073 0 33061.0 1.778482680774073 1
gene  1 11 175 -7.098888837734356 0 33070.0 -7.098888837734356 1
gene  1 26 175 -2.025072098220486 0 33085.0 -2.025072098220486 1
gene  1 37 175 -3.8179129469451616 0 33096.0 -3.8179129469451616 1
gene  1 43 175 2.398717805454252 0 33102.0 2.398717805454252 1
gene  1 48 175 -1.5372166915778094 0 33107.0 -1.5372166915778094 1
gene  1 51 175 7.7940744183955655 0 33110.0 7.7940744183955655 1
gene  1 64 175 3.268963634049725 0 33123.0 3.268963634049725 1
gene  1 70 175 -3.6076752450960896 0 33129.0 -3.6076752450960896 1
gene  1 71 175 8.551999232310484 0 33130.0 8.551999232310484 1
gene  1 177 175 -15.46821828951168 1 33236.0 -15.46821828951168 1
gene  1 178 175 -5.034853425104374 1 33237.0 -5.034853425104374 1
gene  1 181 175 3.286646036661537 1 33240.0 3.286646036661537 1
gene  1 184 175 5.450268163180892 1 33243.0 5.450268163180892 1
gene  1 186 175 -1.904074264791766 1 33245.0 -1.904074264791766 1
gene  1 2 176 2.492334881969416 0 33251.0 2.492334881969416 1
gene  1 8 176 1.8591350697946372 0 33257.0 1.8591350697946372 1
gene  1 9 176 11.004691959084475 0 33258.0 11.004691959084475 1
gene  1 12 176 4.551608925519752 0 33261.0 4.551608925519752 1
gene  1 15 176 6.2131434142064075 0 33264.0 6.2131434142064075 1
gene  1 16 176 1.6375784857805435 0 33265.0 1.6375784857805435 1
gene  1 35 176 18.082595072256172 0 33284.0 18.082595072256172 1
gene  1 37 176 2.0838736362931343 0 33286.0 2.0838736362931343 1
gene  1 46 176 -2.536112876251665 0 33295.0 -2.536112876251665 1
gene  1 62 176 6.313254275576334 0 33311.0 6.313254275576334 1
gene  1 64 176 7.935528445092103 0 33313.0 7.935528445092103 1
gene  1 171 176 1.8263971145751328 0 33420.0 1.8263971145751328 1
gene  1 174 176 -8.296804603288294 0 33423.0 -8.296804603288294 1
gene  1 179 176 6.106156611265591 1 33428.0 6.106156611265591 1
gene  1 1 177 1.8703968706234002 0 33440.0 1.8703968706234002 1
gene  1 7 177 -4.619738861157716 0 33446.0 -4.619738861157716 1
gene  1 8 177 10.604124858409008 0 33447.0 10.604124858409008 1
gene  1 9 177 0.7518285584203812 0 33448.0 0.7518285584203812 1
gene  1 14 177 3.8685161709947176 0 33453.0 3.8685161709947176 1
gene  1 16 177 0.3405550151526442 0 33455.0 0.3405550151526442 1
gene  1 20 177 12.498923503564285 0 33459.0 12.498923503564285 1
gene  1 30 177 3.6330715987930335 0 33469.0 3.6330715987930335 1
gene  1 31 177 -1.613638675430368 0 33470.0 -1.613638675430368 1
gene  1 32 177 -16.62500878177563 0 33471.0 -16.62500878177563 1
gene  1 43 177 8.094203363996801 0 33482.0 8.094203363996801 1
gene  1 44 177 2.489688542069662 0 33483.0 2.489688542069662 1
gene  1 53 177 -1.5459551061173062 0 33492.0 -1.5459551061173062 1
gene  1 59 177 4.0004298441637705 0 33498.0 4.0004298441637705 1
gene  1 69 177 1.2879567709265314 0 33508.0 1.2879567709265314 1
gene  1 174 177 3.2109147525417203 0 33613.0 3.2109147525417203 1
gene  1 175 177 -1.2285038207622674 0 33614.0 -1.2285038207622674 1
gene  1 184 177 -1.0478071116621652 1 33623.0 -1.0478071116621652 1
gene  1 187 177 -0.49752081204325105 1 33626.0 -0.49752081204325105 1
gene  1 1 178 0.8628168638023436 0 33630.0 0.8628168638023436 1
gene  1 20 178 1.0391795762744953 0 33649.0 1.0391795762744953 1
gene  1 26 178 -1.3500063980398387 0 33655.0 -1.3500063980398387 1
gene  1 35 178 -2.5757939107506624 0 33664.0 -2.5757939107506624 1
gene  1 42 178 -0.4674759215300941 0 33671.0 -0.4674759215300941 1
gene  1 53 178 0.42009841533387804 0 33682.0 0.42009841533387804 1
gene  1 59 178 4.5408939805515836 0 33688.0 4.5408939805515836 1
gene  1 72 178 0.13430364890158386 0 33701.0 0.13430364890158386 1
gene  1 172 178 0.8286956442254232 0 33801.0 0.8286956442254232 1
gene  1 190 178 2.925882430193219 1 33819.0 2.925882430193219 1
gene  1 6 179 -7.752020867170346 0 33825.0 -7.752020867170346 1
gene  1 8 179 -12.591625853598494 0 33827.0 -12.591625853598494 1
gene  1 13 179 -4.203470713723507 0 33832.0 -4.203470713723507 1
gene  1 36 179 7.348436268422141 0 33855.0 7.348436268422141 1
gene  1 46 179 0.27104703480291636 0 33865.0 0.27104703480291636 1
gene  1 60 179 5.230036475961389 0 33879.0 5.230036475961389 1
gene  1 61 179 -5.3193039492650955 0 33880.0 -5.3193039492650955 1
gene  1 72 179 3.8358260747268353 0 33891.0 3.8358260747268353 1
gene  1 74 179 -13.197648423645703 0 33893.0 -13.197648423645703 1
gene  1 171 179 3.187315451969055 0 33990.0 3.187315451969055 1
gene  1 185 179 4.324113316352943 1 34004.0 4.324113316352943 1
gene  1 1 180 4.8415156937257136 0 34010.0 4.8415156937257136 1
gene  1 4 180 -3.5557600033962635 0 34013.0 -3.5557600033962635 1
gene  1 8 180 -0.46548076504337743 0 34017.0 -0.46548076504337743 1
gene  1 11 180 -2.1038306387238914 0 34020.0 -2.1038306387238914 1
gene  1 21 180 4.892305815726735 0 34030.0 4.892305815726735 1
gene  1 32 180 3.1981306865220374 0 34041.0 3.1981306865220374 1
gene  1 35 180 7.186349356666331 0 34044.0 7.186349356666331 1
gene  1 46 180 -2.3145177354868656 0 34055.0 -2.3145177354868656 1
gene  1 68 180 4.019182237972286 0 34077.0 4.019182237972286 1
gene  1 188 180 0.3427688171392701 1 34197.0 0.3427688171392701 1
gene  1 2 181 -13.65905185964309 0 34201.0 -13.65905185964309 1
gene  1 16 181 -9.40208296509056 0 34215.0 -9.40208296509056 1
gene  1 24 181 -0.5531684979854552 0 34223.0 -0.5531684979854552 1
gene  1 36 181 -7.674718477339069 0 34235.0 -7.674718477339069 1
gene  1 60 181 -2.0155240598383095 0 34259.0 -2.0155240598383095 1
gene  1 69 181 -2.0553928941061645 0 34268.0 -2.0553928941061645 1
gene  1 190 181 2.473460633477515 1 34389.0 2.473460633477515 1
gene  1 1 182 1.046861539739362 0 34390.0 1.046861539739362 1
gene  1 17 182 7.031666778943615 0 34406.0 7.031666778943615 1
gene  1 35 182 15.299341946715993 0 34424.0 15.299341946715993 1
gene  1 44 182 -2.5007308894458773 0 34433.0 -2.5007308894458773 1
gene  1 49 182 1.0504346984562607 0 34438.0 1.0504346984562607 1
gene  1 50 182 -0.4435961391390766 0 34439.0 -0.4435961391390766 1
gene  1 54 182 -10.706755148943488 0 34443.0 -10.706755148943488 1
gene  1 59 182 2.842388223044122 0 34448.0 2.842388223044122 1
gene  1 73 182 1.0889162905701828 0 34462.0 1.0889162905701828 1
gene  1 174 182 -16.660182524392386 0 34563.0 -16.660182524392386 1
gene  1 187 182 -0.7142038358749028 1 34576.0 -0.7142038358749028 1
gene  1 6 183 1.3786070491587563 0 34585.0 1.3786070491587563 1
gene  1 7 183 0.2715155061591374 0 34586.0 0.2715155061591374 1
gene  1 17 183 3.580898694750673 0 34596.0 3.580898694750673 1
gene  1 20 183 -1.696072417475332 0 34599.0 -1.696072417475332 1
gene  1 25 183 -6.535183125850496 0 34604.0 -6.535183125850496 1
gene  1 30 183 -2.6690079453809146 0 34609.0 -2.6690079453809146 1
gene  1 39 183 -2.0157061833700647 0 34618.0 -2.0157061833700647 1
gene  1 44 183 -3.497862973802953 0 34623.0 -3.497862973802953 1
gene  1 66 183 -22.111087203534424 0 34645.0 -22.111087203534424 1
gene  1 171 183 0.8868321602688352 0 34750.0 0.8868321602688352 1
gene  1 174 183 3.0627995611118983 0 34753.0 3.0627995611118983 1
gene  1 21 184 7.731851226059043 0 34790.0 7.731851226059043 1
gene  1 29 184 14.676178336149484 0 34798.0 14.676178336149484 1
gene  1 32 184 -2.3118718292347564 0 34801.0 -2.3118718292347564 1
gene  1 36 184 3.9098399589998047 0 34805.0 3.9098399589998047 1
gene  1 45 184 2.2131896737151884 0 34814.0 2.2131896737151884 1
gene  1 46 184 -4.42562127678033 0 34815.0 -4.42562127678033 1
gene  1 63 184 4.909314672116761 0 34832.0 4.909314672116761 1
gene  1 66 184 -1.5231915332473442 0 34835.0 -1.5231915332473442 1
gene  1 177 184 -3.5588693737344412 0 34946.0 -3.5588693737344412 1
gene  1 31 185 2.3180114076995753 0 34990.0 2.3180114076995753 1
gene  1 50 185 7.187809515519996 0 35009.0 7.187809515519996 1
gene  1 56 185 -3.6619581994831516 0 35015.0 -3.6619581994831516 1
gene  1 58 185 0.03464900234066093 0 35017.0 0.03464900234066093 1
gene  1 62 185 0.653281635150931 0 35021.0 0.653281635150931 1
gene  1 173 185 -2.196089335804771 0 35132.0 -2.196089335804771 1
gene  1 179 185 2.633092875990461 0 35138.0 2.633092875990461 1
gene  1 182 185 -6.569596316176481 0 35141.0 -6.569596316176481 1
gene  1 188 185 -0.844603672736769 1 35147.0 -0.844603672736769 1
gene  1 1 186 -0.723854260929313 0 35150.0 -0.723854260929313 1
gene  1 3 186 -0.5130922362113368 0 35152.0 -0.5130922362113368 1
gene  1 4 186 -2.6900408686366957 0 35153.0 -2.6900408686366957 1
gene  1 6 186 -1.4106805939448797 0 35155.0 -1.4106805939448797 1
gene  1 7 186 2.7214077089964452 0 35156.0 2.7214077089964452 1
gene  1 17 186 2.9524195931037354 0 35166.0 2.9524195931037354 1
gene  1 23 186 -4.54548149120248 0 35172.0 -4.54548149120248 1
gene  1 28 186 -2.0558181342616697 0 35177.0 -2.0558181342616697 1
gene  1 33 186 8.746166847564215 0 35182.0 8.746166847564215 1
gene  1 36 186 3.94764038022163 0 35185.0 3.94764038022163 1
gene  1 58 186 0.3580139773800588 0 35207.0 0.3580139773800588 1
gene  1 69 186 -0.10957677332503213 0 35218.0 -0.10957677332503213 1
gene  1 70 186 -0.6100451878336595 0 35219.0 -0.6100451878336595 1
gene  1 72 186 -5.507250349639362 0 35221.0 -5.507250349639362 1
gene  1 10 187 8.635945734331766 0 35349.0 8.635945734331766 1
gene  1 25 187 5.161278752644686 0 35364.0 5.161278752644686 1
gene  1 31 187 4.8306375534662775 0 35370.0 4.8306375534662775 1
gene  1 33 187 0.43289236647152296 0 35372.0 0.43289236647152296 1
gene  1 47 187 -2.302787136198817 0 35386.0 -2.302787136198817 1
gene  1 57 187 -3.917710109935266 0 35396.0 -3.917710109935266 1
gene  1 183 187 5.3378618160366695 0 35522.0 5.3378618160366695 1
gene  1 184 187 -3.420255631936029 0 35523.0 -3.420255631936029 1
gene  1 5 188 0.6808143393148012 0 35534.0 0.6808143393148012 1
gene  1 6 188 -0.14667308087025344 0 35535.0 -0.14667308087025344 1
gene  1 12 188 -8.592266467074701 0 35541.0 -8.592266467074701 1
gene  1 28 188 -0.6839003215813086 0 35557.0 -0.6839003215813086 1
gene  1 32 188 -2.0818398449270803 0 35561.0 -2.0818398449270803 1
gene  1 35 188 1.7498164970971049 0 35564.0 1.7498164970971049 1
gene  1 57 188 3.7612423962315393 0 35586.0 3.7612423962315393 1
gene  1 172 188 -6.784508220983511 0 35701.0 -6.784508220983511 1
gene  1 14 189 -1.340561349824069 0 35733.0 -1.340561349824069 1
gene  1 17 189 -0.007366663252224903 0 35736.0 -0.007366663252224903 1
gene  1 27 189 7.066529640249303 0 35746.0 7.066529640249303 1
gene  1 37 189 -14.47551688956022 0 35756.0 -14.47551688956022 1
gene  1 43 189 1.1317244219067415 0 35762.0 1.1317244219067415 1
gene  1 51 189 10.06470998652505 0 35770.0 10.06470998652505 1
gene  1 56 189 -4.330540859693058 0 35775.0 -4.330540859693058 1
gene  1 59 189 -2.667434739344201 0 35778.0 -2.667434739344201 1
gene  1 65 189 -1.980148927970589 0 35784.0 -1.980148927970589 1
gene  1 73 189 -9.872545853097472 0 35792.0 -9.872545853097472 1
gene  1 74 189 -3.2832684828869243 0 35793.0 -3.2832684828869243 1
gene  1 178 189 -0.12517491226552024 0 35897.0 -0.12517491226552024 1
gene  1 1 190 -6.218105969245499 0 35910.0 -6.218105969245499 1
gene  1 4 190 -6.127384002716852 0 35913.0 -6.127384002716852 1
gene  1 15 190 3.925981065003099 0 35924.0 3.925981065003099 1
gene  1 22 190 -4.470198506843239 0 35931.0 -4.470198506843239 1
gene  1 33 190 2.6767934691438393 0 35942.0 2.6767934691438393 1
gene  1 58 190 0.1857802502293633 0 35967.0 0.1857802502293633 1
gene  1 60 190 -1.2762522115719643 0 35969.0 -1.2762522115719643 1
gene  1 67 190 10.783274955617054 0 35976.0 10.783274955617054 1
gene  1 179 190 9.675076498377726 0 36088.0 9.675076498377726 1
gene  1 181 190 -11.367193377616697 0 36090.0 -11.367193377616697 1
gene  1 182 190 0.9397307031870624 0 36091.0 0.9397307031870624 1
gene  1 184 190 5.602796926073273 0 36093.0 5.602796926073273 1
gene  1 186 190 -0.7251998007541083 0 36095.0 -0.7251998007541083 1
gene  1 187 190 0.18512731532431925 0 36096.0 0.18512731532431925 1
gene  1 65 188 -11.007925113295393 0 36109.0 -11.007925113295393 1
gene  1 1 193 0.6193147362597906 0 36113.0 0.6193147362597906 1
gene  1 193 190 1.4481009873194162 0 36114.0 1.4481009873194162 1
gene  1 29 68 -0.8642641314838961 0 36116.0 -0.8642641314838961 1
gene  1 181 195 3.1496911954757456 1 36120.0 3.1496911954757456 1
gene  1 195 63 2.1043564356087594 0 36121.0 2.1043564356087594 1
gene  1 7 171 6.198654636705514 0 36125.0 6.198654636705514 1
gene  1 22 72 -1.136678672972185 0 36150.0 -1.136678672972185 1
gene  1 47 212 -3.6068889257433137 0 36196.0 -3.6068889257433137 1
gene  1 212 55 4.378825895866439 0 36197.0 4.378825895866439 1
gene  1 55 58 1.7042947127951478 0 36200.0 1.7042947127951478 1
gene  1 33 217 -4.005456101781262 0 36231.0 -4.005456101781262 1
gene  1 217 187 4.746810128847724 0 36232.0 4.746810128847724 1
gene  1 69 56 -2.250150430710191 0 36255.0 -2.250150430710191 1
gene  1 51 173 6.194146756764419 0 36261.0 6.194146756764419 1
gene  1 35 230 4.4090358328369454 0 36282.0 4.4090358328369454 1
gene  1 230 57 -3.6398646403981854 0 36283.0 -3.6398646403981854 1
gene  1 43 244 -0.20863329470341996 0 36330.0 -0.20863329470341996 1
gene  1 244 189 4.003402649756281 0 36331.0 4.003402649756281 1
gene  1 13 172 -3.259445572394357 0 36334.0 -3.259445572394357 1
gene  1 52 230 1.2807840164202606 0 36357.0 1.2807840164202606 1
gene  1 68 188 0.6434140907653185 0 36380.0 0.6434140907653185 1
gene  1 12 54 -3.800697517425334 0 36383.0 -3.800697517425334 1
gene  1 181 74 6.288568612963777 0 36429.0 6.288568612963777 1
gene  1 61 177 -1.404066737488017 0 36460.0 -1.404066737488017 1
gene  1 20 184 2.6926753267726653 0 36496.0 2.6926753267726653 1
gene  1 190 176 -0.6800109322383893 0 36516.0 -0.6800109322383893 1
gene  1 22 291 2.367216577121094 0 36524.0 2.367216577121094 1
gene  1 291 190 -2.319901870809446 0 36525.0 -2.319901870809446 1
gene  1 75 174 -9.084604809063674 0 36555.0 -9.084604809063674 1
gene  1 35 297 -7.566514770472215 0 36562.0 -7.566514770472215 1
gene  1 297 171 4.2009975322650215 0 36563.0 4.2009975322650215 1
gene  1 33 184 5.762034863992441 0 36565.0 5.762034863992441 1
gene  1 35 186 4.10229020627873 0 36569.0 4.10229020627873 1
gene  1 51 300 2.560454314477841 0 36574.0 2.560454314477841 1
gene  1 300 71 -3.460438477817937 0 36575.0 -3.460438477817937 1
gene  1 49 172 -0.24630977413975352 0 36658.0 -0.24630977413975352 1
gene  1 75 177 -0.8625994166984341 0 36665.0 -0.8625994166984341 1
gene  1 53 321 1.0558969209122973 0 36673.0 1.0558969209122973 1
gene  1 321 62 -2.3656846845987816 0 36674.0 -2.3656846845987816 1
gene  1 47 62 -4.164388105834169 0 36689.0 -4.164388105834169 1
gene  1 41 67 -2.9889891607640484 0 36692.0 -2.9889891607640484 1
gene  1 182 325 -4.109080412218775 1 36701.0 -4.109080412218775 1
gene  1 325 67 -0.3907533666360742 0 36702.0 -0.3907533666360742 1
gene  1 195 178 0.43012818361289673 0 36719.0 0.43012818361289673 1
gene  1 64 56 2.5866485112562296 0 36723.0 2.5866485112562296 1
gene  1 37 334 -2.0404103017619706 0 36742.0 -2.0404103017619706 1
gene  1 334 175 0.01889913406921906 0 36743.0 0.01889913406921906 1
gene  1 56 341 0.23881363467640526 0 36772.0 0.23881363467640526 1
gene  1 341 173 0.7995185374831353 0 36773.0 0.7995185374831353 1
gene  1 26 297 1.0382182393310804 0 36788.0 1.0382182393310804 1
gene  1 24 70 1.237638910007917 0 36824.0 1.237638910007917 1
gene  1 174 178 4.620207422014239 0 36853.0 4.620207422014239 1
gene  1 15 174 -3.4943169732833472 0 36944.0 -3.4943169732833472 1
gene  1 188 178 -1.670530236316409 0 36962.0 -1.670530236316409 1
gene  1 15 72 0.2173535924447791 0 36977.0 0.2173535924447791 1
gene  1 66 54 2.49078541228077 0 37021.0 2.49078541228077 1
gene  1 212 177 -3.0404963934421714 0 37108.0 -3.0404963934421714 1
gene  1 10 244 -4.790670112266094 0 37115.0 -4.790670112266094 1
gene  1 27 291 -3.6345858668714834 0 37132.0 -3.6345858668714834 1
gene  1 4 68 -2.1728034971697263 0 37136.0 -2.1728034971697263 1
gene  1 5 416 -1.6095052162390422 0 37142.0 -1.6095052162390422 1
gene  1 416 188 -0.3109057661096837 0 37143.0 -0.3109057661096837 1
gene  1 17 217 -0.8730762119375917 0 37209.0 -0.8730762119375917 1
gene  1 5 187 0.18375701465803612 0 37211.0 0.18375701465803612 1
gene  1 43 433 -6.98994589633905 0 37218.0 -6.98994589633905 1
gene  1 433 66 -1.7091004724679064 0 37219.0 -1.7091004724679064 1
gene  1 75 436 0.41518878289584005 1 37227.0 0.41518878289584005 1
gene  1 436 59 -2.436001222274454 0 37228.0 -2.436001222274454 1
gene  1 244 60 -2.9278457989626676 0 37235.0 -2.9278457989626676 1
gene  1 416 73 0.6023883887780629 0 37246.0 0.6023883887780629 1
gene  1 60 447 -1.091254699132388 0 37271.0 -1.091254699132388 1
gene  1 447 73 2.3071719385683895 0 37272.0 2.3071719385683895 1
gene  1 42 69 -2.482035318028141 0 37308.0 -2.482035318028141 1
gene  1 15 464 -2.364647241032618 0 37342.0 -2.364647241032618 1
gene  1 464 176 -3.0077458834369093 0 37343.0 -3.0077458834369093 1
gene  1 51 187 -3.1433461553604465 0 37380.0 -3.1433461553604465 1
gene  1 26 185 2.5720059958933255 0 37427.0 2.5720059958933255 1
gene  1 51 185 -0.3357634227308648 0 37512.0 -0.3357634227308648 1
gene  1 20 180 0.8959107897075619 0 37552.0 0.8959107897075619 1
gene  1 23 511 -5.263119517310603 0 37568.0 -5.263119517310603 1
gene  1 511 186 2.761022787662773 0 37569.0 2.761022787662773 1
gene  1 66 63 -2.470384678389659 0 37632.0 -2.470384678389659 1
gene  1 186 71 -2.867802199165883 0 37664.0 -2.867802199165883 1
gene  1 28 416 -0.7718785729365637 0 37673.0 -0.7718785729365637 1
gene  1 175 537 -1.55861009552659 1 37692.0 -1.55861009552659 1
gene  1 537 62 -1.4684121661582634 0 37693.0 -1.4684121661582634 1
gene  1 43 180 0.41902683703670873 0 37705.0 0.41902683703670873 1
gene  1 4 63 -2.82636150718906 0 37794.0 -2.82636150718906 1
gene  1 41 188 1.696903291126085 0 37797.0 1.696903291126085 1
gene  1 70 566 -4.390688706123572 0 37810.0 -4.390688706123572 1
gene  1 566 175 3.322936259190694 0 37811.0 3.322936259190694 1
gene  1 51 180 3.026176017088387 0 37819.0 3.026176017088387 1
gene  1 185 217 1.6952991393967665 0 37826.0 1.6952991393967665 1
gene  1 2 183 1.843483053944127 0 37861.0 1.843483053944127 1
gene  1 44 588 -1.530274482915244 0 37889.0 -1.530274482915244 1
gene  1 588 183 -1.807294216403841 0 37890.0 -1.807294216403841 1
gene  1 341 433 -3.3168964355004746 0 37895.0 -3.3168964355004746 1
gene  1 60 182 -0.2864623011889425 0 37962.0 -0.2864623011889425 1
gene  1 43 56 -1.596857802642104 0 38052.0 -1.596857802642104 1
gene  1 174 628 0.746881729432813 1 38060.0 0.746881729432813 1
gene  1 628 174 0.02771614001838535 0 38061.0 0.02771614001838535 1
gene  1 52 57 3.3206048239715544 0 38081.0 3.3206048239715544 1
gene  1 64 635 6.333806888054264 0 38091.0 6.333806888054264 1
gene  1 635 176 0.31811727794789046 0 38092.0 0.31811727794789046 1
gene  1 341 638 -4.313255475598765 0 38100.0 -4.313255475598765 1
gene  1 638 173 -1.580320994375332 0 38101.0 -1.580320994375332 1
gene  1 180 644 2.4054183383606187 1 38135.0 2.4054183383606187 1
gene  1 644 173 -0.7438275805281283 0 38136.0 -0.7438275805281283 1
gene  1 62 188 -3.4901084199281986 0 38145.0 -3.4901084199281986 1
gene  1 188 657 2.3155644471462287 1 38192.0 2.3155644471462287 1
gene  1 657 185 0.946117502081395 0 38193.0 0.946117502081395 1
gene  1 50 566 -1.6952063801850872 0 38195.0 -1.6952063801850872 1
gene  1 45 667 0.11663460366939515 0 38237.0 0.11663460366939515 1
gene  1 667 69 -0.05187268874867451 0 38238.0 -0.05187268874867451 1
gene  1 433 244 -1.3167679818389124 0 38266.0 -1.3167679818389124 1
gene  1 3 683 1.3132291334109762 0 38320.0 1.3132291334109762 1
gene  1 683 186 0.69070271163466 0 38321.0 0.69070271163466 1
gene  1 20 684 -0.3754657871810964 0 38328.0 -0.3754657871810964 1
gene  1 684 183 1.6748726523776014 0 38329.0 1.6748726523776014 1
gene  1 193 66 3.2749488967935982 0 38335.0 3.2749488967935982 1
gene  1 61 690 -2.091785705525593 1 38351.0 -2.091785705525593 1
gene  1 690 60 -1.5638454382161138 0 38352.0 -1.5638454382161138 1
gene  1 65 67 -0.9687085147854044 0 38401.0 -0.9687085147854044 1
gene  1 31 172 1.2165209998549371 0 38434.0 1.2165209998549371 1
gene  1 37 709 -0.7017920452484667 0 38463.0 -0.7017920452484667 1
gene  1 709 175 0.29762198638233817 0 38464.0 0.29762198638233817 1
gene  1 61 186 3.655442504411524 0 38470.0 3.655442504411524 1
gene  1 27 73 -4.325426567524196 0 38488.0 -4.325426567524196 1
gene  1 212 56 -1.0510707596913125 0 38499.0 -1.0510707596913125 1
gene  1 61 718 3.1033098028398536 0 38501.0 3.1033098028398536 1
gene  1 718 67 -1.6105311558297022 0 38502.0 -1.6105311558297022 1
gene  1 64 728 -1.3028999525339304 0 38550.0 -1.3028999525339304 1
gene  1 728 56 2.934784112308367 0 38551.0 2.934784112308367 1
gene  1 68 684 2.652692643636479 0 38567.0 2.652692643636479 1
gene  1 35 733 -3.0407951218447065 0 38570.0 -3.0407951218447065 1
gene  1 733 230 -2.1392837522899755 0 38571.0 -2.1392837522899755 1
gene  1 36 436 1.753633885356932 0 38577.0 1.753633885356932 1
gene  1 30 72 -3.180764870738532 0 38597.0 -3.180764870738532 1
gene  1 53 185 -2.127543714592351 0 38599.0 -2.127543714592351 1
gene  1 22 186 -3.1145585194717738 0 38641.0 -3.1145585194717738 1
gene  1 43 759 1.5866082338710732 0 38697.0 1.5866082338710732 1
gene  1 759 66 -2.2205628139244933 0 38698.0 -2.2205628139244933 1
gene  1 7 760 2.0740127203307246 0 38700.0 2.0740127203307246 1
gene  1 760 177 1.14708105633694 0 38701.0 1.14708105633694 1
gene  1 174 638 1.749409801100346 0 38749.0 1.749409801100346 1
gene  1 73 772 1.0593401587993334 1 38759.0 1.0593401587993334 1
gene  1 772 54 0.5739017013563736 0 38760.0 0.5739017013563736 1
gene  1 68 69 3.2710063644639455 0 38783.0 3.2710063644639455 1
gene  1 244 683 -0.3196370673638502 0 38809.0 -0.3196370673638502 1
gene  1 42 176 0.8249952316602546 0 38848.0 0.8249952316602546 1
gene  1 55 801 0.36412820806518226 0 38882.0 0.36412820806518226 1
gene  1 801 58 1.0970238081101429 0 38883.0 1.0970238081101429 1
gene  1 60 804 0.6400574113061204 0 38892.0 0.6400574113061204 1
gene  1 804 182 1.1682794607972415 0 38893.0 1.1682794607972415 1
gene  1 772 804 2.3219493439538343 0 38933.0 2.3219493439538343 1
gene  1 804 638 1.7574713849670625 0 38987.0 1.7574713849670625 1
gene  1 5 834 -0.8447621693886505 0 39022.0 -0.8447621693886505 1
gene  1 834 68 -1.206208997976871 0 39023.0 -1.206208997976871 1
gene  1 18 588 -1.6340402476059492 0 39025.0 -1.6340402476059492 1
gene  1 12 184 0.3154441413757614 0 39055.0 0.3154441413757614 1
gene  1 3 511 -8.168021010153069 0 39081.0 -8.168021010153069 1
genomeend 1
/* Organism # 002 Fitness:  1630,112 Error:  1000,000                      */
genomestart  2
trait 1 5.376846045458965 1.332319878163207 1.5581829187033471 2.441392960833722 1.4408962979620408 3.5469175681260694 1.0175458497000984 2.9738450621677126 
node 1 1 1 1
node 2 1 1 1
node 3 1 1 1
node 4 1 1 1
node 5 1 1 1
node 6 1 1 1
node 7 1 1 1
node 8 1 1 1
node 9 1 1 1
node 10 1 1 1
node 11 1 1 1
node 12 1 1 1
node 13 1 1 1
node 14 1 1 1
node 15 1 1 1
node 16 1 1 1
node 17 1 1 1
node 18 1 1 1
node 19 1 1 1
node 20 1 1 1
node 21 1 1 1
node 22 1 1 1
node 23 1 1 1
node 24 1 1 1
node 25 1 1 1
node 26 1 1 1
node 27 1 1 1
node 28 1 1 1
node 29 1 1 1
node 30 1 1 1
node 31 1 1 1
node 32 1 1 1
node 33 1 1 1
node 34 1 1 1
node 35 1 1 1
node 36 1 1 1
node 37 1 1 1
node 38 1 1 1
node 39 1 1 1
node 40 1 1 1
node 41 1 1 1
node 42 1 1 1
node 43 1 1 1
node 44 1 1 1
node 45 1 1 1
node 46 1 1 1
node 47 1 1 1
node 48 1 1 1
node 49 1 1 1
node 50 1 1 3
node 51 1 0 0
node 52 1 0 0
node 53 1 0 0
node 54 1 0 0
node 55 1 0 0
node 56 1 0 0
node 57 1 0 0
node 58 1 0 0
node 59 1 0 0
node 60 1 0 0
node 61 1 0 0
node 62 1 0 0
node 63 1 0 0
node 64 1 0 0
node 65 1 0 0
node 66 1 0 0
node 67 1 0 0
node 68 1 0 0
node 69 1 0 0
node 70 1 0 0
node 71 1 0 0
node 72 1 0 0
node 73 1 0 0
node 74 1 0 0
node 75 1 0 0
node 171 1 0 2
node 172 1 0 2
node 173 1 0 2
node 174 1 0 2
node 175 1 0 2
node 176 1 0 2
node 177 1 0 2
node 178 1 0 2
node 179 1 0 2
node 180 1 0 2
node 181 1 0 2
node 182 1 0 2
node 183 1 0 2
node 184 1 0 2
node 185 1 0 2
node 186 1 0 2
node 187 1 0 2
node 188 1 0 2
node 189 1 0 2
node 190 1 0 2
node 193 1 0 0
node 195 1 0 0
node 212 1 0 0
node 217 1 0 0
node 230 1 0 0
node 244 1 0 0
node 291 1 0 0
node 297 1 0 0
node 300 1 0 0
node 321 1 0 0
node 325 1 0 0
node 334 1 0 0
node 341 1 0 0
node 416 1 0 0
node 433 1 0 0
node 436 1 0 0
node 447 1 0 0
node 464 1 0 0
node 511 1 0 0
node 537 1 0 0
node 566 1 0 0
node 588 1 0 0
node 628 1 0 0
node 635 1 0 0
node 638 1 0 0
node 644 1 0 0
node 657 1 0 0
node 667 1 0 0
node 683 1 0 0
node 684 1 0 0
node 690 1 0 0
node 709 1 0 0
node 718 1 0 0
node 728 1 0 0
node 733 1 0 0
node 759 1 0 0
node 760 1 0 0
node 772 1 0 0
node 801 1 0 0
node 804 1 0 0
node 834 1 0 0
gene  1 28 51 -6.228663051714063 0 9527.0 -6.228663051714063 1
gene  1 33 51 -9.396243440064055 0 9532.0 -9.396243440064055 1
gene  1 36 51 0.45049343195239305 0 9535.0 0.45049343195239305 1
gene  1 40 51 1.1682026971679615 0 9539.0 1.1682026971679615 1
gene  1 42 51 3.453474764504252 0 9541.0 3.453474764504252 1
gene  1 54 51 0.21645581903854305 1 9553.0 0.21645581903854305 1
gene  1 57 51 1.0809932732906593 1 9556.0 1.0809932732906593 1
gene  1 68 51 -6.242748803627491 1 9567.0 -6.242748803627491 1
gene  1 174 51 0.9918983327422386 1 9673.0 0.9918983327422386 1
gene  1 183 51 10.104806737674991 1 9682.0 10.104806737674991 1
gene  1 184 51 -7.031647700500483 1 9683.0 -7.031647700500483 1
gene  1 189 51 1.07503249316516 1 9688.0 1.07503249316516 1
gene  1 3 52 -0.9213470545904344 0 9692.0 -0.9213470545904344 1
gene  1 6 52 2.5225779729169306 0 9695.0 2.5225779729169306 1
gene  1 24 52 3.3541642901847215 0 9713.0 3.3541642901847215 1
gene  1 29 52 -0.09316852945013798 0 9718.0 -0.09316852945013798 1
gene  1 31 52 -5.678654153876494 0 9720.0 -5.678654153876494 1
gene  1 35 52 0.22566391246967743 0 9724.0 0.22566391246967743 1
gene  1 63 52 -0.8250365000494757 1 9752.0 -0.8250365000494757 1
gene  1 179 52 3.939158535312141 1 9868.0 3.939158535312141 1
gene  1 183 52 3.950868142286077 1 9872.0 3.950868142286077 1
gene  1 184 52 3.687697472436823 1 9873.0 3.687697472436823 1
gene  1 185 52 -2.691826125666002 1 9874.0 -2.691826125666002 1
gene  1 5 53 6.967836227890185 0 9884.0 6.967836227890185 1
gene  1 6 53 8.998440253217302 0 9885.0 8.998440253217302 1
gene  1 10 53 -0.4421586350185013 0 9889.0 -0.4421586350185013 1
gene  1 33 53 9.961205003922014 0 9912.0 9.961205003922014 1
gene  1 35 53 0.8115472742025999 0 9914.0 0.8115472742025999 1
gene  1 38 53 -6.923631348185768 0 9917.0 -6.923631348185768 1
gene  1 45 53 1.5313158033485894 0 9924.0 1.5313158033485894 1
gene  1 71 53 4.652695137798329 1 9950.0 4.652695137798329 1
gene  1 16 54 1.702194760533199 0 10085.0 1.702194760533199 1
gene  1 19 54 -6.0356798564018295 0 10088.0 -6.0356798564018295 1
gene  1 36 54 1.2505060757022641 0 10105.0 1.2505060757022641 1
gene  1 42 54 -2.9847708496409333 0 10111.0 -2.9847708496409333 1
gene  1 58 54 -0.3705099903177069 1 10127.0 -0.3705099903177069 1
gene  1 62 54 -6.257617392292843 1 10131.0 -6.257617392292843 1
gene  1 73 54 -2.5454314705876984 1 10142.0 -2.5454314705876984 1
gene  1 177 54 0.801243934859646 1 10246.0 0.801243934859646 1
gene  1 180 54 6.600037186765924 1 10249.0 6.600037186765924 1
gene  1 190 54 3.388397446772414 1 10259.0 3.388397446772414 1
gene  1 20 55 1.4167461160610295 0 10279.0 1.4167461160610295 1
gene  1 31 55 4.447538274896678 0 10290.0 4.447538274896678 1
gene  1 35 55 2.0450042656796943 0 10294.0 2.0450042656796943 1
gene  1 41 55 -1.3047222724521177 0 10300.0 -1.3047222724521177 1
gene  1 47 55 3.1055501139774684 0 10306.0 3.1055501139774684 1
gene  1 52 55 0.6540432371634735 0 10311.0 0.6540432371634735 1
gene  1 69 55 -0.0316722981249804 1 10328.0 -0.0316722981249804 1
gene  1 75 55 -0.02539042029742114 1 10334.0 -0.02539042029742114 1
gene  1 187 55 -3.9364270911657875 1 10446.0 -3.9364270911657875 1
gene  1 7 56 2.4659894878005364 0 10456.0 2.4659894878005364 1
gene  1 11 56 -4.442304578417765 0 10460.0 -4.442304578417765 1
gene  1 13 56 0.6322950463689998 0 10462.0 0.6322950463689998 1
gene  1 36 56 -0.5462200012171242 0 10485.0 -0.5462200012171242 1
gene  1 41 56 -4.510867611580941 0 10490.0 -4.510867611580941 1
gene  1 44 56 2.1680778676899117 0 10493.0 2.1680778676899117 1
gene  1 46 56 0.32444549465789496 0 10495.0 0.32444549465789496 1
gene  1 49 56 6.071964706821427 0 10498.0 6.071964706821427 1
gene  1 68 56 4.891454649129544 1 10517.0 4.891454649129544 1
gene  1 179 56 4.041197328603776 1 10628.0 4.041197328603776 1
gene  1 183 56 0.326281054338597 1 10632.0 0.326281054338597 1
gene  1 3 57 1.0000230747403025 0 10642.0 1.0000230747403025 1
gene  1 19 57 -15.609734874523133 0 10658.0 -15.609734874523133 1
gene  1 22 57 -2.303133254404284 0 10661.0 -2.303133254404284 1
gene  1 28 57 -2.190952149852384 0 10667.0 -2.190952149852384 1
gene  1 30 57 1.2312846486012667 0 10669.0 1.2312846486012667 1
gene  1 35 57 -7.80398565601603 0 10674.0 -7.80398565601603 1
gene  1 47 57 0.911549432513237 0 10686.0 0.911549432513237 1
gene  1 59 57 -0.7522497843046032 1 10698.0 -0.7522497843046032 1
gene  1 60 57 1.8378092865278965 1 10699.0 1.8378092865278965 1
gene  1 187 57 0.17915873958380524 1 10826.0 0.17915873958380524 1
gene  1 5 58 -4.129497836267517 0 10834.0 -4.129497836267517 1
gene  1 14 58 -4.428004352887796 0 10843.0 -4.428004352887796 1
gene  1 15 58 2.1913265614268607 0 10844.0 2.1913265614268607 1
gene  1 24 58 2.757098959707278 0 10853.0 2.757098959707278 1
gene  1 32 58 0.7396425234184449 0 10861.0 0.7396425234184449 1
gene  1 43 58 2.008053538871832 0 10872.0 2.008053538871832 1
gene  1 49 58 -1.072665578691519 0 10878.0 -1.072665578691519 1
gene  1 53 58 2.82385842072976 0 10882.0 2.82385842072976 1
gene  1 62 58 3.6104525620691565 1 10891.0 3.6104525620691565 1
gene  1 64 58 -0.001554709049857217 1 10893.0 -0.001554709049857217 1
gene  1 69 58 -1.2760532434484255 1 10898.0 -1.2760532434484255 1
gene  1 182 58 2.0824991106023605 1 11011.0 2.0824991106023605 1
gene  1 1 59 -3.888658783026413 0 11020.0 -3.888658783026413 1
gene  1 4 59 -1.3127408053723935 0 11023.0 -1.3127408053723935 1
gene  1 27 59 3.648401432554801 0 11046.0 3.648401432554801 1
gene  1 34 59 0.06857025977691189 0 11053.0 0.06857025977691189 1
gene  1 37 59 -1.4616160785874075 0 11056.0 -1.4616160785874075 1
gene  1 44 59 8.715291809148619 0 11063.0 8.715291809148619 1
gene  1 59 59 -0.15857243303908897 1 11078.0 -0.15857243303908897 1
gene  1 73 59 -3.2079027884329725 1 11092.0 -3.2079027884329725 1
gene  1 75 59 0.42994322953069086 1 11094.0 0.42994322953069086 1
gene  1 183 59 -1.3097775268441076 1 11202.0 -1.3097775268441076 1
gene  1 185 59 -0.5512280806096305 1 11204.0 -0.5512280806096305 1
gene  1 8 60 -5.37781988615877 0 11217.0 -5.37781988615877 1
gene  1 10 60 -3.193668981725592 0 11219.0 -3.193668981725592 1
gene  1 40 60 4.371317248796477 0 11249.0 4.371317248796477 1
gene  1 45 60 -13.475611125730195 0 11254.0 -13.475611125730195 1
gene  1 61 60 1.2110854264552826 1 11270.0 1.2110854264552826 1
gene  1 72 60 1.0608527736627882 1 11281.0 1.0608527736627882 1
gene  1 177 60 -0.5738363601299723 1 11386.0 -0.5738363601299723 1
gene  1 179 60 0.35530023192885796 1 11388.0 0.35530023192885796 1
gene  1 187 60 -1.9026230852020596 1 11396.0 -1.9026230852020596 1
gene  1 7 61 1.8197112561536897 0 11406.0 1.8197112561536897 1
gene  1 15 61 -0.42340879745974624 0 11414.0 -0.42340879745974624 1
gene  1 22 61 0.8614254071741272 0 11421.0 0.8614254071741272 1
gene  1 28 61 3.934583474987024 0 11427.0 3.934583474987024 1
gene  1 36 61 -3.3064500949235884 0 11435.0 -3.3064500949235884 1
gene  1 53 61 -2.040736176968695 0 11452.0 -2.040736176968695 1
gene  1 54 61 -6.298665478638339 0 11453.0 -6.298665478638339 1
gene  1 67 61 19.013447624926187 1 11466.0 19.013447624926187 1
gene  1 177 61 0.41423696231732055 1 11576.0 0.41423696231732055 1
gene  1 184 61 -3.350448328039174 1 11583.0 -3.350448328039174 1
gene  1 6 62 -0.5734926661250375 0 11595.0 -0.5734926661250375 1
gene  1 11 62 0.07145948947203706 0 11600.0 0.07145948947203706 1
gene  1 15 62 -6.355944555115208 0 11604.0 -6.355944555115208 1
gene  1 26 62 4.857834454447156 0 11615.0 4.857834454447156 1
gene  1 53 62 0.2967444410466387 0 11642.0 0.2967444410466387 1
gene  1 68 62 2.9069960586161 1 11657.0 2.9069960586161 1
gene  1 72 62 -1.9751131935175081 1 11661.0 -1.9751131935175081 1
gene  1 174 62 1.6638223309479268 1 11763.0 1.6638223309479268 1
gene  1 175 62 -4.161142746143923 1 11764.0 -4.161142746143923 1
gene  1 184 62 0.7592404896317893 1 11773.0 0.7592404896317893 1
gene  1 185 62 -2.5867422120596864 1 11774.0 -2.5867422120596864 1
gene  1 188 62 -1.3745337907198145 1 11777.0 -1.3745337907198145 1
gene  1 31 63 -3.829075634484368 0 11810.0 -3.829075634484368 1
gene  1 32 63 -1.3790526557425626 0 11811.0 -1.3790526557425626 1
gene  1 37 63 -1.5907849762077697 0 11816.0 -1.5907849762077697 1
gene  1 38 63 -5.055573333142783 0 11817.0 -5.055573333142783 1
gene  1 42 63 -4.637355227093968 0 11821.0 -4.637355227093968 1
gene  1 46 63 3.289826769748463 0 11825.0 3.289826769748463 1
gene  1 48 63 1.561092488929082 0 11827.0 1.561092488929082 1
gene  1 50 63 0.9828255973977825 0 11829.0 0.9828255973977825 1
gene  1 60 63 2.0398637780938182 0 11839.0 2.0398637780938182 1
gene  1 63 63 -2.4668599511855698 1 11842.0 -2.4668599511855698 1
gene  1 72 63 13.081006704514593 1 11851.0 13.081006704514593 1
gene  1 74 63 -8.007136175332931 1 11853.0 -8.007136175332931 1
gene  1 178 63 -0.6293571161175453 1 11957.0 -0.6293571161175453 1
gene  1 180 63 2.6878954631755803 1 11959.0 2.6878954631755803 1
gene  1 181 63 0.050412819475847914 1 11960.0 0.050412819475847914 1
gene  1 8 64 14.675532527995596 0 11977.0 14.675532527995596 1
gene  1 11 64 -1.9532666974652686 0 11980.0 -1.9532666974652686 1
gene  1 20 64 -10.359325535263864 0 11989.0 -10.359325535263864 1
gene  1 27 64 -8.259598262710261 0 11996.0 -8.259598262710261 1
gene  1 41 64 11.258854744933409 0 12010.0 11.258854744933409 1
gene  1 44 64 -1.5594590906868038 0 12013.0 -1.5594590906868038 1
gene  1 49 64 1.2172338643099225 0 12018.0 1.2172338643099225 1
gene  1 50 64 -0.2876961816090869 0 12019.0 -0.2876961816090869 1
gene  1 53 64 6.43215945051986 0 12022.0 6.43215945051986 1
gene  1 59 64 1.2733360622528482 0 12028.0 1.2733360622528482 1
gene  1 70 64 0.1601305575510693 1 12039.0 0.1601305575510693 1
gene  1 176 64 2.357908414360611 1 12145.0 2.357908414360611 1
gene  1 179 64 1.061818976597669 1 12148.0 1.061818976597669 1
gene  1 183 64 0.7665160161375267 1 12152.0 0.7665160161375267 1
gene  1 184 64 -1.9911658933146816 1 12153.0 -1.9911658933146816 1
gene  1 185 64 14.885325807354016 1 12154.0 14.885325807354016 1
gene  1 8 65 -2.811267708263207 0 12167.0 -2.811267708263207 1
gene  1 13 65 -2.33859216989349 0 12172.0 -2.33859216989349 1
gene  1 18 65 5.874077972704647 0 12177.0 5.874077972704647 1
gene  1 39 65 0.5544040532354745 0 12198.0 0.5544040532354745 1
