/* Species # 007         : (size= 002) (AvfFit= 1525,636) (Age= 206,000)  */
/*-------------------------------------------------------------------*/
/* Organism # 000 Fitness:  1726,586 Error:  1000,000                      */
genomestart  0
trait 1 0.0 0.0 0.3170408640517145 3.7709208457181083 1.2914275193210685 0.2010343562031215 0.9311438990486767 0.9060693763731991 
node 1 1 1 1
node 2 1 1 1
node 3 1 1 1
node 4 1 1 1
node 5 1 1 1
node 6 1 1 1
node 7 1 1 1
node 8 1 1 1
node 9 1 1 1
node 10 1 1 1
node 11 1 1 1
node 12 1 1 1
node 13 1 1 1
node 14 1 1 1
node 15 1 1 1
node 16 1 1 1
node 17 1 1 1
node 18 1 1 1
node 19 1 1 1
node 20 1 1 1
node 21 1 1 1
node 22 1 1 1
node 23 1 1 1
node 24 1 1 1
node 25 1 1 1
node 26 1 1 1
node 27 1 1 1
node 28 1 1 1
node 29 1 1 1
node 30 1 1 1
node 31 1 1 1
node 32 1 1 1
node 33 1 1 1
node 34 1 1 1
node 35 1 1 1
node 36 1 1 1
node 37 1 1 1
node 38 1 1 1
node 39 1 1 1
node 40 1 1 1
node 41 1 1 1
node 42 1 1 1
node 43 1 1 1
node 44 1 1 1
node 45 1 1 1
node 46 1 1 1
node 47 1 1 1
node 48 1 1 1
node 49 1 1 1
node 50 1 1 3
node 51 1 0 0
node 52 1 0 0
node 53 1 0 0
node 54 1 0 0
node 55 1 0 0
node 56 1 0 0
node 57 1 0 0
node 58 1 0 0
node 59 1 0 0
node 60 1 0 0
node 61 1 0 0
node 62 1 0 0
node 63 1 0 0
node 64 1 0 0
node 65 1 0 0
node 66 1 0 0
node 67 1 0 0
node 68 1 0 0
node 69 1 0 0
node 70 1 0 0
node 71 1 0 0
node 72 1 0 0
node 73 1 0 0
node 74 1 0 0
node 75 1 0 0
node 171 1 0 2
node 172 1 0 2
node 173 1 0 2
node 174 1 0 2
node 175 1 0 2
node 176 1 0 2
node 177 1 0 2
node 178 1 0 2
node 179 1 0 2
node 180 1 0 2
node 181 1 0 2
node 182 1 0 2
node 183 1 0 2
node 184 1 0 2
node 185 1 0 2
node 186 1 0 2
node 187 1 0 2
node 188 1 0 2
node 189 1 0 2
node 190 1 0 2
node 193 1 0 0
node 195 1 0 0
node 212 1 0 0
node 217 1 0 0
node 230 1 0 0
node 244 1 0 0
node 291 1 0 0
node 297 1 0 0
node 300 1 0 0
node 321 1 0 0
gene  1 28 51 2.4534350603459805 0 9527.0 2.4534350603459805 1
gene  1 33 51 1.6940545646466136 0 9532.0 1.6940545646466136 1
gene  1 36 51 4.936084868164864 0 9535.0 4.936084868164864 1
gene  1 40 51 -0.8188019390934447 0 9539.0 -0.8188019390934447 1
gene  1 42 51 2.8811255157691047 0 9541.0 2.8811255157691047 1
gene  1 54 51 8.599867471710047 1 9553.0 8.599867471710047 1
gene  1 57 51 -3.10741940733655 1 9556.0 -3.10741940733655 1
gene  1 68 51 0.06545393029705693 1 9567.0 0.06545393029705693 1
gene  1 174 51 0.7107431163023654 1 9673.0 0.7107431163023654 1
gene  1 183 51 2.31648561440754 1 9682.0 2.31648561440754 1
gene  1 184 51 -0.10931583136096057 1 9683.0 -0.10931583136096057 1
gene  1 189 51 -0.0190103955512535 1 9688.0 -0.0190103955512535 1
gene  1 3 52 -1.7642988762559733 0 9692.0 -1.7642988762559733 1
gene  1 6 52 8.599088603503837 0 9695.0 8.599088603503837 1
gene  1 24 52 10.709301550160667 0 9713.0 10.709301550160667 1
gene  1 29 52 6.146924902105594 0 9718.0 6.146924902105594 1
gene  1 31 52 8.442463077598013 0 9720.0 8.442463077598013 1
gene  1 35 52 1.070622989933339 0 9724.0 1.070622989933339 1
gene  1 63 52 0.8281149881231815 1 9752.0 0.8281149881231815 1
gene  1 179 52 13.15823618332577 1 9868.0 13.15823618332577 1
gene  1 183 52 1.616978220947368 1 9872.0 1.616978220947368 1
gene  1 184 52 -2.8443972983069887 1 9873.0 -2.8443972983069887 1
gene  1 185 52 0.7581025596024922 1 9874.0 0.7581025596024922 1
gene  1 5 53 -5.307983135609861 0 9884.0 -5.307983135609861 1
gene  1 6 53 -2.97735167495389 0 9885.0 -2.97735167495389 1
gene  1 10 53 -3.5646686416927444 0 9889.0 -3.5646686416927444 1
gene  1 33 53 -6.018545997679167 0 9912.0 -6.018545997679167 1
gene  1 35 53 -3.9001424002389236 0 9914.0 -3.9001424002389236 1
gene  1 38 53 -1.0032895000438486 0 9917.0 -1.0032895000438486 1
gene  1 45 53 4.009021984439128 0 9924.0 4.009021984439128 1
gene  1 71 53 5.731229178656594 1 9950.0 5.731229178656594 1
gene  1 16 54 -6.654443133944913 0 10085.0 -6.654443133944913 1
gene  1 19 54 4.332488035516367 0 10088.0 4.332488035516367 1
gene  1 36 54 9.871166342043542 0 10105.0 9.871166342043542 1
gene  1 42 54 -1.6374334471667868 0 10111.0 -1.6374334471667868 1
gene  1 58 54 -0.404307813250413 1 10127.0 -0.404307813250413 1
gene  1 62 54 4.713464131031765 1 10131.0 4.713464131031765 1
gene  1 73 54 5.3450664661494445 1 10142.0 5.3450664661494445 1
gene  1 177 54 2.8716473290817097 1 10246.0 2.8716473290817097 1
gene  1 180 54 3.489282817033131 1 10249.0 3.489282817033131 1
gene  1 190 54 -7.884983058763279 1 10259.0 -7.884983058763279 1
gene  1 20 55 2.491192689004101 0 10279.0 2.491192689004101 1
gene  1 31 55 13.490166307340854 0 10290.0 13.490166307340854 1
gene  1 35 55 1.232467518778857 0 10294.0 1.232467518778857 1
gene  1 41 55 -0.007211682456973012 0 10300.0 -0.007211682456973012 1
gene  1 47 55 7.761939158642019 0 10306.0 7.761939158642019 1
gene  1 52 55 0.34141871257059897 0 10311.0 0.34141871257059897 1
gene  1 69 55 -10.29256804782382 1 10328.0 -10.29256804782382 1
gene  1 75 55 -6.642583390279928 1 10334.0 -6.642583390279928 1
gene  1 187 55 -16.33826891411555 1 10446.0 -16.33826891411555 1
gene  1 7 56 2.7520682340415346 0 10456.0 2.7520682340415346 1
gene  1 11 56 2.321803859678721 0 10460.0 2.321803859678721 1
gene  1 13 56 4.79659173889086 0 10462.0 4.79659173889086 1
gene  1 36 56 -0.5951048036812059 0 10485.0 -0.5951048036812059 1
gene  1 41 56 -8.629824899432359 0 10490.0 -8.629824899432359 1
gene  1 44 56 -2.609086454302555 0 10493.0 -2.609086454302555 1
gene  1 46 56 6.331421416398752 0 10495.0 6.331421416398752 1
gene  1 49 56 9.194854579911269 0 10498.0 9.194854579911269 1
gene  1 68 56 2.6923440171679007 1 10517.0 2.6923440171679007 1
gene  1 179 56 -0.5947311713813225 1 10628.0 -0.5947311713813225 1
gene  1 183 56 -0.9005103876471483 1 10632.0 -0.9005103876471483 1
gene  1 3 57 -0.005722148914676373 0 10642.0 -0.005722148914676373 1
gene  1 19 57 1.8314184374539935 0 10658.0 1.8314184374539935 1
gene  1 22 57 0.36817003164531537 0 10661.0 0.36817003164531537 1
gene  1 28 57 5.761851684191642 0 10667.0 5.761851684191642 1
gene  1 30 57 -3.4571153088171096 0 10669.0 -3.4571153088171096 1
gene  1 35 57 2.580025771865361 0 10674.0 2.580025771865361 1
gene  1 47 57 2.644203572393052 0 10686.0 2.644203572393052 1
gene  1 59 57 3.7947596454157018 1 10698.0 3.7947596454157018 1
gene  1 60 57 2.673957353108953 1 10699.0 2.673957353108953 1
gene  1 187 57 0.20891655225563177 1 10826.0 0.20891655225563177 1
gene  1 5 58 1.3280873021801978 0 10834.0 1.3280873021801978 1
gene  1 14 58 0.9744299784566495 0 10843.0 0.9744299784566495 1
gene  1 15 58 -1.8114969841292696 0 10844.0 -1.8114969841292696 1
gene  1 24 58 -8.166577475040794 0 10853.0 -8.166577475040794 1
gene  1 32 58 -0.7187024624139484 0 10861.0 -0.7187024624139484 1
gene  1 43 58 1.0007848037561278 0 10872.0 1.0007848037561278 1
gene  1 49 58 0.16337853510618627 0 10878.0 0.16337853510618627 1
gene  1 53 58 -1.9432044894004694 0 10882.0 -1.9432044894004694 1
gene  1 62 58 7.3430378216615555 1 10891.0 7.3430378216615555 1
gene  1 64 58 -19.872630183316776 1 10893.0 -19.872630183316776 1
gene  1 69 58 0.08487179747261653 1 10898.0 0.08487179747261653 1
gene  1 182 58 2.697003036853142 1 11011.0 2.697003036853142 1
gene  1 1 59 -2.5112899899600816 0 11020.0 -2.5112899899600816 1
gene  1 4 59 4.790880612868904 0 11023.0 4.790880612868904 1
gene  1 27 59 8.870771214390702 0 11046.0 8.870771214390702 1
gene  1 34 59 -0.4924998660177042 0 11053.0 -0.4924998660177042 1
gene  1 37 59 -5.7398944851648865 0 11056.0 -5.7398944851648865 1
gene  1 44 59 -11.39996367101681 0 11063.0 -11.39996367101681 1
gene  1 59 59 4.745475254292893 1 11078.0 4.745475254292893 1
gene  1 73 59 4.500619287604853 1 11092.0 4.500619287604853 1
gene  1 75 59 -1.4605183702428208 1 11094.0 -1.4605183702428208 1
gene  1 183 59 -2.4686272616422276 1 11202.0 -2.4686272616422276 1
gene  1 185 59 -0.951559487739218 1 11204.0 -0.951559487739218 1
gene  1 8 60 0.05355513380745269 0 11217.0 0.05355513380745269 1
gene  1 10 60 12.096840598952772 0 11219.0 12.096840598952772 1
gene  1 40 60 -1.8614419926802874 0 11249.0 -1.8614419926802874 1
gene  1 45 60 10.275232885793235 0 11254.0 10.275232885793235 1
gene  1 61 60 -4.540851797759438 1 11270.0 -4.540851797759438 1
gene  1 72 60 -0.9774637540196651 1 11281.0 -0.9774637540196651 1
gene  1 177 60 -2.078113089445121 1 11386.0 -2.078113089445121 1
gene  1 179 60 -1.7373190094608537 1 11388.0 -1.7373190094608537 1
gene  1 187 60 -0.8625042638364426 1 11396.0 -0.8625042638364426 1
gene  1 7 61 -1.1957986433868544 0 11406.0 -1.1957986433868544 1
gene  1 15 61 6.494202413309616 0 11414.0 6.494202413309616 1
gene  1 22 61 0.3643344498311949 0 11421.0 0.3643344498311949 1
gene  1 28 61 1.817301076023162 0 11427.0 1.817301076023162 1
gene  1 36 61 4.523797989228232 0 11435.0 4.523797989228232 1
gene  1 53 61 -2.956284569141791 0 11452.0 -2.956284569141791 1
gene  1 54 61 1.2591481778026834 0 11453.0 1.2591481778026834 1
gene  1 67 61 3.502602768282972 1 11466.0 3.502602768282972 1
gene  1 177 61 -0.24056149708041152 1 11576.0 -0.24056149708041152 1
gene  1 184 61 -3.117029559103816 1 11583.0 -3.117029559103816 1
gene  1 6 62 -3.189540535229363 0 11595.0 -3.189540535229363 1
gene  1 11 62 -4.146847647048618 0 11600.0 -4.146847647048618 1
gene  1 15 62 -11.13880507155205 0 11604.0 -11.13880507155205 1
gene  1 26 62 0.3255562041678912 0 11615.0 0.3255562041678912 1
gene  1 53 62 -2.2814041957944484 0 11642.0 -2.2814041957944484 1
gene  1 68 62 1.7632373348560684 1 11657.0 1.7632373348560684 1
gene  1 72 62 2.422490750952078 1 11661.0 2.422490750952078 1
gene  1 174 62 -3.2086481908141753 1 11763.0 -3.2086481908141753 1
gene  1 175 62 5.611683952942585 1 11764.0 5.611683952942585 1
gene  1 184 62 -0.7851079757546497 1 11773.0 -0.7851079757546497 1
gene  1 185 62 6.9537921020852895 1 11774.0 6.9537921020852895 1
gene  1 188 62 1.3025259941995149 1 11777.0 1.3025259941995149 1
gene  1 31 63 2.048642865594109 0 11810.0 2.048642865594109 1
gene  1 32 63 1.985201696849869 0 11811.0 1.985201696849869 1
gene  1 37 63 -1.000504381519627 0 11816.0 -1.000504381519627 1
gene  1 38 63 2.817098707621262 0 11817.0 2.817098707621262 1
gene  1 42 63 -0.9165540516839425 0 11821.0 -0.9165540516839425 1
gene  1 46 63 -0.3421658793121263 0 11825.0 -0.3421658793121263 1
gene  1 48 63 -2.176825233262954 0 11827.0 -2.176825233262954 1
gene  1 50 63 -2.7358709466044333 0 11829.0 -2.7358709466044333 1
gene  1 60 63 0.5459386670075057 0 11839.0 0.5459386670075057 1
gene  1 63 63 0.10608659540138543 1 11842.0 0.10608659540138543 1
gene  1 72 63 -1.4256597469052874 1 11851.0 -1.4256597469052874 1
gene  1 74 63 -17.4914332728521 1 11853.0 -17.4914332728521 1
gene  1 178 63 1.3553110915877333 1 11957.0 1.3553110915877333 1
gene  1 180 63 -0.7337889108833471 1 11959.0 -0.7337889108833471 1
gene  1 181 63 -3.0913562143850535 1 11960.0 -3.0913562143850535 1
gene  1 8 64 0.9242682729758853 0 11977.0 0.9242682729758853 1
gene  1 11 64 4.120777094923593 0 11980.0 4.120777094923593 1
gene  1 20 64 -4.058055038740858 0 11989.0 -4.058055038740858 1
gene  1 27 64 1.1316226172236756 0 11996.0 1.1316226172236756 1
gene  1 41 64 -0.8479450193010433 0 12010.0 -0.8479450193010433 1
gene  1 44 64 -3.332017066384064 0 12013.0 -3.332017066384064 1
gene  1 49 64 2.1277966453172352 0 12018.0 2.1277966453172352 1
gene  1 50 64 -1.1083469023464378 0 12019.0 -1.1083469023464378 1
gene  1 53 64 5.239039006539018 0 12022.0 5.239039006539018 1
gene  1 59 64 -3.233252040702647 0 12028.0 -3.233252040702647 1
gene  1 70 64 1.6591904358166074 1 12039.0 1.6591904358166074 1
gene  1 176 64 -1.1854862243222002 1 12145.0 -1.1854862243222002 1
gene  1 179 64 0.31098143925922517 1 12148.0 0.31098143925922517 1
gene  1 183 64 -4.5827010989946615 1 12152.0 -4.5827010989946615 1
gene  1 184 64 5.100152083148456 1 12153.0 5.100152083148456 1
gene  1 185 64 3.3854184394575952 1 12154.0 3.3854184394575952 1
gene  1 8 65 1.6445777585777785 0 12167.0 1.6445777585777785 1
gene  1 13 65 0.28172837903745895 0 12172.0 0.28172837903745895 1
gene  1 18 65 8.629032252056126 0 12177.0 8.629032252056126 1
gene  1 39 65 -12.922983358079884 0 12198.0 -12.922983358079884 1
gene  1 53 65 1.6093677921805385 0 12212.0 1.6093677921805385 1
gene  1 69 65 0.24216989501988195 1 12228.0 0.24216989501988195 1
gene  1 70 65 0.8732041212155599 1 12229.0 0.8732041212155599 1
gene  1 175 65 -1.1772493934234216 1 12334.0 -1.1772493934234216 1
gene  1 176 65 -3.7245358394108816 1 12335.0 -3.7245358394108816 1
gene  1 177 65 -0.19871847626865313 1 12336.0 -0.19871847626865313 1
gene  1 185 65 -5.160904141774327 1 12344.0 -5.160904141774327 1
gene  1 1 66 -0.5080239122522805 0 12350.0 -0.5080239122522805 1
gene  1 4 66 -1.902150733232555 0 12353.0 -1.902150733232555 1
gene  1 18 66 -0.15039365996869442 0 12367.0 -0.15039365996869442 1
gene  1 21 66 -5.697664518065051 0 12370.0 -5.697664518065051 1
gene  1 43 66 -0.8217550993200615 0 12392.0 -0.8217550993200615 1
gene  1 47 66 0.1221588500465911 0 12396.0 0.1221588500465911 1
gene  1 50 66 -1.926731568288249 0 12399.0 -1.926731568288249 1
gene  1 60 66 -0.5618608765075577 0 12409.0 -0.5618608765075577 1
gene  1 62 66 -3.2186318802867095 0 12411.0 -3.2186318802867095 1
gene  1 66 66 2.183357731931684 1 12415.0 2.183357731931684 1
gene  1 184 66 4.583766532371184 1 12533.0 4.583766532371184 1
gene  1 8 67 -12.179338459968005 0 12547.0 -12.179338459968005 1
gene  1 38 67 2.111675249350219 0 12577.0 2.111675249350219 1
gene  1 46 67 4.242838961998805 0 12585.0 4.242838961998805 1
gene  1 49 67 5.9763446185134175 0 12588.0 5.9763446185134175 1
gene  1 57 67 -6.72948531487609 0 12596.0 -6.72948531487609 1
gene  1 61 67 3.2141430883961752 0 12600.0 3.2141430883961752 1
gene  1 72 67 -2.1020273672532004 1 12611.0 -2.1020273672532004 1
gene  1 177 67 -0.29063276654237136 1 12716.0 -0.29063276654237136 1
gene  1 182 67 -1.7453147569670677 1 12721.0 -1.7453147569670677 1
gene  1 185 67 -6.357376445661465 1 12724.0 -6.357376445661465 1
gene  1 189 67 2.874434275161052 1 12728.0 2.874434275161052 1
gene  1 5 68 -3.403653366703562 0 12734.0 -3.403653366703562 1
gene  1 16 68 5.413954409290543 0 12745.0 5.413954409290543 1
gene  1 40 68 -5.500376569098558 0 12769.0 -5.500376569098558 1
gene  1 41 68 -2.2217573949158815 0 12770.0 -2.2217573949158815 1
gene  1 42 68 -4.958114626399211 0 12771.0 -4.958114626399211 1
gene  1 71 68 5.97102698079863 1 12800.0 5.97102698079863 1
gene  1 185 68 -7.4087656139940785 1 12914.0 -7.4087656139940785 1
gene  1 6 69 -5.349039219877502 0 12925.0 -5.349039219877502 1
gene  1 16 69 -3.5307702183218606 0 12935.0 -3.5307702183218606 1
gene  1 19 69 -6.217603341009966 0 12938.0 -6.217603341009966 1
gene  1 44 69 -1.8368767423490682 0 12963.0 -1.8368767423490682 1
gene  1 45 69 0.10878857021728128 0 12964.0 0.10878857021728128 1
gene  1 65 69 -1.2606466746890213 0 12984.0 -1.2606466746890213 1
gene  1 171 69 4.0923522841188555 1 13090.0 4.0923522841188555 1
gene  1 3 70 1.6467278720745449 0 13112.0 1.6467278720745449 1
gene  1 39 70 1.6659111818750751 0 13148.0 1.6659111818750751 1
gene  1 60 70 1.322337083842511 0 13169.0 1.322337083842511 1
gene  1 171 70 5.662681071590119 1 13280.0 5.662681071590119 1
gene  1 181 70 -2.744818121911856 1 13290.0 -2.744818121911856 1
gene  1 183 70 0.8585656910711047 1 13292.0 0.8585656910711047 1
gene  1 11 71 8.036432617072556 0 13310.0 8.036432617072556 1
gene  1 15 71 1.5126889126238017 0 13314.0 1.5126889126238017 1
gene  1 30 71 -6.164416610944572 0 13329.0 -6.164416610944572 1
gene  1 33 71 -0.5901837510292289 0 13332.0 -0.5901837510292289 1
gene  1 34 71 2.71589488422231 0 13333.0 2.71589488422231 1
gene  1 48 71 6.879027509077828 0 13347.0 6.879027509077828 1
gene  1 50 71 3.7508502558567756 0 13349.0 3.7508502558567756 1
gene  1 51 71 -2.6954435608668184 0 13350.0 -2.6954435608668184 1
gene  1 57 71 -3.016599618100214 0 13356.0 -3.016599618100214 1
gene  1 73 71 4.884103612073682 1 13372.0 4.884103612073682 1
gene  1 185 71 -1.9265935303294275 1 13484.0 -1.9265935303294275 1
gene  1 24 72 -6.407447961798504 0 13513.0 -6.407447961798504 1
gene  1 51 72 8.143692646944244 0 13540.0 8.143692646944244 1
gene  1 54 72 -0.14910173201843457 0 13543.0 -0.14910173201843457 1
gene  1 60 72 2.0542893767576484 0 13549.0 2.0542893767576484 1
gene  1 3 73 -0.5364547111236346 0 13682.0 -0.5364547111236346 1
gene  1 18 73 -6.026199302382111 0 13697.0 -6.026199302382111 1
gene  1 30 73 -0.8159271588365375 0 13709.0 -0.8159271588365375 1
gene  1 41 73 4.095567019576221 0 13720.0 4.095567019576221 1
gene  1 54 73 3.5928663977038204 0 13733.0 3.5928663977038204 1
gene  1 59 73 -0.3960545925127692 0 13738.0 -0.3960545925127692 1
gene  1 60 73 -0.21078209636911832 0 13739.0 -0.21078209636911832 1
gene  1 179 73 6.7373931465199455 1 13858.0 6.7373931465199455 1
gene  1 189 73 0.49102826077172074 1 13868.0 0.49102826077172074 1
gene  1 31 74 2.9982929296387972 0 13900.0 2.9982929296387972 1
gene  1 38 74 8.29808675796439 0 13907.0 8.29808675796439 1
gene  1 67 74 -0.20495582778123245 0 13936.0 -0.20495582778123245 1
gene  1 74 74 4.0575202008732845 1 13943.0 4.0575202008732845 1
gene  1 188 74 -4.905834303264747 1 14057.0 -4.905834303264747 1
gene  1 2 75 -10.436418195165665 0 14061.0 -10.436418195165665 1
gene  1 10 75 -1.7196016448233522 0 14069.0 -1.7196016448233522 1
gene  1 12 75 10.258193360365112 0 14071.0 10.258193360365112 1
gene  1 15 75 -0.6460365518821372 0 14074.0 -0.6460365518821372 1
gene  1 18 75 0.1513960456178225 0 14077.0 0.1513960456178225 1
gene  1 43 75 -0.08232895239961113 0 14102.0 -0.08232895239961113 1
gene  1 46 75 14.304720858379612 0 14105.0 14.304720858379612 1
gene  1 56 75 -0.3598747212125588 0 14115.0 -0.3598747212125588 1
gene  1 57 75 -23.669337422550985 0 14116.0 -23.669337422550985 1
gene  1 177 75 5.060580228942294 1 14236.0 5.060580228942294 1
gene  1 183 75 -3.4081740624201244 1 14242.0 -3.4081740624201244 1
gene  1 3 171 -2.8453788618331526 0 32302.0 -2.8453788618331526 1
gene  1 10 171 3.9836472493790724 0 32309.0 3.9836472493790724 1
gene  1 18 171 -0.2505055047967826 0 32317.0 -0.2505055047967826 1
gene  1 35 171 1.9797529711910669 0 32334.0 1.9797529711910669 1
gene  1 47 171 -4.215072505241859 0 32346.0 -4.215072505241859 1
gene  1 48 171 -0.5188982723332316 0 32347.0 -0.5188982723332316 1
gene  1 63 171 -2.235272457359901 0 32362.0 -2.235272457359901 1
gene  1 74 171 10.285680617874021 0 32373.0 10.285680617874021 1
gene  1 171 171 3.8546151373223103 1 32470.0 3.8546151373223103 1
gene  1 180 171 -1.0708686897444264 1 32479.0 -1.0708686897444264 1
gene  1 181 171 0.009357912482943043 1 32480.0 0.009357912482943043 1
gene  1 16 172 6.17609104516958 0 32505.0 6.17609104516958 1
gene  1 38 172 -2.5705488889379566 0 32527.0 -2.5705488889379566 1
gene  1 58 172 1.8621738708078213 0 32547.0 1.8621738708078213 1
gene  1 59 172 0.22052335498701892 0 32548.0 0.22052335498701892 1
gene  1 60 172 3.6306160575771886 0 32549.0 3.6306160575771886 1
gene  1 73 172 -4.58714926248599 0 32562.0 -4.58714926248599 1
gene  1 171 172 -0.05994549074348576 0 32660.0 -0.05994549074348576 1
gene  1 173 172 1.6946839799201912 1 32662.0 1.6946839799201912 1
gene  1 7 173 4.68556703722789 0 32686.0 4.68556703722789 1
gene  1 29 173 -5.626425810025765 0 32708.0 -5.626425810025765 1
gene  1 30 173 -0.5241509949913803 0 32709.0 -0.5241509949913803 1
gene  1 38 173 -2.2740791365969812 0 32717.0 -2.2740791365969812 1
gene  1 56 173 2.296002220153795 0 32735.0 2.296002220153795 1
gene  1 68 173 -6.9105809262076425 0 32747.0 -6.9105809262076425 1
gene  1 72 173 1.68474724058962 0 32751.0 1.68474724058962 1
gene  1 75 173 0.9214155457905924 0 32754.0 0.9214155457905924 1
gene  1 180 173 0.5914782792151473 1 32859.0 0.5914782792151473 1
gene  1 45 174 4.074049551231033 0 32914.0 4.074049551231033 1
gene  1 174 174 8.309858310223401 1 33043.0 8.309858310223401 1
gene  1 180 174 -11.13620793940542 1 33049.0 -11.13620793940542 1
gene  1 186 174 2.1663160950191287 1 33055.0 2.1663160950191287 1
gene  1 2 175 -1.7589618316505844 0 33061.0 -1.7589618316505844 1
gene  1 11 175 -2.8329692017238823 0 33070.0 -2.8329692017238823 1
gene  1 26 175 -2.0359571791972426 0 33085.0 -2.0359571791972426 1
gene  1 37 175 -1.601282309220712 0 33096.0 -1.601282309220712 1
gene  1 43 175 -4.407526618281224 0 33102.0 -4.407526618281224 1
gene  1 48 175 1.0149430894817177 0 33107.0 1.0149430894817177 1
gene  1 51 175 -4.856686060669282 0 33110.0 -4.856686060669282 1
gene  1 64 175 -10.227573498322412 0 33123.0 -10.227573498322412 1
gene  1 70 175 0.20016209038396582 0 33129.0 0.20016209038396582 1
gene  1 71 175 3.0097697379656103 0 33130.0 3.0097697379656103 1
gene  1 177 175 -2.7302753310070185 1 33236.0 -2.7302753310070185 1
gene  1 178 175 1.1377025493070798 1 33237.0 1.1377025493070798 1
gene  1 181 175 -3.4450200386293357 1 33240.0 -3.4450200386293357 1
gene  1 184 175 -7.1263659107853465 1 33243.0 -7.1263659107853465 1
gene  1 186 175 2.3578663044244474 1 33245.0 2.3578663044244474 1
gene  1 2 176 -4.136317410192305 0 33251.0 -4.136317410192305 1
gene  1 8 176 0.8828559590596925 0 33257.0 0.8828559590596925 1
gene  1 9 176 1.6709489397850825 0 33258.0 1.6709489397850825 1
gene  1 12 176 -3.2244574799137453 0 33261.0 -3.2244574799137453 1
gene  1 15 176 -2.512618882734251 0 33264.0 -2.512618882734251 1
gene  1 16 176 -3.6442732182141815 0 33265.0 -3.6442732182141815 1
gene  1 35 176 5.331174902349595 0 33284.0 5.331174902349595 1
gene  1 37 176 -2.233441103232619 0 33286.0 -2.233441103232619 1
gene  1 46 176 4.6395892351102646 0 33295.0 4.6395892351102646 1
gene  1 62 176 -2.687443409394613 0 33311.0 -2.687443409394613 1
gene  1 64 176 1.8960819090098076 0 33313.0 1.8960819090098076 1
gene  1 171 176 -4.793063670756017 0 33420.0 -4.793063670756017 1
gene  1 174 176 -2.841355465477455 0 33423.0 -2.841355465477455 1
gene  1 179 176 -1.453166513666567 1 33428.0 -1.453166513666567 1
gene  1 1 177 -6.138544970031542 0 33440.0 -6.138544970031542 1
gene  1 7 177 -5.93646322277277 0 33446.0 -5.93646322277277 1
gene  1 8 177 1.3997289224302611 0 33447.0 1.3997289224302611 1
gene  1 9 177 -2.8489911884979877 0 33448.0 -2.8489911884979877 1
gene  1 14 177 0.928046690620723 0 33453.0 0.928046690620723 1
gene  1 16 177 -0.25004668142758457 0 33455.0 -0.25004668142758457 1
gene  1 20 177 3.776891657533191 0 33459.0 3.776891657533191 1
gene  1 30 177 10.371999619956537 0 33469.0 10.371999619956537 1
gene  1 31 177 -7.096588566234626 0 33470.0 -7.096588566234626 1
gene  1 32 177 -1.328419832994336 0 33471.0 -1.328419832994336 1
gene  1 43 177 2.490742247795593 0 33482.0 2.490742247795593 1
gene  1 44 177 2.190192722994044 0 33483.0 2.190192722994044 1
gene  1 53 177 -7.311081205869295 0 33492.0 -7.311081205869295 1
gene  1 59 177 -0.5391595981975961 0 33498.0 -0.5391595981975961 1
gene  1 69 177 4.199623596707449 0 33508.0 4.199623596707449 1
gene  1 174 177 -15.515902201128394 0 33613.0 -15.515902201128394 1
gene  1 175 177 1.3949723694670466 0 33614.0 1.3949723694670466 1
gene  1 184 177 2.786059819789988 1 33623.0 2.786059819789988 1
gene  1 187 177 2.264763017034398 1 33626.0 2.264763017034398 1
gene  1 1 178 -10.45966895578045 0 33630.0 -10.45966895578045 1
gene  1 20 178 3.874810382462 0 33649.0 3.874810382462 1
gene  1 26 178 0.20950083864119717 0 33655.0 0.20950083864119717 1
gene  1 35 178 -2.1940575766363475 0 33664.0 -2.1940575766363475 1
gene  1 42 178 0.6747145605127354 0 33671.0 0.6747145605127354 1
gene  1 53 178 7.074975731664175 0 33682.0 7.074975731664175 1
gene  1 59 178 10.144786725590508 0 33688.0 10.144786725590508 1
gene  1 72 178 -7.320967186470169 0 33701.0 -7.320967186470169 1
gene  1 172 178 -0.5994051969428329 0 33801.0 -0.5994051969428329 1
gene  1 190 178 -0.11407812056146316 1 33819.0 -0.11407812056146316 1
gene  1 6 179 0.3831658279659802 0 33825.0 0.3831658279659802 1
gene  1 8 179 6.35023898904629 0 33827.0 6.35023898904629 1
gene  1 13 179 0.9743422145636232 0 33832.0 0.9743422145636232 1
gene  1 36 179 14.440112514643246 0 33855.0 14.440112514643246 1
gene  1 46 179 3.390343564496752 0 33865.0 3.390343564496752 1
gene  1 60 179 -1.6614223193653044 0 33879.0 -1.6614223193653044 1
gene  1 61 179 3.2611866841957853 0 33880.0 3.2611866841957853 1
gene  1 72 179 -6.235593350796988 0 33891.0 -6.235593350796988 1
gene  1 74 179 -0.888399510016487 0 33893.0 -0.888399510016487 1
gene  1 171 179 2.853216318829114 0 33990.0 2.853216318829114 1
gene  1 185 179 1.012052362847997 1 34004.0 1.012052362847997 1
gene  1 1 180 -1.007429888825878 0 34010.0 -1.007429888825878 1
gene  1 4 180 -9.821111249542852 0 34013.0 -9.821111249542852 1
gene  1 8 180 -2.5990300381942193 0 34017.0 -2.5990300381942193 1
gene  1 11 180 -2.155647422106036 0 34020.0 -2.155647422106036 1
gene  1 21 180 1.6726672538364733 0 34030.0 1.6726672538364733 1
gene  1 32 180 -5.963667922981666 0 34041.0 -5.963667922981666 1
gene  1 35 180 -2.427333569642551 0 34044.0 -2.427333569642551 1
gene  1 46 180 -1.7624725978764766 0 34055.0 -1.7624725978764766 1
gene  1 68 180 -4.227481186088523 0 34077.0 -4.227481186088523 1
gene  1 188 180 -3.167244482885174 1 34197.0 -3.167244482885174 1
gene  1 2 181 6.288806072374158 0 34201.0 6.288806072374158 1
gene  1 16 181 -11.710432718007324 0 34215.0 -11.710432718007324 1
gene  1 24 181 -2.1503235727081322 0 34223.0 -2.1503235727081322 1
gene  1 36 181 -3.3968199594045005 0 34235.0 -3.3968199594045005 1
gene  1 60 181 -1.5785741062545593 0 34259.0 -1.5785741062545593 1
gene  1 69 181 -2.8564586030302346 0 34268.0 -2.8564586030302346 1
gene  1 190 181 -2.4414705266223584 1 34389.0 -2.4414705266223584 1
gene  1 1 182 -0.9688807888788429 0 34390.0 -0.9688807888788429 1
gene  1 17 182 -2.9309670239523795 0 34406.0 -2.9309670239523795 1
gene  1 35 182 -0.9272892010604912 0 34424.0 -0.9272892010604912 1
gene  1 44 182 1.761140428849032 0 34433.0 1.761140428849032 1
gene  1 49 182 0.6061543790861375 0 34438.0 0.6061543790861375 1
gene  1 50 182 5.19852260610632 0 34439.0 5.19852260610632 1
gene  1 54 182 -4.149589999396987 0 34443.0 -4.149589999396987 1
gene  1 59 182 4.5067320673728 0 34448.0 4.5067320673728 1
gene  1 73 182 -1.789467437413136 0 34462.0 -1.789467437413136 1
gene  1 174 182 -2.6396289946813054 0 34563.0 -2.6396289946813054 1
gene  1 187 182 2.1714924425398925 1 34576.0 2.1714924425398925 1
gene  1 6 183 2.699379659799646 0 34585.0 2.699379659799646 1
gene  1 7 183 -1.9221691102162743 0 34586.0 -1.9221691102162743 1
gene  1 17 183 -6.2585411895674445 0 34596.0 -6.2585411895674445 1
gene  1 20 183 -0.27581627390944874 0 34599.0 -0.27581627390944874 1
gene  1 25 183 3.9926398343476386 0 34604.0 3.9926398343476386 1
gene  1 30 183 3.8487862318608688 0 34609.0 3.8487862318608688 1
gene  1 39 183 -1.3506209542371181 0 34618.0 -1.3506209542371181 1
gene  1 44 183 4.227109555776437 0 34623.0 4.227109555776437 1
gene  1 66 183 4.020181817124819 0 34645.0 4.020181817124819 1
gene  1 171 183 -2.3116629803494044 0 34750.0 -2.3116629803494044 1
gene  1 174 183 -0.7450922172372634 0 34753.0 -0.7450922172372634 1
gene  1 21 184 -4.3991207113425705 0 34790.0 -4.3991207113425705 1
gene  1 29 184 3.8489587117461466 0 34798.0 3.8489587117461466 1
gene  1 32 184 8.100820670757464 0 34801.0 8.100820670757464 1
gene  1 36 184 -5.255982220160867 0 34805.0 -5.255982220160867 1
gene  1 45 184 4.4257501869536995 0 34814.0 4.4257501869536995 1
gene  1 46 184 -3.597069530168537 0 34815.0 -3.597069530168537 1
gene  1 63 184 0.2777547718612312 0 34832.0 0.2777547718612312 1
gene  1 66 184 -8.332754267964138 0 34835.0 -8.332754267964138 1
gene  1 177 184 -6.45952889221447 0 34946.0 -6.45952889221447 1
gene  1 31 185 -4.295844701358715 0 34990.0 -4.295844701358715 1
gene  1 50 185 3.1908501032707295 0 35009.0 3.1908501032707295 1
gene  1 56 185 -3.808836965800044 0 35015.0 -3.808836965800044 1
gene  1 58 185 3.0520179110254935 0 35017.0 3.0520179110254935 1
gene  1 62 185 -2.8265095035235697 0 35021.0 -2.8265095035235697 1
gene  1 173 185 -1.2942917465065236 0 35132.0 -1.2942917465065236 1
gene  1 179 185 1.7139413653996318 0 35138.0 1.7139413653996318 1
gene  1 182 185 -5.6298034239214685 0 35141.0 -5.6298034239214685 1
gene  1 188 185 -3.7471566313181155 1 35147.0 -3.7471566313181155 1
gene  1 1 186 -2.9227968547263457 0 35150.0 -2.9227968547263457 1
gene  1 3 186 3.7263105819890683 0 35152.0 3.7263105819890683 1
gene  1 4 186 -0.3293720581195114 0 35153.0 -0.3293720581195114 1
gene  1 6 186 -6.014204873106862 0 35155.0 -6.014204873106862 1
gene  1 7 186 1.1583332536429065 0 35156.0 1.1583332536429065 1
gene  1 17 186 0.3886333880304682 0 35166.0 0.3886333880304682 1
gene  1 23 186 2.576947987833944 0 35172.0 2.576947987833944 1
gene  1 28 186 -1.1377078480622362 0 35177.0 -1.1377078480622362 1
gene  1 33 186 0.6197921849039134 0 35182.0 0.6197921849039134 1
gene  1 36 186 1.2282599935053908 0 35185.0 1.2282599935053908 1
gene  1 58 186 -8.375295901346515 0 35207.0 -8.375295901346515 1
gene  1 69 186 -1.0367835432101797 0 35218.0 -1.0367835432101797 1
gene  1 70 186 0.20525446614589965 0 35219.0 0.20525446614589965 1
gene  1 72 186 -0.5228869845863204 0 35221.0 -0.5228869845863204 1
gene  1 10 187 0.6576002049684231 0 35349.0 0.6576002049684231 1
gene  1 25 187 2.127878496979854 0 35364.0 2.127878496979854 1
gene  1 31 187 -2.178453738739222 0 35370.0 -2.178453738739222 1
gene  1 33 187 -9.01863810742834 0 35372.0 -9.01863810742834 1
gene  1 47 187 2.647468182297568 0 35386.0 2.647468182297568 1
gene  1 57 187 4.883955092629067 0 35396.0 4.883955092629067 1
gene  1 183 187 -2.2030684392818394 0 35522.0 -2.2030684392818394 1
gene  1 184 187 -1.1130767195714422 0 35523.0 -1.1130767195714422 1
gene  1 5 188 -1.807051193460787 0 35534.0 -1.807051193460787 1
gene  1 6 188 2.3312988216974806 0 35535.0 2.3312988216974806 1
gene  1 12 188 -2.389290754090034 0 35541.0 -2.389290754090034 1
gene  1 28 188 -3.641972061568673 0 35557.0 -3.641972061568673 1
gene  1 32 188 4.557537045573845 0 35561.0 4.557537045573845 1
gene  1 35 188 -0.6336726151005188 0 35564.0 -0.6336726151005188 1
gene  1 57 188 3.160487626458684 0 35586.0 3.160487626458684 1
gene  1 172 188 -0.9575256335336966 0 35701.0 -0.9575256335336966 1
gene  1 14 189 -3.6015461559924127 0 35733.0 -3.6015461559924127 1
gene  1 17 189 -0.32831300476054787 0 35736.0 -0.32831300476054787 1
gene  1 27 189 -2.586969625316639 0 35746.0 -2.586969625316639 1
gene  1 37 189 3.0992632934226885 0 35756.0 3.0992632934226885 1
gene  1 43 189 0.25580889100069704 0 35762.0 0.25580889100069704 1
gene  1 51 189 0.9826868898062613 0 35770.0 0.9826868898062613 1
gene  1 56 189 0.5367106977815392 0 35775.0 0.5367106977815392 1
gene  1 59 189 -0.374147094169214 0 35778.0 -0.374147094169214 1
gene  1 65 189 -0.5545772023611408 0 35784.0 -0.5545772023611408 1
gene  1 73 189 -1.5067630028436152 0 35792.0 -1.5067630028436152 1
gene  1 74 189 0.9867525168235408 0 35793.0 0.9867525168235408 1
gene  1 178 189 -1.2915232518741961 0 35897.0 -1.2915232518741961 1
gene  1 1 190 -2.9664992599836317 0 35910.0 -2.9664992599836317 1
gene  1 4 190 -0.6765283711479659 0 35913.0 -0.6765283711479659 1
gene  1 15 190 6.956819712489141 0 35924.0 6.956819712489141 1
gene  1 22 190 -2.087660899839805 0 35931.0 -2.087660899839805 1
gene  1 33 190 2.6493434414973183 0 35942.0 2.6493434414973183 1
gene  1 58 190 0.5235418538837033 0 35967.0 0.5235418538837033 1
gene  1 60 190 -0.6695553857279803 0 35969.0 -0.6695553857279803 1
gene  1 67 190 1.4500366357381176 0 35976.0 1.4500366357381176 1
gene  1 179 190 1.083630110189131 0 36088.0 1.083630110189131 1
gene  1 181 190 1.1848649290965745 0 36090.0 1.1848649290965745 1
gene  1 182 190 0.0669847770044249 0 36091.0 0.0669847770044249 1
gene  1 184 190 3.1890907741418584 0 36093.0 3.1890907741418584 1
gene  1 186 190 0.7156698340093077 0 36095.0 0.7156698340093077 1
gene  1 187 190 1.7641024877373241 0 36096.0 1.7641024877373241 1
gene  1 65 188 -0.07979858107227178 0 36109.0 -0.07979858107227178 1
gene  1 1 193 2.0668292813939235 0 36113.0 2.0668292813939235 1
gene  1 193 190 -1.5939852743243763 0 36114.0 -1.5939852743243763 1
gene  1 29 68 2.2235002759601468 0 36116.0 2.2235002759601468 1
gene  1 181 195 -0.8344798055822994 1 36120.0 -0.8344798055822994 1
gene  1 195 63 2.1732225364438476 0 36121.0 2.1732225364438476 1
gene  1 7 171 2.193136910956198 0 36125.0 2.193136910956198 1
gene  1 22 72 5.456659755727061 0 36150.0 5.456659755727061 1
gene  1 47 212 2.2593216487470986 0 36196.0 2.2593216487470986 1
gene  1 212 55 2.9588678137605378 0 36197.0 2.9588678137605378 1
gene  1 55 58 1.7529773667723327 0 36200.0 1.7529773667723327 1
gene  1 33 217 -2.1292969072981744 0 36231.0 -2.1292969072981744 1
gene  1 217 187 -1.4386738644029657 0 36232.0 -1.4386738644029657 1
gene  1 69 56 0.49728572248665726 0 36255.0 0.49728572248665726 1
gene  1 51 173 1.2138595033454718 0 36261.0 1.2138595033454718 1
gene  1 35 230 -1.6000216062174146 0 36282.0 -1.6000216062174146 1
gene  1 230 57 -3.3292464045074412 0 36283.0 -3.3292464045074412 1
gene  1 43 244 -4.107770499696331 0 36330.0 -4.107770499696331 1
gene  1 244 189 1.5528188701019545 0 36331.0 1.5528188701019545 1
gene  1 13 172 -1.7746628305585515 0 36334.0 -1.7746628305585515 1
gene  1 52 230 1.3730425619867281 0 36357.0 1.3730425619867281 1
gene  1 68 188 -3.621267876032982 0 36380.0 -3.621267876032982 1
gene  1 12 54 -0.7277889460437668 0 36383.0 -0.7277889460437668 1
gene  1 181 74 4.276297399448877 0 36429.0 4.276297399448877 1
gene  1 61 177 0.1823281132451542 0 36460.0 0.1823281132451542 1
gene  1 20 184 -3.969182107830748 0 36496.0 -3.969182107830748 1
gene  1 190 176 -2.394074870275903 0 36516.0 -2.394074870275903 1
gene  1 22 291 0.3386260046447094 0 36524.0 0.3386260046447094 1
gene  1 291 190 -1.313624302411684 0 36525.0 -1.313624302411684 1
gene  1 75 174 -2.471645198621835 0 36555.0 -2.471645198621835 1
gene  1 35 297 -3.2002158647062195 0 36562.0 -3.2002158647062195 1
gene  1 297 171 1.7545120558177854 0 36563.0 1.7545120558177854 1
gene  1 33 184 6.616750876084309 0 36565.0 6.616750876084309 1
gene  1 35 186 -0.5563819940167121 0 36569.0 -0.5563819940167121 1
gene  1 51 300 -4.944241083693176 0 36574.0 -4.944241083693176 1
gene  1 300 71 -1.112157825218224 0 36575.0 -1.112157825218224 1
gene  1 49 172 0.2704872713325035 0 36658.0 0.2704872713325035 1
gene  1 75 177 -2.4843708602619134 0 36665.0 -2.4843708602619134 1
gene  1 53 321 -1.592630442060141 0 36673.0 -1.592630442060141 1
gene  1 321 62 0.12771184409292452 0 36674.0 0.12771184409292452 1
gene  1 47 62 -3.649341977207238 0 36689.0 -3.649341977207238 1
gene  1 59 61 -5.751332798920356 0 36693.0 -5.751332798920356 1
gene  1 11 60 0.6624148101671921 0 36729.0 0.6624148101671921 1
gene  1 65 180 2.2812819362396475 0 36760.0 2.2812819362396475 1
gene  1 4 230 1.5057256091291393 0 36807.0 1.5057256091291393 1
gene  1 55 75 -1.1577397961607732 0 36860.0 -1.1577397961607732 1
gene  1 28 173 -4.814655776478334 0 36899.0 -4.814655776478334 1
gene  1 186 184 -1.9900831539457169 0 36916.0 -1.9900831539457169 1
gene  1 176 189 -2.911527097113691 0 36945.0 -2.911527097113691 1
gene  1 174 67 -4.476140056648635 0 36965.0 -4.476140056648635 1
gene  1 15 66 2.967895795878398 0 36971.0 2.967895795878398 1
gene  1 30 188 5.769759631611761 0 36991.0 5.769759631611761 1
genomeend 0
/* Organism # 001 Fitness:  1324,687 Error:  1000,000                      */
genomestart  1
trait 1 0.0 0.0 0.3170408640517145 3.7709208457181083 1.2914275193210685 0.2010343562031215 0.9311438990486767 0.9060693763731991 
node 1 1 1 1
node 2 1 1 1
node 3 1 1 1
node 4 1 1 1
node 5 1 1 1
node 6 1 1 1
node 7 1 1 1
node 8 1 1 1
node 9 1 1 1
node 10 1 1 1
node 11 1 1 1
node 12 1 1 1
node 13 1 1 1
node 14 1 1 1
node 15 1 1 1
node 16 1 1 1
node 17 1 1 1
node 18 1 1 1
node 19 1 1 1
node 20 1 1 1
node 21 1 1 1
node 22 1 1 1
node 23 1 1 1
node 24 1 1 1
node 25 1 1 1
node 26 1 1 1
node 27 1 1 1
node 28 1 1 1
node 29 1 1 1
node 30 1 1 1
node 31 1 1 1
node 32 1 1 1
node 33 1 1 1
node 34 1 1 1
node 35 1 1 1
node 36 1 1 1
node 37 1 1 1
node 38 1 1 1
node 39 1 1 1
node 40 1 1 1
node 41 1 1 1
node 42 1 1 1
node 43 1 1 1
node 44 1 1 1
node 45 1 1 1
node 46 1 1 1
node 47 1 1 1
node 48 1 1 1
node 49 1 1 1
node 50 1 1 3
node 51 1 0 0
node 52 1 0 0
node 53 1 0 0
node 54 1 0 0
node 55 1 0 0
node 56 1 0 0
node 57 1 0 0
node 58 1 0 0
node 59 1 0 0
node 60 1 0 0
node 61 1 0 0
node 62 1 0 0
node 63 1 0 0
node 64 1 0 0
node 65 1 0 0
node 66 1 0 0
node 67 1 0 0
node 68 1 0 0
node 69 1 0 0
node 70 1 0 0
node 71 1 0 0
node 72 1 0 0
node 73 1 0 0
node 74 1 0 0
node 75 1 0 0
node 171 1 0 2
node 172 1 0 2
node 173 1 0 2
node 174 1 0 2
node 175 1 0 2
node 176 1 0 2
node 177 1 0 2
node 178 1 0 2
node 179 1 0 2
node 180 1 0 2
node 181 1 0 2
node 182 1 0 2
node 183 1 0 2
node 184 1 0 2
node 185 1 0 2
node 186 1 0 2
node 187 1 0 2
node 188 1 0 2
node 189 1 0 2
node 190 1 0 2
node 193 1 0 0
node 195 1 0 0
node 212 1 0 0
node 217 1 0 0
node 230 1 0 0
node 244 1 0 0
node 291 1 0 0
node 297 1 0 0
node 300 1 0 0
node 321 1 0 0
gene  1 28 51 4.392853296198404 0 9527.0 4.392853296198404 1
gene  1 33 51 -0.1941035735217767 0 9532.0 -0.1941035735217767 1
gene  1 36 51 2.8836387596222504 0 9535.0 2.8836387596222504 1
gene  1 40 51 -4.742445178320561 0 9539.0 -4.742445178320561 1
gene  1 42 51 2.622231338774246 0 9541.0 2.622231338774246 1
gene  1 54 51 8.841416226182456 1 9553.0 8.841416226182456 1
gene  1 57 51 -1.62786356783104 1 9556.0 -1.62786356783104 1
gene  1 68 51 0.9076382289450954 1 9567.0 0.9076382289450954 1
gene  1 174 51 4.257978325617707 1 9673.0 4.257978325617707 1
gene  1 183 51 -0.07409372883610121 1 9682.0 -0.07409372883610121 1
gene  1 184 51 3.0889397530216254 1 9683.0 3.0889397530216254 1
gene  1 189 51 -0.9679982403574539 1 9688.0 -0.9679982403574539 1
gene  1 3 52 1.331071197049509 0 9692.0 1.331071197049509 1
gene  1 6 52 6.679360482854296 0 9695.0 6.679360482854296 1
gene  1 24 52 9.346091937657729 0 9713.0 9.346091937657729 1
gene  1 29 52 5.7228839880392846 0 9718.0 5.7228839880392846 1
gene  1 31 52 7.078458835648086 0 9720.0 7.078458835648086 1
gene  1 35 52 0.6537579717216486 0 9724.0 0.6537579717216486 1
gene  1 63 52 -1.950196001756023 1 9752.0 -1.950196001756023 1
gene  1 179 52 15.50919473506052 1 9868.0 15.50919473506052 1
gene  1 183 52 4.607079012407659 1 9872.0 4.607079012407659 1
gene  1 184 52 -1.9740347580401725 1 9873.0 -1.9740347580401725 1
gene  1 185 52 -1.1899567857987703 1 9874.0 -1.1899567857987703 1
gene  1 5 53 -2.9278103379311804 0 9884.0 -2.9278103379311804 1
gene  1 6 53 -5.256543951854045 0 9885.0 -5.256543951854045 1
gene  1 10 53 -8.15461651198198 0 9889.0 -8.15461651198198 1
gene  1 33 53 -8.587992665775072 0 9912.0 -8.587992665775072 1
gene  1 35 53 -7.072712277904463 0 9914.0 -7.072712277904463 1
gene  1 38 53 -1.3945842168499438 0 9917.0 -1.3945842168499438 1
gene  1 45 53 2.273363404295849 0 9924.0 2.273363404295849 1
gene  1 71 53 2.7216318587292596 1 9950.0 2.7216318587292596 1
gene  1 16 54 -3.7462725331756648 0 10085.0 -3.7462725331756648 1
gene  1 19 54 2.030502658527656 0 10088.0 2.030502658527656 1
gene  1 36 54 10.260062254605899 0 10105.0 10.260062254605899 1
gene  1 42 54 0.27710198301542127 0 10111.0 0.27710198301542127 1
gene  1 58 54 1.8844927448963174 1 10127.0 1.8844927448963174 1
gene  1 62 54 3.5660837780286876 1 10131.0 3.5660837780286876 1
gene  1 73 54 3.1308652291698396 1 10142.0 3.1308652291698396 1
gene  1 177 54 2.9453676775830946 1 10246.0 2.9453676775830946 1
gene  1 180 54 0.5018588823144814 1 10249.0 0.5018588823144814 1
gene  1 190 54 -7.364307567894923 1 10259.0 -7.364307567894923 1
gene  1 20 55 2.7905738113022704 0 10279.0 2.7905738113022704 1
gene  1 31 55 14.05730224681719 0 10290.0 14.05730224681719 1
gene  1 35 55 3.344023045378697 0 10294.0 3.344023045378697 1
gene  1 41 55 -3.4870784298979425 0 10300.0 -3.4870784298979425 1
gene  1 47 55 6.976924263206255 0 10306.0 6.976924263206255 1
gene  1 52 55 -0.44038523202294777 0 10311.0 -0.44038523202294777 1
gene  1 69 55 -10.494666280107527 1 10328.0 -10.494666280107527 1
gene  1 75 55 -7.36160872946017 1 10334.0 -7.36160872946017 1
gene  1 187 55 -17.554648433618386 1 10446.0 -17.554648433618386 1
gene  1 7 56 4.341676342024888 0 10456.0 4.341676342024888 1
gene  1 11 56 5.143317168350938 0 10460.0 5.143317168350938 1
gene  1 13 56 4.329857061411395 0 10462.0 4.329857061411395 1
gene  1 36 56 -1.3259649542997947 0 10485.0 -1.3259649542997947 1
gene  1 41 56 -10.52208323752198 0 10490.0 -10.52208323752198 1
gene  1 44 56 -4.7481989104781395 0 10493.0 -4.7481989104781395 1
gene  1 46 56 3.8667333473612993 0 10495.0 3.8667333473612993 1
gene  1 49 56 11.038849727395132 0 10498.0 11.038849727395132 1
gene  1 68 56 4.851405146572617 1 10517.0 4.851405146572617 1
gene  1 179 56 2.2984283781560015 1 10628.0 2.2984283781560015 1
gene  1 183 56 -2.6045068783905916 1 10632.0 -2.6045068783905916 1
gene  1 3 57 1.5194721487216674 0 10642.0 1.5194721487216674 1
gene  1 19 57 2.01694197947962 0 10658.0 2.01694197947962 1
gene  1 22 57 -2.4813767448993493 0 10661.0 -2.4813767448993493 1
gene  1 28 57 2.172764473491007 0 10667.0 2.172764473491007 1
gene  1 30 57 -4.807774026500382 0 10669.0 -4.807774026500382 1
gene  1 35 57 -0.38961605720686965 0 10674.0 -0.38961605720686965 1
gene  1 47 57 1.4215251955604606 0 10686.0 1.4215251955604606 1
gene  1 59 57 1.2079371941599164 1 10698.0 1.2079371941599164 1
gene  1 60 57 -0.6007181542766467 1 10699.0 -0.6007181542766467 1
gene  1 187 57 -4.354270324991453 1 10826.0 -4.354270324991453 1
gene  1 5 58 1.5766580991947468 0 10834.0 1.5766580991947468 1
gene  1 14 58 -2.947644973328237 0 10843.0 -2.947644973328237 1
gene  1 15 58 -3.93484458301624 0 10844.0 -3.93484458301624 1
gene  1 24 58 -7.1614461180586115 0 10853.0 -7.1614461180586115 1
gene  1 32 58 -1.9545105477801692 0 10861.0 -1.9545105477801692 1
gene  1 43 58 2.2368467260952807 0 10872.0 2.2368467260952807 1
gene  1 49 58 -0.3351785343837381 0 10878.0 -0.3351785343837381 1
gene  1 53 58 0.8850339614832012 0 10882.0 0.8850339614832012 1
gene  1 62 58 3.902922281397662 1 10891.0 3.902922281397662 1
gene  1 64 58 -21.485206544280075 1 10893.0 -21.485206544280075 1
gene  1 69 58 3.937560768652636 1 10898.0 3.937560768652636 1
gene  1 182 58 4.188749597262769 1 11011.0 4.188749597262769 1
gene  1 1 59 0.8847696505676448 0 11020.0 0.8847696505676448 1
gene  1 4 59 5.2881966625225 0 11023.0 5.2881966625225 1
gene  1 27 59 8.292741980698558 0 11046.0 8.292741980698558 1
gene  1 34 59 -1.4525135222145278 0 11053.0 -1.4525135222145278 1
gene  1 37 59 -4.853529862996079 0 11056.0 -4.853529862996079 1
gene  1 44 59 -10.832094205743836 0 11063.0 -10.832094205743836 1
gene  1 59 59 4.292041071175336 1 11078.0 4.292041071175336 1
gene  1 73 59 6.882140403483703 1 11092.0 6.882140403483703 1
gene  1 75 59 -2.2085371936706104 1 11094.0 -2.2085371936706104 1
gene  1 183 59 -0.5805843668699451 1 11202.0 -0.5805843668699451 1
gene  1 185 59 0.1705135274684786 1 11204.0 0.1705135274684786 1
gene  1 8 60 0.3101207099842981 0 11217.0 0.3101207099842981 1
gene  1 10 60 12.325500302938988 0 11219.0 12.325500302938988 1
gene  1 40 60 -0.19353812994879016 0 11249.0 -0.19353812994879016 1
gene  1 45 60 10.15006269514881 0 11254.0 10.15006269514881 1
gene  1 61 60 -4.838126198610823 1 11270.0 -4.838126198610823 1
gene  1 72 60 -4.74053453711506 1 11281.0 -4.74053453711506 1
gene  1 177 60 0.4704814074614303 1 11386.0 0.4704814074614303 1
gene  1 179 60 -2.514879514188741 1 11388.0 -2.514879514188741 1
gene  1 187 60 -0.26230343787889515 1 11396.0 -0.26230343787889515 1
gene  1 7 61 1.4517457981579107 0 11406.0 1.4517457981579107 1
gene  1 15 61 5.784173732891196 0 11414.0 5.784173732891196 1
gene  1 22 61 -2.443158751980933 0 11421.0 -2.443158751980933 1
gene  1 28 61 2.405275090229948 0 11427.0 2.405275090229948 1
gene  1 36 61 3.0537719581726046 0 11435.0 3.0537719581726046 1
gene  1 53 61 -2.779978081684616 0 11452.0 -2.779978081684616 1
gene  1 54 61 2.174328994694565 0 11453.0 2.174328994694565 1
gene  1 67 61 3.4592663240918125 1 11466.0 3.4592663240918125 1
gene  1 177 61 -1.0422825043265966 1 11576.0 -1.0422825043265966 1
gene  1 184 61 -3.8005258762346945 1 11583.0 -3.8005258762346945 1
gene  1 6 62 -6.067088470206374 0 11595.0 -6.067088470206374 1
gene  1 11 62 -2.511671824631423 0 11600.0 -2.511671824631423 1
gene  1 15 62 -9.28015579277863 0 11604.0 -9.28015579277863 1
gene  1 26 62 0.6986451668124103 0 11615.0 0.6986451668124103 1
gene  1 53 62 1.3639193320865737 0 11642.0 1.3639193320865737 1
gene  1 68 62 2.5501769149523974 1 11657.0 2.5501769149523974 1
gene  1 72 62 4.244658323076193 1 11661.0 4.244658323076193 1
gene  1 174 62 -1.6044363811777052 1 11763.0 -1.6044363811777052 1
gene  1 175 62 3.4880962308252963 1 11764.0 3.4880962308252963 1
gene  1 184 62 0.2129493237338873 1 11773.0 0.2129493237338873 1
gene  1 185 62 2.961896959126552 1 11774.0 2.961896959126552 1
gene  1 188 62 0.3605429236052071 1 11777.0 0.3605429236052071 1
gene  1 31 63 1.9998356976141283 0 11810.0 1.9998356976141283 1
gene  1 32 63 2.3151439817275206 0 11811.0 2.3151439817275206 1
gene  1 37 63 -2.476272980348327 0 11816.0 -2.476272980348327 1
gene  1 38 63 -0.2950334252089011 0 11817.0 -0.2950334252089011 1
gene  1 42 63 -4.354482164777714 0 11821.0 -4.354482164777714 1
gene  1 46 63 -1.7494527676701288 0 11825.0 -1.7494527676701288 1
gene  1 48 63 -1.4629727952777318 0 11827.0 -1.4629727952777318 1
gene  1 50 63 -6.6702743081202005 0 11829.0 -6.6702743081202005 1
gene  1 60 63 2.26936158008367 0 11839.0 2.26936158008367 1
gene  1 63 63 1.2275279049981564 1 11842.0 1.2275279049981564 1
gene  1 72 63 -3.9631133611129394 1 11851.0 -3.9631133611129394 1
gene  1 74 63 -15.707530173786386 1 11853.0 -15.707530173786386 1
gene  1 178 63 2.0997926935892153 1 11957.0 2.0997926935892153 1
gene  1 180 63 1.7795800645990703 1 11959.0 1.7795800645990703 1
gene  1 181 63 -0.40664609018861153 1 11960.0 -0.40664609018861153 1
gene  1 8 64 4.531247979048887 0 11977.0 4.531247979048887 1
gene  1 11 64 4.484198014478077 0 11980.0 4.484198014478077 1
gene  1 20 64 -2.321582011246011 0 11989.0 -2.321582011246011 1
gene  1 27 64 2.5542628613783918 0 11996.0 2.5542628613783918 1
gene  1 41 64 0.5303163289954143 0 12010.0 0.5303163289954143 1
gene  1 44 64 0.688459861323093 0 12013.0 0.688459861323093 1
gene  1 49 64 4.253891260708924 0 12018.0 4.253891260708924 1
gene  1 50 64 2.1497013741847715 0 12019.0 2.1497013741847715 1
gene  1 53 64 6.181201793670895 0 12022.0 6.181201793670895 1
gene  1 59 64 -3.118585063623072 0 12028.0 -3.118585063623072 1
gene  1 70 64 -0.9546028990664662 1 12039.0 -0.9546028990664662 1
gene  1 176 64 -0.8658565239259668 1 12145.0 -0.8658565239259668 1
gene  1 179 64 0.3847222951775249 1 12148.0 0.3847222951775249 1
gene  1 183 64 -4.979204711697602 1 12152.0 -4.979204711697602 1
gene  1 184 64 3.4848151326857275 1 12153.0 3.4848151326857275 1
gene  1 185 64 2.726097863067825 1 12154.0 2.726097863067825 1
gene  1 8 65 3.108762131487893 0 12167.0 3.108762131487893 1
gene  1 13 65 0.6052851863879436 0 12172.0 0.6052851863879436 1
gene  1 18 65 8.175174382735781 0 12177.0 8.175174382735781 1
gene  1 39 65 -15.951630024057033 0 12198.0 -15.951630024057033 1
gene  1 53 65 1.7676157041792069 0 12212.0 1.7676157041792069 1
gene  1 69 65 -0.19749250478549307 1 12228.0 -0.19749250478549307 1
gene  1 70 65 -2.151513273802026 1 12229.0 -2.151513273802026 1
gene  1 175 65 -0.8769146392721296 1 12334.0 -0.8769146392721296 1
gene  1 176 65 -3.0812632715352484 1 12335.0 -3.0812632715352484 1
gene  1 177 65 -1.2304307187777423 1 12336.0 -1.2304307187777423 1
gene  1 185 65 -6.557664855384567 1 12344.0 -6.557664855384567 1
gene  1 1 66 2.5177070984570156 0 12350.0 2.5177070984570156 1
gene  1 4 66 2.160840069265253 0 12353.0 2.160840069265253 1
gene  1 18 66 -2.036098268153914 0 12367.0 -2.036098268153914 1
gene  1 21 66 -7.7003027761432135 0 12370.0 -7.7003027761432135 1
gene  1 43 66 -2.6428296263017357 0 12392.0 -2.6428296263017357 1
gene  1 47 66 2.434771363113154 0 12396.0 2.434771363113154 1
gene  1 50 66 -5.028790723433999 0 12399.0 -5.028790723433999 1
gene  1 60 66 3.937871803981042 0 12409.0 3.937871803981042 1
gene  1 62 66 -4.003465057432237 0 12411.0 -4.003465057432237 1
gene  1 66 66 2.3945240164371997 1 12415.0 2.3945240164371997 1
gene  1 184 66 0.7793895990575739 1 12533.0 0.7793895990575739 1
gene  1 8 67 -9.582349450051632 0 12547.0 -9.582349450051632 1
gene  1 38 67 1.9089211142269293 0 12577.0 1.9089211142269293 1
gene  1 46 67 2.0257010742778023 0 12585.0 2.0257010742778023 1
gene  1 49 67 4.243969774271392 0 12588.0 4.243969774271392 1
gene  1 57 67 -5.155311898390233 0 12596.0 -5.155311898390233 1
gene  1 61 67 1.4579999516938056 0 12600.0 1.4579999516938056 1
gene  1 72 67 0.43042638157363233 1 12611.0 0.43042638157363233 1
gene  1 177 67 1.4477689917609815 1 12716.0 1.4477689917609815 1
gene  1 182 67 -2.428697571487418 1 12721.0 -2.428697571487418 1
gene  1 185 67 -3.134836750113023 1 12724.0 -3.134836750113023 1
gene  1 189 67 2.827395975740061 1 12728.0 2.827395975740061 1
gene  1 5 68 -3.1872778530888572 0 12734.0 -3.1872778530888572 1
gene  1 16 68 8.384777953865557 0 12745.0 8.384777953865557 1
gene  1 40 68 -3.8361507728559965 0 12769.0 -3.8361507728559965 1
gene  1 41 68 -2.5544399529162556 0 12770.0 -2.5544399529162556 1
gene  1 42 68 -4.5786721851677745 0 12771.0 -4.5786721851677745 1
gene  1 71 68 6.691892292979347 1 12800.0 6.691892292979347 1
gene  1 185 68 -6.77212505844031 1 12914.0 -6.77212505844031 1
gene  1 6 69 -3.687469680734247 0 12925.0 -3.687469680734247 1
gene  1 16 69 -5.18303346483832 0 12935.0 -5.18303346483832 1
gene  1 19 69 -3.4878173622110857 0 12938.0 -3.4878173622110857 1
gene  1 44 69 -1.0348530162319054 0 12963.0 -1.0348530162319054 1
gene  1 45 69 0.5556747806512972 0 12964.0 0.5556747806512972 1
gene  1 65 69 -5.012721194255565 0 12984.0 -5.012721194255565 1
gene  1 171 69 4.670246677668741 1 13090.0 4.670246677668741 1
gene  1 3 70 -0.5088535442835773 0 13112.0 -0.5088535442835773 1
gene  1 39 70 1.132803715864547 0 13148.0 1.132803715864547 1
gene  1 60 70 2.7973290978353442 0 13169.0 2.7973290978353442 1
gene  1 171 70 6.699731973558106 1 13280.0 6.699731973558106 1
gene  1 181 70 -0.5087287185475258 1 13290.0 -0.5087287185475258 1
gene  1 183 70 -0.06095390821150665 1 13292.0 -0.06095390821150665 1
gene  1 11 71 8.288007106029886 0 13310.0 8.288007106029886 1
gene  1 15 71 0.7407845185326212 0 13314.0 0.7407845185326212 1
gene  1 30 71 -3.8326228894618666 0 13329.0 -3.8326228894618666 1
gene  1 33 71 -0.7252414255602517 0 13332.0 -0.7252414255602517 1
gene  1 34 71 2.412953769249247 0 13333.0 2.412953769249247 1
gene  1 48 71 9.523783005152664 0 13347.0 9.523783005152664 1
gene  1 50 71 5.741296250633056 0 13349.0 5.741296250633056 1
gene  1 51 71 -1.527710128472617 0 13350.0 -1.527710128472617 1
gene  1 57 71 0.8469549849407279 0 13356.0 0.8469549849407279 1
gene  1 73 71 1.8369554270376183 1 13372.0 1.8369554270376183 1
gene  1 185 71 -2.2453234310248966 1 13484.0 -2.2453234310248966 1
gene  1 24 72 -3.8015460887614663 0 13513.0 -3.8015460887614663 1
gene  1 51 72 9.36394800081655 0 13540.0 9.36394800081655 1
gene  1 54 72 0.2410906751344225 0 13543.0 0.2410906751344225 1
gene  1 60 72 1.542880496031171 0 13549.0 1.542880496031171 1
gene  1 3 73 -4.576663291264341 0 13682.0 -4.576663291264341 1
gene  1 18 73 -5.6515177365135365 0 13697.0 -5.6515177365135365 1
gene  1 30 73 -0.5932026088981497 0 13709.0 -0.5932026088981497 1
gene  1 41 73 5.436859950890237 0 13720.0 5.436859950890237 1
gene  1 54 73 4.626569484057256 0 13733.0 4.626569484057256 1
gene  1 59 73 -1.8572429707200586 0 13738.0 -1.8572429707200586 1
gene  1 60 73 -1.5950254294957533 0 13739.0 -1.5950254294957533 1
gene  1 179 73 3.7694218260899968 1 13858.0 3.7694218260899968 1
gene  1 189 73 0.4876803208594689 1 13868.0 0.4876803208594689 1
gene  1 31 74 1.86898400842885 0 13900.0 1.86898400842885 1
gene  1 38 74 7.1075721873205575 0 13907.0 7.1075721873205575 1
gene  1 67 74 3.9220709405214635 0 13936.0 3.9220709405214635 1
gene  1 74 74 5.260920544357498 1 13943.0 5.260920544357498 1
gene  1 188 74 -0.15727316331947216 1 14057.0 -0.15727316331947216 1
gene  1 2 75 -9.11944740625627 0 14061.0 -9.11944740625627 1
gene  1 10 75 -1.2497463712110162 0 14069.0 -1.2497463712110162 1
gene  1 12 75 10.195251755467115 0 14071.0 10.195251755467115 1
gene  1 15 75 3.2654638952532316 0 14074.0 3.2654638952532316 1
gene  1 18 75 1.5940579723462596 0 14077.0 1.5940579723462596 1
gene  1 43 75 2.3745692932784404 0 14102.0 2.3745692932784404 1
gene  1 46 75 14.38092580931051 0 14105.0 14.38092580931051 1
gene  1 56 75 1.6738126108127418 0 14115.0 1.6738126108127418 1
gene  1 57 75 -24.703541299379715 0 14116.0 -24.703541299379715 1
gene  1 177 75 3.267784104620463 1 14236.0 3.267784104620463 1
gene  1 183 75 -5.865199875750852 1 14242.0 -5.865199875750852 1
gene  1 3 171 -3.6977407450207767 0 32302.0 -3.6977407450207767 1
gene  1 10 171 2.4861471534066313 0 32309.0 2.4861471534066313 1
gene  1 18 171 2.2404072176804157 0 32317.0 2.2404072176804157 1
gene  1 35 171 1.9314727156161275 0 32334.0 1.9314727156161275 1
gene  1 47 171 -5.243332090982438 0 32346.0 -5.243332090982438 1
gene  1 48 171 2.9058339815107415 0 32347.0 2.9058339815107415 1
gene  1 63 171 -3.9454645160511084 0 32362.0 -3.9454645160511084 1
gene  1 74 171 10.185068657162299 0 32373.0 10.185068657162299 1
gene  1 171 171 -0.6661641110823031 1 32470.0 -0.6661641110823031 1
gene  1 180 171 -2.780648538698296 1 32479.0 -2.780648538698296 1
gene  1 181 171 1.7957874101185487 1 32480.0 1.7957874101185487 1
gene  1 16 172 4.270267764451035 0 32505.0 4.270267764451035 1
gene  1 38 172 0.7798398795017634 0 32527.0 0.7798398795017634 1
gene  1 58 172 0.34801866265302506 0 32547.0 0.34801866265302506 1
gene  1 59 172 1.178872742650399 0 32548.0 1.178872742650399 1
gene  1 60 172 3.096149190937722 0 32549.0 3.096149190937722 1
gene  1 73 172 -8.051087126952849 0 32562.0 -8.051087126952849 1
gene  1 171 172 -0.4549085371826642 0 32660.0 -0.4549085371826642 1
gene  1 173 172 -0.41072995609178814 1 32662.0 -0.41072995609178814 1
gene  1 7 173 3.5436221805640757 0 32686.0 3.5436221805640757 1
gene  1 29 173 -7.646193803484093 0 32708.0 -7.646193803484093 1
gene  1 30 173 -0.5686203407333135 0 32709.0 -0.5686203407333135 1
gene  1 38 173 1.1411105405097612 0 32717.0 1.1411105405097612 1
gene  1 56 173 1.1491989269690974 0 32735.0 1.1491989269690974 1
gene  1 68 173 -5.822313290011767 0 32747.0 -5.822313290011767 1
gene  1 72 173 5.8018778429800495 0 32751.0 5.8018778429800495 1
gene  1 75 173 2.432747242687043 0 32754.0 2.432747242687043 1
gene  1 180 173 -1.385710545326452 1 32859.0 -1.385710545326452 1
gene  1 45 174 -0.5819895898166418 0 32914.0 -0.5819895898166418 1
gene  1 174 174 9.352508896282993 1 33043.0 9.352508896282993 1
gene  1 180 174 -9.546933868648777 1 33049.0 -9.546933868648777 1
gene  1 186 174 3.5973054291446216 1 33055.0 3.5973054291446216 1
gene  1 2 175 -1.672203276581878 0 33061.0 -1.672203276581878 1
gene  1 11 175 -0.15243112334872055 0 33070.0 -0.15243112334872055 1
gene  1 26 175 -3.2686083704967226 0 33085.0 -3.2686083704967226 1
gene  1 37 175 0.24626235198608587 0 33096.0 0.24626235198608587 1
gene  1 43 175 -2.6661169176420136 0 33102.0 -2.6661169176420136 1
gene  1 48 175 0.21272676597093243 0 33107.0 0.21272676597093243 1
gene  1 51 175 -2.354884575632588 0 33110.0 -2.354884575632588 1
gene  1 64 175 -9.023930090609278 0 33123.0 -9.023930090609278 1
gene  1 70 175 0.056599370228420764 0 33129.0 0.056599370228420764 1
gene  1 71 175 4.626356804630024 0 33130.0 4.626356804630024 1
gene  1 177 175 -4.3074836591055705 1 33236.0 -4.3074836591055705 1
gene  1 178 175 1.1596999259312886 1 33237.0 1.1596999259312886 1
gene  1 181 175 -2.6326778099514807 1 33240.0 -2.6326778099514807 1
gene  1 184 175 -4.249343916271151 1 33243.0 -4.249343916271151 1
gene  1 186 175 3.787591174357646 1 33245.0 3.787591174357646 1
gene  1 2 176 -3.7003831655359427 0 33251.0 -3.7003831655359427 1
gene  1 8 176 0.9559449698719034 0 33257.0 0.9559449698719034 1
gene  1 9 176 -2.8548506852748563 0 33258.0 -2.8548506852748563 1
gene  1 12 176 -0.3706591806753994 0 33261.0 -0.3706591806753994 1
gene  1 15 176 -0.04597386997752739 0 33264.0 -0.04597386997752739 1
gene  1 16 176 -3.619130889228142 0 33265.0 -3.619130889228142 1
gene  1 35 176 4.697265897604167 0 33284.0 4.697265897604167 1
gene  1 37 176 0.5618143022917856 0 33286.0 0.5618143022917856 1
gene  1 46 176 4.36436197716978 0 33295.0 4.36436197716978 1
gene  1 62 176 -3.6394644900478736 0 33311.0 -3.6394644900478736 1
gene  1 64 176 -1.072813744122412 0 33313.0 -1.072813744122412 1
gene  1 171 176 -4.677653046410356 0 33420.0 -4.677653046410356 1
gene  1 174 176 -3.2094398943062554 0 33423.0 -3.2094398943062554 1
gene  1 179 176 -3.735124826387608 1 33428.0 -3.735124826387608 1
gene  1 1 177 -5.302920372711142 0 33440.0 -5.302920372711142 1
gene  1 7 177 -5.578974240759183 0 33446.0 -5.578974240759183 1
gene  1 8 177 2.4813949256392314 0 33447.0 2.4813949256392314 1
gene  1 9 177 -2.292636244380285 0 33448.0 -2.292636244380285 1
gene  1 14 177 5.265724239359909 0 33453.0 5.265724239359909 1
gene  1 16 177 1.2147700081117794 0 33455.0 1.2147700081117794 1
gene  1 20 177 2.912265126948 0 33459.0 2.912265126948 1
gene  1 30 177 11.368288971947335 0 33469.0 11.368288971947335 1
gene  1 31 177 -3.3627082113440827 0 33470.0 -3.3627082113440827 1
gene  1 32 177 -4.37770637958583 0 33471.0 -4.37770637958583 1
gene  1 43 177 3.9465377236332158 0 33482.0 3.9465377236332158 1
gene  1 44 177 4.400253339993024 0 33483.0 4.400253339993024 1
gene  1 53 177 -5.018232271172017 0 33492.0 -5.018232271172017 1
gene  1 59 177 -4.118447682396914 0 33498.0 -4.118447682396914 1
gene  1 69 177 5.9415765725360865 0 33508.0 5.9415765725360865 1
gene  1 174 177 -13.575930552047781 0 33613.0 -13.575930552047781 1
gene  1 175 177 -1.2823323398902515 0 33614.0 -1.2823323398902515 1
gene  1 184 177 4.441556313983878 1 33623.0 4.441556313983878 1
gene  1 187 177 3.3994746121387442 1 33626.0 3.3994746121387442 1
gene  1 1 178 -11.037981765279614 0 33630.0 -11.037981765279614 1
gene  1 20 178 1.0221206179358953 0 33649.0 1.0221206179358953 1
gene  1 26 178 -3.2884384640620574 0 33655.0 -3.2884384640620574 1
gene  1 35 178 -3.6303118409108803 0 33664.0 -3.6303118409108803 1
gene  1 42 178 -0.8346690198440925 0 33671.0 -0.8346690198440925 1
gene  1 53 178 2.733327349454138 0 33682.0 2.733327349454138 1
gene  1 59 178 8.515419888376616 0 33688.0 8.515419888376616 1
gene  1 72 178 -8.806554535415493 0 33701.0 -8.806554535415493 1
gene  1 172 178 1.847266450342413 0 33801.0 1.847266450342413 1
gene  1 190 178 0.007123797483246097 1 33819.0 0.007123797483246097 1
gene  1 6 179 -1.1622287946659 0 33825.0 -1.1622287946659 1
gene  1 8 179 7.559500428988137 0 33827.0 7.559500428988137 1
gene  1 13 179 0.11084357504851172 0 33832.0 0.11084357504851172 1
gene  1 36 179 10.945749772047119 0 33855.0 10.945749772047119 1
gene  1 46 179 0.5138500548820386 0 33865.0 0.5138500548820386 1
gene  1 60 179 -0.8152783994706165 0 33879.0 -0.8152783994706165 1
gene  1 61 179 5.632047992301175 0 33880.0 5.632047992301175 1
gene  1 72 179 -4.791164207365737 0 33891.0 -4.791164207365737 1
gene  1 74 179 -1.358415124975096 0 33893.0 -1.358415124975096 1
gene  1 171 179 2.7534705519300067 0 33990.0 2.7534705519300067 1
gene  1 185 179 -1.494169426231079 1 34004.0 -1.494169426231079 1
gene  1 1 180 -1.2811548155087875 0 34010.0 -1.2811548155087875 1
gene  1 4 180 -8.90748725343246 0 34013.0 -8.90748725343246 1
gene  1 8 180 -4.064953419588241 0 34017.0 -4.064953419588241 1
gene  1 11 180 -2.1314867383296865 0 34020.0 -2.1314867383296865 1
gene  1 21 180 -1.0170673007305528 0 34030.0 -1.0170673007305528 1
gene  1 32 180 -6.767228998596691 0 34041.0 -6.767228998596691 1
gene  1 35 180 -1.3369438535576945 0 34044.0 -1.3369438535576945 1
gene  1 46 180 -3.8756866934814225 0 34055.0 -3.8756866934814225 1
gene  1 68 180 -2.0258593706809425 0 34077.0 -2.0258593706809425 1
gene  1 188 180 -2.7896400770175322 1 34197.0 -2.7896400770175322 1
gene  1 2 181 7.457901107384205 0 34201.0 7.457901107384205 1
gene  1 16 181 -12.232082148927955 0 34215.0 -12.232082148927955 1
gene  1 24 181 -2.3003303959607964 0 34223.0 -2.3003303959607964 1
gene  1 36 181 -3.143524698310323 0 34235.0 -3.143524698310323 1
gene  1 60 181 0.23458309872563976 0 34259.0 0.23458309872563976 1
gene  1 69 181 -3.3460319233975406 0 34268.0 -3.3460319233975406 1
gene  1 190 181 0.9609367742924073 1 34389.0 0.9609367742924073 1
gene  1 1 182 -2.5236680676558656 0 34390.0 -2.5236680676558656 1
gene  1 17 182 1.06086650086481 0 34406.0 1.06086650086481 1
gene  1 35 182 -1.4837334268078017 0 34424.0 -1.4837334268078017 1
gene  1 44 182 1.2642831978967477 0 34433.0 1.2642831978967477 1
gene  1 49 182 -2.0651431327090126 0 34438.0 -2.0651431327090126 1
gene  1 50 182 1.639158520745255 0 34439.0 1.639158520745255 1
gene  1 54 182 -5.326682361231269 0 34443.0 -5.326682361231269 1
gene  1 59 182 4.676857698926471 0 34448.0 4.676857698926471 1
gene  1 73 182 -0.5670142267330005 0 34462.0 -0.5670142267330005 1
gene  1 174 182 -2.065187940137132 0 34563.0 -2.065187940137132 1
gene  1 187 182 3.6314519414167403 1 34576.0 3.6314519414167403 1
gene  1 6 183 5.0670976601179305 0 34585.0 5.0670976601179305 1
gene  1 7 183 -0.5587075719849806 0 34586.0 -0.5587075719849806 1
gene  1 17 183 -4.321302255017716 0 34596.0 -4.321302255017716 1
gene  1 20 183 -0.6666282514243537 0 34599.0 -0.6666282514243537 1
gene  1 25 183 -0.5188211287859883 0 34604.0 -0.5188211287859883 1
gene  1 30 183 6.638486091567696 0 34609.0 6.638486091567696 1
gene  1 39 183 0.4764770949147461 0 34618.0 0.4764770949147461 1
gene  1 44 183 2.011531633768847 0 34623.0 2.011531633768847 1
gene  1 66 183 3.3780939561446073 0 34645.0 3.3780939561446073 1
gene  1 171 183 1.9509667237697705 0 34750.0 1.9509667237697705 1
gene  1 174 183 -2.3715171903180803 0 34753.0 -2.3715171903180803 1
gene  1 21 184 -5.25678489953617 0 34790.0 -5.25678489953617 1
gene  1 29 184 5.0529544385636225 0 34798.0 5.0529544385636225 1
gene  1 32 184 4.988438638787648 0 34801.0 4.988438638787648 1
gene  1 36 184 -5.365622156649216 0 34805.0 -5.365622156649216 1
gene  1 45 184 6.130168787463938 0 34814.0 6.130168787463938 1
gene  1 46 184 -0.8680314025037403 0 34815.0 -0.8680314025037403 1
gene  1 63 184 1.2584812390435876 0 34832.0 1.2584812390435876 1
gene  1 66 184 -11.382806872780638 0 34835.0 -11.382806872780638 1
gene  1 177 184 -5.686604619041758 0 34946.0 -5.686604619041758 1
gene  1 31 185 -2.347533559278322 0 34990.0 -2.347533559278322 1
gene  1 50 185 2.348416249991536 0 35009.0 2.348416249991536 1
gene  1 56 185 -6.118245563298701 0 35015.0 -6.118245563298701 1
gene  1 58 185 3.148999333324346 0 35017.0 3.148999333324346 1
gene  1 62 185 -2.8869457444804687 0 35021.0 -2.8869457444804687 1
gene  1 173 185 -4.9241898684305445 0 35132.0 -4.9241898684305445 1
gene  1 179 185 1.8298023257406573 0 35138.0 1.8298023257406573 1
gene  1 182 185 -6.643587952997796 0 35141.0 -6.643587952997796 1
gene  1 188 185 0.22551733668949248 1 35147.0 0.22551733668949248 1
gene  1 1 186 0.05127762774783862 0 35150.0 0.05127762774783862 1
gene  1 3 186 7.77339452283749 0 35152.0 7.77339452283749 1
gene  1 4 186 0.6716129055083884 0 35153.0 0.6716129055083884 1
gene  1 6 186 -2.4264058391404992 0 35155.0 -2.4264058391404992 1
gene  1 7 186 -0.8075602830229816 0 35156.0 -0.8075602830229816 1
gene  1 17 186 -1.0228654611203847 0 35166.0 -1.0228654611203847 1
gene  1 23 186 -2.0626779268872406 0 35172.0 -2.0626779268872406 1
gene  1 28 186 -1.185167533345185 0 35177.0 -1.185167533345185 1
gene  1 33 186 1.8135780178621497 0 35182.0 1.8135780178621497 1
gene  1 36 186 -1.2357255139841987 0 35185.0 -1.2357255139841987 1
gene  1 58 186 -7.0795642905257035 0 35207.0 -7.0795642905257035 1
gene  1 69 186 0.09918151959006388 0 35218.0 0.09918151959006388 1
gene  1 70 186 -10.338152585196475 0 35219.0 -10.338152585196475 1
gene  1 72 186 -2.438197180242233 0 35221.0 -2.438197180242233 1
gene  1 10 187 0.6576002049684231 0 35349.0 0.6576002049684231 1
gene  1 25 187 3.3829856647615544 0 35364.0 3.3829856647615544 1
gene  1 31 187 -1.369955145035122 0 35370.0 -1.369955145035122 1
gene  1 33 187 0.47420505183407596 0 35372.0 0.47420505183407596 1
gene  1 47 187 0.930934816482309 0 35386.0 0.930934816482309 1
gene  1 57 187 3.422193134757886 0 35396.0 3.422193134757886 1
gene  1 183 187 -0.45918969975480756 0 35522.0 -0.45918969975480756 1
gene  1 184 187 0.7214224842656658 0 35523.0 0.7214224842656658 1
gene  1 5 188 -1.807051193460787 0 35534.0 -1.807051193460787 1
gene  1 6 188 0.8304284899262298 0 35535.0 0.8304284899262298 1
gene  1 12 188 -2.389290754090034 0 35541.0 -2.389290754090034 1
gene  1 28 188 -1.7963785928635394 0 35557.0 -1.7963785928635394 1
gene  1 32 188 0.8072998054371285 0 35561.0 0.8072998054371285 1
gene  1 35 188 2.439222240734461 0 35564.0 2.439222240734461 1
gene  1 57 188 3.160487626458684 0 35586.0 3.160487626458684 1
gene  1 172 188 1.4541128576635654 0 35701.0 1.4541128576635654 1
gene  1 14 189 0.12414680266451761 0 35733.0 0.12414680266451761 1
gene  1 17 189 -0.4497537694433637 0 35736.0 -0.4497537694433637 1
gene  1 27 189 -1.0506453845940875 0 35746.0 -1.0506453845940875 1
gene  1 37 189 0.6940928348702371 0 35756.0 0.6940928348702371 1
gene  1 43 189 0.25580889100069704 0 35762.0 0.25580889100069704 1
gene  1 51 189 -0.1739681138311594 0 35770.0 -0.1739681138311594 1
gene  1 56 189 0.5367106977815392 0 35775.0 0.5367106977815392 1
gene  1 59 189 -2.3745739308382623 0 35778.0 -2.3745739308382623 1
gene  1 65 189 -0.5545772023611408 0 35784.0 -0.5545772023611408 1
gene  1 73 189 -2.1950131348856265 0 35792.0 -2.1950131348856265 1
gene  1 74 189 0.6095442578923657 0 35793.0 0.6095442578923657 1
gene  1 178 189 -0.8873354836342726 0 35897.0 -0.8873354836342726 1
gene  1 1 190 -3.0301109376952717 0 35910.0 -3.0301109376952717 1
gene  1 4 190 0.1569472775829106 0 35913.0 0.1569472775829106 1
gene  1 15 190 3.070894549306692 0 35924.0 3.070894549306692 1
gene  1 22 190 -2.087660899839805 0 35931.0 -2.087660899839805 1
gene  1 33 190 2.7847768292286608 0 35942.0 2.7847768292286608 1
gene  1 58 190 1.1385824122849377 0 35967.0 1.1385824122849377 1
gene  1 60 190 -0.6695553857279803 0 35969.0 -0.6695553857279803 1
gene  1 67 190 -0.35025365635404676 0 35976.0 -0.35025365635404676 1
gene  1 179 190 -1.2197013267720682 0 36088.0 -1.2197013267720682 1
gene  1 181 190 -2.330528428978757 0 36090.0 -2.330528428978757 1
gene  1 182 190 2.1774559146856824 0 36091.0 2.1774559146856824 1
gene  1 184 190 -0.13475570594033204 0 36093.0 -0.13475570594033204 1
gene  1 186 190 0.7691984284112183 0 36095.0 0.7691984284112183 1
gene  1 187 190 1.7641024877373241 0 36096.0 1.7641024877373241 1
gene  1 65 188 3.3730151074938775 0 36109.0 3.3730151074938775 1
gene  1 1 193 2.3352339412708667 0 36113.0 2.3352339412708667 1
gene  1 193 190 -2.005966052818022 0 36114.0 -2.005966052818022 1
gene  1 29 68 2.2647578666167196 0 36116.0 2.2647578666167196 1
gene  1 181 195 0.2501952576988706 1 36120.0 0.2501952576988706 1
gene  1 195 63 2.171495325081516 0 36121.0 2.171495325081516 1
gene  1 7 171 -1.4859806613995645 0 36125.0 -1.4859806613995645 1
gene  1 22 72 -0.8803154251521506 0 36150.0 -0.8803154251521506 1
gene  1 47 212 2.2593216487470986 0 36196.0 2.2593216487470986 1
gene  1 212 55 4.4597445069649 0 36197.0 4.4597445069649 1
gene  1 55 58 2.7690203399135602 0 36200.0 2.7690203399135602 1
gene  1 33 217 -3.5871568705990926 0 36231.0 -3.5871568705990926 1
gene  1 217 187 -3.1008461666737377 0 36232.0 -3.1008461666737377 1
gene  1 69 56 1.3072184026843212 0 36255.0 1.3072184026843212 1
gene  1 51 173 0.25077805572363304 0 36261.0 0.25077805572363304 1
gene  1 35 230 -0.921761779844724 0 36282.0 -0.921761779844724 1
gene  1 230 57 -3.3676350923013665 0 36283.0 -3.3676350923013665 1
gene  1 43 244 -3.14870003127333 0 36330.0 -3.14870003127333 1
gene  1 244 189 1.5525849826255893 0 36331.0 1.5525849826255893 1
gene  1 13 172 -2.8305852740727593 0 36334.0 -2.8305852740727593 1
gene  1 52 230 0.2972626879292255 0 36357.0 0.2972626879292255 1
gene  1 68 188 -3.2728035856673854 0 36380.0 -3.2728035856673854 1
gene  1 12 54 -0.29260789720379576 0 36383.0 -0.29260789720379576 1
gene  1 181 74 4.793692582946521 0 36429.0 4.793692582946521 1
gene  1 61 177 2.176298251249631 0 36460.0 2.176298251249631 1
gene  1 20 184 -4.982873033846348 0 36496.0 -4.982873033846348 1
gene  1 190 176 -0.12938273458899507 0 36516.0 -0.12938273458899507 1
gene  1 22 291 2.6958525599159007 0 36524.0 2.6958525599159007 1
gene  1 291 190 -1.313624302411684 0 36525.0 -1.313624302411684 1
gene  1 75 174 -2.471645198621835 0 36555.0 -2.471645198621835 1
gene  1 35 297 -0.7481636517261484 0 36562.0 -0.7481636517261484 1
gene  1 297 171 -0.2847127703438479 0 36563.0 -0.2847127703438479 1
gene  1 33 184 -0.4567640402210632 0 36565.0 -0.4567640402210632 1
gene  1 35 186 -0.5563819940167121 0 36569.0 -0.5563819940167121 1
gene  1 51 300 -4.146485989994112 0 36574.0 -4.146485989994112 1
gene  1 300 71 -0.5989601482647594 0 36575.0 -0.5989601482647594 1
gene  1 49 172 2.1533431984512874 0 36658.0 2.1533431984512874 1
gene  1 75 177 1.9103966532099363 0 36665.0 1.9103966532099363 1
gene  1 53 321 2.20635167560616 0 36673.0 2.20635167560616 1
gene  1 321 62 -0.5671552432461493 0 36674.0 -0.5671552432461493 1
gene  1 47 62 -3.1754380581843678 0 36689.0 -3.1754380581843678 1
gene  1 59 61 -5.751332798920356 0 36693.0 -5.751332798920356 1
gene  1 11 60 3.7911144754042425 0 36729.0 3.7911144754042425 1
gene  1 65 180 1.2912772884498436 0 36760.0 1.2912772884498436 1
gene  1 4 230 1.303023134123379 0 36807.0 1.303023134123379 1
gene  1 55 75 2.089703294568066 0 36860.0 2.089703294568066 1
gene  1 28 173 -2.7605834791793855 0 36899.0 -2.7605834791793855 1
gene  1 186 184 -0.5604345538587312 0 36916.0 -0.5604345538587312 1
gene  1 176 189 -2.602522967975636 0 36945.0 -2.602522967975636 1
gene  1 174 67 -3.2929359163785614 0 36965.0 -3.2929359163785614 1
gene  1 15 66 3.1358139948972914 0 36971.0 3.1358139948972914 1
gene  1 30 188 7.739147594687338 0 36991.0 7.739147594687338 1
genomeend 1
/*-------------------------------------------------------------------*/
/* Species # 011         : (size= 004) (AvfFit= 1669,244) (Age= 154,000)  */
/*-------------------------------------------------------------------*/
/* Organism # 002 Fitness:  1650,027 Error:  1000,000                      */
genomestart  2
trait 1 0.0 3.0605660378469453 3.7437294643484584 1.5687739417363336 0.0 1.1849197892342271 1.0932083981843062 3.0082976026708113 
node 1 1 1 1
node 2 1 1 1
node 3 1 1 1
node 4 1 1 1
node 5 1 1 1
node 6 1 1 1
node 7 1 1 1
node 8 1 1 1
node 9 1 1 1
node 10 1 1 1
node 11 1 1 1
node 12 1 1 1
node 13 1 1 1
node 14 1 1 1
node 15 1 1 1
node 16 1 1 1
node 17 1 1 1
node 18 1 1 1
node 19 1 1 1
node 20 1 1 1
node 21 1 1 1
node 22 1 1 1
node 23 1 1 1
node 24 1 1 1
node 25 1 1 1
node 26 1 1 1
node 27 1 1 1
node 28 1 1 1
node 29 1 1 1
node 30 1 1 1
node 31 1 1 1
node 32 1 1 1
node 33 1 1 1
node 34 1 1 1
node 35 1 1 1
node 36 1 1 1
node 37 1 1 1
node 38 1 1 1
node 39 1 1 1
node 40 1 1 1
node 41 1 1 1
node 42 1 1 1
node 43 1 1 1
node 44 1 1 1
node 45 1 1 1
node 46 1 1 1
node 47 1 1 1
node 48 1 1 1
node 49 1 1 1
node 50 1 1 3
node 51 1 0 0
node 52 1 0 0
node 53 1 0 0
node 54 1 0 0
node 55 1 0 0
node 56 1 0 0
node 57 1 0 0
node 58 1 0 0
node 59 1 0 0
node 60 1 0 0
node 61 1 0 0
node 62 1 0 0
node 63 1 0 0
node 64 1 0 0
node 65 1 0 0
node 66 1 0 0
node 67 1 0 0
node 68 1 0 0
node 69 1 0 0
node 70 1 0 0
node 71 1 0 0
node 72 1 0 0
node 73 1 0 0
node 74 1 0 0
node 75 1 0 0
node 171 1 0 2
node 172 1 0 2
node 173 1 0 2
node 174 1 0 2
node 175 1 0 2
node 176 1 0 2
node 177 1 0 2
node 178 1 0 2
node 179 1 0 2
node 180 1 0 2
node 181 1 0 2
node 182 1 0 2
node 183 1 0 2
node 184 1 0 2
node 185 1 0 2
node 186 1 0 2
node 187 1 0 2
node 188 1 0 2
node 189 1 0 2
node 190 1 0 2
node 208 1 0 0
node 236 1 0 0
node 245 1 0 0
node 282 1 0 0
node 284 1 0 0
node 323 1 0 0
node 326 1 0 0
node 331 1 0 0
node 377 1 0 0
node 381 1 0 0
node 382 1 0 0
gene  1 28 51 1.5296364269579132 0 9527.0 1.5296364269579132 1
gene  1 33 51 -2.5462560021588003 0 9532.0 -2.5462560021588003 1
gene  1 36 51 4.520516855208502 0 9535.0 4.520516855208502 1
gene  1 40 51 -1.7806170978617037 0 9539.0 -1.7806170978617037 1
gene  1 42 51 -1.6195555209287524 0 9541.0 -1.6195555209287524 1
gene  1 54 51 -1.4377558368495837 1 9553.0 -1.4377558368495837 1
gene  1 57 51 3.335538700896666 1 9556.0 3.335538700896666 1
gene  1 68 51 4.565385309148415 1 9567.0 4.565385309148415 1
gene  1 174 51 10.857017196328844 1 9673.0 10.857017196328844 1
gene  1 183 51 0.8938391781861826 1 9682.0 0.8938391781861826 1
gene  1 184 51 10.551880275264633 1 9683.0 10.551880275264633 1
gene  1 189 51 10.820786790173901 1 9688.0 10.820786790173901 1
gene  1 3 52 0.005486279517511017 0 9692.0 0.005486279517511017 1
gene  1 6 52 -3.3496242542068977 0 9695.0 -3.3496242542068977 1
gene  1 24 52 -2.038553858105159 0 9713.0 -2.038553858105159 1
gene  1 29 52 -4.488506316113016 0 9718.0 -4.488506316113016 1
gene  1 31 52 -0.8769337206252172 0 9720.0 -0.8769337206252172 1
gene  1 35 52 4.6563764936641485 0 9724.0 4.6563764936641485 1
gene  1 63 52 2.096481260061119 1 9752.0 2.096481260061119 1
gene  1 179 52 -7.5525025414434035 1 9868.0 -7.5525025414434035 1
gene  1 183 52 -0.5276104106155755 1 9872.0 -0.5276104106155755 1
gene  1 184 52 0.7736257506672568 1 9873.0 0.7736257506672568 1
gene  1 185 52 -1.523238662636025 1 9874.0 -1.523238662636025 1
gene  1 5 53 -2.65569125696372 0 9884.0 -2.65569125696372 1
gene  1 6 53 -0.26035922592237815 0 9885.0 -0.26035922592237815 1
gene  1 10 53 14.426277915092365 0 9889.0 14.426277915092365 1
gene  1 33 53 -2.343063063891096 0 9912.0 -2.343063063891096 1
gene  1 35 53 0.14149708891692225 0 9914.0 0.14149708891692225 1
gene  1 38 53 -2.814514359829007 0 9917.0 -2.814514359829007 1
gene  1 45 53 -2.2014331220957093 0 9924.0 -2.2014331220957093 1
gene  1 71 53 2.440156021494868 1 9950.0 2.440156021494868 1
gene  1 16 54 2.1771564753148733 0 10085.0 2.1771564753148733 1
gene  1 19 54 2.721830732867139 0 10088.0 2.721830732867139 1
gene  1 36 54 -0.43581151070876034 0 10105.0 -0.43581151070876034 1
gene  1 42 54 2.871218024012036 0 10111.0 2.871218024012036 1
gene  1 58 54 1.5524714639155908 1 10127.0 1.5524714639155908 1
gene  1 62 54 10.088001923865118 1 10131.0 10.088001923865118 1
gene  1 73 54 10.195306557822272 1 10142.0 10.195306557822272 1
gene  1 177 54 -0.48789950116417136 1 10246.0 -0.48789950116417136 1
gene  1 180 54 2.1796355783395858 1 10249.0 2.1796355783395858 1
gene  1 190 54 2.2367013228800428 1 10259.0 2.2367013228800428 1
gene  1 20 55 5.9866234298026555 0 10279.0 5.9866234298026555 1
gene  1 31 55 -3.4419795655584973 0 10290.0 -3.4419795655584973 1
gene  1 35 55 4.093412979150175 0 10294.0 4.093412979150175 1
gene  1 41 55 4.946027031305238 0 10300.0 4.946027031305238 1
gene  1 47 55 2.4649099742716354 0 10306.0 2.4649099742716354 1
gene  1 52 55 -11.802066830013622 0 10311.0 -11.802066830013622 1
gene  1 69 55 4.784088226391903 1 10328.0 4.784088226391903 1
gene  1 75 55 -0.09009397097568728 1 10334.0 -0.09009397097568728 1
gene  1 187 55 -1.6867278517703912 1 10446.0 -1.6867278517703912 1
gene  1 7 56 -0.7289504914382269 0 10456.0 -0.7289504914382269 1
gene  1 11 56 3.3019312973708175 0 10460.0 3.3019312973708175 1
gene  1 13 56 -5.389433571574095 0 10462.0 -5.389433571574095 1
gene  1 36 56 2.2760180599811375 0 10485.0 2.2760180599811375 1
gene  1 41 56 11.348582637759526 0 10490.0 11.348582637759526 1
gene  1 44 56 -13.388152400388341 0 10493.0 -13.388152400388341 1
gene  1 46 56 -1.511732026065804 0 10495.0 -1.511732026065804 1
gene  1 49 56 -6.833410885770445 0 10498.0 -6.833410885770445 1
gene  1 68 56 -3.2105811952270593 1 10517.0 -3.2105811952270593 1
gene  1 179 56 5.500330633435077 1 10628.0 5.500330633435077 1
gene  1 183 56 -5.330923792290686 1 10632.0 -5.330923792290686 1
gene  1 3 57 1.9410361096589184 0 10642.0 1.9410361096589184 1
gene  1 19 57 -5.195244518443858 0 10658.0 -5.195244518443858 1
gene  1 22 57 -0.7047995940248124 0 10661.0 -0.7047995940248124 1
gene  1 28 57 -0.4697288629344993 0 10667.0 -0.4697288629344993 1
gene  1 30 57 0.5380857114091016 0 10669.0 0.5380857114091016 1
gene  1 35 57 1.38072627161179 0 10674.0 1.38072627161179 1
gene  1 47 57 -0.5347946598871007 0 10686.0 -0.5347946598871007 1
gene  1 59 57 -4.66688867547522 1 10698.0 -4.66688867547522 1
gene  1 60 57 -6.4086141162786125 1 10699.0 -6.4086141162786125 1
gene  1 187 57 5.90819778563775 1 10826.0 5.90819778563775 1
gene  1 5 58 5.96614782489682 0 10834.0 5.96614782489682 1
gene  1 14 58 -5.2973021238992715 0 10843.0 -5.2973021238992715 1
gene  1 15 58 6.0316119064286 0 10844.0 6.0316119064286 1
gene  1 24 58 10.022292920347873 0 10853.0 10.022292920347873 1
gene  1 32 58 -2.3534586642878206 0 10861.0 -2.3534586642878206 1
gene  1 43 58 4.444600050963524 0 10872.0 4.444600050963524 1
gene  1 49 58 -2.4486553097543116 0 10878.0 -2.4486553097543116 1
gene  1 53 58 4.921373183433553 0 10882.0 4.921373183433553 1
gene  1 62 58 -1.7922211756318496 1 10891.0 -1.7922211756318496 1
gene  1 64 58 -2.2510306798104947 1 10893.0 -2.2510306798104947 1
gene  1 69 58 -1.2723453428103224 1 10898.0 -1.2723453428103224 1
gene  1 182 58 1.1319132030138839 1 11011.0 1.1319132030138839 1
gene  1 1 59 0.4980373309040522 0 11020.0 0.4980373309040522 1
gene  1 4 59 -1.1389752804363522 0 11023.0 -1.1389752804363522 1
gene  1 27 59 0.4469320778703203 0 11046.0 0.4469320778703203 1
gene  1 34 59 13.684322610630298 0 11053.0 13.684322610630298 1
gene  1 37 59 0.9895811550950547 0 11056.0 0.9895811550950547 1
gene  1 44 59 10.164175487874967 0 11063.0 10.164175487874967 1
gene  1 59 59 -7.509283550465531 1 11078.0 -7.509283550465531 1
gene  1 73 59 11.888039404904198 1 11092.0 11.888039404904198 1
gene  1 75 59 0.90136005113717 1 11094.0 0.90136005113717 1
gene  1 183 59 -0.5900572649725899 1 11202.0 -0.5900572649725899 1
gene  1 185 59 -15.2679380349274 1 11204.0 -15.2679380349274 1
gene  1 8 60 -3.990812429200374 0 11217.0 -3.990812429200374 1
gene  1 10 60 2.5228464012616927 0 11219.0 2.5228464012616927 1
gene  1 40 60 -0.018826947141973527 0 11249.0 -0.018826947141973527 1
gene  1 45 60 -1.7575031796023632 0 11254.0 -1.7575031796023632 1
gene  1 61 60 -6.079860160083237 1 11270.0 -6.079860160083237 1
gene  1 72 60 1.271154906277827 1 11281.0 1.271154906277827 1
gene  1 177 60 2.838999273986626 1 11386.0 2.838999273986626 1
gene  1 179 60 -9.796760183881082 1 11388.0 -9.796760183881082 1
gene  1 187 60 -5.950171059339718 1 11396.0 -5.950171059339718 1
gene  1 7 61 1.3162377877827538 0 11406.0 1.3162377877827538 1
gene  1 15 61 1.5341526820897273 0 11414.0 1.5341526820897273 1
gene  1 22 61 -3.2595034974851647 0 11421.0 -3.2595034974851647 1
gene  1 28 61 -0.8646419157808727 0 11427.0 -0.8646419157808727 1
gene  1 36 61 -3.97995966526293 0 11435.0 -3.97995966526293 1
gene  1 53 61 -1.2769340685455055 0 11452.0 -1.2769340685455055 1
gene  1 54 61 4.406802826069743 0 11453.0 4.406802826069743 1
gene  1 67 61 7.907884695647811 1 11466.0 7.907884695647811 1
gene  1 177 61 0.48626505813598664 1 11576.0 0.48626505813598664 1
gene  1 184 61 -1.3576092967594218 1 11583.0 -1.3576092967594218 1
gene  1 6 62 0.28569712174329664 0 11595.0 0.28569712174329664 1
gene  1 11 62 -2.124806324721087 0 11600.0 -2.124806324721087 1
gene  1 15 62 -5.538249567638096 0 11604.0 -5.538249567638096 1
gene  1 26 62 3.7264379019766425 0 11615.0 3.7264379019766425 1
gene  1 53 62 -2.611911549288436 0 11642.0 -2.611911549288436 1
gene  1 68 62 0.2142757209163899 1 11657.0 0.2142757209163899 1
gene  1 72 62 2.5146414324540363 1 11661.0 2.5146414324540363 1
gene  1 174 62 2.2584282756614753 1 11763.0 2.2584282756614753 1
gene  1 175 62 -4.720112110111588 1 11764.0 -4.720112110111588 1
gene  1 184 62 1.7347575325258449 1 11773.0 1.7347575325258449 1
gene  1 185 62 -1.5649643879821646 1 11774.0 -1.5649643879821646 1
gene  1 188 62 10.141963680996058 1 11777.0 10.141963680996058 1
gene  1 31 63 3.380008442601019 0 11810.0 3.380008442601019 1
gene  1 32 63 4.417145346045471 0 11811.0 4.417145346045471 1
gene  1 37 63 5.942477565821889 0 11816.0 5.942477565821889 1
gene  1 38 63 1.1679364200326348 0 11817.0 1.1679364200326348 1
gene  1 42 63 0.8087493528768481 0 11821.0 0.8087493528768481 1
gene  1 46 63 -4.007262832857087 0 11825.0 -4.007262832857087 1
gene  1 48 63 -1.3557908457593282 0 11827.0 -1.3557908457593282 1
gene  1 50 63 0.7616531871242227 0 11829.0 0.7616531871242227 1
gene  1 60 63 4.620561295799526 0 11839.0 4.620561295799526 1
gene  1 63 63 14.173986680714599 1 11842.0 14.173986680714599 1
gene  1 72 63 3.631577541115189 1 11851.0 3.631577541115189 1
gene  1 74 63 3.3428888468394113 1 11853.0 3.3428888468394113 1
gene  1 178 63 -1.698585437131572 1 11957.0 -1.698585437131572 1
gene  1 180 63 -0.9625530972726457 1 11959.0 -0.9625530972726457 1
gene  1 181 63 2.3403121205873916 1 11960.0 2.3403121205873916 1
gene  1 8 64 2.312086720673938 0 11977.0 2.312086720673938 1
gene  1 11 64 8.882832055203757 0 11980.0 8.882832055203757 1
gene  1 20 64 -3.1480245080700637 0 11989.0 -3.1480245080700637 1
gene  1 27 64 0.8327102046820101 0 11996.0 0.8327102046820101 1
gene  1 41 64 -1.155366191068621 0 12010.0 -1.155366191068621 1
gene  1 44 64 2.9433965365470964 0 12013.0 2.9433965365470964 1
gene  1 49 64 8.508403008962258 0 12018.0 8.508403008962258 1
gene  1 50 64 1.5549280323324481 0 12019.0 1.5549280323324481 1
gene  1 53 64 -1.3332897415013458 0 12022.0 -1.3332897415013458 1
gene  1 59 64 -1.7114647577731872 0 12028.0 -1.7114647577731872 1
gene  1 70 64 -2.037802653019453 1 12039.0 -2.037802653019453 1
gene  1 176 64 -7.743495384401297 1 12145.0 -7.743495384401297 1
gene  1 179 64 -0.898546590131159 1 12148.0 -0.898546590131159 1
gene  1 183 64 0.07586672238337733 1 12152.0 0.07586672238337733 1
gene  1 184 64 2.6153869303496604 1 12153.0 2.6153869303496604 1
gene  1 185 64 -0.2454144627299471 1 12154.0 -0.2454144627299471 1
gene  1 8 65 -2.5032030974119257 0 12167.0 -2.5032030974119257 1
gene  1 13 65 4.810510217064115 0 12172.0 4.810510217064115 1
gene  1 18 65 -3.5441989867701187 0 12177.0 -3.5441989867701187 1
gene  1 39 65 -2.969055530297874 0 12198.0 -2.969055530297874 1
gene  1 53 65 10.024508259496013 0 12212.0 10.024508259496013 1
gene  1 69 65 4.48049448953053 1 12228.0 4.48049448953053 1
gene  1 70 65 2.6607600288787214 1 12229.0 2.6607600288787214 1
gene  1 175 65 -3.036860652431738 1 12334.0 -3.036860652431738 1
gene  1 176 65 -0.15875615910547392 1 12335.0 -0.15875615910547392 1
gene  1 177 65 4.592266591352997 1 12336.0 4.592266591352997 1
gene  1 185 65 -0.9971512740782582 1 12344.0 -0.9971512740782582 1
gene  1 1 66 1.4348677433351376 0 12350.0 1.4348677433351376 1
gene  1 4 66 2.912240347690069 0 12353.0 2.912240347690069 1
gene  1 18 66 -1.314111873225516 0 12367.0 -1.314111873225516 1
gene  1 21 66 -4.100608663188854 0 12370.0 -4.100608663188854 1
gene  1 43 66 0.3351125057023383 0 12392.0 0.3351125057023383 1
gene  1 47 66 6.892329076125174 0 12396.0 6.892329076125174 1
gene  1 50 66 -5.738969399375895 0 12399.0 -5.738969399375895 1
gene  1 60 66 -2.1434788342006095 0 12409.0 -2.1434788342006095 1
gene  1 62 66 2.352257522520656 0 12411.0 2.352257522520656 1
gene  1 66 66 7.8071594550197645 1 12415.0 7.8071594550197645 1
gene  1 184 66 -3.1162918147655736 1 12533.0 -3.1162918147655736 1
gene  1 8 67 0.2548083986865497 0 12547.0 0.2548083986865497 1
gene  1 38 67 -3.799637551163731 0 12577.0 -3.799637551163731 1
gene  1 46 67 -4.461897775471679 0 12585.0 -4.461897775471679 1
gene  1 49 67 1.2647479517037472 0 12588.0 1.2647479517037472 1
gene  1 57 67 -6.871771779919831 0 12596.0 -6.871771779919831 1
gene  1 61 67 7.0731341832611605 0 12600.0 7.0731341832611605 1
gene  1 72 67 5.3919457168231855 1 12611.0 5.3919457168231855 1
gene  1 177 67 3.8697485891983296 1 12716.0 3.8697485891983296 1
gene  1 182 67 -5.396890857240865 1 12721.0 -5.396890857240865 1
gene  1 185 67 -10.600173703483108 1 12724.0 -10.600173703483108 1
gene  1 189 67 -3.769774449079839 1 12728.0 -3.769774449079839 1
gene  1 5 68 2.8118660394772466 0 12734.0 2.8118660394772466 1
gene  1 16 68 2.874100854641453 0 12745.0 2.874100854641453 1
gene  1 40 68 0.22880614333732807 0 12769.0 0.22880614333732807 1
gene  1 41 68 -3.5968575648968844 0 12770.0 -3.5968575648968844 1
gene  1 42 68 -3.0533928321572734 0 12771.0 -3.0533928321572734 1
gene  1 71 68 2.3453746704810094 1 12800.0 2.3453746704810094 1
gene  1 185 68 8.916975931720144 1 12914.0 8.916975931720144 1
gene  1 6 69 12.749684225324735 0 12925.0 12.749684225324735 1
gene  1 16 69 8.606812792764313 0 12935.0 8.606812792764313 1
gene  1 19 69 1.9602394408876096 0 12938.0 1.9602394408876096 1
gene  1 44 69 -0.6711004101014717 0 12963.0 -0.6711004101014717 1
gene  1 45 69 2.4903194226621825 0 12964.0 2.4903194226621825 1
gene  1 65 69 10.089397565647204 0 12984.0 10.089397565647204 1
gene  1 171 69 -1.3880543120276498 1 13090.0 -1.3880543120276498 1
gene  1 3 70 -3.116733478276516 0 13112.0 -3.116733478276516 1
gene  1 39 70 -1.0731728450140277 0 13148.0 -1.0731728450140277 1
gene  1 60 70 -1.9084529387046714 0 13169.0 -1.9084529387046714 1
gene  1 171 70 5.671685853320657 1 13280.0 5.671685853320657 1
gene  1 181 70 0.8900736867811714 1 13290.0 0.8900736867811714 1
gene  1 183 70 -0.8243070025994073 1 13292.0 -0.8243070025994073 1
gene  1 11 71 3.053536656821171 0 13310.0 3.053536656821171 1
gene  1 15 71 -0.19143526748590978 0 13314.0 -0.19143526748590978 1
gene  1 30 71 0.3420860090519604 0 13329.0 0.3420860090519604 1
gene  1 33 71 -6.692147145725681 0 13332.0 -6.692147145725681 1
gene  1 34 71 -0.03798461843448164 0 13333.0 -0.03798461843448164 1
gene  1 48 71 -9.809341110224016 0 13347.0 -9.809341110224016 1
gene  1 50 71 -3.0358683643157898 0 13349.0 -3.0358683643157898 1
gene  1 51 71 10.135369427191494 0 13350.0 10.135369427191494 1
gene  1 57 71 -13.248994503879109 0 13356.0 -13.248994503879109 1
gene  1 73 71 -5.786117849136673 1 13372.0 -5.786117849136673 1
gene  1 185 71 5.753419969335285 1 13484.0 5.753419969335285 1
gene  1 24 72 -1.6184852428298147 0 13513.0 -1.6184852428298147 1
gene  1 51 72 1.483273201336333 0 13540.0 1.483273201336333 1
gene  1 54 72 10.288065014308385 0 13543.0 10.288065014308385 1
gene  1 60 72 2.4619151740174967 0 13549.0 2.4619151740174967 1
gene  1 3 73 6.451115578336998 0 13682.0 6.451115578336998 1
gene  1 18 73 -0.2506959450135233 0 13697.0 -0.2506959450135233 1
gene  1 30 73 0.5354518352875339 0 13709.0 0.5354518352875339 1
gene  1 41 73 -1.3728412118238758 0 13720.0 -1.3728412118238758 1
gene  1 54 73 2.8211978940245475 0 13733.0 2.8211978940245475 1
gene  1 59 73 14.97627490312132 0 13738.0 14.97627490312132 1
gene  1 60 73 -10.700477399921617 0 13739.0 -10.700477399921617 1
gene  1 179 73 -4.680592121049168 1 13858.0 -4.680592121049168 1
gene  1 189 73 -3.5741951782945085 1 13868.0 -3.5741951782945085 1
gene  1 31 74 -13.688569145377508 0 13900.0 -13.688569145377508 1
gene  1 38 74 0.017809759853625595 0 13907.0 0.017809759853625595 1
gene  1 67 74 -3.09570496588686 0 13936.0 -3.09570496588686 1
gene  1 74 74 1.9388301193721404 1 13943.0 1.9388301193721404 1
gene  1 188 74 4.901971499858929 1 14057.0 4.901971499858929 1
gene  1 2 75 0.3095234370778268 0 14061.0 0.3095234370778268 1
gene  1 10 75 2.912102942813065 0 14069.0 2.912102942813065 1
gene  1 12 75 -0.5431958981240659 0 14071.0 -0.5431958981240659 1
gene  1 15 75 -8.958061453642912 0 14074.0 -8.958061453642912 1
gene  1 18 75 -0.08111804747179852 0 14077.0 -0.08111804747179852 1
gene  1 43 75 2.5098441803378657 0 14102.0 2.5098441803378657 1
gene  1 46 75 6.234530717892591 0 14105.0 6.234530717892591 1
gene  1 56 75 3.110643401402066 0 14115.0 3.110643401402066 1
gene  1 57 75 6.210071203585032 0 14116.0 6.210071203585032 1
gene  1 177 75 0.7936250507140594 1 14236.0 0.7936250507140594 1
gene  1 183 75 3.793052266527712 1 14242.0 3.793052266527712 1
gene  1 3 171 -2.257758059367649 0 32302.0 -2.257758059367649 1
gene  1 10 171 2.4281935210949577 0 32309.0 2.4281935210949577 1
gene  1 18 171 0.7906088027916458 0 32317.0 0.7906088027916458 1
gene  1 35 171 -4.609006332399331 0 32334.0 -4.609006332399331 1
gene  1 47 171 2.7986747924342303 0 32346.0 2.7986747924342303 1
gene  1 48 171 7.087429160797705 0 32347.0 7.087429160797705 1
gene  1 63 171 -2.5975978562079405 0 32362.0 -2.5975978562079405 1
gene  1 74 171 1.3236478828280025 0 32373.0 1.3236478828280025 1
gene  1 171 171 5.152470202529636 1 32470.0 5.152470202529636 1
gene  1 180 171 3.7688296335011606 1 32479.0 3.7688296335011606 1
gene  1 181 171 3.4146144164420544 1 32480.0 3.4146144164420544 1
gene  1 16 172 -2.596231688347719 0 32505.0 -2.596231688347719 1
gene  1 38 172 -7.736557851308956 0 32527.0 -7.736557851308956 1
gene  1 58 172 21.441790783888138 0 32547.0 21.441790783888138 1
gene  1 59 172 -1.9353958184383215 0 32548.0 -1.9353958184383215 1
gene  1 60 172 -0.9581743085713292 0 32549.0 -0.9581743085713292 1
gene  1 73 172 1.7802565214840713 0 32562.0 1.7802565214840713 1
gene  1 171 172 8.442361612135711 0 32660.0 8.442361612135711 1
gene  1 173 172 4.316148052039307 1 32662.0 4.316148052039307 1
gene  1 7 173 -1.5206567064830117 0 32686.0 -1.5206567064830117 1
gene  1 29 173 -2.890936509047989 0 32708.0 -2.890936509047989 1
gene  1 30 173 0.17117113806865603 0 32709.0 0.17117113806865603 1
gene  1 38 173 2.571297762784526 0 32717.0 2.571297762784526 1
gene  1 56 173 -2.507146508232487 0 32735.0 -2.507146508232487 1
gene  1 68 173 -2.275596047111243 0 32747.0 -2.275596047111243 1
gene  1 72 173 3.6679902717640305 0 32751.0 3.6679902717640305 1
gene  1 75 173 1.356852751199952 0 32754.0 1.356852751199952 1
gene  1 180 173 -14.276268192604029 1 32859.0 -14.276268192604029 1
gene  1 45 174 -2.989900413503095 0 32914.0 -2.989900413503095 1
gene  1 174 174 2.116244756054061 1 33043.0 2.116244756054061 1
gene  1 180 174 2.8254814824106482 1 33049.0 2.8254814824106482 1
gene  1 186 174 -9.289100601731725 1 33055.0 -9.289100601731725 1
gene  1 2 175 -1.170866434625058 0 33061.0 -1.170866434625058 1
gene  1 11 175 -7.6027946565419375 0 33070.0 -7.6027946565419375 1
gene  1 26 175 -3.0250919932603826 0 33085.0 -3.0250919932603826 1
gene  1 37 175 1.7456501844033154 0 33096.0 1.7456501844033154 1
gene  1 43 175 -1.856224118698482 0 33102.0 -1.856224118698482 1
gene  1 48 175 3.9766325612481954 0 33107.0 3.9766325612481954 1
gene  1 51 175 1.507535083139475 0 33110.0 1.507535083139475 1
gene  1 64 175 8.570063404496393 0 33123.0 8.570063404496393 1
gene  1 70 175 9.744608267960372 0 33129.0 9.744608267960372 1
gene  1 71 175 -1.3557399446122722 0 33130.0 -1.3557399446122722 1
gene  1 177 175 -6.23077474256111 1 33236.0 -6.23077474256111 1
gene  1 178 175 -1.273497463280552 1 33237.0 -1.273497463280552 1
gene  1 181 175 1.15239809854374 1 33240.0 1.15239809854374 1
gene  1 184 175 5.564098564394224 1 33243.0 5.564098564394224 1
gene  1 186 175 -1.4784121190758817 1 33245.0 -1.4784121190758817 1
gene  1 2 176 3.977841479278551 0 33251.0 3.977841479278551 1
gene  1 8 176 3.2454560302369773 0 33257.0 3.2454560302369773 1
gene  1 9 176 -1.0139287515735576 0 33258.0 -1.0139287515735576 1
gene  1 12 176 -0.049359670614329776 0 33261.0 -0.049359670614329776 1
gene  1 15 176 -3.6972117667610496 0 33264.0 -3.6972117667610496 1
gene  1 16 176 -5.7130043007399305 0 33265.0 -5.7130043007399305 1
gene  1 35 176 -0.4696507263155312 0 33284.0 -0.4696507263155312 1
gene  1 37 176 2.368312350789825 0 33286.0 2.368312350789825 1
gene  1 46 176 -3.4715655504194376 0 33295.0 -3.4715655504194376 1
gene  1 62 176 6.309253073739708 0 33311.0 6.309253073739708 1
gene  1 64 176 1.2236955041418751 0 33313.0 1.2236955041418751 1
gene  1 171 176 5.8856505340661025 0 33420.0 5.8856505340661025 1
gene  1 174 176 -14.43187496876465 0 33423.0 -14.43187496876465 1
gene  1 179 176 0.2768518578004564 1 33428.0 0.2768518578004564 1
gene  1 1 177 8.230699492360921 0 33440.0 8.230699492360921 1
gene  1 7 177 1.272513701408763 0 33446.0 1.272513701408763 1
gene  1 8 177 -3.9339409626550164 0 33447.0 -3.9339409626550164 1
gene  1 9 177 7.715890734546489 0 33448.0 7.715890734546489 1
gene  1 14 177 2.865085856355101 0 33453.0 2.865085856355101 1
gene  1 16 177 -2.3309736383139525 0 33455.0 -2.3309736383139525 1
gene  1 20 177 8.762240376217775 0 33459.0 8.762240376217775 1
gene  1 30 177 6.459977228440538 0 33469.0 6.459977228440538 1
gene  1 31 177 -2.419383395627065 0 33470.0 -2.419383395627065 1
gene  1 32 177 4.279561932235712 0 33471.0 4.279561932235712 1
gene  1 43 177 10.645475846183075 0 33482.0 10.645475846183075 1
gene  1 44 177 1.474600334807156 0 33483.0 1.474600334807156 1
gene  1 53 177 -4.119636494518958 0 33492.0 -4.119636494518958 1
gene  1 59 177 2.076972262442416 0 33498.0 2.076972262442416 1
gene  1 69 177 -5.616559313880606 0 33508.0 -5.616559313880606 1
gene  1 174 177 -2.950558034747548 0 33613.0 -2.950558034747548 1
gene  1 175 177 6.357495020254435 0 33614.0 6.357495020254435 1
gene  1 184 177 -7.124448275238931 1 33623.0 -7.124448275238931 1
gene  1 187 177 -0.9697781483370036 1 33626.0 -0.9697781483370036 1
gene  1 1 178 -6.129767763382417 0 33630.0 -6.129767763382417 1
gene  1 20 178 1.0523837139695393 0 33649.0 1.0523837139695393 1
gene  1 26 178 1.533554107069257 0 33655.0 1.533554107069257 1
gene  1 35 178 5.655292656795252 0 33664.0 5.655292656795252 1
gene  1 42 178 -0.9803545716398974 0 33671.0 -0.9803545716398974 1
gene  1 53 178 4.607580118460014 0 33682.0 4.607580118460014 1
gene  1 59 178 -0.8303829084108635 0 33688.0 -0.8303829084108635 1
gene  1 72 178 1.2956276496808592 0 33701.0 1.2956276496808592 1
gene  1 172 178 -0.9996946910798477 0 33801.0 -0.9996946910798477 1
gene  1 190 178 -0.6352893418458568 1 33819.0 -0.6352893418458568 1
gene  1 6 179 -2.8896592046111977 0 33825.0 -2.8896592046111977 1
gene  1 8 179 1.4935408337063683 0 33827.0 1.4935408337063683 1
gene  1 13 179 2.1430775090021434 0 33832.0 2.1430775090021434 1
gene  1 36 179 4.117614656837748 0 33855.0 4.117614656837748 1
gene  1 46 179 2.1138666984975507 0 33865.0 2.1138666984975507 1
gene  1 60 179 4.570284791692892 0 33879.0 4.570284791692892 1
gene  1 61 179 -3.7825650347106503 0 33880.0 -3.7825650347106503 1
gene  1 72 179 -3.5979328419421837 0 33891.0 -3.5979328419421837 1
gene  1 74 179 4.290358248227151 0 33893.0 4.290358248227151 1
gene  1 171 179 0.8836948018006523 0 33990.0 0.8836948018006523 1
gene  1 185 179 4.718865117981988 1 34004.0 4.718865117981988 1
gene  1 1 180 -3.0271872982599146 0 34010.0 -3.0271872982599146 1
gene  1 4 180 1.5609870333789149 0 34013.0 1.5609870333789149 1
gene  1 8 180 -8.40694477223204 0 34017.0 -8.40694477223204 1
gene  1 11 180 -4.1657426297989755 0 34020.0 -4.1657426297989755 1
gene  1 21 180 -2.1129656741187715 0 34030.0 -2.1129656741187715 1
gene  1 32 180 0.6485140151934468 0 34041.0 0.6485140151934468 1
gene  1 35 180 -6.979483386988982 0 34044.0 -6.979483386988982 1
gene  1 46 180 -1.9286694712481793 0 34055.0 -1.9286694712481793 1
gene  1 68 180 3.89744649618713 0 34077.0 3.89744649618713 1
gene  1 188 180 0.007557487642203764 1 34197.0 0.007557487642203764 1
gene  1 2 181 -5.955497440523688 0 34201.0 -5.955497440523688 1
gene  1 16 181 2.635911480103182 0 34215.0 2.635911480103182 1
gene  1 24 181 6.5747623429091355 0 34223.0 6.5747623429091355 1
gene  1 36 181 6.509510613715021 0 34235.0 6.509510613715021 1
gene  1 60 181 0.3619875005160198 0 34259.0 0.3619875005160198 1
gene  1 69 181 0.7323702732215897 0 34268.0 0.7323702732215897 1
gene  1 190 181 3.339189656763329 1 34389.0 3.339189656763329 1
gene  1 1 182 -4.552662265286888 0 34390.0 -4.552662265286888 1
gene  1 17 182 -2.35352018771738 0 34406.0 -2.35352018771738 1
gene  1 35 182 2.2172863649229226 0 34424.0 2.2172863649229226 1
gene  1 44 182 2.884243607531236 0 34433.0 2.884243607531236 1
gene  1 49 182 11.847980185164992 0 34438.0 11.847980185164992 1
gene  1 50 182 0.47641738069587003 0 34439.0 0.47641738069587003 1
gene  1 54 182 2.57696182797487 0 34443.0 2.57696182797487 1
gene  1 59 182 7.066189103099066 0 34448.0 7.066189103099066 1
gene  1 73 182 7.230532814326095 0 34462.0 7.230532814326095 1
gene  1 174 182 -0.2152390257626704 0 34563.0 -0.2152390257626704 1
gene  1 187 182 -6.172848200408827 1 34576.0 -6.172848200408827 1
gene  1 6 183 8.09134017470378 0 34585.0 8.09134017470378 1
gene  1 7 183 3.9561067571584307 0 34586.0 3.9561067571584307 1
gene  1 17 183 1.042987842088515 0 34596.0 1.042987842088515 1
gene  1 20 183 2.2736465226579923 0 34599.0 2.2736465226579923 1
gene  1 25 183 4.583652391865883 0 34604.0 4.583652391865883 1
gene  1 30 183 3.1596264521001083 0 34609.0 3.1596264521001083 1
gene  1 39 183 7.411315332625213 0 34618.0 7.411315332625213 1
gene  1 44 183 -3.5151683419579767 0 34623.0 -3.5151683419579767 1
gene  1 66 183 0.2688782464403411 0 34645.0 0.2688782464403411 1
gene  1 171 183 4.966734435953922 0 34750.0 4.966734435953922 1
gene  1 174 183 3.5528846609146405 0 34753.0 3.5528846609146405 1
gene  1 21 184 5.463625838164953 0 34790.0 5.463625838164953 1
gene  1 29 184 -7.469751487321467 0 34798.0 -7.469751487321467 1
gene  1 32 184 -0.22852326399636325 0 34801.0 -0.22852326399636325 1
gene  1 36 184 0.1293781376030545 0 34805.0 0.1293781376030545 1
gene  1 45 184 -1.4701989449173616 0 34814.0 -1.4701989449173616 1
gene  1 46 184 -1.259263319729248 0 34815.0 -1.259263319729248 1
gene  1 63 184 -0.8650956321079515 0 34832.0 -0.8650956321079515 1
gene  1 66 184 3.9845715471998773 0 34835.0 3.9845715471998773 1
gene  1 177 184 -0.01734854243359385 0 34946.0 -0.01734854243359385 1
gene  1 31 185 -4.997878801481557 0 34990.0 -4.997878801481557 1
gene  1 50 185 4.729539851132999 0 35009.0 4.729539851132999 1
gene  1 56 185 4.602232476777432 0 35015.0 4.602232476777432 1
gene  1 58 185 -7.7088471538092564 0 35017.0 -7.7088471538092564 1
