/* Species # 020         : (size= 003) (AvfFit= 1727,644) (Age= 161,000)  */
/*-------------------------------------------------------------------*/
/* Organism # 000 Fitness:  1416,080 Error:  1000,000                      */
genomestart  0
trait 1 2.4681126579053765 0.0 0.8012721292781356 2.128494329298915 2.786353850831334 0.6886372375335748 0.0 0.1265055096546438 
node 1 1 1 1
node 2 1 1 1
node 3 1 1 1
node 4 1 1 1
node 5 1 1 1
node 6 1 1 1
node 7 1 1 1
node 8 1 1 1
node 9 1 1 1
node 10 1 1 1
node 11 1 1 1
node 12 1 1 1
node 13 1 1 1
node 14 1 1 1
node 15 1 1 1
node 16 1 1 1
node 17 1 1 1
node 18 1 1 1
node 19 1 1 1
node 20 1 1 1
node 21 1 1 1
node 22 1 1 1
node 23 1 1 1
node 24 1 1 1
node 25 1 1 1
node 26 1 1 1
node 27 1 1 1
node 28 1 1 1
node 29 1 1 1
node 30 1 1 1
node 31 1 1 1
node 32 1 1 1
node 33 1 1 1
node 34 1 1 1
node 35 1 1 1
node 36 1 1 1
node 37 1 1 1
node 38 1 1 1
node 39 1 1 1
node 40 1 1 1
node 41 1 1 1
node 42 1 1 1
node 43 1 1 1
node 44 1 1 1
node 45 1 1 1
node 46 1 1 1
node 47 1 1 1
node 48 1 1 1
node 49 1 1 1
node 50 1 1 3
node 51 1 0 0
node 52 1 0 0
node 53 1 0 0
node 54 1 0 0
node 55 1 0 0
node 56 1 0 0
node 57 1 0 0
node 58 1 0 0
node 59 1 0 0
node 60 1 0 0
node 61 1 0 0
node 62 1 0 0
node 63 1 0 0
node 64 1 0 0
node 65 1 0 0
node 66 1 0 0
node 67 1 0 0
node 68 1 0 0
node 69 1 0 0
node 70 1 0 0
node 71 1 0 0
node 72 1 0 0
node 73 1 0 0
node 74 1 0 0
node 75 1 0 0
node 171 1 0 2
node 172 1 0 2
node 173 1 0 2
node 174 1 0 2
node 175 1 0 2
node 176 1 0 2
node 177 1 0 2
node 178 1 0 2
node 179 1 0 2
node 180 1 0 2
node 181 1 0 2
node 182 1 0 2
node 183 1 0 2
node 184 1 0 2
node 185 1 0 2
node 186 1 0 2
node 187 1 0 2
node 188 1 0 2
node 189 1 0 2
node 190 1 0 2
node 193 1 0 0
node 195 1 0 0
node 212 1 0 0
node 217 1 0 0
node 230 1 0 0
node 244 1 0 0
node 291 1 0 0
node 297 1 0 0
node 300 1 0 0
node 321 1 0 0
node 325 1 0 0
node 334 1 0 0
node 341 1 0 0
node 347 1 0 0
node 353 1 0 0
node 358 1 0 0
node 375 1 0 0
node 376 1 0 0
node 383 1 0 0
node 395 1 0 0
node 418 1 0 0
node 425 1 0 0
node 469 1 0 0
node 473 1 0 0
node 480 1 0 0
node 482 1 0 0
gene  1 28 51 -1.0860407928276388 0 9527.0 -1.0860407928276388 1
gene  1 33 51 8.389040084503721 0 9532.0 8.389040084503721 1
gene  1 36 51 0.8193935782914493 0 9535.0 0.8193935782914493 1
gene  1 40 51 4.488411190994014 0 9539.0 4.488411190994014 1
gene  1 42 51 5.2383486286749115 0 9541.0 5.2383486286749115 1
gene  1 54 51 3.6742115030844307 1 9553.0 3.6742115030844307 1
gene  1 57 51 3.3428945017327383 1 9556.0 3.3428945017327383 1
gene  1 68 51 -3.654188222708091 1 9567.0 -3.654188222708091 1
gene  1 174 51 -14.185974624043647 1 9673.0 -14.185974624043647 1
gene  1 183 51 -1.81061591235884 1 9682.0 -1.81061591235884 1
gene  1 184 51 -0.7995886525412637 1 9683.0 -0.7995886525412637 1
gene  1 189 51 1.257613614990796 1 9688.0 1.257613614990796 1
gene  1 3 52 -7.917583120508648 0 9692.0 -7.917583120508648 1
gene  1 6 52 3.2231426823180023 0 9695.0 3.2231426823180023 1
gene  1 24 52 9.13307338820099 0 9713.0 9.13307338820099 1
gene  1 29 52 1.598234510914922 0 9718.0 1.598234510914922 1
gene  1 31 52 -6.862662770720306 0 9720.0 -6.862662770720306 1
gene  1 35 52 -4.429226723030774 0 9724.0 -4.429226723030774 1
gene  1 63 52 2.0193867716588603 1 9752.0 2.0193867716588603 1
gene  1 179 52 -3.628975450352124 1 9868.0 -3.628975450352124 1
gene  1 183 52 0.42257557885503383 1 9872.0 0.42257557885503383 1
gene  1 184 52 4.0488707533515775 1 9873.0 4.0488707533515775 1
gene  1 185 52 -8.792203265923774 1 9874.0 -8.792203265923774 1
gene  1 5 53 -1.4756637298738853 0 9884.0 -1.4756637298738853 1
gene  1 6 53 15.106640925387865 0 9885.0 15.106640925387865 1
gene  1 10 53 -1.4850068103471146 0 9889.0 -1.4850068103471146 1
gene  1 33 53 7.460331123301193 0 9912.0 7.460331123301193 1
gene  1 35 53 -5.755012527680183 0 9914.0 -5.755012527680183 1
gene  1 38 53 3.3604765361170283 0 9917.0 3.3604765361170283 1
gene  1 45 53 -0.25449780888083207 0 9924.0 -0.25449780888083207 1
gene  1 71 53 -16.988849710999958 1 9950.0 -16.988849710999958 1
gene  1 16 54 -6.3408814560057944 0 10085.0 -6.3408814560057944 1
gene  1 19 54 0.9283291303440643 0 10088.0 0.9283291303440643 1
gene  1 36 54 4.857047043081712 0 10105.0 4.857047043081712 1
gene  1 42 54 4.284313922910372 0 10111.0 4.284313922910372 1
gene  1 58 54 9.14521966829826 1 10127.0 9.14521966829826 1
gene  1 62 54 -0.7316500140602327 1 10131.0 -0.7316500140602327 1
gene  1 73 54 6.6084775117249634 1 10142.0 6.6084775117249634 1
gene  1 177 54 2.381610794508365 1 10246.0 2.381610794508365 1
gene  1 180 54 -0.5020408914907268 1 10249.0 -0.5020408914907268 1
gene  1 190 54 -11.88253905830743 1 10259.0 -11.88253905830743 1
gene  1 20 55 -1.7386257085264312 0 10279.0 -1.7386257085264312 1
gene  1 31 55 7.357051661678436 0 10290.0 7.357051661678436 1
gene  1 35 55 -14.448845835635705 0 10294.0 -14.448845835635705 1
gene  1 41 55 4.665535171117346 0 10300.0 4.665535171117346 1
gene  1 47 55 7.469176795160614 0 10306.0 7.469176795160614 1
gene  1 52 55 -1.0506093186420349 0 10311.0 -1.0506093186420349 1
gene  1 69 55 2.2100916056988282 1 10328.0 2.2100916056988282 1
gene  1 75 55 1.3100817105086444 1 10334.0 1.3100817105086444 1
gene  1 187 55 4.015672315877689 1 10446.0 4.015672315877689 1
gene  1 7 56 0.9396211033163967 0 10456.0 0.9396211033163967 1
gene  1 11 56 -2.1190850968721064 0 10460.0 -2.1190850968721064 1
gene  1 13 56 2.003939317859558 0 10462.0 2.003939317859558 1
gene  1 36 56 7.195778121474435 0 10485.0 7.195778121474435 1
gene  1 41 56 -2.200826976282338 0 10490.0 -2.200826976282338 1
gene  1 44 56 2.9721582053231703 0 10493.0 2.9721582053231703 1
gene  1 46 56 -2.803424070420119 0 10495.0 -2.803424070420119 1
gene  1 49 56 2.543460622934537 0 10498.0 2.543460622934537 1
gene  1 68 56 11.327927686986559 1 10517.0 11.327927686986559 1
gene  1 179 56 3.0733553416466117 1 10628.0 3.0733553416466117 1
gene  1 183 56 12.955029905030448 1 10632.0 12.955029905030448 1
gene  1 3 57 3.9025588524827004 0 10642.0 3.9025588524827004 1
gene  1 19 57 4.880208230072112 0 10658.0 4.880208230072112 1
gene  1 22 57 3.720175038407438 0 10661.0 3.720175038407438 1
gene  1 28 57 5.428874354880847 0 10667.0 5.428874354880847 1
gene  1 30 57 4.062627675223769 0 10669.0 4.062627675223769 1
gene  1 35 57 -3.028147717919172 0 10674.0 -3.028147717919172 1
gene  1 47 57 -8.567192005901667 0 10686.0 -8.567192005901667 1
gene  1 59 57 -5.639942644525656 1 10698.0 -5.639942644525656 1
gene  1 60 57 9.088197822144455 1 10699.0 9.088197822144455 1
gene  1 187 57 2.1328364598613696 1 10826.0 2.1328364598613696 1
gene  1 5 58 3.5845189084207263 0 10834.0 3.5845189084207263 1
gene  1 14 58 -16.95176147116248 0 10843.0 -16.95176147116248 1
gene  1 15 58 35.68482794392337 0 10844.0 35.68482794392337 1
gene  1 24 58 14.726332783978155 0 10853.0 14.726332783978155 1
gene  1 32 58 -3.5678986543595004 0 10861.0 -3.5678986543595004 1
gene  1 43 58 3.5277687108862743 0 10872.0 3.5277687108862743 1
gene  1 49 58 -12.692490080383068 0 10878.0 -12.692490080383068 1
gene  1 53 58 -1.8456477906084898 0 10882.0 -1.8456477906084898 1
gene  1 62 58 16.866577789268348 1 10891.0 16.866577789268348 1
gene  1 64 58 0.13346579411812154 1 10893.0 0.13346579411812154 1
gene  1 69 58 -1.3430037869313396 1 10898.0 -1.3430037869313396 1
gene  1 182 58 -8.942308872147091 1 11011.0 -8.942308872147091 1
gene  1 1 59 -5.008137908800258 0 11020.0 -5.008137908800258 1
gene  1 4 59 -13.32189924540237 0 11023.0 -13.32189924540237 1
gene  1 27 59 2.2984058849648044 0 11046.0 2.2984058849648044 1
gene  1 34 59 0.006601056900096047 0 11053.0 0.006601056900096047 1
gene  1 37 59 20.89472707944352 0 11056.0 20.89472707944352 1
gene  1 44 59 7.913472373357822 0 11063.0 7.913472373357822 1
gene  1 59 59 8.347617890353916 1 11078.0 8.347617890353916 1
gene  1 73 59 0.039592762441013285 1 11092.0 0.039592762441013285 1
gene  1 75 59 -2.567130878853167 1 11094.0 -2.567130878853167 1
gene  1 183 59 0.9512853577859866 1 11202.0 0.9512853577859866 1
gene  1 185 59 6.483754572763032 1 11204.0 6.483754572763032 1
gene  1 8 60 -2.4869226397774487 0 11217.0 -2.4869226397774487 1
gene  1 10 60 6.029448752522894 0 11219.0 6.029448752522894 1
gene  1 40 60 -5.691261244236957 0 11249.0 -5.691261244236957 1
gene  1 45 60 -1.329794350513073 0 11254.0 -1.329794350513073 1
gene  1 61 60 -4.310688648288492 1 11270.0 -4.310688648288492 1
gene  1 72 60 -5.6279006104204345 1 11281.0 -5.6279006104204345 1
gene  1 177 60 4.569099343021571 1 11386.0 4.569099343021571 1
gene  1 179 60 3.8317839901501882 1 11388.0 3.8317839901501882 1
gene  1 187 60 5.355646773067106 1 11396.0 5.355646773067106 1
gene  1 7 61 -9.831331066238947 0 11406.0 -9.831331066238947 1
gene  1 15 61 -0.03973972287789834 0 11414.0 -0.03973972287789834 1
gene  1 22 61 -4.753061933195887 0 11421.0 -4.753061933195887 1
gene  1 28 61 3.042415460198851 0 11427.0 3.042415460198851 1
gene  1 36 61 -5.602766477468753 0 11435.0 -5.602766477468753 1
gene  1 53 61 -0.23371235276982616 0 11452.0 -0.23371235276982616 1
gene  1 54 61 -2.5845653223800173 0 11453.0 -2.5845653223800173 1
gene  1 67 61 -20.123821735346166 1 11466.0 -20.123821735346166 1
gene  1 177 61 4.981106403434894 1 11576.0 4.981106403434894 1
gene  1 184 61 -2.930736209794893 1 11583.0 -2.930736209794893 1
gene  1 6 62 -0.4943124057725904 0 11595.0 -0.4943124057725904 1
gene  1 11 62 14.510918795854419 0 11600.0 14.510918795854419 1
gene  1 15 62 3.8048696349450633 0 11604.0 3.8048696349450633 1
gene  1 26 62 -7.2606977421212155 0 11615.0 -7.2606977421212155 1
gene  1 53 62 -9.370889343374076 0 11642.0 -9.370889343374076 1
gene  1 68 62 -9.416740698628336 1 11657.0 -9.416740698628336 1
gene  1 72 62 3.2167200246473397 1 11661.0 3.2167200246473397 1
gene  1 174 62 1.6332101972562865 1 11763.0 1.6332101972562865 1
gene  1 175 62 1.0588870469275908 1 11764.0 1.0588870469275908 1
gene  1 184 62 -1.9092197815943321 1 11773.0 -1.9092197815943321 1
gene  1 185 62 8.534958901924016 1 11774.0 8.534958901924016 1
gene  1 188 62 -1.2881474978566612 1 11777.0 -1.2881474978566612 1
gene  1 31 63 0.9688214565429776 0 11810.0 0.9688214565429776 1
gene  1 32 63 1.3459637178643595 0 11811.0 1.3459637178643595 1
gene  1 37 63 1.938686951538116 0 11816.0 1.938686951538116 1
gene  1 38 63 4.035572342902812 0 11817.0 4.035572342902812 1
gene  1 42 63 8.91588084117481 0 11821.0 8.91588084117481 1
gene  1 46 63 14.802150686838818 0 11825.0 14.802150686838818 1
gene  1 48 63 12.278105258739375 0 11827.0 12.278105258739375 1
gene  1 50 63 1.3699670850165164 0 11829.0 1.3699670850165164 1
gene  1 60 63 -2.474755004335106 0 11839.0 -2.474755004335106 1
gene  1 63 63 -4.929561854600404 1 11842.0 -4.929561854600404 1
gene  1 72 63 -7.9273510258603554 1 11851.0 -7.9273510258603554 1
gene  1 74 63 -7.120148341944372 1 11853.0 -7.120148341944372 1
gene  1 178 63 -6.3662962370596174 1 11957.0 -6.3662962370596174 1
gene  1 180 63 4.296356467307385 1 11959.0 4.296356467307385 1
gene  1 181 63 -1.20352515507939 1 11960.0 -1.20352515507939 1
gene  1 8 64 1.2400527208095766 0 11977.0 1.2400527208095766 1
gene  1 11 64 1.712821122228572 0 11980.0 1.712821122228572 1
gene  1 20 64 -9.881190370888532 0 11989.0 -9.881190370888532 1
gene  1 27 64 -1.76363790273042 0 11996.0 -1.76363790273042 1
gene  1 41 64 -10.303334709994626 0 12010.0 -10.303334709994626 1
gene  1 44 64 -9.38364473907883 0 12013.0 -9.38364473907883 1
gene  1 49 64 1.0150846151954944 0 12018.0 1.0150846151954944 1
gene  1 50 64 5.0562620939453815 0 12019.0 5.0562620939453815 1
gene  1 53 64 2.0099667987057614 0 12022.0 2.0099667987057614 1
gene  1 59 64 1.5660772467790836 0 12028.0 1.5660772467790836 1
gene  1 70 64 3.3506907540059876 1 12039.0 3.3506907540059876 1
gene  1 176 64 2.2598249736743394 1 12145.0 2.2598249736743394 1
gene  1 179 64 0.27666525415311494 1 12148.0 0.27666525415311494 1
gene  1 183 64 7.173649952506402 1 12152.0 7.173649952506402 1
gene  1 184 64 1.4006234187315676 1 12153.0 1.4006234187315676 1
gene  1 185 64 -0.7186409518859378 1 12154.0 -0.7186409518859378 1
gene  1 8 65 5.514299167899188 0 12167.0 5.514299167899188 1
gene  1 13 65 7.1430883552372 0 12172.0 7.1430883552372 1
gene  1 18 65 2.8638879794211487 0 12177.0 2.8638879794211487 1
gene  1 39 65 -6.02605271076396 0 12198.0 -6.02605271076396 1
gene  1 53 65 -8.736289810721694 0 12212.0 -8.736289810721694 1
gene  1 69 65 -3.2524074618062353 1 12228.0 -3.2524074618062353 1
gene  1 70 65 9.68437374504047 1 12229.0 9.68437374504047 1
gene  1 175 65 -4.327712125783028 1 12334.0 -4.327712125783028 1
gene  1 176 65 2.991548251195032 1 12335.0 2.991548251195032 1
gene  1 177 65 -4.331875243821493 1 12336.0 -4.331875243821493 1
gene  1 185 65 -6.48591571643645 1 12344.0 -6.48591571643645 1
gene  1 1 66 -2.557355576665245 0 12350.0 -2.557355576665245 1
gene  1 4 66 -1.9744266111280409 0 12353.0 -1.9744266111280409 1
gene  1 18 66 2.7391406440058716 0 12367.0 2.7391406440058716 1
gene  1 21 66 1.5022209990117144 0 12370.0 1.5022209990117144 1
gene  1 43 66 -7.368893435469708 0 12392.0 -7.368893435469708 1
gene  1 47 66 -0.9981161893047321 0 12396.0 -0.9981161893047321 1
gene  1 50 66 4.8641339181716114 0 12399.0 4.8641339181716114 1
gene  1 60 66 6.003684715979073 0 12409.0 6.003684715979073 1
gene  1 62 66 3.6293625673214747 0 12411.0 3.6293625673214747 1
gene  1 66 66 5.902810455788472 1 12415.0 5.902810455788472 1
gene  1 184 66 -4.430525600825794 1 12533.0 -4.430525600825794 1
gene  1 8 67 4.498732635842845 0 12547.0 4.498732635842845 1
gene  1 38 67 6.348538921565081 0 12577.0 6.348538921565081 1
gene  1 46 67 -3.6932649709631553 0 12585.0 -3.6932649709631553 1
gene  1 49 67 -12.672039337249748 0 12588.0 -12.672039337249748 1
gene  1 57 67 2.3960336795958375 0 12596.0 2.3960336795958375 1
gene  1 61 67 -3.1158289719661423 0 12600.0 -3.1158289719661423 1
gene  1 72 67 -6.493315958719655 1 12611.0 -6.493315958719655 1
gene  1 177 67 -4.993596840808409 1 12716.0 -4.993596840808409 1
gene  1 182 67 -4.786672134721409 1 12721.0 -4.786672134721409 1
gene  1 185 67 -3.9430859566110104 1 12724.0 -3.9430859566110104 1
gene  1 189 67 3.449222489819336 1 12728.0 3.449222489819336 1
gene  1 5 68 -11.08769130270821 0 12734.0 -11.08769130270821 1
gene  1 16 68 1.7112769025211414 0 12745.0 1.7112769025211414 1
gene  1 40 68 0.5138962963030218 0 12769.0 0.5138962963030218 1
gene  1 41 68 4.965811922448689 0 12770.0 4.965811922448689 1
gene  1 42 68 4.2560228979485295 0 12771.0 4.2560228979485295 1
gene  1 71 68 1.9207315925850346 1 12800.0 1.9207315925850346 1
gene  1 185 68 1.5040476785706436 1 12914.0 1.5040476785706436 1
gene  1 6 69 3.44034467814936 0 12925.0 3.44034467814936 1
gene  1 16 69 5.771248267136132 0 12935.0 5.771248267136132 1
gene  1 19 69 -0.6383254715206983 0 12938.0 -0.6383254715206983 1
gene  1 44 69 -4.37279024490526 0 12963.0 -4.37279024490526 1
gene  1 45 69 0.1556070350828942 0 12964.0 0.1556070350828942 1
gene  1 65 69 -4.929126880686262 0 12984.0 -4.929126880686262 1
gene  1 171 69 10.012866022437588 1 13090.0 10.012866022437588 1
gene  1 3 70 -4.194210968434203 0 13112.0 -4.194210968434203 1
gene  1 39 70 -0.02339065578261179 0 13148.0 -0.02339065578261179 1
gene  1 60 70 7.382915655176419 0 13169.0 7.382915655176419 1
gene  1 171 70 0.8463697258114387 1 13280.0 0.8463697258114387 1
gene  1 181 70 1.0873323201765208 1 13290.0 1.0873323201765208 1
gene  1 183 70 1.4559016267287652 1 13292.0 1.4559016267287652 1
gene  1 11 71 -8.377180915463668 0 13310.0 -8.377180915463668 1
gene  1 15 71 0.8981226110212539 0 13314.0 0.8981226110212539 1
gene  1 30 71 4.7863035278473385 0 13329.0 4.7863035278473385 1
gene  1 33 71 -2.863877299451247 0 13332.0 -2.863877299451247 1
gene  1 34 71 2.951835109921363 0 13333.0 2.951835109921363 1
gene  1 48 71 -4.11213394187171 0 13347.0 -4.11213394187171 1
gene  1 50 71 -13.902033855948925 0 13349.0 -13.902033855948925 1
gene  1 51 71 0.3913867674536593 0 13350.0 0.3913867674536593 1
gene  1 57 71 -5.742803092660355 0 13356.0 -5.742803092660355 1
gene  1 73 71 4.4870026847416105 1 13372.0 4.4870026847416105 1
gene  1 185 71 2.6080181082204645 1 13484.0 2.6080181082204645 1
gene  1 24 72 0.4530981302880332 0 13513.0 0.4530981302880332 1
gene  1 51 72 -0.25985462495788336 0 13540.0 -0.25985462495788336 1
gene  1 54 72 9.342170148482207 0 13543.0 9.342170148482207 1
gene  1 60 72 2.0412269222662647 0 13549.0 2.0412269222662647 1
gene  1 3 73 -0.6804823360624761 0 13682.0 -0.6804823360624761 1
gene  1 18 73 -4.150294608857674 0 13697.0 -4.150294608857674 1
gene  1 30 73 -1.1818469437219932 0 13709.0 -1.1818469437219932 1
gene  1 41 73 4.076533831251369 0 13720.0 4.076533831251369 1
gene  1 54 73 5.809357457423737 0 13733.0 5.809357457423737 1
gene  1 59 73 -2.802704930829064 0 13738.0 -2.802704930829064 1
gene  1 60 73 0.46099881582850744 0 13739.0 0.46099881582850744 1
gene  1 179 73 6.703716189934561 1 13858.0 6.703716189934561 1
gene  1 189 73 -2.8230495241626374 1 13868.0 -2.8230495241626374 1
gene  1 31 74 -2.0775601757125406 0 13900.0 -2.0775601757125406 1
gene  1 38 74 -8.577683835047482 0 13907.0 -8.577683835047482 1
gene  1 67 74 -1.2858553688765497 0 13936.0 -1.2858553688765497 1
gene  1 74 74 -7.747225750027495 1 13943.0 -7.747225750027495 1
gene  1 188 74 -8.291361422718769 1 14057.0 -8.291361422718769 1
gene  1 2 75 -10.070521933614657 0 14061.0 -10.070521933614657 1
gene  1 10 75 -8.53800067018442 0 14069.0 -8.53800067018442 1
gene  1 12 75 -2.7288111886937907 0 14071.0 -2.7288111886937907 1
gene  1 15 75 2.397154774001829 0 14074.0 2.397154774001829 1
gene  1 18 75 -2.248425757477012 0 14077.0 -2.248425757477012 1
gene  1 43 75 -9.99785627254119 0 14102.0 -9.99785627254119 1
gene  1 46 75 6.065223458374566 0 14105.0 6.065223458374566 1
gene  1 56 75 -2.4959870841744594 0 14115.0 -2.4959870841744594 1
gene  1 57 75 9.751431342456437 0 14116.0 9.751431342456437 1
gene  1 177 75 -4.400815035920469 1 14236.0 -4.400815035920469 1
gene  1 183 75 1.9311905141995043 1 14242.0 1.9311905141995043 1
gene  1 3 171 -0.5146768672995738 0 32302.0 -0.5146768672995738 1
gene  1 10 171 4.812423905373958 0 32309.0 4.812423905373958 1
gene  1 18 171 7.967158088163688 0 32317.0 7.967158088163688 1
gene  1 35 171 4.1754641250476965 0 32334.0 4.1754641250476965 1
gene  1 47 171 8.072428356590411 0 32346.0 8.072428356590411 1
gene  1 48 171 5.605183333434301 0 32347.0 5.605183333434301 1
gene  1 63 171 8.592028757187435 0 32362.0 8.592028757187435 1
gene  1 74 171 -4.005718432607102 0 32373.0 -4.005718432607102 1
gene  1 171 171 -14.53001134872023 1 32470.0 -14.53001134872023 1
gene  1 180 171 8.60831782561385 1 32479.0 8.60831782561385 1
gene  1 181 171 2.012498284037311 1 32480.0 2.012498284037311 1
gene  1 16 172 -7.004499795173361 0 32505.0 -7.004499795173361 1
gene  1 38 172 4.875109427862526 0 32527.0 4.875109427862526 1
gene  1 58 172 -3.678878285692201 0 32547.0 -3.678878285692201 1
gene  1 59 172 -0.3578576027385645 0 32548.0 -0.3578576027385645 1
gene  1 60 172 10.791191438147294 0 32549.0 10.791191438147294 1
gene  1 73 172 -19.452325453163844 0 32562.0 -19.452325453163844 1
gene  1 171 172 -0.03799056329793782 0 32660.0 -0.03799056329793782 1
gene  1 173 172 -1.7592492550851833 1 32662.0 -1.7592492550851833 1
gene  1 7 173 2.1779188004450623 0 32686.0 2.1779188004450623 1
gene  1 29 173 -6.006011520748234 0 32708.0 -6.006011520748234 1
gene  1 30 173 -0.31517848909602786 0 32709.0 -0.31517848909602786 1
gene  1 38 173 8.769319451632315 0 32717.0 8.769319451632315 1
gene  1 56 173 -3.677260247748907 0 32735.0 -3.677260247748907 1
gene  1 68 173 3.781418114027882 0 32747.0 3.781418114027882 1
gene  1 72 173 1.9580939399679358 0 32751.0 1.9580939399679358 1
gene  1 75 173 -8.469595969839165 0 32754.0 -8.469595969839165 1
gene  1 180 173 4.94204641917049 1 32859.0 4.94204641917049 1
gene  1 45 174 -7.424567187997391 0 32914.0 -7.424567187997391 1
gene  1 174 174 -1.8652905106889652 1 33043.0 -1.8652905106889652 1
gene  1 180 174 2.6692790310416803 1 33049.0 2.6692790310416803 1
gene  1 186 174 -13.612150741044491 1 33055.0 -13.612150741044491 1
gene  1 2 175 22.15670539253078 0 33061.0 22.15670539253078 1
gene  1 11 175 -2.754661220153264 0 33070.0 -2.754661220153264 1
gene  1 26 175 -7.99066411231313 0 33085.0 -7.99066411231313 1
gene  1 37 175 -1.718327204334491 0 33096.0 -1.718327204334491 1
gene  1 43 175 0.9449268483488047 0 33102.0 0.9449268483488047 1
gene  1 48 175 5.937294793212276 0 33107.0 5.937294793212276 1
gene  1 51 175 -12.098974165432551 0 33110.0 -12.098974165432551 1
gene  1 64 175 -2.5799980684776473 0 33123.0 -2.5799980684776473 1
gene  1 70 175 -4.94967038915797 0 33129.0 -4.94967038915797 1
gene  1 71 175 -3.8030717333554227 0 33130.0 -3.8030717333554227 1
gene  1 177 175 7.861560010964586 1 33236.0 7.861560010964586 1
gene  1 178 175 12.69485226235477 1 33237.0 12.69485226235477 1
gene  1 181 175 -0.7853082995509939 1 33240.0 -0.7853082995509939 1
gene  1 184 175 -4.302849635433451 1 33243.0 -4.302849635433451 1
gene  1 186 175 0.752726047552233 1 33245.0 0.752726047552233 1
gene  1 2 176 -9.235486938903081 0 33251.0 -9.235486938903081 1
gene  1 8 176 3.19149588844128 0 33257.0 3.19149588844128 1
gene  1 9 176 1.7083654575953535 0 33258.0 1.7083654575953535 1
gene  1 12 176 -0.8848327128830054 0 33261.0 -0.8848327128830054 1
gene  1 15 176 5.788556727636939 0 33264.0 5.788556727636939 1
gene  1 16 176 -6.12429088275261 0 33265.0 -6.12429088275261 1
gene  1 35 176 2.8473822916189486 0 33284.0 2.8473822916189486 1
gene  1 37 176 -8.25067471746772 0 33286.0 -8.25067471746772 1
gene  1 46 176 10.9087184818432 0 33295.0 10.9087184818432 1
gene  1 62 176 -0.44487735200142464 0 33311.0 -0.44487735200142464 1
gene  1 64 176 -2.49137090196126 0 33313.0 -2.49137090196126 1
gene  1 171 176 1.0160342980969146 0 33420.0 1.0160342980969146 1
gene  1 174 176 9.45444941735272 0 33423.0 9.45444941735272 1
gene  1 179 176 10.995965345406633 1 33428.0 10.995965345406633 1
gene  1 1 177 -0.8511751910133571 0 33440.0 -0.8511751910133571 1
gene  1 7 177 11.398700461604502 0 33446.0 11.398700461604502 1
gene  1 8 177 3.14826822647883 0 33447.0 3.14826822647883 1
gene  1 9 177 -3.429723750809287 0 33448.0 -3.429723750809287 1
gene  1 14 177 2.688513423066503 0 33453.0 2.688513423066503 1
gene  1 16 177 -8.907457068126337 0 33455.0 -8.907457068126337 1
gene  1 20 177 -2.3557552450012915 0 33459.0 -2.3557552450012915 1
gene  1 30 177 -4.431428610631683 0 33469.0 -4.431428610631683 1
gene  1 31 177 0.06178964769028772 0 33470.0 0.06178964769028772 1
gene  1 32 177 5.813143221561829 0 33471.0 5.813143221561829 1
gene  1 43 177 -4.025536155342982 0 33482.0 -4.025536155342982 1
gene  1 44 177 -0.8760349869124393 0 33483.0 -0.8760349869124393 1
gene  1 53 177 -2.119197011698743 0 33492.0 -2.119197011698743 1
gene  1 59 177 -1.8866070305633278 0 33498.0 -1.8866070305633278 1
gene  1 69 177 0.9590177865138122 0 33508.0 0.9590177865138122 1
gene  1 174 177 -0.7883728651883213 0 33613.0 -0.7883728651883213 1
gene  1 175 177 -3.7433929726381487 0 33614.0 -3.7433929726381487 1
gene  1 184 177 -0.04118229449943134 1 33623.0 -0.04118229449943134 1
gene  1 187 177 6.075171586120842 1 33626.0 6.075171586120842 1
gene  1 1 178 -3.1676534224719797 0 33630.0 -3.1676534224719797 1
gene  1 20 178 -6.538355003203842 0 33649.0 -6.538355003203842 1
gene  1 26 178 -0.7795501871992969 0 33655.0 -0.7795501871992969 1
gene  1 35 178 1.4749631523038997 0 33664.0 1.4749631523038997 1
gene  1 42 178 -6.365544644835486 0 33671.0 -6.365544644835486 1
gene  1 53 178 0.7728753265504305 0 33682.0 0.7728753265504305 1
gene  1 59 178 7.05326833258743 0 33688.0 7.05326833258743 1
gene  1 72 178 -6.036183600599462 0 33701.0 -6.036183600599462 1
gene  1 172 178 -2.145140557919268 0 33801.0 -2.145140557919268 1
gene  1 190 178 -3.4061314044203934 1 33819.0 -3.4061314044203934 1
gene  1 6 179 -1.2288894725229507 0 33825.0 -1.2288894725229507 1
gene  1 8 179 -1.4340755923971256 0 33827.0 -1.4340755923971256 1
gene  1 13 179 -6.38762536099039 0 33832.0 -6.38762536099039 1
gene  1 36 179 -11.14436786534225 0 33855.0 -11.14436786534225 1
gene  1 46 179 1.5794652286710822 0 33865.0 1.5794652286710822 1
gene  1 60 179 -5.507996354129835 0 33879.0 -5.507996354129835 1
gene  1 61 179 2.0111324517326468 0 33880.0 2.0111324517326468 1
gene  1 72 179 -0.30736782322455003 0 33891.0 -0.30736782322455003 1
gene  1 74 179 -9.950383496260205 0 33893.0 -9.950383496260205 1
gene  1 171 179 -4.599611392913626 0 33990.0 -4.599611392913626 1
gene  1 185 179 -2.263004687767893 1 34004.0 -2.263004687767893 1
gene  1 1 180 -2.587652634729186 0 34010.0 -2.587652634729186 1
gene  1 4 180 2.3299282151354532 0 34013.0 2.3299282151354532 1
gene  1 8 180 7.163939620622335 0 34017.0 7.163939620622335 1
gene  1 11 180 -0.49890494170072974 0 34020.0 -0.49890494170072974 1
gene  1 21 180 0.9929760562761276 0 34030.0 0.9929760562761276 1
gene  1 32 180 2.5544934594340267 0 34041.0 2.5544934594340267 1
gene  1 35 180 -3.9193651028749468 0 34044.0 -3.9193651028749468 1
gene  1 46 180 -5.316979624411305 0 34055.0 -5.316979624411305 1
gene  1 68 180 0.32874200978966706 0 34077.0 0.32874200978966706 1
gene  1 188 180 -4.972989362314181 1 34197.0 -4.972989362314181 1
gene  1 2 181 -1.592871369245364 0 34201.0 -1.592871369245364 1
gene  1 16 181 4.1761668626268005 0 34215.0 4.1761668626268005 1
gene  1 24 181 2.426010076659291 0 34223.0 2.426010076659291 1
gene  1 36 181 -7.709534506816647 0 34235.0 -7.709534506816647 1
gene  1 60 181 0.5828749684584018 0 34259.0 0.5828749684584018 1
gene  1 69 181 -7.48981715917775 0 34268.0 -7.48981715917775 1
gene  1 190 181 -9.683143994172928 1 34389.0 -9.683143994172928 1
gene  1 1 182 1.2212900228905164 0 34390.0 1.2212900228905164 0
gene  1 17 182 -13.700914178493523 0 34406.0 -13.700914178493523 1
gene  1 35 182 9.097793672786326 0 34424.0 9.097793672786326 1
gene  1 44 182 -3.869762098291551 0 34433.0 -3.869762098291551 1
gene  1 49 182 -8.753199840440066 0 34438.0 -8.753199840440066 1
gene  1 50 182 -1.5910543950733211 0 34439.0 -1.5910543950733211 1
gene  1 54 182 0.4368462823482895 0 34443.0 0.4368462823482895 1
gene  1 59 182 -8.34474864392438 0 34448.0 -8.34474864392438 1
gene  1 73 182 -1.870941400382299 0 34462.0 -1.870941400382299 1
gene  1 174 182 -1.7807148178884398 0 34563.0 -1.7807148178884398 1
gene  1 187 182 -3.9163346742575085 1 34576.0 -3.9163346742575085 1
gene  1 6 183 3.891862302525665 0 34585.0 3.891862302525665 1
gene  1 7 183 -4.373640711660816 0 34586.0 -4.373640711660816 1
gene  1 17 183 -5.737621880238455 0 34596.0 -5.737621880238455 1
gene  1 20 183 5.313159692010566 0 34599.0 5.313159692010566 1
gene  1 25 183 -0.7888157317077312 0 34604.0 -0.7888157317077312 1
gene  1 30 183 4.069987448429768 0 34609.0 4.069987448429768 1
gene  1 39 183 -5.80182204696519 0 34618.0 -5.80182204696519 1
gene  1 44 183 2.8232205411332627 0 34623.0 2.8232205411332627 1
gene  1 66 183 6.940919217835268 0 34645.0 6.940919217835268 1
gene  1 171 183 -1.9600225319402254 0 34750.0 -1.9600225319402254 1
gene  1 174 183 8.678126803602197 0 34753.0 8.678126803602197 1
gene  1 21 184 -5.950491544468782 0 34790.0 -5.950491544468782 1
gene  1 29 184 -5.501225121625661 0 34798.0 -5.501225121625661 1
gene  1 32 184 -2.874226614410924 0 34801.0 -2.874226614410924 1
gene  1 36 184 1.167664876011011 0 34805.0 1.167664876011011 1
gene  1 45 184 0.11772394244619377 0 34814.0 0.11772394244619377 1
gene  1 46 184 0.02829277241291489 0 34815.0 0.02829277241291489 1
gene  1 63 184 -5.153920664515761 0 34832.0 -5.153920664515761 1
gene  1 66 184 2.3145245191571147 0 34835.0 2.3145245191571147 1
gene  1 177 184 0.6575593173992387 0 34946.0 0.6575593173992387 1
gene  1 31 185 0.9222266739423295 0 34990.0 0.9222266739423295 1
gene  1 50 185 -1.0521770777357808 0 35009.0 -1.0521770777357808 1
gene  1 56 185 -0.9303597396702279 0 35015.0 -0.9303597396702279 1
gene  1 58 185 -7.7693008092340285 0 35017.0 -7.7693008092340285 1
gene  1 62 185 -1.3794589039702259 0 35021.0 -1.3794589039702259 1
gene  1 173 185 5.4333559118169585 0 35132.0 5.4333559118169585 1
gene  1 179 185 5.564436064960357 0 35138.0 5.564436064960357 1
gene  1 182 185 4.830880614055108 0 35141.0 4.830880614055108 1
gene  1 188 185 10.867877512960131 1 35147.0 10.867877512960131 1
gene  1 1 186 -2.786142874929575 0 35150.0 -2.786142874929575 1
gene  1 3 186 -11.090754120821055 0 35152.0 -11.090754120821055 1
gene  1 4 186 4.276228813884916 0 35153.0 4.276228813884916 1
gene  1 6 186 4.579461328260543 0 35155.0 4.579461328260543 1
gene  1 7 186 6.316080959114269 0 35156.0 6.316080959114269 1
gene  1 17 186 2.782088967247917 0 35166.0 2.782088967247917 1
gene  1 23 186 -7.866884155280312 0 35172.0 -7.866884155280312 1
gene  1 28 186 7.188139426594967 0 35177.0 7.188139426594967 1
gene  1 33 186 -2.5937876082892606 0 35182.0 -2.5937876082892606 1
gene  1 36 186 -6.669497179292629 0 35185.0 -6.669497179292629 1
gene  1 58 186 -0.6512956305285065 0 35207.0 -0.6512956305285065 1
gene  1 69 186 11.980672672225257 0 35218.0 11.980672672225257 1
gene  1 70 186 2.6968999032641543 0 35219.0 2.6968999032641543 1
gene  1 72 186 -2.9259612879992387 0 35221.0 -2.9259612879992387 1
gene  1 10 187 -1.8109652206574838 0 35349.0 -1.8109652206574838 1
gene  1 25 187 -6.847931551338032 0 35364.0 -6.847931551338032 1
gene  1 31 187 5.287478026490532 0 35370.0 5.287478026490532 1
gene  1 33 187 0.21136882052003392 0 35372.0 0.21136882052003392 1
gene  1 47 187 8.410457872132 0 35386.0 8.410457872132 1
gene  1 57 187 9.18134966552438 0 35396.0 9.18134966552438 1
gene  1 183 187 3.531199948297146 0 35522.0 3.531199948297146 1
gene  1 184 187 -6.370657876450629 0 35523.0 -6.370657876450629 1
gene  1 5 188 -0.15581263613560825 0 35534.0 -0.15581263613560825 1
gene  1 6 188 -3.455382780125861 0 35535.0 -3.455382780125861 1
gene  1 12 188 -13.314457787254817 0 35541.0 -13.314457787254817 1
gene  1 28 188 7.109322663172311 0 35557.0 7.109322663172311 1
gene  1 32 188 -4.115044394385912 0 35561.0 -4.115044394385912 1
gene  1 35 188 -4.770714482537166 0 35564.0 -4.770714482537166 1
gene  1 57 188 -1.4990652970424025 0 35586.0 -1.4990652970424025 1
gene  1 172 188 5.184333489287921 0 35701.0 5.184333489287921 1
gene  1 14 189 2.84716225906835 0 35733.0 2.84716225906835 1
gene  1 17 189 -5.466142342457456 0 35736.0 -5.466142342457456 1
gene  1 27 189 1.6222322825108206 0 35746.0 1.6222322825108206 1
gene  1 37 189 2.9560318503463074 0 35756.0 2.9560318503463074 1
gene  1 43 189 3.619673064847744 0 35762.0 3.619673064847744 1
gene  1 51 189 0.35631290899545975 0 35770.0 0.35631290899545975 1
gene  1 56 189 4.692116095027083 0 35775.0 4.692116095027083 1
gene  1 59 189 3.5790595171105304 0 35778.0 3.5790595171105304 1
gene  1 65 189 3.2522085903863687 0 35784.0 3.2522085903863687 1
gene  1 73 189 -4.159955056205121 0 35792.0 -4.159955056205121 1
gene  1 74 189 -1.370433488637959 0 35793.0 -1.370433488637959 1
gene  1 178 189 -1.4053267366008928 0 35897.0 -1.4053267366008928 1
gene  1 1 190 0.08657310172558247 0 35910.0 0.08657310172558247 1
gene  1 4 190 -1.4253196738400757 0 35913.0 -1.4253196738400757 1
gene  1 15 190 2.823224228584196 0 35924.0 2.823224228584196 1
gene  1 22 190 -0.500906572664471 0 35931.0 -0.500906572664471 1
gene  1 33 190 -1.2928184507011677 0 35942.0 -1.2928184507011677 1
gene  1 58 190 -2.0274756685503728 0 35967.0 -2.0274756685503728 1
gene  1 60 190 3.8615920401340977 0 35969.0 3.8615920401340977 1
gene  1 67 190 2.9046520382005157 0 35976.0 2.9046520382005157 1
gene  1 179 190 -0.16415863449839163 0 36088.0 -0.16415863449839163 1
gene  1 181 190 2.4798459853635477 0 36090.0 2.4798459853635477 1
gene  1 182 190 1.4242945905056095 0 36091.0 1.4242945905056095 1
gene  1 184 190 1.4929835570503642 0 36093.0 1.4929835570503642 1
gene  1 186 190 0.14912268512673021 0 36095.0 0.14912268512673021 1
gene  1 187 190 -1.0985827011781064 0 36096.0 -1.0985827011781064 1
gene  1 65 188 0.9871562408326939 0 36109.0 0.9871562408326939 1
gene  1 1 193 3.6799587134098184 0 36113.0 3.6799587134098184 1
gene  1 193 190 6.500923471464172 0 36114.0 6.500923471464172 1
gene  1 29 68 1.3266596556273673 0 36116.0 1.3266596556273673 1
gene  1 181 195 -1.9495823400499397 1 36120.0 -1.9495823400499397 1
gene  1 195 63 3.2565950783416024 0 36121.0 3.2565950783416024 1
gene  1 7 171 -1.80558499186339 0 36125.0 -1.80558499186339 1
gene  1 22 72 -2.499200947549852 0 36150.0 -2.499200947549852 1
gene  1 47 212 -1.8447061169220187 0 36196.0 -1.8447061169220187 1
gene  1 212 55 6.109164783874387 0 36197.0 6.109164783874387 1
gene  1 55 58 0.14789058990057602 0 36200.0 0.14789058990057602 1
gene  1 33 217 -1.1650985623347563 0 36231.0 -1.1650985623347563 1
gene  1 217 187 3.63107382214673 0 36232.0 3.63107382214673 1
gene  1 69 56 0.07761946498745731 0 36255.0 0.07761946498745731 1
gene  1 51 173 0.33605434501631737 0 36261.0 0.33605434501631737 1
gene  1 35 230 1.2151231440358157 0 36282.0 1.2151231440358157 1
gene  1 230 57 -0.40433396394568843 0 36283.0 -0.40433396394568843 1
gene  1 43 244 1.4465869469883998 0 36330.0 1.4465869469883998 1
gene  1 244 189 -1.8070614337304292 0 36331.0 -1.8070614337304292 1
gene  1 13 172 -1.3378151035865011 0 36334.0 -1.3378151035865011 1
gene  1 52 230 0.35058432473831214 0 36357.0 0.35058432473831214 1
gene  1 68 188 -2.6289384767550743 0 36380.0 -2.6289384767550743 1
gene  1 12 54 -4.225275770384769 0 36383.0 -4.225275770384769 1
gene  1 181 74 -4.4109441421609805 0 36429.0 -4.4109441421609805 1
gene  1 61 177 2.069638051270908 0 36460.0 2.069638051270908 1
gene  1 20 184 2.868765626819912 0 36496.0 2.868765626819912 1
gene  1 190 176 -3.7387116652010626 0 36516.0 -3.7387116652010626 1
gene  1 22 291 -1.2048809181523235 0 36524.0 -1.2048809181523235 1
gene  1 291 190 -0.020147104338102406 0 36525.0 -0.020147104338102406 1
gene  1 75 174 1.3985149981047136 0 36555.0 1.3985149981047136 1
gene  1 35 297 1.9774884348925013 0 36562.0 1.9774884348925013 1
gene  1 297 171 2.4620957450042114 0 36563.0 2.4620957450042114 1
gene  1 33 184 6.576511686653268 0 36565.0 6.576511686653268 1
gene  1 35 186 0.8438308342000496 0 36569.0 0.8438308342000496 1
gene  1 51 300 2.2547844923221296 0 36574.0 2.2547844923221296 1
gene  1 300 71 8.313513972275363 0 36575.0 8.313513972275363 1
gene  1 49 172 6.136051948452421 0 36658.0 6.136051948452421 1
gene  1 75 177 0.3429959262726781 0 36665.0 0.3429959262726781 1
gene  1 53 321 -0.29733560467209597 0 36673.0 -0.29733560467209597 1
gene  1 321 62 2.687376732807328 0 36674.0 2.687376732807328 1
gene  1 47 62 1.7548538046174134 0 36689.0 1.7548538046174134 1
gene  1 41 67 -0.4867437053962792 0 36692.0 -0.4867437053962792 1
gene  1 182 325 2.4686390432776744 1 36701.0 2.4686390432776744 1
gene  1 325 67 11.312576221303123 0 36702.0 11.312576221303123 1
gene  1 195 178 -0.14352722776445392 0 36719.0 -0.14352722776445392 1
gene  1 64 56 2.2161631410295266 0 36723.0 2.2161631410295266 1
gene  1 37 334 -0.13229523748105626 0 36742.0 -0.13229523748105626 1
gene  1 334 175 1.15630001603855 0 36743.0 1.15630001603855 1
gene  1 56 341 1.4509931060990924 0 36772.0 1.4509931060990924 1
gene  1 341 173 -3.224626615193867 0 36773.0 -3.224626615193867 1
gene  1 26 297 -3.0745823799321528 0 36788.0 -3.0745823799321528 1
gene  1 44 347 -1.1638403506198443 0 36805.0 -1.1638403506198443 1
gene  1 347 183 3.90519994913908 0 36806.0 3.90519994913908 1
gene  1 182 186 0.9470541289969223 0 36809.0 0.9470541289969223 1
gene  1 325 291 -5.391320721323385 0 36816.0 -5.391320721323385 1
gene  1 42 334 -1.6229557998267043 0 36820.0 -1.6229557998267043 1
gene  1 20 353 -3.1626983990537 0 36828.0 -3.1626983990537 1
gene  1 353 178 -0.8895431889634245 0 36829.0 -0.8895431889634245 1
gene  1 35 358 2.6819530557850335 0 36856.0 2.6819530557850335 1
gene  1 358 230 0.3090204411383255 0 36857.0 0.3090204411383255 1
gene  1 60 180 -2.290205634713088 0 36882.0 -2.290205634713088 1
gene  1 41 65 -0.33653865750624423 0 36883.0 -0.33653865750624423 1
gene  1 24 60 0.6256264795536131 0 36917.0 0.6256264795536131 1
gene  1 36 70 2.697466585076278 0 36926.0 2.697466585076278 1
gene  1 39 300 -3.7493462803379787 0 36930.0 -3.7493462803379787 1
gene  1 6 375 0.006387031549740241 0 36937.0 0.006387031549740241 1
gene  1 375 188 -2.180807663481923 0 36938.0 -2.180807663481923 1
gene  1 49 376 -1.4910002883544715 0 36941.0 -1.4910002883544715 1
gene  1 376 64 0.47359477570563735 0 36942.0 0.47359477570563735 1
gene  1 13 291 -2.36248698707132 0 36976.0 -2.36248698707132 1
gene  1 20 383 2.5114353002265934 0 36995.0 2.5114353002265934 1
gene  1 383 64 -0.24615025014151626 0 36996.0 -0.24615025014151626 1
gene  1 32 395 -2.3258679797588773 0 37049.0 -2.3258679797588773 1
gene  1 395 177 4.3314173601972366 0 37050.0 4.3314173601972366 1
gene  1 62 173 -1.9951146652372205 0 37060.0 -1.9951146652372205 1
gene  1 58 375 0.2023944366919479 0 37095.0 0.2023944366919479 1
gene  1 75 418 -3.2152175217982135 0 37156.0 -3.2152175217982135 1
gene  1 418 177 1.4820364918204774 0 37157.0 1.4820364918204774 1
gene  1 188 425 -1.2790676542708224 1 37182.0 -1.2790676542708224 1
gene  1 425 185 -6.30014486230535 0 37183.0 -6.30014486230535 1
gene  1 66 353 1.0810086234914973 0 37193.0 1.0810086234914973 1
gene  1 217 58 8.162207741068244 0 37205.0 8.162207741068244 1
gene  1 297 347 -3.6725980752922114 0 37216.0 -3.6725980752922114 1
gene  1 195 66 -1.6502238070567814 0 37249.0 -1.6502238070567814 1
gene  1 71 75 -2.810814039765324 0 37316.0 -2.810814039765324 1
gene  1 184 469 -1.6294473295945888 1 37358.0 -1.6294473295945888 1
gene  1 469 64 -2.811143193058827 0 37359.0 -2.811143193058827 1
gene  1 44 473 -1.5841044197861982 0 37394.0 -1.5841044197861982 1
gene  1 473 69 2.3827164588588556 0 37395.0 2.3827164588588556 1
gene  1 1 480 0.1552603695849425 0 37412.0 0.1552603695849425 1
gene  1 480 182 -1.2442326260378744 0 37413.0 -1.2442326260378744 1
gene  1 29 482 1.0178242956334749 0 37422.0 1.0178242956334749 1
gene  1 482 52 -2.507537908521198 0 37423.0 -2.507537908521198 1
gene  1 22 182 0.5721694266992783 0 37426.0 0.5721694266992783 1
gene  1 1 482 3.1783851679467023 0 37433.0 3.1783851679467023 1
genomeend 0
/* Organism # 001 Fitness:  2242,451 Error:  1000,000                      */
genomestart  1
trait 1 2.4681126579053765 0.0 0.8012721292781356 2.128494329298915 2.786353850831334 0.6886372375335748 0.0 0.1265055096546438 
node 1 1 1 1
node 2 1 1 1
node 3 1 1 1
node 4 1 1 1
node 5 1 1 1
node 6 1 1 1
node 7 1 1 1
node 8 1 1 1
node 9 1 1 1
node 10 1 1 1
node 11 1 1 1
node 12 1 1 1
node 13 1 1 1
node 14 1 1 1
node 15 1 1 1
node 16 1 1 1
node 17 1 1 1
node 18 1 1 1
node 19 1 1 1
node 20 1 1 1
node 21 1 1 1
node 22 1 1 1
node 23 1 1 1
node 24 1 1 1
node 25 1 1 1
node 26 1 1 1
node 27 1 1 1
node 28 1 1 1
node 29 1 1 1
node 30 1 1 1
node 31 1 1 1
node 32 1 1 1
node 33 1 1 1
node 34 1 1 1
node 35 1 1 1
node 36 1 1 1
node 37 1 1 1
node 38 1 1 1
node 39 1 1 1
node 40 1 1 1
node 41 1 1 1
node 42 1 1 1
node 43 1 1 1
node 44 1 1 1
node 45 1 1 1
node 46 1 1 1
node 47 1 1 1
node 48 1 1 1
node 49 1 1 1
node 50 1 1 3
node 51 1 0 0
node 52 1 0 0
node 53 1 0 0
node 54 1 0 0
node 55 1 0 0
node 56 1 0 0
node 57 1 0 0
node 58 1 0 0
node 59 1 0 0
node 60 1 0 0
node 61 1 0 0
node 62 1 0 0
node 63 1 0 0
node 64 1 0 0
node 65 1 0 0
node 66 1 0 0
node 67 1 0 0
node 68 1 0 0
node 69 1 0 0
node 70 1 0 0
node 71 1 0 0
node 72 1 0 0
node 73 1 0 0
node 74 1 0 0
node 75 1 0 0
node 171 1 0 2
node 172 1 0 2
node 173 1 0 2
node 174 1 0 2
node 175 1 0 2
node 176 1 0 2
node 177 1 0 2
node 178 1 0 2
node 179 1 0 2
node 180 1 0 2
node 181 1 0 2
node 182 1 0 2
node 183 1 0 2
node 184 1 0 2
node 185 1 0 2
node 186 1 0 2
node 187 1 0 2
node 188 1 0 2
node 189 1 0 2
node 190 1 0 2
node 193 1 0 0
node 195 1 0 0
node 212 1 0 0
node 217 1 0 0
node 230 1 0 0
node 244 1 0 0
node 291 1 0 0
node 297 1 0 0
node 300 1 0 0
node 321 1 0 0
node 325 1 0 0
node 334 1 0 0
node 341 1 0 0
node 347 1 0 0
node 353 1 0 0
node 358 1 0 0
node 375 1 0 0
node 376 1 0 0
node 383 1 0 0
node 395 1 0 0
node 418 1 0 0
node 425 1 0 0
node 469 1 0 0
node 473 1 0 0
node 480 1 0 0
node 482 1 0 0
gene  1 28 51 -4.07245196853109 0 9527.0 -4.07245196853109 1
gene  1 33 51 10.107867473626547 0 9532.0 10.107867473626547 1
gene  1 36 51 -0.027257432940273107 0 9535.0 -0.027257432940273107 1
gene  1 40 51 4.0529002882235545 0 9539.0 4.0529002882235545 1
gene  1 42 51 6.462080183524117 0 9541.0 6.462080183524117 1
gene  1 54 51 4.620903739221985 1 9553.0 4.620903739221985 1
gene  1 57 51 4.911941280037383 1 9556.0 4.911941280037383 1
gene  1 68 51 -5.271258017042139 1 9567.0 -5.271258017042139 1
gene  1 174 51 -14.338085229455254 1 9673.0 -14.338085229455254 1
gene  1 183 51 -1.9844275096343904 1 9682.0 -1.9844275096343904 1
gene  1 184 51 -1.4043688877461298 1 9683.0 -1.4043688877461298 1
gene  1 189 51 -0.8415557296628484 1 9688.0 -0.8415557296628484 1
gene  1 3 52 -4.985280354426768 0 9692.0 -4.985280354426768 1
gene  1 6 52 1.9705052718362959 0 9695.0 1.9705052718362959 1
gene  1 24 52 9.517671618143382 0 9713.0 9.517671618143382 1
gene  1 29 52 -0.13698633284961703 0 9718.0 -0.13698633284961703 1
gene  1 31 52 -6.460377213218216 0 9720.0 -6.460377213218216 1
gene  1 35 52 -4.131488851758837 0 9724.0 -4.131488851758837 1
gene  1 63 52 3.1957722291319675 1 9752.0 3.1957722291319675 1
gene  1 179 52 -3.935085669739921 1 9868.0 -3.935085669739921 1
gene  1 183 52 -4.209975301919208 1 9872.0 -4.209975301919208 1
gene  1 184 52 2.5941567820079325 1 9873.0 2.5941567820079325 1
gene  1 185 52 -8.699872188198244 1 9874.0 -8.699872188198244 1
gene  1 5 53 -5.574603694730804 0 9884.0 -5.574603694730804 1
gene  1 6 53 17.879382091986034 0 9885.0 17.879382091986034 1
gene  1 10 53 -0.23699905621237116 0 9889.0 -0.23699905621237116 1
gene  1 33 53 5.2279581286948575 0 9912.0 5.2279581286948575 1
gene  1 35 53 -6.385065490244493 0 9914.0 -6.385065490244493 1
gene  1 38 53 2.579857341995358 0 9917.0 2.579857341995358 1
gene  1 45 53 -2.330307061644536 0 9924.0 -2.330307061644536 1
gene  1 71 53 -14.116550685331259 1 9950.0 -14.116550685331259 1
gene  1 16 54 -5.033007574680564 0 10085.0 -5.033007574680564 1
gene  1 19 54 0.4944382536177035 0 10088.0 0.4944382536177035 1
gene  1 36 54 2.6675498166986555 0 10105.0 2.6675498166986555 1
gene  1 42 54 0.4893568178008181 0 10111.0 0.4893568178008181 1
gene  1 58 54 9.419301448983171 1 10127.0 9.419301448983171 1
gene  1 62 54 -0.6563084774345409 1 10131.0 -0.6563084774345409 1
gene  1 73 54 8.50888628787075 1 10142.0 8.50888628787075 1
gene  1 177 54 1.8636175222563824 1 10246.0 1.8636175222563824 1
gene  1 180 54 -1.8829339162220247 1 10249.0 -1.8829339162220247 1
gene  1 190 54 -8.80796346684848 1 10259.0 -8.80796346684848 1
gene  1 20 55 0.640088779203441 0 10279.0 0.640088779203441 1
gene  1 31 55 3.8415875863411673 0 10290.0 3.8415875863411673 1
gene  1 35 55 -9.704979669874618 0 10294.0 -9.704979669874618 1
gene  1 41 55 3.6439151520564073 0 10300.0 3.6439151520564073 1
gene  1 47 55 8.511868020887635 0 10306.0 8.511868020887635 1
gene  1 52 55 -0.2531290345492767 0 10311.0 -0.2531290345492767 1
gene  1 69 55 3.424564530548179 1 10328.0 3.424564530548179 1
gene  1 75 55 1.3704509623749757 1 10334.0 1.3704509623749757 1
gene  1 187 55 3.631571531672462 1 10446.0 3.631571531672462 1
gene  1 7 56 -1.2080591500142557 0 10456.0 -1.2080591500142557 1
gene  1 11 56 -2.0935780517560225 0 10460.0 -2.0935780517560225 1
gene  1 13 56 1.444646651459448 0 10462.0 1.444646651459448 1
gene  1 36 56 7.016323672288707 0 10485.0 7.016323672288707 1
gene  1 41 56 -0.09637734831234229 0 10490.0 -0.09637734831234229 1
gene  1 44 56 4.120212001765179 0 10493.0 4.120212001765179 1
gene  1 46 56 -0.4848605026585213 0 10495.0 -0.4848605026585213 1
gene  1 49 56 1.0379818807068268 0 10498.0 1.0379818807068268 1
gene  1 68 56 11.20730197703545 1 10517.0 11.20730197703545 1
gene  1 179 56 1.2428344383154522 1 10628.0 1.2428344383154522 1
gene  1 183 56 8.200332143603154 1 10632.0 8.200332143603154 1
gene  1 3 57 2.0651710174391535 0 10642.0 2.0651710174391535 1
gene  1 19 57 6.066901976013858 0 10658.0 6.066901976013858 1
gene  1 22 57 -0.10719091465748654 0 10661.0 -0.10719091465748654 1
gene  1 28 57 4.245788404006521 0 10667.0 4.245788404006521 1
gene  1 30 57 4.584324321908155 0 10669.0 4.584324321908155 1
gene  1 35 57 -1.2068538442087142 0 10674.0 -1.2068538442087142 1
gene  1 47 57 -9.85186772406255 0 10686.0 -9.85186772406255 1
gene  1 59 57 -5.645783858346268 1 10698.0 -5.645783858346268 1
gene  1 60 57 12.801693560737563 1 10699.0 12.801693560737563 1
gene  1 187 57 2.586885521895687 1 10826.0 2.586885521895687 1
gene  1 5 58 2.486460772058636 0 10834.0 2.486460772058636 1
gene  1 14 58 -18.4504773711962 0 10843.0 -18.4504773711962 1
gene  1 15 58 35.56443130711463 0 10844.0 35.56443130711463 1
gene  1 24 58 12.854345952562639 0 10853.0 12.854345952562639 1
gene  1 32 58 -0.8851070657643363 0 10861.0 -0.8851070657643363 1
gene  1 43 58 1.2204290866335654 0 10872.0 1.2204290866335654 1
gene  1 49 58 -15.432132885702021 0 10878.0 -15.432132885702021 1
gene  1 53 58 -5.663179571352792 0 10882.0 -5.663179571352792 1
gene  1 62 58 16.729800292367294 1 10891.0 16.729800292367294 1
gene  1 64 58 2.7933315218720978 1 10893.0 2.7933315218720978 1
gene  1 69 58 -0.9645797332531867 1 10898.0 -0.9645797332531867 1
gene  1 182 58 -10.982416796566659 1 11011.0 -10.982416796566659 1
gene  1 1 59 -5.311121357895262 0 11020.0 -5.311121357895262 1
gene  1 4 59 -13.070685831914169 0 11023.0 -13.070685831914169 1
gene  1 27 59 2.1483201192914154 0 11046.0 2.1483201192914154 1
gene  1 34 59 -4.484004737941165 0 11053.0 -4.484004737941165 1
gene  1 37 59 23.47680158174045 0 11056.0 23.47680158174045 1
gene  1 44 59 6.036552271728572 0 11063.0 6.036552271728572 1
gene  1 59 59 5.534324601166769 1 11078.0 5.534324601166769 1
gene  1 73 59 -1.4926926591938336 1 11092.0 -1.4926926591938336 1
gene  1 75 59 -3.3523801870685648 1 11094.0 -3.3523801870685648 1
gene  1 183 59 -1.8505587708110798 1 11202.0 -1.8505587708110798 1
gene  1 185 59 8.046609705926667 1 11204.0 8.046609705926667 1
gene  1 8 60 -2.12627041080222 0 11217.0 -2.12627041080222 1
gene  1 10 60 1.4934727860778563 0 11219.0 1.4934727860778563 1
gene  1 40 60 -4.5475846242564 0 11249.0 -4.5475846242564 1
gene  1 45 60 -2.854077941942701 0 11254.0 -2.854077941942701 1
gene  1 61 60 -7.526158170420807 1 11270.0 -7.526158170420807 1
gene  1 72 60 -4.832299902739644 1 11281.0 -4.832299902739644 1
gene  1 177 60 2.5501948177280083 1 11386.0 2.5501948177280083 1
gene  1 179 60 5.233496420294143 1 11388.0 5.233496420294143 1
gene  1 187 60 1.9891730600209552 1 11396.0 1.9891730600209552 1
gene  1 7 61 -12.397552184052767 0 11406.0 -12.397552184052767 1
gene  1 15 61 -1.4658203251176594 0 11414.0 -1.4658203251176594 1
gene  1 22 61 -6.146839140688837 0 11421.0 -6.146839140688837 1
gene  1 28 61 4.021473171342883 0 11427.0 4.021473171342883 1
gene  1 36 61 -7.1444277105530665 0 11435.0 -7.1444277105530665 1
gene  1 53 61 -0.9549809167549497 0 11452.0 -0.9549809167549497 1
gene  1 54 61 -4.123056983346837 0 11453.0 -4.123056983346837 1
gene  1 67 61 -21.22094020380452 1 11466.0 -21.22094020380452 1
gene  1 177 61 3.280950401670359 1 11576.0 3.280950401670359 1
gene  1 184 61 -2.974730776470118 1 11583.0 -2.974730776470118 1
gene  1 6 62 -1.540530244197003 0 11595.0 -1.540530244197003 1
gene  1 11 62 12.16762928539651 0 11600.0 12.16762928539651 1
gene  1 15 62 3.4434141883997658 0 11604.0 3.4434141883997658 1
gene  1 26 62 -8.220324137117926 0 11615.0 -8.220324137117926 1
gene  1 53 62 -6.207367920001766 0 11642.0 -6.207367920001766 1
gene  1 68 62 -9.416619886824893 1 11657.0 -9.416619886824893 1
gene  1 72 62 3.4700910978731745 1 11661.0 3.4700910978731745 1
gene  1 174 62 -1.0233026042552307 1 11763.0 -1.0233026042552307 1
gene  1 175 62 -0.5430628842480529 1 11764.0 -0.5430628842480529 1
gene  1 184 62 -1.0171242312349797 1 11773.0 -1.0171242312349797 1
gene  1 185 62 5.503990413579834 1 11774.0 5.503990413579834 1
gene  1 188 62 -0.3031564598154999 1 11777.0 -0.3031564598154999 1
gene  1 31 63 1.3414966735844833 0 11810.0 1.3414966735844833 1
gene  1 32 63 1.3276588456360976 0 11811.0 1.3276588456360976 1
gene  1 37 63 0.7150287610261876 0 11816.0 0.7150287610261876 1
gene  1 38 63 7.270897235419546 0 11817.0 7.270897235419546 1
gene  1 42 63 5.447786268397895 0 11821.0 5.447786268397895 1
gene  1 46 63 14.834459401537941 0 11825.0 14.834459401537941 1
gene  1 48 63 11.253795310078761 0 11827.0 11.253795310078761 1
gene  1 50 63 1.560449339091773 0 11829.0 1.560449339091773 1
gene  1 60 63 -3.39762727377633 0 11839.0 -3.39762727377633 1
gene  1 63 63 -7.11656099115024 1 11842.0 -7.11656099115024 1
gene  1 72 63 -4.848419150504869 1 11851.0 -4.848419150504869 1
gene  1 74 63 -10.062785295120767 1 11853.0 -10.062785295120767 1
gene  1 178 63 -5.409840900705893 1 11957.0 -5.409840900705893 1
gene  1 180 63 1.7485682991357174 1 11959.0 1.7485682991357174 1
gene  1 181 63 -3.4245993798011867 1 11960.0 -3.4245993798011867 1
gene  1 8 64 4.026896563770976 0 11977.0 4.026896563770976 1
gene  1 11 64 1.7952839670340588 0 11980.0 1.7952839670340588 1
gene  1 20 64 -12.641752295377506 0 11989.0 -12.641752295377506 1
gene  1 27 64 1.5001798570315201 0 11996.0 1.5001798570315201 1
gene  1 41 64 -10.98087681261498 0 12010.0 -10.98087681261498 1
gene  1 44 64 -9.186446315532585 0 12013.0 -9.186446315532585 1
gene  1 49 64 0.39001221787569795 0 12018.0 0.39001221787569795 1
gene  1 50 64 5.201193227440228 0 12019.0 5.201193227440228 1
gene  1 53 64 2.286633065136862 0 12022.0 2.286633065136862 1
gene  1 59 64 0.9194204092609803 0 12028.0 0.9194204092609803 1
gene  1 70 64 1.0370242267066 1 12039.0 1.0370242267066 1
gene  1 176 64 3.926101901192784 1 12145.0 3.926101901192784 1
gene  1 179 64 -0.5380725062502709 1 12148.0 -0.5380725062502709 1
gene  1 183 64 6.937195866653793 1 12152.0 6.937195866653793 1
gene  1 184 64 1.7202345777150427 1 12153.0 1.7202345777150427 1
gene  1 185 64 0.38191682649310676 1 12154.0 0.38191682649310676 1
gene  1 8 65 4.325595837261601 0 12167.0 4.325595837261601 1
gene  1 13 65 7.815047100731402 0 12172.0 7.815047100731402 1
gene  1 18 65 1.954302302921153 0 12177.0 1.954302302921153 1
gene  1 39 65 -6.431542321551849 0 12198.0 -6.431542321551849 1
gene  1 53 65 -8.074929058465278 0 12212.0 -8.074929058465278 1
gene  1 69 65 -5.628149979215706 1 12228.0 -5.628149979215706 1
gene  1 70 65 8.465377214086674 1 12229.0 8.465377214086674 1
gene  1 175 65 -4.782066689760663 1 12334.0 -4.782066689760663 1
gene  1 176 65 2.4289590008366804 1 12335.0 2.4289590008366804 1
gene  1 177 65 -6.3567738436818155 1 12336.0 -6.3567738436818155 1
gene  1 185 65 -5.964564970924147 1 12344.0 -5.964564970924147 1
gene  1 1 66 -0.902704822014277 0 12350.0 -0.902704822014277 1
gene  1 4 66 -2.240458389450633 0 12353.0 -2.240458389450633 1
gene  1 18 66 3.7175459172484575 0 12367.0 3.7175459172484575 1
gene  1 21 66 0.6841642293331591 0 12370.0 0.6841642293331591 1
gene  1 43 66 -9.108415895804999 0 12392.0 -9.108415895804999 1
gene  1 47 66 -1.062751858050523 0 12396.0 -1.062751858050523 1
gene  1 50 66 8.26421395345627 0 12399.0 8.26421395345627 1
gene  1 60 66 3.889889331878668 0 12409.0 3.889889331878668 1
gene  1 62 66 5.118590014984922 0 12411.0 5.118590014984922 1
gene  1 66 66 4.408751567791522 1 12415.0 4.408751567791522 1
gene  1 184 66 -3.7973551055250505 1 12533.0 -3.7973551055250505 1
gene  1 8 67 6.394978964446237 0 12547.0 6.394978964446237 1
gene  1 38 67 6.806781876782674 0 12577.0 6.806781876782674 1
gene  1 46 67 -4.59164180557423 0 12585.0 -4.59164180557423 1
gene  1 49 67 -12.554451602882423 0 12588.0 -12.554451602882423 1
gene  1 57 67 6.095577317644787 0 12596.0 6.095577317644787 1
gene  1 61 67 -1.7969031878589283 0 12600.0 -1.7969031878589283 1
gene  1 72 67 -5.3089103562420155 1 12611.0 -5.3089103562420155 1
gene  1 177 67 -4.737758825531439 1 12716.0 -4.737758825531439 1
gene  1 182 67 -6.021078341726323 1 12721.0 -6.021078341726323 1
gene  1 185 67 -3.9658979051056704 1 12724.0 -3.9658979051056704 1
gene  1 189 67 1.9644592951896218 1 12728.0 1.9644592951896218 1
gene  1 5 68 -8.80572307675881 0 12734.0 -8.80572307675881 1
gene  1 16 68 -0.10755851375388276 0 12745.0 -0.10755851375388276 1
gene  1 40 68 0.18404245122113183 0 12769.0 0.18404245122113183 1
gene  1 41 68 1.1729231105426579 0 12770.0 1.1729231105426579 1
gene  1 42 68 2.8420948800093337 0 12771.0 2.8420948800093337 1
gene  1 71 68 2.5609401403588405 1 12800.0 2.5609401403588405 1
gene  1 185 68 0.04171071014666361 1 12914.0 0.04171071014666361 1
gene  1 6 69 0.2667376288197263 0 12925.0 0.2667376288197263 1
gene  1 16 69 2.5103555035107403 0 12935.0 2.5103555035107403 1
gene  1 19 69 -3.5605696980563035 0 12938.0 -3.5605696980563035 1
gene  1 44 69 -3.1835579443970556 0 12963.0 -3.1835579443970556 1
gene  1 45 69 -0.7883969631330234 0 12964.0 -0.7883969631330234 1
gene  1 65 69 -5.184638247444921 0 12984.0 -5.184638247444921 1
gene  1 171 69 8.563606219816268 1 13090.0 8.563606219816268 1
gene  1 3 70 -5.900848328341904 0 13112.0 -5.900848328341904 1
gene  1 39 70 -0.24075149557539977 0 13148.0 -0.24075149557539977 1
gene  1 60 70 6.907681669824845 0 13169.0 6.907681669824845 1
gene  1 171 70 3.245427688059122 1 13280.0 3.245427688059122 1
gene  1 181 70 -0.06704835982739255 1 13290.0 -0.06704835982739255 1
gene  1 183 70 1.8653347198382813 1 13292.0 1.8653347198382813 1
gene  1 11 71 -5.8411074740356765 0 13310.0 -5.8411074740356765 1
gene  1 15 71 2.0056860251954016 0 13314.0 2.0056860251954016 1
gene  1 30 71 4.8173022389560725 0 13329.0 4.8173022389560725 1
gene  1 33 71 -2.814660046303759 0 13332.0 -2.814660046303759 1
gene  1 34 71 4.353579577057266 0 13333.0 4.353579577057266 1
gene  1 48 71 -2.494947856169492 0 13347.0 -2.494947856169492 1
gene  1 50 71 -14.269074030680422 0 13349.0 -14.269074030680422 1
gene  1 51 71 2.496750695174066 0 13350.0 2.496750695174066 1
gene  1 57 71 -6.59839270740106 0 13356.0 -6.59839270740106 1
gene  1 73 71 3.3742459798309192 1 13372.0 3.3742459798309192 1
gene  1 185 71 3.124868741388879 1 13484.0 3.124868741388879 1
gene  1 24 72 1.176535349518508 0 13513.0 1.176535349518508 1
gene  1 51 72 -0.685826638708748 0 13540.0 -0.685826638708748 1
gene  1 54 72 9.948494853246114 0 13543.0 9.948494853246114 1
gene  1 60 72 5.848261514985232 0 13549.0 5.848261514985232 1
gene  1 3 73 -3.379518586567541 0 13682.0 -3.379518586567541 1
gene  1 18 73 -3.287777324078025 0 13697.0 -3.287777324078025 1
gene  1 30 73 -1.5185904061385265 0 13709.0 -1.5185904061385265 1
gene  1 41 73 4.881670283269913 0 13720.0 4.881670283269913 1
gene  1 54 73 3.7411794249402597 0 13733.0 3.7411794249402597 1
gene  1 59 73 -4.83872148429583 0 13738.0 -4.83872148429583 1
gene  1 60 73 1.5848864130313294 0 13739.0 1.5848864130313294 1
gene  1 179 73 3.632815343706055 1 13858.0 3.632815343706055 1
gene  1 189 73 -5.88338578481991 1 13868.0 -5.88338578481991 1
gene  1 31 74 -0.7162076953291288 0 13900.0 -0.7162076953291288 1
gene  1 38 74 -7.374785441745355 0 13907.0 -7.374785441745355 1
gene  1 67 74 1.2299100076225533 0 13936.0 1.2299100076225533 1
gene  1 74 74 -8.735249836671526 1 13943.0 -8.735249836671526 1
gene  1 188 74 -5.955209099416928 1 14057.0 -5.955209099416928 1
gene  1 2 75 -8.095040212566927 0 14061.0 -8.095040212566927 1
gene  1 10 75 -9.038055911649153 0 14069.0 -9.038055911649153 1
gene  1 12 75 -5.609251696598607 0 14071.0 -5.609251696598607 1
gene  1 15 75 -0.5469048510117085 0 14074.0 -0.5469048510117085 1
gene  1 18 75 -2.011320792648086 0 14077.0 -2.011320792648086 1
gene  1 43 75 -9.038308972717672 0 14102.0 -9.038308972717672 1
gene  1 46 75 2.811592544411551 0 14105.0 2.811592544411551 1
gene  1 56 75 -0.9506051896599481 0 14115.0 -0.9506051896599481 1
gene  1 57 75 11.652890097664638 0 14116.0 11.652890097664638 1
gene  1 177 75 -3.51647737748943 1 14236.0 -3.51647737748943 1
gene  1 183 75 -0.31646397178137553 1 14242.0 -0.31646397178137553 1
gene  1 3 171 -0.5118161300649491 0 32302.0 -0.5118161300649491 1
gene  1 10 171 3.405964114291238 0 32309.0 3.405964114291238 1
gene  1 18 171 10.73599101229267 0 32317.0 10.73599101229267 1
gene  1 35 171 3.555144144374966 0 32334.0 3.555144144374966 1
gene  1 47 171 8.12857345347468 0 32346.0 8.12857345347468 1
gene  1 48 171 3.9656577823007044 0 32347.0 3.9656577823007044 1
gene  1 63 171 8.708962633613776 0 32362.0 8.708962633613776 1
gene  1 74 171 -0.3866922501223864 0 32373.0 -0.3866922501223864 1
gene  1 171 171 -12.6656049811608 1 32470.0 -12.6656049811608 1
gene  1 180 171 11.943825102227995 1 32479.0 11.943825102227995 1
gene  1 181 171 3.707996684841432 1 32480.0 3.707996684841432 1
gene  1 16 172 -7.695367465427178 0 32505.0 -7.695367465427178 1
gene  1 38 172 4.378373891059152 0 32527.0 4.378373891059152 1
gene  1 58 172 -2.1407266401464122 0 32547.0 -2.1407266401464122 1
gene  1 59 172 -0.5954546815916149 0 32548.0 -0.5954546815916149 1
gene  1 60 172 10.819071682619173 0 32549.0 10.819071682619173 1
gene  1 73 172 -18.74210597358703 0 32562.0 -18.74210597358703 1
gene  1 171 172 -3.6055726535132315 0 32660.0 -3.6055726535132315 1
gene  1 173 172 -1.4076975138319252 1 32662.0 -1.4076975138319252 1
gene  1 7 173 2.540780404895239 0 32686.0 2.540780404895239 1
gene  1 29 173 -6.679380561377114 0 32708.0 -6.679380561377114 1
gene  1 30 173 -2.6336140196778794 0 32709.0 -2.6336140196778794 1
gene  1 38 173 7.2060291357820585 0 32717.0 7.2060291357820585 1
gene  1 56 173 -6.446517117182683 0 32735.0 -6.446517117182683 1
gene  1 68 173 6.076141299989608 0 32747.0 6.076141299989608 1
gene  1 72 173 4.442248056854112 0 32751.0 4.442248056854112 1
gene  1 75 173 -7.298501860649466 0 32754.0 -7.298501860649466 1
gene  1 180 173 5.5552186737285645 1 32859.0 5.5552186737285645 1
gene  1 45 174 -4.958792720479745 0 32914.0 -4.958792720479745 1
gene  1 174 174 -1.4850105673547354 1 33043.0 -1.4850105673547354 1
gene  1 180 174 0.9473116647749431 1 33049.0 0.9473116647749431 1
gene  1 186 174 -15.396446989121799 1 33055.0 -15.396446989121799 1
gene  1 2 175 24.049055606802572 0 33061.0 24.049055606802572 1
gene  1 11 175 -1.9184480125045726 0 33070.0 -1.9184480125045726 1
gene  1 26 175 -6.4291714626069805 0 33085.0 -6.4291714626069805 1
gene  1 37 175 0.10628557466103272 0 33096.0 0.10628557466103272 1
gene  1 43 175 2.9151901701567957 0 33102.0 2.9151901701567957 1
gene  1 48 175 2.907150735040628 0 33107.0 2.907150735040628 1
gene  1 51 175 -9.578048372272525 0 33110.0 -9.578048372272525 1
gene  1 64 175 -2.3601116205448442 0 33123.0 -2.3601116205448442 1
gene  1 70 175 -1.4258230309273192 0 33129.0 -1.4258230309273192 1
gene  1 71 175 -2.335126082763682 0 33130.0 -2.335126082763682 1
gene  1 177 175 6.643275952951904 1 33236.0 6.643275952951904 1
gene  1 178 175 14.430646343027444 1 33237.0 14.430646343027444 1
gene  1 181 175 1.476770888328316 1 33240.0 1.476770888328316 1
gene  1 184 175 -2.9775388300642933 1 33243.0 -2.9775388300642933 1
gene  1 186 175 -1.423937322676824 1 33245.0 -1.423937322676824 1
gene  1 2 176 -12.731058970223224 0 33251.0 -12.731058970223224 1
gene  1 8 176 5.272498394031436 0 33257.0 5.272498394031436 1
gene  1 9 176 4.638861830412952 0 33258.0 4.638861830412952 1
gene  1 12 176 0.5670258283454197 0 33261.0 0.5670258283454197 1
gene  1 15 176 6.212816724961277 0 33264.0 6.212816724961277 1
gene  1 16 176 -8.528515227292472 0 33265.0 -8.528515227292472 1
gene  1 35 176 1.6556972886475574 0 33284.0 1.6556972886475574 1
gene  1 37 176 -7.74982422915533 0 33286.0 -7.74982422915533 1
gene  1 46 176 11.150512910523043 0 33295.0 11.150512910523043 1
gene  1 62 176 -1.4461764672659894 0 33311.0 -1.4461764672659894 1
gene  1 64 176 -0.7964114508329829 0 33313.0 -0.7964114508329829 1
gene  1 171 176 3.500059261584611 0 33420.0 3.500059261584611 1
gene  1 174 176 8.786959515512327 0 33423.0 8.786959515512327 1
gene  1 179 176 7.670287278742185 1 33428.0 7.670287278742185 1
gene  1 1 177 0.0020279434292698184 0 33440.0 0.0020279434292698184 1
gene  1 7 177 9.842579042627635 0 33446.0 9.842579042627635 1
gene  1 8 177 4.633992416510475 0 33447.0 4.633992416510475 1
gene  1 9 177 -5.467479034305047 0 33448.0 -5.467479034305047 1
gene  1 14 177 5.0228539774635586 0 33453.0 5.0228539774635586 1
gene  1 16 177 -11.544550496701381 0 33455.0 -11.544550496701381 1
gene  1 20 177 -3.5012706530549074 0 33459.0 -3.5012706530549074 1
gene  1 30 177 -0.8789601766534272 0 33469.0 -0.8789601766534272 1
gene  1 31 177 2.632672760309149 0 33470.0 2.632672760309149 1
gene  1 32 177 6.424482990728544 0 33471.0 6.424482990728544 1
gene  1 43 177 -4.385886148822615 0 33482.0 -4.385886148822615 1
gene  1 44 177 -0.05217376858660083 0 33483.0 -0.05217376858660083 1
gene  1 53 177 -1.190388772371771 0 33492.0 -1.190388772371771 1
gene  1 59 177 -1.5584613025845406 0 33498.0 -1.5584613025845406 1
gene  1 69 177 1.1231553548744495 0 33508.0 1.1231553548744495 1
gene  1 174 177 -1.8038509349489305 0 33613.0 -1.8038509349489305 1
gene  1 175 177 -3.685633280791791 0 33614.0 -3.685633280791791 1
gene  1 184 177 0.6081401456084381 1 33623.0 0.6081401456084381 1
gene  1 187 177 6.593482820967319 1 33626.0 6.593482820967319 1
gene  1 1 178 -1.62451771761584 0 33630.0 -1.62451771761584 1
gene  1 20 178 -6.059430987160696 0 33649.0 -6.059430987160696 1
gene  1 26 178 0.5457343649226764 0 33655.0 0.5457343649226764 1
gene  1 35 178 2.2728639539140763 0 33664.0 2.2728639539140763 1
gene  1 42 178 -10.942099474979726 0 33671.0 -10.942099474979726 1
gene  1 53 178 0.1957260157364339 0 33682.0 0.1957260157364339 1
gene  1 59 178 3.8653725391123697 0 33688.0 3.8653725391123697 1
gene  1 72 178 -5.313655922891923 0 33701.0 -5.313655922891923 1
gene  1 172 178 -1.4535109681097127 0 33801.0 -1.4535109681097127 1
gene  1 190 178 -7.37341833781107 1 33819.0 -7.37341833781107 1
gene  1 6 179 -1.8741897261395564 0 33825.0 -1.8741897261395564 1
gene  1 8 179 -0.8927298912508448 0 33827.0 -0.8927298912508448 1
gene  1 13 179 -5.025144682537297 0 33832.0 -5.025144682537297 1
gene  1 36 179 -9.772786413969724 0 33855.0 -9.772786413969724 1
gene  1 46 179 0.7263893626418194 0 33865.0 0.7263893626418194 1
gene  1 60 179 -6.305152925528498 0 33879.0 -6.305152925528498 1
gene  1 61 179 3.9512557807347246 0 33880.0 3.9512557807347246 1
gene  1 72 179 -4.975803675053153 0 33891.0 -4.975803675053153 1
gene  1 74 179 -11.568713008976209 0 33893.0 -11.568713008976209 1
gene  1 171 179 -1.8070866620340256 0 33990.0 -1.8070866620340256 1
gene  1 185 179 1.3106196828369385 1 34004.0 1.3106196828369385 1
gene  1 1 180 -4.289532680919937 0 34010.0 -4.289532680919937 1
gene  1 4 180 6.454378657311086 0 34013.0 6.454378657311086 1
gene  1 8 180 6.141596770107013 0 34017.0 6.141596770107013 1
gene  1 11 180 0.3475556174669243 0 34020.0 0.3475556174669243 1
gene  1 21 180 -0.8292651846349912 0 34030.0 -0.8292651846349912 1
gene  1 32 180 0.6924251190806543 0 34041.0 0.6924251190806543 1
gene  1 35 180 -4.339261120595141 0 34044.0 -4.339261120595141 1
gene  1 46 180 -8.968996593432973 0 34055.0 -8.968996593432973 1
gene  1 68 180 0.6682108133098835 0 34077.0 0.6682108133098835 1
gene  1 188 180 -3.48823226610779 1 34197.0 -3.48823226610779 1
gene  1 2 181 -1.1883842383425498 0 34201.0 -1.1883842383425498 1
gene  1 16 181 3.4235034055911653 0 34215.0 3.4235034055911653 1
gene  1 24 181 1.1205535308753969 0 34223.0 1.1205535308753969 1
gene  1 36 181 -4.441494435652754 0 34235.0 -4.441494435652754 1
gene  1 60 181 -0.9435881655988945 0 34259.0 -0.9435881655988945 1
gene  1 69 181 -8.815136194614237 0 34268.0 -8.815136194614237 1
gene  1 190 181 -8.790309312059069 1 34389.0 -8.790309312059069 1
gene  1 1 182 2.547597705162482 0 34390.0 2.547597705162482 0
gene  1 17 182 -15.584098064554501 0 34406.0 -15.584098064554501 1
gene  1 35 182 10.510560671562907 0 34424.0 10.510560671562907 1
gene  1 44 182 -5.0512762742209825 0 34433.0 -5.0512762742209825 1
gene  1 49 182 -4.895821852382429 0 34438.0 -4.895821852382429 1
gene  1 50 182 0.5984637099306487 0 34439.0 0.5984637099306487 1
gene  1 54 182 -1.2526779777138903 0 34443.0 -1.2526779777138903 1
gene  1 59 182 -12.997742242081987 0 34448.0 -12.997742242081987 1
gene  1 73 182 -5.071976248453729 0 34462.0 -5.071976248453729 1
gene  1 174 182 -0.4253517473333457 0 34563.0 -0.4253517473333457 1
gene  1 187 182 -3.3347878420501886 1 34576.0 -3.3347878420501886 1
gene  1 6 183 5.285171360288448 0 34585.0 5.285171360288448 1
gene  1 7 183 -0.6217257560078777 0 34586.0 -0.6217257560078777 1
gene  1 17 183 -4.811934332528989 0 34596.0 -4.811934332528989 1
gene  1 20 183 2.8842598244015027 0 34599.0 2.8842598244015027 1
gene  1 25 183 0.15020885592703792 0 34604.0 0.15020885592703792 1
gene  1 30 183 0.9794986275117106 0 34609.0 0.9794986275117106 1
gene  1 39 183 -1.9148187915332886 0 34618.0 -1.9148187915332886 1
gene  1 44 183 5.019020655695372 0 34623.0 5.019020655695372 1
gene  1 66 183 6.695162321480693 0 34645.0 6.695162321480693 1
gene  1 171 183 -0.706739553374047 0 34750.0 -0.706739553374047 1
gene  1 174 183 9.055154330702715 0 34753.0 9.055154330702715 1
gene  1 21 184 -2.2300772703529628 0 34790.0 -2.2300772703529628 1
gene  1 29 184 -4.6890801272608895 0 34798.0 -4.6890801272608895 1
gene  1 32 184 -3.15710731047158 0 34801.0 -3.15710731047158 1
gene  1 36 184 2.2259745430997873 0 34805.0 2.2259745430997873 1
gene  1 45 184 1.5421168026929595 0 34814.0 1.5421168026929595 1
gene  1 46 184 -2.0186206588888016 0 34815.0 -2.0186206588888016 1
gene  1 63 184 -6.469549269419513 0 34832.0 -6.469549269419513 1
gene  1 66 184 0.4076405179403644 0 34835.0 0.4076405179403644 1
gene  1 177 184 -0.42803584341359535 0 34946.0 -0.42803584341359535 1
gene  1 31 185 2.129957211237296 0 34990.0 2.129957211237296 1
gene  1 50 185 2.0265228553717525 0 35009.0 2.0265228553717525 1
gene  1 56 185 -1.2568115128241786 0 35015.0 -1.2568115128241786 1
gene  1 58 185 -9.275192242068343 0 35017.0 -9.275192242068343 1
gene  1 62 185 -1.076214274163809 0 35021.0 -1.076214274163809 1
gene  1 173 185 7.376265419095816 0 35132.0 7.376265419095816 1
gene  1 179 185 4.2763071272571445 0 35138.0 4.2763071272571445 1
gene  1 182 185 5.562920212778622 0 35141.0 5.562920212778622 1
gene  1 188 185 13.867048829405102 1 35147.0 13.867048829405102 1
gene  1 1 186 -4.294736994306394 0 35150.0 -4.294736994306394 1
gene  1 3 186 -9.072435629692091 0 35152.0 -9.072435629692091 1
gene  1 4 186 2.7647847291588517 0 35153.0 2.7647847291588517 1
gene  1 6 186 2.6935631083824765 0 35155.0 2.6935631083824765 1
gene  1 7 186 8.47219281066405 0 35156.0 8.47219281066405 1
gene  1 17 186 2.6743049829018863 0 35166.0 2.6743049829018863 1
gene  1 23 186 -6.512778439344128 0 35172.0 -6.512778439344128 1
gene  1 28 186 3.246866877929794 0 35177.0 3.246866877929794 1
gene  1 33 186 -1.7742741538358362 0 35182.0 -1.7742741538358362 1
gene  1 36 186 -5.1142648948733775 0 35185.0 -5.1142648948733775 1
gene  1 58 186 2.493308739568538 0 35207.0 2.493308739568538 1
gene  1 69 186 13.78171286557533 0 35218.0 13.78171286557533 1
gene  1 70 186 0.5038318152716148 0 35219.0 0.5038318152716148 1
gene  1 72 186 -6.409625338516409 0 35221.0 -6.409625338516409 1
gene  1 10 187 -1.0458798355476102 0 35349.0 -1.0458798355476102 1
gene  1 25 187 -3.199255637828247 0 35364.0 -3.199255637828247 1
gene  1 31 187 5.726879102472175 0 35370.0 5.726879102472175 1
gene  1 33 187 -2.57295501428737 0 35372.0 -2.57295501428737 1
gene  1 47 187 4.810333260579356 0 35386.0 4.810333260579356 1
gene  1 57 187 8.21783778793653 0 35396.0 8.21783778793653 1
gene  1 183 187 3.713873743169361 0 35522.0 3.713873743169361 1
gene  1 184 187 -7.927714690002486 0 35523.0 -7.927714690002486 1
gene  1 5 188 -4.321039402073671 0 35534.0 -4.321039402073671 1
gene  1 6 188 -1.7190143584943833 0 35535.0 -1.7190143584943833 1
gene  1 12 188 -12.740170832753623 0 35541.0 -12.740170832753623 1
gene  1 28 188 5.433737800892201 0 35557.0 5.433737800892201 1
gene  1 32 188 -4.848002178946182 0 35561.0 -4.848002178946182 1
gene  1 35 188 -4.30080890769896 0 35564.0 -4.30080890769896 1
gene  1 57 188 -3.2613267529376837 0 35586.0 -3.2613267529376837 1
gene  1 172 188 1.2489482622312535 0 35701.0 1.2489482622312535 1
gene  1 14 189 2.3121019220723533 0 35733.0 2.3121019220723533 1
gene  1 17 189 -4.0276290426306405 0 35736.0 -4.0276290426306405 1
gene  1 27 189 0.5235305846954585 0 35746.0 0.5235305846954585 1
gene  1 37 189 2.6556948477436477 0 35756.0 2.6556948477436477 1
gene  1 43 189 -0.5566944575548125 0 35762.0 -0.5566944575548125 1
gene  1 51 189 1.228705995813592 0 35770.0 1.228705995813592 1
gene  1 56 189 2.985403585173213 0 35775.0 2.985403585173213 1
gene  1 59 189 0.40548642741182084 0 35778.0 0.40548642741182084 1
gene  1 65 189 -0.46544301321306825 0 35784.0 -0.46544301321306825 1
gene  1 73 189 -5.007257094289212 0 35792.0 -5.007257094289212 1
gene  1 74 189 0.7242452650763849 0 35793.0 0.7242452650763849 1
gene  1 178 189 -2.359180217408591 0 35897.0 -2.359180217408591 1
gene  1 1 190 0.6077483154050654 0 35910.0 0.6077483154050654 1
gene  1 4 190 -0.8497611060457171 0 35913.0 -0.8497611060457171 1
gene  1 15 190 -0.45679038987051257 0 35924.0 -0.45679038987051257 1
gene  1 22 190 0.3242225825505559 0 35931.0 0.3242225825505559 1
gene  1 33 190 0.5707998543171761 0 35942.0 0.5707998543171761 1
gene  1 58 190 -1.7345671105231606 0 35967.0 -1.7345671105231606 1
gene  1 60 190 5.358179862831907 0 35969.0 5.358179862831907 1
gene  1 67 190 0.18610206950787633 0 35976.0 0.18610206950787633 1
gene  1 179 190 -1.0478092822807346 0 36088.0 -1.0478092822807346 1
gene  1 181 190 1.3692692704337004 0 36090.0 1.3692692704337004 1
gene  1 182 190 1.9075745756481592 0 36091.0 1.9075745756481592 1
gene  1 184 190 2.38070887559541 0 36093.0 2.38070887559541 1
gene  1 186 190 2.3005080469700285 0 36095.0 2.3005080469700285 1
gene  1 187 190 -2.056071774209397 0 36096.0 -2.056071774209397 1
gene  1 65 188 0.23371304096978407 0 36109.0 0.23371304096978407 1
gene  1 1 193 2.7673667525029604 0 36113.0 2.7673667525029604 1
gene  1 193 190 0.04836850192987019 0 36114.0 0.04836850192987019 1
gene  1 29 68 1.8518274474313756 0 36116.0 1.8518274474313756 1
gene  1 181 195 -3.442425534683861 1 36120.0 -3.442425534683861 1
gene  1 195 63 2.369890395325324 0 36121.0 2.369890395325324 1
gene  1 7 171 -2.4003232816749005 0 36125.0 -2.4003232816749005 1
gene  1 22 72 0.3452041149844516 0 36150.0 0.3452041149844516 1
gene  1 47 212 -0.3431628396185489 0 36196.0 -0.3431628396185489 1
gene  1 212 55 4.045165678221217 0 36197.0 4.045165678221217 1
gene  1 55 58 1.3367481235380168 0 36200.0 1.3367481235380168 1
gene  1 33 217 2.4005259551038156 0 36231.0 2.4005259551038156 1
gene  1 217 187 2.7930313606235915 0 36232.0 2.7930313606235915 1
gene  1 69 56 -1.3305543047121657 0 36255.0 -1.3305543047121657 1
gene  1 51 173 -0.39261163109258856 0 36261.0 -0.39261163109258856 1
gene  1 35 230 1.5797478825267335 0 36282.0 1.5797478825267335 1
gene  1 230 57 0.9196943086073015 0 36283.0 0.9196943086073015 1
gene  1 43 244 1.4465869469883998 0 36330.0 1.4465869469883998 1
gene  1 244 189 -1.0391817082534724 0 36331.0 -1.0391817082534724 1
gene  1 13 172 1.0230408415343661 0 36334.0 1.0230408415343661 1
gene  1 52 230 -2.4821776856841953 0 36357.0 -2.4821776856841953 1
gene  1 68 188 -2.1185793518617695 0 36380.0 -2.1185793518617695 1
gene  1 12 54 -1.5297115752161474 0 36383.0 -1.5297115752161474 1
gene  1 181 74 0.5191279246092875 0 36429.0 0.5191279246092875 1
gene  1 61 177 3.837118113143064 0 36460.0 3.837118113143064 1
gene  1 20 184 0.10872917984632613 0 36496.0 0.10872917984632613 1
gene  1 190 176 1.7500333440039628 0 36516.0 1.7500333440039628 1
gene  1 22 291 -0.4493539188036816 0 36524.0 -0.4493539188036816 1
gene  1 291 190 1.8616408827350188 0 36525.0 1.8616408827350188 1
gene  1 75 174 0.9301294768618024 0 36555.0 0.9301294768618024 1
gene  1 35 297 1.9774884348925013 0 36562.0 1.9774884348925013 1
gene  1 297 171 2.7268310007696166 0 36563.0 2.7268310007696166 1
gene  1 33 184 4.233835331455351 0 36565.0 4.233835331455351 1
gene  1 35 186 -2.0904138818760543 0 36569.0 -2.0904138818760543 1
gene  1 51 300 1.8264119950069955 0 36574.0 1.8264119950069955 1
gene  1 300 71 8.889992081224825 0 36575.0 8.889992081224825 1
gene  1 49 172 6.444029839516967 0 36658.0 6.444029839516967 1
gene  1 75 177 3.61140554632209 0 36665.0 3.61140554632209 1
gene  1 53 321 0.14394285983765975 0 36673.0 0.14394285983765975 1
gene  1 321 62 -1.3423683544198157 0 36674.0 -1.3423683544198157 1
gene  1 47 62 0.41943183603303047 0 36689.0 0.41943183603303047 1
gene  1 41 67 7.735878020610324 0 36692.0 7.735878020610324 1
gene  1 182 325 -0.7549614236809974 1 36701.0 -0.7549614236809974 1
gene  1 325 67 -0.8622118907175511 0 36702.0 -0.8622118907175511 1
gene  1 195 178 0.46677853494609123 0 36719.0 0.46677853494609123 1
gene  1 64 56 2.822386207690281 0 36723.0 2.822386207690281 1
gene  1 37 334 -1.5032394053207454 0 36742.0 -1.5032394053207454 1
gene  1 334 175 2.0890130449948887 0 36743.0 2.0890130449948887 1
gene  1 56 341 1.4509931060990924 0 36772.0 1.4509931060990924 1
gene  1 341 173 -3.1700122216807323 0 36773.0 -3.1700122216807323 1
gene  1 26 297 -5.002184304415385 0 36788.0 -5.002184304415385 1
gene  1 44 347 -0.7515878707667587 0 36805.0 -0.7515878707667587 1
gene  1 347 183 1.5454097338862982 0 36806.0 1.5454097338862982 1
gene  1 182 186 0.14867423054547774 0 36809.0 0.14867423054547774 1
gene  1 325 291 -5.159222567407271 0 36816.0 -5.159222567407271 1
gene  1 42 334 -1.3167474689520144 0 36820.0 -1.3167474689520144 1
gene  1 20 353 -1.6502996838162187 0 36828.0 -1.6502996838162187 1
gene  1 353 178 -0.8895431889634245 0 36829.0 -0.8895431889634245 1
gene  1 35 358 2.6400255193754267 0 36856.0 2.6400255193754267 1
gene  1 358 230 2.180941298808042 0 36857.0 2.180941298808042 1
gene  1 60 180 -0.8367800967382524 0 36882.0 -0.8367800967382524 1
gene  1 41 65 -1.5671506061066067 0 36883.0 -1.5671506061066067 1
gene  1 24 60 -1.8660469255380516 0 36917.0 -1.8660469255380516 1
gene  1 36 70 0.4322798454808524 0 36926.0 0.4322798454808524 1
gene  1 39 300 -1.7765170565195245 0 36930.0 -1.7765170565195245 1
gene  1 6 375 0.1529505760947794 0 36937.0 0.1529505760947794 1
gene  1 375 188 1.1170732847463185 0 36938.0 1.1170732847463185 1
gene  1 49 376 1.4594893729508793 0 36941.0 1.4594893729508793 1
gene  1 376 64 -3.1056725441896864 0 36942.0 -3.1056725441896864 1
gene  1 13 291 -2.36248698707132 0 36976.0 -2.36248698707132 1
gene  1 20 383 2.0275318720878115 0 36995.0 2.0275318720878115 1
gene  1 383 64 -2.4890640597554663 0 36996.0 -2.4890640597554663 1
gene  1 32 395 -1.4359934657352054 0 37049.0 -1.4359934657352054 1
gene  1 395 177 2.327082966413811 0 37050.0 2.327082966413811 1
gene  1 62 173 0.2178783405495186 0 37060.0 0.2178783405495186 1
gene  1 58 375 1.4632679088856206 0 37095.0 1.4632679088856206 1
gene  1 75 418 2.479384424976271 0 37156.0 2.479384424976271 1
gene  1 418 177 1.4820364918204774 0 37157.0 1.4820364918204774 1
gene  1 188 425 -2.3137996880476788 1 37182.0 -2.3137996880476788 1
gene  1 425 185 -5.769321277079711 0 37183.0 -5.769321277079711 1
gene  1 66 353 1.0008124921193762 0 37193.0 1.0008124921193762 1
gene  1 217 58 5.88454949118449 0 37205.0 5.88454949118449 1
gene  1 297 347 -0.613777100636505 0 37216.0 -0.613777100636505 1
gene  1 195 66 -0.09074002483810906 0 37249.0 -0.09074002483810906 1
gene  1 71 75 -1.8954393950395718 0 37316.0 -1.8954393950395718 1
gene  1 184 469 1.0833571754925184 1 37358.0 1.0833571754925184 1
gene  1 469 64 -2.811143193058827 0 37359.0 -2.811143193058827 1
gene  1 44 473 -0.3128472477765376 0 37394.0 -0.3128472477765376 1
gene  1 473 69 -6.130806385117444 0 37395.0 -6.130806385117444 1
gene  1 1 480 -0.4279792132479614 0 37412.0 -0.4279792132479614 1
gene  1 480 182 -1.2442326260378744 0 37413.0 -1.2442326260378744 1
gene  1 29 482 4.183972693865272 0 37422.0 4.183972693865272 1
gene  1 482 52 -3.2123005988125177 0 37423.0 -3.2123005988125177 1
gene  1 22 182 1.8410433454054989 0 37426.0 1.8410433454054989 1
gene  1 1 482 3.2704585088202607 0 37433.0 3.2704585088202607 1
genomeend 1
/* Organism # 002 Fitness:  1524,400 Error:  1000,000                      */
genomestart  2
trait 1 2.4681126579053765 0.0 0.8012721292781356 2.128494329298915 2.786353850831334 0.6886372375335748 0.0 0.1265055096546438 
node 1 1 1 1
node 2 1 1 1
node 3 1 1 1
node 4 1 1 1
node 5 1 1 1
node 6 1 1 1
node 7 1 1 1
node 8 1 1 1
node 9 1 1 1
node 10 1 1 1
node 11 1 1 1
node 12 1 1 1
node 13 1 1 1
node 14 1 1 1
node 15 1 1 1
node 16 1 1 1
node 17 1 1 1
node 18 1 1 1
node 19 1 1 1
node 20 1 1 1
node 21 1 1 1
node 22 1 1 1
node 23 1 1 1
node 24 1 1 1
node 25 1 1 1
node 26 1 1 1
node 27 1 1 1
node 28 1 1 1
node 29 1 1 1
node 30 1 1 1
node 31 1 1 1
node 32 1 1 1
node 33 1 1 1
node 34 1 1 1
node 35 1 1 1
node 36 1 1 1
node 37 1 1 1
node 38 1 1 1
node 39 1 1 1
node 40 1 1 1
node 41 1 1 1
node 42 1 1 1
node 43 1 1 1
node 44 1 1 1
node 45 1 1 1
node 46 1 1 1
node 47 1 1 1
node 48 1 1 1
node 49 1 1 1
node 50 1 1 3
node 51 1 0 0
node 52 1 0 0
node 53 1 0 0
node 54 1 0 0
node 55 1 0 0
node 56 1 0 0
node 57 1 0 0
node 58 1 0 0
node 59 1 0 0
node 60 1 0 0
node 61 1 0 0
node 62 1 0 0
node 63 1 0 0
node 64 1 0 0
node 65 1 0 0
node 66 1 0 0
node 67 1 0 0
node 68 1 0 0
node 69 1 0 0
node 70 1 0 0
node 71 1 0 0
node 72 1 0 0
node 73 1 0 0
node 74 1 0 0
node 75 1 0 0
node 171 1 0 2
node 172 1 0 2
node 173 1 0 2
node 174 1 0 2
node 175 1 0 2
node 176 1 0 2
node 177 1 0 2
node 178 1 0 2
node 179 1 0 2
node 180 1 0 2
node 181 1 0 2
node 182 1 0 2
node 183 1 0 2
node 184 1 0 2
node 185 1 0 2
node 186 1 0 2
node 187 1 0 2
node 188 1 0 2
node 189 1 0 2
node 190 1 0 2
node 193 1 0 0
node 195 1 0 0
node 212 1 0 0
node 217 1 0 0
node 230 1 0 0
node 244 1 0 0
node 291 1 0 0
node 297 1 0 0
node 300 1 0 0
node 321 1 0 0
node 325 1 0 0
node 334 1 0 0
node 341 1 0 0
node 347 1 0 0
node 353 1 0 0
node 358 1 0 0
node 375 1 0 0
node 376 1 0 0
node 383 1 0 0
node 395 1 0 0
node 418 1 0 0
node 425 1 0 0
node 469 1 0 0
node 473 1 0 0
node 480 1 0 0
node 482 1 0 0
gene  1 28 51 -1.4019434531547899 0 9527.0 -1.4019434531547899 1
gene  1 33 51 10.404136038694256 0 9532.0 10.404136038694256 1
gene  1 36 51 0.805194965608951 0 9535.0 0.805194965608951 1
gene  1 40 51 2.4590773279414075 0 9539.0 2.4590773279414075 1
gene  1 42 51 7.517535568763852 0 9541.0 7.517535568763852 1
gene  1 54 51 4.298441415795679 1 9553.0 4.298441415795679 1
gene  1 57 51 2.054110384342157 1 9556.0 2.054110384342157 1
gene  1 68 51 -5.10795477491445 1 9567.0 -5.10795477491445 1
gene  1 174 51 -0.8531156141828766 1 9673.0 -0.8531156141828766 1
gene  1 183 51 -0.1773953697479086 1 9682.0 -0.1773953697479086 1
gene  1 184 51 -1.2005579320010586 1 9683.0 -1.2005579320010586 1
gene  1 189 51 1.5309518549988688 1 9688.0 1.5309518549988688 1
gene  1 3 52 -5.715968257723173 0 9692.0 -5.715968257723173 1
gene  1 6 52 0.8443624126908973 0 9695.0 0.8443624126908973 1
gene  1 24 52 10.680140169442245 0 9713.0 10.680140169442245 1
gene  1 29 52 1.6283019776815042 0 9718.0 1.6283019776815042 1
gene  1 31 52 -5.598245752787557 0 9720.0 -5.598245752787557 1
gene  1 35 52 -0.17225205152163792 0 9724.0 -0.17225205152163792 1
gene  1 63 52 2.985316200174505 1 9752.0 2.985316200174505 1
gene  1 179 52 -3.5043996298760156 1 9868.0 -3.5043996298760156 1
gene  1 183 52 -0.4943538295530647 1 9872.0 -0.4943538295530647 1
gene  1 184 52 -0.8436947023318644 1 9873.0 -0.8436947023318644 1
gene  1 185 52 -7.5248234739810815 1 9874.0 -7.5248234739810815 1
gene  1 5 53 -3.327407742125167 0 9884.0 -3.327407742125167 1
gene  1 6 53 17.86857733006563 0 9885.0 17.86857733006563 1
gene  1 10 53 1.1011492804989396 0 9889.0 1.1011492804989396 1
gene  1 33 53 6.171735439810581 0 9912.0 6.171735439810581 1
gene  1 35 53 -6.105354506733109 0 9914.0 -6.105354506733109 1
gene  1 38 53 3.0796094596393506 0 9917.0 3.0796094596393506 1
gene  1 45 53 -0.20578828525643122 0 9924.0 -0.20578828525643122 1
gene  1 71 53 0.7303814303317396 1 9950.0 0.7303814303317396 1
gene  1 16 54 -7.149605555101104 0 10085.0 -7.149605555101104 1
gene  1 19 54 -1.3513510251126943 0 10088.0 -1.3513510251126943 1
gene  1 36 54 1.0038647658688222 0 10105.0 1.0038647658688222 1
gene  1 42 54 -1.2979999969301317 0 10111.0 -1.2979999969301317 1
gene  1 58 54 7.754945054592028 1 10127.0 7.754945054592028 1
gene  1 62 54 -1.842939353527836 1 10131.0 -1.842939353527836 1
gene  1 73 54 9.039679123967261 1 10142.0 9.039679123967261 1
gene  1 177 54 1.8516571404630018 1 10246.0 1.8516571404630018 1
gene  1 180 54 -4.37380648103 1 10249.0 -4.37380648103 1
gene  1 190 54 -10.526607553876369 1 10259.0 -10.526607553876369 1
gene  1 20 55 -1.7253096031691622 0 10279.0 -1.7253096031691622 1
gene  1 31 55 4.289995972820331 0 10290.0 4.289995972820331 1
gene  1 35 55 1.1162544634285219 0 10294.0 1.1162544634285219 1
gene  1 41 55 4.305628866573031 0 10300.0 4.305628866573031 1
gene  1 47 55 7.358815506445739 0 10306.0 7.358815506445739 1
gene  1 52 55 -2.139163020474291 0 10311.0 -2.139163020474291 1
gene  1 69 55 0.7878215728580447 1 10328.0 0.7878215728580447 1
gene  1 75 55 0.2699495545329711 1 10334.0 0.2699495545329711 1
gene  1 187 55 6.2820808651734135 1 10446.0 6.2820808651734135 1
gene  1 7 56 2.18575316512551 0 10456.0 2.18575316512551 1
gene  1 11 56 -3.3302506603527493 0 10460.0 -3.3302506603527493 1
gene  1 13 56 0.007232414543184573 0 10462.0 0.007232414543184573 1
gene  1 36 56 -0.9296023877358142 0 10485.0 -0.9296023877358142 1
gene  1 41 56 -0.3618518226602163 0 10490.0 -0.3618518226602163 1
gene  1 44 56 5.090853863322832 0 10493.0 5.090853863322832 1
gene  1 46 56 -0.3773313228594506 0 10495.0 -0.3773313228594506 1
gene  1 49 56 2.2505795009154825 0 10498.0 2.2505795009154825 1
gene  1 68 56 12.13686530379773 1 10517.0 12.13686530379773 1
gene  1 179 56 0.015600831001247317 1 10628.0 0.015600831001247317 1
gene  1 183 56 11.936101206195264 1 10632.0 11.936101206195264 1
gene  1 3 57 3.040177224336651 0 10642.0 3.040177224336651 1
gene  1 19 57 5.197662279755059 0 10658.0 5.197662279755059 1
gene  1 22 57 1.6611434061012962 0 10661.0 1.6611434061012962 1
gene  1 28 57 3.7607643853811594 0 10667.0 3.7607643853811594 1
gene  1 30 57 4.033858594503467 0 10669.0 4.033858594503467 1
gene  1 35 57 0.6737103921446195 0 10674.0 0.6737103921446195 1
gene  1 47 57 -9.14211430733923 0 10686.0 -9.14211430733923 1
gene  1 59 57 -7.41455974086548 1 10698.0 -7.41455974086548 1
gene  1 60 57 11.154628832332179 1 10699.0 11.154628832332179 1
gene  1 187 57 0.5831937551662982 1 10826.0 0.5831937551662982 1
gene  1 5 58 2.895020875268656 0 10834.0 2.895020875268656 1
gene  1 14 58 -15.029102029799635 0 10843.0 -15.029102029799635 1
gene  1 15 58 35.222939262911886 0 10844.0 35.222939262911886 1
gene  1 24 58 14.452933328497899 0 10853.0 14.452933328497899 1
gene  1 32 58 -5.223154043987099 0 10861.0 -5.223154043987099 1
gene  1 43 58 3.2723722918840106 0 10872.0 3.2723722918840106 1
gene  1 49 58 -13.944554600389486 0 10878.0 -13.944554600389486 1
gene  1 53 58 -5.712954804390998 0 10882.0 -5.712954804390998 1
gene  1 62 58 14.841992992773664 1 10891.0 14.841992992773664 1
gene  1 64 58 0.7050427968619439 1 10893.0 0.7050427968619439 1
gene  1 69 58 -5.22776892487216 1 10898.0 -5.22776892487216 1
gene  1 182 58 -11.909055302771703 1 11011.0 -11.909055302771703 1
gene  1 1 59 -4.266466741741172 0 11020.0 -4.266466741741172 1
gene  1 4 59 -0.4966770689979119 0 11023.0 -0.4966770689979119 1
gene  1 27 59 -0.7347314172925762 0 11046.0 -0.7347314172925762 1
gene  1 34 59 -2.0895831149194684 0 11053.0 -2.0895831149194684 1
gene  1 37 59 23.077582909116956 0 11056.0 23.077582909116956 1
gene  1 44 59 6.11353885392694 0 11063.0 6.11353885392694 1
gene  1 59 59 9.177182340041348 1 11078.0 9.177182340041348 1
gene  1 73 59 -2.775843004710838 1 11092.0 -2.775843004710838 1
gene  1 75 59 0.7561464951228205 1 11094.0 0.7561464951228205 1
gene  1 183 59 -1.75144066620019 1 11202.0 -1.75144066620019 1
gene  1 185 59 5.493876442362639 1 11204.0 5.493876442362639 1
gene  1 8 60 -2.9092621317849554 0 11217.0 -2.9092621317849554 1
gene  1 10 60 2.94245296045021 0 11219.0 2.94245296045021 1
gene  1 40 60 -3.3906458220285445 0 11249.0 -3.3906458220285445 1
gene  1 45 60 -4.495694738762012 0 11254.0 -4.495694738762012 1
gene  1 61 60 2.164298846989837 1 11270.0 2.164298846989837 1
gene  1 72 60 -3.6560013274876675 1 11281.0 -3.6560013274876675 1
gene  1 177 60 5.583640891817429 1 11386.0 5.583640891817429 1
gene  1 179 60 1.1991461447636784 1 11388.0 1.1991461447636784 1
gene  1 187 60 3.2009997487259993 1 11396.0 3.2009997487259993 1
gene  1 7 61 -11.740303510960283 0 11406.0 -11.740303510960283 1
gene  1 15 61 1.654964907036107 0 11414.0 1.654964907036107 1
gene  1 22 61 -5.144906997366645 0 11421.0 -5.144906997366645 1
gene  1 28 61 -1.8240461628110007 0 11427.0 -1.8240461628110007 1
gene  1 36 61 -6.961316614968531 0 11435.0 -6.961316614968531 1
gene  1 53 61 -3.3086925571374683 0 11452.0 -3.3086925571374683 1
gene  1 54 61 -2.1458790201443865 0 11453.0 -2.1458790201443865 1
gene  1 67 61 -2.4321951085567752 1 11466.0 -2.4321951085567752 1
gene  1 177 61 5.389590562767535 1 11576.0 5.389590562767535 1
gene  1 184 61 -6.6311755471472615 1 11583.0 -6.6311755471472615 1
gene  1 6 62 -2.085843279726277 0 11595.0 -2.085843279726277 1
gene  1 11 62 13.382597909723577 0 11600.0 13.382597909723577 1
gene  1 15 62 4.898251907690874 0 11604.0 4.898251907690874 1
gene  1 26 62 -7.066991053753145 0 11615.0 -7.066991053753145 1
gene  1 53 62 -5.294628348176043 0 11642.0 -5.294628348176043 1
gene  1 68 62 -8.939891655124082 1 11657.0 -8.939891655124082 1
gene  1 72 62 4.450878486081667 1 11661.0 4.450878486081667 1
gene  1 174 62 3.230826345706519 1 11763.0 3.230826345706519 1
gene  1 175 62 -1.2042218686179575 1 11764.0 -1.2042218686179575 1
gene  1 184 62 -0.7092022905907363 1 11773.0 -0.7092022905907363 1
gene  1 185 62 6.98562554495267 1 11774.0 6.98562554495267 1
gene  1 188 62 2.164992668914123 1 11777.0 2.164992668914123 1
gene  1 31 63 0.6118893035679409 0 11810.0 0.6118893035679409 1
gene  1 32 63 1.1990951133216718 0 11811.0 1.1990951133216718 1
gene  1 37 63 2.9496306695693364 0 11816.0 2.9496306695693364 1
gene  1 38 63 4.352573929108438 0 11817.0 4.352573929108438 1
gene  1 42 63 5.7400090144998135 0 11821.0 5.7400090144998135 1
gene  1 46 63 18.17642752943062 0 11825.0 18.17642752943062 1
gene  1 48 63 15.124487943356007 0 11827.0 15.124487943356007 1
gene  1 50 63 2.440316075224096 0 11829.0 2.440316075224096 1
gene  1 60 63 -0.49445597242865263 0 11839.0 -0.49445597242865263 1
gene  1 63 63 -3.105167810660255 1 11842.0 -3.105167810660255 1
gene  1 72 63 -6.839591416999864 1 11851.0 -6.839591416999864 1
gene  1 74 63 -6.984184065898911 1 11853.0 -6.984184065898911 1
gene  1 178 63 -8.03879860285906 1 11957.0 -8.03879860285906 1
gene  1 180 63 0.7303800901528437 1 11959.0 0.7303800901528437 1
gene  1 181 63 -0.5817605586813834 1 11960.0 -0.5817605586813834 1
gene  1 8 64 2.0117753729677004 0 11977.0 2.0117753729677004 1
gene  1 11 64 4.574008312581921 0 11980.0 4.574008312581921 1
gene  1 20 64 -9.257145182551302 0 11989.0 -9.257145182551302 1
gene  1 27 64 -1.424340046804525 0 11996.0 -1.424340046804525 1
gene  1 41 64 -8.893116115218104 0 12010.0 -8.893116115218104 1
gene  1 44 64 -9.857955931183715 0 12013.0 -9.857955931183715 1
gene  1 49 64 -0.5984579234408185 0 12018.0 -0.5984579234408185 1
gene  1 50 64 4.249505808196861 0 12019.0 4.249505808196861 1
gene  1 53 64 4.256171780027574 0 12022.0 4.256171780027574 1
gene  1 59 64 3.377663925446428 0 12028.0 3.377663925446428 1
gene  1 70 64 2.8616094294851333 1 12039.0 2.8616094294851333 1
gene  1 176 64 2.871512252082991 1 12145.0 2.871512252082991 1
gene  1 179 64 1.4101069296197237 1 12148.0 1.4101069296197237 1
gene  1 183 64 7.671521767627496 1 12152.0 7.671521767627496 1
gene  1 184 64 -0.9120343167076403 1 12153.0 -0.9120343167076403 1
gene  1 185 64 0.29150198109313274 1 12154.0 0.29150198109313274 1
gene  1 8 65 1.9927465428174544 0 12167.0 1.9927465428174544 1
gene  1 13 65 11.616157314107854 0 12172.0 11.616157314107854 1
gene  1 18 65 2.1581784333701624 0 12177.0 2.1581784333701624 1
gene  1 39 65 -3.9868230761924752 0 12198.0 -3.9868230761924752 1
gene  1 53 65 -6.836457416503768 0 12212.0 -6.836457416503768 1
gene  1 69 65 -4.170971609670118 1 12228.0 -4.170971609670118 1
gene  1 70 65 7.2126708106229325 1 12229.0 7.2126708106229325 1
gene  1 175 65 -3.622510036671689 1 12334.0 -3.622510036671689 1
gene  1 176 65 0.39892677774480756 1 12335.0 0.39892677774480756 1
gene  1 177 65 -5.025566841172698 1 12336.0 -5.025566841172698 1
gene  1 185 65 -3.058703277781783 1 12344.0 -3.058703277781783 1
gene  1 1 66 0.44706056047099607 0 12350.0 0.44706056047099607 1
gene  1 4 66 0.4148077820417647 0 12353.0 0.4148077820417647 1
gene  1 18 66 3.5304581420034356 0 12367.0 3.5304581420034356 1
gene  1 21 66 -1.322477848287276 0 12370.0 -1.322477848287276 1
gene  1 43 66 -7.401802988198912 0 12392.0 -7.401802988198912 1
gene  1 47 66 -1.6175714535467434 0 12396.0 -1.6175714535467434 1
gene  1 50 66 4.481367401375822 0 12399.0 4.481367401375822 1
gene  1 60 66 4.162778278104669 0 12409.0 4.162778278104669 1
gene  1 62 66 4.904341599501683 0 12411.0 4.904341599501683 1
gene  1 66 66 5.019794845343925 1 12415.0 5.019794845343925 1
gene  1 184 66 -0.19242658396664641 1 12533.0 -0.19242658396664641 1
gene  1 8 67 6.745269839257324 0 12547.0 6.745269839257324 1
gene  1 38 67 7.19070510491641 0 12577.0 7.19070510491641 1
gene  1 46 67 -0.52505414066772 0 12585.0 -0.52505414066772 1
gene  1 49 67 -10.86553024470034 0 12588.0 -10.86553024470034 1
gene  1 57 67 3.611744989202685 0 12596.0 3.611744989202685 1
gene  1 61 67 -2.9268277584706337 0 12600.0 -2.9268277584706337 1
gene  1 72 67 -8.018238890779273 1 12611.0 -8.018238890779273 1
gene  1 177 67 -2.6353060507218773 1 12716.0 -2.6353060507218773 1
gene  1 182 67 -8.17716262190594 1 12721.0 -8.17716262190594 1
gene  1 185 67 -3.196324663017694 1 12724.0 -3.196324663017694 1
gene  1 189 67 2.8166214111133687 1 12728.0 2.8166214111133687 1
gene  1 5 68 -8.083197382498959 0 12734.0 -8.083197382498959 1
gene  1 16 68 -2.321589475582246 0 12745.0 -2.321589475582246 1
gene  1 40 68 -1.721468867221713 0 12769.0 -1.721468867221713 1
gene  1 41 68 5.146548751685506 0 12770.0 5.146548751685506 1
gene  1 42 68 1.5562469203763345 0 12771.0 1.5562469203763345 1
gene  1 71 68 -1.916006228428991 1 12800.0 -1.916006228428991 1
gene  1 185 68 2.126877895847933 1 12914.0 2.126877895847933 1
gene  1 6 69 -0.4936662371699816 0 12925.0 -0.4936662371699816 1
gene  1 16 69 0.1978470180062175 0 12935.0 0.1978470180062175 1
gene  1 19 69 -1.233523985864839 0 12938.0 -1.233523985864839 1
gene  1 44 69 -4.568540170968574 0 12963.0 -4.568540170968574 1
gene  1 45 69 0.3727883398980343 0 12964.0 0.3727883398980343 1
gene  1 65 69 -4.461132585117253 0 12984.0 -4.461132585117253 1
gene  1 171 69 9.421176143705958 1 13090.0 9.421176143705958 1
gene  1 3 70 -6.39421310811492 0 13112.0 -6.39421310811492 1
gene  1 39 70 0.30864534814277866 0 13148.0 0.30864534814277866 1
gene  1 60 70 10.693352124224347 0 13169.0 10.693352124224347 1
gene  1 171 70 2.922492678106993 1 13280.0 2.922492678106993 1
gene  1 181 70 2.516599055630791 1 13290.0 2.516599055630791 1
gene  1 183 70 1.0955708997700775 1 13292.0 1.0955708997700775 1
gene  1 11 71 -5.690807434412148 0 13310.0 -5.690807434412148 1
gene  1 15 71 1.4558042518352883 0 13314.0 1.4558042518352883 1
gene  1 30 71 -1.172147610712779 0 13329.0 -1.172147610712779 1
gene  1 33 71 -4.533368238915388 0 13332.0 -4.533368238915388 1
gene  1 34 71 6.612798975160835 0 13333.0 6.612798975160835 1
gene  1 48 71 -4.960021100008402 0 13347.0 -4.960021100008402 1
gene  1 50 71 -16.723735417776393 0 13349.0 -16.723735417776393 1
gene  1 51 71 1.0877245426749487 0 13350.0 1.0877245426749487 1
gene  1 57 71 -7.68307572832282 0 13356.0 -7.68307572832282 1
gene  1 73 71 2.1431162227050096 1 13372.0 2.1431162227050096 1
gene  1 185 71 2.7119732976258373 1 13484.0 2.7119732976258373 1
gene  1 24 72 -1.7689862909932699 0 13513.0 -1.7689862909932699 1
gene  1 51 72 -1.187323773273755 0 13540.0 -1.187323773273755 1
gene  1 54 72 6.063600853777784 0 13543.0 6.063600853777784 1
gene  1 60 72 3.304730465266203 0 13549.0 3.304730465266203 1
gene  1 3 73 -3.5855666829600237 0 13682.0 -3.5855666829600237 1
gene  1 18 73 -3.719302442870955 0 13697.0 -3.719302442870955 1
gene  1 30 73 -2.1160287512805778 0 13709.0 -2.1160287512805778 1
gene  1 41 73 -2.0955246925505486 0 13720.0 -2.0955246925505486 1
gene  1 54 73 4.101943702079371 0 13733.0 4.101943702079371 1
gene  1 59 73 -4.100481429617495 0 13738.0 -4.100481429617495 1
gene  1 60 73 2.069957192874046 0 13739.0 2.069957192874046 1
gene  1 179 73 5.211040834627608 1 13858.0 5.211040834627608 1
gene  1 189 73 -4.576523788544304 1 13868.0 -4.576523788544304 1
gene  1 31 74 -2.394358519721799 0 13900.0 -2.394358519721799 1
gene  1 38 74 -5.2488632542424405 0 13907.0 -5.2488632542424405 1
gene  1 67 74 -1.155306049369734 0 13936.0 -1.155306049369734 1
gene  1 74 74 -10.810859205576826 1 13943.0 -10.810859205576826 1
gene  1 188 74 -4.111775018026362 1 14057.0 -4.111775018026362 1
gene  1 2 75 0.15106744728693722 0 14061.0 0.15106744728693722 1
gene  1 10 75 -8.016917700256085 0 14069.0 -8.016917700256085 1
gene  1 12 75 -4.681752158251777 0 14071.0 -4.681752158251777 1
gene  1 15 75 -1.284296844051286 0 14074.0 -1.284296844051286 1
gene  1 18 75 0.777086914274965 0 14077.0 0.777086914274965 1
gene  1 43 75 -10.025277980522763 0 14102.0 -10.025277980522763 1
gene  1 46 75 2.926991840514503 0 14105.0 2.926991840514503 1
gene  1 56 75 -0.9845526578898434 0 14115.0 -0.9845526578898434 1
gene  1 57 75 9.315749587319248 0 14116.0 9.315749587319248 1
gene  1 177 75 -3.476048063361022 1 14236.0 -3.476048063361022 1
gene  1 183 75 3.1189604072124206 1 14242.0 3.1189604072124206 1
gene  1 3 171 0.9608923854296608 0 32302.0 0.9608923854296608 1
gene  1 10 171 4.936827431589392 0 32309.0 4.936827431589392 1
gene  1 18 171 10.041494033470524 0 32317.0 10.041494033470524 1
gene  1 35 171 6.1280513354157105 0 32334.0 6.1280513354157105 1
gene  1 47 171 6.600272559204077 0 32346.0 6.600272559204077 1
gene  1 48 171 5.667879117137274 0 32347.0 5.667879117137274 1
gene  1 63 171 6.265317209751812 0 32362.0 6.265317209751812 1
gene  1 74 171 -1.9248893705182228 0 32373.0 -1.9248893705182228 1
gene  1 171 171 -14.440310510982563 1 32470.0 -14.440310510982563 1
gene  1 180 171 9.868243915169332 1 32479.0 9.868243915169332 1
gene  1 181 171 3.3602051004468696 1 32480.0 3.3602051004468696 1
gene  1 16 172 -8.694177881730447 0 32505.0 -8.694177881730447 1
gene  1 38 172 7.065666509491297 0 32527.0 7.065666509491297 1
gene  1 58 172 0.4548292939413717 0 32547.0 0.4548292939413717 1
gene  1 59 172 0.46785501485119063 0 32548.0 0.46785501485119063 1
gene  1 60 172 11.87261454756423 0 32549.0 11.87261454756423 1
gene  1 73 172 -18.51552619045933 0 32562.0 -18.51552619045933 1
gene  1 171 172 1.3185987007490652 0 32660.0 1.3185987007490652 1
gene  1 173 172 -1.6453670153500628 1 32662.0 -1.6453670153500628 1
gene  1 7 173 2.8128444859419863 0 32686.0 2.8128444859419863 1
gene  1 29 173 2.148482316048105 0 32708.0 2.148482316048105 1
gene  1 30 173 -1.7284700815237983 0 32709.0 -1.7284700815237983 1
gene  1 38 173 1.6641729097628746 0 32717.0 1.6641729097628746 1
gene  1 56 173 -1.8082744111142102 0 32735.0 -1.8082744111142102 1
gene  1 68 173 3.75649046311814 0 32747.0 3.75649046311814 1
gene  1 72 173 5.223517479184471 0 32751.0 5.223517479184471 1
gene  1 75 173 -4.966595201732407 0 32754.0 -4.966595201732407 1
gene  1 180 173 7.589164749469988 1 32859.0 7.589164749469988 1
gene  1 45 174 -8.86212623372982 0 32914.0 -8.86212623372982 1
gene  1 174 174 -3.931552068254056 1 33043.0 -3.931552068254056 1
gene  1 180 174 2.347793729315261 1 33049.0 2.347793729315261 1
gene  1 186 174 1.8006755210936163 1 33055.0 1.8006755210936163 1
gene  1 2 175 22.20399580462079 0 33061.0 22.20399580462079 1
gene  1 11 175 -2.41287230487078 0 33070.0 -2.41287230487078 1
gene  1 26 175 -6.876839164496103 0 33085.0 -6.876839164496103 1
gene  1 37 175 -0.9820692680631415 0 33096.0 -0.9820692680631415 1
gene  1 43 175 3.0814717955898385 0 33102.0 3.0814717955898385 1
gene  1 48 175 6.639802504196171 0 33107.0 6.639802504196171 1
gene  1 51 175 -8.524847973005858 0 33110.0 -8.524847973005858 1
gene  1 64 175 -3.911555082077429 0 33123.0 -3.911555082077429 1
gene  1 70 175 -2.2111770450256567 0 33129.0 -2.2111770450256567 1
gene  1 71 175 -3.7339681498013575 0 33130.0 -3.7339681498013575 1
gene  1 177 175 7.736550439063042 1 33236.0 7.736550439063042 1
gene  1 178 175 15.237697489126214 1 33237.0 15.237697489126214 1
gene  1 181 175 -0.6072309634251924 1 33240.0 -0.6072309634251924 1
gene  1 184 175 -1.5531783536909622 1 33243.0 -1.5531783536909622 1
gene  1 186 175 -2.83153539542466 1 33245.0 -2.83153539542466 1
gene  1 2 176 1.7375365735174506 0 33251.0 1.7375365735174506 1
gene  1 8 176 4.8082480783556525 0 33257.0 4.8082480783556525 1
gene  1 9 176 3.0814203787360266 0 33258.0 3.0814203787360266 1
gene  1 12 176 1.0501307897539813 0 33261.0 1.0501307897539813 1
gene  1 15 176 6.81363827381611 0 33264.0 6.81363827381611 1
gene  1 16 176 -0.07983195391390002 0 33265.0 -0.07983195391390002 1
gene  1 35 176 -0.6489104686658114 0 33284.0 -0.6489104686658114 1
gene  1 37 176 -9.855985102510786 0 33286.0 -9.855985102510786 1
gene  1 46 176 12.238631696859212 0 33295.0 12.238631696859212 1
gene  1 62 176 0.49403006759143175 0 33311.0 0.49403006759143175 1
gene  1 64 176 -0.3055446313549648 0 33313.0 -0.3055446313549648 1
gene  1 171 176 1.160598250302355 0 33420.0 1.160598250302355 1
gene  1 174 176 9.059917239559129 0 33423.0 9.059917239559129 1
gene  1 179 176 8.50417020130047 1 33428.0 8.50417020130047 1
gene  1 1 177 -4.465934048073462 0 33440.0 -4.465934048073462 1
gene  1 7 177 -0.6954238314922812 0 33446.0 -0.6954238314922812 1
