/* Species # 001         : (size= 017) (AvfFit= 1429,989) (Age= 10,000)  */
/*-------------------------------------------------------------------*/
/* Organism # 000 Fitness:  1573,942 Error:  1000,000                      */
genomestart  0
trait 1 0.11021815520324857 0.0 0.0 0.0 0.0 0.0 0.0 0.17449252573720908 
node 1 1 1 1
node 2 1 1 1
node 3 1 1 1
node 4 1 1 1
node 5 1 1 1
node 6 1 1 1
node 7 1 1 1
node 8 1 1 1
node 9 1 1 1
node 10 1 1 1
node 11 1 1 1
node 12 1 1 1
node 13 1 1 1
node 14 1 1 1
node 15 1 1 1
node 16 1 1 1
node 17 1 1 1
node 18 1 1 1
node 19 1 1 1
node 20 1 1 1
node 21 1 1 1
node 22 1 1 1
node 23 1 1 1
node 24 1 1 1
node 25 1 1 1
node 26 1 1 1
node 27 1 1 1
node 28 1 1 1
node 29 1 1 1
node 30 1 1 1
node 31 1 1 1
node 32 1 1 1
node 33 1 1 1
node 34 1 1 1
node 35 1 1 1
node 36 1 1 1
node 37 1 1 1
node 38 1 1 1
node 39 1 1 1
node 40 1 1 1
node 41 1 1 1
node 42 1 1 1
node 43 1 1 1
node 44 1 1 1
node 45 1 1 1
node 46 1 1 1
node 47 1 1 1
node 48 1 1 1
node 49 1 1 1
node 50 1 1 3
node 51 1 0 0
node 52 1 0 0
node 53 1 0 0
node 54 1 0 0
node 55 1 0 0
node 56 1 0 0
node 57 1 0 0
node 58 1 0 0
node 59 1 0 0
node 60 1 0 0
node 61 1 0 0
node 62 1 0 0
node 63 1 0 0
node 64 1 0 0
node 65 1 0 0
node 66 1 0 0
node 67 1 0 0
node 68 1 0 0
node 69 1 0 0
node 70 1 0 0
node 71 1 0 0
node 72 1 0 0
node 73 1 0 0
node 74 1 0 0
node 75 1 0 0
node 171 1 0 2
node 172 1 0 2
node 173 1 0 2
node 174 1 0 2
node 175 1 0 2
node 176 1 0 2
node 177 1 0 2
node 178 1 0 2
node 179 1 0 2
node 180 1 0 2
node 181 1 0 2
node 182 1 0 2
node 183 1 0 2
node 184 1 0 2
node 185 1 0 2
node 186 1 0 2
node 187 1 0 2
node 188 1 0 2
node 189 1 0 2
node 190 1 0 2
node 193 1 0 0
gene  1 28 51 1.0491306691590632 0 9527.0 1.0491306691590632 1
gene  1 33 51 -1.5957983648574159 0 9532.0 -1.5957983648574159 1
gene  1 36 51 0.8084664175012752 0 9535.0 0.8084664175012752 1
gene  1 40 51 -0.8342184636561439 0 9539.0 -0.8342184636561439 1
gene  1 42 51 0.821811192410443 0 9541.0 0.821811192410443 1
gene  1 54 51 -0.5787094031520037 1 9553.0 -0.5787094031520037 1
gene  1 57 51 -0.9249894598650596 1 9556.0 -0.9249894598650596 1
gene  1 68 51 -0.6501653456464551 1 9567.0 -0.6501653456464551 1
gene  1 174 51 -1.2667755884191503 1 9673.0 -1.2667755884191503 1
gene  1 183 51 0.2646730576088452 1 9682.0 0.2646730576088452 1
gene  1 184 51 -0.18291554604275295 1 9683.0 -0.18291554604275295 1
gene  1 189 51 0.1707125868817887 1 9688.0 0.1707125868817887 1
gene  1 3 52 0.5944152481358955 0 9692.0 0.5944152481358955 1
gene  1 6 52 1.1425269988554283 0 9695.0 1.1425269988554283 1
gene  1 24 52 2.944177662641077 0 9713.0 2.944177662641077 1
gene  1 29 52 -2.6146886321347362 0 9718.0 -2.6146886321347362 1
gene  1 31 52 2.05258001646922 0 9720.0 2.05258001646922 1
gene  1 35 52 -1.709210678035993 0 9724.0 -1.709210678035993 1
gene  1 63 52 -0.07452335277626698 1 9752.0 -0.07452335277626698 1
gene  1 179 52 -3.2029983377526516 1 9868.0 -3.2029983377526516 1
gene  1 183 52 0.3134818515443819 1 9872.0 0.3134818515443819 1
gene  1 184 52 -1.4083477875238528 1 9873.0 -1.4083477875238528 1
gene  1 185 52 3.0336093640219675 1 9874.0 3.0336093640219675 1
gene  1 5 53 1.086400089658688 0 9884.0 1.086400089658688 1
gene  1 6 53 0.6004159813585259 0 9885.0 0.6004159813585259 1
gene  1 10 53 2.0586016748069156 0 9889.0 2.0586016748069156 1
gene  1 33 53 -1.092281540612561 0 9912.0 -1.092281540612561 1
gene  1 35 53 -0.6211029301397425 0 9914.0 -0.6211029301397425 1
gene  1 38 53 -1.1293740025856567 0 9917.0 -1.1293740025856567 1
gene  1 45 53 -0.6661278019034723 0 9924.0 -0.6661278019034723 1
gene  1 71 53 1.5902118584316218 1 9950.0 1.5902118584316218 1
gene  1 16 54 0.758517337017379 0 10085.0 0.758517337017379 1
gene  1 19 54 -0.44484883488315863 0 10088.0 -0.44484883488315863 1
gene  1 36 54 -0.21796838035061178 0 10105.0 -0.21796838035061178 1
gene  1 42 54 -1.67192961838289 0 10111.0 -1.67192961838289 1
gene  1 58 54 1.3965846223439167 1 10127.0 1.3965846223439167 1
gene  1 62 54 -1.0160394869459681 1 10131.0 -1.0160394869459681 1
gene  1 73 54 -0.7927305435653793 1 10142.0 -0.7927305435653793 1
gene  1 177 54 0.5902955648187405 1 10246.0 0.5902955648187405 1
gene  1 180 54 0.1276914350885594 1 10249.0 0.1276914350885594 1
gene  1 190 54 -1.6446926102954256 1 10259.0 -1.6446926102954256 1
gene  1 20 55 -2.1497385026637486 0 10279.0 -2.1497385026637486 1
gene  1 31 55 -0.1719800172551682 0 10290.0 -0.1719800172551682 1
gene  1 35 55 -2.652054350395082 0 10294.0 -2.652054350395082 1
gene  1 41 55 -0.935547854229099 0 10300.0 -0.935547854229099 1
gene  1 47 55 0.24849714104694165 0 10306.0 0.24849714104694165 1
gene  1 52 55 -1.676987975286337 0 10311.0 -1.676987975286337 1
gene  1 69 55 -0.08741333176292776 1 10328.0 -0.08741333176292776 1
gene  1 75 55 1.693422689960185 1 10334.0 1.693422689960185 1
gene  1 187 55 -0.6818922434485657 1 10446.0 -0.6818922434485657 1
gene  1 7 56 0.38441567757571915 0 10456.0 0.38441567757571915 1
gene  1 11 56 -1.615176335742479 0 10460.0 -1.615176335742479 1
gene  1 13 56 0.7004887270033631 0 10462.0 0.7004887270033631 1
gene  1 36 56 0.8316037499342577 0 10485.0 0.8316037499342577 1
gene  1 41 56 1.4153350280109271 0 10490.0 1.4153350280109271 1
gene  1 44 56 -1.0303735393454594 0 10493.0 -1.0303735393454594 1
gene  1 46 56 -2.267226644081802 0 10495.0 -2.267226644081802 1
gene  1 49 56 1.664149025639385 0 10498.0 1.664149025639385 1
gene  1 68 56 -1.0191583703356912 1 10517.0 -1.0191583703356912 1
gene  1 179 56 0.8569257301191668 1 10628.0 0.8569257301191668 1
gene  1 183 56 -0.1122786896140825 1 10632.0 -0.1122786896140825 1
gene  1 3 57 2.3830893824315957 0 10642.0 2.3830893824315957 1
gene  1 19 57 -2.421472020398803 0 10658.0 -2.421472020398803 1
gene  1 22 57 0.43483555588284817 0 10661.0 0.43483555588284817 1
gene  1 28 57 -3.603855253968731 0 10667.0 -3.603855253968731 1
gene  1 30 57 0.29711388529641813 0 10669.0 0.29711388529641813 1
gene  1 35 57 1.890531149229838 0 10674.0 1.890531149229838 1
gene  1 47 57 0.7408321520457595 0 10686.0 0.7408321520457595 1
gene  1 59 57 -2.333168781345888 1 10698.0 -2.333168781345888 1
gene  1 60 57 1.0648866260681076 1 10699.0 1.0648866260681076 1
gene  1 187 57 -0.11253348272826225 1 10826.0 -0.11253348272826225 1
gene  1 5 58 1.601820341580326 0 10834.0 1.601820341580326 1
gene  1 14 58 1.479001984031841 0 10843.0 1.479001984031841 1
gene  1 15 58 -0.9893097962700073 0 10844.0 -0.9893097962700073 1
gene  1 24 58 1.5824148108947709 0 10853.0 1.5824148108947709 1
gene  1 32 58 -0.21211115102961364 0 10861.0 -0.21211115102961364 1
gene  1 43 58 -1.3416090155785616 0 10872.0 -1.3416090155785616 1
gene  1 49 58 0.6949404139038978 0 10878.0 0.6949404139038978 1
gene  1 53 58 -1.523189103438418 0 10882.0 -1.523189103438418 1
gene  1 62 58 -2.2220876198952055 1 10891.0 -2.2220876198952055 1
gene  1 64 58 0.5911496196756185 1 10893.0 0.5911496196756185 1
gene  1 69 58 -2.715652908470627 1 10898.0 -2.715652908470627 1
gene  1 182 58 -2.8853819320953025 1 11011.0 -2.8853819320953025 1
gene  1 1 59 -1.2317076466342431 0 11020.0 -1.2317076466342431 1
gene  1 4 59 0.4398759803887877 0 11023.0 0.4398759803887877 1
gene  1 27 59 0.03672092556407436 0 11046.0 0.03672092556407436 1
gene  1 34 59 2.399536087182676 0 11053.0 2.399536087182676 1
gene  1 37 59 0.3455198864767123 0 11056.0 0.3455198864767123 1
gene  1 44 59 2.7967080005987093 0 11063.0 2.7967080005987093 1
gene  1 59 59 -0.3636441583867735 1 11078.0 -0.3636441583867735 1
gene  1 73 59 -2.9742889921328715 1 11092.0 -2.9742889921328715 1
gene  1 75 59 -2.349156018569335 1 11094.0 -2.349156018569335 1
gene  1 183 59 -2.2717384148816313 1 11202.0 -2.2717384148816313 1
gene  1 185 59 0.9406902463990984 1 11204.0 0.9406902463990984 1
gene  1 8 60 -1.0923683904003219 0 11217.0 -1.0923683904003219 1
gene  1 10 60 -1.1817381064839505 0 11219.0 -1.1817381064839505 1
gene  1 40 60 0.9243077627522998 0 11249.0 0.9243077627522998 1
gene  1 45 60 1.3323420631370446 0 11254.0 1.3323420631370446 1
gene  1 61 60 -0.7371386390430381 1 11270.0 -0.7371386390430381 1
gene  1 72 60 -1.2800358740519457 1 11281.0 -1.2800358740519457 1
gene  1 177 60 1.7664379974386675 1 11386.0 1.7664379974386675 1
gene  1 179 60 -2.1656352544119075 1 11388.0 -2.1656352544119075 1
gene  1 187 60 -0.31225293741330207 1 11396.0 -0.31225293741330207 1
gene  1 7 61 0.48759637185747895 0 11406.0 0.48759637185747895 1
gene  1 15 61 -1.6387900683349668 0 11414.0 -1.6387900683349668 1
gene  1 22 61 0.4502670077032598 0 11421.0 0.4502670077032598 1
gene  1 28 61 1.4746352622248786 0 11427.0 1.4746352622248786 1
gene  1 36 61 -0.21091279548131714 0 11435.0 -0.21091279548131714 1
gene  1 53 61 1.6957818788044237 0 11452.0 1.6957818788044237 1
gene  1 54 61 0.5950529177955842 0 11453.0 0.5950529177955842 1
gene  1 67 61 0.5828876026875454 1 11466.0 0.5828876026875454 1
gene  1 177 61 2.778519268333813 1 11576.0 2.778519268333813 1
gene  1 184 61 0.48737455078158654 1 11583.0 0.48737455078158654 1
gene  1 6 62 -0.1517406679714478 0 11595.0 -0.1517406679714478 1
gene  1 11 62 0.8025471188445275 0 11600.0 0.8025471188445275 1
gene  1 15 62 -0.30899945015071817 0 11604.0 -0.30899945015071817 1
gene  1 26 62 -5.234068451494829 0 11615.0 -5.234068451494829 1
gene  1 53 62 1.3194862805319145 0 11642.0 1.3194862805319145 1
gene  1 68 62 0.27972341628933667 1 11657.0 0.27972341628933667 1
gene  1 72 62 1.6574718494049947 1 11661.0 1.6574718494049947 1
gene  1 174 62 0.2554025808585296 1 11763.0 0.2554025808585296 1
gene  1 175 62 -0.5793559482919639 1 11764.0 -0.5793559482919639 1
gene  1 184 62 -0.497933030049464 1 11773.0 -0.497933030049464 1
gene  1 185 62 -2.143001666521617 1 11774.0 -2.143001666521617 1
gene  1 188 62 -2.1337296935157237 1 11777.0 -2.1337296935157237 1
gene  1 31 63 0.1791940424347911 0 11810.0 0.1791940424347911 1
gene  1 32 63 1.6348417285969568 0 11811.0 1.6348417285969568 1
gene  1 37 63 1.3405892536579702 0 11816.0 1.3405892536579702 1
gene  1 38 63 -0.7961203584195282 0 11817.0 -0.7961203584195282 1
gene  1 42 63 0.06357226074033284 0 11821.0 0.06357226074033284 1
gene  1 46 63 1.3849949175224794 0 11825.0 1.3849949175224794 1
gene  1 48 63 0.6701017439601684 0 11827.0 0.6701017439601684 1
gene  1 50 63 1.0572285516753208 0 11829.0 1.0572285516753208 1
gene  1 60 63 -1.650613348063131 0 11839.0 -1.650613348063131 1
gene  1 63 63 -0.650939700562412 1 11842.0 -0.650939700562412 1
gene  1 72 63 -1.263216974399942 1 11851.0 -1.263216974399942 1
gene  1 74 63 2.795100561893189 1 11853.0 2.795100561893189 1
gene  1 178 63 -1.6056152968320307 1 11957.0 -1.6056152968320307 1
gene  1 180 63 0.15437709071688732 1 11959.0 0.15437709071688732 1
gene  1 181 63 0.6469652840460536 1 11960.0 0.6469652840460536 1
gene  1 8 64 1.446277970736353 0 11977.0 1.446277970736353 1
gene  1 11 64 -0.7824405435067456 0 11980.0 -0.7824405435067456 1
gene  1 20 64 -1.2927491582409707 0 11989.0 -1.2927491582409707 1
gene  1 27 64 1.1732459039737788 0 11996.0 1.1732459039737788 1
gene  1 41 64 0.45960739632774716 0 12010.0 0.45960739632774716 1
gene  1 44 64 1.4648703611023404 0 12013.0 1.4648703611023404 1
gene  1 49 64 0.010566880401749523 0 12018.0 0.010566880401749523 1
gene  1 50 64 1.545433706310309 0 12019.0 1.545433706310309 1
gene  1 53 64 -0.6427701120936391 0 12022.0 -0.6427701120936391 1
gene  1 59 64 0.856429828758145 0 12028.0 0.856429828758145 1
gene  1 70 64 -0.7932116706689002 1 12039.0 -0.7932116706689002 1
gene  1 176 64 0.9628531591856032 1 12145.0 0.9628531591856032 1
gene  1 179 64 1.9435781316410448 1 12148.0 1.9435781316410448 1
gene  1 183 64 -0.04196604377441904 1 12152.0 -0.04196604377441904 1
gene  1 184 64 -2.1802274095135274 1 12153.0 -2.1802274095135274 1
gene  1 185 64 -0.30828138177728087 1 12154.0 -0.30828138177728087 1
gene  1 8 65 1.3890780267249419 0 12167.0 1.3890780267249419 1
gene  1 13 65 1.6540109689549203 0 12172.0 1.6540109689549203 1
gene  1 18 65 1.2886159239140667 0 12177.0 1.2886159239140667 1
gene  1 39 65 -1.9687785601893584 0 12198.0 -1.9687785601893584 1
gene  1 53 65 1.6489398480539836 0 12212.0 1.6489398480539836 1
gene  1 69 65 0.30346244360776237 1 12228.0 0.30346244360776237 1
gene  1 70 65 -0.5657710050338896 1 12229.0 -0.5657710050338896 1
gene  1 175 65 0.44119909118433953 1 12334.0 0.44119909118433953 1
gene  1 176 65 2.01368880135093 1 12335.0 2.01368880135093 1
gene  1 177 65 1.9216391684062106 1 12336.0 1.9216391684062106 1
gene  1 185 65 1.6682703471395481 1 12344.0 1.6682703471395481 1
gene  1 1 66 2.0254148231247724 0 12350.0 2.0254148231247724 1
gene  1 4 66 -0.8378094310152477 0 12353.0 -0.8378094310152477 1
gene  1 18 66 3.5845607909578083 0 12367.0 3.5845607909578083 1
gene  1 21 66 1.8442189781994123 0 12370.0 1.8442189781994123 1
gene  1 43 66 -2.287533575869727 0 12392.0 -2.287533575869727 1
gene  1 47 66 -1.0111999146420305 0 12396.0 -1.0111999146420305 1
gene  1 50 66 -0.7514826470649651 0 12399.0 -0.7514826470649651 1
gene  1 60 66 0.05598242618793048 0 12409.0 0.05598242618793048 1
gene  1 62 66 0.38408391640517303 0 12411.0 0.38408391640517303 1
gene  1 66 66 1.5328558361344382 1 12415.0 1.5328558361344382 1
gene  1 184 66 -0.09968764447382439 1 12533.0 -0.09968764447382439 1
gene  1 8 67 0.9051677765812804 0 12547.0 0.9051677765812804 1
gene  1 38 67 -0.27886627327543023 0 12577.0 -0.27886627327543023 1
gene  1 46 67 -1.8247567366537096 0 12585.0 -1.8247567366537096 1
gene  1 49 67 -1.1156239437664668 0 12588.0 -1.1156239437664668 1
gene  1 57 67 -0.014140626020023084 0 12596.0 -0.014140626020023084 1
gene  1 61 67 0.4844552913850852 0 12600.0 0.4844552913850852 1
gene  1 72 67 3.6147254378470044 1 12611.0 3.6147254378470044 1
gene  1 177 67 1.4111585694870674 1 12716.0 1.4111585694870674 1
gene  1 182 67 1.916796394946192 1 12721.0 1.916796394946192 1
gene  1 185 67 -1.569136687083232 1 12724.0 -1.569136687083232 1
gene  1 189 67 -0.2689929449203599 1 12728.0 -0.2689929449203599 1
gene  1 5 68 4.064221317338146 0 12734.0 4.064221317338146 1
gene  1 16 68 -2.4358214553364506 0 12745.0 -2.4358214553364506 1
gene  1 40 68 -3.64410005731232 0 12769.0 -3.64410005731232 1
gene  1 41 68 -3.8593473820763275 0 12770.0 -3.8593473820763275 1
gene  1 42 68 2.1341203240622404 0 12771.0 2.1341203240622404 1
gene  1 71 68 -1.8732790723646975 1 12800.0 -1.8732790723646975 1
gene  1 185 68 1.3326131402351153 1 12914.0 1.3326131402351153 1
gene  1 6 69 4.2613360343785835 0 12925.0 4.2613360343785835 1
gene  1 16 69 -2.176393693728441 0 12935.0 -2.176393693728441 1
gene  1 19 69 -2.123775115541091 0 12938.0 -2.123775115541091 1
gene  1 44 69 -1.9540503914618677 0 12963.0 -1.9540503914618677 1
gene  1 45 69 0.5845954966486218 0 12964.0 0.5845954966486218 1
gene  1 65 69 -0.8011289920204645 0 12984.0 -0.8011289920204645 1
gene  1 171 69 0.8079920726709399 1 13090.0 0.8079920726709399 1
gene  1 3 70 -1.298516639423129 0 13112.0 -1.298516639423129 1
gene  1 39 70 -0.18380957734466186 0 13148.0 -0.18380957734466186 1
gene  1 60 70 -2.1097166069218227 0 13169.0 -2.1097166069218227 1
gene  1 171 70 -1.4434849684095916 1 13280.0 -1.4434849684095916 1
gene  1 181 70 -1.7744428501157241 1 13290.0 -1.7744428501157241 1
gene  1 183 70 -1.4632078095597323 1 13292.0 -1.4632078095597323 1
gene  1 11 71 0.008858250777723509 0 13310.0 0.008858250777723509 1
gene  1 15 71 2.4711176784734445 0 13314.0 2.4711176784734445 1
gene  1 30 71 1.2590505151450027 0 13329.0 1.2590505151450027 1
gene  1 33 71 -0.16314869253796066 0 13332.0 -0.16314869253796066 1
gene  1 34 71 0.5540390412327876 0 13333.0 0.5540390412327876 1
gene  1 48 71 -2.247330981464246 0 13347.0 -2.247330981464246 1
gene  1 50 71 -0.28761711890770325 0 13349.0 -0.28761711890770325 1
gene  1 51 71 -0.8259828848736411 0 13350.0 -0.8259828848736411 1
gene  1 57 71 -2.8969297772133706 0 13356.0 -2.8969297772133706 1
gene  1 73 71 0.2753541253416316 1 13372.0 0.2753541253416316 1
gene  1 185 71 -0.1646391691611817 1 13484.0 -0.1646391691611817 1
gene  1 24 72 -2.4150789577526326 0 13513.0 -2.4150789577526326 1
gene  1 51 72 0.08385600271635263 0 13540.0 0.08385600271635263 1
gene  1 54 72 3.349277489211865 0 13543.0 3.349277489211865 1
gene  1 60 72 -0.10536817024470696 0 13549.0 -0.10536817024470696 1
gene  1 3 73 -0.08036387662439837 0 13682.0 -0.08036387662439837 1
gene  1 18 73 -1.3677800545306587 0 13697.0 -1.3677800545306587 1
gene  1 30 73 3.392297025814076 0 13709.0 3.392297025814076 1
gene  1 41 73 4.021951706799449 0 13720.0 4.021951706799449 1
gene  1 54 73 0.034159205469016685 0 13733.0 0.034159205469016685 1
gene  1 59 73 1.7595172262226513 0 13738.0 1.7595172262226513 1
gene  1 60 73 -1.562680712856213 0 13739.0 -1.562680712856213 1
gene  1 179 73 0.7496822787735102 1 13858.0 0.7496822787735102 1
gene  1 189 73 2.034094300064185 1 13868.0 2.034094300064185 1
gene  1 31 74 0.9724878232097014 0 13900.0 0.9724878232097014 1
gene  1 38 74 1.9340448836425441 0 13907.0 1.9340448836425441 1
gene  1 67 74 1.9447290344499575 0 13936.0 1.9447290344499575 1
gene  1 74 74 -0.7974024604001677 1 13943.0 -0.7974024604001677 1
gene  1 188 74 0.3991136002998143 1 14057.0 0.3991136002998143 1
gene  1 2 75 -0.07840727692031069 0 14061.0 -0.07840727692031069 1
gene  1 10 75 -0.5982628613275847 0 14069.0 -0.5982628613275847 1
gene  1 12 75 -0.7269651220300176 0 14071.0 -0.7269651220300176 1
gene  1 15 75 -0.09527577867366183 0 14074.0 -0.09527577867366183 1
gene  1 18 75 -1.0161246096673433 0 14077.0 -1.0161246096673433 1
gene  1 43 75 -1.696778349221621 0 14102.0 -1.696778349221621 1
gene  1 46 75 1.4067382066879501 0 14105.0 1.4067382066879501 1
gene  1 56 75 -5.405482320096794 0 14115.0 -5.405482320096794 1
gene  1 57 75 1.3436032559138924 0 14116.0 1.3436032559138924 1
gene  1 177 75 -1.4409304681878603 1 14236.0 -1.4409304681878603 1
gene  1 183 75 -0.759615255306535 1 14242.0 -0.759615255306535 1
gene  1 3 171 -0.013629256583893412 0 32302.0 -0.013629256583893412 1
gene  1 10 171 0.13979508105462546 0 32309.0 0.13979508105462546 1
gene  1 18 171 0.648646506879762 0 32317.0 0.648646506879762 1
gene  1 35 171 -1.7547053185732069 0 32334.0 -1.7547053185732069 1
gene  1 47 171 -1.687829084988476 0 32346.0 -1.687829084988476 1
gene  1 48 171 0.7144469699344447 0 32347.0 0.7144469699344447 1
gene  1 63 171 4.125008367736411 0 32362.0 4.125008367736411 1
gene  1 74 171 1.7774553868571683 0 32373.0 1.7774553868571683 1
gene  1 171 171 2.6278703940209773 1 32470.0 2.6278703940209773 1
gene  1 180 171 0.47775561879846407 1 32479.0 0.47775561879846407 1
gene  1 181 171 0.5012040938105844 1 32480.0 0.5012040938105844 1
gene  1 16 172 0.1637241617270649 0 32505.0 0.1637241617270649 1
gene  1 38 172 -4.791960700670888 0 32527.0 -4.791960700670888 1
gene  1 58 172 -0.9158324080442174 0 32547.0 -0.9158324080442174 1
gene  1 59 172 -2.5473194794054157 0 32548.0 -2.5473194794054157 1
gene  1 60 172 -1.259890867490521 0 32549.0 -1.259890867490521 1
gene  1 73 172 0.03174851966852965 0 32562.0 0.03174851966852965 1
gene  1 171 172 0.7641580120968476 0 32660.0 0.7641580120968476 1
gene  1 173 172 0.4179207659124762 1 32662.0 0.4179207659124762 1
gene  1 7 173 -2.0709355831336627 0 32686.0 -2.0709355831336627 1
gene  1 29 173 -1.686389956856908 0 32708.0 -1.686389956856908 1
gene  1 30 173 0.31740873620243293 0 32709.0 0.31740873620243293 1
gene  1 38 173 1.0207059580215287 0 32717.0 1.0207059580215287 1
gene  1 56 173 1.7209229505551695 0 32735.0 1.7209229505551695 1
gene  1 68 173 -1.2524314010389799 0 32747.0 -1.2524314010389799 1
gene  1 72 173 -0.6998427399617193 0 32751.0 -0.6998427399617193 1
gene  1 75 173 1.3499457048366112 0 32754.0 1.3499457048366112 1
gene  1 180 173 -2.280558308886997 1 32859.0 -2.280558308886997 1
gene  1 45 174 1.3205007689569603 0 32914.0 1.3205007689569603 1
gene  1 174 174 -0.2680838628372925 1 33043.0 -0.2680838628372925 1
gene  1 180 174 -0.6441827638662079 1 33049.0 -0.6441827638662079 1
gene  1 186 174 0.17205739709904044 1 33055.0 0.17205739709904044 1
gene  1 2 175 1.4472431211790373 0 33061.0 1.4472431211790373 1
gene  1 11 175 -1.335945083707641 0 33070.0 -1.335945083707641 1
gene  1 26 175 0.17923926755396458 0 33085.0 0.17923926755396458 1
gene  1 37 175 -0.8008432667907743 0 33096.0 -0.8008432667907743 1
gene  1 43 175 1.8851867870440744 0 33102.0 1.8851867870440744 1
gene  1 48 175 -2.065568943043228 0 33107.0 -2.065568943043228 1
gene  1 51 175 1.4553105227606735 0 33110.0 1.4553105227606735 1
gene  1 64 175 2.196139193904119 0 33123.0 2.196139193904119 1
gene  1 70 175 -1.1354999726637323 0 33129.0 -1.1354999726637323 1
gene  1 71 175 -2.7895810915065233 0 33130.0 -2.7895810915065233 1
gene  1 177 175 1.0216891831757948 1 33236.0 1.0216891831757948 1
gene  1 178 175 -0.10906463624478063 1 33237.0 -0.10906463624478063 1
gene  1 181 175 0.8620787287142258 1 33240.0 0.8620787287142258 1
gene  1 184 175 -0.4087478580909265 1 33243.0 -0.4087478580909265 1
gene  1 186 175 2.252083861547071 1 33245.0 2.252083861547071 1
gene  1 2 176 -0.04964453848240091 0 33251.0 -0.04964453848240091 1
gene  1 8 176 -0.3971304513484073 0 33257.0 -0.3971304513484073 1
gene  1 9 176 0.3609196164855768 0 33258.0 0.3609196164855768 1
gene  1 12 176 -0.8507293562661244 0 33261.0 -0.8507293562661244 1
gene  1 15 176 -1.6666334701132262 0 33264.0 -1.6666334701132262 1
gene  1 16 176 -1.7790500474572328 0 33265.0 -1.7790500474572328 1
gene  1 35 176 1.4821873019064262 0 33284.0 1.4821873019064262 1
gene  1 37 176 2.4645649541863808 0 33286.0 2.4645649541863808 1
gene  1 46 176 -1.11475025981209 0 33295.0 -1.11475025981209 1
gene  1 62 176 -0.7550737651455965 0 33311.0 -0.7550737651455965 1
gene  1 64 176 0.3968857914634065 0 33313.0 0.3968857914634065 1
gene  1 171 176 -0.21351763361819404 0 33420.0 -0.21351763361819404 1
gene  1 174 176 1.3184041430593556 0 33423.0 1.3184041430593556 1
gene  1 179 176 1.5780593410343278 1 33428.0 1.5780593410343278 1
gene  1 1 177 -1.345153909617569 0 33440.0 -1.345153909617569 1
gene  1 7 177 -0.28075889599999215 0 33446.0 -0.28075889599999215 1
gene  1 8 177 0.4971214377984124 0 33447.0 0.4971214377984124 1
gene  1 9 177 3.26817599290134 0 33448.0 3.26817599290134 1
gene  1 14 177 -2.6107167599641534 0 33453.0 -2.6107167599641534 1
gene  1 16 177 2.2437333531166255 0 33455.0 2.2437333531166255 1
gene  1 20 177 -2.377610636637528 0 33459.0 -2.377610636637528 1
gene  1 30 177 -1.8277571893515951 0 33469.0 -1.8277571893515951 1
gene  1 31 177 1.9454947851823898 0 33470.0 1.9454947851823898 1
gene  1 32 177 2.5492663355123133 0 33471.0 2.5492663355123133 1
gene  1 43 177 -2.1599039397518887 0 33482.0 -2.1599039397518887 1
gene  1 44 177 -1.4475745899866979 0 33483.0 -1.4475745899866979 1
gene  1 53 177 -1.1927549888519215 0 33492.0 -1.1927549888519215 1
gene  1 59 177 -2.249296828726006 0 33498.0 -2.249296828726006 1
gene  1 69 177 0.6008948166033684 0 33508.0 0.6008948166033684 1
gene  1 174 177 1.0550563374538309 0 33613.0 1.0550563374538309 1
gene  1 175 177 0.37781877453692314 0 33614.0 0.37781877453692314 1
gene  1 184 177 -2.4780808917998596 1 33623.0 -2.4780808917998596 1
gene  1 187 177 0.22842268778906993 1 33626.0 0.22842268778906993 1
gene  1 1 178 -0.5133673916269388 0 33630.0 -0.5133673916269388 1
gene  1 20 178 -0.13683607212258037 0 33649.0 -0.13683607212258037 1
gene  1 26 178 -0.28766234869896246 0 33655.0 -0.28766234869896246 1
gene  1 35 178 1.7964466324994797 0 33664.0 1.7964466324994797 1
gene  1 42 178 1.1994662479899219 0 33671.0 1.1994662479899219 1
gene  1 53 178 1.3598093834098677 0 33682.0 1.3598093834098677 1
gene  1 59 178 1.2736509084633978 0 33688.0 1.2736509084633978 1
gene  1 72 178 -0.08618241278794492 0 33701.0 -0.08618241278794492 1
gene  1 172 178 0.11676137912632706 0 33801.0 0.11676137912632706 1
gene  1 190 178 -1.2867101526059186 1 33819.0 -1.2867101526059186 1
gene  1 6 179 0.6898480389293868 0 33825.0 0.6898480389293868 1
gene  1 8 179 -1.1087531331876384 0 33827.0 -1.1087531331876384 1
gene  1 13 179 2.463886153317573 0 33832.0 2.463886153317573 1
gene  1 36 179 -2.230299483497647 0 33855.0 -2.230299483497647 1
gene  1 46 179 2.8724913197665263 0 33865.0 2.8724913197665263 1
gene  1 60 179 -2.316263210560491 0 33879.0 -2.316263210560491 1
gene  1 61 179 0.881143278847765 0 33880.0 0.881143278847765 1
gene  1 72 179 -0.16900918069429038 0 33891.0 -0.16900918069429038 1
gene  1 74 179 0.5980582351981855 0 33893.0 0.5980582351981855 1
gene  1 171 179 0.4421533754286465 0 33990.0 0.4421533754286465 1
gene  1 185 179 -0.49051067335831394 1 34004.0 -0.49051067335831394 1
gene  1 1 180 1.128111425918905 0 34010.0 1.128111425918905 1
gene  1 4 180 -0.6860373266308897 0 34013.0 -0.6860373266308897 1
gene  1 8 180 -1.7331728950699792 0 34017.0 -1.7331728950699792 1
gene  1 11 180 0.5195495144538314 0 34020.0 0.5195495144538314 1
gene  1 21 180 -2.0993404016061366 0 34030.0 -2.0993404016061366 1
gene  1 32 180 2.295166001330719 0 34041.0 2.295166001330719 1
gene  1 35 180 0.0626732320926413 0 34044.0 0.0626732320926413 1
gene  1 46 180 -2.187890630615021 0 34055.0 -2.187890630615021 1
gene  1 68 180 1.6876782421281387 0 34077.0 1.6876782421281387 1
gene  1 188 180 -1.367786545344813 1 34197.0 -1.367786545344813 1
gene  1 2 181 2.7577629391376686 0 34201.0 2.7577629391376686 1
gene  1 16 181 -1.511986579037698 0 34215.0 -1.511986579037698 1
gene  1 24 181 -0.5806217161799389 0 34223.0 -0.5806217161799389 1
gene  1 36 181 -0.02981577575206984 0 34235.0 -0.02981577575206984 1
gene  1 60 181 2.035899464870921 0 34259.0 2.035899464870921 1
gene  1 69 181 -0.39271563090133976 0 34268.0 -0.39271563090133976 1
gene  1 190 181 0.6458940953026159 1 34389.0 0.6458940953026159 1
gene  1 1 182 -1.2323964105117136 0 34390.0 -1.2323964105117136 1
gene  1 17 182 -0.7412145854958231 0 34406.0 -0.7412145854958231 1
gene  1 35 182 -0.09496091035088061 0 34424.0 -0.09496091035088061 1
gene  1 44 182 2.1534475252978615 0 34433.0 2.1534475252978615 1
gene  1 49 182 1.121623747667516 0 34438.0 1.121623747667516 1
gene  1 50 182 1.6983288294015917 0 34439.0 1.6983288294015917 1
gene  1 54 182 -1.0322294291347318 0 34443.0 -1.0322294291347318 1
gene  1 59 182 1.2021724282117086 0 34448.0 1.2021724282117086 1
gene  1 73 182 1.0659568911832 0 34462.0 1.0659568911832 1
gene  1 174 182 -2.9118846137740118 0 34563.0 -2.9118846137740118 1
gene  1 187 182 0.6530489447629912 1 34576.0 0.6530489447629912 1
gene  1 6 183 0.21805125920182544 0 34585.0 0.21805125920182544 1
gene  1 7 183 1.7128239244406942 0 34586.0 1.7128239244406942 1
gene  1 17 183 -2.5746777242915915 0 34596.0 -2.5746777242915915 1
gene  1 20 183 1.5987402992951654 0 34599.0 1.5987402992951654 1
gene  1 25 183 -0.6133720064049835 0 34604.0 -0.6133720064049835 1
gene  1 30 183 0.09707342119859219 0 34609.0 0.09707342119859219 1
gene  1 39 183 0.6798953787619433 0 34618.0 0.6798953787619433 1
gene  1 44 183 0.5398309966306194 0 34623.0 0.5398309966306194 1
gene  1 66 183 -1.4169542399691226 0 34645.0 -1.4169542399691226 1
gene  1 171 183 -0.458628787901716 0 34750.0 -0.458628787901716 1
gene  1 174 183 -1.45229870039732 0 34753.0 -1.45229870039732 1
gene  1 21 184 1.2689729833674281 0 34790.0 1.2689729833674281 1
gene  1 29 184 -0.8436298062008414 0 34798.0 -0.8436298062008414 1
gene  1 32 184 -0.28017240962117873 0 34801.0 -0.28017240962117873 1
gene  1 36 184 -0.9322886404598592 0 34805.0 -0.9322886404598592 1
gene  1 45 184 -0.13791677075718556 0 34814.0 -0.13791677075718556 1
gene  1 46 184 1.0454821427935088 0 34815.0 1.0454821427935088 1
gene  1 63 184 -1.2224011664533065 0 34832.0 -1.2224011664533065 1
gene  1 66 184 0.8514500153511055 0 34835.0 0.8514500153511055 1
gene  1 177 184 0.9945565898939346 0 34946.0 0.9945565898939346 1
gene  1 31 185 2.319289990589223 0 34990.0 2.319289990589223 1
gene  1 50 185 -2.955688780892652 0 35009.0 -2.955688780892652 1
gene  1 56 185 0.3255544881219381 0 35015.0 0.3255544881219381 1
gene  1 58 185 1.128375893613485 0 35017.0 1.128375893613485 1
gene  1 62 185 -0.4644445156173763 0 35021.0 -0.4644445156173763 1
gene  1 173 185 -0.5860910458884638 0 35132.0 -0.5860910458884638 1
gene  1 179 185 0.6964469347353471 0 35138.0 0.6964469347353471 1
gene  1 182 185 2.9280924269772655 0 35141.0 2.9280924269772655 1
gene  1 188 185 -0.4912694885297424 1 35147.0 -0.4912694885297424 1
gene  1 1 186 1.126272067216498 0 35150.0 1.126272067216498 1
gene  1 3 186 1.4560713958210019 0 35152.0 1.4560713958210019 1
gene  1 4 186 3.712580893120818 0 35153.0 3.712580893120818 1
gene  1 6 186 -3.0796435143482546 0 35155.0 -3.0796435143482546 1
gene  1 7 186 -0.25942644054547204 0 35156.0 -0.25942644054547204 1
gene  1 17 186 -0.8254603931380594 0 35166.0 -0.8254603931380594 1
gene  1 23 186 -1.740908527611686 0 35172.0 -1.740908527611686 1
gene  1 28 186 -1.3436370008069263 0 35177.0 -1.3436370008069263 1
gene  1 33 186 1.3778093297730154 0 35182.0 1.3778093297730154 1
gene  1 36 186 1.5103039080239657 0 35185.0 1.5103039080239657 1
gene  1 58 186 0.918772290860925 0 35207.0 0.918772290860925 1
gene  1 69 186 -0.7154775467057162 0 35218.0 -0.7154775467057162 1
gene  1 70 186 0.845281680674773 0 35219.0 0.845281680674773 1
gene  1 72 186 -0.25803223055996183 0 35221.0 -0.25803223055996183 1
gene  1 10 187 0.19318165153431183 0 35349.0 0.19318165153431183 1
gene  1 25 187 2.404498591037099 0 35364.0 2.404498591037099 1
gene  1 31 187 1.311976167398229 0 35370.0 1.311976167398229 1
gene  1 33 187 3.1245316372568173 0 35372.0 3.1245316372568173 1
gene  1 47 187 1.4657400446044058 0 35386.0 1.4657400446044058 1
gene  1 57 187 0.21678093667886883 0 35396.0 0.21678093667886883 1
gene  1 183 187 0.577988447637178 0 35522.0 0.577988447637178 1
gene  1 184 187 -0.1550985993510693 0 35523.0 -0.1550985993510693 1
gene  1 5 188 0.8717389540285101 0 35534.0 0.8717389540285101 0
gene  1 6 188 1.4965785598111156 0 35535.0 1.4965785598111156 1
gene  1 12 188 -3.0783890792569455 0 35541.0 -3.0783890792569455 1
gene  1 28 188 -0.9484728321651645 0 35557.0 -0.9484728321651645 1
gene  1 32 188 2.607255539498693 0 35561.0 2.607255539498693 1
gene  1 35 188 -1.3527152329204657 0 35564.0 -1.3527152329204657 1
gene  1 57 188 -0.11859887431415927 0 35586.0 -0.11859887431415927 1
gene  1 172 188 -0.23646717808746148 0 35701.0 -0.23646717808746148 1
gene  1 14 189 -1.5571341017241505 0 35733.0 -1.5571341017241505 1
gene  1 17 189 0.49059494577738016 0 35736.0 0.49059494577738016 1
gene  1 27 189 -1.5009718632309224 0 35746.0 -1.5009718632309224 1
gene  1 37 189 -1.66028372940411 0 35756.0 -1.66028372940411 1
gene  1 43 189 2.1902852428533603 0 35762.0 2.1902852428533603 1
gene  1 51 189 0.06084251364987853 0 35770.0 0.06084251364987853 1
gene  1 56 189 2.633880136117063 0 35775.0 2.633880136117063 1
gene  1 59 189 1.3869669866741252 0 35778.0 1.3869669866741252 1
gene  1 65 189 -0.8314522638114421 0 35784.0 -0.8314522638114421 1
gene  1 73 189 -1.216508514259371 0 35792.0 -1.216508514259371 1
gene  1 74 189 2.1025883245980355 0 35793.0 2.1025883245980355 1
gene  1 178 189 0.14482756896368842 0 35897.0 0.14482756896368842 1
gene  1 1 190 -0.10664715069196806 0 35910.0 -0.10664715069196806 0
gene  1 4 190 -1.8900273016151823 0 35913.0 -1.8900273016151823 1
gene  1 15 190 1.0385753342257358 0 35924.0 1.0385753342257358 1
gene  1 22 190 0.9762456037909528 0 35931.0 0.9762456037909528 1
gene  1 33 190 -0.7282841260775096 0 35942.0 -0.7282841260775096 1
gene  1 58 190 -2.1029911612299985 0 35967.0 -2.1029911612299985 1
gene  1 60 190 2.976230821071577 0 35969.0 2.976230821071577 1
gene  1 67 190 -0.4451239704231392 0 35976.0 -0.4451239704231392 1
gene  1 179 190 0.3838666366682173 0 36088.0 0.3838666366682173 1
gene  1 181 190 0.5212776638541583 0 36090.0 0.5212776638541583 1
gene  1 182 190 1.0880150553866266 0 36091.0 1.0880150553866266 1
gene  1 184 190 0.6662662390899543 0 36093.0 0.6662662390899543 1
gene  1 186 190 1.7754745219663526 0 36095.0 1.7754745219663526 1
gene  1 187 190 0.2738746331824851 0 36096.0 0.2738746331824851 1
gene  1 65 188 -5.716638472476064 0 36109.0 -5.716638472476064 1
gene  1 1 193 1.0 0 36113.0 0.0 1
gene  1 193 190 -0.10664715069196806 0 36114.0 0.0 1
genomeend 0
/* Organism # 001 Fitness:  1615,102 Error:  1000,000                      */
genomestart  1
trait 1 0.11021815520324857 0.0 0.0 0.0 0.0 0.0 0.0 0.17449252573720908 
node 1 1 1 1
node 2 1 1 1
node 3 1 1 1
node 4 1 1 1
node 5 1 1 1
node 6 1 1 1
node 7 1 1 1
node 8 1 1 1
node 9 1 1 1
node 10 1 1 1
node 11 1 1 1
node 12 1 1 1
node 13 1 1 1
node 14 1 1 1
node 15 1 1 1
node 16 1 1 1
node 17 1 1 1
node 18 1 1 1
node 19 1 1 1
node 20 1 1 1
node 21 1 1 1
node 22 1 1 1
node 23 1 1 1
node 24 1 1 1
node 25 1 1 1
node 26 1 1 1
node 27 1 1 1
node 28 1 1 1
node 29 1 1 1
node 30 1 1 1
node 31 1 1 1
node 32 1 1 1
node 33 1 1 1
node 34 1 1 1
node 35 1 1 1
node 36 1 1 1
node 37 1 1 1
node 38 1 1 1
node 39 1 1 1
node 40 1 1 1
node 41 1 1 1
node 42 1 1 1
node 43 1 1 1
node 44 1 1 1
node 45 1 1 1
node 46 1 1 1
node 47 1 1 1
node 48 1 1 1
node 49 1 1 1
node 50 1 1 3
node 51 1 0 0
node 52 1 0 0
node 53 1 0 0
node 54 1 0 0
node 55 1 0 0
node 56 1 0 0
node 57 1 0 0
node 58 1 0 0
node 59 1 0 0
node 60 1 0 0
node 61 1 0 0
node 62 1 0 0
node 63 1 0 0
node 64 1 0 0
node 65 1 0 0
node 66 1 0 0
node 67 1 0 0
node 68 1 0 0
node 69 1 0 0
node 70 1 0 0
node 71 1 0 0
node 72 1 0 0
node 73 1 0 0
node 74 1 0 0
node 75 1 0 0
node 171 1 0 2
node 172 1 0 2
node 173 1 0 2
node 174 1 0 2
node 175 1 0 2
node 176 1 0 2
node 177 1 0 2
node 178 1 0 2
node 179 1 0 2
node 180 1 0 2
node 181 1 0 2
node 182 1 0 2
node 183 1 0 2
node 184 1 0 2
node 185 1 0 2
node 186 1 0 2
node 187 1 0 2
node 188 1 0 2
node 189 1 0 2
node 190 1 0 2
node 193 1 0 0
gene  1 28 51 1.6069217814079628 0 9527.0 1.6069217814079628 1
gene  1 33 51 -1.5957983648574159 0 9532.0 -1.5957983648574159 1
gene  1 36 51 -0.4926450033335339 0 9535.0 -0.4926450033335339 1
gene  1 40 51 -0.8342184636561439 0 9539.0 -0.8342184636561439 1
gene  1 42 51 -0.1170915971427483 0 9541.0 -0.1170915971427483 1
gene  1 54 51 -0.5787094031520037 1 9553.0 -0.5787094031520037 1
gene  1 57 51 -1.7112471531017046 1 9556.0 -1.7112471531017046 1
gene  1 68 51 -1.8580880925787653 1 9567.0 -1.8580880925787653 1
gene  1 174 51 -2.0374724830109496 1 9673.0 -2.0374724830109496 1
gene  1 183 51 -1.2132029214811224 1 9682.0 -1.2132029214811224 1
gene  1 184 51 -0.3932494465354828 1 9683.0 -0.3932494465354828 1
gene  1 189 51 -0.03847412111676646 1 9688.0 -0.03847412111676646 1
gene  1 3 52 0.5944152481358955 0 9692.0 0.5944152481358955 1
gene  1 6 52 1.2278142389958737 0 9695.0 1.2278142389958737 1
gene  1 24 52 0.7794489198156129 0 9713.0 0.7794489198156129 1
gene  1 29 52 -1.4254141366623463 0 9718.0 -1.4254141366623463 1
gene  1 31 52 0.5144006541372086 0 9720.0 0.5144006541372086 1
gene  1 35 52 2.1955637522093125 0 9724.0 2.1955637522093125 1
gene  1 63 52 -0.795046906796111 1 9752.0 -0.795046906796111 1
gene  1 179 52 -3.5067297737909238 1 9868.0 -3.5067297737909238 1
gene  1 183 52 2.6998309160899336 1 9872.0 2.6998309160899336 1
gene  1 184 52 -1.4083477875238528 1 9873.0 -1.4083477875238528 1
gene  1 185 52 1.0347430436216234 1 9874.0 1.0347430436216234 1
gene  1 5 53 2.1454034887464806 0 9884.0 2.1454034887464806 1
gene  1 6 53 1.9940583824974025 0 9885.0 1.9940583824974025 1
gene  1 10 53 1.9126084126858858 0 9889.0 1.9126084126858858 1
gene  1 33 53 -1.092281540612561 0 9912.0 -1.092281540612561 1
gene  1 35 53 0.5234575452257034 0 9914.0 0.5234575452257034 1
gene  1 38 53 -2.6578465063387107 0 9917.0 -2.6578465063387107 1
gene  1 45 53 -0.023026756794638614 0 9924.0 -0.023026756794638614 1
gene  1 71 53 0.6213597352678581 1 9950.0 0.6213597352678581 1
gene  1 16 54 1.007956921789054 0 10085.0 1.007956921789054 1
gene  1 19 54 -0.005119794494573282 0 10088.0 -0.005119794494573282 1
gene  1 36 54 0.6202760647716337 0 10105.0 0.6202760647716337 1
gene  1 42 54 -1.044024133848885 0 10111.0 -1.044024133848885 1
gene  1 58 54 0.4071073536662152 1 10127.0 0.4071073536662152 1
gene  1 62 54 2.3571247151469037 1 10131.0 2.3571247151469037 1
gene  1 73 54 -1.479870446693669 1 10142.0 -1.479870446693669 1
gene  1 177 54 1.8751338589178097 1 10246.0 1.8751338589178097 1
gene  1 180 54 0.1276914350885594 1 10249.0 0.1276914350885594 1
gene  1 190 54 -3.51130967494343 1 10259.0 -3.51130967494343 1
gene  1 20 55 -2.1497385026637486 0 10279.0 -2.1497385026637486 1
gene  1 31 55 -2.3145607090710847 0 10290.0 -2.3145607090710847 1
gene  1 35 55 -1.423681313745536 0 10294.0 -1.423681313745536 1
gene  1 41 55 -2.175643421274866 0 10300.0 -2.175643421274866 1
gene  1 47 55 -0.10283459801189276 0 10306.0 -0.10283459801189276 1
gene  1 52 55 -4.139383063862354 0 10311.0 -4.139383063862354 1
gene  1 69 55 -2.2190499102236076 1 10328.0 -2.2190499102236076 1
gene  1 75 55 3.6297062440228403 1 10334.0 3.6297062440228403 1
gene  1 187 55 0.6299878370730314 1 10446.0 0.6299878370730314 1
gene  1 7 56 -2.074676901874864 0 10456.0 -2.074676901874864 1
gene  1 11 56 -3.9841866417576868 0 10460.0 -3.9841866417576868 1
gene  1 13 56 -0.16705667827889265 0 10462.0 -0.16705667827889265 1
gene  1 36 56 -0.8507940232313349 0 10485.0 -0.8507940232313349 1
gene  1 41 56 0.8087551962146058 0 10490.0 0.8087551962146058 1
gene  1 44 56 0.050492022541473114 0 10493.0 0.050492022541473114 1
gene  1 46 56 -1.86564391336106 0 10495.0 -1.86564391336106 1
gene  1 49 56 0.49202367463639235 0 10498.0 0.49202367463639235 1
gene  1 68 56 -1.0191583703356912 1 10517.0 -1.0191583703356912 1
gene  1 179 56 1.4304325420950605 1 10628.0 1.4304325420950605 1
gene  1 183 56 0.9006365547874547 1 10632.0 0.9006365547874547 1
gene  1 3 57 0.008245182379112315 0 10642.0 0.008245182379112315 1
gene  1 19 57 -4.246725629611075 0 10658.0 -4.246725629611075 1
gene  1 22 57 1.261391432511589 0 10661.0 1.261391432511589 1
gene  1 28 57 -4.875973725605412 0 10667.0 -4.875973725605412 1
gene  1 30 57 1.261564075032338 0 10669.0 1.261564075032338 1
gene  1 35 57 1.596917088145267 0 10674.0 1.596917088145267 1
gene  1 47 57 -1.3969809965874018 0 10686.0 -1.3969809965874018 1
gene  1 59 57 -3.295598794135168 1 10698.0 -3.295598794135168 1
gene  1 60 57 1.0244035445622983 1 10699.0 1.0244035445622983 1
gene  1 187 57 -1.203758274714145 1 10826.0 -1.203758274714145 1
gene  1 5 58 1.1344791401509848 0 10834.0 1.1344791401509848 1
gene  1 14 58 3.7970253055601946 0 10843.0 3.7970253055601946 1
gene  1 15 58 0.6719948248258656 0 10844.0 0.6719948248258656 1
gene  1 24 58 3.1272676293351296 0 10853.0 3.1272676293351296 1
gene  1 32 58 -1.734142202723698 0 10861.0 -1.734142202723698 1
gene  1 43 58 -1.488191244318952 0 10872.0 -1.488191244318952 1
gene  1 49 58 2.519595035772259 0 10878.0 2.519595035772259 1
gene  1 53 58 -1.5155824760028382 0 10882.0 -1.5155824760028382 1
gene  1 62 58 0.7044741775332788 1 10891.0 0.7044741775332788 1
gene  1 64 58 1.7140554890993278 1 10893.0 1.7140554890993278 1
gene  1 69 58 -0.42171837658361566 1 10898.0 -0.42171837658361566 1
gene  1 182 58 -4.410677173648072 1 11011.0 -4.410677173648072 1
gene  1 1 59 -1.2317076466342431 0 11020.0 -1.2317076466342431 1
gene  1 4 59 -1.147149123097341 0 11023.0 -1.147149123097341 1
gene  1 27 59 2.1625006274860774 0 11046.0 2.1625006274860774 1
gene  1 34 59 1.8549201380656437 0 11053.0 1.8549201380656437 1
gene  1 37 59 -1.6188940477602571 0 11056.0 -1.6188940477602571 1
gene  1 44 59 2.916757288220925 0 11063.0 2.916757288220925 1
gene  1 59 59 -0.3636441583867735 1 11078.0 -0.3636441583867735 1
gene  1 73 59 -4.887244877794876 1 11092.0 -4.887244877794876 1
gene  1 75 59 -2.8705163637727846 1 11094.0 -2.8705163637727846 1
gene  1 183 59 0.1882718593915289 1 11202.0 0.1882718593915289 1
gene  1 185 59 2.4476435727002306 1 11204.0 2.4476435727002306 1
gene  1 8 60 -1.4494644304377262 0 11217.0 -1.4494644304377262 1
gene  1 10 60 0.1348823872430962 0 11219.0 0.1348823872430962 1
gene  1 40 60 0.9243077627522998 0 11249.0 0.9243077627522998 1
gene  1 45 60 -1.121881436508607 0 11254.0 -1.121881436508607 1
gene  1 61 60 0.11231251470922332 1 11270.0 0.11231251470922332 1
gene  1 72 60 -1.0975544804872 1 11281.0 -1.0975544804872 1
gene  1 177 60 1.7664379974386675 1 11386.0 1.7664379974386675 1
gene  1 179 60 -1.2853813065028903 1 11388.0 -1.2853813065028903 1
gene  1 187 60 0.991248477216162 1 11396.0 0.991248477216162 1
gene  1 7 61 -2.1304179946590134 0 11406.0 -2.1304179946590134 1
gene  1 15 61 -1.9386415046473453 0 11414.0 -1.9386415046473453 1
gene  1 22 61 -0.966669858495373 0 11421.0 -0.966669858495373 1
gene  1 28 61 0.2104711266986654 0 11427.0 0.2104711266986654 1
gene  1 36 61 -0.09819928105730724 0 11435.0 -0.09819928105730724 1
gene  1 53 61 1.6957818788044237 0 11452.0 1.6957818788044237 1
gene  1 54 61 -0.6766906990944729 0 11453.0 -0.6766906990944729 1
gene  1 67 61 1.1128612919425258 1 11466.0 1.1128612919425258 1
gene  1 177 61 1.2089431341139916 1 11576.0 1.2089431341139916 1
gene  1 184 61 2.193905440585578 1 11583.0 2.193905440585578 1
gene  1 6 62 0.6105294324462676 0 11595.0 0.6105294324462676 1
gene  1 11 62 1.4196052631946232 0 11600.0 1.4196052631946232 1
gene  1 15 62 -2.4944024282502673 0 11604.0 -2.4944024282502673 1
gene  1 26 62 -4.37775438371321 0 11615.0 -4.37775438371321 1
gene  1 53 62 0.2102865488141652 0 11642.0 0.2102865488141652 1
gene  1 68 62 1.3595743510898606 1 11657.0 1.3595743510898606 1
gene  1 72 62 0.33880502103553534 1 11661.0 0.33880502103553534 1
gene  1 174 62 1.7825198676047613 1 11763.0 1.7825198676047613 1
gene  1 175 62 -2.5377146223899567 1 11764.0 -2.5377146223899567 1
gene  1 184 62 -0.3394195019596084 1 11773.0 -0.3394195019596084 1
gene  1 185 62 -2.143001666521617 1 11774.0 -2.143001666521617 1
gene  1 188 62 -2.1337296935157237 1 11777.0 -2.1337296935157237 1
gene  1 31 63 -1.5449863856718673 0 11810.0 -1.5449863856718673 1
gene  1 32 63 0.37636213609846436 0 11811.0 0.37636213609846436 1
gene  1 37 63 2.711879582716584 0 11816.0 2.711879582716584 1
gene  1 38 63 1.250289675130931 0 11817.0 1.250289675130931 1
gene  1 42 63 -0.084752186424011 0 11821.0 -0.084752186424011 1
gene  1 46 63 1.414039141843897 0 11825.0 1.414039141843897 1
gene  1 48 63 0.37927694835538045 0 11827.0 0.37927694835538045 1
gene  1 50 63 3.174487754991443 0 11829.0 3.174487754991443 1
gene  1 60 63 0.3170062729880996 0 11839.0 0.3170062729880996 1
gene  1 63 63 -1.1358051019527806 1 11842.0 -1.1358051019527806 1
gene  1 72 63 -0.9762930310491156 1 11851.0 -0.9762930310491156 1
gene  1 74 63 0.03300122891034707 1 11853.0 0.03300122891034707 1
gene  1 178 63 -1.6056152968320307 1 11957.0 -1.6056152968320307 1
gene  1 180 63 -0.36331487355477227 1 11959.0 -0.36331487355477227 1
gene  1 181 63 2.2584658233885078 1 11960.0 2.2584658233885078 1
gene  1 8 64 -0.35305504080801087 0 11977.0 -0.35305504080801087 1
gene  1 11 64 0.582904037301258 0 11980.0 0.582904037301258 1
gene  1 20 64 0.3789684289191715 0 11989.0 0.3789684289191715 1
gene  1 27 64 1.1732459039737788 0 11996.0 1.1732459039737788 1
gene  1 41 64 2.9367226104205564 0 12010.0 2.9367226104205564 1
gene  1 44 64 1.8569227330950744 0 12013.0 1.8569227330950744 1
gene  1 49 64 -1.9760652639380472 0 12018.0 -1.9760652639380472 1
gene  1 50 64 3.1070144646331315 0 12019.0 3.1070144646331315 1
gene  1 53 64 -0.05201214791767961 0 12022.0 -0.05201214791767961 1
gene  1 59 64 -0.9606570035602767 0 12028.0 -0.9606570035602767 1
gene  1 70 64 0.7596022063781673 1 12039.0 0.7596022063781673 1
gene  1 176 64 2.909039521443036 1 12145.0 2.909039521443036 1
gene  1 179 64 -0.08453273242778492 1 12148.0 -0.08453273242778492 1
gene  1 183 64 -0.15174660496697662 1 12152.0 -0.15174660496697662 1
gene  1 184 64 -1.64033062070978 1 12153.0 -1.64033062070978 1
gene  1 185 64 -2.0378969285559663 1 12154.0 -2.0378969285559663 1
gene  1 8 65 2.1468140061614527 0 12167.0 2.1468140061614527 1
gene  1 13 65 0.648138299953291 0 12172.0 0.648138299953291 1
gene  1 18 65 -1.492293980143962 0 12177.0 -1.492293980143962 1
gene  1 39 65 -4.106059481816411 0 12198.0 -4.106059481816411 1
gene  1 53 65 0.4577707444332362 0 12212.0 0.4577707444332362 1
gene  1 69 65 -0.2561547466880499 1 12228.0 -0.2561547466880499 1
gene  1 70 65 -0.5657710050338896 1 12229.0 -0.5657710050338896 1
gene  1 175 65 -0.8780810768082095 1 12334.0 -0.8780810768082095 1
gene  1 176 65 1.398314230875356 1 12335.0 1.398314230875356 1
gene  1 177 65 1.1173327498057848 1 12336.0 1.1173327498057848 1
gene  1 185 65 4.088015057821995 1 12344.0 4.088015057821995 1
gene  1 1 66 1.3059303989991098 0 12350.0 1.3059303989991098 1
gene  1 4 66 -0.33146159810473114 0 12353.0 -0.33146159810473114 1
gene  1 18 66 -0.9806830586319432 0 12367.0 -0.9806830586319432 1
gene  1 21 66 0.9018764171814975 0 12370.0 0.9018764171814975 1
gene  1 43 66 1.030392793992034 0 12392.0 1.030392793992034 1
gene  1 47 66 0.5684162104184163 0 12396.0 0.5684162104184163 1
gene  1 50 66 -0.6519666834689324 0 12399.0 -0.6519666834689324 1
gene  1 60 66 -1.0000020768572786 0 12409.0 -1.0000020768572786 1
gene  1 62 66 -0.49936128723599954 0 12411.0 -0.49936128723599954 1
gene  1 66 66 0.9318680512271771 1 12415.0 0.9318680512271771 1
gene  1 184 66 -2.1690955016023383 1 12533.0 -2.1690955016023383 1
gene  1 8 67 2.041698443630878 0 12547.0 2.041698443630878 1
gene  1 38 67 -0.428266905192358 0 12577.0 -0.428266905192358 1
gene  1 46 67 -0.922803827942458 0 12585.0 -0.922803827942458 1
gene  1 49 67 -0.006217392626711282 0 12588.0 -0.006217392626711282 1
gene  1 57 67 -0.3309913727525646 0 12596.0 -0.3309913727525646 1
gene  1 61 67 0.5908550096931879 0 12600.0 0.5908550096931879 1
gene  1 72 67 -1.5482894918342958 1 12611.0 -1.5482894918342958 1
gene  1 177 67 3.837902648949159 1 12716.0 3.837902648949159 1
gene  1 182 67 0.41923581650742975 1 12721.0 0.41923581650742975 1
gene  1 185 67 0.041878789907979996 1 12724.0 0.041878789907979996 1
gene  1 189 67 -0.2980298883569477 1 12728.0 -0.2980298883569477 1
gene  1 5 68 1.4293743446613851 0 12734.0 1.4293743446613851 1
gene  1 16 68 -1.7091255290337457 0 12745.0 -1.7091255290337457 1
gene  1 40 68 2.390020958294704 0 12769.0 2.390020958294704 1
gene  1 41 68 -3.8593473820763275 0 12770.0 -3.8593473820763275 1
gene  1 42 68 1.684039167263421 0 12771.0 1.684039167263421 1
gene  1 71 68 -1.8732790723646975 1 12800.0 -1.8732790723646975 1
gene  1 185 68 1.4578967644476044 1 12914.0 1.4578967644476044 1
gene  1 6 69 0.3393991804553953 0 12925.0 0.3393991804553953 1
gene  1 16 69 -0.7307596971052213 0 12935.0 -0.7307596971052213 1
gene  1 19 69 -0.7816270880834677 0 12938.0 -0.7816270880834677 1
gene  1 44 69 -2.1740061093183765 0 12963.0 -2.1740061093183765 1
gene  1 45 69 1.3442091821772713 0 12964.0 1.3442091821772713 1
gene  1 65 69 1.4806855807648829 0 12984.0 1.4806855807648829 1
gene  1 171 69 0.8079920726709399 1 13090.0 0.8079920726709399 1
gene  1 3 70 0.79197020460286 0 13112.0 0.79197020460286 1
gene  1 39 70 -1.549597222830061 0 13148.0 -1.549597222830061 1
gene  1 60 70 -3.3397903826935984 0 13169.0 -3.3397903826935984 1
gene  1 171 70 1.9039869440742607 1 13280.0 1.9039869440742607 1
gene  1 181 70 -2.06760178834093 1 13290.0 -2.06760178834093 1
gene  1 183 70 -1.4632078095597323 1 13292.0 -1.4632078095597323 1
gene  1 11 71 0.008858250777723509 0 13310.0 0.008858250777723509 1
gene  1 15 71 3.1115886531601284 0 13314.0 3.1115886531601284 1
gene  1 30 71 3.199536580495961 0 13329.0 3.199536580495961 1
gene  1 33 71 2.056191938405816 0 13332.0 2.056191938405816 1
gene  1 34 71 2.815450317515354 0 13333.0 2.815450317515354 1
gene  1 48 71 0.24431195621953394 0 13347.0 0.24431195621953394 1
gene  1 50 71 -1.1075525494802796 0 13349.0 -1.1075525494802796 1
gene  1 51 71 0.4854556844771326 0 13350.0 0.4854556844771326 1
gene  1 57 71 -2.8969297772133706 0 13356.0 -2.8969297772133706 1
gene  1 73 71 0.22749115074122717 1 13372.0 0.22749115074122717 1
gene  1 185 71 -2.3660267886458994 1 13484.0 -2.3660267886458994 1
gene  1 24 72 -0.8198732190846172 0 13513.0 -0.8198732190846172 1
gene  1 51 72 1.5973218976540018 0 13540.0 1.5973218976540018 1
gene  1 54 72 2.4454149998082246 0 13543.0 2.4454149998082246 1
gene  1 60 72 -0.09306276713611022 0 13549.0 -0.09306276713611022 1
gene  1 3 73 -1.729627377111804 0 13682.0 -1.729627377111804 1
gene  1 18 73 -2.225057893775154 0 13697.0 -2.225057893775154 1
gene  1 30 73 0.6027830578883769 0 13709.0 0.6027830578883769 1
gene  1 41 73 4.285892338663583 0 13720.0 4.285892338663583 1
gene  1 54 73 -0.21199582733878658 0 13733.0 -0.21199582733878658 1
gene  1 59 73 2.996711397187802 0 13738.0 2.996711397187802 1
gene  1 60 73 -2.7318178807109748 0 13739.0 -2.7318178807109748 1
gene  1 179 73 2.0279537620095835 1 13858.0 2.0279537620095835 1
gene  1 189 73 1.6176076742772993 1 13868.0 1.6176076742772993 1
gene  1 31 74 -1.1719466586443876 0 13900.0 -1.1719466586443876 1
gene  1 38 74 0.6116290055003872 0 13907.0 0.6116290055003872 1
gene  1 67 74 0.7584125129870218 0 13936.0 0.7584125129870218 1
gene  1 74 74 1.0174880768335723 1 13943.0 1.0174880768335723 1
gene  1 188 74 -1.5913134017989041 1 14057.0 -1.5913134017989041 1
gene  1 2 75 2.372566517726133 0 14061.0 2.372566517726133 1
gene  1 10 75 -0.5982628613275847 0 14069.0 -0.5982628613275847 1
gene  1 12 75 -0.025614081025068347 0 14071.0 -0.025614081025068347 1
gene  1 15 75 -0.4131655853579291 0 14074.0 -0.4131655853579291 1
gene  1 18 75 -1.0317273592022562 0 14077.0 -1.0317273592022562 1
gene  1 43 75 0.25737766640798465 0 14102.0 0.25737766640798465 1
gene  1 46 75 1.4067382066879501 0 14105.0 1.4067382066879501 1
gene  1 56 75 -5.405482320096794 0 14115.0 -5.405482320096794 1
gene  1 57 75 1.9254109511286157 0 14116.0 1.9254109511286157 1
gene  1 177 75 -2.9049063421268593 1 14236.0 -2.9049063421268593 1
gene  1 183 75 1.9063520226478137 1 14242.0 1.9063520226478137 1
gene  1 3 171 -0.013629256583893412 0 32302.0 -0.013629256583893412 1
gene  1 10 171 -0.3080637734517892 0 32309.0 -0.3080637734517892 1
gene  1 18 171 -1.5388465117837873 0 32317.0 -1.5388465117837873 1
gene  1 35 171 -2.215488264494029 0 32334.0 -2.215488264494029 1
gene  1 47 171 0.41850610033560276 0 32346.0 0.41850610033560276 1
gene  1 48 171 2.696334578399041 0 32347.0 2.696334578399041 1
gene  1 63 171 3.2985443912867387 0 32362.0 3.2985443912867387 1
gene  1 74 171 1.3133083773809866 0 32373.0 1.3133083773809866 1
gene  1 171 171 2.889161600645583 1 32470.0 2.889161600645583 1
gene  1 180 171 2.06267096595023 1 32479.0 2.06267096595023 1
gene  1 181 171 1.8206668163457205 1 32480.0 1.8206668163457205 1
gene  1 16 172 -0.9711597853324374 0 32505.0 -0.9711597853324374 1
gene  1 38 172 -4.554425599070178 0 32527.0 -4.554425599070178 1
gene  1 58 172 1.2906995993813872 0 32547.0 1.2906995993813872 1
gene  1 59 172 -2.5473194794054157 0 32548.0 -2.5473194794054157 1
gene  1 60 172 -0.6629242583394246 0 32549.0 -0.6629242583394246 1
gene  1 73 172 -0.7418225553611715 0 32562.0 -0.7418225553611715 1
gene  1 171 172 -0.7337144739408135 0 32660.0 -0.7337144739408135 1
gene  1 173 172 -0.10728851243718607 1 32662.0 -0.10728851243718607 1
gene  1 7 173 -2.0709355831336627 0 32686.0 -2.0709355831336627 1
gene  1 29 173 -3.5191938097486415 0 32708.0 -3.5191938097486415 1
gene  1 30 173 -0.41102812563420577 0 32709.0 -0.41102812563420577 1
gene  1 38 173 1.3183953340858268 0 32717.0 1.3183953340858268 1
gene  1 56 173 4.019733210958547 0 32735.0 4.019733210958547 1
gene  1 68 173 -0.4556724948293407 0 32747.0 -0.4556724948293407 1
gene  1 72 173 1.8650971965867282 0 32751.0 1.8650971965867282 1
gene  1 75 173 3.596047592776734 0 32754.0 3.596047592776734 1
gene  1 180 173 -3.0313288901548177 1 32859.0 -3.0313288901548177 1
gene  1 45 174 -1.1608901151922204 0 32914.0 -1.1608901151922204 1
gene  1 174 174 -0.024776326562765127 1 33043.0 -0.024776326562765127 1
gene  1 180 174 -3.0528075457089043 1 33049.0 -3.0528075457089043 1
gene  1 186 174 -0.683210381887455 1 33055.0 -0.683210381887455 1
gene  1 2 175 -0.24907288220474944 0 33061.0 -0.24907288220474944 1
gene  1 11 175 -1.335945083707641 0 33070.0 -1.335945083707641 1
gene  1 26 175 2.515104067804991 0 33085.0 2.515104067804991 1
gene  1 37 175 0.3426468297617584 0 33096.0 0.3426468297617584 1
gene  1 43 175 0.4832488673987831 0 33102.0 0.4832488673987831 1
gene  1 48 175 -2.292787813900687 0 33107.0 -2.292787813900687 1
gene  1 51 175 1.4553105227606735 0 33110.0 1.4553105227606735 1
gene  1 64 175 -0.23901568876115187 0 33123.0 -0.23901568876115187 1
gene  1 70 175 -1.4011514294139982 0 33129.0 -1.4011514294139982 1
gene  1 71 175 -0.7080426224230014 0 33130.0 -0.7080426224230014 1
gene  1 177 175 0.9003204302872885 1 33236.0 0.9003204302872885 1
gene  1 178 175 -1.352237434521819 1 33237.0 -1.352237434521819 1
gene  1 181 175 -1.1941711251947584 1 33240.0 -1.1941711251947584 1
gene  1 184 175 -0.6553295959716345 1 33243.0 -0.6553295959716345 1
gene  1 186 175 0.7218677892394247 1 33245.0 0.7218677892394247 1
gene  1 2 176 -0.04964453848240091 0 33251.0 -0.04964453848240091 1
gene  1 8 176 -0.950863281579141 0 33257.0 -0.950863281579141 1
gene  1 9 176 -1.012776490988766 0 33258.0 -1.012776490988766 1
gene  1 12 176 -1.2435755371779331 0 33261.0 -1.2435755371779331 1
gene  1 15 176 0.5875730025725643 0 33264.0 0.5875730025725643 1
gene  1 16 176 -2.7239188072510707 0 33265.0 -2.7239188072510707 1
gene  1 35 176 2.722880751979765 0 33284.0 2.722880751979765 1
gene  1 37 176 2.4645649541863808 0 33286.0 2.4645649541863808 1
gene  1 46 176 0.4574679598228623 0 33295.0 0.4574679598228623 1
gene  1 62 176 1.4112929212072245 0 33311.0 1.4112929212072245 1
gene  1 64 176 -2.4232671874006626 0 33313.0 -2.4232671874006626 1
gene  1 171 176 -1.0920233041266094 0 33420.0 -1.0920233041266094 1
gene  1 174 176 0.9140806326739642 0 33423.0 0.9140806326739642 1
gene  1 179 176 1.3184861050707026 1 33428.0 1.3184861050707026 1
gene  1 1 177 -1.5207279362791661 0 33440.0 -1.5207279362791661 1
gene  1 7 177 0.6635320327068602 0 33446.0 0.6635320327068602 1
gene  1 8 177 -0.4371353303495206 0 33447.0 -0.4371353303495206 1
gene  1 9 177 1.2257859290931066 0 33448.0 1.2257859290931066 1
gene  1 14 177 -2.6107167599641534 0 33453.0 -2.6107167599641534 1
gene  1 16 177 3.6100531116513137 0 33455.0 3.6100531116513137 1
gene  1 20 177 -0.47337795600523924 0 33459.0 -0.47337795600523924 1
gene  1 30 177 0.5168574527113095 0 33469.0 0.5168574527113095 1
gene  1 31 177 3.7074676918595335 0 33470.0 3.7074676918595335 1
gene  1 32 177 4.534283587792218 0 33471.0 4.534283587792218 1
gene  1 43 177 -2.8056146532253385 0 33482.0 -2.8056146532253385 1
gene  1 44 177 -0.23767575440199495 0 33483.0 -0.23767575440199495 1
gene  1 53 177 -3.351845100421106 0 33492.0 -3.351845100421106 1
gene  1 59 177 -2.249296828726006 0 33498.0 -2.249296828726006 1
gene  1 69 177 -0.27057471630318053 0 33508.0 -0.27057471630318053 1
gene  1 174 177 -2.378070136654529 0 33613.0 -2.378070136654529 1
gene  1 175 177 2.6288434533405676 0 33614.0 2.6288434533405676 1
gene  1 184 177 -4.412487083378628 1 33623.0 -4.412487083378628 1
gene  1 187 177 -1.5650827327786159 1 33626.0 -1.5650827327786159 1
gene  1 1 178 -1.8843126476205376 0 33630.0 -1.8843126476205376 1
gene  1 20 178 -1.9737462201481735 0 33649.0 -1.9737462201481735 1
gene  1 26 178 0.4105508642748814 0 33655.0 0.4105508642748814 1
gene  1 35 178 1.2070590710214373 0 33664.0 1.2070590710214373 1
gene  1 42 178 3.491195823847005 0 33671.0 3.491195823847005 1
gene  1 53 178 2.811237305800505 0 33682.0 2.811237305800505 1
gene  1 59 178 -1.861005406228204 0 33688.0 -1.861005406228204 1
gene  1 72 178 -0.05629996854228664 0 33701.0 -0.05629996854228664 1
gene  1 172 178 -1.91137075765599 0 33801.0 -1.91137075765599 1
gene  1 190 178 -2.34247603328455 1 33819.0 -2.34247603328455 1
gene  1 6 179 -0.024508966351683648 0 33825.0 -0.024508966351683648 1
gene  1 8 179 -1.82224883519994 0 33827.0 -1.82224883519994 1
gene  1 13 179 2.463886153317573 0 33832.0 2.463886153317573 1
gene  1 36 179 -1.8781367372547628 0 33855.0 -1.8781367372547628 1
gene  1 46 179 0.6224045161192504 0 33865.0 0.6224045161192504 1
gene  1 60 179 -1.8206983002274262 0 33879.0 -1.8206983002274262 1
gene  1 61 179 1.6881411180934869 0 33880.0 1.6881411180934869 1
gene  1 72 179 -0.7317524561620651 0 33891.0 -0.7317524561620651 1
gene  1 74 179 2.467924774747754 0 33893.0 2.467924774747754 1
gene  1 171 179 0.492331795677035 0 33990.0 0.492331795677035 1
gene  1 185 179 -0.464433848155264 1 34004.0 -0.464433848155264 1
gene  1 1 180 2.2899026175702475 0 34010.0 2.2899026175702475 1
gene  1 4 180 0.42444401507477236 0 34013.0 0.42444401507477236 1
gene  1 8 180 -0.36936453931595103 0 34017.0 -0.36936453931595103 1
gene  1 11 180 -1.4637886969765135 0 34020.0 -1.4637886969765135 1
gene  1 21 180 0.7017266732107228 0 34030.0 0.7017266732107228 1
gene  1 32 180 4.794682516241258 0 34041.0 4.794682516241258 1
gene  1 35 180 0.0626732320926413 0 34044.0 0.0626732320926413 1
gene  1 46 180 1.410605094433578 0 34055.0 1.410605094433578 1
gene  1 68 180 2.2081541586156375 0 34077.0 2.2081541586156375 1
gene  1 188 180 -1.367786545344813 1 34197.0 -1.367786545344813 1
gene  1 2 181 0.6509145814605679 0 34201.0 0.6509145814605679 1
gene  1 16 181 -2.690914663388556 0 34215.0 -2.690914663388556 1
gene  1 24 181 1.028862267850322 0 34223.0 1.028862267850322 1
gene  1 36 181 0.38396214754260244 0 34235.0 0.38396214754260244 1
gene  1 60 181 2.805300338373624 0 34259.0 2.805300338373624 1
gene  1 69 181 0.9333357808649891 0 34268.0 0.9333357808649891 1
gene  1 190 181 0.7208864997956268 1 34389.0 0.7208864997956268 1
gene  1 1 182 -1.5082275127092002 0 34390.0 -1.5082275127092002 1
gene  1 17 182 -1.6429031876246756 0 34406.0 -1.6429031876246756 1
gene  1 35 182 -2.2153899634230916 0 34424.0 -2.2153899634230916 1
gene  1 44 182 -0.3114154933277402 0 34433.0 -0.3114154933277402 1
gene  1 49 182 2.2948339913911346 0 34438.0 2.2948339913911346 1
gene  1 50 182 2.637294834510832 0 34439.0 2.637294834510832 1
gene  1 54 182 -2.523102206972149 0 34443.0 -2.523102206972149 1
gene  1 59 182 1.167578317570113 0 34448.0 1.167578317570113 1
gene  1 73 182 1.0659568911832 0 34462.0 1.0659568911832 1
gene  1 174 182 -4.953792425050969 0 34563.0 -4.953792425050969 1
gene  1 187 182 3.0970999659991243 1 34576.0 3.0970999659991243 1
gene  1 6 183 2.240522722685836 0 34585.0 2.240522722685836 1
gene  1 7 183 0.4261092906823223 0 34586.0 0.4261092906823223 1
gene  1 17 183 -0.4658183138172043 0 34596.0 -0.4658183138172043 1
gene  1 20 183 1.5987402992951654 0 34599.0 1.5987402992951654 1
gene  1 25 183 -1.226838697690571 0 34604.0 -1.226838697690571 1
gene  1 30 183 -0.1289047522500092 0 34609.0 -0.1289047522500092 1
gene  1 39 183 0.6798953787619433 0 34618.0 0.6798953787619433 1
gene  1 44 183 -1.1133054464318397 0 34623.0 -1.1133054464318397 1
gene  1 66 183 -3.3548428401091757 0 34645.0 -3.3548428401091757 1
gene  1 171 183 -0.458628787901716 0 34750.0 -0.458628787901716 1
gene  1 174 183 -3.4253033151338874 0 34753.0 -3.4253033151338874 1
gene  1 21 184 2.7788177316648004 0 34790.0 2.7788177316648004 1
gene  1 29 184 0.7565134666070099 0 34798.0 0.7565134666070099 1
gene  1 32 184 2.0754270296459296 0 34801.0 2.0754270296459296 1
gene  1 36 184 -2.431745355036154 0 34805.0 -2.431745355036154 1
gene  1 45 184 0.42149650960104523 0 34814.0 0.42149650960104523 1
gene  1 46 184 -0.25158264874027836 0 34815.0 -0.25158264874027836 1
gene  1 63 184 -1.1963654877085106 0 34832.0 -1.1963654877085106 1
gene  1 66 184 2.3828506923698307 0 34835.0 2.3828506923698307 1
gene  1 177 184 -0.8727105618354916 0 34946.0 -0.8727105618354916 1
gene  1 31 185 2.319289990589223 0 34990.0 2.319289990589223 1
gene  1 50 185 -3.2650605899390053 0 35009.0 -3.2650605899390053 1
gene  1 56 185 2.294297713008328 0 35015.0 2.294297713008328 1
gene  1 58 185 -1.0925015431474974 0 35017.0 -1.0925015431474974 1
gene  1 62 185 -0.3497995510174465 0 35021.0 -0.3497995510174465 1
gene  1 173 185 -1.6521289694823404 0 35132.0 -1.6521289694823404 1
gene  1 179 185 0.2930167136205241 0 35138.0 0.2930167136205241 1
gene  1 182 185 4.813003967494614 0 35141.0 4.813003967494614 1
gene  1 188 185 0.013973787501907031 1 35147.0 0.013973787501907031 1
gene  1 1 186 0.19673032479406327 0 35150.0 0.19673032479406327 1
gene  1 3 186 0.30271930079116466 0 35152.0 0.30271930079116466 1
gene  1 4 186 4.7291413048268325 0 35153.0 4.7291413048268325 1
gene  1 6 186 -3.0796435143482546 0 35155.0 -3.0796435143482546 1
gene  1 7 186 -0.5419097892093192 0 35156.0 -0.5419097892093192 1
gene  1 17 186 -0.8688429170412176 0 35166.0 -0.8688429170412176 1
gene  1 23 186 -1.35405085607978 0 35172.0 -1.35405085607978 1
gene  1 28 186 0.5414416556297896 0 35177.0 0.5414416556297896 1
gene  1 33 186 -0.5380573748734319 0 35182.0 -0.5380573748734319 1
gene  1 36 186 2.882915943257111 0 35185.0 2.882915943257111 1
gene  1 58 186 0.9860761449432912 0 35207.0 0.9860761449432912 1
gene  1 69 186 -1.5469444323829946 0 35218.0 -1.5469444323829946 1
gene  1 70 186 -1.0513072976264115 0 35219.0 -1.0513072976264115 1
gene  1 72 186 -0.519741610111581 0 35221.0 -0.519741610111581 1
gene  1 10 187 0.19318165153431183 0 35349.0 0.19318165153431183 1
gene  1 25 187 3.5763700647841845 0 35364.0 3.5763700647841845 1
gene  1 31 187 -2.0056180933947543 0 35370.0 -2.0056180933947543 1
gene  1 33 187 3.481530224993438 0 35372.0 3.481530224993438 1
gene  1 47 187 1.4923438942482818 0 35386.0 1.4923438942482818 1
gene  1 57 187 -1.690129242473955 0 35396.0 -1.690129242473955 1
gene  1 183 187 -1.5943925012890894 0 35522.0 -1.5943925012890894 1
gene  1 184 187 -0.32596371570367133 0 35523.0 -0.32596371570367133 1
gene  1 5 188 1.018651982375626 0 35534.0 1.018651982375626 0
gene  1 6 188 1.7336503541858506 0 35535.0 1.7336503541858506 1
gene  1 12 188 -4.91151489422471 0 35541.0 -4.91151489422471 1
gene  1 28 188 -2.883977581571004 0 35557.0 -2.883977581571004 1
gene  1 32 188 0.26110053697014557 0 35561.0 0.26110053697014557 1
gene  1 35 188 1.272220531097614 0 35564.0 1.272220531097614 1
gene  1 57 188 -0.755226737583629 0 35586.0 -0.755226737583629 1
gene  1 172 188 1.4815710497676413 0 35701.0 1.4815710497676413 1
gene  1 14 189 -3.297617335773981 0 35733.0 -3.297617335773981 1
gene  1 17 189 -1.9404432763684905 0 35736.0 -1.9404432763684905 1
gene  1 27 189 -1.5009718632309224 0 35746.0 -1.5009718632309224 1
gene  1 37 189 1.0623524922560854 0 35756.0 1.0623524922560854 1
gene  1 43 189 4.657199969585349 0 35762.0 4.657199969585349 1
gene  1 51 189 -1.1072227411993527 0 35770.0 -1.1072227411993527 1
gene  1 56 189 -1.7532350329592863 0 35775.0 -1.7532350329592863 1
gene  1 59 189 1.3869669866741252 0 35778.0 1.3869669866741252 1
gene  1 65 189 -2.3784296057839 0 35784.0 -2.3784296057839 1
gene  1 73 189 -1.0193751825301751 0 35792.0 -1.0193751825301751 1
gene  1 74 189 4.305909166496976 0 35793.0 4.305909166496976 1
gene  1 178 189 1.6937356104401171 0 35897.0 1.6937356104401171 1
gene  1 1 190 0.39167822267740265 0 35910.0 0.39167822267740265 0
gene  1 4 190 -1.0959120510310847 0 35913.0 -1.0959120510310847 1
gene  1 15 190 0.4650177645586968 0 35924.0 0.4650177645586968 1
gene  1 22 190 0.5119279162486969 0 35931.0 0.5119279162486969 1
gene  1 33 190 -2.7958421308706174 0 35942.0 -2.7958421308706174 1
gene  1 58 190 -2.1029911612299985 0 35967.0 -2.1029911612299985 1
gene  1 60 190 1.058648753039817 0 35969.0 1.058648753039817 1
gene  1 67 190 0.6991455600765534 0 35976.0 0.6991455600765534 1
gene  1 179 190 -0.9419063043975378 0 36088.0 -0.9419063043975378 1
gene  1 181 190 -2.3772202891821035 0 36090.0 -2.3772202891821035 1
gene  1 182 190 -0.9916055886045056 0 36091.0 -0.9916055886045056 1
gene  1 184 190 1.8126752487696023 0 36093.0 1.8126752487696023 1
gene  1 186 190 -0.24956796959906113 0 36095.0 -0.24956796959906113 1
gene  1 187 190 0.3552282055814521 0 36096.0 0.3552282055814521 1
gene  1 65 188 -4.141848220215347 0 36109.0 -4.141848220215347 1
gene  1 1 193 -1.6271574502924269 0 36113.0 -1.6271574502924269 1
gene  1 193 190 -0.33607434361000027 0 36114.0 -0.33607434361000027 1
genomeend 1
/* Organism # 002 Fitness:  1646,513 Error:  1000,000                      */
genomestart  2
trait 1 0.07368054134858315 0.0 0.0 0.08064293762599128 0.47449620292643824 0.0 0.0 0.46911576929206045 
node 1 1 1 1
node 2 1 1 1
node 3 1 1 1
node 4 1 1 1
node 5 1 1 1
node 6 1 1 1
node 7 1 1 1
node 8 1 1 1
node 9 1 1 1
node 10 1 1 1
node 11 1 1 1
node 12 1 1 1
node 13 1 1 1
node 14 1 1 1
node 15 1 1 1
node 16 1 1 1
node 17 1 1 1
node 18 1 1 1
node 19 1 1 1
node 20 1 1 1
node 21 1 1 1
node 22 1 1 1
node 23 1 1 1
node 24 1 1 1
node 25 1 1 1
node 26 1 1 1
node 27 1 1 1
node 28 1 1 1
node 29 1 1 1
node 30 1 1 1
node 31 1 1 1
node 32 1 1 1
node 33 1 1 1
node 34 1 1 1
node 35 1 1 1
node 36 1 1 1
node 37 1 1 1
node 38 1 1 1
node 39 1 1 1
node 40 1 1 1
node 41 1 1 1
node 42 1 1 1
node 43 1 1 1
node 44 1 1 1
node 45 1 1 1
node 46 1 1 1
node 47 1 1 1
node 48 1 1 1
node 49 1 1 1
node 50 1 1 3
node 51 1 0 0
node 52 1 0 0
node 53 1 0 0
node 54 1 0 0
node 55 1 0 0
node 56 1 0 0
node 57 1 0 0
node 58 1 0 0
node 59 1 0 0
node 60 1 0 0
node 61 1 0 0
node 62 1 0 0
node 63 1 0 0
node 64 1 0 0
node 65 1 0 0
node 66 1 0 0
node 67 1 0 0
node 68 1 0 0
node 69 1 0 0
node 70 1 0 0
node 71 1 0 0
node 72 1 0 0
node 73 1 0 0
node 74 1 0 0
node 75 1 0 0
node 171 1 0 2
node 172 1 0 2
node 173 1 0 2
node 174 1 0 2
node 175 1 0 2
node 176 1 0 2
node 177 1 0 2
node 178 1 0 2
node 179 1 0 2
node 180 1 0 2
node 181 1 0 2
node 182 1 0 2
node 183 1 0 2
node 184 1 0 2
node 185 1 0 2
node 186 1 0 2
node 187 1 0 2
node 188 1 0 2
node 189 1 0 2
node 190 1 0 2
gene  1 28 51 2.3294964777070333 0 9527.0 2.3294964777070333 1
gene  1 33 51 1.9005480014856757 0 9532.0 1.9005480014856757 1
gene  1 36 51 1.2120684078662949 0 9535.0 1.2120684078662949 1
gene  1 40 51 0.8616844318480408 0 9539.0 0.8616844318480408 1
gene  1 42 51 -2.392794478444023 0 9541.0 -2.392794478444023 1
gene  1 54 51 -1.1167475633809354 1 9553.0 -1.1167475633809354 1
gene  1 57 51 -3.0749198893797596 1 9556.0 -3.0749198893797596 1
gene  1 68 51 0.21195907454965568 1 9567.0 0.21195907454965568 1
gene  1 174 51 -4.077366401413686 1 9673.0 -4.077366401413686 1
gene  1 183 51 -1.8830826484368484 1 9682.0 -1.8830826484368484 1
gene  1 184 51 -1.0250990722305136 1 9683.0 -1.0250990722305136 1
gene  1 189 51 -0.7280527823800544 1 9688.0 -0.7280527823800544 1
gene  1 3 52 0.22117701297473535 0 9692.0 0.22117701297473535 1
gene  1 6 52 2.1787971237182826 0 9695.0 2.1787971237182826 1
gene  1 24 52 -0.07928733520790532 0 9713.0 -0.07928733520790532 1
gene  1 29 52 0.21671112794447023 0 9718.0 0.21671112794447023 1
gene  1 31 52 2.0343347317926384 0 9720.0 2.0343347317926384 1
gene  1 35 52 -0.7416519399525342 0 9724.0 -0.7416519399525342 1
gene  1 63 52 -1.6604442795770669 1 9752.0 -1.6604442795770669 1
gene  1 179 52 -1.0547997884062126 1 9868.0 -1.0547997884062126 1
gene  1 183 52 -1.5614717006669463 1 9872.0 -1.5614717006669463 1
gene  1 184 52 2.021395064095742 1 9873.0 2.021395064095742 1
gene  1 185 52 0.7077424092876705 1 9874.0 0.7077424092876705 1
gene  1 5 53 1.666282661469518 0 9884.0 1.666282661469518 1
gene  1 6 53 -1.7266718148833375 0 9885.0 -1.7266718148833375 1
gene  1 10 53 -0.3067763793398188 0 9889.0 -0.3067763793398188 1
gene  1 33 53 0.48264532163113594 0 9912.0 0.48264532163113594 1
gene  1 35 53 1.0536745062438078 0 9914.0 1.0536745062438078 1
gene  1 38 53 -0.8242172404244801 0 9917.0 -0.8242172404244801 1
gene  1 45 53 -1.2463180367817444 0 9924.0 -1.2463180367817444 1
gene  1 71 53 5.10865778485275 1 9950.0 5.10865778485275 1
gene  1 16 54 0.08201253738531822 0 10085.0 0.08201253738531822 1
gene  1 19 54 0.06605784165929696 0 10088.0 0.06605784165929696 1
gene  1 36 54 1.2948506282181413 0 10105.0 1.2948506282181413 1
gene  1 42 54 0.23476145041449037 0 10111.0 0.23476145041449037 1
gene  1 58 54 0.6829163288166542 1 10127.0 0.6829163288166542 1
gene  1 62 54 -2.848065626353379 1 10131.0 -2.848065626353379 1
gene  1 73 54 -2.472494261191947 1 10142.0 -2.472494261191947 1
gene  1 177 54 -0.624646858646516 1 10246.0 -0.624646858646516 1
gene  1 180 54 2.6711122013327335 1 10249.0 2.6711122013327335 1
gene  1 190 54 -3.2407966247195583 1 10259.0 -3.2407966247195583 1
gene  1 20 55 -1.3612232579279944 0 10279.0 -1.3612232579279944 1
gene  1 31 55 -0.3184665214584097 0 10290.0 -0.3184665214584097 1
gene  1 35 55 -2.1314131856881326 0 10294.0 -2.1314131856881326 1
gene  1 41 55 -1.5700871989225316 0 10300.0 -1.5700871989225316 1
gene  1 47 55 -0.06778702391812841 0 10306.0 -0.06778702391812841 1
gene  1 52 55 -1.409650743495488 0 10311.0 -1.409650743495488 1
gene  1 69 55 -0.31101790247050687 1 10328.0 -0.31101790247050687 1
gene  1 75 55 6.274016954887241 1 10334.0 6.274016954887241 1
gene  1 187 55 -1.5629959011832386 1 10446.0 -1.5629959011832386 1
gene  1 7 56 2.5891439253053576 0 10456.0 2.5891439253053576 1
gene  1 11 56 1.0325083753250341 0 10460.0 1.0325083753250341 1
gene  1 13 56 -0.3875033179012166 0 10462.0 -0.3875033179012166 1
gene  1 36 56 -0.12571365829374193 0 10485.0 -0.12571365829374193 1
gene  1 41 56 -1.3264322734300837 0 10490.0 -1.3264322734300837 1
gene  1 44 56 2.2011987403951885 0 10493.0 2.2011987403951885 1
gene  1 46 56 -3.3818664011404147 0 10495.0 -3.3818664011404147 1
gene  1 49 56 4.586708229106667 0 10498.0 4.586708229106667 1
gene  1 68 56 1.004234454462542 1 10517.0 1.004234454462542 1
gene  1 179 56 -0.6355874388208056 1 10628.0 -0.6355874388208056 1
gene  1 183 56 -3.469006802735655 1 10632.0 -3.469006802735655 1
gene  1 3 57 -1.0248076802696457 0 10642.0 -1.0248076802696457 1
gene  1 19 57 -3.505370494683659 0 10658.0 -3.505370494683659 1
gene  1 22 57 3.0417073333316305 0 10661.0 3.0417073333316305 1
gene  1 28 57 -0.5672590037591514 0 10667.0 -0.5672590037591514 1
gene  1 30 57 2.3038603387362304 0 10669.0 2.3038603387362304 1
gene  1 35 57 1.9145872773693136 0 10674.0 1.9145872773693136 1
gene  1 47 57 0.9468227412073085 0 10686.0 0.9468227412073085 1
gene  1 59 57 0.01756405323930177 1 10698.0 0.01756405323930177 1
gene  1 60 57 5.014773783921747 1 10699.0 5.014773783921747 1
gene  1 187 57 3.072651770843802 1 10826.0 3.072651770843802 1
gene  1 5 58 -0.023040180696900947 0 10834.0 -0.023040180696900947 1
gene  1 14 58 1.2720240855008207 0 10843.0 1.2720240855008207 1
gene  1 15 58 -3.5566267459290923 0 10844.0 -3.5566267459290923 1
gene  1 24 58 -2.661949067425074 0 10853.0 -2.661949067425074 1
gene  1 32 58 -1.8742514056006898 0 10861.0 -1.8742514056006898 1
gene  1 43 58 -2.0257657829268627 0 10872.0 -2.0257657829268627 1
gene  1 49 58 1.3221890193093733 0 10878.0 1.3221890193093733 1
gene  1 53 58 -0.35271930462984796 0 10882.0 -0.35271930462984796 1
gene  1 62 58 0.05928410940659967 1 10891.0 0.05928410940659967 1
gene  1 64 58 -0.7075567330902182 1 10893.0 -0.7075567330902182 1
gene  1 69 58 -2.0825435996739206 1 10898.0 -2.0825435996739206 1
gene  1 182 58 -1.9016621848062107 1 11011.0 -1.9016621848062107 1
gene  1 1 59 -3.8511203849405073 0 11020.0 -3.8511203849405073 1
gene  1 4 59 0.7990697394720743 0 11023.0 0.7990697394720743 1
gene  1 27 59 1.7985023736542638 0 11046.0 1.7985023736542638 1
gene  1 34 59 2.746711838215746 0 11053.0 2.746711838215746 1
gene  1 37 59 2.398639508015167 0 11056.0 2.398639508015167 1
gene  1 44 59 4.309005939374493 0 11063.0 4.309005939374493 1
gene  1 59 59 -0.8985241943735534 1 11078.0 -0.8985241943735534 1
gene  1 73 59 -5.33272372503621 1 11092.0 -5.33272372503621 1
gene  1 75 59 -4.814307886430328 1 11094.0 -4.814307886430328 1
gene  1 183 59 -3.9068910178901515 1 11202.0 -3.9068910178901515 1
gene  1 185 59 4.128223270301731 1 11204.0 4.128223270301731 1
gene  1 8 60 -1.9786839347285134 0 11217.0 -1.9786839347285134 1
gene  1 10 60 0.6432092546379897 0 11219.0 0.6432092546379897 1
gene  1 40 60 -0.8356409299511516 0 11249.0 -0.8356409299511516 1
gene  1 45 60 -0.621551415954359 0 11254.0 -0.621551415954359 1
gene  1 61 60 -0.6170722576407558 1 11270.0 -0.6170722576407558 1
gene  1 72 60 -1.6239869526934052 1 11281.0 -1.6239869526934052 1
gene  1 177 60 1.4800308794644512 1 11386.0 1.4800308794644512 1
gene  1 179 60 -0.7607273095332836 1 11388.0 -0.7607273095332836 1
gene  1 187 60 -1.9677369680470367 1 11396.0 -1.9677369680470367 1
gene  1 7 61 0.5314742957349987 0 11406.0 0.5314742957349987 1
gene  1 15 61 -3.546103594399609 0 11414.0 -3.546103594399609 1
gene  1 22 61 0.361125014999508 0 11421.0 0.361125014999508 1
gene  1 28 61 1.3735984561989723 0 11427.0 1.3735984561989723 1
gene  1 36 61 -0.7762592408669554 0 11435.0 -0.7762592408669554 1
gene  1 53 61 -0.21303719076986438 0 11452.0 -0.21303719076986438 1
gene  1 54 61 -0.1147115696508344 0 11453.0 -0.1147115696508344 1
gene  1 67 61 2.7865944370444744 1 11466.0 2.7865944370444744 1
gene  1 177 61 5.612993559458649 1 11576.0 5.612993559458649 1
gene  1 184 61 0.29970207540373817 1 11583.0 0.29970207540373817 1
gene  1 6 62 0.25883388599906176 0 11595.0 0.25883388599906176 1
gene  1 11 62 -1.4875475817545991 0 11600.0 -1.4875475817545991 1
gene  1 15 62 -1.547284695378913 0 11604.0 -1.547284695378913 1
gene  1 26 62 -3.5490609567646816 0 11615.0 -3.5490609567646816 1
gene  1 53 62 1.076701375660964 0 11642.0 1.076701375660964 1
gene  1 68 62 -1.6122656335916603 1 11657.0 -1.6122656335916603 1
gene  1 72 62 0.6799133789252965 1 11661.0 0.6799133789252965 1
gene  1 174 62 -1.3804788208224212 1 11763.0 -1.3804788208224212 1
gene  1 175 62 3.160534710166993 1 11764.0 3.160534710166993 1
gene  1 184 62 -1.6239882251149669 1 11773.0 -1.6239882251149669 1
gene  1 185 62 -1.6664380603981837 1 11774.0 -1.6664380603981837 1
gene  1 188 62 -5.2059109553496015 1 11777.0 -5.2059109553496015 1
gene  1 31 63 0.8045372136732268 0 11810.0 0.8045372136732268 1
gene  1 32 63 -0.2647915019933602 0 11811.0 -0.2647915019933602 1
gene  1 37 63 2.0980679685621664 0 11816.0 2.0980679685621664 1
gene  1 38 63 2.130338582656192 0 11817.0 2.130338582656192 1
gene  1 42 63 -1.8560582476704162 0 11821.0 -1.8560582476704162 1
gene  1 46 63 5.1368192278929055 0 11825.0 5.1368192278929055 1
gene  1 48 63 0.6663514686301379 0 11827.0 0.6663514686301379 1
gene  1 50 63 0.6095777621951779 0 11829.0 0.6095777621951779 1
gene  1 60 63 -1.1756546287045904 0 11839.0 -1.1756546287045904 1
gene  1 63 63 0.8892069977997084 1 11842.0 0.8892069977997084 1
gene  1 72 63 -0.13620611721189646 1 11851.0 -0.13620611721189646 1
gene  1 74 63 -1.6692372677450729 1 11853.0 -1.6692372677450729 1
gene  1 178 63 -0.3617066310435758 1 11957.0 -0.3617066310435758 1
gene  1 180 63 -1.8068346859793252 1 11959.0 -1.8068346859793252 1
gene  1 181 63 2.676380406340014 1 11960.0 2.676380406340014 1
gene  1 8 64 3.3012596421815994 0 11977.0 3.3012596421815994 1
gene  1 11 64 -1.4066201714743771 0 11980.0 -1.4066201714743771 1
gene  1 20 64 1.206157781050416 0 11989.0 1.206157781050416 1
gene  1 27 64 -1.2879009070041378 0 11996.0 -1.2879009070041378 1
gene  1 41 64 0.8181780828788405 0 12010.0 0.8181780828788405 1
gene  1 44 64 2.5591213010417047 0 12013.0 2.5591213010417047 1
gene  1 49 64 3.17726498504112 0 12018.0 3.17726498504112 1
gene  1 50 64 0.7103431527869066 0 12019.0 0.7103431527869066 1
gene  1 53 64 -4.827061784292607 0 12022.0 -4.827061784292607 1
gene  1 59 64 -2.03495923669096 0 12028.0 -2.03495923669096 1
gene  1 70 64 -2.5013968766721586 1 12039.0 -2.5013968766721586 1
gene  1 176 64 -0.5480055520721918 1 12145.0 -0.5480055520721918 1
gene  1 179 64 -0.9200588724665566 1 12148.0 -0.9200588724665566 1
gene  1 183 64 0.4039533819154313 1 12152.0 0.4039533819154313 1
gene  1 184 64 0.15548366170658579 1 12153.0 0.15548366170658579 1
gene  1 185 64 -2.978568390746374 1 12154.0 -2.978568390746374 1
gene  1 8 65 -1.0938040921515837 0 12167.0 -1.0938040921515837 1
gene  1 13 65 -0.8495165441008647 0 12172.0 -0.8495165441008647 1
gene  1 18 65 -3.0321263359206614 0 12177.0 -3.0321263359206614 1
gene  1 39 65 -3.93905161217399 0 12198.0 -3.93905161217399 1
gene  1 53 65 2.4737408166902797 0 12212.0 2.4737408166902797 1
gene  1 69 65 2.1870276832723716 1 12228.0 2.1870276832723716 1
gene  1 70 65 0.5064510119397441 1 12229.0 0.5064510119397441 1
gene  1 175 65 -1.1840678486674578 1 12334.0 -1.1840678486674578 1
gene  1 176 65 1.0376476021288665 1 12335.0 1.0376476021288665 1
gene  1 177 65 2.4166185998240053 1 12336.0 2.4166185998240053 1
gene  1 185 65 1.797834854911127 1 12344.0 1.797834854911127 1
gene  1 1 66 1.2922750690627656 0 12350.0 1.2922750690627656 1
gene  1 4 66 -1.4500241155177243 0 12353.0 -1.4500241155177243 1
gene  1 18 66 4.0477514738752935 0 12367.0 4.0477514738752935 1
gene  1 21 66 -1.9581364951862557 0 12370.0 -1.9581364951862557 1
gene  1 43 66 3.3316406410867416 0 12392.0 3.3316406410867416 1
gene  1 47 66 1.0066261561006786 0 12396.0 1.0066261561006786 1
gene  1 50 66 -1.993204102370247 0 12399.0 -1.993204102370247 1
gene  1 60 66 2.2659505904032744 0 12409.0 2.2659505904032744 1
gene  1 62 66 -1.7628181906104599 0 12411.0 -1.7628181906104599 1
gene  1 66 66 -0.35739417454276934 1 12415.0 -0.35739417454276934 1
gene  1 184 66 0.38111992140897266 1 12533.0 0.38111992140897266 1
gene  1 8 67 -0.4880425440825608 0 12547.0 -0.4880425440825608 1
gene  1 38 67 0.3840418413982106 0 12577.0 0.3840418413982106 1
gene  1 46 67 -5.581250460706747 0 12585.0 -5.581250460706747 1
gene  1 49 67 -1.3238576700736386 0 12588.0 -1.3238576700736386 1
gene  1 57 67 -1.9260149369504802 0 12596.0 -1.9260149369504802 1
gene  1 61 67 -1.118626682465702 0 12600.0 -1.118626682465702 1
gene  1 72 67 4.904691056930199 1 12611.0 4.904691056930199 1
gene  1 177 67 -0.9734296876408961 1 12716.0 -0.9734296876408961 1
gene  1 182 67 1.8917842104645661 1 12721.0 1.8917842104645661 1
gene  1 185 67 -0.42189495485133666 1 12724.0 -0.42189495485133666 1
gene  1 189 67 -0.8037067920223415 1 12728.0 -0.8037067920223415 1
gene  1 5 68 4.750070096307 0 12734.0 4.750070096307 1
gene  1 16 68 -1.775672993776758 0 12745.0 -1.775672993776758 1
gene  1 40 68 -3.734159264087552 0 12769.0 -3.734159264087552 1
gene  1 41 68 -4.618822226238273 0 12770.0 -4.618822226238273 1
gene  1 42 68 -1.4258580380701424 0 12771.0 -1.4258580380701424 1
gene  1 71 68 1.1499910686073245 1 12800.0 1.1499910686073245 1
gene  1 185 68 1.1439039666614095 1 12914.0 1.1439039666614095 1
gene  1 6 69 4.991157573487038 0 12925.0 4.991157573487038 1
gene  1 16 69 -3.864932720098086 0 12935.0 -3.864932720098086 1
gene  1 19 69 0.43246916101587374 0 12938.0 0.43246916101587374 1
gene  1 44 69 -2.1428976420497885 0 12963.0 -2.1428976420497885 1
gene  1 45 69 -1.268731305245247 0 12964.0 -1.268731305245247 1
gene  1 65 69 -2.9713850481152964 0 12984.0 -2.9713850481152964 1
gene  1 171 69 0.5955440100390896 1 13090.0 0.5955440100390896 1
gene  1 3 70 1.7761478761034588 0 13112.0 1.7761478761034588 1
gene  1 39 70 1.8469374136934251 0 13148.0 1.8469374136934251 1
gene  1 60 70 -4.961464865546141 0 13169.0 -4.961464865546141 1
gene  1 171 70 2.958253754519185 1 13280.0 2.958253754519185 1
gene  1 181 70 -0.33950419239920016 1 13290.0 -0.33950419239920016 1
gene  1 183 70 0.3669414406407779 1 13292.0 0.3669414406407779 1
gene  1 11 71 0.48757883362661025 0 13310.0 0.48757883362661025 1
gene  1 15 71 2.162515905708391 0 13314.0 2.162515905708391 1
gene  1 30 71 4.928565999849678 0 13329.0 4.928565999849678 1
gene  1 33 71 -1.5828689524431998 0 13332.0 -1.5828689524431998 1
gene  1 34 71 -2.1991307111289555 0 13333.0 -2.1991307111289555 1
gene  1 48 71 0.18390901178723518 0 13347.0 0.18390901178723518 1
gene  1 50 71 -1.9697908490357585 0 13349.0 -1.9697908490357585 1
gene  1 51 71 0.2904666973286769 0 13350.0 0.2904666973286769 1
gene  1 57 71 -1.5961702194699887 0 13356.0 -1.5961702194699887 1
gene  1 73 71 -5.850761020361931 1 13372.0 -5.850761020361931 1
gene  1 185 71 0.637992533508217 1 13484.0 0.637992533508217 1
gene  1 24 72 0.02748900198857407 0 13513.0 0.02748900198857407 1
gene  1 51 72 -0.05532397988908602 0 13540.0 -0.05532397988908602 1
gene  1 54 72 -0.9492641735485043 0 13543.0 -0.9492641735485043 1
gene  1 60 72 -0.3231806566324269 0 13549.0 -0.3231806566324269 1
gene  1 3 73 1.542794565367835 0 13682.0 1.542794565367835 1
gene  1 18 73 -3.5278177282136287 0 13697.0 -3.5278177282136287 1
gene  1 30 73 -3.303139840437746 0 13709.0 -3.303139840437746 1
gene  1 41 73 3.0405888557336267 0 13720.0 3.0405888557336267 1
gene  1 54 73 -2.7472309572292737 0 13733.0 -2.7472309572292737 1
gene  1 59 73 0.9570773748513204 0 13738.0 0.9570773748513204 1
gene  1 60 73 4.171028471166245 0 13739.0 4.171028471166245 1
gene  1 179 73 0.995245414699198 1 13858.0 0.995245414699198 1
gene  1 189 73 3.8577658620695483 1 13868.0 3.8577658620695483 1
gene  1 31 74 2.435028004311137 0 13900.0 2.435028004311137 1
gene  1 38 74 0.09831290426673989 0 13907.0 0.09831290426673989 1
gene  1 67 74 1.4246435201852314 0 13936.0 1.4246435201852314 1
gene  1 74 74 -1.8759831780504599 1 13943.0 -1.8759831780504599 1
gene  1 188 74 -2.2970214318364572 1 14057.0 -2.2970214318364572 1
gene  1 2 75 1.1694589859706797 0 14061.0 1.1694589859706797 1
gene  1 10 75 1.2150799563081478 0 14069.0 1.2150799563081478 1
gene  1 12 75 0.7131514413336637 0 14071.0 0.7131514413336637 1
gene  1 15 75 1.3056217586539234 0 14074.0 1.3056217586539234 1
gene  1 18 75 -2.4500214938442753 0 14077.0 -2.4500214938442753 1
gene  1 43 75 -1.561330911089585 0 14102.0 -1.561330911089585 1
gene  1 46 75 0.8963371955998555 0 14105.0 0.8963371955998555 1
gene  1 56 75 -0.2902859787815959 0 14115.0 -0.2902859787815959 1
gene  1 57 75 1.299882647139226 0 14116.0 1.299882647139226 1
gene  1 177 75 -1.2295123162812907 1 14236.0 -1.2295123162812907 1
gene  1 183 75 -1.7226160375949806 1 14242.0 -1.7226160375949806 1
gene  1 3 171 -1.0612859549907507 0 32302.0 -1.0612859549907507 1
gene  1 10 171 -1.2455728431127666 0 32309.0 -1.2455728431127666 1
gene  1 18 171 0.2601220871537273 0 32317.0 0.2601220871537273 1
gene  1 35 171 -3.228456529837155 0 32334.0 -3.228456529837155 1
gene  1 47 171 -1.671764837169067 0 32346.0 -1.671764837169067 1
gene  1 48 171 -0.021456217864604055 0 32347.0 -0.021456217864604055 1
gene  1 63 171 2.7495960448629946 0 32362.0 2.7495960448629946 1
gene  1 74 171 -0.6759722636978375 0 32373.0 -0.6759722636978375 1
gene  1 171 171 -0.7129067069418418 1 32470.0 -0.7129067069418418 1
gene  1 180 171 -2.3047988695015214 1 32479.0 -2.3047988695015214 1
gene  1 181 171 -0.22089336937827692 1 32480.0 -0.22089336937827692 1
gene  1 16 172 -0.7562406858775711 0 32505.0 -0.7562406858775711 1
gene  1 38 172 -6.104297176055261 0 32527.0 -6.104297176055261 1
gene  1 58 172 -2.6477767859066255 0 32547.0 -2.6477767859066255 1
gene  1 59 172 -0.9543639848709529 0 32548.0 -0.9543639848709529 1
gene  1 60 172 -3.9935432736051304 0 32549.0 -3.9935432736051304 1
gene  1 73 172 -2.6714753063623333 0 32562.0 -2.6714753063623333 1
gene  1 171 172 3.699094512082585 0 32660.0 3.699094512082585 1
gene  1 173 172 -1.540293616708255 1 32662.0 -1.540293616708255 1
gene  1 7 173 -3.981042049179836 0 32686.0 -3.981042049179836 1
gene  1 29 173 -1.689396034585817 0 32708.0 -1.689396034585817 1
gene  1 30 173 -0.6705766131586595 0 32709.0 -0.6705766131586595 1
gene  1 38 173 -0.21364871592765433 0 32717.0 -0.21364871592765433 1
gene  1 56 173 1.1167018638892228 0 32735.0 1.1167018638892228 1
gene  1 68 173 -3.612484852087366 0 32747.0 -3.612484852087366 1
gene  1 72 173 -1.5119591473657497 0 32751.0 -1.5119591473657497 1
gene  1 75 173 0.38856374215305955 0 32754.0 0.38856374215305955 1
gene  1 180 173 -1.4857359649814614 1 32859.0 -1.4857359649814614 1
gene  1 45 174 4.817870533693421 0 32914.0 4.817870533693421 1
gene  1 174 174 2.861745380743492 1 33043.0 2.861745380743492 1
gene  1 180 174 -1.939282256031206 1 33049.0 -1.939282256031206 1
gene  1 186 174 -4.517111735065702 1 33055.0 -4.517111735065702 1
gene  1 2 175 -0.4037112581504696 0 33061.0 -0.4037112581504696 1
gene  1 11 175 -2.5025208000550245 0 33070.0 -2.5025208000550245 1
gene  1 26 175 -2.0965456987350866 0 33085.0 -2.0965456987350866 1
gene  1 37 175 -2.758887727668123 0 33096.0 -2.758887727668123 1
gene  1 43 175 5.363487910993956 0 33102.0 5.363487910993956 1
gene  1 48 175 -0.6774276572869135 0 33107.0 -0.6774276572869135 1
gene  1 51 175 3.70314974093336 0 33110.0 3.70314974093336 1
gene  1 64 175 1.578285929045559 0 33123.0 1.578285929045559 1
gene  1 70 175 -5.803644129807643 0 33129.0 -5.803644129807643 1
gene  1 71 175 0.612741056615333 0 33130.0 0.612741056615333 1
gene  1 177 175 -0.3421324763072664 1 33236.0 -0.3421324763072664 1
gene  1 178 175 -0.8854661690716419 1 33237.0 -0.8854661690716419 1
gene  1 181 175 1.501083492260237 1 33240.0 1.501083492260237 1
gene  1 184 175 1.4549580040501453 1 33243.0 1.4549580040501453 1
gene  1 186 175 4.615719628432526 1 33245.0 4.615719628432526 1
gene  1 2 176 -1.03365417217304 0 33251.0 -1.03365417217304 1
gene  1 8 176 0.34349098238483355 0 33257.0 0.34349098238483355 1
gene  1 9 176 2.0070457088438416 0 33258.0 2.0070457088438416 1
gene  1 12 176 -2.0464493622528006 0 33261.0 -2.0464493622528006 1
gene  1 15 176 -2.174968025701122 0 33264.0 -2.174968025701122 1
gene  1 16 176 -3.4233392452433526 0 33265.0 -3.4233392452433526 1
gene  1 35 176 1.4669313600206761 0 33284.0 1.4669313600206761 1
gene  1 37 176 2.2543436901805034 0 33286.0 2.2543436901805034 1
gene  1 46 176 -1.2489116420778086 0 33295.0 -1.2489116420778086 1
gene  1 62 176 0.5465110079786943 0 33311.0 0.5465110079786943 1
gene  1 64 176 -0.8643144931540871 0 33313.0 -0.8643144931540871 1
gene  1 171 176 -1.2620515195159447 0 33420.0 -1.2620515195159447 1
gene  1 174 176 2.190712097421211 0 33423.0 2.190712097421211 1
gene  1 179 176 1.3605195898802234 1 33428.0 1.3605195898802234 1
gene  1 1 177 0.7256695246273321 0 33440.0 0.7256695246273321 1
gene  1 7 177 2.0948732525663596 0 33446.0 2.0948732525663596 1
gene  1 8 177 2.6672190929136894 0 33447.0 2.6672190929136894 1
gene  1 9 177 2.5986666016375657 0 33448.0 2.5986666016375657 1
gene  1 14 177 -4.755078850997709 0 33453.0 -4.755078850997709 1
gene  1 16 177 3.7171219405930467 0 33455.0 3.7171219405930467 1
gene  1 20 177 -0.8073379720307141 0 33459.0 -0.8073379720307141 1
gene  1 30 177 -4.1200089800551885 0 33469.0 -4.1200089800551885 1
gene  1 31 177 1.7330046301116162 0 33470.0 1.7330046301116162 1
gene  1 32 177 2.30596773466856 0 33471.0 2.30596773466856 1
gene  1 43 177 -2.014237928174737 0 33482.0 -2.014237928174737 1
gene  1 44 177 1.2678201973903116 0 33483.0 1.2678201973903116 1
gene  1 53 177 -0.5428846597323096 0 33492.0 -0.5428846597323096 1
gene  1 59 177 -6.935565550322309 0 33498.0 -6.935565550322309 1
gene  1 69 177 -1.930207310114878 0 33508.0 -1.930207310114878 1
gene  1 174 177 -2.3644205151017914 0 33613.0 -2.3644205151017914 1
gene  1 175 177 4.383447310915254 0 33614.0 4.383447310915254 1
gene  1 184 177 0.14048531012651677 1 33623.0 0.14048531012651677 1
gene  1 187 177 -1.0917194006002515 1 33626.0 -1.0917194006002515 1
gene  1 1 178 -1.6951822591508408 0 33630.0 -1.6951822591508408 1
gene  1 20 178 -0.7036793664734715 0 33649.0 -0.7036793664734715 1
gene  1 26 178 1.5498110280197408 0 33655.0 1.5498110280197408 1
gene  1 35 178 -2.1243987367057 0 33664.0 -2.1243987367057 1
gene  1 42 178 -3.034375226341526 0 33671.0 -3.034375226341526 1
gene  1 53 178 4.003273524173843 0 33682.0 4.003273524173843 1
gene  1 59 178 1.0556332975149503 0 33688.0 1.0556332975149503 1
gene  1 72 178 1.908784940055503 0 33701.0 1.908784940055503 1
gene  1 172 178 0.9170372758332049 0 33801.0 0.9170372758332049 1
gene  1 190 178 -2.508800045919346 1 33819.0 -2.508800045919346 1
gene  1 6 179 2.6152782268407875 0 33825.0 2.6152782268407875 1
gene  1 8 179 -2.328950338216486 0 33827.0 -2.328950338216486 1
gene  1 13 179 1.7022338147236042 0 33832.0 1.7022338147236042 1
gene  1 36 179 -3.2310157540279674 0 33855.0 -3.2310157540279674 1
gene  1 46 179 2.8196841156867105 0 33865.0 2.8196841156867105 1
gene  1 60 179 -2.1267518776263765 0 33879.0 -2.1267518776263765 1
gene  1 61 179 4.226704263480564 0 33880.0 4.226704263480564 1
gene  1 72 179 -2.5229161408215397 0 33891.0 -2.5229161408215397 1
gene  1 74 179 -0.9616941030589659 0 33893.0 -0.9616941030589659 1
gene  1 171 179 0.21892462102164734 0 33990.0 0.21892462102164734 1
gene  1 185 179 -1.9236563422992123 1 34004.0 -1.9236563422992123 1
gene  1 1 180 0.22378428329309014 0 34010.0 0.22378428329309014 1
gene  1 4 180 -2.171399937707916 0 34013.0 -2.171399937707916 1
gene  1 8 180 1.1530619570504195 0 34017.0 1.1530619570504195 1
gene  1 11 180 4.157225574951214 0 34020.0 4.157225574951214 1
gene  1 21 180 -1.3167408749214111 0 34030.0 -1.3167408749214111 1
gene  1 32 180 2.6663275613095356 0 34041.0 2.6663275613095356 1
gene  1 35 180 1.5447897899477796 0 34044.0 1.5447897899477796 1
gene  1 46 180 -1.406163136972325 0 34055.0 -1.406163136972325 1
gene  1 68 180 -0.8063774860646941 0 34077.0 -0.8063774860646941 1
gene  1 188 180 2.440283351385867 1 34197.0 2.440283351385867 1
gene  1 2 181 1.8084628978383357 0 34201.0 1.8084628978383357 1
gene  1 16 181 -4.153178664771591 0 34215.0 -4.153178664771591 1
gene  1 24 181 0.07181826553712356 0 34223.0 0.07181826553712356 1
gene  1 36 181 1.4072334217774713 0 34235.0 1.4072334217774713 1
gene  1 60 181 0.8578012965496677 0 34259.0 0.8578012965496677 1
gene  1 69 181 -0.4332105548019332 0 34268.0 -0.4332105548019332 1
gene  1 190 181 -0.034537584653892284 1 34389.0 -0.034537584653892284 1
gene  1 1 182 -1.989153053277014 0 34390.0 -1.989153053277014 1
gene  1 17 182 -2.472469866788662 0 34406.0 -2.472469866788662 1
gene  1 35 182 0.09197221367958752 0 34424.0 0.09197221367958752 1
gene  1 44 182 3.2058100414752224 0 34433.0 3.2058100414752224 1
gene  1 49 182 1.335683348662077 0 34438.0 1.335683348662077 1
gene  1 50 182 2.557823415164702 0 34439.0 2.557823415164702 1
gene  1 54 182 -0.7952884484921012 0 34443.0 -0.7952884484921012 1
gene  1 59 182 2.4195841106600424 0 34448.0 2.4195841106600424 1
gene  1 73 182 1.0984306687232146 0 34462.0 1.0984306687232146 1
gene  1 174 182 -3.573056978475917 0 34563.0 -3.573056978475917 1
gene  1 187 182 -1.0401729591332405 1 34576.0 -1.0401729591332405 1
gene  1 6 183 0.22402345053068107 0 34585.0 0.22402345053068107 1
gene  1 7 183 -0.12530950676281483 0 34586.0 -0.12530950676281483 1
gene  1 17 183 -1.602335478426298 0 34596.0 -1.602335478426298 1
gene  1 20 183 -0.26444694083370884 0 34599.0 -0.26444694083370884 1
gene  1 25 183 -0.5375369364024408 0 34604.0 -0.5375369364024408 1
gene  1 30 183 -1.9668680431693573 0 34609.0 -1.9668680431693573 1
gene  1 39 183 3.5509524727934836 0 34618.0 3.5509524727934836 1
gene  1 44 183 0.7665805461414528 0 34623.0 0.7665805461414528 1
gene  1 66 183 -0.572688363229838 0 34645.0 -0.572688363229838 1
gene  1 171 183 -3.005109738430428 0 34750.0 -3.005109738430428 1
gene  1 174 183 2.695003859952121 0 34753.0 2.695003859952121 1
gene  1 21 184 -2.774525433301949 0 34790.0 -2.774525433301949 1
gene  1 29 184 -3.864697320621467 0 34798.0 -3.864697320621467 1
gene  1 32 184 1.6909342057785388 0 34801.0 1.6909342057785388 1
gene  1 36 184 0.9380468367016903 0 34805.0 0.9380468367016903 1
gene  1 45 184 -1.2708624721090787 0 34814.0 -1.2708624721090787 1
gene  1 46 184 1.4634979670832824 0 34815.0 1.4634979670832824 1
gene  1 63 184 -0.4177558010397011 0 34832.0 -0.4177558010397011 1
gene  1 66 184 -1.769831536026206 0 34835.0 -1.769831536026206 1
gene  1 177 184 -1.5915835907371334 0 34946.0 -1.5915835907371334 1
gene  1 31 185 3.3610769835698564 0 34990.0 3.3610769835698564 1
gene  1 50 185 -3.646881257551636 0 35009.0 -3.646881257551636 1
gene  1 56 185 0.7725116985927567 0 35015.0 0.7725116985927567 1
gene  1 58 185 1.240782670522012 0 35017.0 1.240782670522012 1
gene  1 62 185 -0.6086376959704367 0 35021.0 -0.6086376959704367 1
gene  1 173 185 -2.417653303619019 0 35132.0 -2.417653303619019 1
gene  1 179 185 1.9077577291521244 0 35138.0 1.9077577291521244 1
gene  1 182 185 1.8886067044142578 0 35141.0 1.8886067044142578 1
gene  1 188 185 1.546076856110688 1 35147.0 1.546076856110688 1
gene  1 1 186 -0.14418958451898023 0 35150.0 -0.14418958451898023 1
gene  1 3 186 -0.3458953787686043 0 35152.0 -0.3458953787686043 1
gene  1 4 186 3.172213799158453 0 35153.0 3.172213799158453 1
gene  1 6 186 -0.7220754947159702 0 35155.0 -0.7220754947159702 1
gene  1 7 186 0.3894706828116763 0 35156.0 0.3894706828116763 1
gene  1 17 186 2.870341532887625 0 35166.0 2.870341532887625 1
gene  1 23 186 -1.7742268489787232 0 35172.0 -1.7742268489787232 1
gene  1 28 186 -1.0168049110201829 0 35177.0 -1.0168049110201829 1
gene  1 33 186 5.53807371125939 0 35182.0 5.53807371125939 1
gene  1 36 186 1.1266848572868966 0 35185.0 1.1266848572868966 1
gene  1 58 186 0.15840556125864813 0 35207.0 0.15840556125864813 1
gene  1 69 186 -0.29829253401397404 0 35218.0 -0.29829253401397404 1
gene  1 70 186 -0.22366809621374517 0 35219.0 -0.22366809621374517 1
gene  1 72 186 -1.1006153673390795 0 35221.0 -1.1006153673390795 1
gene  1 10 187 -0.9440183382981173 0 35349.0 -0.9440183382981173 1
gene  1 25 187 0.39983311203364097 0 35364.0 0.39983311203364097 1
gene  1 31 187 0.15554790269902335 0 35370.0 0.15554790269902335 1
gene  1 33 187 6.924160601314826 0 35372.0 6.924160601314826 1
gene  1 47 187 1.4988195436847125 0 35386.0 1.4988195436847125 1
gene  1 57 187 -1.7518487170373982 0 35396.0 -1.7518487170373982 1
gene  1 183 187 0.5632885947860159 0 35522.0 0.5632885947860159 1
gene  1 184 187 -1.7640120310834084 0 35523.0 -1.7640120310834084 1
gene  1 5 188 3.1880054630621393 0 35534.0 3.1880054630621393 0
gene  1 6 188 -2.153356671081 0 35535.0 -2.153356671081 1
gene  1 12 188 -0.2328230298443792 0 35541.0 -0.2328230298443792 1
gene  1 28 188 -0.9505172389403285 0 35557.0 -0.9505172389403285 1
gene  1 32 188 2.1406467769307786 0 35561.0 2.1406467769307786 1
gene  1 35 188 -0.7946140017383391 0 35564.0 -0.7946140017383391 1
gene  1 57 188 3.9778821372125477 0 35586.0 3.9778821372125477 1
gene  1 172 188 1.7042014545690918 0 35701.0 1.7042014545690918 1
gene  1 14 189 0.2502721456727681 0 35733.0 0.2502721456727681 1
gene  1 17 189 0.2623326319124515 0 35736.0 0.2623326319124515 1
gene  1 27 189 -1.6529843276629301 0 35746.0 -1.6529843276629301 1
gene  1 37 189 0.02874632009554834 0 35756.0 0.02874632009554834 1
gene  1 43 189 -1.121472839600369 0 35762.0 -1.121472839600369 1
gene  1 51 189 0.04484828289839565 0 35770.0 0.04484828289839565 1
gene  1 56 189 0.32189558792327017 0 35775.0 0.32189558792327017 1
gene  1 59 189 2.4982481861364816 0 35778.0 2.4982481861364816 1
gene  1 65 189 2.3073421528720957 0 35784.0 2.3073421528720957 1
gene  1 73 189 0.07461503852032081 0 35792.0 0.07461503852032081 1
gene  1 74 189 1.9614891893693922 0 35793.0 1.9614891893693922 1
gene  1 178 189 -0.6601182849274188 0 35897.0 -0.6601182849274188 1
gene  1 1 190 -1.839120131558754 0 35910.0 -1.839120131558754 0
gene  1 4 190 0.7822379475261001 0 35913.0 0.7822379475261001 1
gene  1 15 190 3.813538837050449 0 35924.0 3.813538837050449 1
gene  1 22 190 2.143749878281087 0 35931.0 2.143749878281087 1
gene  1 33 190 -1.9384625680146956 0 35942.0 -1.9384625680146956 1
gene  1 58 190 -0.26779584417411995 0 35967.0 -0.26779584417411995 1
gene  1 60 190 2.340570520449884 0 35969.0 2.340570520449884 1
gene  1 67 190 -1.1107997805458265 0 35976.0 -1.1107997805458265 1
gene  1 179 190 -2.17823214877855 0 36088.0 -2.17823214877855 1
gene  1 181 190 4.538307501192143 0 36090.0 4.538307501192143 1
gene  1 182 190 -1.3037595045274375 0 36091.0 -1.3037595045274375 1
gene  1 184 190 -1.752177892645696 0 36093.0 -1.752177892645696 1
gene  1 186 190 1.5093733965401963 0 36095.0 1.5093733965401963 1
gene  1 187 190 2.2743574096263535 0 36096.0 2.2743574096263535 1
gene  1 65 188 -5.573474618328101 0 36109.0 -5.573474618328101 1
genomeend 2
/* Organism # 003 Fitness:  1494,299 Error:  1000,000                      */
genomestart  3
trait 1 0.11021815520324857 0.0 0.0 0.0 0.0 0.0 0.0 0.17449252573720908 
node 1 1 1 1
node 2 1 1 1
node 3 1 1 1
node 4 1 1 1
node 5 1 1 1
node 6 1 1 1
node 7 1 1 1
node 8 1 1 1
node 9 1 1 1
node 10 1 1 1
node 11 1 1 1
node 12 1 1 1
node 13 1 1 1
node 14 1 1 1
node 15 1 1 1
node 16 1 1 1
node 17 1 1 1
node 18 1 1 1
node 19 1 1 1
node 20 1 1 1
node 21 1 1 1
node 22 1 1 1
node 23 1 1 1
node 24 1 1 1
node 25 1 1 1
node 26 1 1 1
node 27 1 1 1
node 28 1 1 1
node 29 1 1 1
node 30 1 1 1
node 31 1 1 1
node 32 1 1 1
node 33 1 1 1
node 34 1 1 1
node 35 1 1 1
node 36 1 1 1
node 37 1 1 1
node 38 1 1 1
node 39 1 1 1
node 40 1 1 1
node 41 1 1 1
node 42 1 1 1
node 43 1 1 1
node 44 1 1 1
node 45 1 1 1
node 46 1 1 1
node 47 1 1 1
node 48 1 1 1
node 49 1 1 1
node 50 1 1 3
node 51 1 0 0
node 52 1 0 0
node 53 1 0 0
node 54 1 0 0
node 55 1 0 0
node 56 1 0 0
node 57 1 0 0
node 58 1 0 0
node 59 1 0 0
node 60 1 0 0
node 61 1 0 0
node 62 1 0 0
node 63 1 0 0
node 64 1 0 0
node 65 1 0 0
node 66 1 0 0
node 67 1 0 0
node 68 1 0 0
node 69 1 0 0
node 70 1 0 0
node 71 1 0 0
node 72 1 0 0
node 73 1 0 0
node 74 1 0 0
node 75 1 0 0
node 171 1 0 2
node 172 1 0 2
node 173 1 0 2
node 174 1 0 2
node 175 1 0 2
node 176 1 0 2
node 177 1 0 2
node 178 1 0 2
node 179 1 0 2
node 180 1 0 2
node 181 1 0 2
node 182 1 0 2
node 183 1 0 2
node 184 1 0 2
node 185 1 0 2
node 186 1 0 2
node 187 1 0 2
node 188 1 0 2
node 189 1 0 2
node 190 1 0 2
node 193 1 0 0
gene  1 28 51 -0.5092882644829619 0 9527.0 -0.5092882644829619 1
gene  1 33 51 -2.665929483086771 0 9532.0 -2.665929483086771 1
gene  1 36 51 1.2630868840786953 0 9535.0 1.2630868840786953 1
gene  1 40 51 -0.11719428782284103 0 9539.0 -0.11719428782284103 1
gene  1 42 51 0.821811192410443 0 9541.0 0.821811192410443 1
gene  1 54 51 -2.0697826456382327 1 9553.0 -2.0697826456382327 1
gene  1 57 51 -0.9633189225451555 1 9556.0 -0.9633189225451555 1
gene  1 68 51 -1.8864283191070652 1 9567.0 -1.8864283191070652 1
gene  1 174 51 -2.649339086289574 1 9673.0 -2.649339086289574 1
gene  1 183 51 2.0986942037267147 1 9682.0 2.0986942037267147 1
gene  1 184 51 -0.07456525129178448 1 9683.0 -0.07456525129178448 1
gene  1 189 51 0.14055316860143857 1 9688.0 0.14055316860143857 1
gene  1 3 52 0.11400618157871162 0 9692.0 0.11400618157871162 1
