/* Species # 001         : (size= 003) (AvfFit= 1255,810) (Age= 110,000)  */
/*-------------------------------------------------------------------*/
/* Organism # 000 Fitness:  1159,161 Error:  1000,000                      */
genomestart  0
trait 1 0.570203125745586 2.793472167381984 0.0 0.14719568934147265 0.06482915549958135 0.6291198492279415 0.8495928105654097 0.5100526349364269 
node 1 1 1 1
node 2 1 1 1
node 3 1 1 1
node 4 1 1 1
node 5 1 1 1
node 6 1 1 1
node 7 1 1 1
node 8 1 1 1
node 9 1 1 1
node 10 1 1 1
node 11 1 1 1
node 12 1 1 1
node 13 1 1 1
node 14 1 1 1
node 15 1 1 1
node 16 1 1 1
node 17 1 1 1
node 18 1 1 1
node 19 1 1 1
node 20 1 1 1
node 21 1 1 1
node 22 1 1 1
node 23 1 1 1
node 24 1 1 1
node 25 1 1 1
node 26 1 1 1
node 27 1 1 1
node 28 1 1 1
node 29 1 1 1
node 30 1 1 1
node 31 1 1 1
node 32 1 1 1
node 33 1 1 1
node 34 1 1 1
node 35 1 1 1
node 36 1 1 1
node 37 1 1 1
node 38 1 1 1
node 39 1 1 1
node 40 1 1 1
node 41 1 1 1
node 42 1 1 1
node 43 1 1 1
node 44 1 1 1
node 45 1 1 1
node 46 1 1 1
node 47 1 1 1
node 48 1 1 1
node 49 1 1 1
node 50 1 1 3
node 51 1 0 0
node 52 1 0 0
node 53 1 0 0
node 54 1 0 0
node 55 1 0 0
node 56 1 0 0
node 57 1 0 0
node 58 1 0 0
node 59 1 0 0
node 60 1 0 0
node 61 1 0 0
node 62 1 0 0
node 63 1 0 0
node 64 1 0 0
node 65 1 0 0
node 66 1 0 0
node 67 1 0 0
node 68 1 0 0
node 69 1 0 0
node 70 1 0 0
node 71 1 0 0
node 72 1 0 0
node 73 1 0 0
node 74 1 0 0
node 75 1 0 0
node 171 1 0 2
node 172 1 0 2
node 173 1 0 2
node 174 1 0 2
node 175 1 0 2
node 176 1 0 2
node 177 1 0 2
node 178 1 0 2
node 179 1 0 2
node 180 1 0 2
node 181 1 0 2
node 182 1 0 2
node 183 1 0 2
node 184 1 0 2
node 185 1 0 2
node 186 1 0 2
node 187 1 0 2
node 188 1 0 2
node 189 1 0 2
node 190 1 0 2
node 193 1 0 0
node 234 1 0 0
node 257 1 0 0
gene  1 28 51 3.622103997336175 0 9527.0 3.622103997336175 1
gene  1 33 51 2.7051330000701146 0 9532.0 2.7051330000701146 1
gene  1 36 51 -4.203894121168611 0 9535.0 -4.203894121168611 1
gene  1 40 51 0.7680864346523959 0 9539.0 0.7680864346523959 1
gene  1 42 51 2.30961200428917 0 9541.0 2.30961200428917 1
gene  1 54 51 2.3641565417200865 1 9553.0 2.3641565417200865 1
gene  1 57 51 -4.21388060829736 1 9556.0 -4.21388060829736 1
gene  1 68 51 2.0598982818060163 1 9567.0 2.0598982818060163 1
gene  1 174 51 -2.4248786794391197 1 9673.0 -2.4248786794391197 1
gene  1 183 51 1.902164441006783 1 9682.0 1.902164441006783 1
gene  1 184 51 3.2373952685213516 1 9683.0 3.2373952685213516 1
gene  1 189 51 -0.4505583964626594 1 9688.0 -0.4505583964626594 1
gene  1 3 52 1.9629344113285805 0 9692.0 1.9629344113285805 1
gene  1 6 52 1.4460716678911827 0 9695.0 1.4460716678911827 1
gene  1 24 52 1.1637586730940326 0 9713.0 1.1637586730940326 1
gene  1 29 52 6.5598606586279535 0 9718.0 6.5598606586279535 1
gene  1 31 52 -2.29992372570155 0 9720.0 -2.29992372570155 1
gene  1 35 52 -3.5428480016184754 0 9724.0 -3.5428480016184754 1
gene  1 63 52 6.1968981493407895 1 9752.0 6.1968981493407895 1
gene  1 179 52 2.7988537199190544 1 9868.0 2.7988537199190544 1
gene  1 183 52 -11.221100641036251 1 9872.0 -11.221100641036251 1
gene  1 184 52 -9.104422232033558 1 9873.0 -9.104422232033558 1
gene  1 185 52 1.072878692380817 1 9874.0 1.072878692380817 1
gene  1 5 53 0.8456466778692291 0 9884.0 0.8456466778692291 1
gene  1 6 53 -3.8089362253341585 0 9885.0 -3.8089362253341585 1
gene  1 10 53 10.14879454963882 0 9889.0 10.14879454963882 1
gene  1 33 53 1.695680386946695 0 9912.0 1.695680386946695 1
gene  1 35 53 3.267303825202239 0 9914.0 3.267303825202239 0
gene  1 38 53 -0.12200392149231165 0 9917.0 -0.12200392149231165 1
gene  1 45 53 -3.542228938440591 0 9924.0 -3.542228938440591 1
gene  1 71 53 1.321355967081869 1 9950.0 1.321355967081869 1
gene  1 16 54 -2.487469786069182 0 10085.0 -2.487469786069182 1
gene  1 19 54 5.02111475589688 0 10088.0 5.02111475589688 1
gene  1 36 54 -4.470851864712362 0 10105.0 -4.470851864712362 1
gene  1 42 54 -7.417490808322308 0 10111.0 -7.417490808322308 1
gene  1 58 54 -0.43900950659986626 1 10127.0 -0.43900950659986626 1
gene  1 62 54 0.6359719605527543 1 10131.0 0.6359719605527543 1
gene  1 73 54 3.4630373692401126 1 10142.0 3.4630373692401126 1
gene  1 177 54 3.1992856232111353 1 10246.0 3.1992856232111353 1
gene  1 180 54 0.37639706488307123 1 10249.0 0.37639706488307123 1
gene  1 190 54 3.6406701546011986 1 10259.0 3.6406701546011986 1
gene  1 20 55 2.141469399467817 0 10279.0 2.141469399467817 1
gene  1 31 55 -4.8253935399438115 0 10290.0 -4.8253935399438115 1
gene  1 35 55 -2.6367203341181567 0 10294.0 -2.6367203341181567 1
gene  1 41 55 2.677394633945043 0 10300.0 2.677394633945043 1
gene  1 47 55 7.110640761876484 0 10306.0 7.110640761876484 1
gene  1 52 55 1.7762064026260154 0 10311.0 1.7762064026260154 1
gene  1 69 55 -4.890969728300487 1 10328.0 -4.890969728300487 1
gene  1 75 55 1.6962576335492405 1 10334.0 1.6962576335492405 1
gene  1 187 55 -0.6351739889158974 1 10446.0 -0.6351739889158974 1
gene  1 7 56 1.0966313141141153 0 10456.0 1.0966313141141153 1
gene  1 11 56 0.5027944591209539 0 10460.0 0.5027944591209539 1
gene  1 13 56 1.936047020278954 0 10462.0 1.936047020278954 1
gene  1 36 56 5.657158279485513 0 10485.0 5.657158279485513 1
gene  1 41 56 3.9655085550349765 0 10490.0 3.9655085550349765 1
gene  1 44 56 3.6085933598853517 0 10493.0 3.6085933598853517 1
gene  1 46 56 -5.560661617576081 0 10495.0 -5.560661617576081 1
gene  1 49 56 1.6387169512906823 0 10498.0 1.6387169512906823 1
gene  1 68 56 -0.4832771647790677 1 10517.0 -0.4832771647790677 1
gene  1 179 56 -1.230941948650011 1 10628.0 -1.230941948650011 1
gene  1 183 56 -2.21991299952036 1 10632.0 -2.21991299952036 1
gene  1 3 57 9.40594978635676 0 10642.0 9.40594978635676 1
gene  1 19 57 -3.4942029588761008 0 10658.0 -3.4942029588761008 1
gene  1 22 57 1.3193331921761715 0 10661.0 1.3193331921761715 1
gene  1 28 57 2.531044414212844 0 10667.0 2.531044414212844 1
gene  1 30 57 -0.776353798117241 0 10669.0 -0.776353798117241 1
gene  1 35 57 1.5799459551294666 0 10674.0 1.5799459551294666 1
gene  1 47 57 -3.085316429759959 0 10686.0 -3.085316429759959 1
gene  1 59 57 -3.1350637040508484 1 10698.0 -3.1350637040508484 1
gene  1 60 57 6.483152486677815 1 10699.0 6.483152486677815 1
gene  1 187 57 -15.022511361248588 1 10826.0 -15.022511361248588 1
gene  1 5 58 -6.55754098405184 0 10834.0 -6.55754098405184 1
gene  1 14 58 0.1655971385378061 0 10843.0 0.1655971385378061 1
gene  1 15 58 -8.374450664342357 0 10844.0 -8.374450664342357 1
gene  1 24 58 -15.447078191080694 0 10853.0 -15.447078191080694 1
gene  1 32 58 5.879150392043307 0 10861.0 5.879150392043307 1
gene  1 43 58 -3.8488698510730677 0 10872.0 -3.8488698510730677 1
gene  1 49 58 2.8520806064629682 0 10878.0 2.8520806064629682 1
gene  1 53 58 -1.6475159962082861 0 10882.0 -1.6475159962082861 1
gene  1 62 58 4.797042269989664 1 10891.0 4.797042269989664 1
gene  1 64 58 -2.8877338709480975 1 10893.0 -2.8877338709480975 1
gene  1 69 58 0.22783561840904154 1 10898.0 0.22783561840904154 1
gene  1 182 58 1.8944805368007178 1 11011.0 1.8944805368007178 1
gene  1 1 59 6.310657811039087 0 11020.0 6.310657811039087 1
gene  1 4 59 6.857574471928974 0 11023.0 6.857574471928974 1
gene  1 27 59 -3.9756731524262023 0 11046.0 -3.9756731524262023 1
gene  1 34 59 0.32861097709920917 0 11053.0 0.32861097709920917 1
gene  1 37 59 -2.363934189629746 0 11056.0 -2.363934189629746 1
gene  1 44 59 4.759157741536448 0 11063.0 4.759157741536448 1
gene  1 59 59 -6.519732187884256 1 11078.0 -6.519732187884256 1
gene  1 73 59 -7.08801095330454 1 11092.0 -7.08801095330454 1
gene  1 75 59 0.31304251766841995 1 11094.0 0.31304251766841995 1
gene  1 183 59 -4.672600094867691 1 11202.0 -4.672600094867691 1
gene  1 185 59 9.012370202979316 1 11204.0 9.012370202979316 1
gene  1 8 60 0.04174311705665179 0 11217.0 0.04174311705665179 1
gene  1 10 60 1.202925540378896 0 11219.0 1.202925540378896 1
gene  1 40 60 1.9377267783915226 0 11249.0 1.9377267783915226 1
gene  1 45 60 4.021157112347455 0 11254.0 4.021157112347455 1
gene  1 61 60 2.1620934496194266 1 11270.0 2.1620934496194266 1
gene  1 72 60 -2.7760226032503175 1 11281.0 -2.7760226032503175 1
gene  1 177 60 6.028619331013296 1 11386.0 6.028619331013296 1
gene  1 179 60 6.9966691428639685 1 11388.0 6.9966691428639685 1
gene  1 187 60 2.2387911808164 1 11396.0 2.2387911808164 1
gene  1 7 61 -6.51521538869291 0 11406.0 -6.51521538869291 1
gene  1 15 61 1.7563187854015474 0 11414.0 1.7563187854015474 1
gene  1 22 61 6.274264007962529 0 11421.0 6.274264007962529 1
gene  1 28 61 -2.8966920774896465 0 11427.0 -2.8966920774896465 1
gene  1 36 61 -5.354137165306323 0 11435.0 -5.354137165306323 1
gene  1 53 61 -1.1966139377743858 0 11452.0 -1.1966139377743858 1
gene  1 54 61 7.926770262133032 0 11453.0 7.926770262133032 1
gene  1 67 61 3.6210037534759145 1 11466.0 3.6210037534759145 1
gene  1 177 61 -6.661700310970206 1 11576.0 -6.661700310970206 1
gene  1 184 61 -5.227849568126265 1 11583.0 -5.227849568126265 1
gene  1 6 62 4.1543591618779345 0 11595.0 4.1543591618779345 1
gene  1 11 62 5.214161133589565 0 11600.0 5.214161133589565 1
gene  1 15 62 -0.8661741960533509 0 11604.0 -0.8661741960533509 1
gene  1 26 62 -0.0015097788388733768 0 11615.0 -0.0015097788388733768 1
gene  1 53 62 2.154328012448697 0 11642.0 2.154328012448697 1
gene  1 68 62 -0.9176240035785839 1 11657.0 -0.9176240035785839 1
gene  1 72 62 -14.912126708679935 1 11661.0 -14.912126708679935 1
gene  1 174 62 1.5206935499874286 1 11763.0 1.5206935499874286 1
gene  1 175 62 -6.217675495283681 1 11764.0 -6.217675495283681 1
gene  1 184 62 -5.519717037735437 1 11773.0 -5.519717037735437 1
gene  1 185 62 -6.636318843226636 1 11774.0 -6.636318843226636 1
gene  1 188 62 -3.1752773279657474 1 11777.0 -3.1752773279657474 1
gene  1 31 63 1.9379238775427952 0 11810.0 1.9379238775427952 1
gene  1 32 63 -2.1354183403664084 0 11811.0 -2.1354183403664084 1
gene  1 37 63 -1.0641305059103725 0 11816.0 -1.0641305059103725 1
gene  1 38 63 1.9445874974481696 0 11817.0 1.9445874974481696 1
gene  1 42 63 -5.332275409239444 0 11821.0 -5.332275409239444 1
gene  1 46 63 -1.9224449995553279 0 11825.0 -1.9224449995553279 1
gene  1 48 63 0.7052302819188723 0 11827.0 0.7052302819188723 1
gene  1 50 63 13.44964505058895 0 11829.0 13.44964505058895 1
gene  1 60 63 6.260962904634968 0 11839.0 6.260962904634968 1
gene  1 63 63 6.05499081770344 1 11842.0 6.05499081770344 1
gene  1 72 63 6.226926055326584 1 11851.0 6.226926055326584 1
gene  1 74 63 2.3847408438271698 1 11853.0 2.3847408438271698 1
gene  1 178 63 5.940762530363813 1 11957.0 5.940762530363813 1
gene  1 180 63 -0.027806134415203076 1 11959.0 -0.027806134415203076 1
gene  1 181 63 -3.9657260754982224 1 11960.0 -3.9657260754982224 1
gene  1 8 64 -0.07920194198489039 0 11977.0 -0.07920194198489039 1
gene  1 11 64 3.346592430046034 0 11980.0 3.346592430046034 1
gene  1 20 64 -0.21368308381526457 0 11989.0 -0.21368308381526457 1
gene  1 27 64 3.201061990735413 0 11996.0 3.201061990735413 1
gene  1 41 64 0.036725817091115776 0 12010.0 0.036725817091115776 1
gene  1 44 64 0.968587438306494 0 12013.0 0.968587438306494 1
gene  1 49 64 -3.1355140502119383 0 12018.0 -3.1355140502119383 1
gene  1 50 64 0.5157714321986788 0 12019.0 0.5157714321986788 1
gene  1 53 64 6.8327817493799845 0 12022.0 6.8327817493799845 1
gene  1 59 64 0.47912634197864157 0 12028.0 0.47912634197864157 1
gene  1 70 64 -1.0646892880097558 1 12039.0 -1.0646892880097558 1
gene  1 176 64 -2.6447130125781744 1 12145.0 -2.6447130125781744 1
gene  1 179 64 -4.798668449089731 1 12148.0 -4.798668449089731 1
gene  1 183 64 -0.585543909830004 1 12152.0 -0.585543909830004 1
gene  1 184 64 -2.8941147256617707 1 12153.0 -2.8941147256617707 1
gene  1 185 64 -4.428526125912905 1 12154.0 -4.428526125912905 1
gene  1 8 65 -2.9568425621420262 0 12167.0 -2.9568425621420262 1
gene  1 13 65 1.834975917232854 0 12172.0 1.834975917232854 1
gene  1 18 65 -1.1527915916253564 0 12177.0 -1.1527915916253564 1
gene  1 39 65 2.079769913686495 0 12198.0 2.079769913686495 1
gene  1 53 65 1.8409526351842167 0 12212.0 1.8409526351842167 1
gene  1 69 65 0.9582845715467414 1 12228.0 0.9582845715467414 1
gene  1 70 65 3.1226455232447643 1 12229.0 3.1226455232447643 1
gene  1 175 65 2.759035573671495 1 12334.0 2.759035573671495 1
gene  1 176 65 -5.115229953605167 1 12335.0 -5.115229953605167 1
gene  1 177 65 -5.462841626139447 1 12336.0 -5.462841626139447 1
gene  1 185 65 -1.9709973598369204 1 12344.0 -1.9709973598369204 1
gene  1 1 66 -3.0650116073663627 0 12350.0 -3.0650116073663627 1
gene  1 4 66 -0.8650808635708547 0 12353.0 -0.8650808635708547 1
gene  1 18 66 3.7167567688471146 0 12367.0 3.7167567688471146 1
gene  1 21 66 -1.8116292350841445 0 12370.0 -1.8116292350841445 1
gene  1 43 66 8.584742348159224 0 12392.0 8.584742348159224 1
gene  1 47 66 0.4695151186518338 0 12396.0 0.4695151186518338 1
gene  1 50 66 -3.9663783906446373 0 12399.0 -3.9663783906446373 1
gene  1 60 66 -3.0258115356770507 0 12409.0 -3.0258115356770507 1
gene  1 62 66 2.518106490997375 0 12411.0 2.518106490997375 1
gene  1 66 66 -3.242079301388364 1 12415.0 -3.242079301388364 1
gene  1 184 66 6.581617140508278 1 12533.0 6.581617140508278 1
gene  1 8 67 -1.3141050453068868 0 12547.0 -1.3141050453068868 1
gene  1 38 67 2.6823211208295987 0 12577.0 2.6823211208295987 1
gene  1 46 67 -1.5538560169050395 0 12585.0 -1.5538560169050395 1
gene  1 49 67 -0.8849866705770948 0 12588.0 -0.8849866705770948 1
gene  1 57 67 -4.646049704710155 0 12596.0 -4.646049704710155 1
gene  1 61 67 -8.460061116195796 0 12600.0 -8.460061116195796 1
gene  1 72 67 -3.789300482976691 1 12611.0 -3.789300482976691 1
gene  1 177 67 -1.2152232826656415 1 12716.0 -1.2152232826656415 1
gene  1 182 67 -6.983954854168428 1 12721.0 -6.983954854168428 1
gene  1 185 67 -0.05073184234818484 1 12724.0 -0.05073184234818484 1
gene  1 189 67 -2.210427504210463 1 12728.0 -2.210427504210463 1
gene  1 5 68 -0.09575346231926307 0 12734.0 -0.09575346231926307 1
gene  1 16 68 -4.579712537084765 0 12745.0 -4.579712537084765 1
gene  1 40 68 3.0105504879324503 0 12769.0 3.0105504879324503 1
gene  1 41 68 7.923511420421291 0 12770.0 7.923511420421291 1
gene  1 42 68 -4.939538375125253 0 12771.0 -4.939538375125253 1
gene  1 71 68 3.524090580430321 1 12800.0 3.524090580430321 1
gene  1 185 68 -1.4450894682613893 1 12914.0 -1.4450894682613893 1
gene  1 6 69 2.5940156320936683 0 12925.0 2.5940156320936683 1
gene  1 16 69 -0.8085456171398895 0 12935.0 -0.8085456171398895 1
gene  1 19 69 -5.862624869537859 0 12938.0 -5.862624869537859 1
gene  1 44 69 -4.437681088540294 0 12963.0 -4.437681088540294 1
gene  1 45 69 1.225780311786132 0 12964.0 1.225780311786132 1
gene  1 65 69 3.100071660155347 0 12984.0 3.100071660155347 1
gene  1 171 69 3.7027078725869034 1 13090.0 3.7027078725869034 1
gene  1 3 70 -0.555202981924803 0 13112.0 -0.555202981924803 1
gene  1 39 70 0.4664204911776424 0 13148.0 0.4664204911776424 1
gene  1 60 70 5.427476491072744 0 13169.0 5.427476491072744 1
gene  1 171 70 -10.108127856997434 1 13280.0 -10.108127856997434 1
gene  1 181 70 -0.10559798953778654 1 13290.0 -0.10559798953778654 1
gene  1 183 70 3.5781157272224546 1 13292.0 3.5781157272224546 1
gene  1 11 71 -1.9900437560771571 0 13310.0 -1.9900437560771571 1
gene  1 15 71 1.2805956282697262 0 13314.0 1.2805956282697262 1
gene  1 30 71 6.227729726607112 0 13329.0 6.227729726607112 1
gene  1 33 71 10.049205480659321 0 13332.0 10.049205480659321 1
gene  1 34 71 0.25541495714928075 0 13333.0 0.25541495714928075 1
gene  1 48 71 -1.409080418318545 0 13347.0 -1.409080418318545 1
gene  1 50 71 1.6314711314685129 0 13349.0 1.6314711314685129 1
gene  1 51 71 -8.298253176624538 0 13350.0 -8.298253176624538 1
gene  1 57 71 -0.7517734076473486 0 13356.0 -0.7517734076473486 1
gene  1 73 71 -0.04010910669349904 1 13372.0 -0.04010910669349904 1
gene  1 185 71 -1.0512742010989065 1 13484.0 -1.0512742010989065 1
gene  1 24 72 4.743291825510209 0 13513.0 4.743291825510209 1
gene  1 51 72 -2.9523218288076873 0 13540.0 -2.9523218288076873 1
gene  1 54 72 -1.1269837969430156 0 13543.0 -1.1269837969430156 1
gene  1 60 72 0.9898791894389312 0 13549.0 0.9898791894389312 1
gene  1 3 73 -0.9949408300793348 0 13682.0 -0.9949408300793348 1
gene  1 18 73 3.6175287219504186 0 13697.0 3.6175287219504186 1
gene  1 30 73 3.5403002496341682 0 13709.0 3.5403002496341682 1
gene  1 41 73 1.9260979820365023 0 13720.0 1.9260979820365023 1
gene  1 54 73 -6.925331344202288 0 13733.0 -6.925331344202288 1
gene  1 59 73 3.6399564674843683 0 13738.0 3.6399564674843683 1
gene  1 60 73 5.273667347667461 0 13739.0 5.273667347667461 1
gene  1 179 73 0.23577895916824376 1 13858.0 0.23577895916824376 1
gene  1 189 73 -1.0048271018742947 1 13868.0 -1.0048271018742947 1
gene  1 31 74 4.969170063535146 0 13900.0 4.969170063535146 1
gene  1 38 74 -21.929922252135384 0 13907.0 -21.929922252135384 1
gene  1 67 74 -7.464688153884158 0 13936.0 -7.464688153884158 1
gene  1 74 74 5.333349406058765 1 13943.0 5.333349406058765 1
gene  1 188 74 6.100160888926869 1 14057.0 6.100160888926869 1
gene  1 2 75 0.22336478512683766 0 14061.0 0.22336478512683766 1
gene  1 10 75 1.1549609158144019 0 14069.0 1.1549609158144019 1
gene  1 12 75 6.415580808111318 0 14071.0 6.415580808111318 1
gene  1 15 75 -2.5952711004362357 0 14074.0 -2.5952711004362357 1
gene  1 18 75 -7.5703519411583065 0 14077.0 -7.5703519411583065 1
gene  1 43 75 3.074343336904459 0 14102.0 3.074343336904459 1
gene  1 46 75 -3.727199159369796 0 14105.0 -3.727199159369796 1
gene  1 56 75 9.500043570651117 0 14115.0 9.500043570651117 1
gene  1 57 75 6.244919584744112 0 14116.0 6.244919584744112 1
gene  1 177 75 7.359371071859325 1 14236.0 7.359371071859325 1
gene  1 183 75 1.483789134521389 1 14242.0 1.483789134521389 1
gene  1 3 171 1.9176192135506729 0 32302.0 1.9176192135506729 1
gene  1 10 171 -3.988140344243754 0 32309.0 -3.988140344243754 1
gene  1 18 171 6.512323963345488 0 32317.0 6.512323963345488 1
gene  1 35 171 -0.23623121755272658 0 32334.0 -0.23623121755272658 1
gene  1 47 171 14.826219896663325 0 32346.0 14.826219896663325 1
gene  1 48 171 -5.040287875116584 0 32347.0 -5.040287875116584 1
gene  1 63 171 -0.3486829157439213 0 32362.0 -0.3486829157439213 1
gene  1 74 171 -0.3294215992969266 0 32373.0 -0.3294215992969266 1
gene  1 171 171 4.16677980670724 1 32470.0 4.16677980670724 1
gene  1 180 171 -10.110615728277889 1 32479.0 -10.110615728277889 1
gene  1 181 171 5.535131180239355 1 32480.0 5.535131180239355 1
gene  1 16 172 1.9544876537615723 0 32505.0 1.9544876537615723 1
gene  1 38 172 -3.2398176823652594 0 32527.0 -3.2398176823652594 1
gene  1 58 172 -6.092872556058302 0 32547.0 -6.092872556058302 1
gene  1 59 172 -1.3989953400298516 0 32548.0 -1.3989953400298516 1
gene  1 60 172 5.27177382745297 0 32549.0 5.27177382745297 1
gene  1 73 172 10.122991194255668 0 32562.0 10.122991194255668 1
gene  1 171 172 -2.996937054377921 0 32660.0 -2.996937054377921 1
gene  1 173 172 2.6984187041940655 1 32662.0 2.6984187041940655 1
gene  1 7 173 -3.115688360488105 0 32686.0 -3.115688360488105 1
gene  1 29 173 2.6110570748173556 0 32708.0 2.6110570748173556 1
gene  1 30 173 1.324383208043236 0 32709.0 1.324383208043236 1
gene  1 38 173 0.5973398141552064 0 32717.0 0.5973398141552064 1
gene  1 56 173 -10.290592218355302 0 32735.0 -10.290592218355302 1
gene  1 68 173 0.2788943270980533 0 32747.0 0.2788943270980533 1
gene  1 72 173 1.3309735238411144 0 32751.0 1.3309735238411144 1
gene  1 75 173 -6.3903245974758525 0 32754.0 -6.3903245974758525 1
gene  1 180 173 5.703606010399347 1 32859.0 5.703606010399347 1
gene  1 45 174 14.136624149827336 0 32914.0 14.136624149827336 1
gene  1 174 174 0.2524031907391486 1 33043.0 0.2524031907391486 1
gene  1 180 174 -0.9702688810442277 1 33049.0 -0.9702688810442277 1
gene  1 186 174 -0.628272463815206 1 33055.0 -0.628272463815206 1
gene  1 2 175 -3.0373049599210287 0 33061.0 -3.0373049599210287 1
gene  1 11 175 -3.590110898545086 0 33070.0 -3.590110898545086 1
gene  1 26 175 -2.6042680032156533 0 33085.0 -2.6042680032156533 1
gene  1 37 175 1.5038129932760487 0 33096.0 1.5038129932760487 1
gene  1 43 175 -0.4787193422765193 0 33102.0 -0.4787193422765193 1
gene  1 48 175 2.8129986988298556 0 33107.0 2.8129986988298556 1
gene  1 51 175 20.67578849472684 0 33110.0 20.67578849472684 1
gene  1 64 175 -2.6728450627574425 0 33123.0 -2.6728450627574425 1
gene  1 70 175 2.47098154511153 0 33129.0 2.47098154511153 1
gene  1 71 175 -7.213934350185744 0 33130.0 -7.213934350185744 1
gene  1 177 175 0.7125283939700027 1 33236.0 0.7125283939700027 1
gene  1 178 175 5.725892463361002 1 33237.0 5.725892463361002 1
gene  1 181 175 0.9095949081410772 1 33240.0 0.9095949081410772 1
gene  1 184 175 2.762346957019148 1 33243.0 2.762346957019148 1
gene  1 186 175 6.267707067802919 1 33245.0 6.267707067802919 1
gene  1 2 176 1.250605163592757 0 33251.0 1.250605163592757 1
gene  1 8 176 -0.1499470046419895 0 33257.0 -0.1499470046419895 1
gene  1 9 176 -16.84809020365432 0 33258.0 -16.84809020365432 1
gene  1 12 176 0.15554070512277907 0 33261.0 0.15554070512277907 1
gene  1 15 176 -2.581670496271114 0 33264.0 -2.581670496271114 1
gene  1 16 176 0.9451224696789324 0 33265.0 0.9451224696789324 1
gene  1 35 176 0.21357068954354763 0 33284.0 0.21357068954354763 1
gene  1 37 176 -4.235237763474866 0 33286.0 -4.235237763474866 1
gene  1 46 176 0.298470736000334 0 33295.0 0.298470736000334 1
gene  1 62 176 -2.2463136178781107 0 33311.0 -2.2463136178781107 1
gene  1 64 176 -2.951467988378165 0 33313.0 -2.951467988378165 1
gene  1 171 176 -0.6428411129933309 0 33420.0 -0.6428411129933309 1
gene  1 174 176 0.8336680500185507 0 33423.0 0.8336680500185507 1
gene  1 179 176 4.556607531797289 1 33428.0 4.556607531797289 1
gene  1 1 177 4.816818140374296 0 33440.0 4.816818140374296 1
gene  1 7 177 5.39376235653111 0 33446.0 5.39376235653111 1
gene  1 8 177 2.0206911606075186 0 33447.0 2.0206911606075186 1
gene  1 9 177 -0.44234882515328355 0 33448.0 -0.44234882515328355 1
gene  1 14 177 0.9593116006715063 0 33453.0 0.9593116006715063 1
gene  1 16 177 1.1302660558233422 0 33455.0 1.1302660558233422 1
gene  1 20 177 -0.46186020218021273 0 33459.0 -0.46186020218021273 1
gene  1 30 177 -2.2079060418059444 0 33469.0 -2.2079060418059444 1
gene  1 31 177 -0.7766289128159087 0 33470.0 -0.7766289128159087 1
gene  1 32 177 -3.397654361881288 0 33471.0 -3.397654361881288 1
gene  1 43 177 7.170380289280835 0 33482.0 7.170380289280835 1
gene  1 44 177 -4.579764108095626 0 33483.0 -4.579764108095626 1
gene  1 53 177 -0.5755183920987824 0 33492.0 -0.5755183920987824 1
gene  1 59 177 5.402957074784311 0 33498.0 5.402957074784311 1
gene  1 69 177 -0.6595525385908737 0 33508.0 -0.6595525385908737 1
gene  1 174 177 1.6628697999556263 0 33613.0 1.6628697999556263 1
gene  1 175 177 -7.109761389082561 0 33614.0 -7.109761389082561 1
gene  1 184 177 -3.8252165473678863 1 33623.0 -3.8252165473678863 1
gene  1 187 177 -4.128402879473957 1 33626.0 -4.128402879473957 1
gene  1 1 178 -4.2013267768327065 0 33630.0 -4.2013267768327065 1
gene  1 20 178 -7.321647797269527 0 33649.0 -7.321647797269527 1
gene  1 26 178 -0.6919697689371977 0 33655.0 -0.6919697689371977 1
gene  1 35 178 -0.9693317112378659 0 33664.0 -0.9693317112378659 1
gene  1 42 178 -3.6931320954549367 0 33671.0 -3.6931320954549367 1
gene  1 53 178 -2.105449221047502 0 33682.0 -2.105449221047502 1
gene  1 59 178 2.458134835238332 0 33688.0 2.458134835238332 1
gene  1 72 178 -15.283396566381624 0 33701.0 -15.283396566381624 1
gene  1 172 178 -5.458935229037878 0 33801.0 -5.458935229037878 1
gene  1 190 178 -1.1427284292437079 1 33819.0 -1.1427284292437079 1
gene  1 6 179 7.147291400279857 0 33825.0 7.147291400279857 1
gene  1 8 179 0.4845620196510511 0 33827.0 0.4845620196510511 1
gene  1 13 179 1.7070696492734918 0 33832.0 1.7070696492734918 1
gene  1 36 179 -1.342557776463726 0 33855.0 -1.342557776463726 1
gene  1 46 179 -2.717598216681596 0 33865.0 -2.717598216681596 1
gene  1 60 179 1.9878888683693456 0 33879.0 1.9878888683693456 1
gene  1 61 179 3.755217466646938 0 33880.0 3.755217466646938 1
gene  1 72 179 4.307719639128415 0 33891.0 4.307719639128415 1
gene  1 74 179 0.9083339696586279 0 33893.0 0.9083339696586279 1
gene  1 171 179 -1.17043349702953 0 33990.0 -1.17043349702953 1
gene  1 185 179 -4.344814287554149 1 34004.0 -4.344814287554149 1
gene  1 1 180 8.856408872472008 0 34010.0 8.856408872472008 1
gene  1 4 180 4.612789962453847 0 34013.0 4.612789962453847 1
gene  1 8 180 -0.3688385126870453 0 34017.0 -0.3688385126870453 1
gene  1 11 180 -5.332061411422567 0 34020.0 -5.332061411422567 1
gene  1 21 180 0.6785524706436222 0 34030.0 0.6785524706436222 1
gene  1 32 180 -0.9944843189126169 0 34041.0 -0.9944843189126169 1
gene  1 35 180 -1.1799463723600012 0 34044.0 -1.1799463723600012 1
gene  1 46 180 -7.726732626695803 0 34055.0 -7.726732626695803 1
gene  1 68 180 0.09139611301773831 0 34077.0 0.09139611301773831 1
gene  1 188 180 2.2873481929380417 1 34197.0 2.2873481929380417 1
gene  1 2 181 -0.6165058001860744 0 34201.0 -0.6165058001860744 1
gene  1 16 181 -1.2573010300790415 0 34215.0 -1.2573010300790415 1
gene  1 24 181 -7.327917643128314 0 34223.0 -7.327917643128314 1
gene  1 36 181 -3.3427976968632236 0 34235.0 -3.3427976968632236 1
gene  1 60 181 2.8162939739812036 0 34259.0 2.8162939739812036 1
gene  1 69 181 4.207778700863664 0 34268.0 4.207778700863664 1
gene  1 190 181 -0.5399710209215407 1 34389.0 -0.5399710209215407 1
gene  1 1 182 2.707628006095044 0 34390.0 2.707628006095044 1
gene  1 17 182 2.855495726896344 0 34406.0 2.855495726896344 1
gene  1 35 182 2.03801669434531 0 34424.0 2.03801669434531 1
gene  1 44 182 -4.217096466238039 0 34433.0 -4.217096466238039 1
gene  1 49 182 0.295619053236598 0 34438.0 0.295619053236598 1
gene  1 50 182 0.1574774190836179 0 34439.0 0.1574774190836179 1
gene  1 54 182 -0.15688012808988994 0 34443.0 -0.15688012808988994 1
gene  1 59 182 5.795976519372008 0 34448.0 5.795976519372008 1
gene  1 73 182 4.756055750942572 0 34462.0 4.756055750942572 1
gene  1 174 182 -4.598232470613343 0 34563.0 -4.598232470613343 1
gene  1 187 182 -2.1592767415434144 1 34576.0 -2.1592767415434144 1
gene  1 6 183 -9.637961909354976 0 34585.0 -9.637961909354976 1
gene  1 7 183 1.302709316112348 0 34586.0 1.302709316112348 1
gene  1 17 183 -1.2374043671172736 0 34596.0 -1.2374043671172736 1
gene  1 20 183 -4.4068566851017 0 34599.0 -4.4068566851017 1
gene  1 25 183 -5.979008764792454 0 34604.0 -5.979008764792454 1
gene  1 30 183 2.3168635823170414 0 34609.0 2.3168635823170414 1
gene  1 39 183 0.8251629274117039 0 34618.0 0.8251629274117039 1
gene  1 44 183 -1.194210696404415 0 34623.0 -1.194210696404415 1
gene  1 66 183 3.076121519186822 0 34645.0 3.076121519186822 1
gene  1 171 183 -3.594039784085776 0 34750.0 -3.594039784085776 1
gene  1 174 183 -3.3880988966993097 0 34753.0 -3.3880988966993097 1
gene  1 21 184 -8.854937041613553E-6 0 34790.0 -8.854937041613553E-6 1
gene  1 29 184 0.7338520800867239 0 34798.0 0.7338520800867239 1
gene  1 32 184 6.162068948874289 0 34801.0 6.162068948874289 1
gene  1 36 184 -1.4509303012590722 0 34805.0 -1.4509303012590722 1
gene  1 45 184 2.635502335629084 0 34814.0 2.635502335629084 1
gene  1 46 184 -8.484542201629832 0 34815.0 -8.484542201629832 1
gene  1 63 184 0.3130094383315485 0 34832.0 0.3130094383315485 1
gene  1 66 184 2.715286716370918 0 34835.0 2.715286716370918 1
gene  1 177 184 -0.7022897318645851 0 34946.0 -0.7022897318645851 1
gene  1 31 185 -1.0734823121624482 0 34990.0 -1.0734823121624482 1
gene  1 50 185 1.826555193881609 0 35009.0 1.826555193881609 1
gene  1 56 185 2.2582344546304234 0 35015.0 2.2582344546304234 1
gene  1 58 185 -3.474711287465114 0 35017.0 -3.474711287465114 1
gene  1 62 185 -3.2611408882897837 0 35021.0 -3.2611408882897837 1
gene  1 173 185 2.292639203533395 0 35132.0 2.292639203533395 1
gene  1 179 185 -8.402709090445835 0 35138.0 -8.402709090445835 1
gene  1 182 185 -2.6368109170318057 0 35141.0 -2.6368109170318057 1
gene  1 188 185 0.5624387056105731 1 35147.0 0.5624387056105731 1
gene  1 1 186 4.231344967369866 0 35150.0 4.231344967369866 1
gene  1 3 186 0.9134518957219073 0 35152.0 0.9134518957219073 1
gene  1 4 186 4.259192082419443 0 35153.0 4.259192082419443 1
gene  1 6 186 4.629575657518376 0 35155.0 4.629575657518376 1
gene  1 7 186 0.026358749818914395 0 35156.0 0.026358749818914395 1
gene  1 17 186 3.728688769284794 0 35166.0 3.728688769284794 1
gene  1 23 186 0.8734566121321043 0 35172.0 0.8734566121321043 1
gene  1 28 186 2.6843015794382636 0 35177.0 2.6843015794382636 1
gene  1 33 186 -0.2362152215735286 0 35182.0 -0.2362152215735286 1
gene  1 36 186 -2.984589948854144 0 35185.0 -2.984589948854144 1
gene  1 58 186 8.813809732844067 0 35207.0 8.813809732844067 1
gene  1 69 186 -2.80187334328444 0 35218.0 -2.80187334328444 1
gene  1 70 186 1.6396235372787926 0 35219.0 1.6396235372787926 1
gene  1 72 186 4.547681413379589 0 35221.0 4.547681413379589 1
gene  1 10 187 0.9321483074838747 0 35349.0 0.9321483074838747 1
gene  1 25 187 -0.306327464012514 0 35364.0 -0.306327464012514 1
gene  1 31 187 -2.1715418633470134 0 35370.0 -2.1715418633470134 1
gene  1 33 187 0.7305233955946677 0 35372.0 0.7305233955946677 1
gene  1 47 187 0.4138688951505567 0 35386.0 0.4138688951505567 1
gene  1 57 187 0.6284604922245424 0 35396.0 0.6284604922245424 1
gene  1 183 187 5.613723575962136 0 35522.0 5.613723575962136 1
gene  1 184 187 -0.2379153797949205 0 35523.0 -0.2379153797949205 1
gene  1 5 188 1.4742363278297108 0 35534.0 1.4742363278297108 1
gene  1 6 188 2.2707557628112793 0 35535.0 2.2707557628112793 1
gene  1 12 188 2.6524493761597183 0 35541.0 2.6524493761597183 1
gene  1 28 188 2.3930954891544247 0 35557.0 2.3930954891544247 1
gene  1 32 188 3.6604068760191675 0 35561.0 3.6604068760191675 1
gene  1 35 188 -4.568701870816366 0 35564.0 -4.568701870816366 1
gene  1 57 188 0.5195954560861687 0 35586.0 0.5195954560861687 1
gene  1 172 188 2.4078211535448872 0 35701.0 2.4078211535448872 1
gene  1 14 189 0.651389793980611 0 35733.0 0.651389793980611 1
gene  1 17 189 -0.8821762712982617 0 35736.0 -0.8821762712982617 1
gene  1 27 189 -1.0719809815176065 0 35746.0 -1.0719809815176065 1
gene  1 37 189 -1.7201822424859925 0 35756.0 -1.7201822424859925 1
gene  1 43 189 -1.2669153091057188 0 35762.0 -1.2669153091057188 1
gene  1 51 189 -2.8591544938318263 0 35770.0 -2.8591544938318263 1
gene  1 56 189 0.5055423771782116 0 35775.0 0.5055423771782116 1
gene  1 59 189 2.1621698114417454 0 35778.0 2.1621698114417454 1
gene  1 65 189 1.1345526411217732 0 35784.0 1.1345526411217732 1
gene  1 73 189 -2.2972410548807325 0 35792.0 -2.2972410548807325 1
gene  1 74 189 3.3875238820851625 0 35793.0 3.3875238820851625 1
gene  1 178 189 -1.8906532837284864 0 35897.0 -1.8906532837284864 1
gene  1 1 190 -0.7965926008022445 0 35910.0 -0.7965926008022445 1
gene  1 4 190 1.0969592177993934 0 35913.0 1.0969592177993934 1
gene  1 15 190 3.1861497372636256 0 35924.0 3.1861497372636256 1
gene  1 22 190 1.3404042409627206 0 35931.0 1.3404042409627206 1
gene  1 33 190 -2.9334104887162358 0 35942.0 -2.9334104887162358 1
gene  1 58 190 2.5589216121417637 0 35967.0 2.5589216121417637 1
gene  1 60 190 1.2835509644157619 0 35969.0 1.2835509644157619 1
gene  1 67 190 1.049219796902817 0 35976.0 1.049219796902817 1
gene  1 179 190 1.6148920730320202 0 36088.0 1.6148920730320202 1
gene  1 181 190 1.9205753397708267 0 36090.0 1.9205753397708267 1
gene  1 182 190 1.0606850862211168 0 36091.0 1.0606850862211168 1
gene  1 184 190 3.931245126639075 0 36093.0 3.931245126639075 1
gene  1 186 190 -2.0446109230793437 0 36095.0 -2.0446109230793437 1
gene  1 187 190 -3.3209138780420533 0 36096.0 -3.3209138780420533 1
gene  1 65 188 -1.5976592258152298 0 36109.0 -1.5976592258152298 1
gene  1 1 193 0.4976918473560219 0 36113.0 0.4976918473560219 1
gene  1 193 190 -1.030697192015241 0 36114.0 -1.030697192015241 1
gene  1 29 68 1.082525370031938 0 36116.0 1.082525370031938 1
gene  1 74 51 0.4050494196533655 0 36124.0 0.4050494196533655 1
gene  1 9 179 -1.7382368504644892 0 36131.0 -1.7382368504644892 1
gene  1 8 61 -1.1019791365983465 0 36157.0 -1.1019791365983465 1
gene  1 9 72 2.3242596573654923 0 36168.0 2.3242596573654923 1
gene  1 185 180 2.1206196863228657 0 36224.0 2.1206196863228657 1
gene  1 10 67 -3.349344588955818 0 36252.0 -3.349344588955818 1
gene  1 39 176 3.7933954889857575 0 36254.0 3.7933954889857575 1
gene  1 182 63 0.6803894088281723 0 36262.0 0.6803894088281723 1
gene  1 72 234 1.2542073917713594 0 36293.0 1.2542073917713594 1
gene  1 234 186 -0.6709146005047906 0 36294.0 -0.6709146005047906 1
gene  1 18 70 -2.2421597547949625 0 36313.0 -2.2421597547949625 1
gene  1 24 176 2.787677649590587 0 36343.0 2.787677649590587 1
gene  1 35 257 -4.021070904836564 0 36397.0 -4.021070904836564 1
gene  1 257 53 -1.03158960512595 0 36398.0 -1.03158960512595 1
gene  1 68 75 -0.39991807737420126 0 36451.0 -0.39991807737420126 1
gene  1 1 184 4.27768471176094 0 36461.0 4.27768471176094 1
genomeend 0
/* Organism # 001 Fitness:  1193,816 Error:  1000,000                      */
genomestart  1
trait 1 0.570203125745586 2.793472167381984 0.0 0.14719568934147265 0.06482915549958135 0.6291198492279415 0.8495928105654097 0.5100526349364269 
node 1 1 1 1
node 2 1 1 1
node 3 1 1 1
node 4 1 1 1
node 5 1 1 1
node 6 1 1 1
node 7 1 1 1
node 8 1 1 1
node 9 1 1 1
node 10 1 1 1
node 11 1 1 1
node 12 1 1 1
node 13 1 1 1
node 14 1 1 1
node 15 1 1 1
node 16 1 1 1
node 17 1 1 1
node 18 1 1 1
node 19 1 1 1
node 20 1 1 1
node 21 1 1 1
node 22 1 1 1
node 23 1 1 1
node 24 1 1 1
node 25 1 1 1
node 26 1 1 1
node 27 1 1 1
node 28 1 1 1
node 29 1 1 1
node 30 1 1 1
node 31 1 1 1
node 32 1 1 1
node 33 1 1 1
node 34 1 1 1
node 35 1 1 1
node 36 1 1 1
node 37 1 1 1
node 38 1 1 1
node 39 1 1 1
node 40 1 1 1
node 41 1 1 1
node 42 1 1 1
node 43 1 1 1
node 44 1 1 1
node 45 1 1 1
node 46 1 1 1
node 47 1 1 1
node 48 1 1 1
node 49 1 1 1
node 50 1 1 3
node 51 1 0 0
node 52 1 0 0
node 53 1 0 0
node 54 1 0 0
node 55 1 0 0
node 56 1 0 0
node 57 1 0 0
node 58 1 0 0
node 59 1 0 0
node 60 1 0 0
node 61 1 0 0
node 62 1 0 0
node 63 1 0 0
node 64 1 0 0
node 65 1 0 0
node 66 1 0 0
node 67 1 0 0
node 68 1 0 0
node 69 1 0 0
node 70 1 0 0
node 71 1 0 0
node 72 1 0 0
node 73 1 0 0
node 74 1 0 0
node 75 1 0 0
node 171 1 0 2
node 172 1 0 2
node 173 1 0 2
node 174 1 0 2
node 175 1 0 2
node 176 1 0 2
node 177 1 0 2
node 178 1 0 2
node 179 1 0 2
node 180 1 0 2
node 181 1 0 2
node 182 1 0 2
node 183 1 0 2
node 184 1 0 2
node 185 1 0 2
node 186 1 0 2
node 187 1 0 2
node 188 1 0 2
node 189 1 0 2
node 190 1 0 2
node 193 1 0 0
node 234 1 0 0
node 257 1 0 0
gene  1 28 51 -0.7958752184567359 0 9527.0 -0.7958752184567359 1
gene  1 33 51 4.58304757004588 0 9532.0 4.58304757004588 1
gene  1 36 51 -1.624947243329328 0 9535.0 -1.624947243329328 1
gene  1 40 51 2.5657354578902227 0 9539.0 2.5657354578902227 1
gene  1 42 51 -1.716573031896395 0 9541.0 -1.716573031896395 1
gene  1 54 51 1.6379556878902086 1 9553.0 1.6379556878902086 1
gene  1 57 51 -3.488970554005909 1 9556.0 -3.488970554005909 1
gene  1 68 51 3.6954215895224065 1 9567.0 3.6954215895224065 1
gene  1 174 51 -1.001726567894501 1 9673.0 -1.001726567894501 1
gene  1 183 51 3.458585010503076 1 9682.0 3.458585010503076 1
gene  1 184 51 1.5757049516784813 1 9683.0 1.5757049516784813 1
gene  1 189 51 0.7362115173250576 1 9688.0 0.7362115173250576 1
gene  1 3 52 2.946620979752572 0 9692.0 2.946620979752572 1
gene  1 6 52 -1.5508290618335687 0 9695.0 -1.5508290618335687 1
gene  1 24 52 -0.7747862752298487 0 9713.0 -0.7747862752298487 1
gene  1 29 52 5.833268094159392 0 9718.0 5.833268094159392 1
gene  1 31 52 -0.08040806544304835 0 9720.0 -0.08040806544304835 1
gene  1 35 52 -1.3993007431251412 0 9724.0 -1.3993007431251412 1
gene  1 63 52 6.133557200456023 1 9752.0 6.133557200456023 1
gene  1 179 52 4.285864699206488 1 9868.0 4.285864699206488 1
gene  1 183 52 -14.503922647818186 1 9872.0 -14.503922647818186 1
gene  1 184 52 -8.767550205409274 1 9873.0 -8.767550205409274 1
gene  1 185 52 2.6627069014714886 1 9874.0 2.6627069014714886 1
gene  1 5 53 -0.03758821308698135 0 9884.0 -0.03758821308698135 1
gene  1 6 53 -0.7345320840278702 0 9885.0 -0.7345320840278702 1
gene  1 10 53 11.158324118413455 0 9889.0 11.158324118413455 1
gene  1 33 53 2.547302806132727 0 9912.0 2.547302806132727 1
gene  1 35 53 2.950319730594207 0 9914.0 2.950319730594207 0
gene  1 38 53 2.308727208642112 0 9917.0 2.308727208642112 1
gene  1 45 53 -4.505346273863157 0 9924.0 -4.505346273863157 1
gene  1 71 53 0.7635631003181371 1 9950.0 0.7635631003181371 1
gene  1 16 54 -1.7060731816773615 0 10085.0 -1.7060731816773615 1
gene  1 19 54 3.9575332844874604 0 10088.0 3.9575332844874604 1
gene  1 36 54 -7.054888068465155 0 10105.0 -7.054888068465155 1
gene  1 42 54 -4.798456964606826 0 10111.0 -4.798456964606826 1
gene  1 58 54 0.0794178195509041 1 10127.0 0.0794178195509041 1
gene  1 62 54 1.3162274558717328 1 10131.0 1.3162274558717328 1
gene  1 73 54 4.623926939247831 1 10142.0 4.623926939247831 1
gene  1 177 54 1.2364971832093852 1 10246.0 1.2364971832093852 1
gene  1 180 54 2.5612636776594866 1 10249.0 2.5612636776594866 1
gene  1 190 54 3.569835963796847 1 10259.0 3.569835963796847 1
gene  1 20 55 -0.8593938551170051 0 10279.0 -0.8593938551170051 1
gene  1 31 55 -4.2380774574788065 0 10290.0 -4.2380774574788065 1
gene  1 35 55 -3.667954354141753 0 10294.0 -3.667954354141753 1
gene  1 41 55 1.0907694726033055 0 10300.0 1.0907694726033055 1
gene  1 47 55 5.441033203900129 0 10306.0 5.441033203900129 1
gene  1 52 55 3.4007949749303936 0 10311.0 3.4007949749303936 1
gene  1 69 55 -3.588655554153943 1 10328.0 -3.588655554153943 1
gene  1 75 55 -2.8585809795048354 1 10334.0 -2.8585809795048354 1
gene  1 187 55 1.1501210945107327 1 10446.0 1.1501210945107327 1
gene  1 7 56 4.07160485836183 0 10456.0 4.07160485836183 1
gene  1 11 56 1.5150701151087795 0 10460.0 1.5150701151087795 1
gene  1 13 56 -2.259533726621009 0 10462.0 -2.259533726621009 1
gene  1 36 56 4.000768987019416 0 10485.0 4.000768987019416 1
gene  1 41 56 3.6734609463354926 0 10490.0 3.6734609463354926 1
gene  1 44 56 5.285263957451008 0 10493.0 5.285263957451008 1
gene  1 46 56 -7.913762509804466 0 10495.0 -7.913762509804466 1
gene  1 49 56 2.4754279105122894 0 10498.0 2.4754279105122894 1
gene  1 68 56 -2.724196570613064 1 10517.0 -2.724196570613064 1
gene  1 179 56 -1.963288314298075 1 10628.0 -1.963288314298075 1
gene  1 183 56 -4.915371623827488 1 10632.0 -4.915371623827488 1
gene  1 3 57 6.907426726095388 0 10642.0 6.907426726095388 1
gene  1 19 57 -1.6932793744232661 0 10658.0 -1.6932793744232661 1
gene  1 22 57 -2.479865161587199 0 10661.0 -2.479865161587199 1
gene  1 28 57 3.6058392480231003 0 10667.0 3.6058392480231003 1
gene  1 30 57 -4.240985278760432 0 10669.0 -4.240985278760432 1
gene  1 35 57 2.4170903909055763 0 10674.0 2.4170903909055763 1
gene  1 47 57 -1.7479015375048226 0 10686.0 -1.7479015375048226 1
gene  1 59 57 -5.2030615538284755 1 10698.0 -5.2030615538284755 1
gene  1 60 57 5.977494826206698 1 10699.0 5.977494826206698 1
gene  1 187 57 -15.709222551867967 1 10826.0 -15.709222551867967 1
gene  1 5 58 -7.239214714838637 0 10834.0 -7.239214714838637 1
gene  1 14 58 -0.9092920302741732 0 10843.0 -0.9092920302741732 1
gene  1 15 58 -7.1549702264027335 0 10844.0 -7.1549702264027335 1
gene  1 24 58 -15.948966058682988 0 10853.0 -15.948966058682988 1
gene  1 32 58 5.782819605726798 0 10861.0 5.782819605726798 1
gene  1 43 58 -4.783345045547738 0 10872.0 -4.783345045547738 1
gene  1 49 58 3.776821614831354 0 10878.0 3.776821614831354 1
gene  1 53 58 0.04265369638727545 0 10882.0 0.04265369638727545 1
gene  1 62 58 5.7495471761880035 1 10891.0 5.7495471761880035 1
gene  1 64 58 -1.4337422521167562 1 10893.0 -1.4337422521167562 1
gene  1 69 58 2.4220759942539503 1 10898.0 2.4220759942539503 1
gene  1 182 58 -1.7249454876371448 1 11011.0 -1.7249454876371448 1
gene  1 1 59 3.444649454103439 0 11020.0 3.444649454103439 1
gene  1 4 59 8.190030179494563 0 11023.0 8.190030179494563 1
gene  1 27 59 -0.9861376232633066 0 11046.0 -0.9861376232633066 1
gene  1 34 59 1.130196820519234 0 11053.0 1.130196820519234 1
gene  1 37 59 -2.226218190627751 0 11056.0 -2.226218190627751 1
gene  1 44 59 5.094936015307561 0 11063.0 5.094936015307561 1
gene  1 59 59 -4.350222481302744 1 11078.0 -4.350222481302744 1
gene  1 73 59 -7.680616797455446 1 11092.0 -7.680616797455446 1
gene  1 75 59 -1.2212831489573135 1 11094.0 -1.2212831489573135 1
gene  1 183 59 -3.19249453206593 1 11202.0 -3.19249453206593 1
gene  1 185 59 5.0053149101957715 1 11204.0 5.0053149101957715 1
gene  1 8 60 -2.231964778018019 0 11217.0 -2.231964778018019 1
gene  1 10 60 2.580466989718233 0 11219.0 2.580466989718233 1
gene  1 40 60 0.2552411027044075 0 11249.0 0.2552411027044075 1
gene  1 45 60 5.6134078217277015 0 11254.0 5.6134078217277015 1
gene  1 61 60 2.962327597580508 1 11270.0 2.962327597580508 1
gene  1 72 60 -4.038790988836169 1 11281.0 -4.038790988836169 1
gene  1 177 60 5.0979585239398135 1 11386.0 5.0979585239398135 1
gene  1 179 60 6.4536360024416775 1 11388.0 6.4536360024416775 1
gene  1 187 60 4.023509954426116 1 11396.0 4.023509954426116 1
gene  1 7 61 -7.63781651764336 0 11406.0 -7.63781651764336 1
gene  1 15 61 1.9460314226736088 0 11414.0 1.9460314226736088 1
gene  1 22 61 4.348357674256769 0 11421.0 4.348357674256769 1
gene  1 28 61 0.9231586880600622 0 11427.0 0.9231586880600622 1
gene  1 36 61 -1.1236168909853395 0 11435.0 -1.1236168909853395 1
gene  1 53 61 -2.9366162440570394 0 11452.0 -2.9366162440570394 1
gene  1 54 61 9.805551263936868 0 11453.0 9.805551263936868 1
gene  1 67 61 2.2896359013416143 1 11466.0 2.2896359013416143 1
gene  1 177 61 -7.64899451054512 1 11576.0 -7.64899451054512 1
gene  1 184 61 -5.078527702538672 1 11583.0 -5.078527702538672 1
gene  1 6 62 3.6187809914649147 0 11595.0 3.6187809914649147 1
gene  1 11 62 4.322811317925403 0 11600.0 4.322811317925403 1
gene  1 15 62 1.3907734352615906 0 11604.0 1.3907734352615906 1
gene  1 26 62 -3.252080404257371 0 11615.0 -3.252080404257371 1
gene  1 53 62 2.642007301113891 0 11642.0 2.642007301113891 1
gene  1 68 62 1.359883812709112 1 11657.0 1.359883812709112 1
gene  1 72 62 -16.214311586906668 1 11661.0 -16.214311586906668 1
gene  1 174 62 0.4262707572889235 1 11763.0 0.4262707572889235 1
gene  1 175 62 -4.294185821030836 1 11764.0 -4.294185821030836 1
gene  1 184 62 -5.730829497217192 1 11773.0 -5.730829497217192 1
gene  1 185 62 -4.800743208385732 1 11774.0 -4.800743208385732 1
gene  1 188 62 -1.5601522642905232 1 11777.0 -1.5601522642905232 1
gene  1 31 63 0.6771297854819018 0 11810.0 0.6771297854819018 1
gene  1 32 63 -0.5224697407266264 0 11811.0 -0.5224697407266264 1
gene  1 37 63 -0.6395791738142034 0 11816.0 -0.6395791738142034 1
gene  1 38 63 0.19384051044277173 0 11817.0 0.19384051044277173 1
gene  1 42 63 -5.373525253935696 0 11821.0 -5.373525253935696 1
gene  1 46 63 0.41706050578917075 0 11825.0 0.41706050578917075 1
gene  1 48 63 -2.4255746210877303 0 11827.0 -2.4255746210877303 1
gene  1 50 63 10.332917687074291 0 11829.0 10.332917687074291 1
gene  1 60 63 2.8657054265376685 0 11839.0 2.8657054265376685 1
gene  1 63 63 7.199097369321862 1 11842.0 7.199097369321862 1
gene  1 72 63 4.069193302216945 1 11851.0 4.069193302216945 1
gene  1 74 63 1.0376226836531381 1 11853.0 1.0376226836531381 1
gene  1 178 63 6.095718110416924 1 11957.0 6.095718110416924 1
gene  1 180 63 -0.9309474516572727 1 11959.0 -0.9309474516572727 1
gene  1 181 63 -3.8585165245731967 1 11960.0 -3.8585165245731967 1
gene  1 8 64 -0.30812398559411047 0 11977.0 -0.30812398559411047 1
gene  1 11 64 7.011932516838401 0 11980.0 7.011932516838401 1
gene  1 20 64 0.18277474839505725 0 11989.0 0.18277474839505725 1
gene  1 27 64 2.7684353553698724 0 11996.0 2.7684353553698724 1
gene  1 41 64 2.9149834131796117 0 12010.0 2.9149834131796117 1
gene  1 44 64 0.779591660831329 0 12013.0 0.779591660831329 1
gene  1 49 64 -0.6019149438034888 0 12018.0 -0.6019149438034888 1
gene  1 50 64 -3.0850556417070196 0 12019.0 -3.0850556417070196 1
gene  1 53 64 5.261895104993447 0 12022.0 5.261895104993447 1
gene  1 59 64 1.4044672444278117 0 12028.0 1.4044672444278117 1
gene  1 70 64 -3.7799971041170646 1 12039.0 -3.7799971041170646 1
gene  1 176 64 -3.6159459169327586 1 12145.0 -3.6159459169327586 1
gene  1 179 64 -3.792937475819358 1 12148.0 -3.792937475819358 1
gene  1 183 64 0.5752011271325985 1 12152.0 0.5752011271325985 1
gene  1 184 64 -0.8011930566941061 1 12153.0 -0.8011930566941061 1
gene  1 185 64 -3.6369910142275756 1 12154.0 -3.6369910142275756 1
gene  1 8 65 -4.836353481061235 0 12167.0 -4.836353481061235 1
gene  1 13 65 3.391590834818053 0 12172.0 3.391590834818053 1
gene  1 18 65 0.40128076471785556 0 12177.0 0.40128076471785556 1
gene  1 39 65 2.0431361777129053 0 12198.0 2.0431361777129053 1
gene  1 53 65 2.980836547355944 0 12212.0 2.980836547355944 1
gene  1 69 65 -0.9753495859637648 1 12228.0 -0.9753495859637648 1
gene  1 70 65 0.932668187059783 1 12229.0 0.932668187059783 1
gene  1 175 65 3.9415687471748297 1 12334.0 3.9415687471748297 1
gene  1 176 65 -5.8887399978338175 1 12335.0 -5.8887399978338175 1
gene  1 177 65 -5.79889386962139 1 12336.0 -5.79889386962139 1
gene  1 185 65 0.18333739187224252 1 12344.0 0.18333739187224252 1
gene  1 1 66 -5.77217063866008 0 12350.0 -5.77217063866008 1
gene  1 4 66 -3.2037537866731762 0 12353.0 -3.2037537866731762 1
gene  1 18 66 0.4037434056441871 0 12367.0 0.4037434056441871 1
gene  1 21 66 -4.736144935464953 0 12370.0 -4.736144935464953 1
gene  1 43 66 8.231856896883727 0 12392.0 8.231856896883727 1
gene  1 47 66 -3.7762708567418466 0 12396.0 -3.7762708567418466 1
gene  1 50 66 -6.447823583076123 0 12399.0 -6.447823583076123 1
gene  1 60 66 -4.2093717942991775 0 12409.0 -4.2093717942991775 1
gene  1 62 66 2.2217861889165857 0 12411.0 2.2217861889165857 1
gene  1 66 66 -3.095245974889662 1 12415.0 -3.095245974889662 1
gene  1 184 66 4.2205340566238485 1 12533.0 4.2205340566238485 1
gene  1 8 67 -3.4608073618765838 0 12547.0 -3.4608073618765838 1
gene  1 38 67 0.9198280122401381 0 12577.0 0.9198280122401381 1
gene  1 46 67 -3.8591047571399333 0 12585.0 -3.8591047571399333 1
gene  1 49 67 -2.4320690284168536 0 12588.0 -2.4320690284168536 1
gene  1 57 67 -6.8649173365717475 0 12596.0 -6.8649173365717475 1
gene  1 61 67 -7.172055765646556 0 12600.0 -7.172055765646556 1
gene  1 72 67 -3.535649288615507 1 12611.0 -3.535649288615507 1
gene  1 177 67 1.3861484769076196 1 12716.0 1.3861484769076196 1
gene  1 182 67 -4.38719375867477 1 12721.0 -4.38719375867477 1
gene  1 185 67 -1.440181260661575 1 12724.0 -1.440181260661575 1
gene  1 189 67 -1.0333458328228446 1 12728.0 -1.0333458328228446 1
gene  1 5 68 1.171948017108866 0 12734.0 1.171948017108866 1
gene  1 16 68 -4.427932692269186 0 12745.0 -4.427932692269186 1
gene  1 40 68 -0.35177573966855136 0 12769.0 -0.35177573966855136 1
gene  1 41 68 11.143255155329134 0 12770.0 11.143255155329134 1
gene  1 42 68 -3.6242194064996065 0 12771.0 -3.6242194064996065 1
gene  1 71 68 3.338622283761715 1 12800.0 3.338622283761715 1
gene  1 185 68 -3.5609314631060442 1 12914.0 -3.5609314631060442 1
gene  1 6 69 1.0010375834708074 0 12925.0 1.0010375834708074 1
gene  1 16 69 1.213018483663896 0 12935.0 1.213018483663896 1
gene  1 19 69 -3.875292133081863 0 12938.0 -3.875292133081863 1
gene  1 44 69 -1.4813056884672324 0 12963.0 -1.4813056884672324 1
gene  1 45 69 -0.7047050495143613 0 12964.0 -0.7047050495143613 1
gene  1 65 69 2.931798706877158 0 12984.0 2.931798706877158 1
gene  1 171 69 2.3173276938566216 1 13090.0 2.3173276938566216 1
gene  1 3 70 2.0008168631262144 0 13112.0 2.0008168631262144 1
gene  1 39 70 -2.190922928389785 0 13148.0 -2.190922928389785 1
gene  1 60 70 4.857053268733095 0 13169.0 4.857053268733095 1
gene  1 171 70 -6.754760530567287 1 13280.0 -6.754760530567287 1
gene  1 181 70 -1.657030824550072 1 13290.0 -1.657030824550072 1
gene  1 183 70 4.759282178442543 1 13292.0 4.759282178442543 1
gene  1 11 71 -2.699449337000712 0 13310.0 -2.699449337000712 1
gene  1 15 71 -2.973273846976802 0 13314.0 -2.973273846976802 1
gene  1 30 71 8.58530078832339 0 13329.0 8.58530078832339 1
gene  1 33 71 12.02604914864199 0 13332.0 12.02604914864199 1
gene  1 34 71 0.4019280215752372 0 13333.0 0.4019280215752372 1
gene  1 48 71 -1.4186184705273903 0 13347.0 -1.4186184705273903 1
gene  1 50 71 -1.552929983550857 0 13349.0 -1.552929983550857 1
gene  1 51 71 -6.569365537396905 0 13350.0 -6.569365537396905 1
gene  1 57 71 3.275214864105144 0 13356.0 3.275214864105144 1
gene  1 73 71 -0.09260189205127711 1 13372.0 -0.09260189205127711 1
gene  1 185 71 0.6092497296125465 1 13484.0 0.6092497296125465 1
gene  1 24 72 4.824559591781574 0 13513.0 4.824559591781574 1
gene  1 51 72 -2.8677882748085315 0 13540.0 -2.8677882748085315 1
gene  1 54 72 -3.9504801697272502 0 13543.0 -3.9504801697272502 1
gene  1 60 72 0.4987084466754378 0 13549.0 0.4987084466754378 1
gene  1 3 73 -3.766460940685222 0 13682.0 -3.766460940685222 1
gene  1 18 73 1.071043548602201 0 13697.0 1.071043548602201 1
gene  1 30 73 1.3820593278806517 0 13709.0 1.3820593278806517 1
gene  1 41 73 -0.6397789867309331 0 13720.0 -0.6397789867309331 1
gene  1 54 73 -4.218947804697675 0 13733.0 -4.218947804697675 1
gene  1 59 73 3.335403237952182 0 13738.0 3.335403237952182 1
gene  1 60 73 2.0793931574867344 0 13739.0 2.0793931574867344 1
gene  1 179 73 -0.30555844111413766 1 13858.0 -0.30555844111413766 1
gene  1 189 73 -1.9059140859607469 1 13868.0 -1.9059140859607469 1
gene  1 31 74 2.382271581860057 0 13900.0 2.382271581860057 1
gene  1 38 74 -24.38585228798457 0 13907.0 -24.38585228798457 1
gene  1 67 74 -6.174397509693699 0 13936.0 -6.174397509693699 1
gene  1 74 74 5.553095805626323 1 13943.0 5.553095805626323 1
gene  1 188 74 4.15459032225218 1 14057.0 4.15459032225218 1
gene  1 2 75 0.9416782864640512 0 14061.0 0.9416782864640512 1
gene  1 10 75 1.2065883421630967 0 14069.0 1.2065883421630967 1
gene  1 12 75 2.1678554541817574 0 14071.0 2.1678554541817574 1
gene  1 15 75 -4.1649993871021405 0 14074.0 -4.1649993871021405 1
gene  1 18 75 -6.820351143734271 0 14077.0 -6.820351143734271 1
gene  1 43 75 -0.9915068613162121 0 14102.0 -0.9915068613162121 1
gene  1 46 75 -4.278426535234711 0 14105.0 -4.278426535234711 1
gene  1 56 75 11.82953486103285 0 14115.0 11.82953486103285 1
gene  1 57 75 7.587123998621486 0 14116.0 7.587123998621486 1
gene  1 177 75 4.37361075162288 1 14236.0 4.37361075162288 1
gene  1 183 75 2.3483523540061597 1 14242.0 2.3483523540061597 1
gene  1 3 171 1.8560260240284463 0 32302.0 1.8560260240284463 1
gene  1 10 171 -7.646772991158364 0 32309.0 -7.646772991158364 1
gene  1 18 171 6.1256657950005415 0 32317.0 6.1256657950005415 1
gene  1 35 171 0.2715082549919723 0 32334.0 0.2715082549919723 1
gene  1 47 171 15.168104074928152 0 32346.0 15.168104074928152 1
gene  1 48 171 -2.345996909530348 0 32347.0 -2.345996909530348 1
gene  1 63 171 -1.3008772921394018 0 32362.0 -1.3008772921394018 1
gene  1 74 171 -0.14600323077870214 0 32373.0 -0.14600323077870214 1
gene  1 171 171 4.713670749365682 1 32470.0 4.713670749365682 1
gene  1 180 171 -9.611407658169071 1 32479.0 -9.611407658169071 1
gene  1 181 171 6.013505719427647 1 32480.0 6.013505719427647 1
gene  1 16 172 0.6370627413115326 0 32505.0 0.6370627413115326 1
gene  1 38 172 -3.333630651077731 0 32527.0 -3.333630651077731 1
gene  1 58 172 -2.1775812699354287 0 32547.0 -2.1775812699354287 1
gene  1 59 172 1.492283551358816 0 32548.0 1.492283551358816 1
gene  1 60 172 8.433552676523554 0 32549.0 8.433552676523554 1
gene  1 73 172 11.788271223235423 0 32562.0 11.788271223235423 1
gene  1 171 172 -2.4488491747911123 0 32660.0 -2.4488491747911123 1
gene  1 173 172 3.32543317092998 1 32662.0 3.32543317092998 1
gene  1 7 173 1.3712116055316264 0 32686.0 1.3712116055316264 1
gene  1 29 173 0.8813322578121787 0 32708.0 0.8813322578121787 1
gene  1 30 173 2.9920026473859442 0 32709.0 2.9920026473859442 1
gene  1 38 173 2.6036353062164235 0 32717.0 2.6036353062164235 1
gene  1 56 173 -12.189083185265886 0 32735.0 -12.189083185265886 1
gene  1 68 173 -4.500079319379991 0 32747.0 -4.500079319379991 1
gene  1 72 173 0.3204878041022228 0 32751.0 0.3204878041022228 1
gene  1 75 173 -3.4339371750124963 0 32754.0 -3.4339371750124963 1
gene  1 180 173 9.403124772459122 1 32859.0 9.403124772459122 1
gene  1 45 174 13.867394266707054 0 32914.0 13.867394266707054 1
gene  1 174 174 2.063089965511341 1 33043.0 2.063089965511341 1
gene  1 180 174 -0.7775015745307877 1 33049.0 -0.7775015745307877 1
gene  1 186 174 -0.7160425287077481 1 33055.0 -0.7160425287077481 1
gene  1 2 175 -1.5835148010580764 0 33061.0 -1.5835148010580764 1
gene  1 11 175 -0.13151686052255984 0 33070.0 -0.13151686052255984 1
gene  1 26 175 -4.032745382513634 0 33085.0 -4.032745382513634 1
gene  1 37 175 -1.5538420507581128 0 33096.0 -1.5538420507581128 1
gene  1 43 175 -0.387531601313153 0 33102.0 -0.387531601313153 1
gene  1 48 175 4.8227073463634245 0 33107.0 4.8227073463634245 1
gene  1 51 175 20.116036586767347 0 33110.0 20.116036586767347 1
gene  1 64 175 -5.276215136841579 0 33123.0 -5.276215136841579 1
gene  1 70 175 2.6298538144002075 0 33129.0 2.6298538144002075 1
gene  1 71 175 -8.669608376327393 0 33130.0 -8.669608376327393 1
gene  1 177 175 0.7362163299341538 1 33236.0 0.7362163299341538 1
gene  1 178 175 6.551230582671517 1 33237.0 6.551230582671517 1
gene  1 181 175 3.3600744135574354 1 33240.0 3.3600744135574354 1
gene  1 184 175 4.0480420472001235 1 33243.0 4.0480420472001235 1
gene  1 186 175 6.176675568803513 1 33245.0 6.176675568803513 1
gene  1 2 176 2.576945645711617 0 33251.0 2.576945645711617 1
gene  1 8 176 -4.026427426300847 0 33257.0 -4.026427426300847 1
gene  1 9 176 -13.950631108228153 0 33258.0 -13.950631108228153 1
gene  1 12 176 -1.287206404186783 0 33261.0 -1.287206404186783 1
gene  1 15 176 -6.960245532568499 0 33264.0 -6.960245532568499 1
gene  1 16 176 0.7252233089473255 0 33265.0 0.7252233089473255 1
gene  1 35 176 -0.7271728637590351 0 33284.0 -0.7271728637590351 1
gene  1 37 176 -3.7391524841228807 0 33286.0 -3.7391524841228807 1
gene  1 46 176 3.1243170131906313 0 33295.0 3.1243170131906313 1
gene  1 62 176 -1.0984023819992403 0 33311.0 -1.0984023819992403 1
gene  1 64 176 0.2982059653938838 0 33313.0 0.2982059653938838 1
gene  1 171 176 -0.7074723498305506 0 33420.0 -0.7074723498305506 1
gene  1 174 176 -3.9750564096432432 0 33423.0 -3.9750564096432432 1
gene  1 179 176 4.009244785160884 1 33428.0 4.009244785160884 1
gene  1 1 177 2.519286038359271 0 33440.0 2.519286038359271 1
gene  1 7 177 4.718846240880373 0 33446.0 4.718846240880373 1
gene  1 8 177 3.6159694079919262 0 33447.0 3.6159694079919262 1
gene  1 9 177 -0.8740533657307347 0 33448.0 -0.8740533657307347 1
gene  1 14 177 0.5057035282833109 0 33453.0 0.5057035282833109 1
gene  1 16 177 0.22434135207814898 0 33455.0 0.22434135207814898 1
gene  1 20 177 -4.205933508841529 0 33459.0 -4.205933508841529 1
gene  1 30 177 -6.568728441554056 0 33469.0 -6.568728441554056 1
gene  1 31 177 0.9427641058058662 0 33470.0 0.9427641058058662 1
gene  1 32 177 -3.61545445317957 0 33471.0 -3.61545445317957 1
gene  1 43 177 8.306480976445357 0 33482.0 8.306480976445357 1
gene  1 44 177 -4.275523924042959 0 33483.0 -4.275523924042959 1
gene  1 53 177 0.36013646413257633 0 33492.0 0.36013646413257633 1
gene  1 59 177 3.208370309660854 0 33498.0 3.208370309660854 1
gene  1 69 177 0.12690516881266134 0 33508.0 0.12690516881266134 1
gene  1 174 177 2.559840682977276 0 33613.0 2.559840682977276 1
gene  1 175 177 -7.003330742102057 0 33614.0 -7.003330742102057 1
gene  1 184 177 -4.857444110299801 1 33623.0 -4.857444110299801 1
gene  1 187 177 -3.880109861957654 1 33626.0 -3.880109861957654 1
gene  1 1 178 -7.39685533142633 0 33630.0 -7.39685533142633 1
gene  1 20 178 -6.87842862016348 0 33649.0 -6.87842862016348 1
gene  1 26 178 0.612156511787034 0 33655.0 0.612156511787034 1
gene  1 35 178 2.760813916984549 0 33664.0 2.760813916984549 1
gene  1 42 178 -2.065770008948454 0 33671.0 -2.065770008948454 1
gene  1 53 178 -3.557352298694681 0 33682.0 -3.557352298694681 1
gene  1 59 178 0.08805339174007298 0 33688.0 0.08805339174007298 1
gene  1 72 178 -11.150746021174536 0 33701.0 -11.150746021174536 1
gene  1 172 178 -5.949350176454425 0 33801.0 -5.949350176454425 1
gene  1 190 178 -2.900005752569464 1 33819.0 -2.900005752569464 1
gene  1 6 179 6.632960136707199 0 33825.0 6.632960136707199 1
gene  1 8 179 1.3703902341312997 0 33827.0 1.3703902341312997 1
gene  1 13 179 3.0408128970536845 0 33832.0 3.0408128970536845 1
gene  1 36 179 -0.3520652434421859 0 33855.0 -0.3520652434421859 1
gene  1 46 179 -4.364518310461445 0 33865.0 -4.364518310461445 1
gene  1 60 179 2.2940249873563023 0 33879.0 2.2940249873563023 1
gene  1 61 179 1.1534912555593446 0 33880.0 1.1534912555593446 1
gene  1 72 179 5.673807216504423 0 33891.0 5.673807216504423 1
gene  1 74 179 1.3071876194421868 0 33893.0 1.3071876194421868 1
gene  1 171 179 -1.7661808688662728 0 33990.0 -1.7661808688662728 1
gene  1 185 179 -1.9460468344203943 1 34004.0 -1.9460468344203943 1
gene  1 1 180 6.10274833186511 0 34010.0 6.10274833186511 1
gene  1 4 180 6.8062558136752305 0 34013.0 6.8062558136752305 1
gene  1 8 180 0.500086767017985 0 34017.0 0.500086767017985 1
gene  1 11 180 -4.702321836582859 0 34020.0 -4.702321836582859 1
gene  1 21 180 -1.6917027064565497 0 34030.0 -1.6917027064565497 1
gene  1 32 180 1.251493706267785 0 34041.0 1.251493706267785 1
gene  1 35 180 -2.0768452402976427 0 34044.0 -2.0768452402976427 1
gene  1 46 180 -6.962914564638639 0 34055.0 -6.962914564638639 1
gene  1 68 180 2.7741190834148646 0 34077.0 2.7741190834148646 1
gene  1 188 180 0.6384483606343656 1 34197.0 0.6384483606343656 1
gene  1 2 181 1.425847006529809 0 34201.0 1.425847006529809 1
gene  1 16 181 -0.8313902957794714 0 34215.0 -0.8313902957794714 1
gene  1 24 181 -9.536486845085571 0 34223.0 -9.536486845085571 1
gene  1 36 181 -3.762703625004299 0 34235.0 -3.762703625004299 1
gene  1 60 181 0.042424483617957476 0 34259.0 0.042424483617957476 1
gene  1 69 181 4.509544888274569 0 34268.0 4.509544888274569 1
gene  1 190 181 -0.4704315110646935 1 34389.0 -0.4704315110646935 1
gene  1 1 182 4.85467746235704 0 34390.0 4.85467746235704 1
gene  1 17 182 4.678797339236212 0 34406.0 4.678797339236212 1
gene  1 35 182 1.8864499334198528 0 34424.0 1.8864499334198528 1
gene  1 44 182 -4.252796667030088 0 34433.0 -4.252796667030088 1
gene  1 49 182 -0.5287087913402095 0 34438.0 -0.5287087913402095 1
gene  1 50 182 2.8471670948971592 0 34439.0 2.8471670948971592 1
gene  1 54 182 -2.9172344240497643 0 34443.0 -2.9172344240497643 1
gene  1 59 182 3.662068721888159 0 34448.0 3.662068721888159 1
gene  1 73 182 1.2596686658270126 0 34462.0 1.2596686658270126 1
gene  1 174 182 -7.482277295518086 0 34563.0 -7.482277295518086 1
gene  1 187 182 -2.526694321670304 1 34576.0 -2.526694321670304 1
gene  1 6 183 -11.25463392065394 0 34585.0 -11.25463392065394 1
gene  1 7 183 1.7799917235916431 0 34586.0 1.7799917235916431 1
gene  1 17 183 -1.1900273482681882 0 34596.0 -1.1900273482681882 1
gene  1 20 183 -2.8487928353110403 0 34599.0 -2.8487928353110403 1
gene  1 25 183 -4.5999757076376735 0 34604.0 -4.5999757076376735 1
gene  1 30 183 2.4135655810981875 0 34609.0 2.4135655810981875 1
gene  1 39 183 -1.6757933465846906 0 34618.0 -1.6757933465846906 1
gene  1 44 183 -3.3648996031204224 0 34623.0 -3.3648996031204224 1
gene  1 66 183 7.460092688521108 0 34645.0 7.460092688521108 1
gene  1 171 183 -3.594039784085776 0 34750.0 -3.594039784085776 1
gene  1 174 183 -2.5809729365344944 0 34753.0 -2.5809729365344944 1
gene  1 21 184 1.79918706759392 0 34790.0 1.79918706759392 1
gene  1 29 184 -0.4609060405643963 0 34798.0 -0.4609060405643963 1
gene  1 32 184 3.993762784471073 0 34801.0 3.993762784471073 1
gene  1 36 184 -2.219659905846486 0 34805.0 -2.219659905846486 1
gene  1 45 184 -0.2928239952903275 0 34814.0 -0.2928239952903275 1
gene  1 46 184 0.526414254522859 0 34815.0 0.526414254522859 1
gene  1 63 184 -0.04869755286547117 0 34832.0 -0.04869755286547117 1
gene  1 66 184 1.1168960780372306 0 34835.0 1.1168960780372306 1
gene  1 177 184 0.6379611446968829 0 34946.0 0.6379611446968829 1
gene  1 31 185 -1.0734823121624482 0 34990.0 -1.0734823121624482 1
gene  1 50 185 0.6507552597860858 0 35009.0 0.6507552597860858 1
gene  1 56 185 -1.3963484680762843 0 35015.0 -1.3963484680762843 1
gene  1 58 185 -7.344988487621045 0 35017.0 -7.344988487621045 1
gene  1 62 185 -1.93397226276418 0 35021.0 -1.93397226276418 1
gene  1 173 185 3.566022475387368 0 35132.0 3.566022475387368 1
gene  1 179 185 -7.014873087097461 0 35138.0 -7.014873087097461 1
gene  1 182 185 -0.19568045041836957 0 35141.0 -0.19568045041836957 1
gene  1 188 185 0.4515050389691757 1 35147.0 0.4515050389691757 1
gene  1 1 186 4.1371645945362525 0 35150.0 4.1371645945362525 1
gene  1 3 186 1.3637482054229229 0 35152.0 1.3637482054229229 1
gene  1 4 186 5.231978280854523 0 35153.0 5.231978280854523 1
gene  1 6 186 0.5056195334336738 0 35155.0 0.5056195334336738 1
gene  1 7 186 -1.1077143539456629 0 35156.0 -1.1077143539456629 1
gene  1 17 186 4.540216009154474 0 35166.0 4.540216009154474 1
gene  1 23 186 0.3785105396690982 0 35172.0 0.3785105396690982 1
gene  1 28 186 3.5069124632005506 0 35177.0 3.5069124632005506 1
gene  1 33 186 -2.4782055313798574 0 35182.0 -2.4782055313798574 1
gene  1 36 186 -1.3548007463574812 0 35185.0 -1.3548007463574812 1
gene  1 58 186 11.285563471073901 0 35207.0 11.285563471073901 1
gene  1 69 186 -3.1868789274706506 0 35218.0 -3.1868789274706506 1
gene  1 70 186 0.09762033586343999 0 35219.0 0.09762033586343999 1
gene  1 72 186 2.8316031765604555 0 35221.0 2.8316031765604555 1
gene  1 10 187 2.1459899425658318 0 35349.0 2.1459899425658318 1
gene  1 25 187 -1.9932001401884916 0 35364.0 -1.9932001401884916 1
gene  1 31 187 0.010113383324362069 0 35370.0 0.010113383324362069 1
gene  1 33 187 0.6808605971892374 0 35372.0 0.6808605971892374 1
gene  1 47 187 -2.629685010125128 0 35386.0 -2.629685010125128 1
gene  1 57 187 5.976593775120382 0 35396.0 5.976593775120382 1
gene  1 183 187 5.613723575962136 0 35522.0 5.613723575962136 1
gene  1 184 187 -0.7677577345863771 0 35523.0 -0.7677577345863771 1
gene  1 5 188 1.3852450602955386 0 35534.0 1.3852450602955386 1
gene  1 6 188 4.50382061520611 0 35535.0 4.50382061520611 1
gene  1 12 188 3.987312939202825 0 35541.0 3.987312939202825 1
gene  1 28 188 -1.9250553899969078 0 35557.0 -1.9250553899969078 1
gene  1 32 188 2.1943280971253776 0 35561.0 2.1943280971253776 1
gene  1 35 188 -5.7103830798601445 0 35564.0 -5.7103830798601445 1
gene  1 57 188 -1.1226210181765452 0 35586.0 -1.1226210181765452 1
gene  1 172 188 -0.5653886524006393 0 35701.0 -0.5653886524006393 1
gene  1 14 189 0.651389793980611 0 35733.0 0.651389793980611 1
gene  1 17 189 -0.8821762712982617 0 35736.0 -0.8821762712982617 1
gene  1 27 189 1.416557598804504 0 35746.0 1.416557598804504 1
gene  1 37 189 -0.6907275484367053 0 35756.0 -0.6907275484367053 1
gene  1 43 189 -1.7915143729736465 0 35762.0 -1.7915143729736465 1
gene  1 51 189 -2.4668804376949223 0 35770.0 -2.4668804376949223 1
gene  1 56 189 0.3608290775233438 0 35775.0 0.3608290775233438 1
gene  1 59 189 5.790399199957814 0 35778.0 5.790399199957814 1
gene  1 65 189 -2.1223171211318803 0 35784.0 -2.1223171211318803 1
gene  1 73 189 -3.719354026252917 0 35792.0 -3.719354026252917 1
gene  1 74 189 1.2162358256694255 0 35793.0 1.2162358256694255 1
gene  1 178 189 0.14739973709336246 0 35897.0 0.14739973709336246 1
gene  1 1 190 0.12669011064149804 0 35910.0 0.12669011064149804 1
gene  1 4 190 1.0969592177993934 0 35913.0 1.0969592177993934 1
gene  1 15 190 3.106678594862169 0 35924.0 3.106678594862169 1
gene  1 22 190 -0.8871652856328447 0 35931.0 -0.8871652856328447 1
gene  1 33 190 -1.0148134925819152 0 35942.0 -1.0148134925819152 1
gene  1 58 190 -1.803510185422391 0 35967.0 -1.803510185422391 1
gene  1 60 190 6.863208368939761 0 35969.0 6.863208368939761 1
gene  1 67 190 0.2886265215943157 0 35976.0 0.2886265215943157 1
gene  1 179 190 1.6148920730320202 0 36088.0 1.6148920730320202 1
gene  1 181 190 4.0342827199524685 0 36090.0 4.0342827199524685 1
gene  1 182 190 2.7759739502667413 0 36091.0 2.7759739502667413 1
gene  1 184 190 3.931245126639075 0 36093.0 3.931245126639075 1
gene  1 186 190 3.734534692299829 0 36095.0 3.734534692299829 1
gene  1 187 190 -0.040594006034789576 0 36096.0 -0.040594006034789576 1
gene  1 65 188 -1.6417960624904104 0 36109.0 -1.6417960624904104 1
gene  1 1 193 0.943277560745259 0 36113.0 0.943277560745259 1
gene  1 193 190 -2.3341289805405205 0 36114.0 -2.3341289805405205 1
gene  1 29 68 -2.106683068190375 0 36116.0 -2.106683068190375 1
gene  1 74 51 1.4542680511527557 0 36124.0 1.4542680511527557 1
gene  1 9 179 -2.3694628049592743 0 36131.0 -2.3694628049592743 1
gene  1 8 61 -3.374200344252364 0 36157.0 -3.374200344252364 1
gene  1 9 72 -5.027225403498014 0 36168.0 -5.027225403498014 1
gene  1 185 180 1.7477020286044662 0 36224.0 1.7477020286044662 1
gene  1 10 67 -3.514883797160243 0 36252.0 -3.514883797160243 1
gene  1 39 176 6.172638269264166 0 36254.0 6.172638269264166 1
gene  1 182 63 1.1235041210181451 0 36262.0 1.1235041210181451 1
gene  1 72 234 0.520951929993106 0 36293.0 0.520951929993106 1
gene  1 234 186 -0.6709146005047906 0 36294.0 -0.6709146005047906 1
gene  1 18 70 -0.6324618014488146 0 36313.0 -0.6324618014488146 1
gene  1 24 176 -0.8668048358844468 0 36343.0 -0.8668048358844468 1
gene  1 35 257 -3.6069974857130935 0 36397.0 -3.6069974857130935 1
gene  1 257 53 -0.07484808469714632 0 36398.0 -0.07484808469714632 1
gene  1 68 75 -0.39991807737420126 0 36451.0 -0.39991807737420126 1
gene  1 1 184 2.5553961919423287 0 36461.0 2.5553961919423287 1
genomeend 1
/* Organism # 002 Fitness:  1414,452 Error:  1000,000                      */
genomestart  2
trait 1 0.570203125745586 2.793472167381984 0.0 0.14719568934147265 0.06482915549958135 0.6291198492279415 0.8495928105654097 0.5100526349364269 
node 1 1 1 1
node 2 1 1 1
node 3 1 1 1
node 4 1 1 1
node 5 1 1 1
node 6 1 1 1
node 7 1 1 1
node 8 1 1 1
node 9 1 1 1
node 10 1 1 1
node 11 1 1 1
node 12 1 1 1
node 13 1 1 1
node 14 1 1 1
node 15 1 1 1
node 16 1 1 1
node 17 1 1 1
node 18 1 1 1
node 19 1 1 1
node 20 1 1 1
node 21 1 1 1
node 22 1 1 1
node 23 1 1 1
node 24 1 1 1
node 25 1 1 1
node 26 1 1 1
node 27 1 1 1
node 28 1 1 1
node 29 1 1 1
node 30 1 1 1
node 31 1 1 1
node 32 1 1 1
node 33 1 1 1
node 34 1 1 1
node 35 1 1 1
node 36 1 1 1
node 37 1 1 1
node 38 1 1 1
node 39 1 1 1
node 40 1 1 1
node 41 1 1 1
node 42 1 1 1
node 43 1 1 1
node 44 1 1 1
node 45 1 1 1
node 46 1 1 1
node 47 1 1 1
node 48 1 1 1
node 49 1 1 1
node 50 1 1 3
node 51 1 0 0
node 52 1 0 0
node 53 1 0 0
node 54 1 0 0
node 55 1 0 0
node 56 1 0 0
node 57 1 0 0
node 58 1 0 0
node 59 1 0 0
node 60 1 0 0
node 61 1 0 0
node 62 1 0 0
node 63 1 0 0
node 64 1 0 0
node 65 1 0 0
node 66 1 0 0
node 67 1 0 0
node 68 1 0 0
node 69 1 0 0
node 70 1 0 0
node 71 1 0 0
node 72 1 0 0
node 73 1 0 0
node 74 1 0 0
node 75 1 0 0
node 171 1 0 2
node 172 1 0 2
node 173 1 0 2
node 174 1 0 2
node 175 1 0 2
node 176 1 0 2
node 177 1 0 2
node 178 1 0 2
node 179 1 0 2
node 180 1 0 2
node 181 1 0 2
node 182 1 0 2
node 183 1 0 2
node 184 1 0 2
node 185 1 0 2
node 186 1 0 2
node 187 1 0 2
node 188 1 0 2
node 189 1 0 2
node 190 1 0 2
node 193 1 0 0
node 234 1 0 0
node 257 1 0 0
gene  1 28 51 -1.0543765758077885 0 9527.0 -1.0543765758077885 1
gene  1 33 51 4.860580748850575 0 9532.0 4.860580748850575 1
gene  1 36 51 -0.630634874513569 0 9535.0 -0.630634874513569 1
gene  1 40 51 -0.5700461289677422 0 9539.0 -0.5700461289677422 1
gene  1 42 51 2.096491068022459 0 9541.0 2.096491068022459 1
gene  1 54 51 1.4289311614550424 1 9553.0 1.4289311614550424 1
gene  1 57 51 -2.850386172997246 1 9556.0 -2.850386172997246 1
gene  1 68 51 2.633147852325699 1 9567.0 2.633147852325699 1
gene  1 174 51 0.13180438219645513 1 9673.0 0.13180438219645513 1
gene  1 183 51 3.919379978020123 1 9682.0 3.919379978020123 1
gene  1 184 51 -0.5017701083229129 1 9683.0 -0.5017701083229129 1
gene  1 189 51 1.0191546534548819 1 9688.0 1.0191546534548819 1
gene  1 3 52 0.19406912202932203 0 9692.0 0.19406912202932203 1
gene  1 6 52 -1.6453517664896347 0 9695.0 -1.6453517664896347 1
gene  1 24 52 -1.6540354915413105 0 9713.0 -1.6540354915413105 1
gene  1 29 52 5.1525143706417005 0 9718.0 5.1525143706417005 1
gene  1 31 52 1.0890500184899026 0 9720.0 1.0890500184899026 1
gene  1 35 52 -4.821458335773777 0 9724.0 -4.821458335773777 1
gene  1 63 52 6.833360324133015 1 9752.0 6.833360324133015 1
gene  1 179 52 3.9560044554342735 1 9868.0 3.9560044554342735 1
gene  1 183 52 -0.2445494766576009 1 9872.0 -0.2445494766576009 1
gene  1 184 52 -1.4431833833400867 1 9873.0 -1.4431833833400867 1
gene  1 185 52 3.276502554087587 1 9874.0 3.276502554087587 1
gene  1 5 53 1.8763817957458861 0 9884.0 1.8763817957458861 1
gene  1 6 53 -2.1959510274417195 0 9885.0 -2.1959510274417195 1
gene  1 10 53 9.908909406157772 0 9889.0 9.908909406157772 1
gene  1 33 53 -1.910125847304991 0 9912.0 -1.910125847304991 1
gene  1 35 53 3.8027287928534306 0 9914.0 3.8027287928534306 0
gene  1 38 53 0.6251202361948571 0 9917.0 0.6251202361948571 1
gene  1 45 53 -4.444679094221092 0 9924.0 -4.444679094221092 1
gene  1 71 53 -1.8221901461987702 1 9950.0 -1.8221901461987702 1
gene  1 16 54 -6.187689341160446 0 10085.0 -6.187689341160446 1
gene  1 19 54 3.4637986255935855 0 10088.0 3.4637986255935855 1
gene  1 36 54 2.2308128405574608 0 10105.0 2.2308128405574608 1
gene  1 42 54 -8.471959805313173 0 10111.0 -8.471959805313173 1
gene  1 58 54 0.5597573800066253 1 10127.0 0.5597573800066253 1
gene  1 62 54 0.6447940960238543 1 10131.0 0.6447940960238543 1
gene  1 73 54 4.576549882730273 1 10142.0 4.576549882730273 1
gene  1 177 54 4.8688286197721435 1 10246.0 4.8688286197721435 1
gene  1 180 54 -0.9402137314286874 1 10249.0 -0.9402137314286874 1
gene  1 190 54 -0.7347708643929698 1 10259.0 -0.7347708643929698 1
gene  1 20 55 2.8356539185453116 0 10279.0 2.8356539185453116 1
gene  1 31 55 -1.6024438647664385 0 10290.0 -1.6024438647664385 1
gene  1 35 55 -6.141882043585876 0 10294.0 -6.141882043585876 1
gene  1 41 55 -2.255272630530808 0 10300.0 -2.255272630530808 1
gene  1 47 55 2.074447045296565 0 10306.0 2.074447045296565 1
gene  1 52 55 -0.48875673790152674 0 10311.0 -0.48875673790152674 1
gene  1 69 55 -5.702942551968488 1 10328.0 -5.702942551968488 1
gene  1 75 55 1.0157488798635372 1 10334.0 1.0157488798635372 1
gene  1 187 55 -1.1608053628239896 1 10446.0 -1.1608053628239896 1
gene  1 7 56 1.7251284964681362 0 10456.0 1.7251284964681362 1
gene  1 11 56 0.7172987908436053 0 10460.0 0.7172987908436053 1
gene  1 13 56 1.8797669540600412 0 10462.0 1.8797669540600412 1
gene  1 36 56 7.852499097383012 0 10485.0 7.852499097383012 1
gene  1 41 56 3.8514713085122736 0 10490.0 3.8514713085122736 1
gene  1 44 56 2.7049927950179464 0 10493.0 2.7049927950179464 1
gene  1 46 56 -5.544499373945769 0 10495.0 -5.544499373945769 1
gene  1 49 56 -0.5402101304290092 0 10498.0 -0.5402101304290092 1
gene  1 68 56 -1.4052065280463262 1 10517.0 -1.4052065280463262 1
gene  1 179 56 0.5051259983331182 1 10628.0 0.5051259983331182 1
gene  1 183 56 -4.324090268520323 1 10632.0 -4.324090268520323 1
gene  1 3 57 6.593614426315836 0 10642.0 6.593614426315836 1
gene  1 19 57 -0.6413750335732521 0 10658.0 -0.6413750335732521 1
gene  1 22 57 -1.027314409715536 0 10661.0 -1.027314409715536 1
gene  1 28 57 2.1289293623747017 0 10667.0 2.1289293623747017 1
gene  1 30 57 -1.845567669784181 0 10669.0 -1.845567669784181 1
gene  1 35 57 2.527194242950643 0 10674.0 2.527194242950643 1
gene  1 47 57 -1.506502173652377 0 10686.0 -1.506502173652377 1
gene  1 59 57 0.5425083368923417 1 10698.0 0.5425083368923417 1
gene  1 60 57 1.9310509674326397 1 10699.0 1.9310509674326397 1
gene  1 187 57 -16.637676407693498 1 10826.0 -16.637676407693498 1
gene  1 5 58 -1.8316545834787337 0 10834.0 -1.8316545834787337 1
gene  1 14 58 -3.9354342354097898 0 10843.0 -3.9354342354097898 1
gene  1 15 58 -11.399920549123756 0 10844.0 -11.399920549123756 1
gene  1 24 58 -13.864787243776062 0 10853.0 -13.864787243776062 1
gene  1 32 58 -1.6759021012539488 0 10861.0 -1.6759021012539488 1
gene  1 43 58 -3.3291737749755637 0 10872.0 -3.3291737749755637 1
gene  1 49 58 2.370053265412579 0 10878.0 2.370053265412579 1
gene  1 53 58 -1.7646685856663908 0 10882.0 -1.7646685856663908 1
gene  1 62 58 5.657852263073169 1 10891.0 5.657852263073169 1
gene  1 64 58 -3.7462029090782885 1 10893.0 -3.7462029090782885 1
gene  1 69 58 0.6027663107150834 1 10898.0 0.6027663107150834 1
gene  1 182 58 2.147525816702567 1 11011.0 2.147525816702567 1
gene  1 1 59 3.159726271279577 0 11020.0 3.159726271279577 1
gene  1 4 59 2.2546920079967343 0 11023.0 2.2546920079967343 1
gene  1 27 59 -3.1385347853609136 0 11046.0 -3.1385347853609136 1
gene  1 34 59 -1.2708618556915745 0 11053.0 -1.2708618556915745 1
gene  1 37 59 -1.686199696429314 0 11056.0 -1.686199696429314 1
gene  1 44 59 2.8209903161368235 0 11063.0 2.8209903161368235 1
gene  1 59 59 1.5474750613699024 1 11078.0 1.5474750613699024 1
gene  1 73 59 -5.395738540847104 1 11092.0 -5.395738540847104 1
gene  1 75 59 -1.4526591657697567 1 11094.0 -1.4526591657697567 1
gene  1 183 59 -3.2952743582707735 1 11202.0 -3.2952743582707735 1
gene  1 185 59 5.142255611232541 1 11204.0 5.142255611232541 1
gene  1 8 60 -0.9044312172090574 0 11217.0 -0.9044312172090574 1
gene  1 10 60 2.6807588318160986 0 11219.0 2.6807588318160986 1
gene  1 40 60 -0.3578640467899681 0 11249.0 -0.3578640467899681 1
gene  1 45 60 4.798844647640651 0 11254.0 4.798844647640651 1
gene  1 61 60 -2.045265298226494 1 11270.0 -2.045265298226494 1
gene  1 72 60 -0.7257194673094332 1 11281.0 -0.7257194673094332 1
gene  1 177 60 0.09174882059440725 1 11386.0 0.09174882059440725 1
gene  1 179 60 4.365040822107035 1 11388.0 4.365040822107035 1
gene  1 187 60 3.883550787747015 1 11396.0 3.883550787747015 1
gene  1 7 61 -6.051647548149872 0 11406.0 -6.051647548149872 1
gene  1 15 61 3.5756923593091106 0 11414.0 3.5756923593091106 1
gene  1 22 61 3.6072347246945067 0 11421.0 3.6072347246945067 1
gene  1 28 61 -0.7434791639540239 0 11427.0 -0.7434791639540239 1
gene  1 36 61 -4.61575929804253 0 11435.0 -4.61575929804253 1
gene  1 53 61 -0.34601667087380383 0 11452.0 -0.34601667087380383 1
gene  1 54 61 1.7682474057718067 0 11453.0 1.7682474057718067 1
gene  1 67 61 3.761332539425198 1 11466.0 3.761332539425198 1
gene  1 177 61 -1.4769292101379696 1 11576.0 -1.4769292101379696 1
gene  1 184 61 -5.956417649897404 1 11583.0 -5.956417649897404 1
gene  1 6 62 -1.0177407080602228 0 11595.0 -1.0177407080602228 1
gene  1 11 62 2.8742395400575833 0 11600.0 2.8742395400575833 1
gene  1 15 62 0.025222464568545266 0 11604.0 0.025222464568545266 1
gene  1 26 62 -1.4249742264383267 0 11615.0 -1.4249742264383267 1
gene  1 53 62 -0.5554684430561914 0 11642.0 -0.5554684430561914 1
gene  1 68 62 1.9879019883693236 1 11657.0 1.9879019883693236 1
gene  1 72 62 -13.688861853437803 1 11661.0 -13.688861853437803 1
gene  1 174 62 -0.2953302707759775 1 11763.0 -0.2953302707759775 1
gene  1 175 62 -8.021858721854802 1 11764.0 -8.021858721854802 1
gene  1 184 62 -2.5514594160912316 1 11773.0 -2.5514594160912316 1
gene  1 185 62 -5.813680179537233 1 11774.0 -5.813680179537233 1
gene  1 188 62 -0.018954933501324156 1 11777.0 -0.018954933501324156 1
gene  1 31 63 0.6871616954811197 0 11810.0 0.6871616954811197 1
gene  1 32 63 1.919070686039434 0 11811.0 1.919070686039434 1
gene  1 37 63 0.5236449335519677 0 11816.0 0.5236449335519677 1
gene  1 38 63 -0.3398618087150923 0 11817.0 -0.3398618087150923 1
gene  1 42 63 -6.021941246200321 0 11821.0 -6.021941246200321 1
gene  1 46 63 0.3446521360991639 0 11825.0 0.3446521360991639 1
gene  1 48 63 1.2327498655480968 0 11827.0 1.2327498655480968 1
gene  1 50 63 2.317917932126465 0 11829.0 2.317917932126465 1
gene  1 60 63 6.4115107367914925 0 11839.0 6.4115107367914925 1
gene  1 63 63 8.198989673438472 1 11842.0 8.198989673438472 1
gene  1 72 63 5.805451186397663 1 11851.0 5.805451186397663 1
gene  1 74 63 2.5660710538398304 1 11853.0 2.5660710538398304 1
gene  1 178 63 2.1360408538448477 1 11957.0 2.1360408538448477 1
gene  1 180 63 1.6670745328919925 1 11959.0 1.6670745328919925 1
gene  1 181 63 -3.9358122820933668 1 11960.0 -3.9358122820933668 1
gene  1 8 64 -0.1906114069351375 0 11977.0 -0.1906114069351375 1
gene  1 11 64 7.009999137927164 0 11980.0 7.009999137927164 1
gene  1 20 64 -0.9440015758737885 0 11989.0 -0.9440015758737885 1
gene  1 27 64 -1.1862302099637108 0 11996.0 -1.1862302099637108 1
gene  1 41 64 3.8970190642724214 0 12010.0 3.8970190642724214 1
gene  1 44 64 2.0110723340607732 0 12013.0 2.0110723340607732 1
gene  1 49 64 -2.0724042771883404 0 12018.0 -2.0724042771883404 1
gene  1 50 64 -1.3787245211087364 0 12019.0 -1.3787245211087364 1
gene  1 53 64 3.984432906914341 0 12022.0 3.984432906914341 1
gene  1 59 64 -0.3735392969358944 0 12028.0 -0.3735392969358944 1
gene  1 70 64 -2.7497660692039427 1 12039.0 -2.7497660692039427 1
gene  1 176 64 -0.9546398659989865 1 12145.0 -0.9546398659989865 1
gene  1 179 64 -6.154001399325887 1 12148.0 -6.154001399325887 1
gene  1 183 64 -1.919461915599412 1 12152.0 -1.919461915599412 1
gene  1 184 64 -0.3294908813121422 1 12153.0 -0.3294908813121422 1
gene  1 185 64 -5.2530508941327305 1 12154.0 -5.2530508941327305 1
gene  1 8 65 -3.7565835499820226 0 12167.0 -3.7565835499820226 1
gene  1 13 65 1.0641576419835987 0 12172.0 1.0641576419835987 1
gene  1 18 65 -1.5635397381731948 0 12177.0 -1.5635397381731948 1
gene  1 39 65 -1.485695294078542 0 12198.0 -1.485695294078542 1
gene  1 53 65 2.971857071570081 0 12212.0 2.971857071570081 1
gene  1 69 65 -1.619376442788056 1 12228.0 -1.619376442788056 1
gene  1 70 65 2.4649180941078574 1 12229.0 2.4649180941078574 1
gene  1 175 65 2.001082701245578 1 12334.0 2.001082701245578 1
gene  1 176 65 -4.9202470369927145 1 12335.0 -4.9202470369927145 1
gene  1 177 65 -2.4008645824908363 1 12336.0 -2.4008645824908363 1
gene  1 185 65 -3.1974684212410454 1 12344.0 -3.1974684212410454 1
gene  1 1 66 -1.362138990523853 0 12350.0 -1.362138990523853 1
gene  1 4 66 -0.7982371707237799 0 12353.0 -0.7982371707237799 1
gene  1 18 66 3.368756602400806 0 12367.0 3.368756602400806 1
gene  1 21 66 -2.5469980307106193 0 12370.0 -2.5469980307106193 1
gene  1 43 66 6.309167902792901 0 12392.0 6.309167902792901 1
gene  1 47 66 -1.110251454390761 0 12396.0 -1.110251454390761 1
gene  1 50 66 1.422458571077755 0 12399.0 1.422458571077755 1
gene  1 60 66 -3.729059500847184 0 12409.0 -3.729059500847184 1
gene  1 62 66 -1.7261064113563025 0 12411.0 -1.7261064113563025 1
gene  1 66 66 -3.4264082812819274 1 12415.0 -3.4264082812819274 1
gene  1 184 66 5.120378973586485 1 12533.0 5.120378973586485 1
gene  1 8 67 -4.378558800876715 0 12547.0 -4.378558800876715 1
gene  1 38 67 0.4405243218064534 0 12577.0 0.4405243218064534 1
gene  1 46 67 2.496322929450162 0 12585.0 2.496322929450162 1
gene  1 49 67 -3.258206296782583 0 12588.0 -3.258206296782583 1
gene  1 57 67 -2.3250513519852176 0 12596.0 -2.3250513519852176 1
gene  1 61 67 -6.543722258141462 0 12600.0 -6.543722258141462 1
gene  1 72 67 -5.083448399879279 1 12611.0 -5.083448399879279 1
gene  1 177 67 1.022299436885929 1 12716.0 1.022299436885929 1
gene  1 182 67 -5.867277080966629 1 12721.0 -5.867277080966629 1
gene  1 185 67 -1.7327516998389632 1 12724.0 -1.7327516998389632 1
gene  1 189 67 -0.5743722835018952 1 12728.0 -0.5743722835018952 1
gene  1 5 68 0.21304087087990836 0 12734.0 0.21304087087990836 1
gene  1 16 68 -5.473781191313044 0 12745.0 -5.473781191313044 1
gene  1 40 68 1.7398530939205985 0 12769.0 1.7398530939205985 1
gene  1 41 68 7.597083013705465 0 12770.0 7.597083013705465 1
gene  1 42 68 -2.3661547988598217 0 12771.0 -2.3661547988598217 1
gene  1 71 68 1.247193932232325 1 12800.0 1.247193932232325 1
gene  1 185 68 -3.0186600713722456 1 12914.0 -3.0186600713722456 1
gene  1 6 69 -0.17709522702075237 0 12925.0 -0.17709522702075237 1
gene  1 16 69 -0.5605572007229553 0 12935.0 -0.5605572007229553 1
gene  1 19 69 -8.273718817044156 0 12938.0 -8.273718817044156 1
gene  1 44 69 -3.5108829078686177 0 12963.0 -3.5108829078686177 1
gene  1 45 69 1.9595321067685256 0 12964.0 1.9595321067685256 1
gene  1 65 69 2.3967182365417865 0 12984.0 2.3967182365417865 1
gene  1 171 69 4.877499045584113 1 13090.0 4.877499045584113 1
gene  1 3 70 1.6794963432122592 0 13112.0 1.6794963432122592 1
gene  1 39 70 -1.6126178171511032 0 13148.0 -1.6126178171511032 1
gene  1 60 70 3.643848591119763 0 13169.0 3.643848591119763 1
gene  1 171 70 -8.278948539614564 1 13280.0 -8.278948539614564 1
gene  1 181 70 -0.7642523917777099 1 13290.0 -0.7642523917777099 1
gene  1 183 70 3.599753828043557 1 13292.0 3.599753828043557 1
gene  1 11 71 0.22603035486366974 0 13310.0 0.22603035486366974 1
gene  1 15 71 1.445501922724313 0 13314.0 1.445501922724313 1
gene  1 30 71 8.420392655282527 0 13329.0 8.420392655282527 1
gene  1 33 71 12.263074216177571 0 13332.0 12.263074216177571 1
gene  1 34 71 0.8396686628117225 0 13333.0 0.8396686628117225 1
gene  1 48 71 0.7470978395552108 0 13347.0 0.7470978395552108 1
gene  1 50 71 -0.9424913669717552 0 13349.0 -0.9424913669717552 1
gene  1 51 71 -7.119307881168541 0 13350.0 -7.119307881168541 1
gene  1 57 71 0.8356842777442453 0 13356.0 0.8356842777442453 1
gene  1 73 71 1.4128067606036518 1 13372.0 1.4128067606036518 1
gene  1 185 71 0.2879284610638713 1 13484.0 0.2879284610638713 1
gene  1 24 72 1.1498892276917856 0 13513.0 1.1498892276917856 1
gene  1 51 72 -1.4040827292956206 0 13540.0 -1.4040827292956206 1
gene  1 54 72 -2.5218893967434433 0 13543.0 -2.5218893967434433 1
gene  1 60 72 1.045951185907616 0 13549.0 1.045951185907616 1
gene  1 3 73 -1.6252630406857345 0 13682.0 -1.6252630406857345 1
gene  1 18 73 3.287264384486604 0 13697.0 3.287264384486604 1
gene  1 30 73 0.5457746886320441 0 13709.0 0.5457746886320441 1
gene  1 41 73 0.052203080404983226 0 13720.0 0.052203080404983226 1
gene  1 54 73 -6.858217522099931 0 13733.0 -6.858217522099931 1
gene  1 59 73 0.09762244583762736 0 13738.0 0.09762244583762736 1
gene  1 60 73 1.7809821322735864 0 13739.0 1.7809821322735864 1
gene  1 179 73 -2.427125198612379 1 13858.0 -2.427125198612379 1
gene  1 189 73 2.4454050888291246 1 13868.0 2.4454050888291246 1
gene  1 31 74 -2.193604367185178 0 13900.0 -2.193604367185178 1
gene  1 38 74 -22.829180794664172 0 13907.0 -22.829180794664172 1
gene  1 67 74 -8.115989174475871 0 13936.0 -8.115989174475871 1
gene  1 74 74 3.283281074226393 1 13943.0 3.283281074226393 1
gene  1 188 74 6.630494945987694 1 14057.0 6.630494945987694 1
gene  1 2 75 0.6317932887932871 0 14061.0 0.6317932887932871 1
gene  1 10 75 -2.223972277294826 0 14069.0 -2.223972277294826 1
gene  1 12 75 6.410094566363723 0 14071.0 6.410094566363723 1
gene  1 15 75 -0.47519718401343364 0 14074.0 -0.47519718401343364 1
gene  1 18 75 -7.295670566544441 0 14077.0 -7.295670566544441 1
gene  1 43 75 2.2913199921320695 0 14102.0 2.2913199921320695 1
gene  1 46 75 -1.1957124463651736 0 14105.0 -1.1957124463651736 1
gene  1 56 75 7.846166825839837 0 14115.0 7.846166825839837 1
gene  1 57 75 3.397323667851799 0 14116.0 3.397323667851799 1
gene  1 177 75 6.857688082381393 1 14236.0 6.857688082381393 1
gene  1 183 75 3.226284715965325 1 14242.0 3.226284715965325 1
gene  1 3 171 2.4193643467012835 0 32302.0 2.4193643467012835 1
gene  1 10 171 -4.786043654170519 0 32309.0 -4.786043654170519 1
gene  1 18 171 4.569770764310897 0 32317.0 4.569770764310897 1
gene  1 35 171 4.115922708263941 0 32334.0 4.115922708263941 1
gene  1 47 171 17.776718104297686 0 32346.0 17.776718104297686 1
gene  1 48 171 -3.1150303122636975 0 32347.0 -3.1150303122636975 1
gene  1 63 171 -0.29005292774582614 0 32362.0 -0.29005292774582614 1
gene  1 74 171 -2.5569605544359106 0 32373.0 -2.5569605544359106 1
gene  1 171 171 8.232152512367461 1 32470.0 8.232152512367461 1
gene  1 180 171 -12.676556758597577 1 32479.0 -12.676556758597577 1
gene  1 181 171 2.215928229146297 1 32480.0 2.215928229146297 1
gene  1 16 172 2.7368422293731625 0 32505.0 2.7368422293731625 1
gene  1 38 172 -4.454146005926667 0 32527.0 -4.454146005926667 1
gene  1 58 172 -5.422534865576799 0 32547.0 -5.422534865576799 1
gene  1 59 172 0.32273961635479453 0 32548.0 0.32273961635479453 1
gene  1 60 172 7.390975888400218 0 32549.0 7.390975888400218 1
gene  1 73 172 11.153118581058298 0 32562.0 11.153118581058298 1
gene  1 171 172 -1.1816687924254197 0 32660.0 -1.1816687924254197 1
gene  1 173 172 2.1892255556910705 1 32662.0 2.1892255556910705 1
gene  1 7 173 0.08185083450370079 0 32686.0 0.08185083450370079 1
gene  1 29 173 1.1242036441627201 0 32708.0 1.1242036441627201 1
gene  1 30 173 0.5869121117978695 0 32709.0 0.5869121117978695 1
gene  1 38 173 0.9225818690529004 0 32717.0 0.9225818690529004 1
gene  1 56 173 -9.311399804645957 0 32735.0 -9.311399804645957 1
gene  1 68 173 -2.1632079947174323 0 32747.0 -2.1632079947174323 1
gene  1 72 173 -1.0514579414625298 0 32751.0 -1.0514579414625298 1
gene  1 75 173 -4.417128762852517 0 32754.0 -4.417128762852517 1
gene  1 180 173 5.969503573704151 1 32859.0 5.969503573704151 1
gene  1 45 174 16.119018101050376 0 32914.0 16.119018101050376 1
gene  1 174 174 1.8376704445208885 1 33043.0 1.8376704445208885 1
gene  1 180 174 -1.5135849786779012 1 33049.0 -1.5135849786779012 1
gene  1 186 174 0.6267314408049933 1 33055.0 0.6267314408049933 1
gene  1 2 175 -0.18553070327556798 0 33061.0 -0.18553070327556798 1
gene  1 11 175 0.4237503417402608 0 33070.0 0.4237503417402608 1
gene  1 26 175 -5.560921413271891 0 33085.0 -5.560921413271891 1
gene  1 37 175 2.582705450977171 0 33096.0 2.582705450977171 1
gene  1 43 175 1.9240487366657584 0 33102.0 1.9240487366657584 1
gene  1 48 175 1.0090359617949474 0 33107.0 1.0090359617949474 1
gene  1 51 175 18.47179065371432 0 33110.0 18.47179065371432 1
gene  1 64 175 -3.317338447514825 0 33123.0 -3.317338447514825 1
gene  1 70 175 -1.774208547901022 0 33129.0 -1.774208547901022 1
gene  1 71 175 -8.891774126685199 0 33130.0 -8.891774126685199 1
gene  1 177 175 -0.6755832210091919 1 33236.0 -0.6755832210091919 1
gene  1 178 175 3.264032235619648 1 33237.0 3.264032235619648 1
gene  1 181 175 2.457750116074659 1 33240.0 2.457750116074659 1
gene  1 184 175 2.859491288869634 1 33243.0 2.859491288869634 1
gene  1 186 175 6.819575596233548 1 33245.0 6.819575596233548 1
gene  1 2 176 1.2162813498578315 0 33251.0 1.2162813498578315 1
gene  1 8 176 -0.05296450988434609 0 33257.0 -0.05296450988434609 1
gene  1 9 176 -16.838494973287375 0 33258.0 -16.838494973287375 1
gene  1 12 176 -0.9051040567858593 0 33261.0 -0.9051040567858593 1
gene  1 15 176 -5.0717027047594545 0 33264.0 -5.0717027047594545 1
gene  1 16 176 0.9161335562323087 0 33265.0 0.9161335562323087 1
gene  1 35 176 -2.3966428156756807 0 33284.0 -2.3966428156756807 1
gene  1 37 176 -3.9891690783503106 0 33286.0 -3.9891690783503106 1
gene  1 46 176 1.1263920957089952 0 33295.0 1.1263920957089952 1
gene  1 62 176 -2.2739590662858205 0 33311.0 -2.2739590662858205 1
gene  1 64 176 1.2272006174776822 0 33313.0 1.2272006174776822 1
gene  1 171 176 -1.9531508788247316 0 33420.0 -1.9531508788247316 1
gene  1 174 176 -2.3570205675995526 0 33423.0 -2.3570205675995526 1
gene  1 179 176 4.816380844391032 1 33428.0 4.816380844391032 1
gene  1 1 177 3.707619345913055 0 33440.0 3.707619345913055 1
gene  1 7 177 1.2266139627694956 0 33446.0 1.2266139627694956 1
gene  1 8 177 4.933722308291043 0 33447.0 4.933722308291043 1
gene  1 9 177 1.4602253258170736 0 33448.0 1.4602253258170736 1
gene  1 14 177 2.2215771173508507 0 33453.0 2.2215771173508507 1
gene  1 16 177 -0.887433056682379 0 33455.0 -0.887433056682379 1
gene  1 20 177 -2.8853497500904943 0 33459.0 -2.8853497500904943 1
gene  1 30 177 -2.600148120323459 0 33469.0 -2.600148120323459 1
gene  1 31 177 0.36764209774246187 0 33470.0 0.36764209774246187 1
gene  1 32 177 -4.510213940304057 0 33471.0 -4.510213940304057 1
gene  1 43 177 6.833203814322684 0 33482.0 6.833203814322684 1
gene  1 44 177 -4.4468971304104095 0 33483.0 -4.4468971304104095 1
gene  1 53 177 2.2895810417197002 0 33492.0 2.2895810417197002 1
gene  1 59 177 4.382140152795641 0 33498.0 4.382140152795641 1
gene  1 69 177 -0.054638657313073824 0 33508.0 -0.054638657313073824 1
gene  1 174 177 1.6082291465041494 0 33613.0 1.6082291465041494 1
gene  1 175 177 -2.481178454658764 0 33614.0 -2.481178454658764 1
gene  1 184 177 -5.810179034083129 1 33623.0 -5.810179034083129 1
gene  1 187 177 -5.175404570314408 1 33626.0 -5.175404570314408 1
gene  1 1 178 -7.420489544685351 0 33630.0 -7.420489544685351 1
gene  1 20 178 -6.289545828504921 0 33649.0 -6.289545828504921 1
gene  1 26 178 -1.5917343677794076 0 33655.0 -1.5917343677794076 1
gene  1 35 178 -1.0281348932546392 0 33664.0 -1.0281348932546392 1
gene  1 42 178 -0.040280105219426154 0 33671.0 -0.040280105219426154 1
gene  1 53 178 -2.83661578630718 0 33682.0 -2.83661578630718 1
gene  1 59 178 -0.046656585578506826 0 33688.0 -0.046656585578506826 1
gene  1 72 178 1.1632778634710301 0 33701.0 1.1632778634710301 1
gene  1 172 178 -2.4232419204859754 0 33801.0 -2.4232419204859754 1
gene  1 190 178 -0.1472169759164274 1 33819.0 -0.1472169759164274 1
gene  1 6 179 -2.286448008027374 0 33825.0 -2.286448008027374 1
gene  1 8 179 0.026861831046250395 0 33827.0 0.026861831046250395 1
gene  1 13 179 1.7848635812346472 0 33832.0 1.7848635812346472 1
gene  1 36 179 -0.2475941905209103 0 33855.0 -0.2475941905209103 1
gene  1 46 179 -3.358574330876584 0 33865.0 -3.358574330876584 1
gene  1 60 179 0.7512965813386565 0 33879.0 0.7512965813386565 1
gene  1 61 179 -1.7836203435572437 0 33880.0 -1.7836203435572437 1
gene  1 72 179 7.9494145789497335 0 33891.0 7.9494145789497335 1
gene  1 74 179 1.7015761041160353 0 33893.0 1.7015761041160353 1
gene  1 171 179 -0.6366583329950892 0 33990.0 -0.6366583329950892 1
gene  1 185 179 1.2518318972612623 1 34004.0 1.2518318972612623 1
gene  1 1 180 6.333106768933803 0 34010.0 6.333106768933803 1
gene  1 4 180 5.664225005397605 0 34013.0 5.664225005397605 1
gene  1 8 180 -1.983461449463134 0 34017.0 -1.983461449463134 1
gene  1 11 180 -0.20206719664243922 0 34020.0 -0.20206719664243922 1
gene  1 21 180 0.27610817739715054 0 34030.0 0.27610817739715054 1
gene  1 32 180 -2.3681626407149765 0 34041.0 -2.3681626407149765 1
gene  1 35 180 0.7783902633933371 0 34044.0 0.7783902633933371 1
gene  1 46 180 -6.070304106230701 0 34055.0 -6.070304106230701 1
gene  1 68 180 0.7424054053568039 0 34077.0 0.7424054053568039 1
gene  1 188 180 4.141474630235088 1 34197.0 4.141474630235088 1
gene  1 2 181 -1.385876398802741 0 34201.0 -1.385876398802741 1
gene  1 16 181 2.3095682930103703 0 34215.0 2.3095682930103703 1
gene  1 24 181 -9.709948855278451 0 34223.0 -9.709948855278451 1
gene  1 36 181 -3.4659375760528133 0 34235.0 -3.4659375760528133 1
gene  1 60 181 -2.382431039338187 0 34259.0 -2.382431039338187 1
gene  1 69 181 4.014962954385025 0 34268.0 4.014962954385025 1
gene  1 190 181 -1.0197249881090749 1 34389.0 -1.0197249881090749 1
gene  1 1 182 5.988615503397519 0 34390.0 5.988615503397519 1
gene  1 17 182 -0.7861302745013101 0 34406.0 -0.7861302745013101 1
gene  1 35 182 5.685602135232843 0 34424.0 5.685602135232843 1
gene  1 44 182 -5.593109177455184 0 34433.0 -5.593109177455184 1
gene  1 49 182 -1.6157707148476834 0 34438.0 -1.6157707148476834 1
gene  1 50 182 0.8759350853042047 0 34439.0 0.8759350853042047 1
gene  1 54 182 0.9663220967166863 0 34443.0 0.9663220967166863 1
gene  1 59 182 -0.8835234013603299 0 34448.0 -0.8835234013603299 1
gene  1 73 182 4.741524993833487 0 34462.0 4.741524993833487 1
gene  1 174 182 -5.298570511485623 0 34563.0 -5.298570511485623 1
gene  1 187 182 -3.734391197955785 1 34576.0 -3.734391197955785 1
gene  1 6 183 -7.3955966803968085 0 34585.0 -7.3955966803968085 1
gene  1 7 183 4.71243766685553 0 34586.0 4.71243766685553 1
gene  1 17 183 -2.5457275356206117 0 34596.0 -2.5457275356206117 1
gene  1 20 183 -5.588488145600183 0 34599.0 -5.588488145600183 1
gene  1 25 183 -4.9924221484166695 0 34604.0 -4.9924221484166695 1
gene  1 30 183 0.4029371421733568 0 34609.0 0.4029371421733568 1
gene  1 39 183 8.376950764205082E-4 0 34618.0 8.376950764205082E-4 1
gene  1 44 183 -2.126572220337228 0 34623.0 -2.126572220337228 1
gene  1 66 183 -2.2369590769073824 0 34645.0 -2.2369590769073824 1
gene  1 171 183 -5.572013291429959 0 34750.0 -5.572013291429959 1
gene  1 174 183 -4.865173407964227 0 34753.0 -4.865173407964227 1
gene  1 21 184 3.443948001746141 0 34790.0 3.443948001746141 1
gene  1 29 184 -0.52013138346328 0 34798.0 -0.52013138346328 1
gene  1 32 184 3.993762784471073 0 34801.0 3.993762784471073 1
gene  1 36 184 -3.04814244595712 0 34805.0 -3.04814244595712 1
gene  1 45 184 1.4786124300310195 0 34814.0 1.4786124300310195 1
gene  1 46 184 -11.237084039295993 0 34815.0 -11.237084039295993 1
gene  1 63 184 -0.10336885776347127 0 34832.0 -0.10336885776347127 1
gene  1 66 184 2.715286716370918 0 34835.0 2.715286716370918 1
gene  1 177 184 -2.5552885693510126 0 34946.0 -2.5552885693510126 1
gene  1 31 185 -0.3448971491442512 0 34990.0 -0.3448971491442512 1
gene  1 50 185 1.4360135089637738 0 35009.0 1.4360135089637738 1
gene  1 56 185 2.8815143492197137 0 35015.0 2.8815143492197137 1
gene  1 58 185 0.6458285440580047 0 35017.0 0.6458285440580047 1
gene  1 62 185 -3.2560453235268185 0 35021.0 -3.2560453235268185 1
gene  1 173 185 5.162775568256386 0 35132.0 5.162775568256386 1
gene  1 179 185 -8.411277026124102 0 35138.0 -8.411277026124102 1
gene  1 182 185 -2.4430481600549316 0 35141.0 -2.4430481600549316 1
gene  1 188 185 1.5849759321213825 1 35147.0 1.5849759321213825 1
gene  1 1 186 2.0468757920278184 0 35150.0 2.0468757920278184 1
gene  1 3 186 2.723380524344362 0 35152.0 2.723380524344362 1
gene  1 4 186 -2.158779799804111 0 35153.0 -2.158779799804111 1
gene  1 6 186 -1.8913854143625841 0 35155.0 -1.8913854143625841 1
gene  1 7 186 -0.6015599899383242 0 35156.0 -0.6015599899383242 1
gene  1 17 186 5.013304771010391 0 35166.0 5.013304771010391 1
gene  1 23 186 1.0091945909421307 0 35172.0 1.0091945909421307 1
gene  1 28 186 1.8993394779726516 0 35177.0 1.8993394779726516 1
gene  1 33 186 -1.022101647242688 0 35182.0 -1.022101647242688 1
gene  1 36 186 -2.984589948854144 0 35185.0 -2.984589948854144 1
gene  1 58 186 12.990560549698102 0 35207.0 12.990560549698102 1
gene  1 69 186 -4.350430552277668 0 35218.0 -4.350430552277668 1
gene  1 70 186 -1.3633122974789713 0 35219.0 -1.3633122974789713 1
gene  1 72 186 1.7168170873648387 0 35221.0 1.7168170873648387 1
gene  1 10 187 4.176318576262313 0 35349.0 4.176318576262313 1
gene  1 25 187 -1.3105772376016342 0 35364.0 -1.3105772376016342 1
gene  1 31 187 -1.84547744493982 0 35370.0 -1.84547744493982 1
gene  1 33 187 0.4629570372635232 0 35372.0 0.4629570372635232 1
gene  1 47 187 -1.9195184226869673 0 35386.0 -1.9195184226869673 1
gene  1 57 187 5.01781138954009 0 35396.0 5.01781138954009 1
gene  1 183 187 5.836694871001376 0 35522.0 5.836694871001376 1
gene  1 184 187 0.37108273276975356 0 35523.0 0.37108273276975356 1
gene  1 5 188 2.97720852872262 0 35534.0 2.97720852872262 1
gene  1 6 188 2.2707557628112793 0 35535.0 2.2707557628112793 1
gene  1 12 188 3.643706871457085 0 35541.0 3.643706871457085 1
gene  1 28 188 -3.7627285256597185 0 35557.0 -3.7627285256597185 1
gene  1 32 188 1.8599706767231348 0 35561.0 1.8599706767231348 1
gene  1 35 188 0.6003758032514703 0 35564.0 0.6003758032514703 1
gene  1 57 188 0.2394314292919037 0 35586.0 0.2394314292919037 1
gene  1 172 188 -1.1804919028119731 0 35701.0 -1.1804919028119731 1
gene  1 14 189 -0.48911189932109966 0 35733.0 -0.48911189932109966 1
gene  1 17 189 1.4602582493707879 0 35736.0 1.4602582493707879 1
gene  1 27 189 0.5996711928670624 0 35746.0 0.5996711928670624 1
gene  1 37 189 0.026760619904005356 0 35756.0 0.026760619904005356 1
gene  1 43 189 -1.741499494978778 0 35762.0 -1.741499494978778 1
gene  1 51 189 -1.306752751017425 0 35770.0 -1.306752751017425 1
gene  1 56 189 1.0175255794033116 0 35775.0 1.0175255794033116 1
gene  1 59 189 4.678668952466216 0 35778.0 4.678668952466216 1
gene  1 65 189 1.42906045720592 0 35784.0 1.42906045720592 1
gene  1 73 189 -1.260808292773083 0 35792.0 -1.260808292773083 1
gene  1 74 189 -1.6415896751504198 0 35793.0 -1.6415896751504198 1
gene  1 178 189 -0.2982545965881664 0 35897.0 -0.2982545965881664 1
gene  1 1 190 -0.5494677061731055 0 35910.0 -0.5494677061731055 1
gene  1 4 190 1.1700753957720242 0 35913.0 1.1700753957720242 1
gene  1 15 190 3.373306661146715 0 35924.0 3.373306661146715 1
gene  1 22 190 0.9791496449368555 0 35931.0 0.9791496449368555 1
gene  1 33 190 1.4749618414962986 0 35942.0 1.4749618414962986 1
gene  1 58 190 0.9223430508155102 0 35967.0 0.9223430508155102 1
gene  1 60 190 6.312792692837654 0 35969.0 6.312792692837654 1
gene  1 67 190 -0.8330309482599152 0 35976.0 -0.8330309482599152 1
gene  1 179 190 2.093327287480131 0 36088.0 2.093327287480131 1
gene  1 181 190 1.4071272883061443 0 36090.0 1.4071272883061443 1
gene  1 182 190 1.8338427707178169 0 36091.0 1.8338427707178169 1
gene  1 184 190 5.708331339086538 0 36093.0 5.708331339086538 1
gene  1 186 190 0.7907547680860376 0 36095.0 0.7907547680860376 1
gene  1 187 190 -2.1251380893723626 0 36096.0 -2.1251380893723626 1
gene  1 65 188 -1.1876566537509112 0 36109.0 -1.1876566537509112 1
gene  1 1 193 -0.37009515870865517 0 36113.0 -0.37009515870865517 1
gene  1 193 190 -1.073836756200039 0 36114.0 -1.073836756200039 1
gene  1 29 68 1.6448607334586143 0 36116.0 1.6448607334586143 1
gene  1 74 51 3.1060281812024106 0 36124.0 3.1060281812024106 1
gene  1 9 179 -2.234239503452841 0 36131.0 -2.234239503452841 1
gene  1 8 61 -2.3856621689520345 0 36157.0 -2.3856621689520345 1
gene  1 9 72 -5.980329550978875 0 36168.0 -5.980329550978875 1
gene  1 185 180 -1.407429623175286 0 36224.0 -1.407429623175286 1
gene  1 10 67 0.535098404501116 0 36252.0 0.535098404501116 1
gene  1 39 176 4.984775254668321 0 36254.0 4.984775254668321 1
