genomestart  20
trait 1 0.0 0.4173883318880971 0.0 0.0 0.0 0.9194346701694869 0.5364472303960894 0.0 
node 1 1 1 1
node 2 1 1 1
node 3 1 1 1
node 4 1 1 1
node 5 1 1 1
node 6 1 1 1
node 7 1 1 1
node 8 1 1 1
node 9 1 1 1
node 10 1 1 1
node 11 1 1 1
node 12 1 1 1
node 13 1 1 1
node 14 1 1 1
node 15 1 1 1
node 16 1 1 1
node 17 1 1 1
node 18 1 1 1
node 19 1 1 1
node 20 1 1 1
node 21 1 1 1
node 22 1 1 1
node 23 1 1 1
node 24 1 1 1
node 25 1 1 1
node 26 1 1 1
node 27 1 1 1
node 28 1 1 1
node 29 1 1 1
node 30 1 1 1
node 31 1 1 1
node 32 1 1 1
node 33 1 1 1
node 34 1 1 1
node 35 1 1 1
node 36 1 1 1
node 37 1 1 1
node 38 1 1 1
node 39 1 1 1
node 40 1 1 1
node 41 1 1 1
node 42 1 1 1
node 43 1 1 1
node 44 1 1 1
node 45 1 1 1
node 46 1 1 1
node 47 1 1 1
node 48 1 1 1
node 49 1 1 1
node 50 1 1 3
node 51 1 0 0
node 52 1 0 0
node 53 1 0 0
node 54 1 0 0
node 55 1 0 0
node 56 1 0 0
node 57 1 0 0
node 58 1 0 0
node 59 1 0 0
node 60 1 0 0
node 171 1 0 2
node 172 1 0 2
node 173 1 0 2
node 174 1 0 2
node 175 1 0 2
node 176 1 0 2
node 177 1 0 2
node 178 1 0 2
node 179 1 0 2
node 180 1 0 2
node 181 1 0 2
node 182 1 0 2
node 183 1 0 2
node 184 1 0 2
node 185 1 0 2
node 186 1 0 2
node 187 1 0 2
node 188 1 0 2
node 189 1 0 2
node 190 1 0 2
node 195 1 0 0
gene  1 1 51 3.511566340850875 0 9500.0 3.511566340850875 1
gene  1 2 51 -5.152462301600508 0 9501.0 -5.152462301600508 1
gene  1 4 51 -4.994639032901334 0 9503.0 -4.994639032901334 1
gene  1 6 51 5.707453780418458 0 9505.0 5.707453780418458 1
gene  1 8 51 3.223785660167109 0 9507.0 3.223785660167109 1
gene  1 11 51 -3.5608845383055354 0 9510.0 -3.5608845383055354 1
gene  1 12 51 -3.147168640958907 0 9511.0 -3.147168640958907 1
gene  1 14 51 -1.2727716411147694 0 9513.0 -1.2727716411147694 1
gene  1 16 51 7.030484498217211 0 9515.0 7.030484498217211 1
gene  1 18 51 -3.6784797336865234 0 9517.0 -3.6784797336865234 1
gene  1 19 51 4.273644438791255 0 9518.0 4.273644438791255 1
gene  1 24 51 -0.7946692030492413 0 9523.0 -0.7946692030492413 1
gene  1 28 51 -4.465300694849501 0 9527.0 -4.465300694849501 1
gene  1 29 51 -2.7176993545990396 0 9528.0 -2.7176993545990396 1
gene  1 30 51 3.7498232136237855 0 9529.0 3.7498232136237855 1
gene  1 31 51 -1.0414894410282833 0 9530.0 -1.0414894410282833 1
gene  1 34 51 2.4292566953745025 0 9533.0 2.4292566953745025 1
gene  1 39 51 3.543804088112044 0 9538.0 3.543804088112044 1
gene  1 40 51 -3.606386138775111 0 9539.0 -3.606386138775111 1
gene  1 41 51 -2.8137783462747357 0 9540.0 -2.8137783462747357 1
gene  1 44 51 2.9158781193411096 0 9543.0 2.9158781193411096 1
gene  1 46 51 1.7969270574745082 0 9545.0 1.7969270574745082 1
gene  1 48 51 -0.7556866545192684 0 9547.0 -0.7556866545192684 1
gene  1 49 51 -1.115442540800558 0 9548.0 -1.115442540800558 1
gene  1 53 51 7.76927839693608 1 9552.0 7.76927839693608 1
gene  1 56 51 -0.07000039085195342 1 9555.0 -0.07000039085195342 1
gene  1 57 51 -0.2575800526770493 1 9556.0 -0.2575800526770493 1
gene  1 171 51 6.218255457075818 1 9670.0 6.218255457075818 1
gene  1 173 51 -1.1232144591640578 1 9672.0 -1.1232144591640578 1
gene  1 176 51 2.853467823463439 1 9675.0 2.853467823463439 1
gene  1 177 51 -2.3443058838144304 1 9676.0 -2.3443058838144304 1
gene  1 179 51 -2.231233449721904 1 9678.0 -2.231233449721904 1
gene  1 180 51 5.409473306700388 1 9679.0 5.409473306700388 1
gene  1 181 51 -6.194340648018349 1 9680.0 -6.194340648018349 1
gene  1 182 51 -0.9636629763334709 1 9681.0 -0.9636629763334709 1
gene  1 184 51 2.2939997446899367 1 9683.0 2.2939997446899367 1
gene  1 186 51 -3.589502989814658 1 9685.0 -3.589502989814658 1
gene  1 187 51 5.027613266756023 1 9686.0 5.027613266756023 1
gene  1 188 51 -5.501562636875512 1 9687.0 -5.501562636875512 1
gene  1 8 52 0.2577066861704441 0 9697.0 0.2577066861704441 1
gene  1 9 52 0.7495551602855984 0 9698.0 0.7495551602855984 1
gene  1 10 52 2.9414969431597284 0 9699.0 2.9414969431597284 1
gene  1 11 52 -2.6544187360381626 0 9700.0 -2.6544187360381626 1
gene  1 16 52 -3.4843168644387337 0 9705.0 -3.4843168644387337 1
gene  1 18 52 1.8061525964276226 0 9707.0 1.8061525964276226 1
gene  1 19 52 4.09501104625183 0 9708.0 4.09501104625183 1
gene  1 21 52 2.1512168475599283 0 9710.0 2.1512168475599283 1
gene  1 22 52 -0.048734421156905405 0 9711.0 -0.048734421156905405 1
gene  1 23 52 0.9829222911679745 0 9712.0 0.9829222911679745 1
gene  1 24 52 0.6027997727103803 0 9713.0 0.6027997727103803 1
gene  1 27 52 -2.6326029986928927 0 9716.0 -2.6326029986928927 1
gene  1 28 52 1.5590292805762607 0 9717.0 1.5590292805762607 1
gene  1 29 52 -0.9912932118054092 0 9718.0 -0.9912932118054092 1
gene  1 34 52 -4.057708291035387 0 9723.0 -4.057708291035387 1
gene  1 35 52 2.04998348463116 0 9724.0 2.04998348463116 1
gene  1 36 52 -0.9982427959722399 0 9725.0 -0.9982427959722399 1
gene  1 39 52 -2.313682187657435 0 9728.0 -2.313682187657435 1
gene  1 41 52 -5.253229641226397 0 9730.0 -5.253229641226397 1
gene  1 43 52 -2.213279031174485 0 9732.0 -2.213279031174485 1
gene  1 44 52 -5.365184920585242 0 9733.0 -5.365184920585242 1
gene  1 45 52 -7.345768262080499 0 9734.0 -7.345768262080499 1
gene  1 46 52 -0.21873406441163312 0 9735.0 -0.21873406441163312 1
gene  1 47 52 1.8633779828074593 0 9736.0 1.8633779828074593 1
gene  1 48 52 -0.28395452481270245 0 9737.0 -0.28395452481270245 1
gene  1 49 52 3.0213914749284507 0 9738.0 3.0213914749284507 1
gene  1 51 52 -3.7784939739311216 0 9740.0 -3.7784939739311216 1
gene  1 52 52 -0.4030889050854758 1 9741.0 -0.4030889050854758 1
gene  1 54 52 0.5418492298429215 1 9743.0 0.5418492298429215 1
gene  1 58 52 1.5498698779462514 1 9747.0 1.5498698779462514 1
gene  1 60 52 -0.9996854021907042 1 9749.0 -0.9996854021907042 1
gene  1 171 52 2.3983464099336818 1 9860.0 2.3983464099336818 1
gene  1 173 52 -5.776340783727285 1 9862.0 -5.776340783727285 1
gene  1 175 52 2.9966909049135593 1 9864.0 2.9966909049135593 1
gene  1 176 52 7.040728653694975 1 9865.0 7.040728653694975 1
gene  1 177 52 -1.050576102251656 1 9866.0 -1.050576102251656 1
gene  1 178 52 3.7419347748663006 1 9867.0 3.7419347748663006 1
gene  1 179 52 2.7805822136362157 1 9868.0 2.7805822136362157 1
gene  1 183 52 -0.19680172413188424 1 9872.0 -0.19680172413188424 1
gene  1 185 52 -3.3944686560512296 1 9874.0 -3.3944686560512296 1
gene  1 187 52 -5.761850443448504 1 9876.0 -5.761850443448504 1
gene  1 188 52 -0.25125047305103454 1 9877.0 -0.25125047305103454 1
gene  1 190 52 -3.426615245299035 1 9879.0 -3.426615245299035 1
gene  1 1 53 4.621135283171104 0 9880.0 4.621135283171104 1
gene  1 3 53 3.532655511307783 0 9882.0 3.532655511307783 1
gene  1 5 53 -0.8694799344085724 0 9884.0 -0.8694799344085724 1
gene  1 9 53 -2.893549808087964 0 9888.0 -2.893549808087964 1
gene  1 13 53 2.057448340662505 0 9892.0 2.057448340662505 1
gene  1 15 53 -5.0037575662192 0 9894.0 -5.0037575662192 1
gene  1 18 53 -0.42655425215253995 0 9897.0 -0.42655425215253995 1
gene  1 19 53 1.0666848990462636 0 9898.0 1.0666848990462636 1
gene  1 20 53 -2.3307240745272253 0 9899.0 -2.3307240745272253 1
gene  1 21 53 -1.9251235983093467 0 9900.0 -1.9251235983093467 1
gene  1 22 53 0.9489869517245852 0 9901.0 0.9489869517245852 1
gene  1 24 53 2.4398206048523323 0 9903.0 2.4398206048523323 1
gene  1 26 53 -3.8651610611822855 0 9905.0 -3.8651610611822855 1
gene  1 27 53 -1.2439347524770044 0 9906.0 -1.2439347524770044 1
gene  1 28 53 -0.12019182964420588 0 9907.0 -0.12019182964420588 1
gene  1 29 53 -3.0172489957319764 0 9908.0 -3.0172489957319764 1
gene  1 30 53 7.487138101288315 0 9909.0 7.487138101288315 1
gene  1 31 53 -5.109393033694963 0 9910.0 -5.109393033694963 1
gene  1 32 53 0.3890646422612771 0 9911.0 0.3890646422612771 1
gene  1 33 53 -3.904879586863206 0 9912.0 -3.904879586863206 1
gene  1 34 53 1.9351917515987669 0 9913.0 1.9351917515987669 1
gene  1 35 53 1.899207022494243 0 9914.0 1.899207022494243 1
gene  1 36 53 -9.661910007689224 0 9915.0 -9.661910007689224 1
gene  1 37 53 1.3294962376104613 0 9916.0 1.3294962376104613 1
gene  1 38 53 1.9416629414073796 0 9917.0 1.9416629414073796 1
gene  1 39 53 5.6343187693570975 0 9918.0 5.6343187693570975 1
gene  1 41 53 0.18396556462464375 0 9920.0 0.18396556462464375 1
gene  1 42 53 -7.435255807246241 0 9921.0 -7.435255807246241 1
gene  1 43 53 4.572345012002888 0 9922.0 4.572345012002888 1
gene  1 44 53 -0.2603785713440444 0 9923.0 -0.2603785713440444 1
gene  1 46 53 1.2952093651854817 0 9925.0 1.2952093651854817 1
gene  1 50 53 3.2739568018374725 0 9929.0 3.2739568018374725 1
gene  1 51 53 7.8709301673203855 0 9930.0 7.8709301673203855 1
gene  1 53 53 -2.5480496308237663 1 9932.0 -2.5480496308237663 1
gene  1 54 53 -1.5299291228575955 1 9933.0 -1.5299291228575955 1
gene  1 55 53 0.10918569691130486 1 9934.0 0.10918569691130486 1
gene  1 56 53 6.366072566736641 1 9935.0 6.366072566736641 1
gene  1 57 53 2.184012258688675 1 9936.0 2.184012258688675 1
gene  1 58 53 -7.515549081064953 1 9937.0 -7.515549081064953 1
gene  1 172 53 0.5418934918612001 1 10051.0 0.5418934918612001 1
gene  1 174 53 1.9885694276894956 1 10053.0 1.9885694276894956 1
gene  1 178 53 -0.9596914660362437 1 10057.0 -0.9596914660362437 1
gene  1 180 53 2.189208606965466 1 10059.0 2.189208606965466 1
gene  1 181 53 4.485848334955297 1 10060.0 4.485848334955297 1
gene  1 182 53 2.2112092416149185 1 10061.0 2.2112092416149185 1
gene  1 186 53 4.143939036888853 1 10065.0 4.143939036888853 1
gene  1 187 53 -0.926210649993281 1 10066.0 -0.926210649993281 1
gene  1 188 53 -3.3077540307336575 1 10067.0 -3.3077540307336575 1
gene  1 190 53 -3.8750166007583875 1 10069.0 -3.8750166007583875 1
gene  1 2 54 0.009764145252915801 0 10071.0 0.009764145252915801 1
gene  1 3 54 -4.201670595580117 0 10072.0 -4.201670595580117 1
gene  1 7 54 2.1638862994803034 0 10076.0 2.1638862994803034 1
gene  1 8 54 -0.18242414851839 0 10077.0 -0.18242414851839 1
gene  1 9 54 -1.3646852215234948 0 10078.0 -1.3646852215234948 1
gene  1 11 54 1.811065251976084 0 10080.0 1.811065251976084 1
gene  1 12 54 0.06715192152691618 0 10081.0 0.06715192152691618 1
gene  1 18 54 -1.8641170706104542 0 10087.0 -1.8641170706104542 1
gene  1 19 54 2.21872048467504 0 10088.0 2.21872048467504 1
gene  1 21 54 3.949415932495241 0 10090.0 3.949415932495241 1
gene  1 23 54 -3.9949288476801126 0 10092.0 -3.9949288476801126 1
gene  1 24 54 3.9595401181083005 0 10093.0 3.9595401181083005 1
gene  1 25 54 -0.6518669943112702 0 10094.0 -0.6518669943112702 1
gene  1 26 54 -3.5053933271124547 0 10095.0 -3.5053933271124547 1
gene  1 27 54 -1.7804337794780554 0 10096.0 -1.7804337794780554 1
gene  1 30 54 5.015932836951337 0 10099.0 5.015932836951337 1
gene  1 32 54 -1.052665701396383 0 10101.0 -1.052665701396383 1
gene  1 33 54 -2.2971685241030153 0 10102.0 -2.2971685241030153 1
gene  1 34 54 0.47134881677640117 0 10103.0 0.47134881677640117 1
gene  1 35 54 1.7307160877849022 0 10104.0 1.7307160877849022 1
gene  1 37 54 -1.4696205598024976 0 10106.0 -1.4696205598024976 1
gene  1 41 54 0.6618727409856692 0 10110.0 0.6618727409856692 1
gene  1 43 54 -2.248697661482242 0 10112.0 -2.248697661482242 1
gene  1 45 54 2.3359342609812046 0 10114.0 2.3359342609812046 1
gene  1 46 54 4.686729219213336 0 10115.0 4.686729219213336 1
gene  1 47 54 -4.980686192197347 0 10116.0 -4.980686192197347 1
gene  1 48 54 -0.27271158749217594 0 10117.0 -0.27271158749217594 1
gene  1 52 54 4.362926691766896 0 10121.0 4.362926691766896 1
gene  1 53 54 6.168767325822273 0 10122.0 6.168767325822273 1
gene  1 54 54 -6.808143517269107 1 10123.0 -6.808143517269107 1
gene  1 55 54 -2.128356471380849 1 10124.0 -2.128356471380849 1
gene  1 60 54 1.4285030695804333 1 10129.0 1.4285030695804333 1
gene  1 171 54 -2.99377114013725 1 10240.0 -2.99377114013725 1
gene  1 177 54 0.384922935399749 1 10246.0 0.384922935399749 1
gene  1 178 54 -2.353553166956517 1 10247.0 -2.353553166956517 1
gene  1 179 54 3.0124886540640263 1 10248.0 3.0124886540640263 1
gene  1 182 54 -3.117819196776269 1 10251.0 -3.117819196776269 1
gene  1 183 54 -1.3826733733335035 1 10252.0 -1.3826733733335035 1
gene  1 184 54 -6.306679928575068 1 10253.0 -6.306679928575068 1
gene  1 186 54 0.5794871668248223 1 10255.0 0.5794871668248223 1
gene  1 187 54 -4.694717966723271 1 10256.0 -4.694717966723271 1
gene  1 189 54 5.660253548241849 1 10258.0 5.660253548241849 1
gene  1 1 55 -0.6725795239425488 0 10260.0 -0.6725795239425488 1
gene  1 6 55 1.576609609147958 0 10265.0 1.576609609147958 1
gene  1 7 55 -1.8184303521994092 0 10266.0 -1.8184303521994092 1
gene  1 9 55 -5.290493896714572 0 10268.0 -5.290493896714572 1
gene  1 10 55 -1.6568279159578558 0 10269.0 -1.6568279159578558 1
gene  1 11 55 0.2180648185705759 0 10270.0 0.2180648185705759 1
gene  1 14 55 5.9974845147644995 0 10273.0 5.9974845147644995 1
gene  1 15 55 -1.8496056169395796 0 10274.0 -1.8496056169395796 1
gene  1 16 55 5.99676889642318 0 10275.0 5.99676889642318 1
gene  1 19 55 1.6600765404605715 0 10278.0 1.6600765404605715 1
gene  1 20 55 -1.1770326766725576 0 10279.0 -1.1770326766725576 1
gene  1 21 55 0.9255792658262407 0 10280.0 0.9255792658262407 1
gene  1 24 55 4.686985337336193 0 10283.0 4.686985337336193 1
gene  1 26 55 0.879001840608355 0 10285.0 0.879001840608355 1
gene  1 27 55 2.9271266204016912 0 10286.0 2.9271266204016912 1
gene  1 30 55 -0.9793399936581331 0 10289.0 -0.9793399936581331 1
gene  1 31 55 -5.7546503116910985 0 10290.0 -5.7546503116910985 1
gene  1 33 55 4.526243182793568 0 10292.0 4.526243182793568 1
gene  1 34 55 0.5475682932008364 0 10293.0 0.5475682932008364 1
gene  1 36 55 -2.360929263899171 0 10295.0 -2.360929263899171 1
gene  1 37 55 5.339525996548799 0 10296.0 5.339525996548799 1
gene  1 38 55 -2.359963300655398 0 10297.0 -2.359963300655398 1
gene  1 39 55 3.613506497084251 0 10298.0 3.613506497084251 1
gene  1 40 55 3.7531369639807868 0 10299.0 3.7531369639807868 1
gene  1 41 55 -2.5742679989767967 0 10300.0 -2.5742679989767967 1
gene  1 43 55 7.3198111172199045 0 10302.0 7.3198111172199045 1
gene  1 45 55 3.004832709218003 0 10304.0 3.004832709218003 1
gene  1 48 55 -2.410139969858663 0 10307.0 -2.410139969858663 1
gene  1 49 55 4.669257637129336 0 10308.0 4.669257637129336 1
gene  1 50 55 -6.470443023909423 0 10309.0 -6.470443023909423 1
gene  1 51 55 -0.4628547808213085 0 10310.0 -0.4628547808213085 1
gene  1 52 55 -4.3090863907745085 0 10311.0 -4.3090863907745085 1
gene  1 55 55 0.9677777562539717 1 10314.0 0.9677777562539717 1
gene  1 58 55 -7.436684946014598 1 10317.0 -7.436684946014598 1
gene  1 60 55 -3.771183557518847 1 10319.0 -3.771183557518847 1
gene  1 172 55 4.5273368650091435 1 10431.0 4.5273368650091435 1
gene  1 174 55 -5.5461608022906965 1 10433.0 -5.5461608022906965 1
gene  1 176 55 4.769736301636431 1 10435.0 4.769736301636431 1
gene  1 177 55 3.524891654667031 1 10436.0 3.524891654667031 1
gene  1 185 55 -6.705390937407214 1 10444.0 -6.705390937407214 1
gene  1 188 55 0.5961132845043198 1 10447.0 0.5961132845043198 1
gene  1 189 55 -2.1352906735674804 1 10448.0 -2.1352906735674804 1
gene  1 4 56 -4.562224383392593 0 10453.0 -4.562224383392593 1
gene  1 5 56 -4.388347277230754 0 10454.0 -4.388347277230754 1
gene  1 7 56 0.7037824198835543 0 10456.0 0.7037824198835543 1
gene  1 8 56 3.746956432956218 0 10457.0 3.746956432956218 1
gene  1 9 56 -1.5525603103066188 0 10458.0 -1.5525603103066188 1
gene  1 10 56 -2.5096426505533045 0 10459.0 -2.5096426505533045 1
gene  1 11 56 3.7685032964631784 0 10460.0 3.7685032964631784 1
gene  1 13 56 6.35410189956094 0 10462.0 6.35410189956094 1
gene  1 15 56 3.4355680545474243 0 10464.0 3.4355680545474243 1
gene  1 17 56 -4.266677780402788 0 10466.0 -4.266677780402788 1
gene  1 19 56 0.8524437399583102 0 10468.0 0.8524437399583102 1
gene  1 20 56 -1.5999829154209655 0 10469.0 -1.5999829154209655 1
gene  1 21 56 -7.820753507945611 0 10470.0 -7.820753507945611 1
gene  1 23 56 -0.6970454653877918 0 10472.0 -0.6970454653877918 1
gene  1 26 56 5.052023457857974 0 10475.0 5.052023457857974 1
gene  1 29 56 -0.8594394279483021 0 10478.0 -0.8594394279483021 1
gene  1 32 56 2.4528664865151457 0 10481.0 2.4528664865151457 1
gene  1 33 56 -0.9590776228378234 0 10482.0 -0.9590776228378234 1
gene  1 35 56 -0.6612323852658313 0 10484.0 -0.6612323852658313 1
gene  1 36 56 4.389893250436804 0 10485.0 4.389893250436804 1
gene  1 40 56 -0.6761873216967127 0 10489.0 -0.6761873216967127 1
gene  1 41 56 1.2183091964957988 0 10490.0 1.2183091964957988 1
gene  1 44 56 5.406168731816492 0 10493.0 5.406168731816492 1
gene  1 45 56 0.7745188368253474 0 10494.0 0.7745188368253474 1
gene  1 47 56 -6.527248263440866 0 10496.0 -6.527248263440866 1
gene  1 49 56 -0.7755815564355857 0 10498.0 -0.7755815564355857 1
gene  1 50 56 3.687310157391207 0 10499.0 3.687310157391207 1
gene  1 51 56 2.2795526328035463 0 10500.0 2.2795526328035463 1
gene  1 52 56 -3.2993186871933786 0 10501.0 -3.2993186871933786 1
gene  1 53 56 -4.538087933853059 0 10502.0 -4.538087933853059 1
gene  1 54 56 -0.06765621097728247 0 10503.0 -0.06765621097728247 1
gene  1 55 56 -3.1504067892828744 0 10504.0 -3.1504067892828744 1
gene  1 56 56 2.9227871893414 1 10505.0 2.9227871893414 1
gene  1 57 56 -0.33846807427066034 1 10506.0 -0.33846807427066034 1
gene  1 59 56 0.6303031145881272 1 10508.0 0.6303031145881272 1
gene  1 172 56 -5.679802542947318 1 10621.0 -5.679802542947318 1
gene  1 176 56 -0.08289057672296196 1 10625.0 -0.08289057672296196 1
gene  1 177 56 3.2623336014885504 1 10626.0 3.2623336014885504 1
gene  1 178 56 4.701543425305318 1 10627.0 4.701543425305318 1
gene  1 179 56 3.8053444863796377 1 10628.0 3.8053444863796377 1
gene  1 181 56 3.003943503719214 1 10630.0 3.003943503719214 1
gene  1 182 56 -11.798826670005248 1 10631.0 -11.798826670005248 1
gene  1 186 56 6.775589246180003 1 10635.0 6.775589246180003 1
gene  1 188 56 4.6096701240051665 1 10637.0 4.6096701240051665 1
gene  1 189 56 8.415729889674145 1 10638.0 8.415729889674145 1
gene  1 2 57 -0.5679160563467041 0 10641.0 -0.5679160563467041 1
gene  1 4 57 -1.1808139627695144 0 10643.0 -1.1808139627695144 1
gene  1 5 57 4.008410118148614 0 10644.0 4.008410118148614 1
gene  1 6 57 1.9355981034289647 0 10645.0 1.9355981034289647 1
gene  1 8 57 3.4397233904264186 0 10647.0 3.4397233904264186 1
gene  1 10 57 -0.4377781630653952 0 10649.0 -0.4377781630653952 1
gene  1 12 57 -1.025295006350707 0 10651.0 -1.025295006350707 1
gene  1 14 57 1.9488430923631301 0 10653.0 1.9488430923631301 1
gene  1 15 57 -2.3499083694475043 0 10654.0 -2.3499083694475043 1
gene  1 16 57 -5.473325324640017 0 10655.0 -5.473325324640017 1
gene  1 17 57 0.6525888846568816 0 10656.0 0.6525888846568816 1
gene  1 19 57 5.257409579724142 0 10658.0 5.257409579724142 1
gene  1 20 57 -3.5469581124551093 0 10659.0 -3.5469581124551093 1
gene  1 25 57 2.8458546983759954 0 10664.0 2.8458546983759954 1
gene  1 29 57 -3.364143146446721 0 10668.0 -3.364143146446721 1
gene  1 33 57 3.7894229275862434 0 10672.0 3.7894229275862434 1
gene  1 34 57 -9.16876184866598 0 10673.0 -9.16876184866598 1
gene  1 35 57 -1.8805503410927042 0 10674.0 -1.8805503410927042 1
gene  1 36 57 -0.18519261178182345 0 10675.0 -0.18519261178182345 1
gene  1 40 57 -5.0088603119917945 0 10679.0 -5.0088603119917945 1
gene  1 42 57 0.4411894459712559 0 10681.0 0.4411894459712559 1
gene  1 47 57 3.045380308525414 0 10686.0 3.045380308525414 1
gene  1 51 57 5.9091022306330725 0 10690.0 5.9091022306330725 1
gene  1 52 57 -1.2246923415604796 0 10691.0 -1.2246923415604796 1
gene  1 56 57 5.2957971355312345 0 10695.0 5.2957971355312345 1
gene  1 58 57 1.5257202058559534 1 10697.0 1.5257202058559534 1
gene  1 60 57 0.003361113192564158 1 10699.0 0.003361113192564158 1
gene  1 171 57 -9.065629603060307 1 10810.0 -9.065629603060307 1
gene  1 174 57 5.5265631524804135 1 10813.0 5.5265631524804135 1
gene  1 177 57 2.0261011578599826 1 10816.0 2.0261011578599826 1
gene  1 178 57 2.4111393386040465 1 10817.0 2.4111393386040465 1
gene  1 179 57 -0.2548964383742903 1 10818.0 -0.2548964383742903 1
gene  1 180 57 -1.821075042359962 1 10819.0 -1.821075042359962 1
gene  1 183 57 -1.5146896960906766 1 10822.0 -1.5146896960906766 1
gene  1 184 57 -2.4244176246561198 1 10823.0 -2.4244176246561198 1
gene  1 185 57 3.2458009327387436 1 10824.0 3.2458009327387436 1
gene  1 186 57 2.7712045085641206 1 10825.0 2.7712045085641206 1
gene  1 187 57 4.132849407129124 1 10826.0 4.132849407129124 1
gene  1 188 57 -2.3133121854141017 1 10827.0 -2.3133121854141017 1
gene  1 189 57 3.914716026745136 1 10828.0 3.914716026745136 1
gene  1 2 58 2.453163823618361 0 10831.0 2.453163823618361 1
gene  1 6 58 4.030097422656308 0 10835.0 4.030097422656308 1
gene  1 7 58 -3.317164186940023 0 10836.0 -3.317164186940023 1
gene  1 9 58 4.534023390163005 0 10838.0 4.534023390163005 1
gene  1 11 58 4.361022418191064 0 10840.0 4.361022418191064 1
gene  1 12 58 2.104122359402076 0 10841.0 2.104122359402076 1
gene  1 14 58 -1.563666073130452 0 10843.0 -1.563666073130452 1
gene  1 16 58 0.5979828161411116 0 10845.0 0.5979828161411116 1
gene  1 17 58 -4.88563093210286 0 10846.0 -4.88563093210286 1
gene  1 21 58 -4.132686378226461 0 10850.0 -4.132686378226461 1
gene  1 23 58 0.30356649612798847 0 10852.0 0.30356649612798847 1
gene  1 24 58 -1.9709247145473525 0 10853.0 -1.9709247145473525 1
gene  1 26 58 -1.732318055774682 0 10855.0 -1.732318055774682 1
gene  1 27 58 2.2479666680594104 0 10856.0 2.2479666680594104 1
gene  1 29 58 -3.0211070960191133 0 10858.0 -3.0211070960191133 1
gene  1 31 58 8.05763700197231 0 10860.0 8.05763700197231 1
gene  1 34 58 6.417700403673246 0 10863.0 6.417700403673246 1
gene  1 35 58 0.08449857047918552 0 10864.0 0.08449857047918552 1
gene  1 38 58 2.6689409162370388 0 10867.0 2.6689409162370388 1
gene  1 39 58 0.0309044077233937 0 10868.0 0.0309044077233937 1
gene  1 40 58 -1.7107803008784095 0 10869.0 -1.7107803008784095 1
gene  1 43 58 -1.262994989392738 0 10872.0 -1.262994989392738 1
gene  1 44 58 -2.005578730370676 0 10873.0 -2.005578730370676 1
gene  1 48 58 3.454052048656816 0 10877.0 3.454052048656816 1
gene  1 52 58 -3.8092526016797947 0 10881.0 -3.8092526016797947 1
gene  1 54 58 0.9927528399484333 0 10883.0 0.9927528399484333 1
gene  1 55 58 0.4681839010322746 0 10884.0 0.4681839010322746 1
gene  1 60 58 -1.2866192998587627 1 10889.0 -1.2866192998587627 1
gene  1 171 58 6.377480383209403 1 11000.0 6.377480383209403 1
gene  1 173 58 -0.032233347158291625 1 11002.0 -0.032233347158291625 1
gene  1 175 58 5.733136654843845 1 11004.0 5.733136654843845 1
gene  1 177 58 -5.779346537980555 1 11006.0 -5.779346537980555 1
gene  1 178 58 -3.216428259801501 1 11007.0 -3.216428259801501 1
gene  1 179 58 -2.592433305239169 1 11008.0 -2.592433305239169 1
gene  1 180 58 -0.767458111055127 1 11009.0 -0.767458111055127 1
gene  1 181 58 -3.3626389235181 1 11010.0 -3.3626389235181 1
gene  1 182 58 7.002340862707939 1 11011.0 7.002340862707939 1
gene  1 183 58 -4.092281567718729 1 11012.0 -4.092281567718729 1
gene  1 184 58 -3.265985452859131 1 11013.0 -3.265985452859131 1
gene  1 185 58 -0.01502764331759976 1 11014.0 -0.01502764331759976 1
gene  1 186 58 1.7597843223312881 1 11015.0 1.7597843223312881 1
gene  1 187 58 -2.098376403956359 1 11016.0 -2.098376403956359 1
gene  1 188 58 3.324969587343843 1 11017.0 3.324969587343843 1
gene  1 1 59 -3.613115815454481 0 11020.0 -3.613115815454481 1
gene  1 2 59 -0.7253793763640789 0 11021.0 -0.7253793763640789 1
gene  1 3 59 5.950711835502933 0 11022.0 5.950711835502933 1
gene  1 4 59 0.9969875803427214 0 11023.0 0.9969875803427214 1
gene  1 5 59 4.082556379116429 0 11024.0 4.082556379116429 1
gene  1 7 59 1.4300855053848451 0 11026.0 1.4300855053848451 1
gene  1 9 59 -4.135867633341441 0 11028.0 -4.135867633341441 1
gene  1 11 59 1.834419288108846 0 11030.0 1.834419288108846 1
gene  1 12 59 1.6363761207841072 0 11031.0 1.6363761207841072 1
gene  1 15 59 -1.1898280647012052 0 11034.0 -1.1898280647012052 1
gene  1 16 59 -1.6325466629214502 0 11035.0 -1.6325466629214502 1
gene  1 20 59 -2.1706601711961104 0 11039.0 -2.1706601711961104 1
gene  1 21 59 0.8905235653037724 0 11040.0 0.8905235653037724 1
gene  1 22 59 1.2496306921732947 0 11041.0 1.2496306921732947 1
gene  1 27 59 -5.169196218470299 0 11046.0 -5.169196218470299 1
gene  1 28 59 5.58823019155151 0 11047.0 5.58823019155151 1
gene  1 29 59 1.7675260259350303 0 11048.0 1.7675260259350303 1
gene  1 30 59 3.770620699711407 0 11049.0 3.770620699711407 1
gene  1 31 59 -0.9155558036287145 0 11050.0 -0.9155558036287145 1
gene  1 34 59 -3.721741988508228 0 11053.0 -3.721741988508228 1
gene  1 35 59 0.20658889430285898 0 11054.0 0.20658889430285898 1
gene  1 36 59 -6.0305681331426655 0 11055.0 -6.0305681331426655 1
gene  1 37 59 0.8249228822515327 0 11056.0 0.8249228822515327 1
gene  1 41 59 1.2993058721156014 0 11060.0 1.2993058721156014 1
gene  1 42 59 -2.507276270405918 0 11061.0 -2.507276270405918 1
gene  1 43 59 -0.8734621089172732 0 11062.0 -0.8734621089172732 1
gene  1 44 59 -3.1688109465707086 0 11063.0 -3.1688109465707086 1
gene  1 49 59 -5.227453801933115 0 11068.0 -5.227453801933115 1
gene  1 55 59 4.195731292034003 0 11074.0 4.195731292034003 1
gene  1 57 59 -5.792449347998238 0 11076.0 -5.792449347998238 1
gene  1 58 59 -2.289875018673179 0 11077.0 -2.289875018673179 1
gene  1 59 59 -6.071725705880247 1 11078.0 -6.071725705880247 1
gene  1 171 59 1.7469526985912236 1 11190.0 1.7469526985912236 1
gene  1 172 59 2.667030460422942 1 11191.0 2.667030460422942 1
gene  1 173 59 5.803182882875491 1 11192.0 5.803182882875491 1
gene  1 175 59 0.6671669772761051 1 11194.0 0.6671669772761051 1
gene  1 177 59 7.793313386348139 1 11196.0 7.793313386348139 1
gene  1 178 59 -0.46112144821953094 1 11197.0 -0.46112144821953094 1
gene  1 179 59 0.6020482348011046 1 11198.0 0.6020482348011046 1
gene  1 180 59 0.3705007423109997 1 11199.0 0.3705007423109997 1
gene  1 181 59 4.176160735438144 1 11200.0 4.176160735438144 1
gene  1 184 59 -2.4391043367600957 1 11203.0 -2.4391043367600957 1
gene  1 185 59 6.982652974287333 1 11204.0 6.982652974287333 1
gene  1 186 59 -2.829663472915877 1 11205.0 -2.829663472915877 1
gene  1 190 59 5.132899820274364 1 11209.0 5.132899820274364 1
gene  1 4 60 1.0925148005461012 0 11213.0 1.0925148005461012 1
gene  1 7 60 1.2312952383581477 0 11216.0 1.2312952383581477 1
gene  1 14 60 2.8048216923840448 0 11223.0 2.8048216923840448 1
gene  1 15 60 -0.04916660830558783 0 11224.0 -0.04916660830558783 1
gene  1 18 60 0.7756770366346897 0 11227.0 0.7756770366346897 1
gene  1 19 60 0.7588930659552467 0 11228.0 0.7588930659552467 1
gene  1 22 60 -3.7120799867801884 0 11231.0 -3.7120799867801884 1
gene  1 23 60 3.395215155158077 0 11232.0 3.395215155158077 1
gene  1 25 60 -1.3548418076042277 0 11234.0 -1.3548418076042277 1
gene  1 26 60 -3.793660801864366 0 11235.0 -3.793660801864366 1
gene  1 27 60 1.7153868107336225 0 11236.0 1.7153868107336225 1
gene  1 29 60 0.5672453441693065 0 11238.0 0.5672453441693065 1
gene  1 32 60 -8.798335843159675 0 11241.0 -8.798335843159675 1
gene  1 33 60 4.830933635515981 0 11242.0 4.830933635515981 1
gene  1 34 60 0.6406989829701193 0 11243.0 0.6406989829701193 1
gene  1 35 60 2.028664066031133 0 11244.0 2.028664066031133 1
gene  1 36 60 1.740103273436839 0 11245.0 1.740103273436839 1
gene  1 38 60 -5.252520594219488 0 11247.0 -5.252520594219488 1
gene  1 41 60 3.4900352662295275 0 11250.0 3.4900352662295275 1
gene  1 43 60 7.051838623679364 0 11252.0 7.051838623679364 1
gene  1 46 60 2.16991842719041 0 11255.0 2.16991842719041 1
gene  1 48 60 1.1579447928981723 0 11257.0 1.1579447928981723 1
gene  1 50 60 4.970287134392528 0 11259.0 4.970287134392528 1
gene  1 54 60 -8.055855063155786 0 11263.0 -8.055855063155786 1
gene  1 55 60 -2.0857421131240423 0 11264.0 -2.0857421131240423 1
gene  1 57 60 1.3335528115702064 0 11266.0 1.3335528115702064 1
gene  1 58 60 3.283251776340912 0 11267.0 3.283251776340912 1
gene  1 173 60 4.6196674221715766 1 11382.0 4.6196674221715766 1
gene  1 175 60 -1.3995011293524293 1 11384.0 -1.3995011293524293 1
gene  1 180 60 2.964735982699726 1 11389.0 2.964735982699726 1
gene  1 181 60 1.6635636978394062 1 11390.0 1.6635636978394062 1
gene  1 184 60 -7.543813656167746 1 11393.0 -7.543813656167746 1
gene  1 185 60 -1.7793410148176847 1 11394.0 -1.7793410148176847 1
gene  1 186 60 -4.451857226896408 1 11395.0 -4.451857226896408 1
gene  1 187 60 0.5169336468603926 1 11396.0 0.5169336468603926 1
gene  1 189 60 0.06651363613017902 1 11398.0 0.06651363613017902 1
gene  1 1 171 1.088478761156753 0 32300.0 1.088478761156753 1
gene  1 2 171 0.28897224810521205 0 32301.0 0.28897224810521205 1
gene  1 3 171 2.563379489350885 0 32302.0 2.563379489350885 1
gene  1 4 171 0.49379431852497635 0 32303.0 0.49379431852497635 1
gene  1 6 171 1.5281245501869238 0 32305.0 1.5281245501869238 1
gene  1 7 171 0.2847200342676002 0 32306.0 0.2847200342676002 1
gene  1 8 171 3.2423308141872367 0 32307.0 3.2423308141872367 1
gene  1 15 171 1.3659240435810172 0 32314.0 1.3659240435810172 1
gene  1 17 171 1.309899697765207 0 32316.0 1.309899697765207 1
gene  1 23 171 -4.2550276103517195 0 32322.0 -4.2550276103517195 1
gene  1 25 171 -0.4688389896728098 0 32324.0 -0.4688389896728098 1
gene  1 26 171 -4.624790169056276 0 32325.0 -4.624790169056276 1
gene  1 27 171 1.3869640783940598 0 32326.0 1.3869640783940598 1
gene  1 29 171 0.22431453294579481 0 32328.0 0.22431453294579481 1
gene  1 30 171 -0.06295729037524866 0 32329.0 -0.06295729037524866 1
gene  1 33 171 4.241118682072244 0 32332.0 4.241118682072244 1
gene  1 34 171 -1.4686185649927834 0 32333.0 -1.4686185649927834 1
gene  1 36 171 -1.5195177532624744 0 32335.0 -1.5195177532624744 1
gene  1 43 171 2.384814376758187 0 32342.0 2.384814376758187 1
gene  1 45 171 -4.584833859187285 0 32344.0 -4.584833859187285 1
gene  1 47 171 -6.028746048505262 0 32346.0 -6.028746048505262 1
gene  1 52 171 0.6958409585021567 0 32351.0 0.6958409585021567 1
gene  1 54 171 3.497384828008233 0 32353.0 3.497384828008233 1
gene  1 56 171 -0.31926800787552084 0 32355.0 -0.31926800787552084 1
gene  1 57 171 -2.8464048004556157 0 32356.0 -2.8464048004556157 1
gene  1 58 171 2.0875851720164604 0 32357.0 2.0875851720164604 1
gene  1 59 171 2.1861367899510302 0 32358.0 2.1861367899510302 1
gene  1 173 171 4.0572062086424765 1 32472.0 4.0572062086424765 1
gene  1 175 171 0.19242096846671097 1 32474.0 0.19242096846671097 1
gene  1 176 171 1.3588633951763263 1 32475.0 1.3588633951763263 1
gene  1 177 171 0.407967737596162 1 32476.0 0.407967737596162 1
gene  1 180 171 -0.8606717452269625 1 32479.0 -0.8606717452269625 1
gene  1 181 171 -1.3632163634774668 1 32480.0 -1.3632163634774668 1
gene  1 183 171 -7.736387686880732 1 32482.0 -7.736387686880732 1
gene  1 184 171 6.335309947454096 1 32483.0 6.335309947454096 1
gene  1 185 171 7.783339634771492 1 32484.0 7.783339634771492 1
gene  1 187 171 -7.945247515406639 1 32486.0 -7.945247515406639 1
gene  1 188 171 4.40816199611738 1 32487.0 4.40816199611738 1
gene  1 3 172 2.7704320048252136 0 32492.0 2.7704320048252136 1
gene  1 5 172 4.831161712807252 0 32494.0 4.831161712807252 1
gene  1 7 172 -0.30586914100588225 0 32496.0 -0.30586914100588225 1
gene  1 9 172 -2.448241283894654 0 32498.0 -2.448241283894654 1
gene  1 10 172 -1.957610285367866 0 32499.0 -1.957610285367866 1
gene  1 12 172 1.4863069733575491 0 32501.0 1.4863069733575491 1
gene  1 13 172 4.076676349531404 0 32502.0 4.076676349531404 1
gene  1 17 172 -3.5064202955402357 0 32506.0 -3.5064202955402357 1
gene  1 19 172 1.258711649139376 0 32508.0 1.258711649139376 1
gene  1 22 172 -3.5024986821819004 0 32511.0 -3.5024986821819004 1
gene  1 23 172 -1.7190927697648148 0 32512.0 -1.7190927697648148 1
gene  1 24 172 -5.694223350621341 0 32513.0 -5.694223350621341 1
gene  1 25 172 -6.246956680797773 0 32514.0 -6.246956680797773 1
gene  1 27 172 6.60296807329563 0 32516.0 6.60296807329563 1
gene  1 29 172 2.238785344091114 0 32518.0 2.238785344091114 1
gene  1 33 172 -6.065336107033268 0 32522.0 -6.065336107033268 1
gene  1 35 172 4.579087970151443 0 32524.0 4.579087970151443 1
gene  1 36 172 3.8246458625367477 0 32525.0 3.8246458625367477 1
gene  1 42 172 -2.2866286701243723 0 32531.0 -2.2866286701243723 1
gene  1 45 172 0.49299066144480475 0 32534.0 0.49299066144480475 1
gene  1 46 172 -2.0612232390380827 0 32535.0 -2.0612232390380827 1
gene  1 47 172 0.5821060706000829 0 32536.0 0.5821060706000829 1
gene  1 51 172 -3.4891478906354023 0 32540.0 -3.4891478906354023 1
gene  1 52 172 1.7310384696547674 0 32541.0 1.7310384696547674 1
gene  1 54 172 -3.1285831216575284 0 32543.0 -3.1285831216575284 1
gene  1 56 172 -2.3604680309526986 0 32545.0 -2.3604680309526986 1
gene  1 57 172 3.6492867756584593 0 32546.0 3.6492867756584593 1
gene  1 58 172 5.173720210319486 0 32547.0 5.173720210319486 1
gene  1 171 172 -1.666456955127559 0 32660.0 -1.666456955127559 1
gene  1 172 172 0.6085658448149317 1 32661.0 0.6085658448149317 1
gene  1 173 172 -1.0842850507182389 1 32662.0 -1.0842850507182389 1
gene  1 174 172 -4.228013253792048 1 32663.0 -4.228013253792048 1
gene  1 181 172 -5.646894530407523 1 32670.0 -5.646894530407523 1
gene  1 182 172 -0.6191081240823845 1 32671.0 -0.6191081240823845 1
gene  1 185 172 5.765542370269774 1 32674.0 5.765542370269774 1
gene  1 187 172 -0.5622179579498626 1 32676.0 -0.5622179579498626 1
gene  1 189 172 1.7597468179202063 1 32678.0 1.7597468179202063 1
gene  1 2 173 2.1861845444858634 0 32681.0 2.1861845444858634 1
gene  1 4 173 -1.774380154158948 0 32683.0 -1.774380154158948 1
gene  1 5 173 0.9753480402377637 0 32684.0 0.9753480402377637 1
gene  1 8 173 3.666745587786453 0 32687.0 3.666745587786453 1
gene  1 11 173 1.4854035238572338 0 32690.0 1.4854035238572338 1
gene  1 13 173 2.8488246160659445 0 32692.0 2.8488246160659445 1
gene  1 14 173 -6.509451685932209 0 32693.0 -6.509451685932209 1
gene  1 17 173 -0.38898659971594973 0 32696.0 -0.38898659971594973 1
gene  1 18 173 0.9208679329131495 0 32697.0 0.9208679329131495 1
gene  1 19 173 0.16900142924757655 0 32698.0 0.16900142924757655 1
gene  1 22 173 1.4485385752187878 0 32701.0 1.4485385752187878 1
gene  1 23 173 -0.35113192882957933 0 32702.0 -0.35113192882957933 1
gene  1 25 173 -0.26837435477604565 0 32704.0 -0.26837435477604565 1
gene  1 26 173 -0.6164831701311879 0 32705.0 -0.6164831701311879 1
gene  1 27 173 -1.1468705245115163 0 32706.0 -1.1468705245115163 1
gene  1 34 173 1.541619083318123 0 32713.0 1.541619083318123 1
gene  1 36 173 4.311546114142789 0 32715.0 4.311546114142789 1
gene  1 37 173 0.22494960634918126 0 32716.0 0.22494960634918126 1
gene  1 38 173 0.9323051864586047 0 32717.0 0.9323051864586047 1
gene  1 39 173 -7.563744497893891 0 32718.0 -7.563744497893891 1
gene  1 40 173 1.4974490673208296 0 32719.0 1.4974490673208296 1
gene  1 41 173 0.16039820261962567 0 32720.0 0.16039820261962567 1
gene  1 44 173 1.4511304030299632 0 32723.0 1.4511304030299632 1
gene  1 46 173 0.5095300368674887 0 32725.0 0.5095300368674887 1
gene  1 48 173 -1.8371529493850152 0 32727.0 -1.8371529493850152 1
gene  1 50 173 -4.628844142583455 0 32729.0 -4.628844142583455 1
gene  1 51 173 -1.9102017945596317 0 32730.0 -1.9102017945596317 1
gene  1 52 173 4.427072176276406 0 32731.0 4.427072176276406 1
gene  1 53 173 2.026860347788751 0 32732.0 2.026860347788751 1
gene  1 55 173 0.36943724025777946 0 32734.0 0.36943724025777946 1
gene  1 57 173 -0.8512388570357101 0 32736.0 -0.8512388570357101 1
gene  1 59 173 -1.2391917187998485 0 32738.0 -1.2391917187998485 1
gene  1 171 173 -2.679364800294903 0 32850.0 -2.679364800294903 1
gene  1 174 173 1.0282868070606055 1 32853.0 1.0282868070606055 1
gene  1 177 173 -6.343900072632998 1 32856.0 -6.343900072632998 1
gene  1 179 173 -3.5512737793105327 1 32858.0 -3.5512737793105327 1
gene  1 182 173 -0.10211310121193967 1 32861.0 -0.10211310121193967 1
gene  1 183 173 5.1577018051534145 1 32862.0 5.1577018051534145 1
gene  1 185 173 -0.5779509786362883 1 32864.0 -0.5779509786362883 1
gene  1 187 173 -3.679618771893062 1 32866.0 -3.679618771893062 1
gene  1 189 173 -1.4770830638768766 1 32868.0 -1.4770830638768766 1
gene  1 190 173 3.605686770442648 1 32869.0 3.605686770442648 1
gene  1 3 174 1.5079033269389823 0 32872.0 1.5079033269389823 1
gene  1 4 174 -2.3504616542105055 0 32873.0 -2.3504616542105055 1
gene  1 7 174 2.7701493287733046 0 32876.0 2.7701493287733046 1
gene  1 10 174 -0.05608309323153793 0 32879.0 -0.05608309323153793 1
gene  1 12 174 -2.5338122756661017 0 32881.0 -2.5338122756661017 1
gene  1 13 174 -1.0252702724125036 0 32882.0 -1.0252702724125036 1
gene  1 16 174 4.194251709960357 0 32885.0 4.194251709960357 1
gene  1 18 174 -0.6432881966436882 0 32887.0 -0.6432881966436882 1
gene  1 19 174 0.7083150841303 0 32888.0 0.7083150841303 1
gene  1 20 174 -2.4051187687401203 0 32889.0 -2.4051187687401203 1
gene  1 28 174 3.1298501807408075 0 32897.0 3.1298501807408075 1
gene  1 30 174 -0.6376819971952266 0 32899.0 -0.6376819971952266 1
gene  1 31 174 8.479953350851828 0 32900.0 8.479953350851828 1
gene  1 37 174 5.869444768304726 0 32906.0 5.869444768304726 1
gene  1 38 174 -0.2755887624010944 0 32907.0 -0.2755887624010944 1
gene  1 40 174 0.5845841793558754 0 32909.0 0.5845841793558754 1
gene  1 42 174 0.35341894346736524 0 32911.0 0.35341894346736524 1
gene  1 44 174 -6.731076779263974 0 32913.0 -6.731076779263974 1
gene  1 45 174 -2.3112338817490135 0 32914.0 -2.3112338817490135 1
gene  1 46 174 2.510366907627919 0 32915.0 2.510366907627919 1
gene  1 50 174 0.039214506796622084 0 32919.0 0.039214506796622084 1
gene  1 51 174 7.933535218680632 0 32920.0 7.933535218680632 1
gene  1 54 174 3.1666954367326445 0 32923.0 3.1666954367326445 1
gene  1 55 174 1.8007729093349938 0 32924.0 1.8007729093349938 1
gene  1 56 174 -3.555718303839985 0 32925.0 -3.555718303839985 1
gene  1 171 174 5.389102555422516 0 33040.0 5.389102555422516 1
gene  1 172 174 -1.5103024807743957 0 33041.0 -1.5103024807743957 1
gene  1 173 174 -2.0949767905917756 0 33042.0 -2.0949767905917756 1
gene  1 174 174 -1.3002772764561938 1 33043.0 -1.3002772764561938 1
gene  1 175 174 3.742899843069009 1 33044.0 3.742899843069009 1
gene  1 176 174 1.1208495616016556 1 33045.0 1.1208495616016556 1
gene  1 179 174 -1.9597145387829968 1 33048.0 -1.9597145387829968 1
gene  1 180 174 -0.7935808207627381 1 33049.0 -0.7935808207627381 1
gene  1 185 174 -2.283400487998068 1 33054.0 -2.283400487998068 1
gene  1 187 174 1.6651917774913378 1 33056.0 1.6651917774913378 1
gene  1 1 175 0.8470387738410287 0 33060.0 0.8470387738410287 1
gene  1 2 175 -1.184692877096282 0 33061.0 -1.184692877096282 1
gene  1 4 175 8.097632507227598 0 33063.0 8.097632507227598 1
gene  1 5 175 -4.266613375935304 0 33064.0 -4.266613375935304 1
gene  1 13 175 5.900369926804646 0 33072.0 5.900369926804646 1
gene  1 14 175 -0.7874664471632249 0 33073.0 -0.7874664471632249 1
gene  1 16 175 -2.1741965885620047 0 33075.0 -2.1741965885620047 1
gene  1 18 175 0.5121178330284331 0 33077.0 0.5121178330284331 1
gene  1 20 175 -1.992489061988202 0 33079.0 -1.992489061988202 1
gene  1 21 175 -0.6638172787182268 0 33080.0 -0.6638172787182268 1
gene  1 22 175 -2.4674183634741143 0 33081.0 -2.4674183634741143 1
gene  1 23 175 3.8280292460994496 0 33082.0 3.8280292460994496 1
gene  1 25 175 4.492120640251686 0 33084.0 4.492120640251686 1
gene  1 27 175 4.975506363416452 0 33086.0 4.975506363416452 1
gene  1 32 175 -2.5828327887392977 0 33091.0 -2.5828327887392977 1
gene  1 38 175 -0.2215326633500596 0 33097.0 -0.2215326633500596 1
gene  1 39 175 -0.9405724893334242 0 33098.0 -0.9405724893334242 1
gene  1 40 175 3.680436151015053 0 33099.0 3.680436151015053 1
gene  1 41 175 -5.281240665932882 0 33100.0 -5.281240665932882 1
gene  1 42 175 3.61399266169609 0 33101.0 3.61399266169609 1
gene  1 43 175 2.2470035176778183 0 33102.0 2.2470035176778183 1
gene  1 44 175 -4.694457061946572 0 33103.0 -4.694457061946572 1
gene  1 48 175 2.4015027308756225 0 33107.0 2.4015027308756225 1
gene  1 50 175 0.3482677969374973 0 33109.0 0.3482677969374973 1
gene  1 54 175 3.3800186724921515 0 33113.0 3.3800186724921515 1
gene  1 56 175 -0.5247596570909986 0 33115.0 -0.5247596570909986 1
gene  1 57 175 0.31014062314916774 0 33116.0 0.31014062314916774 1
gene  1 59 175 1.2775890635500347 0 33118.0 1.2775890635500347 1
gene  1 60 175 4.5987922754072175 0 33119.0 4.5987922754072175 1
gene  1 171 175 4.088471651756504 0 33230.0 4.088471651756504 1
gene  1 172 175 1.039194764360944 0 33231.0 1.039194764360944 1
gene  1 173 175 -4.8939168792948635 0 33232.0 -4.8939168792948635 1
gene  1 175 175 6.216027179133869 1 33234.0 6.216027179133869 1
gene  1 176 175 -4.779502445609403 1 33235.0 -4.779502445609403 1
gene  1 179 175 -0.6984530042673698 1 33238.0 -0.6984530042673698 1
gene  1 181 175 -0.7509634805043788 1 33240.0 -0.7509634805043788 1
gene  1 182 175 1.1868555447109839 1 33241.0 1.1868555447109839 1
gene  1 183 175 -6.834249835223342 1 33242.0 -6.834249835223342 1
gene  1 186 175 -5.991473554797669 1 33245.0 -5.991473554797669 1
gene  1 190 175 0.7606952038916449 1 33249.0 0.7606952038916449 1
gene  1 3 176 1.1269626252727125 0 33252.0 1.1269626252727125 1
gene  1 4 176 0.35203834869024886 0 33253.0 0.35203834869024886 1
gene  1 5 176 4.336908854139607 0 33254.0 4.336908854139607 1
gene  1 6 176 -3.304623046897395 0 33255.0 -3.304623046897395 1
gene  1 10 176 1.3143722264379263 0 33259.0 1.3143722264379263 1
gene  1 12 176 0.7513430677640347 0 33261.0 0.7513430677640347 1
gene  1 13 176 0.13600289025286305 0 33262.0 0.13600289025286305 1
gene  1 15 176 2.330348424529736 0 33264.0 2.330348424529736 1
gene  1 16 176 1.1141669060742576 0 33265.0 1.1141669060742576 1
gene  1 17 176 3.4266362487120685 0 33266.0 3.4266362487120685 1
gene  1 18 176 3.4148005823153484 0 33267.0 3.4148005823153484 1
gene  1 19 176 -7.168397663092877 0 33268.0 -7.168397663092877 1
gene  1 22 176 -4.024706764798364 0 33271.0 -4.024706764798364 1
gene  1 23 176 3.7244374991407 0 33272.0 3.7244374991407 1
gene  1 24 176 2.0993706773765917 0 33273.0 2.0993706773765917 1
gene  1 25 176 -1.7184736526993565 0 33274.0 -1.7184736526993565 1
gene  1 26 176 -2.133685267695017 0 33275.0 -2.133685267695017 1
gene  1 27 176 0.4124453895023753 0 33276.0 0.4124453895023753 1
gene  1 28 176 -3.5069864417217116 0 33277.0 -3.5069864417217116 1
gene  1 29 176 4.401918433553977 0 33278.0 4.401918433553977 1
gene  1 31 176 0.8399695174021118 0 33280.0 0.8399695174021118 1
gene  1 32 176 -5.325984380261929 0 33281.0 -5.325984380261929 1
gene  1 33 176 6.459063536185546 0 33282.0 6.459063536185546 1
gene  1 35 176 -1.4791310121316883 0 33284.0 -1.4791310121316883 1
gene  1 36 176 2.9428872651766618 0 33285.0 2.9428872651766618 1
gene  1 39 176 2.1416727565242155 0 33288.0 2.1416727565242155 1
gene  1 42 176 4.353907025488974 0 33291.0 4.353907025488974 1
gene  1 47 176 2.761181089505579 0 33296.0 2.761181089505579 1
gene  1 48 176 -1.3866994721748993 0 33297.0 -1.3866994721748993 1
gene  1 52 176 2.4888271309194203 0 33301.0 2.4888271309194203 1
gene  1 56 176 -1.2188338278807196 0 33305.0 -1.2188338278807196 1
gene  1 57 176 -2.582605523086383 0 33306.0 -2.582605523086383 1
gene  1 171 176 2.3556891887273905 0 33420.0 2.3556891887273905 1
gene  1 172 176 6.228234543018008 0 33421.0 6.228234543018008 1
gene  1 176 176 7.33895818398431 1 33425.0 7.33895818398431 1
gene  1 177 176 -3.765566282781905 1 33426.0 -3.765566282781905 1
gene  1 179 176 -6.441444585542291 1 33428.0 -6.441444585542291 1
gene  1 180 176 -2.0204431349296073 1 33429.0 -2.0204431349296073 1
gene  1 183 176 1.6151078633186127 1 33432.0 1.6151078633186127 1
gene  1 186 176 -0.5961468584129918 1 33435.0 -0.5961468584129918 1
gene  1 187 176 2.197744290219681 1 33436.0 2.197744290219681 1
gene  1 190 176 5.84212556874198 1 33439.0 5.84212556874198 1
gene  1 1 177 -4.6708724919676055 0 33440.0 -4.6708724919676055 1
gene  1 4 177 3.6961313882272497 0 33443.0 3.6961313882272497 1
gene  1 6 177 -2.5929455308251836 0 33445.0 -2.5929455308251836 1
gene  1 7 177 3.499233361147506 0 33446.0 3.499233361147506 1
gene  1 9 177 5.789130883624993 0 33448.0 5.789130883624993 1
gene  1 11 177 -1.007665334715362 0 33450.0 -1.007665334715362 1
gene  1 12 177 4.728876646873165 0 33451.0 4.728876646873165 1
gene  1 14 177 -2.1646136796330686 0 33453.0 -2.1646136796330686 1
gene  1 16 177 1.346248994068068 0 33455.0 1.346248994068068 1
gene  1 17 177 -4.380880363882582 0 33456.0 -4.380880363882582 1
gene  1 18 177 -1.6522050851620511 0 33457.0 -1.6522050851620511 1
gene  1 20 177 -0.290800917225986 0 33459.0 -0.290800917225986 1
gene  1 22 177 2.8451382298993035 0 33461.0 2.8451382298993035 1
gene  1 25 177 0.9151619939898183 0 33464.0 0.9151619939898183 1
gene  1 26 177 4.464981355062629 0 33465.0 4.464981355062629 1
gene  1 30 177 -2.6887694006914167 0 33469.0 -2.6887694006914167 1
gene  1 31 177 4.35935851324573 0 33470.0 4.35935851324573 1
gene  1 34 177 -6.267460485303274 0 33473.0 -6.267460485303274 1
gene  1 36 177 -0.7810177593853449 0 33475.0 -0.7810177593853449 1
gene  1 37 177 -1.1848634534602178 0 33476.0 -1.1848634534602178 1
gene  1 38 177 4.343835385121498 0 33477.0 4.343835385121498 1
gene  1 43 177 -1.3760703002347503 0 33482.0 -1.3760703002347503 1
gene  1 46 177 1.9845593088647233 0 33485.0 1.9845593088647233 1
gene  1 47 177 2.3413322445208102 0 33486.0 2.3413322445208102 1
gene  1 50 177 1.7127306083390375 0 33489.0 1.7127306083390375 1
gene  1 51 177 0.4190610399757786 0 33490.0 0.4190610399757786 1
gene  1 52 177 2.884479275855253 0 33491.0 2.884479275855253 1
gene  1 54 177 1.9195789984808018 0 33493.0 1.9195789984808018 1
gene  1 55 177 -0.9393791694403697 0 33494.0 -0.9393791694403697 1
gene  1 59 177 -2.5767492020123184 0 33498.0 -2.5767492020123184 1
gene  1 172 177 -2.5437955270463943 0 33611.0 -2.5437955270463943 1
gene  1 173 177 -0.7748243905313325 0 33612.0 -0.7748243905313325 1
gene  1 175 177 1.6072678865019803 0 33614.0 1.6072678865019803 1
gene  1 177 177 2.5596430815550937 1 33616.0 2.5596430815550937 1
gene  1 178 177 3.6132803732222114 1 33617.0 3.6132803732222114 1
gene  1 182 177 -5.6351451259907535 1 33621.0 -5.6351451259907535 1
gene  1 183 177 4.024974168221085 1 33622.0 4.024974168221085 1
gene  1 184 177 4.462248588317277 1 33623.0 4.462248588317277 1
gene  1 185 177 -2.7384140645569683 1 33624.0 -2.7384140645569683 1
gene  1 186 177 4.819701041784062 1 33625.0 4.819701041784062 1
gene  1 187 177 1.599955975827181 1 33626.0 1.599955975827181 1
gene  1 188 177 0.4256217234752573 1 33627.0 0.4256217234752573 1
gene  1 189 177 -1.0934289965266955 1 33628.0 -1.0934289965266955 1
gene  1 2 178 -2.8389607932660184 0 33631.0 -2.8389607932660184 1
gene  1 3 178 -0.2923365431001526 0 33632.0 -0.2923365431001526 1
gene  1 4 178 4.386451614226848 0 33633.0 4.386451614226848 1
gene  1 5 178 1.3305599060796323 0 33634.0 1.3305599060796323 1
gene  1 7 178 5.392088082958297 0 33636.0 5.392088082958297 1
gene  1 8 178 -0.8945393502194876 0 33637.0 -0.8945393502194876 1
gene  1 14 178 1.6294121650009357 0 33643.0 1.6294121650009357 1
gene  1 15 178 5.0553657525107285 0 33644.0 5.0553657525107285 1
gene  1 18 178 0.6515253628747035 0 33647.0 0.6515253628747035 1
gene  1 20 178 -0.20887639961468563 0 33649.0 -0.20887639961468563 1
gene  1 22 178 -3.4373360803480857 0 33651.0 -3.4373360803480857 1
gene  1 23 178 3.8192117155124583 0 33652.0 3.8192117155124583 1
gene  1 31 178 -5.401550812565747 0 33660.0 -5.401550812565747 1
gene  1 35 178 -3.394077805471842 0 33664.0 -3.394077805471842 1
gene  1 37 178 -0.7026912878664717 0 33666.0 -0.7026912878664717 1
gene  1 38 178 0.841470352479117 0 33667.0 0.841470352479117 1
gene  1 39 178 -2.390153901868604 0 33668.0 -2.390153901868604 1
gene  1 40 178 2.2063410448542022 0 33669.0 2.2063410448542022 1
gene  1 42 178 4.13341392616327 0 33671.0 4.13341392616327 1
gene  1 43 178 -4.222166504479034 0 33672.0 -4.222166504479034 1
gene  1 44 178 -5.135895371550634 0 33673.0 -5.135895371550634 1
gene  1 47 178 2.480592651662188 0 33676.0 2.480592651662188 1
gene  1 49 178 -2.979253095011641 0 33678.0 -2.979253095011641 1
gene  1 50 178 -3.0168622096252125 0 33679.0 -3.0168622096252125 1
gene  1 51 178 -1.6704068484746462 0 33680.0 -1.6704068484746462 1
gene  1 52 178 1.3475167466124396 0 33681.0 1.3475167466124396 1
gene  1 55 178 3.593298957564979 0 33684.0 3.593298957564979 1
gene  1 56 178 3.181104383449143 0 33685.0 3.181104383449143 1
gene  1 58 178 2.578164359909368 0 33687.0 2.578164359909368 1
gene  1 173 178 -0.5599669400180463 0 33802.0 -0.5599669400180463 1
gene  1 176 178 -7.92622230056624 0 33805.0 -7.92622230056624 1
gene  1 180 178 -3.4281470928497804 1 33809.0 -3.4281470928497804 1
gene  1 184 178 -2.269779235403189 1 33813.0 -2.269779235403189 1
gene  1 185 178 -3.552214541351022 1 33814.0 -3.552214541351022 1
gene  1 186 178 5.057745968097971 1 33815.0 5.057745968097971 1
gene  1 188 178 -7.507749881216274 1 33817.0 -7.507749881216274 1
gene  1 2 179 3.652322787451386 0 33821.0 3.652322787451386 1
gene  1 4 179 -4.124467654038199 0 33823.0 -4.124467654038199 1
gene  1 7 179 1.925782833962179 0 33826.0 1.925782833962179 1
gene  1 8 179 -2.3794052052010333 0 33827.0 -2.3794052052010333 1
gene  1 10 179 -0.44508726364151313 0 33829.0 -0.44508726364151313 1
gene  1 11 179 -2.562086490965154 0 33830.0 -2.562086490965154 1
gene  1 17 179 -1.8555422773125931 0 33836.0 -1.8555422773125931 1
gene  1 18 179 6.720957050816264 0 33837.0 6.720957050816264 1
gene  1 19 179 -2.14212042370185 0 33838.0 -2.14212042370185 1
gene  1 20 179 -3.5525176658712856 0 33839.0 -3.5525176658712856 1
gene  1 27 179 2.7037060373715565 0 33846.0 2.7037060373715565 1
gene  1 29 179 -1.6228317754479122 0 33848.0 -1.6228317754479122 1
gene  1 30 179 -4.1645284955062944 0 33849.0 -4.1645284955062944 1
gene  1 31 179 2.198893241079052 0 33850.0 2.198893241079052 1
gene  1 32 179 -3.908805185280514 0 33851.0 -3.908805185280514 1
gene  1 33 179 0.7214175903232188 0 33852.0 0.7214175903232188 1
gene  1 34 179 -1.168876144593836 0 33853.0 -1.168876144593836 1
gene  1 35 179 0.7719748120500087 0 33854.0 0.7719748120500087 1
gene  1 36 179 -2.2310771506575904 0 33855.0 -2.2310771506575904 1
gene  1 37 179 -4.890936169797558 0 33856.0 -4.890936169797558 1
gene  1 41 179 -5.4968277224268824 0 33860.0 -5.4968277224268824 1
gene  1 44 179 -1.2323946290699976 0 33863.0 -1.2323946290699976 1
gene  1 45 179 2.0998633564141693 0 33864.0 2.0998633564141693 1
gene  1 46 179 -1.1081317179634138 0 33865.0 -1.1081317179634138 1
gene  1 49 179 1.998643597707861 0 33868.0 1.998643597707861 1
gene  1 51 179 -2.6780013724365777 0 33870.0 -2.6780013724365777 1
gene  1 52 179 -4.584313145542542 0 33871.0 -4.584313145542542 1
gene  1 54 179 -0.7412839015417414 0 33873.0 -0.7412839015417414 1
gene  1 55 179 -3.540419109392193 0 33874.0 -3.540419109392193 1
gene  1 58 179 -0.04637050270831283 0 33877.0 -0.04637050270831283 1
gene  1 59 179 5.184632753792128 0 33878.0 5.184632753792128 1
gene  1 173 179 -1.1783372004827863 0 33992.0 -1.1783372004827863 1
gene  1 174 179 5.898740421504201 0 33993.0 5.898740421504201 1
gene  1 175 179 -0.6083878084965535 0 33994.0 -0.6083878084965535 1
gene  1 179 179 -0.345471888496411 1 33998.0 -0.345471888496411 1
gene  1 182 179 0.24550046506726864 1 34001.0 0.24550046506726864 1
gene  1 183 179 -4.443980140443025 1 34002.0 -4.443980140443025 1
gene  1 184 179 -3.4914560798280707 1 34003.0 -3.4914560798280707 1
gene  1 185 179 1.8173045512553072 1 34004.0 1.8173045512553072 1
gene  1 186 179 1.378212199688342 1 34005.0 1.378212199688342 1
gene  1 187 179 -4.633911921819469 1 34006.0 -4.633911921819469 1
gene  1 188 179 -3.4563613085434977 1 34007.0 -3.4563613085434977 1
gene  1 189 179 3.0985392658446096 1 34008.0 3.0985392658446096 1
gene  1 190 179 3.859959060183532 1 34009.0 3.859959060183532 1
gene  1 1 180 -6.985020295787692 0 34010.0 -6.985020295787692 1
gene  1 2 180 -7.680880003537451 0 34011.0 -7.680880003537451 1
gene  1 4 180 1.2124660887102237 0 34013.0 1.2124660887102237 1
gene  1 5 180 -2.7968564774315565 0 34014.0 -2.7968564774315565 1
gene  1 7 180 -3.9832555813903343 0 34016.0 -3.9832555813903343 1
gene  1 8 180 2.8993720695935723 0 34017.0 2.8993720695935723 1
gene  1 9 180 7.619123293240092 0 34018.0 7.619123293240092 1
gene  1 16 180 -2.734428762996706 0 34025.0 -2.734428762996706 1
gene  1 20 180 2.5222072959649564 0 34029.0 2.5222072959649564 1
gene  1 21 180 3.0979063834516647 0 34030.0 3.0979063834516647 1
gene  1 23 180 0.6915789255005753 0 34032.0 0.6915789255005753 1
gene  1 25 180 -0.25398964204301167 0 34034.0 -0.25398964204301167 1
gene  1 26 180 -3.5683787550445722 0 34035.0 -3.5683787550445722 1
gene  1 28 180 1.207214832394824 0 34037.0 1.207214832394824 1
gene  1 29 180 -1.9297400405747056 0 34038.0 -1.9297400405747056 1
gene  1 30 180 -6.296888202161253 0 34039.0 -6.296888202161253 1
gene  1 33 180 -1.1621883969257822 0 34042.0 -1.1621883969257822 1
gene  1 34 180 3.638894184021217 0 34043.0 3.638894184021217 1
gene  1 40 180 1.4101655305113416 0 34049.0 1.4101655305113416 1
gene  1 42 180 0.8576756015972591 0 34051.0 0.8576756015972591 1
gene  1 43 180 -6.851992717306079 0 34052.0 -6.851992717306079 1
gene  1 48 180 1.1825331304068738 0 34057.0 1.1825331304068738 1
gene  1 49 180 -3.2099847293728203 0 34058.0 -3.2099847293728203 1
gene  1 50 180 -2.7017058147992046 0 34059.0 -2.7017058147992046 1
gene  1 52 180 0.7602596041710542 0 34061.0 0.7602596041710542 1
gene  1 57 180 -0.3282413726958464 0 34066.0 -0.3282413726958464 1
gene  1 58 180 2.2281278420203083 0 34067.0 2.2281278420203083 1
gene  1 59 180 2.364524639223119 0 34068.0 2.364524639223119 1
gene  1 60 180 5.501031856147124 0 34069.0 5.501031856147124 1
gene  1 171 180 -2.930642312622602 0 34180.0 -2.930642312622602 1
gene  1 175 180 3.569357261834867 0 34184.0 3.569357261834867 1
gene  1 176 180 -3.790160575579632 0 34185.0 -3.790160575579632 1
gene  1 178 180 1.7989636094412782 0 34187.0 1.7989636094412782 1
gene  1 180 180 3.89706690881734 1 34189.0 3.89706690881734 1
gene  1 182 180 7.7077644556363545 1 34191.0 7.7077644556363545 1
gene  1 183 180 1.9944077498139985 1 34192.0 1.9944077498139985 1
gene  1 184 180 -3.8641018773607776 1 34193.0 -3.8641018773607776 1
gene  1 185 180 1.1051158814409692 1 34194.0 1.1051158814409692 1
gene  1 186 180 -1.000023399068942 1 34195.0 -1.000023399068942 1
gene  1 189 180 6.389086803793612 1 34198.0 6.389086803793612 1
gene  1 190 180 0.2803235221263345 1 34199.0 0.2803235221263345 1
gene  1 1 181 -1.68448821463605 0 34200.0 -1.68448821463605 1
gene  1 2 181 0.17231570909780192 0 34201.0 0.17231570909780192 1
gene  1 4 181 -2.762799642492546 0 34203.0 -2.762799642492546 1
gene  1 5 181 7.2178122653259855 0 34204.0 7.2178122653259855 1
gene  1 7 181 -1.0363414556980675 0 34206.0 -1.0363414556980675 1
gene  1 9 181 -0.586179752909044 0 34208.0 -0.586179752909044 1
gene  1 10 181 3.6711221578576456 0 34209.0 3.6711221578576456 1
gene  1 11 181 -5.668270720883877 0 34210.0 -5.668270720883877 1
gene  1 13 181 4.472996858179021 0 34212.0 4.472996858179021 1
gene  1 14 181 -4.815549525402726 0 34213.0 -4.815549525402726 1
gene  1 17 181 -1.0986534035851028 0 34216.0 -1.0986534035851028 1
gene  1 18 181 -4.4944241235583 0 34217.0 -4.4944241235583 1
gene  1 19 181 0.8838065520179572 0 34218.0 0.8838065520179572 1
gene  1 21 181 -1.2597567300002859 0 34220.0 -1.2597567300002859 1
gene  1 22 181 -0.2999193385249713 0 34221.0 -0.2999193385249713 1
gene  1 24 181 1.7532314452085238 0 34223.0 1.7532314452085238 1
gene  1 25 181 -0.3918260817657313 0 34224.0 -0.3918260817657313 1
gene  1 27 181 1.3870236650035057 0 34226.0 1.3870236650035057 1
gene  1 29 181 -3.724154878976756 0 34228.0 -3.724154878976756 1
gene  1 30 181 -2.084359141262379 0 34229.0 -2.084359141262379 1
gene  1 34 181 -4.537406451084709 0 34233.0 -4.537406451084709 1
gene  1 35 181 4.710108481477587 0 34234.0 4.710108481477587 1
gene  1 37 181 -5.799013908879348 0 34236.0 -5.799013908879348 1
gene  1 40 181 -2.452498762988026 0 34239.0 -2.452498762988026 1
gene  1 41 181 4.398313040553959 0 34240.0 4.398313040553959 1
gene  1 42 181 0.9389376243947746 0 34241.0 0.9389376243947746 1
gene  1 44 181 1.7539826304761792 0 34243.0 1.7539826304761792 1
gene  1 45 181 -4.066396506528876 0 34244.0 -4.066396506528876 1
gene  1 47 181 -1.7500396134735317 0 34246.0 -1.7500396134735317 1
gene  1 50 181 -0.8290276375981538 0 34249.0 -0.8290276375981538 1
gene  1 53 181 -5.871637869593783 0 34252.0 -5.871637869593783 1
gene  1 54 181 -2.6544859387905637 0 34253.0 -2.6544859387905637 1
gene  1 55 181 -3.4015384537279725 0 34254.0 -3.4015384537279725 1
gene  1 57 181 -4.213354673663311 0 34256.0 -4.213354673663311 1
gene  1 59 181 0.0043009046271853535 0 34258.0 0.0043009046271853535 1
gene  1 60 181 1.802789270133685 0 34259.0 1.802789270133685 1
gene  1 171 181 -1.1114809525944647 0 34370.0 -1.1114809525944647 1
gene  1 174 181 -3.9558797856335204 0 34373.0 -3.9558797856335204 1
gene  1 176 181 -1.459692080221115 0 34375.0 -1.459692080221115 1
gene  1 177 181 3.743504970441337 0 34376.0 3.743504970441337 1
gene  1 178 181 0.739913194817762 0 34377.0 0.739913194817762 1
gene  1 179 181 -5.760166145963029 0 34378.0 -5.760166145963029 1
gene  1 180 181 2.222451171268777 0 34379.0 2.222451171268777 1
gene  1 182 181 -2.5836261566008476 1 34381.0 -2.5836261566008476 1
gene  1 184 181 -4.277488238448708 1 34383.0 -4.277488238448708 1
gene  1 185 181 4.288761920210636 1 34384.0 4.288761920210636 1
gene  1 186 181 2.796843047062894 1 34385.0 2.796843047062894 1
gene  1 187 181 -9.34049232861383 1 34386.0 -9.34049232861383 1
gene  1 190 181 -2.9280640456263747 1 34389.0 -2.9280640456263747 1
gene  1 1 182 -6.238521296576749 0 34390.0 -6.238521296576749 1
gene  1 2 182 -3.5416877269862033 0 34391.0 -3.5416877269862033 1
gene  1 7 182 -3.793422524578432 0 34396.0 -3.793422524578432 1
gene  1 8 182 0.10903430897828648 0 34397.0 0.10903430897828648 1
gene  1 11 182 0.17054960726287294 0 34400.0 0.17054960726287294 1
gene  1 14 182 4.173512237021566 0 34403.0 4.173512237021566 1
gene  1 16 182 2.2984235801204393 0 34405.0 2.2984235801204393 1
gene  1 17 182 -5.197749831807445 0 34406.0 -5.197749831807445 1
gene  1 19 182 -3.9345647835189594 0 34408.0 -3.9345647835189594 1
gene  1 20 182 -2.615782023974722 0 34409.0 -2.615782023974722 1
gene  1 23 182 -3.527329224300111 0 34412.0 -3.527329224300111 1
gene  1 27 182 -2.786904011180952 0 34416.0 -2.786904011180952 1
gene  1 29 182 -4.926608359842075 0 34418.0 -4.926608359842075 1
gene  1 30 182 -3.7748690701110297 0 34419.0 -3.7748690701110297 1
gene  1 31 182 -0.7886353901361915 0 34420.0 -0.7886353901361915 1
gene  1 33 182 1.3704979945900495 0 34422.0 1.3704979945900495 1
gene  1 35 182 1.0252517995169819 0 34424.0 1.0252517995169819 1
gene  1 39 182 0.7796889556554745 0 34428.0 0.7796889556554745 1
gene  1 40 182 0.5480641198004912 0 34429.0 0.5480641198004912 1
gene  1 43 182 -0.9671952453003794 0 34432.0 -0.9671952453003794 1
gene  1 44 182 2.0614098189767844 0 34433.0 2.0614098189767844 1
gene  1 45 182 -2.420989707225447 0 34434.0 -2.420989707225447 1
gene  1 46 182 0.08748498602955679 0 34435.0 0.08748498602955679 1
gene  1 48 182 0.17354336141996268 0 34437.0 0.17354336141996268 1
gene  1 49 182 -2.7881580201586504 0 34438.0 -2.7881580201586504 1
gene  1 53 182 7.707995021925202 0 34442.0 7.707995021925202 1
gene  1 54 182 2.0017583316903584 0 34443.0 2.0017583316903584 1
gene  1 55 182 -9.1208977228519 0 34444.0 -9.1208977228519 1
gene  1 57 182 4.247983300339989 0 34446.0 4.247983300339989 1
gene  1 58 182 2.959008604596839 0 34447.0 2.959008604596839 1
gene  1 59 182 -2.8085933300208192 0 34448.0 -2.8085933300208192 1
gene  1 173 182 5.260097877207769 0 34562.0 5.260097877207769 1
gene  1 177 182 -1.9652557658531526 0 34566.0 -1.9652557658531526 1
gene  1 178 182 1.5995360158294925 0 34567.0 1.5995360158294925 1
gene  1 179 182 8.152965230678145 0 34568.0 8.152965230678145 1
gene  1 181 182 2.0193057498885536 0 34570.0 2.0193057498885536 1
gene  1 183 182 1.2896699392206274 1 34572.0 1.2896699392206274 1
gene  1 186 182 4.645360843446413 1 34575.0 4.645360843446413 1
gene  1 188 182 1.1263111324894033 1 34577.0 1.1263111324894033 1
gene  1 1 183 -1.5091465339519021 0 34580.0 -1.5091465339519021 1
gene  1 2 183 1.6294461645320606 0 34581.0 1.6294461645320606 1
gene  1 3 183 -3.7171094920528684 0 34582.0 -3.7171094920528684 1
gene  1 9 183 2.8066964539673114 0 34588.0 2.8066964539673114 1
gene  1 12 183 -0.41020933466183385 0 34591.0 -0.41020933466183385 1
gene  1 13 183 3.6342751294190636 0 34592.0 3.6342751294190636 1
gene  1 14 183 1.3458589072165912 0 34593.0 1.3458589072165912 1
gene  1 15 183 -0.6670904653514599 0 34594.0 -0.6670904653514599 1
gene  1 16 183 -0.7601312847563105 0 34595.0 -0.7601312847563105 1
gene  1 19 183 2.383701283268512 0 34598.0 2.383701283268512 1
gene  1 22 183 6.559343924393778 0 34601.0 6.559343924393778 1
gene  1 23 183 0.9417387732162854 0 34602.0 0.9417387732162854 1
gene  1 24 183 -5.171637706220227 0 34603.0 -5.171637706220227 1
gene  1 28 183 -1.9872655372945247 0 34607.0 -1.9872655372945247 1
gene  1 31 183 2.730934815267135 0 34610.0 2.730934815267135 1
gene  1 32 183 -4.76610207512112 0 34611.0 -4.76610207512112 1
gene  1 33 183 2.1857513762080814 0 34612.0 2.1857513762080814 1
gene  1 44 183 -0.7480994809377706 0 34623.0 -0.7480994809377706 1
gene  1 46 183 -5.068859997774517 0 34625.0 -5.068859997774517 1
gene  1 47 183 -0.5180734288858628 0 34626.0 -0.5180734288858628 1
gene  1 48 183 6.046916384242051 0 34627.0 6.046916384242051 1
gene  1 51 183 -5.709743377868678 0 34630.0 -5.709743377868678 1
gene  1 55 183 3.913320431034592 0 34634.0 3.913320431034592 1
gene  1 56 183 0.7211334146531576 0 34635.0 0.7211334146531576 1
gene  1 58 183 -1.3827814821715783 0 34637.0 -1.3827814821715783 1
gene  1 60 183 -4.144620316816583 0 34639.0 -4.144620316816583 1
gene  1 174 183 -1.2703489835825037 0 34753.0 -1.2703489835825037 1
gene  1 175 183 -1.4471321804704531 0 34754.0 -1.4471321804704531 1
gene  1 178 183 0.47784801723885384 0 34757.0 0.47784801723885384 1
gene  1 182 183 -1.7176854800634809 0 34761.0 -1.7176854800634809 1
gene  1 184 183 -1.6001575437970517 1 34763.0 -1.6001575437970517 1
gene  1 185 183 7.3305947209795805 1 34764.0 7.3305947209795805 1
gene  1 186 183 1.913321740449077 1 34765.0 1.913321740449077 1
gene  1 187 183 4.551207468332054 1 34766.0 4.551207468332054 1
gene  1 1 184 2.555539991238172 0 34770.0 2.555539991238172 1
gene  1 3 184 4.519417121259659 0 34772.0 4.519417121259659 1
gene  1 4 184 0.6033542794031999 0 34773.0 0.6033542794031999 1
gene  1 6 184 3.1552846700383217 0 34775.0 3.1552846700383217 1
gene  1 7 184 -2.3332697821770654 0 34776.0 -2.3332697821770654 1
gene  1 8 184 0.12098308833808169 0 34777.0 0.12098308833808169 1
gene  1 10 184 -4.477749892094839 0 34779.0 -4.477749892094839 1
gene  1 11 184 -0.4270646902027423 0 34780.0 -0.4270646902027423 1
gene  1 12 184 3.3104211414346283 0 34781.0 3.3104211414346283 1
gene  1 14 184 -2.807547214646933 0 34783.0 -2.807547214646933 1
gene  1 17 184 -3.8818759465624018 0 34786.0 -3.8818759465624018 1
gene  1 19 184 -0.6286179274886173 0 34788.0 -0.6286179274886173 1
gene  1 20 184 3.1372012575760597 0 34789.0 3.1372012575760597 1
gene  1 23 184 -2.1985214347699973 0 34792.0 -2.1985214347699973 1
gene  1 24 184 -1.5548199338045492 0 34793.0 -1.5548199338045492 1
gene  1 26 184 1.8421162807358336 0 34795.0 1.8421162807358336 1
gene  1 27 184 -0.0893644771624339 0 34796.0 -0.0893644771624339 1
gene  1 28 184 -2.479261219277811 0 34797.0 -2.479261219277811 1
gene  1 33 184 3.262773073670428 0 34802.0 3.262773073670428 1
gene  1 38 184 -0.23449804683204017 0 34807.0 -0.23449804683204017 1
gene  1 39 184 -5.4251226040938825 0 34808.0 -5.4251226040938825 1
gene  1 40 184 1.7799496589442367 0 34809.0 1.7799496589442367 1
gene  1 48 184 2.600020293446395 0 34817.0 2.600020293446395 1
gene  1 49 184 2.2970326797953717 0 34818.0 2.2970326797953717 1
gene  1 51 184 0.8624043437890788 0 34820.0 0.8624043437890788 1
gene  1 54 184 6.161455601328728 0 34823.0 6.161455601328728 1
gene  1 58 184 -0.5959159043431669 0 34827.0 -0.5959159043431669 1
gene  1 60 184 -1.1835935990821143 0 34829.0 -1.1835935990821143 1
gene  1 173 184 2.4501992974883517 0 34942.0 2.4501992974883517 1
gene  1 174 184 2.287569573552222 0 34943.0 2.287569573552222 1
gene  1 176 184 -2.3212845183297057 0 34945.0 -2.3212845183297057 1
gene  1 177 184 -4.604891918684109 0 34946.0 -4.604891918684109 1
gene  1 179 184 1.509375473626514 0 34948.0 1.509375473626514 1
gene  1 180 184 1.4632272026346642 0 34949.0 1.4632272026346642 1
gene  1 182 184 0.5673578257099031 0 34951.0 0.5673578257099031 1
gene  1 183 184 0.28129968374383596 0 34952.0 0.28129968374383596 1
gene  1 185 184 3.3013220007094555 1 34954.0 3.3013220007094555 1
gene  1 187 184 0.1124098477055947 1 34956.0 0.1124098477055947 1
gene  1 189 184 2.2502361126164563 1 34958.0 2.2502361126164563 1
gene  1 190 184 -0.9885754453476656 1 34959.0 -0.9885754453476656 1
gene  1 3 185 -0.050756982728161704 0 34962.0 -0.050756982728161704 1
gene  1 4 185 -0.488223733198039 0 34963.0 -0.488223733198039 1
gene  1 7 185 -5.318148851326399 0 34966.0 -5.318148851326399 1
gene  1 9 185 -4.572104351107617 0 34968.0 -4.572104351107617 1
gene  1 12 185 -2.481079375840121 0 34971.0 -2.481079375840121 1
gene  1 13 185 -1.2825683393455727 0 34972.0 -1.2825683393455727 1
gene  1 14 185 3.7647493194828296 0 34973.0 3.7647493194828296 1
gene  1 16 185 2.159270834504797 0 34975.0 2.159270834504797 1
gene  1 17 185 -1.6160109434876215 0 34976.0 -1.6160109434876215 1
gene  1 18 185 -2.037754110573296 0 34977.0 -2.037754110573296 1
gene  1 20 185 0.5631734073756887 0 34979.0 0.5631734073756887 1
gene  1 21 185 0.3836417363810305 0 34980.0 0.3836417363810305 1
gene  1 23 185 0.234900892163112 0 34982.0 0.234900892163112 1
gene  1 25 185 1.5135654803346748 0 34984.0 1.5135654803346748 1
gene  1 27 185 1.2742818191349852 0 34986.0 1.2742818191349852 1
gene  1 30 185 0.6017923494866271 0 34989.0 0.6017923494866271 1
gene  1 35 185 3.36395087835417 0 34994.0 3.36395087835417 1
gene  1 45 185 -2.5459436442723784 0 35004.0 -2.5459436442723784 1
gene  1 48 185 0.3062472112136676 0 35007.0 0.3062472112136676 1
gene  1 49 185 -4.149549909246396 0 35008.0 -4.149549909246396 1
gene  1 50 185 -2.096101208517368 0 35009.0 -2.096101208517368 1
gene  1 52 185 2.2397496697852786 0 35011.0 2.2397496697852786 1
gene  1 58 185 2.1842951405155393 0 35017.0 2.1842951405155393 1
gene  1 173 185 0.18593738050923947 0 35132.0 0.18593738050923947 1
gene  1 175 185 -1.7833373305530134 0 35134.0 -1.7833373305530134 1
gene  1 177 185 -0.9173824278127526 0 35136.0 -0.9173824278127526 1
gene  1 178 185 0.4970878717040662 0 35137.0 0.4970878717040662 1
gene  1 180 185 -0.7715520691703588 0 35139.0 -0.7715520691703588 1
gene  1 183 185 -0.6046710754623827 0 35142.0 -0.6046710754623827 1
gene  1 184 185 -0.14367583932553135 0 35143.0 -0.14367583932553135 1
gene  1 185 185 -1.5689836498717749 1 35144.0 -1.5689836498717749 1
gene  1 187 185 -1.1248761812235344 1 35146.0 -1.1248761812235344 1
gene  1 188 185 -0.08188005380466801 1 35147.0 -0.08188005380466801 1
gene  1 189 185 -6.224795195209832 1 35148.0 -6.224795195209832 1
gene  1 190 185 -0.3308853288154755 1 35149.0 -0.3308853288154755 1
gene  1 2 186 0.10280600800488235 0 35151.0 0.10280600800488235 1
gene  1 3 186 2.5431255422532346 0 35152.0 2.5431255422532346 1
gene  1 6 186 1.671323507165312 0 35155.0 1.671323507165312 1
gene  1 7 186 1.9954058108154158 0 35156.0 1.9954058108154158 1
gene  1 9 186 0.7690658679171509 0 35158.0 0.7690658679171509 1
gene  1 11 186 2.5496384025544865 0 35160.0 2.5496384025544865 1
gene  1 12 186 -1.306377948277306 0 35161.0 -1.306377948277306 1
gene  1 15 186 -0.20363686923734448 0 35164.0 -0.20363686923734448 1
gene  1 20 186 0.14860580754098973 0 35169.0 0.14860580754098973 1
gene  1 22 186 -2.8733618387564066 0 35171.0 -2.8733618387564066 1
gene  1 23 186 2.548907509526648 0 35172.0 2.548907509526648 1
gene  1 26 186 1.3104208390060919 0 35175.0 1.3104208390060919 1
gene  1 29 186 -3.0308306150117077 0 35178.0 -3.0308306150117077 1
gene  1 30 186 1.8627130647853511 0 35179.0 1.8627130647853511 1
gene  1 34 186 -2.1499654448984495 0 35183.0 -2.1499654448984495 1
gene  1 35 186 1.8485628646123349 0 35184.0 1.8485628646123349 1
gene  1 36 186 2.2917229818074687 0 35185.0 2.2917229818074687 1
gene  1 40 186 3.381810163688793 0 35189.0 3.381810163688793 1
gene  1 42 186 -2.427483118394312 0 35191.0 -2.427483118394312 1
gene  1 46 186 -0.6146624075214755 0 35195.0 -0.6146624075214755 1
gene  1 47 186 1.4390524749053082 0 35196.0 1.4390524749053082 1
gene  1 48 186 -0.17936363492213667 0 35197.0 -0.17936363492213667 1
gene  1 49 186 -1.2593209674562584 0 35198.0 -1.2593209674562584 1
gene  1 51 186 -0.9746832508374692 0 35200.0 -0.9746832508374692 1
gene  1 52 186 1.3476531615145362 0 35201.0 1.3476531615145362 1
gene  1 53 186 -0.8862760359810924 0 35202.0 -0.8862760359810924 1
gene  1 54 186 -2.5459579520879942 0 35203.0 -2.5459579520879942 1
gene  1 55 186 -0.6465675358362432 0 35204.0 -0.6465675358362432 1
gene  1 56 186 -0.057487754777865996 0 35205.0 -0.057487754777865996 1
gene  1 58 186 5.076923780108361 0 35207.0 5.076923780108361 1
gene  1 59 186 3.6978340386869473 0 35208.0 3.6978340386869473 1
gene  1 60 186 0.5933221974279762 0 35209.0 0.5933221974279762 1
gene  1 171 186 -1.1529844101662747 0 35320.0 -1.1529844101662747 1
gene  1 172 186 -0.7378052569373224 0 35321.0 -0.7378052569373224 1
gene  1 173 186 -0.037528670724739754 0 35322.0 -0.037528670724739754 1
gene  1 178 186 -2.8502758459000646 0 35327.0 -2.8502758459000646 1
gene  1 180 186 -2.2367548083458697 0 35329.0 -2.2367548083458697 1
gene  1 183 186 -6.547277140990447 0 35332.0 -6.547277140990447 1
gene  1 184 186 0.7891194365786741 0 35333.0 0.7891194365786741 1
gene  1 187 186 2.080672991167119 1 35336.0 2.080672991167119 1
gene  1 188 186 0.08756978543300217 1 35337.0 0.08756978543300217 1
gene  1 189 186 2.7348222934111237 1 35338.0 2.7348222934111237 1
gene  1 190 186 -2.8077420842987326 1 35339.0 -2.8077420842987326 1
gene  1 1 187 -0.7354380040078761 0 35340.0 -0.7354380040078761 1
gene  1 4 187 -0.1016669396441593 0 35343.0 -0.1016669396441593 1
gene  1 5 187 -0.9510479704341925 0 35344.0 -0.9510479704341925 1
gene  1 6 187 -1.4763118517305158 0 35345.0 -1.4763118517305158 1
gene  1 7 187 0.005456426982827889 0 35346.0 0.005456426982827889 1
gene  1 8 187 -0.007276095224166834 0 35347.0 -0.007276095224166834 1
gene  1 12 187 2.724931423195617 0 35351.0 2.724931423195617 1
gene  1 17 187 -2.8604448063749466 0 35356.0 -2.8604448063749466 1
gene  1 23 187 0.4729631061502869 0 35362.0 0.4729631061502869 1
gene  1 27 187 0.8849477654508958 0 35366.0 0.8849477654508958 1
gene  1 29 187 -0.06457303163182893 0 35368.0 -0.06457303163182893 1
gene  1 31 187 4.71483398642464 0 35370.0 4.71483398642464 1
gene  1 34 187 -1.391285801232955 0 35373.0 -1.391285801232955 1
gene  1 36 187 0.1951293824483663 0 35375.0 0.1951293824483663 1
gene  1 37 187 1.6840931173728375 0 35376.0 1.6840931173728375 1
gene  1 42 187 0.8098937369389074 0 35381.0 0.8098937369389074 1
gene  1 44 187 3.69942490135229 0 35383.0 3.69942490135229 1
gene  1 45 187 -0.7911755182308922 0 35384.0 -0.7911755182308922 1
gene  1 48 187 -1.5152865805637852 0 35387.0 -1.5152865805637852 1
gene  1 49 187 2.143686591044522 0 35388.0 2.143686591044522 1
gene  1 54 187 1.7043273318646166 0 35393.0 1.7043273318646166 1
gene  1 55 187 -1.1194256015864308 0 35394.0 -1.1194256015864308 1
gene  1 56 187 -2.6996303584184975 0 35395.0 -2.6996303584184975 1
gene  1 59 187 1.143506623224339 0 35398.0 1.143506623224339 1
gene  1 60 187 -3.52811967272258 0 35399.0 -3.52811967272258 1
gene  1 173 187 1.7160215473496199 0 35512.0 1.7160215473496199 1
gene  1 174 187 3.472614805756777 0 35513.0 3.472614805756777 1
gene  1 176 187 0.9495535131773527 0 35515.0 0.9495535131773527 1
gene  1 179 187 0.979203512858934 0 35518.0 0.979203512858934 1
gene  1 180 187 -1.1471245866675552 0 35519.0 -1.1471245866675552 1
gene  1 181 187 0.2884098929932195 0 35520.0 0.2884098929932195 1
gene  1 182 187 2.7832311374571597 0 35521.0 2.7832311374571597 1
gene  1 184 187 2.8305268321394657 0 35523.0 2.8305268321394657 1
gene  1 186 187 0.6848532696981081 0 35525.0 0.6848532696981081 1
gene  1 189 187 3.127738591669086 1 35528.0 3.127738591669086 1
gene  1 190 187 -0.4617202328612563 1 35529.0 -0.4617202328612563 1
gene  1 1 188 -0.36385526699069726 0 35530.0 -0.36385526699069726 1
gene  1 2 188 -1.0786620342311277 0 35531.0 -1.0786620342311277 1
gene  1 4 188 -1.2392143008392762 0 35533.0 -1.2392143008392762 1
gene  1 5 188 -2.1681281961759518 0 35534.0 -2.1681281961759518 1
gene  1 7 188 -0.7252756333297841 0 35536.0 -0.7252756333297841 1
gene  1 10 188 1.9688774967092186 0 35539.0 1.9688774967092186 1
gene  1 13 188 2.5126674119199377 0 35542.0 2.5126674119199377 1
gene  1 14 188 2.794831663459897 0 35543.0 2.794831663459897 1
gene  1 18 188 3.5394449562075376 0 35547.0 3.5394449562075376 1
gene  1 19 188 1.0353093736709564 0 35548.0 1.0353093736709564 1
gene  1 21 188 -2.237211968597137 0 35550.0 -2.237211968597137 1
gene  1 22 188 0.09139853154032274 0 35551.0 0.09139853154032274 1
gene  1 23 188 -2.1277815872160906 0 35552.0 -2.1277815872160906 1
gene  1 24 188 0.22495812907042367 0 35553.0 0.22495812907042367 1
gene  1 27 188 2.2945593521811474 0 35556.0 2.2945593521811474 1
gene  1 29 188 4.613468023092957 0 35558.0 4.613468023092957 1
gene  1 30 188 1.2909403108648296 0 35559.0 1.2909403108648296 1
gene  1 31 188 0.06053032420034121 0 35560.0 0.06053032420034121 1
gene  1 32 188 0.3825353814208229 0 35561.0 0.3825353814208229 1
gene  1 33 188 -7.746171298845674 0 35562.0 -7.746171298845674 1
gene  1 34 188 0.9008031942079984 0 35563.0 0.9008031942079984 1
gene  1 38 188 3.7946315701771876 0 35567.0 3.7946315701771876 1
gene  1 40 188 0.6953280116778068 0 35569.0 0.6953280116778068 1
gene  1 47 188 1.2610062463931242 0 35576.0 1.2610062463931242 1
gene  1 49 188 -0.4365638044269544 0 35578.0 -0.4365638044269544 1
gene  1 51 188 2.342994544316325 0 35580.0 2.342994544316325 1
gene  1 52 188 -6.114636122328377 0 35581.0 -6.114636122328377 1
gene  1 54 188 -1.7318858749421286 0 35583.0 -1.7318858749421286 1
gene  1 55 188 -3.3646142814299775 0 35584.0 -3.3646142814299775 1
gene  1 56 188 2.403515471980212 0 35585.0 2.403515471980212 1
gene  1 57 188 -0.3791217407568166 0 35586.0 -0.3791217407568166 1
gene  1 60 188 0.4025476949915012 0 35589.0 0.4025476949915012 1
gene  1 171 188 0.05193181502101196 0 35700.0 0.05193181502101196 1
gene  1 172 188 -1.1963318673238437 0 35701.0 -1.1963318673238437 1
gene  1 174 188 -0.34088450153113664 0 35703.0 -0.34088450153113664 1
gene  1 175 188 -0.27266418646855284 0 35704.0 -0.27266418646855284 1
gene  1 178 188 2.343147801158492 0 35707.0 2.343147801158492 1
gene  1 180 188 0.763141470659157 0 35709.0 0.763141470659157 1
gene  1 183 188 2.018998824298462 0 35712.0 2.018998824298462 1
gene  1 185 188 -2.3237722028635472 0 35714.0 -2.3237722028635472 1
gene  1 187 188 -0.36148410681824295 0 35716.0 -0.36148410681824295 1
gene  1 188 188 -4.06990795640427 1 35717.0 -4.06990795640427 1
gene  1 190 188 -1.3000135435225388 1 35719.0 -1.3000135435225388 1
gene  1 6 189 -0.09859130233561442 0 35725.0 -0.09859130233561442 1
gene  1 8 189 -1.7187533632740453 0 35727.0 -1.7187533632740453 1
gene  1 11 189 6.981092726931223 0 35730.0 6.981092726931223 1
gene  1 12 189 -0.7786117896617643 0 35731.0 -0.7786117896617643 1
gene  1 13 189 -2.6666940649434414 0 35732.0 -2.6666940649434414 1
gene  1 14 189 4.439206924676213 0 35733.0 4.439206924676213 1
gene  1 15 189 -2.903705513501703 0 35734.0 -2.903705513501703 1
gene  1 22 189 -0.442456754923116 0 35741.0 -0.442456754923116 1
gene  1 23 189 0.6217817980766344 0 35742.0 0.6217817980766344 1
gene  1 27 189 -4.655621650408093 0 35746.0 -4.655621650408093 1
gene  1 28 189 -0.7943703959532571 0 35747.0 -0.7943703959532571 1
gene  1 29 189 -0.8042110893127702 0 35748.0 -0.8042110893127702 1
gene  1 32 189 -2.2122108222013654 0 35751.0 -2.2122108222013654 1
gene  1 33 189 0.15428983182300104 0 35752.0 0.15428983182300104 1
gene  1 34 189 -0.4112500085107823 0 35753.0 -0.4112500085107823 1
gene  1 36 189 -1.456052462528377 0 35755.0 -1.456052462528377 1
gene  1 40 189 6.448585079511396 0 35759.0 6.448585079511396 1
gene  1 43 189 -1.041665897293099 0 35762.0 -1.041665897293099 1
gene  1 46 189 -3.143793196627193 0 35765.0 -3.143793196627193 1
gene  1 47 189 3.416636412642342 0 35766.0 3.416636412642342 1
gene  1 48 189 4.420487549882968 0 35767.0 4.420487549882968 1
gene  1 50 189 1.891319127997381 0 35769.0 1.891319127997381 1
gene  1 51 189 0.18699975842291794 0 35770.0 0.18699975842291794 1
gene  1 52 189 -0.3842180859934746 0 35771.0 -0.3842180859934746 1
gene  1 54 189 -2.4506523689615944 0 35773.0 -2.4506523689615944 1
gene  1 55 189 -1.6689467069284478 0 35774.0 -1.6689467069284478 1
gene  1 57 189 -1.637059218343615 0 35776.0 -1.637059218343615 1
gene  1 58 189 -1.786651056408897 0 35777.0 -1.786651056408897 1
gene  1 60 189 2.471548865442178 0 35779.0 2.471548865442178 1
gene  1 173 189 -7.161251600178003 0 35892.0 -7.161251600178003 1
gene  1 174 189 3.820645371689872 0 35893.0 3.820645371689872 1
gene  1 177 189 -0.9821313794800932 0 35896.0 -0.9821313794800932 1
gene  1 179 189 2.2274979251152285 0 35898.0 2.2274979251152285 1
gene  1 180 189 -1.6516557956381648 0 35899.0 -1.6516557956381648 1
gene  1 181 189 2.718005497711467 0 35900.0 2.718005497711467 1
gene  1 183 189 1.120593803331292 0 35902.0 1.120593803331292 1
gene  1 186 189 0.36004771217203213 0 35905.0 0.36004771217203213 1
gene  1 2 190 1.1978895794000883 0 35911.0 1.1978895794000883 1
gene  1 3 190 0.7314710332428531 0 35912.0 0.7314710332428531 1
gene  1 5 190 1.6053425051711312 0 35914.0 1.6053425051711312 1
gene  1 7 190 -0.04865386640520408 0 35916.0 -0.04865386640520408 1
gene  1 10 190 -0.5339771295011677 0 35919.0 -0.5339771295011677 1
gene  1 11 190 0.988471333666867 0 35920.0 0.988471333666867 1
gene  1 12 190 -0.6827479878090164 0 35921.0 -0.6827479878090164 1
gene  1 19 190 -1.0522642371694362 0 35928.0 -1.0522642371694362 1
gene  1 22 190 1.6627912002862462 0 35931.0 1.6627912002862462 1
gene  1 23 190 -1.214858687847875 0 35932.0 -1.214858687847875 1
gene  1 28 190 1.0046592968796753 0 35937.0 1.0046592968796753 1
gene  1 29 190 -2.1841491372230832 0 35938.0 -2.1841491372230832 1
gene  1 30 190 4.231283235138293 0 35939.0 4.231283235138293 1
gene  1 31 190 -4.596194031000438 0 35940.0 -4.596194031000438 1
gene  1 32 190 0.6689550606285535 0 35941.0 0.6689550606285535 1
gene  1 33 190 0.25329182472477396 0 35942.0 0.25329182472477396 1
gene  1 34 190 -2.071075896952883 0 35943.0 -2.071075896952883 1
gene  1 36 190 -5.800108862533973 0 35945.0 -5.800108862533973 1
gene  1 40 190 -1.371740603330755 0 35949.0 -1.371740603330755 1
gene  1 41 190 0.13248418999251188 0 35950.0 0.13248418999251188 1
gene  1 42 190 1.0615300063747115 0 35951.0 1.0615300063747115 1
gene  1 43 190 0.6673087208240281 0 35952.0 0.6673087208240281 1
gene  1 44 190 -1.9562474050404703 0 35953.0 -1.9562474050404703 1
gene  1 45 190 1.6246066777496566 0 35954.0 1.6246066777496566 1
gene  1 46 190 -0.7134316134327889 0 35955.0 -0.7134316134327889 1
gene  1 47 190 2.180801502837626 0 35956.0 2.180801502837626 1
gene  1 48 190 -0.2868772165355925 0 35957.0 -0.2868772165355925 1
gene  1 55 190 1.1942689380081326 0 35964.0 1.1942689380081326 1
gene  1 56 190 -1.0998458708292154 0 35965.0 -1.0998458708292154 1
gene  1 58 190 0.6143156362960469 0 35967.0 0.6143156362960469 1
gene  1 60 190 3.945153261158453 0 35969.0 3.945153261158453 1
gene  1 171 190 -1.7121660579694935 0 36080.0 -1.7121660579694935 1
gene  1 175 190 -0.0733531942711858 0 36084.0 -0.0733531942711858 1
gene  1 177 190 0.38138575348827164 0 36086.0 0.38138575348827164 1
gene  1 180 190 0.3840396948195592 0 36089.0 0.3840396948195592 1
gene  1 181 190 -2.907693040766207 0 36090.0 -2.907693040766207 1
gene  1 186 190 0.22986200379837976 0 36095.0 0.22986200379837976 1
gene  1 188 190 0.19779196477986494 0 36097.0 0.19779196477986494 1
gene  1 44 195 -0.23723485724784743 0 36108.0 -0.23723485724784743 1
gene  1 195 181 0.3227388249627168 0 36109.0 0.3227388249627168 1
gene  1 32 172 1.4660996513626041 0 36174.0 1.4660996513626041 1
gene  1 179 176 -9.032637052561023 0 36804.0 -9.032637052561023 1
genomeend 20
